-0.0019427787,-0.00032493664,-0.0010656782,-0.00028523157,-0.0009081211,0.0015893554,0.0005014098,-0.0011383584,0.00030518335,-2.2857803e-05,-6.18533e-05,-0.00029889576,2.9338968e-05,-0.00035257425,-0.00029213226,-0.0015963425,-0.0014303594,5.0330214e-05,0.0021675427,0.0029716932,0.0024754885,0.0034334527,-0.0018349881,-0.0006104088,0.0012817767,-3.0170602e-05,-0.0011945394,-0.00023295169,-9.794092e-05,0.00011998428,-0.00056461326,-0.00084246794,-0.0002449917,-0.00011148521,-0.00039081665,-0.0006593331,-0.00029712677,0.00038728927,-3.645636e-05,-0.0017944931,-0.0016353523,-0.00075481995,-0.006581869,-0.008027403,-0.0053887945,-0.00035583272,-0.0003384069,-0.00050457154,-0.000113952396,-0.0005968556,-0.00056226493,-0.00070215017,-0.0004761761,-0.00048099723,0.00031313626,-0.0009889595,-0.00020881734,-0.0002488677,-0.0008087048,-0.0002450642,-0.0011534813,-0.0004969803,-0.0009445925,-0.0005328778,-0.0007383925,-0.00048767382,-0.0010368804,-0.00053488073,-0.000627685,-0.0005034204,-0.0007828652,-0.0004869951,-0.0012946395,0.0002848326,-0.0006855093,-0.0007510459,-0.0029324538,0.00089523627,-0.0017930472,0.00069355604,-0.0019252577,-0.00060339144,-0.00032667312,-0.00015692103,-0.00079601945,-0.00092093076,-0.0012256752,-0.0011441336,-0.00091027375,-0.0017308191,-0.0005291715,0.00031558296,0.00038024105,-0.0006537334,5.982379e-05,0.00013086453,0.0013114592,0.0008539592,0.00023082302,-0.0013465858,-0.0007983482,7.953226e-06,0.00054130383,0.0008203312,6.712736e-05,0.0024714966,0.00059429917,-0.0008190772,-0.0010092568,-0.0006547856,-0.00012690836,-0.0015840472,-0.0015930145,-0.0013026462,0.0002514724,-0.0042550326,0.0026342578,-0.0014275996,0.00014101114,-0.00050884375,0.0019711978,-0.0011990294,-0.0004893791,-0.000852292,-0.0006931726,-0.0008988928,-4.482862e-06,-0.00011435897,9.5037634e-05,-0.00010109436,-7.694881e-05,8.181755e-05,0.00036303652,-0.0003397255,3.6760423e-05,-0.00048085945,-0.000905694,-0.00013438097,-0.0012527116,-0.00046402006,-7.641845e-05,0.00029601858,0.0012957057,0.0009475196,8.853399e-05,-5.2056235e-05,-0.00028673175,5.2530344e-05,0.0007404686,-7.513664e-05,7.044384e-05,-4.3698066e-05,0.00045722674,-0.0006472789,-0.0037791752,-0.0012747153,-0.0031453816,-0.0052513885,-0.002122066,-0.003319627,-0.0049982555,-0.0026955975,0.00034495845,-9.960179e-05,0.0012068606,0.0005251989,0.00036295262,-4.7762856e-05,-0.0025000558,0.0016494105,0.0015528573,0.0009444707,5.9155325e-05,-0.0005134318,0.0021499181,-0.0009393105,-0.0008564007,0.00095648307,-0.0010894868,-0.0020039252,-0.0009246645,0.0009966707,-0.00018337948,-0.00035321194,0.0003702889,-7.764212e-05,0.0005747891,0.00028551847,-0.00014664764,0.00086766155,0.0007598762,0.000925406,0.00030691302,-0.00014432301,0.00043919502,1.3872006e-05,-5.4374796e-05,0.00078521564,-0.0008531246,0.0017483198,-0.0006635377,-0.000465588,0.00084395363,0.00072292774,0.0012370679,0.0005941909,0.0014612654,0.0011152416,0.0009821466,0.0013079562,0.0009555403,0.00075806247,0.0016600146,0.0009281713,0.0013245326,0.0012570036,-0.00060209114,-0.0005973041,0.00013146839,-0.00029063792,0.00041458933,0.001107385,-0.00012306357,-0.0010499941,-0.00063385285,-0.001813862,-0.00030915684,-0.0023704986,-0.004879247,-0.0013092577,-0.00026524015,-0.000211538,-0.00048505282,-3.6170793e-05,-0.001135553,0.0017174416,0.0022254488,-0.0007163387,-0.0019038543,-0.00080686476,-0.0031863668,-0.008428065,-0.0036723532,-0.0017999059,-0.0062364955,-0.0053325053,-0.006111523,-0.0025619033,-0.005101429,-0.00093793025,0.0019310979,0.020001877,-0.0029379965,-0.0019587108,0.00020389287,-0.0008711817,-9.831378e-05,-2.0944168e-05,-0.0021809542,-0.0020566606,0.0029989851,0.0011310886,0.0015245941,-5.7090343e-05,-0.00058315985,0.0003650335,-2.5098789e-06,-0.0002083873,0.00026522425,7.178255e-05,0.0012164373,0.0023324983,-0.0035476026,-0.00053419085,0.0018310372,-0.0020657983,0.0032570981,0.002162178,-0.0004317261,0.00030645804,0.000944927,-0.0012126729,0.0010908238,0.0001604347,-0.0009604415,0.0029738315,-0.0030558254,-0.00035792004,0.0018996825,-0.002923362,0.0010470769,-0.00026571617,0.0011141244,-0.0014340304,0.0008990806,1.1537398e-05,0.00024982952,-9.31574e-05,0.0014293441,0.00022169041,0.0044979174,0.0057261707,0.00048263205,0.0009460206,-0.0008743333,-0.0015467562,-0.0019486016,-0.0034825834,0.00092493225,0.0038912864,0.0035969724,-0.0017609994,-0.0014452637,-0.0036203398,0.0020305817,-0.0025909264,0.01883251,-6.1166764e-05,0.008062024,-0.0005112916,0.0045163943,0.003119428,0.0017583891,-0.0033194185,0.0016430333,-0.009597325,-0.00042354022,-0.0023568196,0.005620098,-0.0045021083,0.00019521982,0.0014758657,0.004104337,-0.000544811,-0.0004416618,-0.00064858305,-0.00072205346,-0.0010531375,-0.0006752698,0.0004008449,-0.00040123303,-0.00062608346,-0.0013714826,-0.00068793,-0.000783546,0.000436358,-0.0006777481,-0.0006612036,-0.0005446517,-0.000339299,-0.00010035804,-0.00041640078,-0.00033678947,-0.0009094934,0.00090965035,-0.0010529083,-0.0003533375,-0.00059140066,-0.0006075931,-0.00014478061,0.002534578,0.00073326414,0.0003832747,-0.0020458114,-0.0022868828,-0.0057801967,-0.0014105621,-0.0018469868,-0.0016987823,0.0018309447,-0.0015725581,-0.0015733031,7.743058e-05,-0.00025994616,-0.00123034,-0.0005452885,0.00015384171,-0.001348202,-0.00018841888,0.0003551263,0.0008251232,-0.0010009876,-0.0013556357,0.00033248082,-0.007252208,-0.0003822614,0.00035598272,0.0003727865,-0.00010655472,0.00020830965,-7.30995e-05,-0.00013685618,-0.00035527797,0.0003009199,-6.757509e-05,-0.00014504114,-0.0012295863,-0.0025518837,-0.00068507955,-0.0017931992,-0.0012677244,0.00047906977,-0.0030524305,0.0018233578,0.0009739528,-0.0006196572,-0.0013881555,-0.0009027087,-0.0014389436,-0.0020719422,-0.0031434102,-7.124781e-05,-0.0011621191,0.0019781839,0.00033764035,-0.00018211993,-0.00011823573,-0.0011084528,-0.00071654323,-0.0009987641,-0.0018226092,-0.0020499849,-0.0015730798,0.004758263,-0.004572063,0.0011195051,0.0023101035,-1.0914463e-05,-0.003586697,-0.0014346516,-0.0016932015,0.0004948339,6.193761e-05,-0.0007943176,-0.0011866492,-0.0008268943,-0.0006795942,0.00023179698,-0.00072457205,-0.0011341758,-0.0015092734,0.0012780067,-0.0025143228,-0.0009490278,-0.003851306,-0.0016485405,-0.005096236,-0.0061890525,-0.0013521173,-0.0022111996,-0.0005787808,0.003832817,0.00015088684,0.002838374,0.00014313462,0.00055140414,-0.000572199,-0.0016547854,-7.5594576e-06,-0.0012621973,-0.0016282985,-0.0006701115,-0.0062866933,-0.0045424993,-0.0007346666,-0.0004557247,-0.0016731112,-0.0006421833,-0.00018310465,-0.00037624442,-0.00079489383,-0.0006510092,-0.00039496028,-0.00039221224,-0.00037440265,-0.00025403296,-0.00044432198,-2.0284326e-05,-0.0001471432,-3.586797e-05,-0.00050141895,-0.0003138469,-0.00025854088,-0.00033971516,-0.00017771765,-0.0002457401,0.00012994037,0.00018305365,0.00017396873,0.0001602214,0.00020548064,0.00014622926,0.00013601544,0.0001811427,0.00015973917,-0.0008863107,-0.0076198275,0.0006324487,0.0015447263,-0.003573046,-0.007564455,9.704903e-05,-0.0014448856,-0.0025595198,-0.0015556451,0.00051975803,-0.0012976978,0.0054940926,0.010101696,-0.0016556195,-0.00043706739,-0.0032933096,-0.0044169347,-0.0006894415,0.0008078531,0.00019733181,-0.00017166158,0.0009696781,0.00057824736,-8.267573e-06,-0.00031121596,-0.00052780384,0.001584682,-0.0008763332,-0.0009190141,0.006360376,0.0010422434,-0.0012819768,0.00030937933,-0.0016209041,-0.0019368953,-0.0013359903,0.00071988977,-8.4104955e-05,-0.00038973757,0.00075263344,-0.00052802387,-0.0004114035,0.0007252353,-3.823453e-05,-0.00066775724,-0.001173236,-0.0012807831,-0.0038174964,-0.0018407633,-0.0008973157,0.00034331554,-0.0007539188,0.0009826518,-0.00028061506,-6.9191745e-05,-0.00020372246,-0.00094474753,-0.0006030843,-0.0010146351,-0.0012446328,-0.0027157993,-0.0017271887,-0.0012648351,-0.00038345723,-0.0014725955,-0.00018200953,-0.001086412,-0.0006461652,-0.0011548897,-9.77992e-05,-0.00091715105,-0.00010668283,-9.734477e-05,-0.00010345179,6.328639e-05,3.4241584e-05,-6.216599e-05,-0.00016768041,9.754124e-06,-0.00025734626
-0.0077112257,-0.014296364,-0.013017666,-0.028485559,0.011961069,0.035832983,-0.012436416,-0.018833658,0.0053264853,0.005339255,-0.021500994,-0.017993016,0.0092564905,-0.014246337,0.001446342,0.0044747232,-0.02760058,-0.016081663,0.097748525,-0.048619397,0.001700925,-0.026041375,0.033229962,0.0024251991,-0.013097944,-0.0224148,0.004339879,0.017724011,0.0011346447,0.01664139,-0.0050572753,0.027048135,0.02538353,0.006891855,0.021567062,0.020560734,0.032924682,0.015254563,0.017748803,-0.018172687,0.028115017,0.030682156,0.003697884,-0.043106314,0.015516771,-0.0093266005,0.019927409,0.022382697,0.008935561,0.008736904,0.038511787,-0.0020140095,0.036845353,0.020817133,-0.013737344,-0.0071449606,0.0055358093,-0.011766696,-0.003332801,-0.014476786,-0.010863048,-0.008083204,-0.0023885139,-0.00091849914,-0.003917977,-0.00855085,0.007431771,-0.0012344515,-0.0017676855,-0.0040152026,-0.008401631,0.003563995,0.008921346,0.1066282,-0.0047443085,0.008989228,0.057885658,0.0006545464,0.043700747,-0.03913728,-0.008441503,0.027321372,0.01416664,0.05362932,0.00046914155,0.027366653,0.02056897,0.0040402752,0.004318985,-0.013876148,-0.0066594314,0.0032665061,0.0054535116,0.008601357,-0.009435771,-0.010718533,-0.016358253,-0.008562408,-0.021892384,0.0040345974,0.0024355068,0.030526554,-0.026721288,0.051728867,-0.0005249868,0.005984736,0.004067881,-0.01944412,0.04094761,0.0013487631,0.014634281,-0.025071196,0.060307086,-0.0022819059,0.03532619,-0.00012815931,-0.04789507,-0.024867091,-0.016277073,0.021180198,-0.011114178,0.0028051496,-0.009195836,-0.021308957,-0.01419554,0.02100023,0.0036181242,-0.01007501,0.0029326591,0.0023877628,-0.0043950463,0.00042696437,-0.0001221775,-0.01327132,-0.0062338104,-0.059768002,-0.004629157,0.039073918,-0.0477841,0.029308468,0.016558034,-0.044004664,-0.027970294,-0.0345201,0.0053775464,0.0033293653,0.01699047,-0.010632783,0.011047516,0.002874656,-0.0151431495,0.0024792072,-0.02391344,0.08026428,0.05460973,0.044874232,0.03148842,0.019617692,0.028900838,-0.008955814,0.0051395735,-0.023083737,-0.02561001,-0.018643886,0.02115608,-0.0048991577,-0.053453457,0.027240997,-0.027404096,-0.022796365,0.046509802,-0.008746962,0.005699875,0.011856453,-0.043896645,-0.015863111,-0.023588132,0.0034362143,0.020786354,-0.015938362,-0.0027412372,-0.015722282,-0.008964162,-0.008222824,-0.014896729,-0.0036856234,-0.026199805,0.00017879508,-0.021333361,0.011863427,0.018117277,0.008955402,0.01498969,-0.0116641205,-0.012180219,0.004921731,-0.019755524,0.022916209,0.009165485,0.030832166,0.024350384,0.013857605,0.015170482,0.05117161,-0.019440308,-0.0046229726,0.059516598,-0.013514631,-0.03129433,0.016610613,-0.03415392,-0.0040150676,-0.018685367,-0.026175898,-0.011482606,-0.024467748,0.048675906,-0.004121509,0.016715534,-0.01159419,-0.024386972,0.016709113,-7.552316e-05,-0.006288595,-0.041813068,-0.022363806,-0.035837617,0.014902005,-0.018217523,0.0010394801,0.04295474,-0.008063209,0.010323793,-0.015162097,-0.022514194,-0.020716574,-0.061506897,0.0800069,-0.010800657,-0.02908604,0.01354394,-0.012670396,-0.019297568,-0.0018059276,0.05926192,-0.0058402275,0.016148668,0.16681741,0.011168053,-0.0143922875,0.031994157,-0.05649082,-0.014037439,0.01392885,-0.0029574472,0.04216186,-0.081156135,0.007589845,-0.0012717831,-0.004165149,0.020160334,-0.00010659566,0.007967722,-0.02236382,0.00095970905,-0.005240074,-0.010295093,-0.013860428,0.0019457684,0.0054603918,0.12065467,-0.019784786,-0.03709878,-0.022193154,-0.022625647,-0.033313666,-0.028281547,0.02329483,-0.028387325,0.09776985,-0.009096625,-0.015631191,-0.040444955,-0.009613755,-0.012809965,-0.03258715,-0.0025789682,-0.030573782,0.021858249,0.030072166,-0.04471042,0.0064792642,-0.010249035,0.023305569,0.038417444,0.008737883,0.003172237,-0.027117204,-0.016666124,-0.02511876,-0.009377343,0.0043030195,-0.011884464,-0.04764992,-0.0311014,-0.023082945,-0.037102636,-0.032943692,-0.04373211,0.007559535,0.004380774,-0.0546505,-0.050402965,-0.03263844,0.009921328,-0.038711313,0.034606624,-0.055780645,0.0498336,-0.024509044,-0.008452551,-0.040583365,-0.008189115,-0.027837142,0.047268067,-0.016956676,-0.012210665,-0.0003205624,-0.034309275,-0.00869719,-0.032206174,-0.0017740015,-0.006633218,-0.0013516604,-0.015418202,-0.021348547,-0.008607487,-0.01615551,0.01564873,-0.027014876,0.015504965,0.0063171685,-0.0035391925,-0.040057886,-0.022954755,-0.0013926858,0.035078663,-0.008066524,-0.00045956564,0.002917327,-0.0074290712,0.021917634,-0.016776025,-0.030263498,-0.057897408,0.053154353,-0.0060679275,-0.024524005,-0.024796827,-0.023720406,-0.032179214,-0.038815357,-0.026844077,-0.015108374,-0.028695202,-0.005104359,-0.032330528,-0.021281479,0.045052525,0.0017278063,0.007556297,-0.03238515,0.028741656,-0.02904555,-0.03287971,0.025371242,-0.04040145,0.033057332,-0.004207205,-0.010833894,0.0047654533,-0.041722905,0.009689306,0.03807993,0.007180174,0.038575478,0.05497267,0.0024827844,-0.0044161202,0.0031753147,0.013567672,0.011509022,0.02230541,-0.008010015,0.012043069,0.020279853,0.046799347,0.015146381,0.036348116,0.0018752624,0.003748744,0.015224929,0.008826357,-0.010955563,0.0073406873,0.028893605,-0.011138013,-0.002669632,-0.02547964,0.1107535,0.025048152,0.0015451908,0.038631357,-0.041211803,0.010598022,0.03237089,0.015815903,0.014804546,0.024204938,0.0034086618,0.006425622,0.0060828533,0.014383354,0.0030198062,-0.023488909,-0.016426755,-0.04281008,0.1321726,-0.054940686,-0.066985406,-0.018057272,-0.009352322,0.0050521316,-0.0115383705,-0.01759534,0.005253806,0.023884648,0.011792583,-0.036014184,-0.009658325,0.007511133,-0.02530111,-0.007592156,-0.02810719,-0.039425302,-0.05091096,0.03228135,0.01597963,-0.0576284,0.0504496,-0.0036585412,0.037249282,-0.02586872,-0.0003355882,0.015199789,0.0060671866,-0.044673443,0.046496313,-0.0020127962,0.064102486,-0.03048127,-0.020901212,0.0121809365,-0.047798686,-0.020388003,0.0044158534,-0.021179067,-0.029097937,0.0018196995,0.027691547,0.015743528,-0.0063128117,0.01690764,0.041663937,0.0018515923,0.006948081,0.026827034,-0.010407892,-0.009290719,-0.006360597,-0.013321908,0.005480995,0.017379526,-0.019942783,0.006380144,0.003456218,-0.00016044662,-0.00027194896,-0.00067515275,0.00028210925,-0.0006463718,-0.002576253,9.2667906e-05,-0.00044633128,-0.0012609133,-0.012302686,-0.038109288,0.017224992,-0.028674558,-0.0054417215,0.057800815,-0.041586053,-0.00067609374,0.006931876,0.06525696,0.0004951308,-0.057520136,0.05399089,-0.0727598,0.0006110298,-0.030167695,-0.011200132,-0.006877956,0.054141097,-0.047279127,0.01306935,0.00058107945,-0.026790716,-0.00660669,-0.027240617,-0.028747465,-0.033929612,-0.0512117,-0.029401295,0.0023655682,-0.03074539,-0.0068386365,-0.031171883,-0.05569887,-0.025825806,0.005480204,0.027675074,0.04407681,-0.007857427,0.057385255,-0.017455297,0.0086222775,-0.0340027,-0.03991749,0.027612196,-0.0016359792,-0.000476334,0.049313027,-0.009376125,0.0114951525,0.0406965,0.02769106,0.008973841,-0.015951369,-0.0066569266,0.004626691,-0.02395211,0.07526195,-0.0035839654,-0.014786352,-0.034869652,-0.005337233,-0.03960921,0.05211331,0.022298746,0.0448095,0.016298955,0.009798076,0.036429796,0.0091968635,0.0019796789,0.034238055,0.0014869074,-0.016210053,-0.009107934,0.0009806736,0.00069458084,-0.0031695978,-0.0017240273,0.004763267,-0.010718794
-0.010038475,-0.011832375,0.010719892,0.022247644,-0.026281472,-0.0031548701,-0.031472683,-0.0015591893,0.0071191555,-0.015013242,-0.011160681,-0.005872363,0.0013871025,-0.014025402,-0.0173534,-0.009941567,0.0008235172,-0.0035374982,-0.014062025,-0.019552534,-0.022935564,-0.014824857,0.013127867,-0.0384184,0.035966143,-0.016096875,-0.032600652,0.002317431,-0.004855377,-0.0038859027,-0.0055651534,-0.004906964,-0.0075792884,-0.0076024304,-0.0074192923,-0.010787326,-0.00019107707,0.0037074948,-0.0052959146,-0.0058591613,-0.01716598,-0.02321022,-0.010774238,-0.015848003,-0.020192191,0.006552441,-0.0036285864,0.0018373667,0.004007113,-0.0041977,-0.007488237,0.0015365932,-0.007509733,-0.00042157824,-0.0045472616,0.017188761,-0.014893434,-0.006677092,-0.019618027,-0.014232242,-0.00946927,-0.010171383,-0.023295356,-0.003919289,-0.004376631,0.0054319217,8.329451e-06,-0.012761927,-0.005806917,-0.0035906946,0.0062012165,0.0009860501,-0.028747095,-0.012331138,-0.042659163,-0.022751812,-0.045451395,-0.015546258,0.0025538716,-0.03994103,0.01713478,0.0026577557,-0.004012174,-0.005946175,-0.004794398,-0.009251893,-0.018672,-0.014227157,-0.01852516,-0.018125683,-0.003991919,-0.00032230312,0.0045556966,-0.0003465151,-0.0010575171,0.010169592,0.002493368,0.016851174,-0.0038945854,-0.0004649473,-0.02226509,-0.036835544,-0.009192134,0.009085969,-0.025252959,-0.01237332,0.018343352,-0.008346715,-0.016119137,-0.016792396,-0.014078952,-0.016550627,0.004022025,-0.011783921,0.006971919,-0.008355218,0.006146093,-0.008364285,0.005597755,-0.004452468,-0.015936473,0.0026956964,-0.0071691675,0.012710492,-0.022664431,-0.011275527,-0.0048967744,-0.0011369314,0.0014447183,0.0047817766,0.00016334283,-0.0033586244,0.0026227406,0.0051407823,0.0019138706,-0.01324915,0.0012388082,-0.022122158,0.0054359147,-0.0010972725,-0.016420113,-0.010132318,-0.011008313,0.0033170765,-0.0029379595,-0.00731613,-0.0027376367,0.0022138956,-0.002604071,-0.00017522124,0.01010174,-0.0020831819,0.0033127791,-0.024490595,-0.019607916,-0.036815368,-0.016796738,-0.011138846,-0.023208115,0.0027820999,-0.029229112,0.0021497938,-0.008112871,0.006235663,-0.008059884,0.011618833,0.0017236015,0.0070306775,0.022224551,0.03385665,0.004711297,-0.0099300025,-0.0053201905,-9.33086e-05,-0.014705271,0.012940711,-0.0075805164,-0.016273886,0.015601332,0.009819676,-0.008947151,-0.0050927876,0.0006046406,-0.008820812,0.0074332645,-0.004982986,-0.01195205,-0.00578324,-0.012301559,-0.0069149137,-0.010314178,0.0035695075,0.0028801572,0.004475881,0.0029750066,0.021726197,0.010133899,0.023457345,0.0023363675,-0.0035110435,0.0018313407,0.018781973,-0.0050541055,0.002812988,0.0016483269,-0.001641564,0.0031657624,-0.0024108237,-0.013304742,-0.012460404,-0.008746327,-0.0009405238,-0.002724851,-0.0062124673,0.0008573802,0.004883443,0.004215524,-0.012191955,-0.0072127436,-0.016989222,0.0051196534,0.011991456,-0.0007155626,0.009789036,-0.00013746787,0.00038562893,-0.011364023,-0.010225805,0.03731181,0.014110111,-0.019907216,-0.012950576,-0.005871923,-0.0008362606,-0.027131211,-0.038920417,-0.020431044,0.0046193465,-0.023085799,-0.010271003,-0.018405298,0.011368574,-0.022698654,-0.030102046,-0.044048868,-0.03671535,-0.016161932,-0.034983154,-0.04053224,-0.009781306,-0.0052236435,-0.036240727,-0.011607943,-0.010039216,-0.026853336,-0.036579777,-0.0096753035,0.0154280355,-0.03991986,0.005259188,-0.0015558231,0.00035992885,-0.0015583547,-0.0032992808,0.00076965743,0.003217413,0.004970174,0.010653376,0.0064497576,0.004618834,-0.012710077,-0.014301014,-0.001582417,-0.018990405,0.041043304,-0.032572422,0.0038395592,0.045546457,-0.010167857,-0.0134448195,-0.02082089,-0.030476443,-0.018098336,0.031480607,-0.028495712,0.0094962865,-0.0052824407,-0.009761221,0.0012934544,-0.011377884,-0.0068039796,-0.024786433,0.00765723,-0.020297803,-0.0034013623,0.029345417,-0.013168387,-0.0024687222,-0.0015694131,-0.007306753,-0.0059724185,0.006551767,-0.026452554,-0.022638263,0.017311737,-0.012359166,0.0013104882,-0.0012948154,-0.018312613,0.00019019752,-0.016806243,-0.012712022,-0.0008022052,-0.028918771,-0.015146589,-0.06005966,-0.0072500734,-0.03470111,-0.0006394545,-0.044747878,-0.028062208,-0.004375241,0.008780906,-0.040226743,0.046558864,0.01758781,-0.004990931,-0.0054682815,-0.0008908049,-0.018101439,0.007221493,-0.001041054,-0.025486384,-0.010556734,-0.007055667,-0.016476901,-0.0027610334,-0.009598873,-0.0151659995,-0.006081209,-0.008510879,-0.017372392,-0.01471882,-0.003848579,0.0040626084,-0.011455124,-0.008585228,-0.0036605294,-0.0021275308,-0.01448753,-0.009557771,-0.018599397,0.00043884688,-0.019000275,-0.009666842,0.010798056,-0.02671276,-0.012920708,-0.010707199,0.012755877,-0.012749206,0.009317744,-0.021100145,-0.0058461507,-0.012726085,-0.008672419,0.018110545,-0.024705717,-0.048142903,-0.021309642,-0.020101858,-0.027109886,-0.034616902,0.022795143,-0.030811472,-0.0074421074,-0.0023085328,-0.012569308,-0.008856552,-0.0068709925,-0.008914063,-0.006749962,-0.008957961,-0.015610919,0.02787441,0.012206347,-0.010874063,-0.0012311919,0.0039598527,-0.0043610074,-0.00018108168,0.0013892549,-0.0016378551,-0.0034091775,0.008449036,-0.0008113784,0.029276699,-0.004037682,-0.0061541707,0.0071764914,-0.011118223,-0.016129075,-0.015196374,-0.008684329,-0.019773195,-0.008268685,-0.020454127,-0.019010818,-0.012045545,-0.01302672,-0.017561726,-0.00944532,-0.015922809,0.009690413,-0.0018690492,-0.002284061,-0.0022515848,-0.002826492,-0.0038285174,-0.005561531,-0.0080776075,-0.012239329,-0.0052453224,-0.03171774,-0.010174474,-0.01059415,-0.014482312,0.019635618,-0.034420952,0.0017481142,0.0065238746,-0.0120223975,-0.007882498,-0.012984338,-0.01420057,-0.018773641,-0.017157158,0.005013238,0.0073136096,-0.02571662,-0.018469362,-0.009835881,0.0049073687,-0.028410148,-0.007942736,-0.01266458,-0.039853916,-0.014363073,0.014466179,-0.01774591,-0.0010122154,-0.0055852486,-0.0003089129,0.018021442,-0.020294389,-0.007229398,0.01573653,-0.013210067,-0.027315509,-0.011700536,-0.010242892,-0.0019086009,-0.005053741,0.023996066,-0.016616678,-0.013724123,0.011286172,-0.017539697,-0.006079228,2.182669e-05,-0.0065454687,-0.0019348797,-0.0043243445,0.005104841,0.0011180667,0.0018766046,0.00439904,-0.003528858,-0.0017595325,0.0023466365,0.00480337,0.001880813,-0.005073955,-0.01480071,-0.009430622,-0.0060465215,0.0012328858,0.001943757,0.0019396088,0.0017155667,0.0015176274,0.0019511982,0.0018331675,0.0016632417,0.0017470527,-0.023893364,0.021502301,-0.008217001,0.011383153,-0.026685543,-0.024469076,0.008623905,0.009471751,-0.039801985,-0.024582556,0.022719871,0.027554672,-0.02586816,-0.021076692,0.01602934,-0.016103985,0.028773844,-0.024844984,0.0071304822,0.011966085,0.012209644,-0.0052500973,0.015231724,0.0025530756,0.008279786,0.011973718,-0.014855113,-0.009987391,0.027820526,-0.013429438,0.013188052,0.02970211,-0.0084442105,0.012882884,-0.009956064,-0.011050249,-0.0307827,-0.027707739,-0.008975916,-0.013986359,0.00070921984,0.006374682,-0.020520924,-0.008986075,-0.008225677,-0.014580482,-0.022816502,-0.0096810935,-0.0014879315,3.810675e-05,-0.022899011,-0.027349027,0.01583201,-0.007975024,-0.01033422,-0.01066971,0.008990425,-0.011083926,-0.009583052,0.009373156,-0.016331997,0.009893563,-0.0106319515,0.0054057324,0.0017971548,-0.000120507386,-0.0010993099,0.021526195,-0.008817795,0.004118301,0.014186752,0.0037055702,-0.005594637,-0.00559146,-0.0013956045,-0.0065288492,0.0023556387,-0.0009097063,-0.0026593127,0.0002783261,0.00051757926
0.012714434,0.022471033,0.007345248,-0.009235052,-0.008531907,-0.008408194,-0.0060005747,-0.019821974,-0.0011344167,0.0034551274,0.0021668652,0.0014687993,0.0032672302,-0.0014638179,-0.0004987144,0.002974043,0.00057770015,0.0016445244,0.004403752,0.0009356378,-0.0020465888,0.0073861084,-0.010441065,-0.0056816186,0.002944144,0.0008790347,0.003541258,0.000506612,-0.00065378286,0.00063765317,-0.0028975361,-0.00070937665,0.0004009598,0.000724506,0.003819109,0.00417968,0.016117442,0.008525464,0.0078633055,0.0034470519,0.00095606653,0.0051151244,0.01036744,0.010458153,0.0059533953,-0.00319583,0.0007864859,0.00039041063,-0.0043201144,0.0020941058,-0.0015065479,-0.004323946,-0.0008716814,-0.0004333934,-0.003134273,-0.0016368753,-0.00039556163,-0.0029724191,-0.0040954747,0.002670104,-0.0031752025,-0.00046500113,0.0015642759,0.0054519083,0.00080073875,-0.003809318,0.005824897,0.0027724179,-0.0030688993,-0.004091125,-0.0036787356,-0.007211389,0.008400598,-0.005818882,-0.004073282,0.00052311237,0.012617362,0.0020821046,0.004002413,0.026446056,0.005808105,-0.0020995277,8.921139e-05,-0.0018972416,-0.0039360933,0.0006296789,0.00442276,0.00011047504,0.00474895,0.007707061,0.0015018961,0.0022989064,-0.00215839,-0.0013679502,-5.7305868e-05,-0.0013511486,0.0017059156,-0.0011835376,-0.0023507955,-0.008524416,-0.0013088633,0.0066503654,-0.0031280762,-0.0063703754,0.012674463,-0.005535018,-0.0051706824,0.0038195995,-0.0014710318,0.0018071949,-0.0041271616,0.00079725205,-0.0040373025,0.00081793446,-0.000925596,-0.0014760477,0.0035217626,-0.0013251824,-0.0028054398,-0.0020952397,0.0003080432,-0.0066702464,-0.0011363033,-0.0007628806,-0.0023679931,0.00071250706,-0.00069840497,0.0012619058,0.00032599457,-0.0011947891,0.0009230884,-0.0002552761,-0.0020491336,-0.0017094072,0.00064730237,0.004321835,-0.008905231,-0.004936454,-0.0047861696,-0.0041323896,-0.00040109392,-0.012605229,-0.0032248856,0.0024768033,0.00048613784,0.00048487596,-0.0006191247,0.0005768913,0.00013888827,0.0033222288,-0.0023304855,-0.0011154735,0.0026792209,0.0055436767,0.0053063976,0.020025477,0.020974932,0.010818042,0.0005350324,0.009596319,0.013325757,0.0042819194,0.003190969,-0.0106337145,-0.005999532,0.00090300094,-0.0048577925,-0.007424896,-0.0029739356,-0.0015864543,-0.0083879195,-0.008604619,-0.0006927043,-0.0022017437,-0.0042119264,-0.0030660348,0.008321557,-0.0042638374,-0.009712613,0.0012029272,-0.0042368243,9.537097e-05,-0.0017491884,-0.0049652252,-0.0027910888,-0.0010545008,-0.002294323,-0.0058633112,0.0037511534,-0.00697552,-0.011071416,-0.011756699,-0.0009402277,-0.0028237973,-0.0012558918,0.00039678754,-0.0033757223,-0.0033824458,-0.0039053708,-0.0010026788,0.0007635212,-0.0022277047,0.005393204,-0.0073344135,-0.007303615,-0.002615045,-0.002115857,-0.010916969,-0.005157883,-0.0005706051,-0.006902501,-0.0038849416,0.0006317491,-0.0069325794,-0.006200388,-0.0019568542,0.00077443244,0.0024868615,-0.0027602268,0.004782713,-0.005498131,-0.0046273763,-0.0046772254,-0.004919542,-0.0028969336,0.0020128693,-0.0014882395,-0.0021023157,-0.0028931855,-0.00667193,-0.0050012674,-0.014612823,-0.009595273,0.0030944082,-0.010707153,0.0014357467,-0.005812328,-0.006272478,-0.0075680935,-0.012427564,-0.013657405,-0.013624293,-0.018666673,0.0018877296,-0.020885723,-0.022130718,-0.012648913,-0.028117195,-0.027340217,-0.018973865,0.01552659,-0.01091336,0.0024393105,-0.015656747,0.0010537547,-0.017245786,-0.0231991,-0.010556675,-0.0028291324,-0.004276392,-0.010539173,0.00073699903,-0.00075229333,0.00016394512,-0.00087372673,-0.00047943502,-0.0017864791,-0.0012601301,-7.1844814e-05,-0.0003366709,-0.004899003,0.0016397457,-0.017110437,-0.002681803,-0.0021666402,-0.007195465,0.010141093,-0.0038996413,-0.0042511234,0.00795199,0.010449999,-0.0053339563,0.00786405,-0.0007239784,-0.0036147889,0.006420876,0.0011143184,-0.004511434,-0.0064915363,-0.0021455854,-0.00012185441,-0.01231496,-0.011119359,-0.004028614,-0.01252081,-0.010884622,-0.008852592,-0.004263648,0.0011215798,-0.0001554319,-0.008233826,-0.007968897,-0.0008102969,-0.0057474175,-0.008977034,-0.0061254343,-0.017059041,-0.013300229,-0.012926299,-0.012819164,-0.019890692,-0.003762152,-0.018163132,-0.015879575,-0.0066942847,-0.0012662396,0.0038447382,0.0063997055,-0.010649712,0.012851727,-0.0044559077,0.0017561127,-0.008280291,0.014392588,-0.0082745915,-0.008124058,-0.013313749,-0.010070826,-0.017216535,-0.014651997,-0.0058567533,-0.011937799,-0.0139796445,-0.0019277311,-0.004452899,-0.0037273213,-0.0027455785,-0.0030964143,0.0015741434,-0.0028622537,-0.0019483074,0.0080512995,-0.0009807787,0.0030668762,0.0001880413,0.0045764414,-0.00029634542,-0.0012204702,-0.0009955963,0.00420753,-0.0027197762,-0.008028595,-0.0005579652,-0.0010924798,-0.0053081554,-0.0043859375,-0.0025702922,-0.004002961,-0.0032804988,0.00020107218,0.00032226028,-0.006456837,-0.00362049,0.003262576,0.009052697,0.0064341347,-0.004519925,-0.0029029634,0.00702708,-0.004389498,-0.016878167,-0.0052993908,-0.012210683,-0.009258101,-0.0011931284,0.00076980115,-0.003349783,-0.006725735,-0.005301843,-0.0043534636,-0.004538306,-0.0054920753,-0.007922235,-0.000579194,-0.003711884,-0.0049276175,-0.0025471854,6.4886e-05,-0.00063938776,-0.0014388342,-0.0015477507,-0.0005482768,-0.0008667707,-4.342484e-05,-0.0008335094,-0.0005030816,-0.002255789,0.00056337565,0.0013845369,-0.007115805,-0.0049146945,0.0018932432,0.0012915279,0.003712573,0.0060328883,-0.0031309258,-0.008621086,-0.004989281,-0.0039349,-0.010386852,-0.0036090517,-0.012336849,-0.0034272184,-0.004720951,-0.00031474206,-0.0011525122,0.004329064,-0.0024821083,-0.0021439523,-0.003011776,0.0016557282,0.0060442304,0.0040218416,0.014278737,-0.015054988,-0.009517734,0.00663706,-0.018376196,-0.009518315,-0.010169248,-0.011674379,-0.013350566,5.8589383e-05,-0.002332696,-0.0022495734,-0.0133944135,-0.010113131,0.0006460316,-0.007623933,-0.0040072277,0.00033783272,0.0030231567,-0.00943935,-0.00083850126,-0.008240092,-0.018262357,-0.00041520613,0.001758513,-0.0013914546,-0.013745096,-0.0059645567,-0.0037807368,-0.0008177672,-0.008057451,-0.001899178,-0.008290237,-0.011400298,-0.002233844,0.0103656575,-0.009432249,-0.008499743,-0.0069740093,-0.011323822,-0.011727841,-0.010464562,-0.0062184935,-0.0062137693,-0.0070256,0.0024936849,-0.0013163906,-0.00041151984,0.00023162238,-1.9904459e-05,-0.00075896276,-0.00090856565,-9.368441e-05,0.0006678727,0.014500814,0.00088622887,1.4249956e-05,0.0077278167,0.00058480585,-0.0006447283,0.0054983865,-0.0008162952,-0.002159956,1.52266e-05,-6.5714266e-06,4.6261903e-05,-0.00033199944,-0.00033572805,-0.00019409086,-0.00032188534,-0.0003174719,-0.00023460077,0.019709392,-0.002597758,-0.0043542073,0.0061325766,0.0028378346,0.0003283126,-0.0050374037,-0.0069655264,0.0013183242,-0.0067122043,-0.011947461,0.0022676038,-0.007973487,0.011339321,-0.010671335,0.004489122,-0.0041363803,0.0062387427,-0.0012632152,-0.0010429836,-0.005661431,0.004069752,-0.0039191674,-0.0043349243,0.00248594,-0.0024727995,-0.001493167,-0.006183032,0.00011754308,-0.006286729,0.0005557194,-0.010966194,-0.006107989,-0.0033781305,-0.012914365,0.0004948203,0.0010795424,-0.0007694753,-0.0018570034,0.010307319,0.012031938,0.0010999575,-0.00017695254,0.0073229293,-0.0028599517,-0.00396153,-0.0020245817,-0.009318773,-0.00991071,-0.0026548917,-0.0034935223,-0.018624283,-0.0067082834,-0.0013050021,0.03258184,0.025637073,0.00014372864,0.018560957,0.0059011183,-0.009286211,0.0017997805,-0.0065679285,-0.009266133,0.0018972292,0.0016930006,0.004890972,0.0057808706,0.0009484452,0.005344451,0.003342771,-0.00041227843,-0.0015065637,-0.0004945154,-0.00016838778,-7.4782394e-05,-0.00023407963,-0.0009343562,-0.0003491373,-0.00081705424,-4.554656e-05,-0.00081787736
-0.013210181,-0.017011909,-0.014225633,-0.005751954,-0.028233685,-0.01026015,0.007913488,0.011197888,-0.006076862,0.0010631114,0.0037410327,0.0028341205,0.0015107228,0.0022143607,0.00461403,0.009294894,0.002398491,0.003762299,-0.009444999,-0.011023355,-0.0021121136,-0.010467926,-0.0030736702,0.0011113001,-0.0090643,0.0153881265,-0.0043752575,0.00212282,0.0053177257,0.0019353774,0.0003586062,0.0014978261,0.0011986077,0.0009062365,-3.7180405e-05,-8.696977e-05,0.010471708,0.030225672,0.017454771,0.012345637,0.024625616,0.032159574,0.0021983034,0.005942021,0.010967436,-0.0024141432,-7.122173e-05,0.0028875985,0.005191915,0.0002674982,-0.0006979301,-0.0012490856,-0.0012658796,-0.0022859771,-0.0083839735,-0.008509947,0.00022127607,0.0032173465,0.000429255,-0.0063693128,0.013003639,0.00088953215,-0.00133556,0.00538187,0.0017739997,0.0034460186,0.0011604115,-0.0020108796,0.0020224373,-0.0057042832,-0.0044720937,-0.0030166768,-0.008233922,0.013554694,0.0048529324,-0.0028040572,-0.008042374,0.005916885,0.009694846,-0.0033631786,0.02342751,-0.0019241507,0.00023398249,0.012302964,-1.2485862e-05,-0.00026195525,0.00036067562,0.002801987,-0.0024499367,-0.005113567,0.009360205,0.0013975857,-0.0021620977,0.0017998811,-0.00029048824,0.00043639555,0.00500466,0.00018831984,-0.00069604133,0.017048992,-0.010828776,-0.009631784,-0.0025773866,0.00024590292,-0.016741008,-0.0035156196,0.013544747,-0.006991863,0.008000992,0.0008941386,0.015475933,-0.0059007513,-0.0013031644,0.0038742074,0.00026730515,-0.0147211235,-0.010567655,-0.011478165,-0.006471551,0.004486466,-0.0042442377,0.0016458731,0.0015603887,0.008696093,0.007602527,0.0029692263,0.001261013,0.0024439301,0.0010014677,-0.0032095762,-0.0031720768,-0.002461163,0.0007454656,0.00016064521,-0.0016745162,0.009881111,0.0014541257,-0.005943808,-0.0036279927,-0.0032291063,-0.01452362,0.008690074,-0.0128080165,-0.0055684056,0.004074287,-0.0009522473,-0.0013293206,-0.0015331709,0.0001849384,6.528808e-05,0.00069274096,0.0010537086,-0.00058125367,-0.015548243,0.0034420977,0.0038979417,-0.02007422,0.0011403708,-0.0037312247,-0.023694294,-0.015858226,0.0025201591,0.017046185,0.006972962,5.9545247e-05,-3.2441676e-06,9.3407376e-05,0.0006440585,-0.015694838,-0.021829292,-0.008280617,-0.0038975247,-0.0045921076,-0.0021390081,-0.0049417117,-0.0016185374,-0.0056649772,0.0009656247,0.00044701644,-0.0083644185,0.0036384705,-0.004271764,-0.0039549624,0.003573553,-0.006327967,-0.00074421463,0.0009914082,0.0068373852,0.0012765697,-0.0036066861,-0.0029690075,-0.0028660996,-0.005272913,-0.0097431755,-0.008988047,-0.0005311623,-0.00041723662,-0.0034507215,-0.0008191552,-0.0034910303,-0.0017841076,0.007463974,-0.008575453,-0.0028729003,-0.0009780629,-0.00063498644,-0.005683865,-0.0015624333,-0.0055117165,-0.0014666162,-0.010213008,-0.005818489,-0.008339415,-0.009527988,-0.005036024,-0.0045341346,0.016985588,0.0027978285,-0.001963886,0.00023811567,0.0016951672,0.011563341,-0.00093313615,0.0020731105,-0.0025100533,-0.0029329415,0.0018919458,-0.016767582,0.0015922816,-0.016480297,-0.010211468,0.0037475124,-0.007587729,-0.009327883,0.011052855,0.004287288,0.003405953,0.015945697,-0.0106110405,-0.013067718,-0.025012346,-0.009100143,-0.022258995,-0.0138142565,0.0055622095,0.0185679,-0.036173012,-0.017129095,-0.011342462,-0.026358938,-0.013293595,-0.029795172,0.0037818248,0.0030497015,-0.016656823,-0.007361376,-0.006247724,-0.017393677,-0.010180906,-0.014053082,-0.0029647574,-0.005001006,-0.0015562675,-0.0021701506,-0.001401209,-0.0014708611,-0.001244802,-0.0005895045,0.0012695023,0.0002849393,0.002855986,-0.015512987,-0.008198377,-0.008034918,-0.0011847633,-0.008736589,0.0019075095,0.015981011,-0.006890578,-0.012483097,-0.010499988,-0.0010843102,-0.015788114,-0.0031594005,-0.0064372793,-0.0031376746,-0.00012399271,-0.005974043,0.0010028051,-0.008673335,-0.004204838,-0.009065724,0.00011760417,-0.008550798,0.0005960443,-0.009436743,-0.004017879,0.0034396918,-0.013574815,-0.005652566,-0.008929386,-0.005112876,-0.008884603,0.0011566066,0.014346273,-0.002527695,0.0019981689,-0.020592645,-0.02082366,-0.015101879,-0.0142459925,-0.017886521,-0.019632636,-0.016355613,0.0009355326,0.017233161,0.0071558845,-0.005021951,0.04418724,-0.012656531,0.008108394,0.0011079053,0.0019476073,0.009002306,0.010979708,-0.010237936,-0.021134777,-0.015925145,0.012246501,-0.012608303,-0.018335864,0.012535073,-0.0063096224,-0.0026497785,0.001330813,0.00012781458,0.00214809,-0.0016311794,0.0023412327,-0.0062123863,-0.0012398007,0.00353325,-0.006677656,-0.0068272366,0.0017707831,-0.008570705,0.0009650778,-0.0011293917,0.002633036,0.005679139,0.003382638,-0.011575538,-0.007886259,-0.008383247,-0.009318548,-0.006091598,-0.005298053,0.0019307116,0.0025873098,-0.0040780758,-0.026867243,-0.0057638763,0.014627011,-0.006957253,-0.005082707,0.0013964962,0.041715324,0.0028460193,0.012144879,-0.0038960467,-0.004424653,-0.0068763,-0.0018786332,0.01002119,-0.01010128,0.020041678,-0.004082887,-0.0013911612,0.02340406,0.0075101126,-0.0049174437,0.009652461,-0.009114975,0.0030978017,-0.014873202,-0.0071619796,-0.012958102,0.0016952677,2.1623295e-05,-0.0014554502,-0.0020990288,-0.0011375479,-0.0017997683,-0.0012691792,-0.0055178143,-8.376038e-05,0.02260446,0.0046639927,-0.00061827234,0.01557417,0.011368054,0.0036399001,-0.0082473615,0.0064573595,-0.0026832542,-0.0031889866,0.0001991236,0.0060306215,-0.013122829,-0.0063680746,-0.005350258,-0.0052752597,-0.011172024,-0.015375214,0.0022079048,0.009723702,0.005356675,0.0023471683,0.0077811847,0.008210929,-0.00032365412,-0.0011568173,0.0001205063,-0.007154866,0.007135577,-0.0027634208,-0.01809519,0.028360305,-0.020851009,0.0033238349,-0.008810012,-0.0042740293,-0.014232572,-0.0035903084,0.0057344185,-0.0038009787,-0.0009713229,-0.0010549404,0.0023931607,5.865673e-05,0.0063309986,0.0052195387,0.004610574,-0.012207372,0.004335211,0.006761804,-0.019001147,0.0077789826,-0.0027511353,-0.0010050426,0.0008474338,-0.007814786,-0.0019086592,0.0072402074,-0.014107953,0.0011315913,-0.00022341186,-0.008218966,-0.005981129,-0.0030543394,-0.006171621,-0.0052209552,-0.021296073,-0.021247344,-0.014024753,0.0009400674,-0.01080786,-0.0134481015,-0.00063768204,-0.00016472899,-0.00077391026,-0.0012933095,-0.0022662869,0.0020659836,-0.0056096567,-0.0025402938,-0.0030687482,0.0053060013,0.009729318,0.0010722859,0.0018515559,0.012657055,0.0050207027,0.003798762,0.0067166756,0.0066875666,9.233096e-06,0.000110576555,5.8735764e-05,0.00011785584,-0.00010243358,0.00015664322,-6.144619e-05,0.0003152942,0.000420859,-0.010797699,0.0015271624,0.013168481,0.00014351754,0.0029872814,-0.0023059277,0.033936806,-0.011546655,-0.0036894726,0.005932186,-0.01807287,-0.022319406,0.020384442,-0.007293956,-0.0034437776,0.005851506,0.0133840665,0.023193734,0.009836154,-0.0046038935,-0.008577231,0.00079824094,0.009998687,0.011394612,-0.0051252223,0.018739544,0.0046042353,-0.014201452,-0.008002393,0.0021292616,-0.011020186,0.0013462766,-0.009259102,0.0067030415,0.009616262,-0.006104422,-0.0048934575,0.0028854776,-0.003723991,0.004604005,0.0064832633,-0.0014328911,-0.0021853761,-0.00037220703,0.0017649663,-0.0048348797,-0.0029035893,0.0019608056,-0.015545939,-0.01908071,-0.009343456,-0.010892381,-0.022308322,-0.016088188,0.02613926,0.014327243,0.010393656,0.021168357,0.014140021,0.02688499,0.0061404444,0.0002524209,0.0093472935,0.00015651555,0.003646185,0.00061147474,0.00284991,0.0028536106,-0.0021459332,0.00018147577,0.005031657,0.0054487456,-0.0010664185,-0.001420802,-0.0015688762,-0.0014878477,-0.0005349461,-0.00043199587,-0.0002570737,-0.0005939653,-0.00073185086
0.019098679,0.017880816,-0.04244541,0.030566335,0.027219422,-0.0054934123,0.019021213,0.014501124,0.006180868,0.028556895,0.015408029,0.022699656,0.037413992,0.009576989,0.007343237,0.02809568,0.017203307,0.030639611,-0.01544091,-0.006092105,-0.011926837,-0.012529865,-0.032322228,-0.00415884,-0.0051654964,0.005221756,0.0070855403,0.002110584,0.013490042,0.053838495,0.014629576,0.0474313,0.07344878,0.018440956,0.051361293,0.07908884,0.03407461,0.053226214,0.059060648,0.09434473,0.083280556,0.048609953,0.08791316,0.081432246,0.045188442,0.0025541012,0.034643266,0.057998978,-0.0397662,-0.0027885241,0.03511502,-0.05112686,-0.0060802796,0.03156197,-0.031280488,-0.013473181,0.009460037,-0.022920892,-0.001057581,0.018154614,0.010385156,0.053268995,0.029622957,0.03529,0.033451114,0.03435362,0.024373747,0.0070696184,0.004631054,-0.012251123,-0.0046004755,-0.031769313,0.006486804,0.09072835,0.11031693,0.026632208,0.051905002,0.060253903,0.027288388,0.06545136,0.06399214,0.034775272,0.06698804,0.10238922,0.034426082,0.063487545,0.07389538,0.0074055605,0.032033164,0.058047373,-0.0074083703,-0.03292013,-0.015392533,0.0008712561,-0.0111449985,-0.004966316,0.0070621595,-0.0128909955,-0.0007470202,-0.007560953,0.01456455,0.093741864,0.007787263,-0.019410364,0.073751174,-0.00998075,-0.028745895,-0.0018156134,0.02331914,-0.0072574234,0.015023738,-0.0114220865,-0.026836654,-0.009505727,-0.022606693,-0.013438816,0.0012742364,-0.024659747,-0.01753954,-0.008657792,-0.0024619685,1.24743765e-05,0.022750644,-0.020039564,-0.001414801,0.055825803,0.008975268,0.01072451,0.0043721846,-0.008178196,-0.010391346,-0.019157255,-0.007219581,0.0021515146,-0.008940953,-0.034371596,-0.022385737,0.03623517,-0.02671204,-0.055254407,0.020375581,-0.020259397,-0.023218699,-0.018034881,-0.01986529,-0.017921848,0.0059296954,-0.011088173,-0.008446577,0.016030438,-0.0048282193,-0.003932447,0.00065712206,0.12284957,0.07416779,0.08267516,0.05133413,0.034996167,0.04712451,0.072307326,0.030606382,0.0014959914,-0.00055295427,-0.06346678,-0.06370911,0.0030780847,-0.045922183,-0.07807334,-0.031779014,-0.061380506,-0.09007414,-0.027161516,0.015541336,0.05512878,-0.048280653,-0.03209817,0.039148375,-0.03994338,-0.030390676,0.021370517,-0.03963728,-0.01884475,0.006097638,-0.048790224,-0.044464458,0.008616424,-0.036588646,-0.04562902,0.020590182,-0.010696712,-0.05384921,-0.0402561,-0.03597307,-0.06331371,-0.064517245,-0.0239718,-0.025447415,-0.02936974,-0.038860325,-0.0028837505,-0.009868627,-0.037669778,-0.018342242,-0.012399754,-0.046174474,-0.015578296,0.02079743,-0.048357893,-0.024418265,-0.02546993,-0.032397565,-0.030620623,-0.031664852,-0.05562384,-0.047048453,-0.03669734,0.065591425,0.022780742,-0.018802451,0.03805232,0.014801836,-0.0021058326,0.021584686,-0.017525114,0.00014636734,0.006942201,-0.0068932627,-0.043231897,-0.01986468,0.0071285483,-0.017236322,0.0054866127,-0.0034575844,-0.008589329,0.0043072803,0.04861117,0.010969216,-0.020223482,-0.038545765,-0.025098015,-0.02443199,-0.04649916,-0.033376362,0.0267825,0.0397662,0.043095313,-0.04824771,0.02524981,0.047507726,-0.033092115,0.0025492008,0.0045495317,-0.0043197204,-0.04790976,-0.042503536,-0.01388178,-0.02678213,-0.0890364,-0.031872146,-0.040273413,-0.023997018,-0.01860632,-0.02616893,-0.027631057,-0.034170825,-0.027297484,-0.03998027,-0.024243211,-0.012798139,-0.015336932,-0.04690387,-0.034798995,-0.02761709,-0.033285834,-0.025388317,-0.008097159,-0.040604893,-0.051563706,0.00032901295,0.03717673,0.05443676,0.021762578,-0.012193078,-0.010059296,0.008884707,-0.016044214,-0.030178852,-0.0021723295,-0.020253537,0.008363894,0.04726303,-0.009216064,0.0028890676,-0.017678509,-0.03072915,-0.024346504,-0.00011096177,-0.05005132,0.03232126,0.069364235,-0.039601427,-0.034239493,0.012849271,-0.0021563587,-0.029722262,-0.0238176,-0.0397834,-0.049404744,-0.02160392,-0.10195309,-0.11097404,-0.060307976,-0.06373392,-0.04512321,-0.015693353,-0.03131716,0.078359485,0.05212325,0.015613823,0.013001059,0.04615028,0.034191255,0.01846136,0.07030855,0.009128968,-0.03924987,-0.056041814,-0.0273701,-0.061264668,-0.09219756,-0.066763245,-0.050850287,-0.07420711,-0.042368628,-0.032314878,0.02184098,-0.024366438,-0.0019368081,0.04757553,0.00037899756,0.021873234,0.061220255,0.0030479024,-0.0124722,0.004876129,0.004178292,-0.004966361,-0.0015408423,0.018158788,0.015108947,-0.005222769,-0.059849434,-0.008853799,0.032730985,-0.08547394,-0.03027951,0.023253331,-0.029316487,-0.012906253,-0.005090486,-0.047084685,0.008245339,0.014044072,-0.0111719705,-0.010272642,0.0008919351,-0.0007143234,0.034467146,0.051230267,-0.01911607,-0.03891468,-0.023567306,-0.038180374,-0.03664491,-0.057347428,-0.032564238,-0.07866875,0.03692936,-0.030719928,-0.019961799,-0.0014707642,-0.0055710133,-0.047921084,0.0022912668,0.0033887047,0.0073058344,0.007074405,0.012223991,-0.0031212931,-0.014068928,-0.016804019,-0.014648844,-0.026793493,-0.018122803,-0.036556005,-0.004065345,-0.0008552356,-0.05487917,-0.08475242,0.024384454,0.022044847,-0.0026384853,0.003550971,0.015515176,0.06488588,0.023707328,0.027906962,0.019602234,-0.022148415,0.024385842,0.029489007,-0.045446046,-0.02913074,-0.014834462,0.034136284,0.034843568,0.059492916,0.03903516,0.06111573,0.08061034,0.042863518,0.06373187,0.06761927,0.011555657,-0.089340314,-0.04529972,-0.065033026,-0.05092004,-0.041849688,-0.008206891,-0.019268636,0.025326652,-0.047653373,-0.005642912,0.029856449,-0.045977898,-0.01956148,-0.0050639156,-0.022500334,-0.014434294,0.053968195,-0.0030145384,-0.0004529145,0.006862653,0.016982699,0.0022045334,-0.04671281,-0.018566228,-0.01761693,-0.030727113,-0.031410433,-0.016221965,-0.020421287,-0.033562098,-0.045941673,0.005255018,-0.024644256,0.012469666,0.05913093,0.024428459,-0.021750232,-0.051015567,-0.017349046,-0.021690058,-0.06650048,0.008144581,-0.032267783,-0.021025408,0.014163087,0.0156886,0.019598171,0.0043199644,-0.0061331517,0.0015708631,-0.020644372,-0.0104404,0.0054183607,0.063332826,0.027051235,0.0010303907,0.06202349,0.018224029,0.0052512204,0.08516394,0.034304902,0.004094466,-0.0017591837,-0.0027054916,-0.0043365946,-0.0037861704,-0.0053240918,-0.0072002774,-0.0056806514,-0.0067022387,-0.008853273,0.022813356,0.02178241,0.03482875,0.0030530882,0.0061016167,0.03439585,0.026180567,0.05902894,0.031158494,-0.043844078,0.01704329,0.03351524,-0.016265968,-0.036532164,-0.004927745,0.014379526,-0.035055324,0.049884252,0.01622131,-0.024980973,-0.01857079,0.040950138,-0.00979859,-0.010509241,0.050110318,0.017880498,0.013831624,-0.011862824,-0.023348087,0.013041357,-0.037490774,-0.041509174,-0.033192854,-0.016397493,-0.0004906179,-0.033058167,0.030663306,0.048425738,0.023969602,0.027746035,-0.0037334403,-0.0029979842,0.062047932,0.041116294,0.03425067,-0.06937892,-0.070863895,-0.0055376813,-0.095253244,-0.04667132,-0.015219713,-0.07968106,-0.03497819,-0.012583803,0.08809359,0.07372826,0.027413497,0.0687847,0.044523638,0.008595642,0.03916606,0.027187122,0.025864083,0.054273497,0.03952337,0.050873835,0.02375594,0.02879404,0.068403475,-0.015137966,-0.009482308,0.043676265,0.00395308,0.003270421,-0.0055472306,-0.008013517,-0.00078897295,0.005834575,-0.00024570726,0.0021210534,0.008882381
0.00496538,-0.002252601,0.008106211,-0.003959932,-0.009950486,-0.0035531886,-0.008580291,-0.01075578,-0.008483051,0.004131385,0.00196013,0.0012220602,-0.001212762,0.0017245794,0.0005661424,-0.0010285021,-0.0012594498,-0.0029206683,0.0028658127,0.00718141,-0.012356493,0.016924849,-0.015920777,-0.010125879,0.030857781,-0.0008128666,0.0025509065,0.00052967115,0.0013291169,0.0016386525,0.0011911601,-0.0005709493,0.0020454044,-0.00011708694,0.00025429294,0.0021740375,0.0119252745,0.0072134035,0.008170337,-0.0006655485,0.0055053737,0.006735543,-0.0016417326,-0.002980809,0.004127049,0.0028259247,0.0039765984,0.0028909207,0.0028220045,0.0031394395,0.001739781,8.452103e-06,0.0027111322,0.0003385275,0.0012473656,-0.0050289487,-0.0012686541,0.0017000575,5.7062764e-05,-0.0033307432,-0.0012426054,8.19622e-05,-0.00327949,-7.204484e-05,0.0012969915,0.0006979367,-0.0009705403,-0.00050192454,-1.9476212e-05,-0.0014361233,-0.004307608,-0.0005319519,0.0035530138,-0.0014077212,-0.0045982203,-0.010874198,-0.010483355,0.001628908,0.004134107,-0.004546799,-0.00852831,0.0007656823,0.003307525,0.0018666453,0.0004814547,-0.0011531719,0.0010973583,-0.004119395,-0.0013065054,-0.00044735803,-0.0014704423,0.0003847196,0.00778517,-0.00023206612,-0.00094922684,-0.0013766896,-0.00079584686,-0.0012647173,0.00041896763,-0.0015103822,0.005039688,-0.0059889904,-0.008991674,-0.0012941057,-0.006684558,-0.009938185,-0.007740124,-0.0034433166,0.003790697,0.003742739,0.0009873387,0.006460624,-0.0028585028,-0.000717035,0.0058413623,-0.0035704924,-0.0014098673,0.0025551207,0.0019170148,-0.00038986254,0.0073001557,0.0005452958,-0.0010675794,0.001897371,0.00050116883,-0.00072351925,-0.0022441559,-0.00018630951,0.00013584876,0.00021647426,-0.00053369836,-0.000109059794,-0.00015204643,-0.00040070552,0.00023306474,-0.007344637,-0.0030935372,-0.0032722598,-0.011011793,-0.0065936,-0.0028689427,-0.014600915,-0.00613587,-0.0002600076,-1.2345328e-05,0.00022696484,-0.0007391631,0.00046724422,-0.0014838324,-0.00028898034,-0.0031960353,0.0030412655,-0.0011648937,0.008965592,0.01975227,0.015341436,0.019635309,0.0076743574,0.0028324649,0.045524236,-0.00070476264,-0.004684792,-0.012188053,-0.0107208025,-0.0021976426,-0.009335066,-0.00068436365,-0.0019870594,-0.00729775,-0.012151991,-0.0039036823,-0.0050243083,-0.0056711817,-0.002446921,-0.0076707667,0.0045457007,-0.0049400544,-0.010741878,-0.0043668994,-0.002686834,-0.0116597125,0.00424887,-0.002760537,-0.0059884307,0.0024285745,-0.0055468976,-0.006375188,-0.0029069223,-0.0020013961,-0.0042301216,-0.011973915,-0.0057732533,-1.7536295e-05,-0.00018083733,-5.3552525e-05,-0.00066305604,-0.004935394,-0.0036718207,-0.002582466,0.0036474615,0.0027737261,7.980101e-05,0.0046180757,0.0018599504,-0.00028978314,0.008989957,-0.00022407103,-0.0063458867,-0.0053903195,-0.001755042,-0.006778271,-0.0047607236,-0.0037414674,-0.006885161,-0.0063035516,0.001185483,-0.001532084,-0.0041349577,-1.1715598e-05,-0.0007043715,0.0024751585,0.0011214421,0.00096768764,-0.00053007144,-0.0037101426,-0.007200333,-0.0015272102,-0.00071843335,-0.005030847,-0.0059274407,-0.0038778055,-0.009706927,-0.0062776227,0.0018658738,-0.0071218796,-0.0023647535,-0.0016074523,-0.0068573537,-0.0070187734,-0.016501408,-0.004384747,-0.00050289504,-0.00042703588,-0.002141262,-0.006297384,-0.017276224,-0.011923687,-0.016283175,-0.018479161,0.0026240512,-0.016818803,-0.0036819014,-0.00244886,-0.0065302923,-0.0067383526,-0.004303135,-0.0038559616,-0.017709825,-0.0047093243,-0.0026302745,-0.015663376,-0.0015453465,0.00019761796,-0.0006377482,-0.00013268512,0.0011679325,-0.0008394229,-0.00043663554,-0.0042893384,-0.00095607375,-0.0034007267,0.003417584,-0.017174162,-0.0051943967,0.012400022,-0.0016705461,0.003601538,-0.0047827214,-0.015439659,-0.0014658748,0.009095602,-0.011605665,0.0066872165,-0.006308912,-0.008498082,0.0031187453,-0.007020458,-0.0061415597,-0.00099141,-0.0044047763,-0.0073038177,-0.0004633766,0.009351815,-0.0002329701,-0.0037924913,0.000295028,-0.005066407,-0.0056853783,0.0012636924,-0.00978469,-0.013196426,0.010412164,-0.012560109,-0.01895987,-0.0052835424,-0.008659127,-0.007868289,-0.008597696,-0.011570541,0.004328162,0.00021208373,-0.0071199047,-0.006928678,0.0024297556,-0.0021980274,-0.014019039,0.0030696515,0.0016232964,-0.0062988494,0.010041939,-0.018878434,-0.018261896,0.008300495,-0.020886928,0.0015967381,0.0036808432,-0.010510645,0.0050266613,0.015994996,0.0004900683,0.00024394985,0.00064018805,0.0071560363,-0.003263702,4.99722e-05,0.0009606161,-0.0046380167,-0.0009663689,0.00064535177,-0.0022682236,-0.0018327236,-0.0009961113,0.00023335162,-0.00082671153,-0.00090451457,-0.00022795842,-0.0020379187,-0.0013229973,-0.0020680926,-9.3322284e-05,-0.0009769349,-0.00051920017,-0.0059206975,-0.0050689913,-0.0026213895,-0.0053718714,-0.0071108467,-0.00736961,-0.005732879,-0.003032326,0.010860267,-0.01042589,-0.0053316294,0.018542364,-0.0013298607,-0.006379838,-0.0042969435,-0.0015587766,-0.007923788,-0.01000867,-0.0010590467,-0.015605946,-0.001963144,0.0037921958,-0.0055958815,-0.0003602943,-0.0031781767,-0.009530409,-0.01195821,-0.0009706997,-0.0006542655,-0.0010213909,-0.00047233302,-0.00302512,-0.0077607827,-0.0073501994,-0.0034349568,-0.00090324925,0.0015788134,-0.00015347864,-0.0012396504,-0.00055947056,-0.0007150917,-0.0006044378,-0.0009121455,2.5133577e-06,0.0029368028,0.0012271894,-0.0026512349,-0.00033449556,0.00070500985,-0.0027119305,-0.0015052619,0.0012666865,-0.00824353,0.0022491564,0.00047332243,-0.0004094004,-0.00497026,-0.00070903223,-0.003421719,0.00031071898,-0.007843979,0.0076652155,0.00090797374,0.0039673066,0.0013189702,0.0012752862,-0.00029950668,0.0027238892,0.001537869,0.0005487663,0.0047256867,-0.00825033,-0.006955695,-0.0053918865,-0.0008334439,-0.0046265046,-0.0018211051,-0.01327644,-0.011188361,0.0024245207,0.0035587037,-0.002175651,-0.0006416922,-0.012316833,-0.0027727692,-0.0020266613,-0.0025561585,0.0011615996,-0.00589457,0.005529094,-0.0049469746,-0.003350992,0.0027520873,-0.0021997408,-0.0059585366,-0.0048414697,-0.010226992,-0.0068765054,-0.010636792,0.002635646,-0.0020255097,-0.0021275692,-0.004974394,-0.0069319997,-0.0045725955,-0.014973299,-0.011195945,-0.0020812624,-9.118647e-05,-0.006240227,-0.004703686,0.00031800114,-0.0061131995,-0.0008274921,-0.008493926,-0.0021311576,-0.0026820006,0.0005945078,0.0022825298,-0.0013941592,-0.0006233688,0.0051167337,-0.0010582817,-0.0017199266,0.003002542,0.00055419654,0.0056674997,0.0004384597,0.0023672201,0.00028254662,0.0016438441,-0.0003942953,0.00019138608,0.0015170587,-4.326892e-05,-5.7414916e-05,-2.9466584e-05,-2.7592569e-05,-4.058313e-05,-3.7717004e-05,-2.8199001e-06,1.14897375e-07,5.2882453e-05,0.0021146957,-0.016997054,-0.004781607,0.009750032,-0.0018664895,-0.0016812279,-0.00791084,-0.008595141,0.0043873833,-0.014400696,0.0055804006,0.008836089,-0.00957541,0.025316332,-0.01723076,-0.010698214,0.00029432395,-0.012734767,-0.00015398153,0.0011003407,0.0017161355,0.00025183888,0.006918355,0.0017058874,0.0022632228,0.0008701568,0.0008424867,-0.0006062202,-0.0036982358,-0.010893263,0.00445199,-0.0098251905,-0.004395993,-0.017751731,-0.00071941165,-0.003975457,-0.009287774,0.0012177974,0.0033840307,-0.004773645,0.0022503866,-0.0030716788,0.00066137523,0.014170126,-0.003937053,-0.0065990766,-0.0040391465,-0.0017179125,-0.012108659,-0.0072471974,-0.0057166223,-0.001414112,-0.0030316596,-0.0007841434,0.003399744,0.0031094712,0.011551168,0.005597433,-2.9618946e-05,-0.0018058303,-0.0007750201,-0.0069109835,-0.0007599339,0.002818308,0.013246335,0.0027583584,0.0044072643,0.00501071,0.0031430137,-0.00016237852,0.0015834295,0.0009185311,6.942104e-05,-0.00023635008,-0.0001763446,-0.00021579664,2.8841809e-05,-0.00025841474,0.00039622214,-0.00011104162,0.00014830947
-0.00037275936,-0.000559007,-0.0006139609,0.00049349,0.0018647672,0.0011851587,-0.001847742,-0.0011203851,0.0011703777,9.4107145e-07,2.1643955e-06,1.0411856e-05,-2.5852555e-06,1.1890568e-05,-3.5000753e-06,-3.4094424e-05,-0.00010205067,-2.1585163e-05,-0.0002209646,-8.921183e-05,6.21106e-05,-0.0003964154,-0.00015776552,-1.4416099e-06,-6.020535e-05,-0.0006017753,-0.0004970252,1.9402682e-06,4.5487063e-06,3.2574035e-06,4.9665704e-07,3.564112e-07,1.1104622e-06,1.8028151e-05,9.141354e-06,6.8279223e-06,0.00014829505,0.0002614061,0.00046599936,0.00012176334,-0.00040552652,-0.001279096,0.0003532947,0.0008033373,0.0006279996,8.7760214e-05,3.499739e-05,4.8324364e-05,2.4292425e-05,2.2449327e-05,4.8224483e-05,3.3470635e-05,2.2825232e-05,1.6565387e-05,-8.824632e-06,-9.2230226e-07,1.4990758e-05,5.8243495e-06,-2.4994167e-06,1.6141778e-06,-1.624498e-05,2.0961354e-05,-7.7206573e-07,-7.461263e-06,-3.2712316e-05,-3.5946425e-05,-3.4007386e-05,-7.184769e-05,-4.8290713e-05,-0.00013793126,-5.9786522e-05,-8.3641324e-05,0.00032116706,-7.757861e-06,0.00016236678,3.6789228e-05,-0.00018194187,-0.00026514128,0.00031055568,6.0455128e-05,9.496908e-05,9.6595504e-05,0.0001634712,0.00027031548,6.734351e-05,1.5119028e-05,-0.0009863802,0.00010244743,0.00010789097,0.00022156944,-2.783353e-06,-2.3435273e-07,-1.3729227e-05,-1.1586458e-05,-9.558161e-06,-2.4448336e-06,-2.2226064e-05,-2.1970072e-05,-1.3963344e-06,-0.000102633996,-5.751772e-05,-2.5537796e-05,5.518633e-05,-2.3306113e-06,-3.1806027e-05,2.842168e-05,-6.8922105e-05,-3.059904e-05,0.00043248158,6.131666e-05,0.000105931445,6.583611e-05,-1.9189205e-05,-7.988506e-05,3.1132928e-05,3.785068e-05,0.00018082398,2.4537549e-05,1.0533489e-05,2.3582377e-05,-1.4385823e-05,-1.1826487e-05,2.019301e-05,-2.0147716e-05,-4.766812e-05,8.6494407e-07,-1.1323109e-06,-5.289544e-06,-1.8013161e-05,-1.0893196e-07,-3.2175816e-05,-1.3788732e-05,-3.4560504e-05,-5.344294e-06,-4.447126e-05,-0.0019818847,-0.0007218099,-0.0007199453,-0.001665679,-0.00021125544,-0.00048111705,-0.0011453505,-0.0005231406,-0.0006345319,-3.893513e-06,-3.893261e-06,-1.0952392e-06,-4.3966502e-05,-8.620833e-06,-6.0176926e-06,-2.3528406e-05,-3.2888815e-06,-2.2228282e-06,0.0010167595,0.0018822929,0.0015467067,0.0014276489,0.0016057902,0.0017879617,0.0006951563,0.0017488967,0.0015574809,-0.0005970515,-9.963572e-05,-7.387768e-05,-0.00020548321,-0.00010514174,-0.0005405663,-0.00025152916,-0.0001704315,-0.00023722411,2.328715e-05,-4.8243946e-05,-4.0463925e-05,-3.8449394e-05,-0.00014390492,-0.00015107443,3.4024066e-05,-2.4499108e-05,5.513056e-05,-0.002048881,-0.0016473808,-0.0018919673,-0.0017802495,-0.0013244734,-0.0013975812,-0.0025431819,-0.0017922567,-0.0019397361,-1.6838125e-05,-2.2139786e-05,-3.4695986e-06,-1.5169551e-05,-1.5605723e-05,-7.46647e-05,-5.280552e-06,-7.145484e-06,-4.011594e-06,-0.00020925477,7.989186e-05,4.416598e-05,-2.3359082e-05,0.0010359298,0.00010706155,-2.041917e-05,1.4786208e-05,-4.311129e-05,-0.00030003642,-0.0003425366,-0.0002551386,-0.0003769168,-0.00026952097,-0.00044956073,-0.0005482572,-0.0006813814,-0.0003734159,-1.11072595e-05,-0.00020746465,-2.0651007e-05,-1.17749505e-05,-3.504751e-05,-3.4576917e-06,-0.00029569698,-0.00012526823,0.00011293276,-4.4370994e-05,-5.427664e-05,-0.00025799582,0.0003690306,0.000666993,0.00018450875,-0.0001311136,6.528281e-05,0.00010010828,-7.27263e-05,0.00012783302,-1.2815127e-05,-0.00028257605,-0.000516645,-0.00012486895,-0.00047821234,0.000109248926,-0.00025993615,-5.5492543e-05,-0.0001325627,0.0010081659,0.00044523546,-0.00051513145,0.0006795209,0.0001322186,-0.00035656107,0.00047437559,-7.180741e-05,1.1712113e-05,0.00017042777,-0.00041533093,-4.3921787e-05,6.2051195e-06,-0.00062981347,-0.0002644036,-9.247567e-05,-3.0963864e-05,-1.1162991e-05,-7.16099e-07,-3.6943281e-06,-1.4969204e-05,-9.888657e-06,-1.302189e-05,-1.9724146e-06,-4.8801376e-06,-9.3909635e-05,-0.000118406606,-8.093853e-05,-0.00019294304,-3.6507503e-05,-0.00020766593,1.1028418e-05,0.00016190996,0.00019436836,-4.855536e-05,-0.00036631458,-0.00012211489,-0.00064006884,-9.3734656e-05,-0.00027263502,-0.00020443965,-0.00035816384,-0.00017663956,6.5142376e-05,-3.9806553e-05,-9.639879e-05,7.666994e-05,2.6890364e-05,2.0553809e-05,1.3839157e-05,3.1871863e-05,0.00018057195,-0.00083431497,-0.00022885358,-0.00036917505,-0.00080227194,-0.00060213276,-0.000433463,-0.00060535956,-0.0003743336,-0.0006894674,-0.00019600448,-9.011888e-05,0.00012375564,-0.0006673446,-0.0001904832,6.101861e-06,-0.00023887536,-0.0010300509,-0.00046620067,-0.00041327177,0.00041037198,-0.00014834286,-0.0006856317,-0.0010767444,-0.0010436665,-0.0016802116,-0.00063197606,-0.0025777556,-0.0002663652,6.488571e-05,0.00027641194,-0.00037107477,-5.5416916e-05,0.0006574938,-0.00025896853,-0.00051678997,0.00017450313,-2.812136e-05,-3.1520717e-06,-3.0439372e-07,-2.1261292e-05,-1.9695258e-06,-8.5317915e-06,-7.0097644e-06,1.5447267e-06,-7.491093e-06,-5.559751e-07,-3.376594e-05,-6.2814375e-05,0.0001365739,5.7770685e-05,3.122941e-05,1.9268162e-05,-4.081788e-05,0.00012884161,-2.6017124e-05,-0.0001594623,-0.00010502354,-0.0001460476,-9.400018e-05,-1.5878546e-05,-0.0001934745,-0.0002495092,-0.00028150534,-0.0001909845,-8.056742e-05,0.00012858186,-0.0001285256,-7.629815e-05,-1.8177412e-05,-0.00014062015,7.798524e-05,6.7223987e-06,-5.354575e-05,-6.41011e-06,-1.20469595e-05,-0.00013088503,-3.0977968e-05,-0.00023979474,-0.00022614354,5.1821817e-06,0.00015993483,-5.2565843e-05,-1.145602e-06,1.0244791e-05,-0.00030544944,-0.0004087073,-2.5324289e-05,1.584453e-05,-3.9268518e-05,-5.4471475e-05,-2.5960107e-06,-7.572141e-07,-1.3465078e-07,-2.383834e-07,-3.3572333e-06,-3.1595396e-06,-1.0058378e-06,-2.4207184e-06,-1.0748305e-07,-2.9260722e-05,0.00026913846,-3.6111043e-05,-0.0003083067,0.00015864843,5.1831274e-05,-0.00032311532,-2.1786831e-05,2.8627313e-05,6.396696e-05,8.543371e-06,3.19177e-05,5.1605886e-05,2.5489508e-05,5.2495525e-05,-2.1096048e-05,3.2730618e-06,0.0001213591,7.6807926e-05,3.2674845e-05,4.364313e-05,2.4963443e-05,-5.928254e-07,3.6377096e-05,3.832471e-05,1.9543604e-05,2.8933195e-05,-1.9112607e-05,-0.00027290377,-0.000109486464,-0.00013461335,-0.0009622445,-0.00013276438,0.00059189816,-0.00024024815,-5.7504447e-05,1.2375211e-05,0.00011954843,0.00019060208,-1.4723798e-05,1.3638963e-05,2.915072e-05,-9.677097e-05,-0.00021989283,-3.2442073e-05,-0.0003188498,-0.00013083332,-2.926993e-05,-8.608932e-05,-0.0004789092,-0.00019449463,-0.00058243715,-0.0001249166,-1.884917e-05,-9.843905e-05,-2.6960365e-06,-4.137245e-05,-8.425032e-05,-5.12145e-05,-0.00013689495,-0.00031072414,-4.6548143e-05,-0.00026971468,-5.766558e-05,-0.00022923187,-6.354238e-05,-9.043047e-05,0.0004938512,0.00041601757,-0.00022176857,3.6824425e-05,0.00034251227,-9.6264e-07,-1.3968871e-05,1.1177776e-05,-1.1226291e-06,-2.0140053e-06,-1.6761285e-06,7.900895e-05,5.054508e-05,-1.1513302e-05,-1.9334473e-05,9.1457025e-07,-1.2511737e-07,-0.0003249064,-9.0422436e-05,-1.9042709e-06,-0.00070867816,-0.00022254014,-1.5439557e-05,-1.5499685e-10,-3.6538894e-10,-1.0846191e-09,-2.2384848e-10,-1.0803871e-08,-6.418871e-10,-5.2741442e-09,-1.0891666e-09,-1.4354438e-10,-0.0010296385,-0.00041783537,-7.064094e-05,-7.352857e-05,-0.00016155945,-0.00025721986,0.00019431478,0.0009347719,0.00019714901,-0.0011200574,0.00018978103,-0.0005340093,-0.0012706841,-0.0007838106,-0.00010135018,-0.0013566318,-0.00014358631,-0.00086640776,-1.910218e-05,-0.00011739313,-3.6924866e-05,-5.1891337e-05,1.3169561e-06,-5.6208605e-06,-8.524195e-05,-4.3462118e-05,-4.2944528e-05,-9.009049e-05,-5.737995e-05,-3.556783e-05,-0.00014063186,-0.00010577467,5.547732e-05,-4.9500104e-05,-0.00020874539,-5.418883e-05,-0.00014983375,4.9024064e-05,-2.9466362e-05,-5.3257943e-05,-0.00012416199,3.111088e-05,1.1938308e-05,7.6757206e-05,-1.8194132e-05,-1.3197926e-05,-5.2047228e-05,-3.815126e-05,-5.893312e-05,0.00010538799,7.917049e-05,-0.00025115995,-1.6441982e-05,1.2748062e-05,-0.00010893425,-0.00015430622,-0.00014119165,-0.0010137572,-0.00061119103,-0.00096745306,-0.0016378375,-0.0014836551,-0.00041371246,7.1995746e-05,0.00016562706,0.00010679701,0.00012694871,0.00050068885,0.0002187885,0.00010958543,0.00020739881,0.00013792416,-1.8051844e-07,-1.4298152e-07,-4.267524e-09,-2.7396115e-06,-4.0680457e-06,1.3966701e-11,-2.4198564e-05,-2.2743876e-05,2.788504e-07
-1.347529e-07,5.62797e-07,-3.4177155e-08,1.1269684e-07,-6.1794356e-07,3.469468e-07,4.461398e-08,2.7747097e-08,1.7808375e-07,-1.8692186e-09,2.6365146e-10,-3.3895518e-13,-2.6783721e-11,4.6288479e-10,3.7303308e-10,2.6944857e-10,5.9603447e-09,1.1018529e-09,-4.3304087e-07,-2.5889705e-07,-5.6247842e-08,-3.7614505e-08,-9.791204e-07,-2.2552604e-06,-1.4169356e-06,2.3190216e-06,-1.2978786e-07,-6.892973e-14,-4.0434673e-17,-9.45075e-15,-2.7165378e-11,-4.33196e-14,-3.4399445e-14,-2.2208153e-12,-9.2888396e-18,-3.565079e-16,-1.403816e-08,-6.8408643e-09,-6.122297e-08,2.4315568e-08,2.109168e-07,2.6634757e-09,3.5853918e-09,5.9736602e-09,4.339829e-09,2.1407456e-10,1.14666235e-10,2.1763725e-11,4.085559e-09,1.086418e-09,4.4638064e-11,8.847384e-11,7.23031e-10,5.538515e-10,-1.9070012e-09,-3.899174e-09,-4.8382432e-08,-1.5156753e-07,-7.6566046e-08,-9.953339e-10,4.0428465e-09,-4.7832827e-10,6.986096e-10,-5.313298e-10,-2.9416354e-09,-1.12951225e-10,4.011383e-10,9.331512e-10,3.3912878e-10,5.6806213e-09,7.548768e-12,-9.1609643e-11,-4.303449e-07,-2.1355897e-08,-6.798473e-08,-3.0375423e-07,2.416174e-07,-7.63159e-08,1.9251145e-07,-2.2960268e-07,1.4704491e-08,-1.84093e-08,-5.5113738e-08,-6.412292e-08,3.641326e-08,1.2315245e-07,1.7293129e-08,1.0569534e-09,1.2849911e-09,2.6393336e-08,-1.3632995e-11,-5.920768e-11,-1.3175084e-13,4.1024534e-11,1.1168203e-10,1.2393087e-10,1.9250751e-12,4.6849156e-13,1.0129874e-11,9.613781e-08,-2.1202778e-08,1.7145504e-07,-5.5277198e-08,-9.308538e-09,-1.363698e-07,-6.489123e-07,-6.599155e-09,8.768004e-09,-2.8181642e-08,-2.6699207e-09,-8.622899e-08,1.2467223e-08,6.0520158e-09,6.657824e-09,-6.196921e-07,-4.0245066e-08,-1.6430668e-08,-3.0327054e-09,5.4040206e-10,-3.851481e-10,-3.0250675e-08,-1.992359e-08,-1.4419311e-09,-3.2694984e-07,-1.7754768e-07,-1.4476405e-10,-2.4017602e-10,-9.23408e-12,-2.067475e-13,7.9552376e-10,1.6550574e-09,1.7785823e-11,2.2222769e-11,6.192511e-11,-6.705924e-11,2.7185956e-07,6.875176e-08,9.887309e-09,2.7444842e-09,-4.0502277e-09,2.595045e-08,2.575942e-09,-2.7239777e-09,-1.3337332e-09,2.718781e-10,2.293416e-10,4.6116385e-11,1.0460865e-10,9.1775115e-11,2.6863625e-10,2.4652485e-11,6.142804e-10,4.453163e-10,-1.6474017e-08,4.3735778e-08,5.4442868e-08,9.4513204e-08,8.857472e-08,2.914298e-08,2.5639133e-07,6.0145686e-07,5.5111634e-08,-3.147943e-08,-6.137933e-07,-3.319652e-07,3.091847e-08,1.5907945e-06,7.249291e-07,-2.2502316e-07,-6.1339286e-08,2.8230868e-08,-1.7314769e-09,-1.3900667e-07,-2.7018004e-08,-1.4618226e-07,2.2563245e-08,-1.7922507e-07,-2.39259e-09,-4.429392e-08,-4.5905804e-08,-1.4937683e-08,1.9388322e-08,5.839888e-09,1.9142833e-08,1.4060406e-08,6.166987e-08,1.1513305e-09,1.1235878e-08,5.13978e-08,-5.322368e-11,-5.282733e-09,-2.5812467e-08,1.6052885e-08,1.1065343e-08,1.1299839e-08,-9.1822216e-10,-1.298571e-10,-2.268294e-08,2.1356751e-10,-3.030273e-09,-1.8450796e-08,-2.9683437e-07,-1.6108748e-07,-2.6187992e-09,7.800687e-09,-2.1550844e-07,-8.053343e-08,1.5292372e-09,1.2410774e-09,3.0434504e-09,1.817307e-09,-1.3481849e-08,3.8357832e-09,-2.9715248e-09,-8.0845955e-11,-2.6292248e-09,-2.0679571e-09,-1.5316827e-09,3.8255947e-11,-1.7212672e-10,-5.540089e-09,1.1353242e-08,2.15258e-07,-5.955646e-11,-1.9451813e-09,-3.2220942e-08,2.8099976e-07,-1.1451481e-09,1.153499e-08,-3.7457323e-08,3.021451e-09,-7.814698e-09,-7.0814963e-09,1.5696271e-08,-5.5652e-07,-1.2409745e-07,-5.3494603e-08,2.2341878e-07,-1.1786362e-07,4.9029918e-08,-4.7779616e-07,-2.4497837e-07,1.1426158e-06,-1.68689e-05,-2.4602055e-06,1.785998e-07,-2.3613837e-05,-7.6950744e-07,-6.3428195e-07,5.5399654e-05,-2.1212461e-05,-1.0793841e-06,-2.9526227e-08,-8.5040523e-07,9.431452e-09,-2.0360194e-07,-6.8891586e-07,-8.7143206e-07,1.144268e-06,-5.4270623e-07,-1.9609985e-07,1.218058e-11,2.634731e-13,3.1667096e-14,2.5872499e-10,-9.247893e-12,-1.1040975e-10,3.0588174e-11,-6.0117666e-13,5.861271e-11,-3.1540787e-07,-2.3201194e-08,-7.765948e-08,9.3969305e-08,-1.7918074e-07,5.320945e-08,-1.4359595e-06,1.2367347e-09,-3.5696033e-07,-3.646115e-08,-3.377241e-08,-2.0614362e-07,-4.6036388e-07,-4.3803482e-07,-2.09544e-06,-2.81883e-06,3.516047e-08,-5.032228e-07,-5.823778e-07,-1.0507526e-07,-5.9032352e-08,5.861212e-08,5.7001586e-07,1.3316138e-06,-9.345188e-08,1.0375016e-09,-9.606722e-09,-2.5772717e-09,-1.0479904e-07,2.681574e-07,-4.707013e-07,-1.294795e-07,-3.059147e-07,-1.2477138e-07,-3.6910777e-08,8.8023427e-07,-9.16343e-08,-9.37046e-07,-7.932451e-08,-3.926991e-07,-8.3639446e-07,-1.9040078e-06,4.1542908e-06,-3.5834855e-06,-1.400239e-07,-7.268847e-07,-1.3417183e-06,-1.0296274e-06,-5.293939e-06,-3.7034215e-06,-1.1674967e-06,1.4088198e-07,3.952846e-06,2.1203372e-05,-1.7979241e-07,-4.1821095e-06,-6.5099925e-08,-6.412974e-08,-4.721425e-06,-8.533206e-07,-1.2730547e-06,-1.8826344e-06,-7.357988e-07,-4.1656456e-09,-1.0628367e-09,-7.968931e-14,-2.0809188e-09,-2.3251014e-08,-5.67786e-09,1.7548002e-09,-6.2824434e-08,-2.8303448e-10,1.3146595e-09,-1.7595005e-09,4.3500561e-10,1.4491026e-09,8.024655e-11,-3.8953454e-10,8.336712e-08,1.1511719e-09,-7.8295115e-10,1.7608622e-10,1.5613823e-10,8.3472074e-10,-1.1073793e-09,-1.802087e-12,-2.8990652e-08,-1.279809e-08,-9.44615e-09,-2.3554603e-09,-1.303804e-06,-3.3086602e-07,-1.1182595e-07,-3.8658213e-06,-9.807001e-07,-2.3666184e-08,3.0615462e-07,-6.0950447e-06,-9.746151e-09,-1.3125077e-07,-6.542103e-08,-1.4867298e-07,-6.479714e-07,-2.0129014e-06,4.6393782e-07,3.868766e-07,-5.0437723e-08,-8.3307235e-08,-1.07158186e-07,-3.3831762e-07,-1.5709468e-08,9.485018e-08,7.9091464e-08,5.9531743e-08,-3.3480866e-08,-1.1369607e-08,2.5836822e-08,-1.1480076e-13,-1.4795687e-12,-7.672994e-12,6.453661e-12,3.216123e-11,-3.3675103e-12,5.2389747e-14,-1.2362005e-12,-1.607192e-12,-4.892154e-07,-2.5033304e-07,-1.5278248e-08,-8.234103e-08,-1.5427274e-06,9.971855e-07,-1.4394446e-06,-1.6928321e-07,7.995118e-08,5.0515836e-09,2.092722e-09,3.7967546e-10,-5.4559446e-09,4.806351e-12,-2.8707262e-10,-1.008394e-07,-5.779471e-10,-1.537723e-11,-5.601851e-13,-3.9586708e-14,-3.8874945e-11,2.312547e-09,7.263387e-09,1.1105642e-09,1.3206214e-11,2.00617e-10,2.9059205e-10,-7.3540406e-07,-9.0053334e-07,-2.7049755e-06,5.317687e-06,1.3827523e-07,-1.642597e-06,2.6959952e-07,-6.5740346e-07,-1.6846674e-06,-7.750361e-09,-1.8326876e-08,5.144023e-10,-1.5218988e-07,-8.9580743e-07,-1.4645544e-08,6.3778805e-07,1.7912383e-07,8.9425995e-09,-8.123326e-08,-1.3706477e-07,-8.214449e-08,-7.1346386e-07,-2.9590071e-06,2.0758748e-07,-1.9467942e-07,-1.2096639e-07,-5.272084e-08,-1.5651906e-08,-1.0109704e-08,-2.7278098e-09,-1.00051835e-07,1.411036e-08,-5.629937e-08,2.4381206e-09,4.5735348e-08,-1.415613e-08,9.9556425e-09,-2.2188305e-08,-1.8050835e-07,-1.711563e-07,-1.6785345e-08,-1.7354122e-07,-6.9751945e-07,-6.015424e-07,-1.3198783e-06,-1.1472062e-10,-3.3310554e-09,-1.0801212e-08,3.3848615e-09,-1.3783019e-08,-2.3758648e-08,-2.073835e-10,3.5455237e-09,-7.613709e-09,-1.02485444e-10,-1.3686826e-11,1.4230352e-11,1.1337259e-09,6.934375e-13,4.669581e-12,5.0926915e-12,8.5229424e-14,1.691108e-11,-2.820966e-18,8.153407e-17,8.0853793e-19,1.8766428e-16,4.0717573e-16,-1.9177491e-19,4.2238474e-19,-3.7296447e-19,6.445908e-14,-5.853833e-07,-7.7754936e-07,-4.827432e-06,-2.653005e-06,1.8656533e-06,2.4158794e-08,8.789947e-09,-1.1207364e-06,3.0303207e-07,-3.932197e-06,-1.2451881e-06,-1.907669e-07,-7.0476876e-06,-9.968836e-07,-2.5231043e-07,7.455279e-06,-4.6730866e-06,4.2247643e-07,-1.8272283e-08,-2.128383e-12,1.2036314e-10,7.550624e-11,-1.0087681e-08,-7.348163e-09,7.777543e-08,2.1166082e-09,3.7620282e-10,-8.197098e-10,3.0380622e-08,-1.3289387e-08,-2.2914311e-07,-2.2353976e-08,-1.2506125e-07,-2.7485578e-07,-2.678252e-07,2.810771e-09,-4.5996496e-09,-1.4205939e-08,-2.051044e-08,3.8053635e-08,-1.4265195e-09,-1.6694454e-09,8.450891e-10,-1.3917612e-08,-2.0690768e-08,1.4277595e-07,1.2096844e-08,-1.616492e-09,-4.973548e-10,-1.7324643e-08,-3.8624384e-09,-2.2326908e-08,-3.082991e-08,-8.445802e-09,4.639757e-09,-1.46260675e-08,-1.4723526e-07,2.1300295e-07,6.4585386e-08,3.5953853e-09,6.691018e-09,3.1637242e-08,-1.0397672e-07,4.8864454e-12,7.801078e-09,5.8554135e-09,-1.1899653e-09,2.6033378e-10,5.8771044e-10,-2.368232e-09,1.6466277e-08,1.5552342e-08,3.6396216e-18,-3.7398975e-14,2.6908244e-16,-3.0857833e-13,-1.430167e-19,-3.4766176e-12,-2.051388e-13,-1.3043425e-14,-7.772169e-15
0.00086637895,-0.0037414774,-0.01675767,0.0015579882,-0.019652823,-0.007822178,-0.020495364,-0.013834721,0.0031673752,0.0036607732,0.0017014866,-0.0043859747,-0.0056526274,0.00066258485,-0.009305501,-0.01003432,-0.0063122767,-0.020420603,0.001520455,0.014002389,-0.01629347,0.008381938,0.0020383166,-0.007274989,0.0040260386,-0.0014403622,-0.009186038,0.005162829,0.0036849966,0.0033422804,0.005751239,0.004344432,0.003812696,0.0053129904,0.011767823,0.012186344,0.016565153,0.005388294,-0.0067860237,0.006110872,-0.007255079,0.0027008797,0.010324071,0.010858856,0.010256616,0.008549611,0.015143468,0.02535126,0.004970393,0.01929525,0.017459089,0.0019182807,0.012314946,0.016371462,-0.00461774,-0.007811657,-0.009691964,0.0022822304,-0.0025927213,-0.003419771,0.0012434977,-0.013908743,-0.005327137,-0.0012410975,-0.004722758,-0.006652223,-0.0064997217,-0.0009496232,-0.0049377917,-0.009216833,-0.007217003,-0.0013256283,0.0133763505,0.0062080747,0.007937442,-0.00635331,-0.015851267,0.004782536,0.0020445487,0.014418492,-0.012922158,0.012892207,0.01192227,0.011188319,-0.0024445306,-0.0008603637,0.00092557695,0.008566075,0.0062073492,-0.00016584259,0.0023111464,-0.0023222791,0.0024049585,0.0005616874,-0.0038864962,-0.0028836457,-0.00372677,-0.0076903915,-0.0029007879,-0.007654622,-0.0011395657,-0.0021980593,-0.016282024,-0.005354402,0.0068432204,-0.0039152903,-0.015932402,-0.0055616926,0.03592258,0.042930298,0.01993636,0.017366951,0.014370472,0.0025016568,0.018391563,0.0065694987,0.012819388,-0.00095359643,0.005624522,0.0042809667,-0.00048463076,0.007029919,0.003346111,0.0037901064,-0.003850398,-0.002368464,0.0020839246,0.0010634952,0.0006807088,0.0001596405,-0.001349225,-0.0024141432,-0.005487161,-0.0047959145,-0.0040686782,-0.00403029,-0.01215888,0.018523224,-0.0115492,-0.015918361,0.0023198456,-0.011388892,-0.023675648,-0.014969255,-0.0015373849,-0.0019306367,-0.00013947592,-0.0041701016,-0.00060261344,-0.0022347965,-0.0033537282,-0.003937326,-0.008293023,0.0020810666,0.01813156,0.0068527088,0.034821063,0.021383513,-0.0006637366,0.0058464035,-0.007541595,0.007375535,0.0004100254,0.0013922864,0.013290251,-0.008007095,-0.013569536,-0.009724676,-0.007909083,-0.017486094,-0.009256358,-0.004536016,0.0066423207,0.014462223,-0.013458736,-0.01996365,-0.0146914935,-0.00078862166,-0.012651987,-0.0090330215,-0.014908246,-0.010215474,-0.0081445025,-0.010662242,-0.011342219,-0.0055227606,-0.012572797,-0.0125645315,-0.009837824,0.0062875254,0.011216037,0.0065413853,0.0026496528,-0.00052440894,-0.0043133665,0.00052642275,-0.0033378124,-0.0016287916,-0.0033273527,0.0076980083,0.033317547,0.010167816,0.02681256,0.03246821,0.0006893428,0.0033003779,0.0059874863,-0.008486044,-0.010977932,-0.018546624,-0.008137915,-0.015433625,-0.01941219,-0.010800997,-0.013978834,-0.019210232,0.0037594938,0.0026230565,-0.0061542685,-0.0045523834,0.0009906396,-0.0037018382,-0.008566125,-0.004858533,-0.011315192,-0.00464377,-0.00024022817,-0.010534344,0.0031027622,-0.012925815,0.0011789072,-0.0070460476,-0.010372778,0.008365619,0.008031809,0.01002421,0.02121177,0.008722202,-0.008470551,-0.00016318311,-0.0027014567,-0.024206433,0.007765869,-0.0015027976,0.036083154,-0.017513828,0.017374,0.0017982918,-0.010291295,-0.0214039,-0.022590466,0.026460271,0.012919566,-0.0063213794,-0.005762244,0.0022928838,-0.0171468,-0.03887409,-0.0035556778,-0.0003618418,-0.0051119826,-0.0036886286,-0.005719843,-0.0055918577,-0.003155428,0.0033948412,-0.009194976,-0.005835316,-0.004317809,-0.0043626246,-0.0042458856,0.009337159,0.010443117,-0.012091059,-0.0015680772,0.0009447691,-0.0148929525,0.008320708,-0.014645654,-0.007067236,0.01556234,-0.0011515771,0.0049326704,-0.0044994564,-0.008118518,0.004943626,-0.003531243,-0.011269346,0.008728281,-0.0042534545,-0.00067615893,-0.011210211,-0.0040024435,0.007111911,-0.012662219,0.006236635,-0.0049263025,-0.017223045,-0.01801942,-0.0088646505,-0.024857162,-0.01018231,-0.0064900345,0.0014036637,-0.009290282,-0.0096471775,-0.008670121,-0.018263567,-0.0060692863,-0.000955007,-0.0038208223,-0.012848555,0.0017240887,-0.028643895,-0.005498395,-0.014640045,0.0069849854,-0.0034453669,-0.02019541,-0.0007863692,-0.0065608686,-0.034636788,-0.018984696,-0.009440274,-0.0064870194,-0.008085089,0.0069835694,-0.0042892764,-0.002199541,0.003031151,-0.01512706,0.0068640215,-0.0044983276,-0.008204522,-0.0028540676,-0.0038785096,-0.008190258,-6.021654e-05,0.0025476967,-0.006315239,-0.006006161,0.003465997,-0.0018467883,-0.010337744,-0.0044981544,-0.0044292687,-0.006427786,-0.009604163,-0.0037022906,-0.004872635,-0.0044768304,-0.009535684,0.004093922,-0.005508015,-0.004895365,-0.0049403487,-0.0033594775,-0.0045173056,-0.008548756,-0.008567311,0.0031583116,0.0023198163,-0.024866352,-0.013068946,-0.0053917537,-0.001089359,-0.015072254,-0.03433908,-0.0034543811,0.003003118,0.0020156228,-0.015301737,-0.01947376,-0.0115092695,-0.019472867,-0.01733134,0.0066957176,-0.010253791,0.0040531466,0.017938439,0.0074065677,-0.01614278,-0.0225473,0.0034243513,-0.005035649,-0.008240808,0.015171438,0.0059151268,0.0038740598,0.0024750782,-0.0019253705,0.0019500551,-0.0001475367,-0.0017995766,-0.0010808383,-0.0009623752,0.012748926,0.013792928,0.0014656667,-0.0051392773,-0.013767431,-0.010763447,-0.002414018,0.012883395,0.007883235,0.010219537,0.024138493,-0.006658447,0.007852014,0.0011460918,0.004418283,0.0030666718,-0.01229034,0.011992417,0.014311271,0.011991155,0.006434909,0.017418588,0.009896937,-0.0023983067,0.012724553,0.019235013,0.022072328,-0.003035688,-0.013111537,-0.0063232603,-0.018373134,-0.032638222,-0.010557213,0.008659236,-0.024025688,0.0021350195,0.003355104,-0.0081409635,-0.01791635,3.6896927e-05,-0.0014413145,-0.0046147853,0.0014641795,-0.011801291,0.007298542,-0.0022689484,-0.00815026,-0.0033523117,-0.021888552,-0.021675015,-0.025780307,-0.01457387,-0.026919235,-0.019275634,0.0006360095,0.0015710946,-0.004168562,-0.0056969854,0.00736374,0.007189246,-0.015901111,-0.0077371513,0.0076617193,0.0031076898,-0.0033251313,-0.038405173,2.5001496e-05,-0.008233312,0.00288328,-0.00970814,0.010694347,-0.01410809,0.007495819,0.008114923,0.020977274,0.007655811,0.0062871207,0.01166316,0.004396385,0.0065220324,0.016889708,-0.003933687,-0.0045681917,-0.0029786727,0.00065348257,-0.002973894,-0.004382149,-0.004560934,-0.005847053,-0.0017419158,0.00020191316,-5.578364e-06,-9.066083e-05,-0.00037725986,-0.00055978703,-0.0006314669,-0.0009757898,-0.00063823734,-0.0006242549,0.0060797357,-0.010742826,-0.0013697431,-0.0070580244,-0.017688524,0.020080362,0.004778245,-0.01335932,-0.0073165772,-0.005738768,0.0030220598,0.006393281,-0.007894252,0.003220586,-0.018332478,-0.019631071,0.010191336,-0.003747853,-0.009206406,-0.003968212,-0.0022793817,-0.009938795,-0.008822214,-0.00586569,-0.008742072,-0.010381134,-0.01550155,-0.019087635,-0.03738347,0.004437216,-0.020292709,-0.011020304,-0.0118385665,0.0069484916,-0.010045412,-0.025535762,-0.010370111,-0.00920032,0.00038910244,0.001952581,0.00866313,-0.014625282,0.0006097647,-0.0072786803,-0.0020468377,0.0055741854,0.0010532128,0.006894369,-0.004652927,-0.017044779,0.0010442176,-0.013358488,-0.00871681,0.004868084,-0.008286124,-0.001260215,-0.0125859855,0.0030440458,0.0020454256,-0.017717503,-0.010386378,-0.0047355853,-0.004779725,0.026035756,0.02847946,0.018821223,0.016862437,0.01668698,0.01926447,0.013854827,0.023134518,0.0134753045,-6.914369e-05,0.0021505686,-0.0007677766,-4.872439e-05,-0.0015077245,-1.3120869e-05,0.0010031665,-0.0017146575,0.0024948786
-0.0036949655,-0.003283728,0.016549228,-0.003448126,-0.0048570107,-0.006256315,-0.011745123,-0.010623892,-0.008481783,0.0035031997,0.0012528616,-0.0012780416,0.0007627412,-0.001233862,-0.0014353351,0.0005187639,-0.003507947,-0.0035613228,-0.0068144733,0.0012593005,-0.0015943617,-0.0052500265,-0.0021889983,-0.00034845123,-0.0043307417,0.0025165451,0.009250753,0.0031490794,0.0010699402,0.0009836891,0.0031061505,0.0005131666,0.0010296452,0.0026551904,0.0048749675,0.0017277114,0.02001231,0.015156671,0.009960545,0.019767387,0.011105405,0.0061328057,0.005905088,0.005708062,0.0049437894,0.003387553,0.005674448,0.0067901886,0.0041049244,0.005707857,0.0058733816,0.0035596737,0.005429277,0.0055864286,-0.0061497386,-0.0015702037,-0.0017768007,-0.0050242366,-0.0010245037,-0.002046574,0.0016281059,-0.004291173,-0.0016100274,0.0028535111,0.0022999176,-0.0012949321,-0.002874761,-0.0020231758,8.384551e-06,-0.002995557,-0.0035244655,-0.0013384316,-0.0049293893,0.0009370997,-0.0005402976,0.00010183523,-0.002315271,-0.0012572247,0.0010757874,0.007814876,0.0060902038,0.0064069293,0.0034405768,0.0057160724,0.0013184642,0.00125103,0.0016764067,0.0012481209,0.0028500468,0.0026381486,-0.0005325501,0.0009523208,-0.0002759508,0.00049525185,-0.0015464713,0.0013944036,-0.0019857732,-0.0023265455,-0.0006957506,-0.0062428797,-0.005291143,0.0008686676,-0.005082242,-0.0037194793,-0.003167558,-0.0037791508,-0.00040354085,0.00035536385,0.01110129,0.013382561,0.010129099,0.003004109,0.006869517,0.0021313918,-0.0018331222,0.003994596,0.008189261,0.0009066272,0.0044238656,-0.00020897298,-0.00035260635,0.0016358526,0.001344908,0.0016089828,0.00088526565,-0.0011308045,0.0011741321,0.00058776315,-0.00043192608,-0.0006143542,-0.00072136713,-0.00078787113,-0.0007682215,-0.0016663502,-0.001577587,-0.0021883538,-0.010163873,-0.004012984,-0.006354015,-0.008661018,-0.0048689814,-0.010223627,-0.008124573,-0.007092551,-0.0011757051,-0.0018711878,-0.0021866614,-0.0034950231,-0.0011240481,-0.0015989663,-0.0019047415,-0.00095623336,-0.0013898582,0.0052984436,0.00081004656,-0.007533812,0.0017930036,0.0073890775,-0.0050484547,0.0075929677,0.007887593,0.0055497703,0.007129598,0.0011329018,0.0014320808,-0.002383728,-0.0035910574,0.0015457425,-0.004230131,-0.004986746,-0.0026551713,-0.0020280217,-0.0006124404,-4.486578e-05,-0.0017493234,0.00055332616,0.0017011616,-0.00094745104,0.0008340477,-0.0019943994,-0.0043481356,-0.0063142944,-0.0002564818,-0.0051812143,-0.003167858,-0.001394891,-0.003577822,-0.0025514355,-0.00046438252,0.00038378077,0.000573837,-0.0023032923,-0.0027360008,-0.0015140888,-0.0012899576,0.000110952475,-0.0010195491,-0.0016515019,-0.00506854,-0.005736667,-0.006681728,-0.00117236,0.0012238292,-0.00020707272,0.0036503589,0.00044171477,0.0014062921,-0.0060871798,-0.0071261106,-0.0058527854,-0.0057402444,-0.005727411,-0.005972562,-0.0050225356,-0.003282256,-0.006264874,0.00044908506,0.0035408097,-0.0011491239,-0.0005310893,-0.003830221,-0.00040277388,-0.001787126,-0.00040612993,-0.0055657877,-0.0062373453,-0.00408748,0.00868409,-0.0031056115,-0.0070874444,-0.0041617793,-0.00498167,-0.0042906036,-0.0028401993,0.008239685,0.0029441665,0.011979563,-0.0018659099,0.010983937,0.0042493953,-0.004254814,-0.010105585,-0.0066585517,-0.004387518,-0.004275263,0.016274309,-0.008744654,-0.0045337686,-0.0032226765,-0.008787333,-0.0024449101,-0.010698082,-0.0035251859,-0.004527288,-0.0050774985,-0.0018994923,-0.0071324063,-0.0069539007,0.0020865581,0.00500939,-0.0030388308,-0.0022679428,-0.0009799496,-0.0006180376,-0.0012846817,-0.0014807471,-0.001216827,-0.0020291347,-0.0016959877,-0.0011891671,-0.0064723156,0.0028702824,0.0014849709,-0.002602093,-0.007137327,0.003506065,-0.0028151798,-0.0016348825,-0.009645409,-0.001535568,0.0019733899,-0.004636464,-0.0041193166,-0.0055288696,0.0012376619,-0.0012421333,-0.0005593848,-0.0031431285,0.001491289,0.0046694586,-0.0024457518,-0.001362014,-0.0016954874,0.001081255,-0.00014154062,-0.0003692451,-0.0013543309,-0.0028497956,-0.0031022662,0.0044963267,-0.002400002,-0.0038679098,-0.00013170634,0.00053441816,0.004889495,-0.0007909559,-0.010422208,-0.0032298826,-0.0076825456,-0.005906469,-0.0057528922,-0.006355528,0.0096864505,0.0015389209,-0.0009268485,-0.008880132,-0.007842409,0.009668227,0.006148518,0.0038119336,-0.0022377735,-0.010490113,-0.0066660517,0.00028088497,-0.007361595,0.015463037,-0.005410046,0.0027432689,-0.011159356,-0.005913781,0.000901103,-0.001537271,-0.013245247,-0.0001880435,-0.0019215646,-0.0021292665,-0.00085565104,-0.0011004268,5.381871e-05,0.00060399313,-0.00032479077,0.001641998,-0.00025603359,0.00020283798,-0.0006391164,-0.002610099,-0.0024339312,-0.0024286672,-0.0003386527,-0.000889871,-0.0014167854,-0.002386458,-0.0014904005,-0.0010548045,-0.0071406225,-0.0016448818,-0.004979685,-0.004299369,-0.001958074,-0.0030416169,-0.0022221296,0.002906649,0.004468473,-0.008560195,-0.0034935877,0.0065851253,0.0063663954,-0.0009798701,0.0018695926,0.007315604,0.003615141,-0.0049103587,-0.004638596,-0.005102729,-0.0008478863,-0.002752451,0.00361804,-0.0039994027,0.009163601,-0.0015524223,0.0046022916,-0.00403533,-0.0020303025,-0.0012762744,-0.0038894059,-0.0029246367,-0.0004601148,0.0015775466,0.0018048657,0.000978633,-0.0023322664,-0.00033887415,-0.001012658,-0.00026630991,-0.00042527542,0.00048478082,-0.0015829174,-0.00078186736,-0.0038114646,0.0037261485,-0.0022204176,-0.0009485019,0.0013118648,0.0006949028,-0.0011117744,0.0030303304,0.0010094484,-0.000752366,-0.00068443397,0.0007455551,-0.0030814235,-0.00040213144,0.0029734708,-0.000818082,0.012412504,0.0094435625,0.008297484,0.012900683,0.009335052,0.00944418,0.0058875177,0.0083357105,0.00754156,0.0021099267,-0.008899564,-0.013176985,-0.013879048,-0.006392983,0.001212198,-0.005287516,0.00078784494,-0.009222231,0.0011426858,0.0029550544,0.0007287691,0.0044505773,0.0025143342,0.0042631025,0.0013340552,0.003431526,0.006605823,-0.009037815,-0.0054111257,-0.003679326,-0.010286801,-0.013508973,-0.01570997,-0.00210551,-0.0067328284,-0.004417542,0.0013830932,-0.0012570011,-0.002812169,-0.005903518,-0.0022358578,-0.00092464813,-0.0007746815,-0.0033870586,0.0013922123,0.0037448697,0.012484461,0.0033205214,0.0009375706,-0.0043226127,-0.0034489976,-0.004828625,-0.00078885176,-0.007131095,0.0015295857,0.0010370759,0.0009537878,0.003450081,0.0056943744,0.00436973,0.0013242266,0.0011990402,0.003210178,9.481928e-05,-0.00047436715,3.6696238e-05,0.0017422242,0.0006075006,0.00066200003,0.0010395861,-0.0013332712,-0.0007909504,6.255113e-05,6.378452e-05,0.000112780406,-8.0170634e-05,-7.9636215e-05,-1.2799461e-05,-0.00055036537,-0.00036022687,-0.0002978705,0.0029629003,0.0016670142,0.0040752036,-0.013274782,-0.008568596,0.00067557435,-0.0042342693,-0.009589516,-0.0075467126,-0.008632671,-0.009326865,-0.0031386814,-0.0045844023,-0.015358585,-0.006664782,0.004253823,-0.005021054,-0.005951196,-0.0021528546,-0.002407448,-0.0030847308,-0.0012922388,-0.004594344,-0.0011587866,-0.00019104237,-0.0019868277,-0.0062146946,-0.006945737,-0.0009394737,-0.0004084172,-0.009207192,-0.0011617496,-0.004210943,-0.001900624,-0.0025739856,-0.007665027,-0.0033508756,-0.005845148,-0.0018037097,-0.00030936502,-0.0007733315,-0.0017255233,0.0032663147,0.0006494053,0.0013912208,0.002164334,0.007080929,0.0017799385,-0.0053242664,-0.0021504376,-0.0008459905,-0.004827497,-0.0037860922,-0.0037227746,0.012069977,0.010702069,0.006347137,0.008793624,0.0075708115,0.00381908,-0.0047807186,-0.004811687,-0.0056719966,0.006083299,0.0034199087,0.006668615,0.0092166765,0.0117931,0.0076664933,0.008174735,0.0078093754,0.006789631,-0.00032004213,-0.00065564,0.00048012525,-0.00035684477,-0.00094344106,-0.0005237226,-0.0009112831,-0.0007257421,-0.00042626905
-0.0020517549,-0.0031436419,-0.0071201655,-0.0016358881,-0.001486548,-7.213406e-06,0.001000238,0.0006807065,0.0009788908,-0.00034271134,-8.238668e-05,-0.0002534882,-0.00041175532,-0.00029650022,-0.0008455996,-0.00036296115,-0.00038358616,4.7717564e-05,-0.0034461548,-0.0024593465,-0.0002529301,-0.003328985,-0.0022575578,-0.0011332788,-0.0011168806,-0.001934747,-0.004942246,0.0002803426,0.00020071951,-5.344551e-05,0.00011430923,0.00028927717,0.00015125005,0.00011726505,0.00017710195,7.7191995e-05,0.00013047829,0.00023941336,3.8462218e-05,0.0013741093,0.002047427,0.0014694552,-0.0006245445,-0.00054427015,-0.0008280765,0.0006137262,0.00054640166,0.00035134208,0.00033846323,0.00160447,0.0012811469,-0.0002695124,0.00039218343,0.0006649784,-0.0010400108,-0.0012429776,-0.00035882022,-0.0005476251,-0.00026644737,-0.000568633,-0.00042119215,-0.00031132533,0.00033150127,-3.350762e-05,-0.0002927252,-0.000551075,3.8888106e-06,-0.00040757476,-0.0008258746,1.4090797e-05,-0.00017872977,6.846023e-05,-0.001065415,-1.6473314e-05,0.0016164978,0.000395351,0.0007219283,-0.0015924505,-0.0016888175,-0.0024458675,-0.0021278556,6.7512688e-06,0.0017600936,0.00065672735,0.0015361514,0.003101771,0.0024139762,0.00043057767,-9.2769056e-05,-0.00066981633,-0.00018767713,-0.00035449362,-0.00031298137,-0.00017873278,-0.0005120107,-0.00022432233,-0.00017752095,-0.00045198796,-0.0002689949,-0.0015782727,0.0026987367,-0.00018501014,-0.0019370937,-0.0015386108,-0.0007056492,-0.00025289186,-0.00058383116,0.001465095,-0.0005443488,0.0007467095,-0.00053691556,-0.00061247835,-0.0005587396,-0.0011024583,-0.0008007326,-0.0007757897,-0.0011742837,-0.0004161796,-9.492597e-05,8.896501e-05,0.00011066695,-0.00028954033,0.00048036454,-0.0015397663,-9.4177565e-05,0.0003336441,2.4155052e-05,5.810413e-05,-0.0005799437,6.6036315e-05,-0.00018938116,-0.00044182336,-0.00015038037,-0.00012106348,1.1575425e-05,0.00036639685,-5.8048307e-05,0.0019232334,-0.00020003357,8.061323e-05,0.0009869562,-0.0002909741,-0.0010495929,-0.0013253986,-1.1484961e-05,2.4480467e-05,-5.7991896e-05,-0.00054985797,-0.00027641567,0.0006427368,-5.83179e-05,-0.00023809685,-0.0004306224,8.696387e-05,0.0015418301,0.00053388445,-0.0005512438,0.0007862155,0.0008544012,0.0009771229,0.00030125468,-0.0023143736,0.00035461845,-0.0012268801,0.0003537613,-0.00016571874,-0.0011938319,-0.0012300906,-6.3166284e-05,-0.0005603709,-0.001298582,-0.0007079664,0.0015183231,0.0018330548,-0.0009170864,-0.0020406106,-0.0010295555,-0.0011069495,-0.0023790314,-0.00015534597,0.00046952115,0.00066541653,-0.00021184394,-0.0006911854,0.00019264399,0.0005813574,-0.00069021113,1.7497034e-05,0.0003447649,0.0002946567,0.00012476476,0.00043523946,-0.00015769746,-0.00042932126,-0.0006863936,-0.0003233988,-0.00029408807,-0.00021692444,0.00059617043,5.524837e-05,0.00034915854,7.83179e-05,-0.0007712163,0.00092687027,0.00054470013,0.0020233907,0.0025438066,-0.0002293376,0.00034087774,0.00030059714,-0.00022090663,0.0002173201,0.0001511322,0.00029805148,4.856497e-05,0.0003590378,-0.000811143,-0.0019786137,-0.0026371724,-0.00023328398,-0.0003669098,-0.001509841,0.0006535522,0.000111353685,-0.0021855019,-0.0012469525,-0.002338403,-0.0066299783,-0.0012184537,-0.0019685812,0.00014440042,-0.00017474298,0.0015152764,0.0015729044,-0.00081703323,-0.0016018695,-0.00034613922,-0.0023332501,-0.0040653464,-0.00017936858,-0.002421817,-0.0018043674,-0.0016281018,-0.0022306256,-0.004762345,-0.00072093226,-0.0037286473,-0.0021827922,-0.002151614,-0.0018721157,-0.0028004409,-0.0011962127,0.00041495403,0.00014793772,-0.001542233,0.00035742662,-0.0008144684,-0.0010825624,-0.00014146908,-0.0029348524,-0.0007069688,8.376178e-05,-0.0002213326,-0.000113624395,-0.00010838184,-0.00012287492,-0.00014147555,-0.00013258061,7.159717e-05,-4.7580997e-05,-0.0012035461,-0.001969383,-0.002467924,-0.002208338,5.5215773e-05,-0.0013414418,-0.0018303382,-0.0016943442,-0.0010993388,-0.0010370078,0.00069745665,-0.0014929278,-0.002530529,-0.0010220674,-0.00058608205,-0.00082256127,-0.0011674748,-0.0011343603,0.00030931062,-0.0021193258,-0.0005425169,0.0005494644,-0.00026063438,-6.491931e-05,-0.0002540855,-0.00081624393,-9.026184e-05,-0.0024322825,0.0007550118,-0.00044727942,-0.0013910391,-0.0011353634,-0.0011638277,0.00025194036,-0.00036249871,2.5709112e-05,-0.0018281649,-0.0012560355,0.0004556166,-0.00081512245,-0.0009041936,-0.000467462,-0.0014398207,-0.002531349,0.00051125826,-0.0020341866,-0.0039479695,-0.0025018323,-0.00031740716,-0.0035491965,-0.0045250696,-0.0027920664,-4.262873e-05,-0.0026456288,-0.0008726563,-0.0034336036,0.002012696,-0.0011909767,0.0003210345,-0.0012545947,0.00070558063,-0.00088770146,-0.0028008432,0.0005866564,-0.00013032072,-0.0001793253,-0.00068773405,-0.0004493968,-0.0006662465,-0.00046786614,-0.00080112286,-0.00033436794,-0.0003204554,-0.0013249557,-0.0013120727,-0.0007812132,-0.0004919226,-0.0006512336,-0.00031493933,-9.005439e-05,-0.00014391931,-0.0006189804,-0.00136056,-0.00037812677,-0.0017190919,-0.0013209992,-0.00015938807,-0.0005174824,-0.00035814394,-0.0010475214,-0.0003450216,-0.0028239249,-0.0006605866,0.00058125035,-0.0012796195,-0.0018361255,-0.0022256146,-0.0027225628,0.0021285154,0.0006123796,-0.0005962443,-0.0008186913,0.00035958088,-0.0021002828,-0.0024945897,-5.4099455e-05,-0.006032236,-0.00012080128,0.00034549326,0.0019663149,0.0024922972,-0.0017293104,-0.0011656221,-0.00016839769,-0.0009596076,-0.0016656602,-0.000394905,3.2477834e-05,-4.3535743e-05,-3.289053e-05,9.9811095e-06,-0.00022020433,-0.00017692085,-2.827639e-05,-9.769077e-05,-0.00032270476,-3.1176813e-05,0.0012878585,0.0007962333,-0.00075742765,0.003090096,0.0015881907,-8.275737e-05,-0.0014495186,0.00018029311,-5.743407e-05,0.0006668565,-0.0001406649,-0.00070587464,0.0013145248,0.00043946382,-0.0007938648,-0.0006564929,-0.0002046385,0.00033464306,0.00029284955,0.00024487026,0.000470273,0.0008569877,0.00025809612,1.9465366e-05,0.0003288664,-0.00016295479,-2.6164049e-05,-0.0016595102,-0.0027821301,-0.00072773546,-0.0031861465,-0.005280145,-0.00051610917,-0.00033463832,0.00010194353,-0.0009964831,0.0005809397,9.6777745e-05,0.0008353518,0.00010818671,-0.0011743598,-0.001723786,-0.0028697639,-0.002121898,-0.00045369743,-0.00059569883,0.00072768825,-0.00073442416,-0.0023787254,-0.0016095665,-0.00066984125,-0.003937298,0.00090337073,7.9881815e-05,-0.0022148355,-0.00073632714,-0.0012947263,-0.00045150542,-0.00015298667,-0.0008594667,0.0009599751,0.00091926014,-0.0020891402,-0.0028535156,-0.0038899134,-0.0030011113,-0.0015787159,-0.0028338062,-0.0014819405,-0.00018907452,-0.0017499495,0.00044709563,2.3301918e-05,0.000302845,0.00019896899,0.00023960744,-0.0002782573,-3.631261e-05,7.843457e-05,-1.4153507e-05,-0.00036799905,-1.3603407e-05,-0.00031213262,5.414324e-06,-9.78213e-05,-5.3643525e-05,-0.00010606345,0.00025330647,-0.00029793227,-8.752596e-05,-0.00011320017,-7.108143e-05,-8.347519e-05,-8.352382e-05,-5.6318455e-05,-0.000101623235,-4.6696532e-05,-6.393169e-05,0.0021937734,-0.0023778633,-0.002010063,-0.0013653754,-0.0028496943,-0.0030224256,-0.0017024187,-0.0016478251,0.0011814629,-0.00050471094,-0.002817568,-0.0032217929,-0.00012647177,-0.0049712025,-0.0039486727,0.002127113,0.00041799844,-9.5012096e-05,-3.6330897e-05,-0.0011879067,-0.0008881102,-0.00010843533,-3.1906457e-05,-0.0004192614,0.0005795481,0.00099739,-0.00041996065,-0.0035854839,-0.00090310816,-0.0002900948,-0.0013866662,-0.003045184,-0.0012146564,-0.0009664897,-0.0015200512,-0.00026099797,-0.00022440766,-0.0003091397,-0.0013585443,-0.0006406244,-0.0027373726,-0.0018538607,0.0003274051,0.0005956262,-0.0011854776,-0.002011883,-0.00079044455,0.00022118588,-0.0027081557,-0.00096750906,0.0004624084,-0.0015819708,-0.0011631417,-0.001184158,-5.1414532e-05,-0.0011001931,-0.001591482,-0.00041737387,0.0011977211,-0.0010390742,0.00053383224,0.00016482068,-0.0009043615,0.0005300754,0.0010292396,0.00040268557,3.9366365e-05,0.00038715967,-0.00013558722,5.844736e-05,4.9638656e-05,0.00012094851,5.4018024e-06,-1.726649e-05,2.9185992e-05,-4.50839e-06,-0.00013696039,-0.00010316533,1.9676872e-06,-7.215114e-05,-8.075463e-05
0.0049605803,-0.022380568,-0.024757626,0.040439617,-0.062258366,0.010769062,0.17314832,0.09851605,0.010844377,-0.031112904,-0.0011249172,0.025069332,0.004602894,-0.005731997,-0.0016003998,0.06488789,0.066693574,0.09192872,-0.04794583,-0.1095399,-0.0737744,0.002281475,0.008857162,-0.08947126,-0.033169854,-0.031741366,-0.06570689,-0.006025013,0.04750749,0.091823906,0.011067405,0.04300639,0.07004689,0.015061594,0.046044044,0.05665862,-0.011433662,-0.0076476373,0.076901145,0.059493188,0.017277129,0.08548014,0.06920663,-0.0064509306,-0.033112206,-0.015310819,-0.002295393,0.025967022,-0.011012802,-0.008267989,0.042600196,-0.0671651,-0.03366149,-0.0390023,0.0029307515,0.0043203887,0.027700119,0.010526988,0.0032928397,0.038507458,0.05037047,0.023702161,0.1329594,0.04278328,0.007215604,-0.004958635,0.0234888,-0.016225241,0.00059803657,0.0741746,0.025343057,-0.012803372,-0.011746228,0.025257418,0.05792981,0.0467321,-0.013861001,0.033215463,-0.05564946,0.011984177,0.017491207,-0.011479096,0.04148117,0.05923003,0.017246693,-0.007475076,0.017039824,-0.027558038,-0.030990673,-0.064940795,0.023763368,0.021220066,-0.032588635,0.010102271,-0.030969199,-0.028352862,0.054661956,0.019583024,0.0393549,-0.0074698585,-0.02102046,0.041106727,-0.06621298,-0.0013031455,0.041701794,-0.07141296,-0.057611287,0.06862504,0.0043625794,-0.05963798,0.02224847,-0.05779526,-0.036617905,-0.008517663,0.02895784,-0.0098920455,-0.0060004303,-0.005783789,-0.026198631,-0.009687247,0.00978644,0.022834921,0.025543412,-0.022491474,0.016507342,0.08640789,-0.00705057,0.010906131,-0.01496469,-0.014611924,-0.02447284,-0.017165089,0.014797314,0.041953724,0.010296573,-0.046340562,-0.015215439,0.0013708808,-0.025490828,-0.0064558033,-0.038276635,0.040117156,-0.008987773,-0.007891363,-0.01646849,-0.041813858,0.0022106837,-0.033304326,0.00020802571,0.008926651,0.012398572,-0.0053265253,0.0019503554,0.032225166,0.042268064,0.025902923,0.019409837,-0.004653776,0.032749142,-0.011154824,-0.07281036,-0.086064555,0.004303322,0.009144402,-0.027831424,-0.03487711,-0.07721021,-0.10061058,-0.027369574,-0.080437616,-0.044257626,-0.027015474,-0.014504645,0.014348057,-0.018215215,-0.027403202,0.036535684,-0.012088531,-0.008632318,0.069930695,-0.014449782,-0.010528104,-0.007456007,-0.0345633,-0.028565858,0.015634647,-0.06048807,-0.009034328,0.05360859,-0.07281454,-0.0751206,-0.091868535,-0.013370162,-0.03980114,-0.016223267,0.023853783,-0.019337459,0.014371293,0.0063824747,-0.012584935,-0.05582451,0.009520384,-0.04161974,-0.00881838,-0.02160005,-0.0017784543,-0.05421256,-0.020872636,-0.01417979,-0.004008883,-0.06560799,-0.02923937,-0.027182486,-0.07622057,-0.05810142,-0.056917313,-0.0046078023,-0.023153374,-0.014028871,0.034555912,-0.024053019,-0.025732081,0.043471865,0.02682995,-0.034392938,-0.026830725,-0.0042701564,-0.04504005,-0.007691152,-0.057016697,-0.004480314,0.12537588,0.1197342,0.054206923,0.022619277,-0.045445666,0.011920061,-0.07921559,-0.0075294315,-0.033645123,-0.082224935,-0.0036586858,-0.016482692,0.026562497,-0.04530346,0.1443141,-0.014905354,0.026908625,-0.01105,0.03139369,0.018212365,-0.078461155,-0.08841191,-0.07504737,-0.05985917,-0.04623907,-0.03614504,-0.038391974,-0.053829227,-0.034642503,0.0290241,-0.029626817,-0.016286705,-0.018908614,-0.05636281,-0.010771046,-0.04696648,0.0057375417,0.010474024,-0.012854492,-0.04815847,-0.010761614,-0.04214754,0.035601743,0.0066572963,-0.028040156,0.07300335,0.009777298,-0.024605686,-0.0017498751,-0.025999002,-0.07797802,-0.013504932,-0.008931526,-0.06240815,-0.0064488864,0.010791439,0.019900328,0.024002455,-0.03539103,-0.0058399597,-0.0033455903,-0.060244218,-0.09051243,-0.0058049536,0.006195822,0.010699154,-0.05276616,-0.019603414,-0.046797782,-0.032470237,-0.008583449,0.07048265,-0.057098728,-0.026353847,0.07252438,-0.05899147,-0.09580346,-0.0473819,-0.09400797,-0.0035165276,0.026676202,-0.06079755,-0.07681484,0.06712247,0.019010076,-0.0008945675,0.0047574006,0.020263152,-0.04340614,0.05856869,-0.0063124015,0.029072864,0.055259854,-0.025260076,-0.06761049,-0.07811332,-0.028624615,0.00540349,-0.08992204,-0.0010044014,-0.112466395,-0.039986648,-0.03999267,-0.033961043,0.045125563,-0.0034770593,0.005781406,0.069706894,0.035663098,0.036325134,0.09724868,-0.012089875,-0.06624725,0.0104990285,-0.039338443,0.020769104,-0.036592066,0.0888142,0.030718984,0.039198957,-0.071792826,-0.064207755,0.018686172,-0.023267724,-0.012910424,-0.004383083,-0.007475934,0.0071662064,0.023826426,0.020989275,-0.027189225,0.05174734,0.027915424,0.027444184,0.02783917,-0.022531044,0.046320226,0.11911283,-0.08096289,-0.038596626,-0.008496073,-0.013767691,-0.040777657,0.0075929607,-0.006283274,0.021664059,0.05589483,-0.034106616,-0.038881473,-0.013355303,-0.02594444,-0.03601484,-0.007907851,-0.0330164,0.023432966,0.034044623,0.011511915,0.013702732,-0.0052359034,-0.0044127386,-0.020084275,-0.00018465158,-0.0044062207,-0.013940434,-0.0009874625,-0.00088123325,0.015396693,0.010357601,0.03720349,0.033160225,0.033671208,-0.0022700643,0.04637982,0.0685155,0.0029200425,-0.045775462,0.06403985,0.0003291288,-0.01760506,0.034783438,-0.08296424,-0.00411278,-0.057184845,-0.0113809975,0.05869291,0.053509954,-0.0052673873,0.053670075,0.068725035,0.01582236,-0.0067148823,0.06337749,-0.037440456,0.005081105,0.0014826248,-0.072046265,-0.013304209,-0.012639466,0.10958938,0.01785197,0.13540319,-0.09554145,-0.03136514,0.0145457275,-0.043578107,-0.021941174,0.028436625,-0.10094264,-0.00184637,0.044693828,-0.05295095,0.008808588,0.012991265,-0.04247163,-0.045926753,-0.06110195,-0.007985482,-0.06195434,0.061749242,0.01700171,-0.046321884,0.0074681374,-0.03298452,-0.007990301,0.025299393,0.06720655,0.002600877,0.025630282,-0.063670255,-0.017324712,-0.08698022,0.043085575,-0.0040611327,-0.023892669,0.08724737,0.03413219,-0.007683488,0.0082466435,0.015490908,0.0028280013,-0.0060869064,0.016461773,0.0013609432,0.0044758683,-0.042735644,-0.008476263,0.07201344,0.049862735,0.042883478,0.03644627,0.008244638,0.016730167,0.022799404,0.00739978,0.027785212,-0.002897634,-0.004842197,-0.0048715016,-0.0052312072,-0.0067800265,-0.006531114,-0.0050217183,-0.006674277,-0.002354408,0.072945304,0.040401768,-0.020745236,-0.003507776,0.08607543,-0.03826142,0.085921556,0.06513148,0.14110404,-0.0024398223,-0.037203006,-0.004474248,-0.011612281,-0.0023005712,0.09791142,-0.002975187,0.0230387,0.045404885,-0.0065922164,-0.042904902,-0.007132754,0.040252145,0.02419771,-0.017652469,0.025370054,0.0035575284,-0.025181768,-0.013418774,-0.11402156,-0.046219964,-0.03114888,-0.014875631,-0.03119697,0.008275525,-0.034103073,0.06792245,0.06421459,0.026023436,-0.03351479,0.019072974,0.07749518,-0.01944155,0.06844574,0.011745755,0.02405863,-0.09137108,-0.044577666,-0.04914239,-0.048928425,-0.03160687,-0.005331787,-0.020025494,-0.010355336,-0.016473776,0.07024161,0.030249977,0.057898786,-0.00092461845,0.013679764,-0.039837647,0.08754423,0.029282589,0.003960181,0.015021523,0.008663762,0.023439402,0.03475006,0.010097223,-0.010298353,-0.013474318,-0.014393444,0.04285111,0.0037793217,-0.0045880335,-0.0010208633,0.01361583,0.00419128,0.01329042,0.010529944,0.031935625,0.012757953
