2.572784e-12,2.360892e-14,-3.6556963e-14,4.9486373e-11,1.2736392e-11,5.057266e-12,7.632906e-12,1.594776e-11,5.8868396e-11,4.2918953e-23,1.7784855e-22,1.5756327e-28,5.580985e-23,-2.3429049e-30,-4.377373e-31,3.106565e-26,1.01581595e-30,-4.085304e-34,-3.409558e-17,1.3904782e-19,2.0418e-20,4.2274712e-19,9.551741e-22,-1.6414575e-25,1.4457619e-19,-1.2205197e-24,-8.369852e-25,-2.384267e-39,-2.833454e-39,1.066e-41,4.873954e-39,1.367003e-39,1.005282e-39,1.065514e-39,8.18667e-40,6.33521e-39,1.1979362e-08,2.2544867e-10,9.512993e-12,-1.7838782e-13,-7.3853586e-13,-3.5530908e-11,-4.4291446e-12,-4.8337945e-10,-8.585236e-11,-1.76131e-39,-1.932375e-39,3.53081e-39,-5.03208e-40,2.6445e-40,-3.592619e-38,-2.54661e-39,-6.46198e-40,4.446763e-39,-2.1940837e-31,-2.2980021e-36,3.8777027e-37,1.0055855e-34,2.56236e-39,6.27963e-39,-5.550683e-39,-2.365854e-39,-1.140738e-39,-3.1637316e-17,-2.7068905e-17,-1.0769679e-21,-9.405649e-17,1.450997e-19,2.3397195e-22,9.01596e-21,1.8464984e-19,2.8879959e-21,1.1735697e-15,2.8639274e-12,-1.5255549e-12,4.6011207e-12,1.11239245e-14,-5.264661e-12,3.118764e-13,-2.0142576e-14,-7.827128e-12,3.3931025e-21,1.451628e-26,-2.9821077e-30,-1.0298462e-25,-1.6011037e-21,-1.2070705e-20,9.316803e-30,-1.5472294e-31,-4.337077e-22,2.1814841e-25,4.6419243e-25,4.3995276e-25,1.6984995e-26,-9.350622e-33,-3.5638476e-30,-3.534097e-20,1.5024275e-24,2.6882982e-23,-1.9468655e-17,-4.489862e-22,-1.1619984e-19,-1.1256519e-23,1.6864324e-24,-1.9673403e-22,6.8032015e-18,3.728721e-21,5.103939e-26,-1.2371271e-21,1.502617e-22,4.2968517e-20,-4.8656928e-23,7.5845914e-25,-2.4671154e-25,1.7169222e-22,3.7708784e-27,7.5495175e-27,-1.5357732e-26,-1.2402569e-30,2.3482394e-28,6.245549e-33,-7.9845764e-35,1.6905688e-34,-3.6330673e-27,4.6783237e-36,1.6105293e-36,4.083834e-39,3.18572e-39,4.002547e-39,-6.49569e-40,2.399525e-39,6.4295e-40,4.621033e-39,2.938254e-39,2.236589e-39,3.3624077e-14,1.4955505e-15,-7.699868e-18,3.4273813e-19,1.1572362e-18,-3.507431e-17,7.562115e-15,2.328179e-16,1.4363788e-17,-1.3671532e-24,1.14727154e-32,-1.2531475e-33,-2.991653e-35,-5.681865e-39,2.5812824e-36,3.3706353e-31,1.5039371e-38,-1.510374e-39,1.6524935e-18,7.339216e-15,7.8880045e-13,3.9804607e-15,-6.020862e-13,-2.3460102e-13,-7.468704e-12,-5.251234e-12,-6.880785e-14,4.076977e-11,3.2161884e-13,-2.8317651e-14,1.994142e-10,-3.6201107e-12,-3.5469015e-12,7.57817e-11,6.210068e-12,2.7950465e-11,1.1392861e-23,-4.863472e-23,-2.0294671e-25,9.5768074e-23,1.0108696e-23,-1.0550385e-19,1.092864e-19,3.7986197e-22,-2.6021601e-23,-4.5447963e-17,4.890099e-23,-3.999816e-19,-3.372252e-21,-2.935592e-20,-3.633162e-20,1.1912734e-20,1.1986412e-19,5.6018565e-22,-3.5927945e-17,-1.454949e-18,-1.2557342e-18,5.644685e-13,3.9365856e-15,1.4164804e-14,9.572933e-14,3.5952267e-15,1.9042527e-14,3.667629e-30,3.100984e-33,6.151691e-28,1.8477061e-28,8.772047e-25,-1.7383955e-30,7.36687e-33,-6.070909e-32,7.125674e-31,1.0936889e-19,3.2081557e-22,-2.367427e-23,5.4552615e-18,3.9068704e-15,2.370056e-24,1.4845347e-18,3.746728e-17,5.807514e-24,-9.521931e-31,1.6679642e-30,-7.034327e-23,-9.283026e-35,2.8907102e-32,1.672895e-30,-4.78054e-40,8.356851e-35,-1.0609601e-27,-1.0146045e-21,-1.7674537e-28,-2.3947e-26,1.6515631e-21,5.958037e-24,1.1009201e-23,5.3811625e-19,2.8155511e-21,4.4557817e-25,-7.8901016e-24,3.6195652e-24,1.0275561e-19,-1.5194386e-22,-7.833484e-25,-2.5994668e-21,-4.3439076e-18,1.3819942e-20,-2.9012562e-21,-1.1073174e-15,5.10311e-15,-3.000545e-15,7.3657265e-16,2.5970392e-17,-1.0474896e-15,1.0515717e-15,4.898712e-15,-3.6541836e-19,1.9142432e-13,9.913055e-13,-7.775623e-14,1.3739431e-14,-2.502806e-16,-7.700427e-15,-1.4445027e-12,-8.927181e-14,-3.2470193e-16,3.3030626e-26,-1.0313685e-30,4.445102e-32,7.95682e-31,-2.1469438e-34,5.77674e-40,-5.5587255e-37,1.12779e-39,-2.001986e-39,4.153901e-16,6.854126e-17,1.74453e-18,-6.004201e-16,1.8884367e-15,-1.2146021e-17,3.220484e-15,3.9757033e-17,1.2093096e-16,-3.6303747e-16,1.6931051e-15,2.1813716e-18,1.3997931e-17,1.7708833e-18,-2.6591772e-22,4.684652e-19,3.463897e-23,-1.741054e-21,9.6974e-20,-4.83756e-20,-6.691411e-21,3.741093e-22,-2.981071e-23,-3.919413e-23,-4.6763014e-25,-3.0048826e-25,-5.084468e-27,-3.4001133e-20,-2.390545e-18,-7.988401e-17,6.3023526e-17,9.2213795e-23,-2.4116866e-22,3.3621865e-19,1.5857923e-20,-8.733843e-19,-7.901916e-21,-1.6588262e-20,-6.3170256e-25,-4.3245334e-21,-7.629939e-25,-1.3150802e-25,-5.7033333e-19,-7.173449e-24,-1.7161715e-23,1.4697264e-10,2.0310816e-13,3.274029e-11,8.908505e-10,6.0901766e-13,5.483079e-14,-1.0415939e-10,-3.0446479e-12,-1.9068189e-12,1.7343102e-17,3.5840406e-17,1.4477254e-17,-7.403718e-19,-1.3190455e-20,-2.4760586e-17,-3.4768617e-15,7.92588e-21,-1.5539458e-18,-3.6787113e-35,-5.2715584e-35,-9.14717e-40,-1.0241265e-38,-1.592828e-39,3.225297e-39,-8.6206e-40,7.73091e-40,5.496398e-39,4.0194367e-17,1.21741825e-20,1.7277448e-19,6.964658e-18,5.0056185e-18,4.3323058e-20,-5.1937926e-19,-5.3057245e-20,-2.2844107e-22,-4.676886e-22,8.864623e-25,5.6154797e-29,2.0290678e-21,-6.129125e-26,-6.188892e-26,8.0481745e-22,6.271818e-32,-1.1252556e-28,-5.2146293e-20,5.1802486e-20,-2.5701847e-20,3.4785646e-19,1.6709076e-22,-2.0227378e-22,3.2290817e-18,3.5433943e-17,-3.087938e-16,2.5064154e-15,2.3028202e-14,7.950435e-16,4.548372e-12,8.207071e-14,1.5122062e-15,5.7057325e-14,5.254976e-14,1.8980763e-14,-1.1717442e-20,-2.022145e-19,-2.4366691e-21,-2.6746205e-18,-7.811392e-18,-4.0963744e-17,3.7537836e-19,1.8151676e-20,5.1396847e-21,5.05999e-40,6.66308e-40,-3.287911e-39,4.8741e-40,2.133693e-39,-3.010925e-39,8.384896e-37,-3.214237e-39,1.529757e-39,-9.614989e-16,-2.2623026e-20,-6.1085026e-24,-1.8227544e-19,-9.666249e-21,-7.473978e-23,1.7627858e-18,2.9858486e-23,-4.045085e-24,-7.801711e-29,-1.4311135e-30,2.6909466e-31,-3.6213834e-28,1.4100418e-31,-8.061906e-30,-7.9657845e-31,3.0230188e-32,-3.2399295e-33,-1.886502e-39,-2.6689966e-36,-2.365316e-39,5.363617e-39,5.82932e-39,4.253737e-39,4.831572e-39,6.383991e-39,-5.2887504e-38,-8.4001804e-18,1.5249318e-19,-4.9068298e-17,5.0962717e-18,4.602442e-18,6.1377736e-18,-2.1289364e-22,1.0744372e-17,4.5389895e-20,3.068119e-10,1.6987373e-11,4.4771917e-13,1.27931604e-14,8.655182e-15,-2.0057114e-12,3.0515507e-11,3.8057674e-10,8.6959073e-10,2.2003161e-17,5.8520215e-16,2.2524402e-19,1.9433233e-19,-1.9545643e-18,-2.4084776e-17,-1.1618073e-18,-3.1983502e-19,-5.6187626e-17,1.7070425e-17,-4.8171354e-20,7.324366e-20,2.699078e-17,2.1490847e-20,5.479231e-21,-7.8286053e-20,-2.4671734e-21,-6.804878e-24,-5.434938e-12,-7.993619e-14,-7.996008e-13,5.9557238e-12,3.072661e-14,2.5975665e-13,8.2671424e-13,-1.7677813e-13,-1.119038e-12,1.0768831e-33,-3.9962903e-33,2.750522e-31,1.6253297e-35,1.9634976e-32,9.025829e-31,-5.159079e-37,3.70161e-28,5.0790343e-27,-1.1749391e-34,2.222825e-39,-2.97027e-39,-6.890095e-29,5.797288e-39,7.8710066e-38,2.4326195e-30,6.16808e-31,3.3975177e-36,-5.303585e-39,2.356376e-39,1.956023e-39,-3.052804e-39,1.968516e-39,-2.242662e-39,3.222475e-39,1.270604e-39,2.641564e-39,2.5739885e-20,1.1321084e-22,-1.3791372e-17,5.67671e-21,-2.190824e-18,-9.071365e-19,8.782505e-20,2.5391107e-18,2.6083363e-16,5.554418e-19,-9.296178e-18,2.14046e-17,6.655508e-19,-2.199696e-19,1.2157071e-21,-3.8920622e-18,-1.523904e-16,-9.630386e-18,1.5474181e-20,-6.945443e-24,-2.5934808e-27,6.7869176e-21,-4.950035e-22,-3.5353455e-26,-1.7234228e-18,-1.8486526e-17,-5.0641364e-24,2.1141203e-17,5.8594666e-18,-1.1223631e-19,2.2594822e-17,8.596374e-18,-8.7206905e-20,7.392475e-15,7.37621e-18,-2.3313548e-17,4.5616248e-23,2.08915e-21,-1.4801245e-20,7.902203e-26,-2.8808192e-24,-4.12985e-23,8.382109e-29,-1.3635763e-19,-5.8195024e-22,-8.067221e-15,-1.09085045e-16,2.767259e-17,5.403348e-16,-5.227748e-17,-1.5627371e-15,5.4392912e-14,-3.2133836e-17,-8.301807e-16,4.40834e-09,1.6568455e-10,2.9749996e-12,3.1047838e-12,9.480265e-12,2.763756e-10,-4.985317e-11,-1.7772935e-10,2.2260567e-10,-8.2831156e-38,-4.3102284e-38,3.34563e-40,-2.125812e-39,-2.62657e-39,-1.475546e-39,-5.432531e-39,4.99234e-40,-1.386795e-39,-1.35211e-40,5.67288e-40,-3.800411e-39,-1.658969e-39,-5.685174e-39,2.8728e-40,2.39193e-40,-2.226255e-39,-1.500632e-39
3.3707507e-05,9.4928955e-06,-1.989938e-06,0.00011674647,2.005123e-05,4.9423532e-05,2.7008544e-05,-7.15768e-06,5.0572715e-05,-9.394953e-08,-1.254847e-08,-6.2950645e-09,-1.7046691e-08,-6.307802e-08,-3.1039054e-09,-2.2705398e-08,-1.6348606e-08,-7.352172e-08,-4.517117e-06,-0.00010990559,-2.5814727e-05,-0.00016470093,-2.222913e-06,-4.388985e-06,-1.4017629e-05,-3.9457904e-05,-2.0410098e-06,-3.400074e-12,-2.8471893e-12,-1.481718e-09,-1.5759287e-13,-7.99264e-12,-9.788281e-10,-3.3247886e-13,-2.2071442e-14,-2.1127871e-14,-2.7559714e-05,-0.00011157741,-9.7077966e-05,-2.9151726e-05,-8.1641716e-05,-0.00011246728,-1.890765e-05,-5.3056563e-05,-2.4689854e-05,1.6193066e-14,6.9563085e-15,-1.0883952e-10,1.4699757e-13,-1.3291093e-10,-1.4781393e-08,-1.494401e-11,-4.127183e-11,-1.1667136e-11,-1.1282809e-06,-4.2058442e-08,-1.17516965e-08,-2.109681e-07,-9.426019e-09,-2.0353443e-09,-4.7003945e-07,-4.3415898e-09,-1.3625601e-12,-5.769402e-07,5.9711965e-08,-9.645892e-07,-4.5600368e-07,-2.8023186e-07,-1.5075819e-06,2.5234888e-07,-4.9030666e-07,-1.8852835e-07,-1.3724473e-05,-6.295042e-05,-1.5622027e-05,-2.9356168e-05,-8.469519e-06,-9.887024e-06,-9.5510164e-05,-1.0853291e-05,-3.6009867e-05,-1.7504635e-05,-6.073422e-05,-0.00024155466,-9.819171e-08,-2.0029936e-05,-3.8648588e-05,-1.6820731e-08,-5.623717e-08,-1.8452347e-08,-3.2114488e-06,3.3639495e-07,-1.7346634e-06,-7.095562e-07,1.2727307e-06,-3.1624248e-07,4.073267e-07,-1.6765516e-06,-3.441228e-07,-2.7303757e-08,-2.3445286e-07,-1.2224928e-06,-4.040645e-07,-6.9929633e-06,-5.211384e-07,-1.8992664e-07,1.890807e-06,-1.9398354e-07,4.1641774e-09,-5.493699e-07,-1.6696809e-07,-2.2506047e-06,-8.789358e-07,-5.0674936e-07,-1.0247707e-06,-1.7730252e-06,-4.8850086e-07,-3.7086497e-07,-1.5065598e-07,-9.526109e-09,-2.2501958e-06,-5.072147e-07,-2.1884508e-08,-1.3715826e-06,-3.5974844e-07,-1.404057e-08,1.1723697e-12,-1.7792205e-11,-4.020534e-14,2.87527e-10,2.4503843e-11,5.908809e-11,7.325886e-11,8.587329e-11,4.782472e-12,-6.3868756e-06,-1.9538592e-07,-2.875105e-08,1.11442405e-05,1.0574404e-06,-8.4717655e-08,-8.339331e-09,-5.81829e-07,-1.6067378e-07,2.8820407e-10,7.7969825e-10,1.0338846e-08,1.6549622e-09,4.137003e-09,1.5308238e-08,1.516811e-09,6.3937224e-09,1.8907165e-09,-7.701389e-06,-8.402647e-06,-8.887393e-06,-6.970576e-05,-1.5422203e-05,-3.1185828e-06,-7.138566e-05,-8.2337254e-05,-1.7469456e-05,1.415408e-05,-5.9297245e-06,2.9253334e-07,1.6972465e-06,-1.6961645e-06,-7.453994e-06,2.7618504e-05,2.7582155e-06,-4.174834e-06,-2.5214732e-07,-1.3293875e-06,-2.1551227e-06,-6.070595e-08,-7.628305e-06,-4.2851306e-07,-1.7542307e-07,-2.0953617e-07,-7.294495e-08,2.245158e-08,-4.9721418e-08,-2.8245304e-07,4.2545572e-08,-1.0442477e-07,-4.0389543e-07,-9.78963e-09,-7.896874e-07,-7.248489e-08,-4.1308408e-07,-3.598406e-07,-6.855106e-07,-9.609205e-08,-3.352251e-06,-3.1355025e-06,2.231512e-06,-6.4696826e-07,-2.3775132e-07,-2.2306877e-07,2.3760032e-07,-1.1855687e-07,2.6308372e-08,-4.820696e-07,4.7171502e-09,1.9792386e-08,1.534963e-08,4.4446914e-08,-4.5991424e-09,-2.6816176e-09,-1.3206595e-07,-9.257497e-09,-2.612672e-08,-3.8460075e-07,2.4997926e-08,-5.567239e-08,-3.0227284e-08,-3.7122978e-09,-1.933343e-07,-2.841097e-09,-9.415193e-09,-1.7686142e-08,-8.066759e-09,-1.0850316e-09,-1.5314269e-08,-1.0597034e-08,7.8118035e-07,9.4614563e-07,-1.221809e-06,-1.665527e-05,1.5347041e-06,5.230962e-07,8.310144e-07,-8.792031e-08,-5.8472355e-10,-8.650216e-07,3.860476e-08,-5.40095e-06,-2.6745674e-06,-2.4591307e-05,-3.542804e-06,1.7540663e-07,-3.5399726e-06,-5.6009308e-06,4.549798e-07,-3.575359e-06,-2.78295e-05,-1.296398e-06,6.7174506e-07,-2.8787892e-05,-3.5326575e-06,4.5403494e-06,-7.9805395e-05,-0.00011468201,-5.8106452e-06,-7.727952e-06,-6.3490684e-06,-1.5411624e-05,-5.623343e-06,-3.483743e-05,-2.7466394e-05,-1.2911787e-05,-1.6995383e-09,-8.4107205e-07,-2.3251138e-08,-3.08825e-08,-1.296926e-09,-2.8438092e-07,-6.31668e-08,-2.439386e-08,-9.2331035e-08,7.1882897e-07,-8.925399e-05,-6.799277e-05,-2.268708e-05,-1.5884898e-05,4.0691422e-05,2.1278916e-05,2.3842844e-05,-8.569184e-06,-3.1934442e-07,-2.5959907e-05,-5.73738e-06,-2.9512901e-05,-5.0775966e-06,-1.5994572e-06,2.3704617e-06,6.936464e-06,-6.498244e-07,-1.017281e-06,1.9150295e-07,-5.1109396e-07,-1.3919813e-06,-1.3691555e-07,-3.1790074e-07,-2.3973016e-07,-1.3547398e-07,-2.7935013e-07,-3.4097407e-06,-8.8341685e-06,-1.5596406e-05,1.1129689e-06,-1.9974537e-05,-1.8672099e-06,-1.8575631e-06,-6.3604226e-08,-7.495825e-07,-1.3081338e-05,-6.2473355e-06,-2.136243e-07,-4.293993e-06,-1.0234971e-05,-3.76839e-06,-1.6386877e-05,-1.8220348e-05,-6.420652e-06,0.0002943936,3.887632e-05,-8.219626e-06,-1.6282713e-05,-0.00026737203,-0.00013183034,-5.9814765e-06,-7.790055e-05,5.907486e-05,-3.106554e-08,-2.6028849e-05,7.8725236e-08,-2.6398745e-06,-3.8345055e-07,-4.328591e-06,-1.5814561e-06,-3.2770284e-05,-1.5888398e-06,-3.1039622e-09,-3.8325028e-09,-4.959214e-11,-1.6348845e-09,-4.360754e-08,-2.0565043e-09,-3.9496683e-08,-1.8396518e-08,-2.3156381e-10,2.017455e-07,4.6609507e-08,1.4554738e-07,-9.188676e-07,-9.406602e-07,-8.081545e-08,-2.750278e-07,-1.15745145e-07,-8.9648694e-08,1.9628125e-08,-3.747323e-06,-2.9658088e-07,-3.214523e-06,-1.1924894e-06,-2.6113838e-07,-1.7969053e-06,-8.390189e-07,-2.3865744e-07,-0.00044325576,-1.4834157e-05,-1.4375388e-07,-3.7032347e-05,-1.20479235e-05,-2.0592827e-06,-6.8547226e-05,-5.0728054e-06,-1.2646248e-08,-3.146837e-06,4.183839e-06,-6.0792468e-06,-9.817995e-07,-4.8323586e-06,-1.2965883e-05,-5.0569342e-06,-6.6796924e-06,8.5313326e-07,1.2703317e-08,-1.4958994e-08,-2.1916119e-10,1.9656119e-08,-8.409195e-08,-3.6393484e-08,-1.6899733e-07,-5.9540028e-08,-2.8794686e-08,-2.6870825e-12,-1.1206627e-10,-9.7111675e-15,7.1635627e-12,-8.292087e-11,-9.589047e-11,5.083124e-11,-2.4286958e-13,-2.594616e-11,-1.0466096e-07,-2.2602407e-07,1.43785615e-08,-5.967844e-09,-4.5166395e-08,-4.4712028e-08,-1.0196107e-07,-6.0424645e-07,-6.51866e-08,2.398809e-11,-2.937037e-07,-4.8779942e-08,-4.68352e-09,-1.1351588e-07,-1.2632815e-06,-4.8248324e-08,-5.4877606e-08,-3.783293e-07,-2.3528688e-09,-1.2204441e-07,-2.8645644e-07,-1.0463705e-08,-1.0224152e-07,-7.000887e-08,-1.1634779e-08,-8.309258e-09,-5.0920255e-09,-5.7275e-06,-6.485497e-06,8.247982e-06,6.10691e-07,-3.8462116e-05,-4.111443e-05,-1.2938127e-05,2.2276975e-06,-1.0482579e-06,-1.17632635e-05,-5.0278727e-06,-3.402713e-06,-9.928881e-06,-5.192414e-06,-5.684645e-06,-4.390406e-05,-4.624624e-05,-2.9451694e-05,-8.056629e-05,1.7493547e-07,-1.10663294e-07,-6.0017333e-06,-1.7335706e-06,-1.0274867e-06,-2.1066677e-05,-2.7285998e-06,-4.4550262e-07,-6.5942036e-06,5.426146e-08,-1.0935352e-06,-3.0172673e-06,-1.12548605e-05,-1.3563442e-06,-3.6020495e-07,-2.400284e-06,-6.224676e-07,-3.8457747e-05,2.1770633e-05,-4.8261863e-05,-4.6720533e-07,-1.0210922e-06,1.2717827e-06,-1.596297e-06,-5.105668e-05,-1.6765529e-05,-8.703059e-10,3.8005977e-11,-3.3627004e-11,-1.4467499e-09,-8.525433e-10,-8.281756e-09,-8.029885e-09,-2.7618857e-10,-3.3724576e-09,3.8244713e-07,1.4776493e-08,1.3971837e-08,-5.2073715e-06,2.4082783e-07,4.767925e-08,3.8459714e-07,7.154467e-07,2.4093007e-08,-2.1218343e-11,-6.1467764e-10,-7.7963175e-10,-1.4821908e-09,-2.3309685e-09,-3.3363353e-08,5.1083833e-12,-5.5924227e-11,-4.464942e-09,-0.00011233157,-1.4808251e-05,-1.7004255e-06,-3.4470077e-06,2.7638791e-06,-2.131331e-06,-1.912513e-05,-1.3331844e-06,1.4484216e-06,-1.304143e-05,-2.0210038e-07,-1.5522579e-05,-1.288393e-06,-0.00019684479,-9.200907e-06,-1.3608998e-06,-1.1565592e-05,-2.9077726e-05,2.0480341e-08,-1.9986635e-07,-1.3678739e-07,4.7301274e-09,-2.4058524e-08,-2.27753e-07,1.8434717e-08,-5.9616745e-08,-1.5685471e-07,3.5872894e-05,-1.277015e-05,-4.9898204e-06,5.2611495e-07,-2.3515247e-05,-4.3642985e-06,-5.4476086e-06,-9.2208535e-07,-5.6566237e-06,-2.6138562e-07,-5.8810574e-08,-8.439079e-07,-2.4818863e-07,-3.1681245e-07,-4.903928e-07,-1.6872974e-08,-2.2279774e-08,-1.9181613e-07,5.017104e-07,6.6552485e-07,-8.669722e-07,-2.0194897e-05,-3.3940506e-08,2.2427469e-06,1.6248745e-06,-1.4834677e-06,-4.441748e-06,3.1882697e-05,8.231659e-05,1.00716325e-05,3.95439e-05,1.8659024e-05,-1.1017339e-05,2.630977e-05,5.369565e-07,-3.5094977e-06,-5.7312366e-10,-8.221026e-08,-1.0274543e-06,-5.5735607e-11,-4.260532e-09,-3.651969e-08,-6.356975e-10,-1.5959377e-09,-1.3732451e-08,1.324692e-20,4.714689e-16,-7.776613e-16,-9.854925e-19,1.8015936e-16,1.1585043e-16,4.2814423e-20,-3.5338753e-14,-5.5767175e-13
-4.050453e-39,-3.614722e-39,1.4521527e-36,5.660364e-39,-4.16969e-39,-3.6621284e-36,1.771837e-39,-3.001204e-39,-1.681411e-33,-1.251742e-39,1.628448e-39,5.32322e-40,4.961024e-39,1.572879e-39,-1.822073e-39,6.709536e-39,-4.74822e-40,-1.87293e-40,2.361142e-39,3.774416e-39,-1.624244e-39,-2.107661e-39,-5.909361e-39,2.172632e-39,-1.940484e-39,3.344018e-39,-4.39358e-40,4.711255e-39,3.984145e-39,-1.855555e-39,2.562061e-39,1.108539e-39,4.314832e-39,8.1886e-40,6.33436e-40,1.91926e-40,4.1088806e-26,1.177508e-28,3.5837877e-25,3.7967626e-28,1.2702294e-28,4.174511e-25,4.9768514e-28,3.4963164e-28,2.6764022e-25,5.153317e-39,4.380728e-39,4.015499e-39,3.678169e-39,-1.848065e-39,-1.82132e-40,-2.621716e-39,1.48931e-39,1.79598e-39,-4.414426e-39,-4.73294e-39,4.468574e-39,2.657103e-39,-9.26216e-40,3.97686e-40,-2.716563e-39,1.170229e-39,2.776798e-39,-7.57496e-40,-1.93337e-40,-2.28382e-40,2.465182e-39,3.670327e-39,1.614212e-39,-2.52492e-40,5.91876e-39,-1.054642e-39,-5.1140116e-34,-5.9574393e-36,1.8428014e-36,4.5086314e-28,5.3614445e-36,-4.812217e-39,-5.420738e-39,-1.67981e-39,4.443595e-39,-3.867437e-39,-1.922659e-39,9.64333e-40,-1.64851e-39,-8.76423e-40,5.238213e-39,-6.639334e-39,-2.84909e-40,-2.2787e-39,-1.043553e-39,2.442016e-39,-1.134176e-39,-1.69693e-39,1.885394e-39,6.89844e-40,4.117982e-39,1.851342e-39,2.70731e-39,-9.1289e-41,2.460114e-39,-1.624157e-39,1.878176e-39,4.294017e-39,-5.83875e-40,2.336888e-39,1.357918e-39,-4.0866e-41,1.145312e-39,3.010328e-39,1.270085e-39,4.52252e-40,2.201098e-39,2.317713e-39,2.231202e-39,1.716204e-39,1.29737e-39,-2.656963e-39,-2.048237e-39,-4.576204e-39,-2.213558e-39,5.11529e-40,-5.08199e-39,3.54592e-39,4.845179e-39,-2.607105e-39,-5.94447e-39,3.530059e-39,2.088275e-39,1.975807e-39,-1.204321e-39,5.54268e-40,-3.776113e-39,1.28005e-39,-1.158001e-39,-2.38709e-39,-2.290078e-39,-1.647812e-39,-3.065559e-39,-1.712073e-39,-9.86514e-40,-2.633387e-39,-2.229452e-39,-1.626894e-39,-2.346492e-39,-4.110977e-39,2.318891e-39,-3.80455e-40,-2.603632e-39,3.810233e-39,-5.415876e-39,-2.505655e-39,-4.08544e-39,2.415979e-39,-4.7563e-39,-3.646551e-39,-2.523753e-39,-2.761748e-39,-2.384482e-39,-2.135292e-39,-1.134658e-39,-1.43546e-40,2.5155553e-27,7.402206e-28,4.0449246e-30,1.9249296e-27,8.9380144e-30,7.8426e-29,-6.384469e-35,2.9755913e-34,1.6308654e-28,3.573708e-39,-3.880575e-39,-4.9444e-40,2.453196e-39,-1.414336e-39,-1.659343e-39,-1.872112e-39,-3.530525e-39,-2.8364e-40,1.06323e-39,5.75295e-40,2.754804e-39,-6.2375e-41,-1.062966e-39,-2.936672e-39,-2.70138e-39,-2.052803e-39,4.53766e-40,2.660528e-39,-2.539583e-39,-2.482337e-39,-9.77714e-40,-2.987836e-39,-2.542887e-39,-1.037073e-39,-4.130411e-39,-2.691309e-39,1.469711e-39,-1.782624e-39,-5.659697e-39,-4.351056e-39,-5.336722e-39,-2.553156e-39,-3.609685e-39,-2.402138e-39,3.91499e-39,-6.5792e-39,-3.576261e-39,-1.603844e-39,-2.50526e-40,-8.92495e-40,-1.18855e-39,3.652786e-39,-1.409247e-39,1.184277e-39,-8.7162e-41,4.49866e-40,3.577176e-39,3.698087e-39,5.860917e-39,5.49432e-40,6.21952e-40,2.300316e-39,-1.193106e-39,-3.59832e-40,-1.76303e-40,6.214403e-39,2.70907e-39,-3.93351e-40,6.331994e-39,-3.354071e-39,1.031769e-39,1.966577e-39,1.597576e-39,9.11305e-40,2.246818e-39,2.563296e-39,2.561918e-39,1.165533e-39,-2.991472e-39,-3.44513e-39,-1.747041e-39,4.635806e-39,1.003574e-34,-3.378223e-29,2.597996e-39,3.302512e-39,-6.905012e-27,-6.99419e-40,2.661933e-39,-1.4673657e-28,-3.301135e-39,-4.959932e-39,-9.42145e-40,-5.036616e-39,-6.411523e-39,-6.271906e-39,-4.923684e-39,-4.570237e-39,-5.434778e-39,1.95585e-40,-5.99075e-40,8.07065e-40,2.317784e-39,6.097628e-39,1.319072e-39,2.79115e-40,-1.96438e-39,3.372254e-39,-6.344073e-39,1.4901499e-31,-4.627928e-39,-1.423775e-39,-3.38663e-39,-1.81514e-39,2.272522e-39,-8.64273e-40,-2.921305e-39,3.27031e-40,3.7074084e-37,-3.408731e-39,-4.42494e-40,3.406505e-39,-2.008485e-39,2.116872e-39,-1.012142e-39,2.827844e-39,1.829667e-39,5.035307e-39,2.867076e-39,4.415326e-39,4.299837e-39,1.090691e-39,-2.360413e-39,1.098908e-39,5.486612e-39,2.810846e-39,-2.405297e-39,-3.21658e-40,2.629252e-39,-1.790621e-39,-8.97278e-40,-7.24414e-40,-1.57493e-39,-2.89392e-40,-1.547346e-39,-2.385028e-39,-1.386602e-39,-1.944398e-39,-2.797978e-39,8.39109e-40,-3.893651e-39,6.09713e-40,-1.436258e-39,3.337561e-37,9.81496e-40,-1.3310181e-34,-7.219461e-35,3.1971989e-31,-1.4309891e-33,-2.59818e-39,8.608005e-37,-1.2613178e-34,5.689467e-39,-1.8468563e-38,1.08042e-40,-2.049444e-39,6.246663e-39,-5.56573e-40,-6.49148e-39,-1.8214e-41,1.857599e-39,4.223874e-39,2.49497e-39,1.106479e-39,2.288011e-39,2.707763e-39,-7.28906e-40,9.82987e-40,6.008619e-39,1.522572e-39,3.556938e-39,3.659101e-39,1.825592e-39,2.6885e-41,-1.129753e-39,-1.047003e-39,-2.6205e-39,1.898244e-39,2.35115e-39,-1.804708e-39,2.17278e-39,7.01402e-40,1.175282e-39,1.230273e-39,2.373846e-39,1.27501e-39,4.132129e-39,-5.6583e-41,-2.7134962e-34,-3.531988e-39,-2.36947e-40,-8.350584e-39,-1.751828e-39,-1.971663e-39,-2.058606e-39,2.676508e-39,2.018586e-39,2.514028e-39,-6.700138e-39,-6.467385e-39,-2.571904e-39,3.128899e-39,2.307954e-39,-6.488396e-39,4.736355e-39,-3.339349e-39,-6.50892e-40,1.255336e-39,-2.440721e-39,3.083088e-39,4.24529e-40,9.23869e-40,3.056106e-39,1.552626e-39,5.641964e-39,2.712182e-39,1.94258e-39,2.777791e-39,2.24978e-40,-2.263966e-39,-1.751304e-39,1.519995e-39,-5.58516e-39,2.732403e-39,-9.45382e-40,-1.92185e-40,7.27536e-40,-1.184208e-39,-1.327771e-39,-1.362602e-39,-2.266536e-39,-7.15283e-40,-2.821199e-39,5.27069e-40,-4.848807e-39,-3.274753e-39,3.204258e-39,-6.419393e-39,2.036531e-39,-1.682913e-39,-6.57744e-40,-5.4634e-40,-2.164153e-39,3.744809e-39,2.132922e-39,-2.536458e-39,3.75656e-40,6.001738e-39,-2.295012e-39,-5.31793e-40,2.459174e-39,1.896073e-39,2.70751e-39,1.02356e-40,4.14626e-39,2.06645e-39,-1.933492e-39,-1.63659e-40,-9.8015e-41,3.004324e-39,4.7859094e-29,1.7595892e-29,1.7435339e-28,1.4017787e-28,-1.5616358e-33,1.3976603e-31,3.3756748e-36,-8.450099e-39,8.899205e-37,-2.235349e-39,-1.331812e-39,4.08086e-40,-2.621727e-39,4.829e-42,-3.864526e-39,1.112873e-39,1.474705e-39,5.40294e-40,-3.316802e-39,-3.279047e-39,-8.5517e-41,1.114011e-39,-1.929173e-39,-2.50262e-40,7.3086e-40,-2.504408e-39,-2.67303e-40,-1.344036e-31,5.196536e-23,9.5171215e-27,2.826798e-31,7.685007e-21,-9.799105e-33,-3.2996077e-37,-2.7279615e-29,4.9133364e-33,-5.186692e-39,-4.292348e-39,-1.444304e-39,1.203282e-39,1.103566e-39,-3.4799e-40,-4.43781e-40,-3.623838e-39,-1.652432e-39,2.68573e-40,2.826258e-39,-2.487544e-39,1.793201e-39,2.018016e-39,-1.229474e-39,-2.121413e-39,1.185598e-39,-4.513126e-39,-2.942842e-39,-2.552333e-39,1.073357e-39,2.86497e-40,1.973513e-39,-8.62543e-40,-2.395487e-39,3.817777e-39,1.009e-41,-3.706384e-39,-1.632808e-39,5.411307e-39,-4.63444e-40,-1.7542e-40,-8.25421e-40,-1.830718e-39,-2.87132e-40,-3.976888e-39,3.378556e-39,4.385134e-39,1.740135e-39,-3.849827e-39,8.79652e-40,-1.22857e-39,-2.377014e-39,4.81534e-39,-3.98435e-40,6.46476e-40,-8.03622e-40,9.17207e-40,6.316531e-39,-9.24428e-40,2.239953e-39,5.824395e-39,-1.50089e-39,3.159279e-39,3.358688e-39,-5.457797e-39,-1.689627e-39,-4.817176e-39,-1.263746e-39,-4.73723e-40,2.750435e-39,3.063969e-39,-3.06103e-39,-5.410779e-39,-3.91785e-40,1.071922e-39,-1.213526e-39,-5.958243e-39,-6.748313e-39,6.369615e-39,3.997508e-39,1.912883e-39,2.355644e-39,2.90034e-39,-2.834695e-39,4.940023e-39,-2.803075e-39,-7.8015e-40,6.674251e-39,-1.483038e-39,-2.228198e-39,-3.0593666e-30,-1.1034721e-30,2.0198408e-29,7.300821e-30,1.7675509e-28,6.072417e-25,1.8119666e-30,8.666284e-29,2.8542525e-26,5.082748e-39,-1.151329e-39,-9.99971e-40,9.30053e-40,6.375356e-39,-3.748968e-39,-3.731288e-39,-2.12357e-40,-6.31101e-40,-7.02276e-40,-2.213116e-39,-4.346087e-39,3.43073e-40,6.228061e-39,1.550736e-39,1.588854e-39,-1.08829e-40,5.680341e-39
-6.1636e-41,6.307631e-39,2.264459e-39,-3.201067e-39,1.32985e-39,-2.543093e-39,5.23301e-39,-8.06795e-40,-2.47974e-39,2.785985e-39,-2.21766e-39,4.96041e-40,-5.455104e-39,-6.083135e-39,-2.859663e-39,-1.760129e-39,7.59989e-40,-1.62558e-39,6.130387e-39,-1.179207e-39,-2.506732e-39,4.10507e-39,3.93995e-39,1.802557e-39,1.552322e-39,3.199908e-39,6.177694e-39,4.46302e-40,2.300638e-39,2.081215e-39,3.428002e-39,2.010674e-39,-2.804033e-39,1.8624e-39,-4.0745e-40,-3.34536e-40,-5.023337e-39,-3.630909e-39,-2.700643e-39,-2.762272e-39,-1.759828e-39,-2.070993e-39,-2.195347e-39,-1.582355e-39,-1.756282e-39,2.628938e-39,-8.11726e-40,-1.974203e-39,2.3905e-39,4.03434e-39,-2.55825e-39,3.385285e-39,-4.07899e-39,-2.058601e-39,1.248232e-39,-6.31152e-40,2.086372e-39,5.082133e-39,2.079703e-39,1.9739e-41,1.395335e-39,1.029439e-39,-1.537243e-39,-9.62961e-40,-2.76732e-39,1.687692e-39,-1.772319e-39,-2.141778e-39,3.483587e-39,-7.2778e-40,-2.118442e-39,-4.811625e-39,-1.328497e-39,5.6404e-40,-3.591948e-39,9.7973e-40,1.15233e-40,9.8234e-41,3.12805e-40,2.78615e-39,-1.36694e-40,-5.047e-41,-2.8817e-40,-5.781254e-39,-3.552914e-39,-4.55979e-39,1.378656e-39,-1.715171e-39,-2.62817e-39,-3.76193e-40,2.316e-42,-2.082492e-39,-1.481662e-39,8.3728e-40,7.40504e-40,-2.291734e-39,-4.39562e-40,-2.707562e-39,2.187874e-39,2.426972e-39,3.501546e-39,-2.103268e-39,-6.241253e-39,-2.62461e-39,6.21105e-40,2.51687e-40,-2.894766e-39,6.77863e-40,-1.879853e-39,-5.404936e-39,1.58367e-39,2.571285e-39,1.29082e-40,-2.717542e-39,5.93429e-40,-6.459724e-39,1.740375e-39,4.928413e-39,-1.790616e-39,-2.397762e-39,-2.25941e-40,-2.45606e-39,-6.295399e-39,8.81539e-40,3.309793e-39,4.512555e-39,5.450278e-39,1.956549e-39,1.313949e-39,3.439172e-39,2.48399e-39,3.25411e-40,1.627737e-39,7.28092e-40,-1.819212e-39,4.384331e-39,4.97854e-39,2.667495e-39,1.673543e-39,-2.064037e-39,-1.887234e-39,1.274069e-39,5.697884e-39,-2.008293e-39,1.822833e-39,3.446807e-39,3.451984e-39,1.089723e-39,-1.88023e-40,-6.809892e-39,-4.81472e-40,-1.110519e-39,-2.40031e-40,-6.653886e-39,-2.658323e-39,-2.408008e-39,-4.974163e-39,-6.09345e-40,-3.055604e-39,-7.41693e-40,-3.784704e-39,-5.258316e-39,-7.74488e-40,-3.502104e-39,-1.787302e-39,6.9426e-40,-3.51548e-40,-1.291276e-39,9.6946e-41,1.638321e-39,2.60966e-39,4.637848e-39,1.508072e-39,-2.172402e-39,-2.068678e-39,-2.194995e-39,-2.041185e-39,-2.723681e-39,-2.865207e-39,1.63048e-40,-3.736567e-39,-2.482124e-39,-2.799374e-39,5.85528e-39,2.270992e-39,9.51398e-40,3.912829e-39,-2.039769e-39,-4.6321e-40,-1.763323e-39,-7.06086e-40,-2.03367e-39,-6.900288e-39,4.610034e-39,3.113097e-39,-2.668155e-39,2.146862e-39,-9.73053e-40,4.71625e-40,4.9402e-40,1.454626e-39,7.54348e-40,1.838624e-39,4.918235e-39,2.5264e-41,4.569905e-39,-1.84086e-39,-5.426462e-39,-3.749084e-39,3.43363e-39,-4.59623e-40,2.001057e-39,-5.9721e-40,-9.30772e-40,9.36432e-40,1.870383e-39,7.07642e-40,-1.191346e-39,2.404942e-39,-7.88847e-40,-5.14656e-40,-1.629215e-39,-2.399064e-39,2.50526e-40,-1.1388e-41,-4.147218e-39,3.93808e-40,5.78442e-40,-2.085236e-39,2.182755e-39,-6.777366e-39,-1.189452e-39,1.564397e-39,4.020971e-39,2.354532e-39,5.423054e-39,-4.49689e-40,-1.661043e-39,1.635088e-39,-1.429638e-39,2.92336e-39,-2.022207e-39,-2.961988e-39,-2.75155e-39,9.54335e-40,1.901582e-39,1.845963e-39,-2.180598e-39,-3.91615e-40,2.337135e-39,2.10493e-39,-7.39346e-40,2.020015e-39,9.09066e-40,2.44048e-39,2.192715e-39,2.642382e-39,-3.760756e-39,1.110071e-39,4.477954e-39,-1.510097e-39,1.212558e-39,2.43418e-40,9.13373e-40,1.345888e-39,3.18124e-39,-2.39873e-39,3.99395e-40,3.05664e-40,-1.326487e-39,3.199993e-39,-2.557962e-39,-5.700957e-39,-1.790411e-39,-2.267393e-39,-1.81352e-39,1.395283e-39,-6.21737e-40,1.283085e-39,3.06485e-40,-1.702066e-39,-2.187936e-39,-1.622163e-39,-1.735839e-39,-7.2872e-40,-1.046634e-39,2.639508e-39,2.10603e-40,6.884808e-39,-3.167187e-39,-4.425893e-39,-2.696426e-39,-5.366935e-39,-1.512242e-39,-2.812853e-39,4.691326e-39,-1.816541e-39,-3.666034e-39,2.071806e-39,1.03318e-39,-2.297102e-39,1.631134e-39,2.370103e-39,-6.498138e-39,9.98536e-40,2.159395e-39,-2.511563e-39,6.77263e-40,-1.25297e-40,1.03354e-40,-2.161915e-39,8.98615e-40,-2.003064e-39,3.766292e-39,-7.66066e-40,-1.12184e-39,-2.291775e-39,2.483192e-39,2.169553e-39,-3.526488e-39,5.147454e-39,6.367513e-39,-2.074334e-39,-2.284576e-39,3.577823e-39,2.733207e-39,-1.73572e-39,6.73153e-40,-4.31342e-40,8.17108e-40,-8.90898e-40,4.710417e-39,1.057521e-39,-7.97189e-40,1.328767e-39,3.6316e-40,2.34538e-39,1.365434e-39,1.15898e-39,2.02234e-39,1.007958e-39,-1.81274e-39,-2.439439e-39,-2.18757e-39,-2.00316e-39,-1.963928e-39,-3.065565e-39,-1.826726e-39,-1.5742e-39,-2.41492e-39,-2.85315e-39,-2.303582e-39,3.445329e-39,-8.14952e-40,4.103156e-39,-1.495658e-39,-2.906604e-39,-8.75663e-40,-2.49071e-39,-6.817798e-39,-1.947782e-39,2.22175e-39,1.06352e-40,-2.382156e-39,1.936596e-39,-1.590419e-39,2.60479e-40,1.157931e-39,-1.24956e-39,-4.472282e-39,1.26162e-39,-2.015076e-39,1.73597e-39,2.0905e-41,-1.8517e-41,7.23895e-40,2.975643e-39,2.06507e-40,-4.42716e-40,1.747664e-39,-3.698352e-39,2.67343e-40,2.000589e-39,-9.7483e-41,4.9897e-41,-2.182846e-39,4.680711e-39,2.165948e-39,8.88793e-40,-4.077423e-39,-1.340818e-39,-2.463662e-39,-8.87327e-40,3.56429e-40,-3.035805e-39,-7.9871e-41,1.515437e-39,-1.621567e-39,-6.9923e-40,-5.46609e-40,-2.729246e-39,-1.520564e-39,3.93189e-39,5.409113e-39,-2.920963e-39,-1.326633e-39,3.677594e-39,-4.713172e-39,-2.596186e-39,-2.639533e-39,-2.147491e-39,-3.442294e-39,-3.076199e-39,-2.326523e-39,-5.682851e-39,2.865137e-39,1.028927e-39,1.995603e-39,1.91014e-39,-4.808187e-39,2.259941e-39,-5.015916e-39,-6.47752e-40,-7.09053e-40,-1.199434e-39,-1.552651e-39,-4.9939e-40,1.937294e-39,3.739137e-39,-3.7344e-40,4.120165e-39,-9.05767e-40,2.045338e-39,-2.49956e-39,-2.067732e-39,-2.51422e-39,-1.490787e-39,2.33745e-40,5.057225e-39,1.953975e-39,5.301219e-39,2.137112e-39,2.568532e-39,-2.420247e-39,-2.14227e-39,-5.546257e-39,-8.65798e-40,1.34616e-39,6.201264e-39,1.351425e-39,-1.109807e-39,1.547936e-39,-1.794294e-39,6.41995e-40,4.74672e-40,1.229253e-39,2.746972e-39,9.56044e-40,4.74634e-40,1.203861e-39,4.189826e-39,-4.90061e-39,-3.15082e-40,-2.702883e-39,2.801403e-39,-3.774432e-39,1.712115e-39,-1.329202e-39,9.9724e-40,4.883151e-39,2.747432e-39,-6.128642e-39,-2.878025e-39,6.302242e-39,5.325565e-39,3.306638e-39,6.00525e-39,5.43223e-40,-5.137333e-39,-4.338801e-39,-3.558897e-39,1.230201e-39,-4.638048e-39,-2.88674e-39,-1.075122e-39,3.222008e-39,3.730136e-39,-1.328787e-39,-2.93212e-39,-6.919096e-39,-3.931976e-39,2.190364e-39,1.284838e-39,-4.884503e-39,2.505128e-39,-1.130081e-39,2.178861e-39,-4.04036e-39,-8.51472e-40,2.1497e-39,1.8517e-39,4.127672e-39,-3.997132e-39,-1.660251e-39,-3.69737e-39,1.3278e-39,-2.890306e-39,2.692486e-39,-6.54256e-40,2.786709e-39,6.94346e-40,5.87961e-40,-1.955717e-39,-7.01709e-40,3.975271e-39,-1.131505e-39,1.31644e-39,1.046019e-39,3.089932e-39,-1.104792e-39,-3.220807e-39,5.3423e-41,1.718878e-39,-6.92803e-40,6.2765e-40,-1.88578e-40,-2.496297e-39,-8.2848e-40,1.458483e-39,5.634602e-39,-1.575102e-39,-3.7957e-41,-2.780129e-39,-1.976187e-39,-3.129989e-39,1.208792e-39,-4.527265e-39,-1.446154e-39,-1.038317e-39,-1.941112e-39,-5.127245e-39,1.07749e-39,2.724428e-39,2.494519e-39,-1.1663e-39,-7.56124e-40,5.57567e-40,-3.06314e-40,-4.763578e-39,-1.757405e-39,-2.822512e-39,-6.142604e-39,-2.747631e-39,-5.387831e-39,-3.54481e-40,-2.429961e-39,-1.483564e-39,-5.046252e-39,1.735567e-39,4.164766e-39,6.062415e-39,2.551037e-39,5.46962e-39,5.637164e-39,-8.61017e-40,1.52153e-40,1.464463e-39,2.091808e-39,2.18444e-40,2.221728e-39,-1.476774e-39,6.19913e-40,-1.653619e-39,2.615295e-39,-8.41319e-40,5.7807e-40
1.15033e-40,3.30317e-39,-8.26566e-40,-1.753036e-39,4.437e-42,3.425914e-39,-9.223e-40,-9.39076e-40,-6.24342e-40,-4.7889e-40,1.25205e-40,-2.308293e-39,-7.2618e-41,-1.394327e-39,3.682894e-39,-1.448913e-39,-1.027585e-39,5.419962e-39,1.050887e-39,1.768887e-39,-5.315005e-39,-2.389096e-39,1.346495e-39,-1.551638e-39,-7.54072e-40,-3.618922e-39,3.78656e-39,3.259583e-39,-2.251208e-39,5.1912e-40,-2.137056e-39,2.131749e-39,-1.516163e-39,-2.333455e-39,2.157477e-39,7.00799e-40,1.26493e-39,-4.45998e-39,1.192387e-39,3.01083e-39,1.548503e-39,-2.800045e-39,1.125557e-39,2.429378e-39,-3.364984e-39,6.931139e-39,3.62643e-40,-2.343508e-39,2.16888e-39,2.678843e-39,-2.491957e-39,2.103463e-39,1.873015e-39,-3.37966e-39,7.66353e-40,-1.002032e-39,2.847132e-39,2.306787e-39,3.381667e-39,6.063441e-39,-2.593194e-39,2.735744e-39,2.275269e-39,2.44908e-40,-1.53899e-39,-3.80095e-40,3.132159e-39,1.477902e-39,-1.492572e-39,2.543958e-39,3.213019e-39,-3.49072e-39,3.213842e-39,1.67624e-39,-1.825432e-39,1.989596e-39,-1.099062e-39,-9.7607e-40,-1.691922e-39,1.4097e-41,-2.59364e-40,1.934204e-39,2.42673e-40,1.230938e-39,8.50158e-40,-6.922092e-39,9.41667e-40,-3.70948e-39,-2.49503e-40,2.8984e-41,-1.794976e-39,-4.9245e-40,5.409931e-39,-6.529272e-39,-3.830825e-39,-1.025159e-39,1.418427e-39,1.110813e-39,-5.575621e-39,1.656474e-39,-4.60247e-39,-9.84311e-40,2.029279e-39,-2.049632e-39,-1.476026e-39,2.196077e-39,9.22161e-40,2.855211e-39,3.340606e-39,-3.24558e-40,2.683188e-39,-1.364331e-39,-5.257474e-39,2.5833e-41,6.16933e-39,-1.960466e-39,7.83e-40,-2.30026e-39,-7.19278e-40,4.332882e-39,1.58701e-40,6.24068e-40,-2.136102e-39,-4.995608e-39,1.297409e-39,1.61027e-39,9.87617e-40,-1.813057e-39,1.66218e-39,1.481184e-39,-6.667154e-39,2.615633e-39,2.609631e-39,-2.356796e-39,1.00109e-39,1.663455e-39,-3.192618e-39,-1.490125e-39,-1.27041e-39,-1.645342e-39,4.35875e-40,1.682023e-39,5.772767e-39,2.093066e-39,1.951493e-39,7.45865e-40,-3.161335e-39,-2.044353e-39,1.458278e-39,1.510485e-39,-1.8499e-40,3.27996e-39,-2.721352e-39,-1.26145e-39,-1.935234e-39,-7.3824e-40,2.165766e-39,-2.590376e-39,-3.088346e-39,-2.442532e-39,1.1482e-40,1.230049e-39,4.18377e-39,-2.25561e-40,-2.389351e-39,2.721638e-39,-7.65538e-40,-2.172661e-39,-4.88393e-40,-1.702531e-39,-8.16734e-40,-1.05421e-39,3.183583e-39,-1.071273e-39,-4.5965e-41,1.048754e-39,-2.8705e-40,-2.90394e-40,3.067228e-39,-5.17337e-40,-1.094373e-39,6.09362e-40,-1.958589e-39,4.368216e-39,5.69193e-40,-1.796158e-39,1.738329e-39,6.159604e-39,9.03458e-40,-1.7279e-39,-1.930022e-39,-7.86475e-40,-6.542052e-39,7.58918e-40,-2.204108e-39,5.1303e-41,-7.98348e-40,-7.84827e-40,-5.487965e-39,-8.52903e-40,-3.056536e-39,-5.665209e-39,-9.0393e-40,2.02436e-40,3.346346e-39,1.180504e-39,3.78566e-40,-3.533e-41,6.372133e-39,-2.639389e-39,-3.766554e-39,5.35228e-39,6.992624e-39,-2.322747e-39,4.20053e-40,5.026006e-39,-1.610133e-39,4.719265e-39,-6.47276e-39,-4.669038e-39,1.900278e-39,4.37431e-40,6.465213e-39,-5.288845e-39,-4.258912e-39,-3.83576e-40,-2.549417e-39,-1.49977e-39,-1.244534e-39,-2.608573e-39,-3.622005e-39,-8.45943e-40,-2.629213e-39,1.436938e-39,2.577064e-39,1.0415e-39,-7.75561e-40,5.999522e-39,-2.44818e-39,-1.54318e-39,-1.225747e-39,2.73703e-39,2.462883e-39,-3.221759e-39,-1.143067e-39,-2.216567e-39,2.958629e-39,-1.734391e-39,-2.410383e-39,-2.990459e-39,-2.772835e-39,-1.320752e-39,-2.111597e-39,-2.377233e-39,-2.945305e-39,1.566968e-39,-2.345262e-39,-2.512883e-39,-3.049951e-39,-1.547003e-39,-2.878746e-39,-1.054644e-39,-3.403008e-39,-1.452719e-39,2.019612e-39,4.828988e-39,-5.667494e-39,-6.870439e-39,1.925678e-39,5.909435e-39,5.795553e-39,-2.044262e-39,-2.093729e-39,-1.53037e-39,-1.131546e-39,-1.36947e-39,-1.343505e-39,-2.00705e-39,-3.657888e-39,2.589537e-39,-2.534728e-39,-9.46542e-40,1.588213e-39,-2.421323e-39,-3.840341e-39,6.8958e-40,-1.491005e-39,-2.775883e-39,1.407517e-39,1.05513e-39,-9.59838e-40,-1.173149e-39,2.604787e-39,-1.912711e-39,-7.30819e-40,1.683746e-39,1.871501e-39,-6.1703e-40,-2.399568e-39,-1.355409e-39,-1.2764e-40,-2.872592e-39,2.911195e-39,-1.068895e-39,6.13687e-40,-1.847772e-39,-3.686114e-39,-3.019707e-39,-6.100501e-39,-1.634312e-39,-1.083659e-39,2.69436e-39,3.827369e-39,-2.7483e-40,-3.465261e-39,-1.3406e-39,-2.900642e-39,-1.804407e-39,-1.417514e-39,-3.16315e-39,-2.694652e-39,-5.01934e-39,-4.75997e-40,6.019811e-39,-8.60103e-40,-2.566538e-39,2.77658e-39,2.45121e-40,1.43274e-40,-1.50734e-39,1.240232e-39,2.501445e-39,-5.631945e-39,1.880268e-39,-2.558366e-39,-1.649006e-39,2.13669e-39,-2.889982e-39,2.745232e-39,2.141668e-39,2.204542e-39,-1.93259e-40,1.299156e-39,-1.240459e-39,-1.173882e-39,-2.210243e-39,8.03981e-40,2.982675e-39,-4.69288e-40,-1.905539e-39,1.637319e-39,-2.574395e-39,-5.86513e-40,-3.34534e-39,-2.61493e-39,1.81737e-39,-1.463997e-39,4.436e-41,-3.283457e-39,2.118941e-39,2.838522e-39,1.026678e-39,-5.02147e-40,-1.830809e-39,3.120856e-39,-2.543294e-39,2.451659e-39,-4.171954e-39,-1.3358e-39,2.076813e-39,-2.164754e-39,-1.696569e-39,-2.034324e-39,-1.255474e-39,-2.55755e-39,-2.736851e-39,-2.758976e-39,-1.370799e-39,-9.24128e-40,-1.907323e-39,-3.552642e-39,-1.181688e-39,2.345484e-39,-6.139835e-39,-3.929104e-39,-2.36769e-39,6.6493e-41,7.99201e-40,5.152105e-39,2.491772e-39,-4.955696e-39,-4.031197e-39,3.80841e-39,-5.66311e-40,1.609742e-39,5.96195e-40,2.25658e-40,-8.85394e-40,-4.54302e-40,1.512933e-39,-2.531352e-39,-9.50006e-40,-1.850972e-39,2.271128e-39,-1.417482e-39,5.238435e-39,3.305429e-39,1.907128e-39,-1.277752e-39,1.998413e-39,1.361762e-39,3.381664e-39,-1.282367e-39,-1.60724e-39,1.442916e-39,3.122215e-39,-1.89968e-39,7.51934e-40,-6.34297e-39,1.887151e-39,-7.43623e-40,1.886745e-39,-4.844936e-39,1.034325e-39,-2.174193e-39,-6.0175e-41,4.157362e-39,-5.99366e-40,-2.925389e-39,-1.322096e-39,3.580894e-39,2.339182e-39,-2.055112e-39,-2.404265e-39,2.730162e-39,1.428834e-39,5.709525e-39,-1.91506e-39,5.87537e-39,-1.246817e-39,8.137e-42,-1.978397e-39,1.444688e-39,-5.10979e-39,3.699834e-39,-1.427514e-39,2.524853e-39,2.031164e-39,-2.509033e-39,3.499831e-39,2.131885e-39,-1.863267e-39,-2.85618e-40,-2.51525e-40,2.75638e-40,-1.472615e-39,-2.037543e-39,-1.477777e-39,3.914729e-39,2.533185e-39,-2.930115e-39,-2.482605e-39,-5.06788e-40,-1.528339e-39,-5.38329e-39,1.322017e-39,4.82351e-40,-5.654724e-39,1.385706e-39,2.234865e-39,2.294483e-39,6.139313e-39,4.011847e-39,3.328622e-39,5.875448e-39,4.923197e-39,2.750715e-39,-6.1008e-41,-1.544365e-39,-3.62472e-39,1.76404e-40,6.177323e-39,1.038131e-39,-5.696992e-39,-6.797086e-39,-4.942717e-39,-4.538154e-39,1.980144e-39,1.598768e-39,-5.19774e-40,2.463533e-39,4.111246e-39,-3.029225e-39,-3.660709e-39,-3.60618e-39,-2.024422e-39,-3.490999e-39,3.26046e-40,2.985986e-39,8.69175e-40,1.252214e-39,-1.657705e-39,8.01481e-40,-2.813451e-39,1.416306e-39,-1.1011e-40,-1.364443e-39,2.099574e-39,2.288212e-39,-2.406227e-39,4.0736e-41,1.489318e-39,6.7563e-40,1.72763e-40,-2.60765e-40,-6.12236e-40,5.247899e-39,1.079681e-39,4.766528e-39,4.216508e-39,2.72708e-39,-2.609609e-39,-2.18464e-39,-1.477802e-39,7.8335e-41,-2.97462e-40,-2.13801e-39,-2.060106e-39,-1.184785e-39,-8.71972e-40,-1.526978e-39,-3.88065e-39,-2.787582e-39,-2.30025e-40,1.287499e-39,3.665281e-39,-2.031454e-39,-1.191649e-39,1.638045e-39,-2.22805e-39,4.47297e-40,-1.01233e-39,1.458494e-39,-5.439387e-39,1.289225e-39,3.00174e-40,1.860735e-39,-1.996971e-39,3.042387e-39,7.44312e-40,9.4506e-40,-2.579715e-39,1.19394e-39,4.93843e-40,-1.93142e-40,-7.06666e-40,2.018419e-39,1.331563e-39,-4.1994e-39,9.0393e-40,6.007404e-39,-1.9309e-39,-4.93621e-40,6.779e-41,-4.501265e-39,1.85741e-39,1.457737e-39,2.81858e-39,1.072005e-39,-3.046061e-39,5.842337e-39,-1.575839e-39,-7.02102e-40,2.2498e-40,-1.27287e-40,7.5376e-41
1.3119927e-09,7.004645e-08,-8.720448e-13,3.5683594e-09,1.4807225e-11,1.0642763e-09,8.0254985e-08,2.0755316e-10,1.6051512e-08,1.7457423e-17,2.3911793e-15,4.0306698e-16,1.1599194e-11,1.7902672e-13,3.7465888e-11,1.4104696e-13,2.4399924e-14,1.0195797e-12,4.3368336e-09,9.054744e-12,1.1322708e-10,-7.864742e-08,-2.2677276e-09,2.2236762e-08,-2.30941e-12,2.548218e-07,2.198114e-12,1.3035291e-18,-6.889611e-26,6.1011885e-21,1.1357266e-18,6.545447e-31,-1.583753e-29,3.417303e-26,1.7737848e-27,2.1606473e-23,2.3845919e-08,5.7858367e-09,5.9725885e-10,3.0214906e-08,5.6014663e-08,5.605215e-10,7.414954e-08,1.6702921e-07,4.8654915e-08,7.750403e-28,1.03555885e-23,1.6133682e-33,5.9138405e-24,1.018142e-21,3.3805586e-20,1.2793948e-21,2.295596e-15,4.725466e-14,-1.7322288e-15,-1.8637045e-13,2.2048245e-16,-2.252609e-19,1.4529916e-09,-1.36911e-26,-1.3621545e-14,2.2572358e-19,8.991693e-18,-1.7219558e-15,-7.2022073e-19,-2.1149845e-15,-5.0794835e-20,-9.911987e-24,-3.246575e-16,-3.2869968e-16,-6.911797e-15,9.367777e-16,2.6911144e-07,3.4897704e-07,1.0600994e-08,6.511699e-09,7.8545736e-07,1.2707678e-08,3.1756902e-09,4.7299122e-06,4.5845194e-09,4.853875e-13,5.6505526e-11,4.4975552e-13,5.2452096e-15,9.663621e-12,1.0071014e-13,7.840749e-14,1.8480675e-12,5.970807e-14,6.3251765e-27,-4.456254e-19,5.8046835e-28,-7.804464e-18,-1.068495e-20,-3.499108e-16,-7.623266e-21,-3.0596793e-19,2.6933278e-14,6.895425e-09,1.1198023e-09,1.2638241e-08,4.5818432e-11,2.1051065e-09,3.6314776e-10,7.605638e-14,2.9064974e-08,2.0909915e-14,-1.879232e-11,1.1543546e-12,-9.562181e-13,-4.5561298e-11,-3.899788e-13,7.715156e-11,3.8958937e-15,-2.1079822e-09,2.3777648e-17,4.3542718e-14,1.9513861e-13,1.39004426e-14,-3.96318e-12,2.4171806e-10,2.0473328e-13,-3.7028137e-12,6.375624e-11,3.5470243e-14,3.8935444e-32,7.9050155e-23,-1.7754883e-30,1.2662714e-29,-2.6864666e-31,1.310203e-20,-1.1563947e-30,-9.443109e-33,-5.326602e-32,-1.8575681e-11,7.9365475e-13,1.5002517e-13,1.954997e-15,1.21996e-10,1.4842399e-14,1.954943e-12,-1.4696803e-10,-4.567385e-13,7.4214025e-14,4.347348e-17,2.332384e-16,6.5715556e-17,6.2612714e-11,5.118837e-14,2.6699873e-16,3.7047233e-11,9.217105e-22,9.42838e-09,9.657403e-10,4.6400644e-10,1.31582425e-08,8.4892505e-08,2.8062346e-09,5.2036158e-09,2.6265195e-06,2.0979702e-09,5.2862585e-09,5.719134e-09,9.700902e-09,2.190327e-09,5.978043e-08,3.687809e-08,1.9281449e-10,9.9812755e-11,1.4971146e-08,-2.1088883e-10,-1.7724986e-08,3.7908986e-08,2.98534e-11,-5.0372856e-10,1.107842e-10,-1.855323e-13,9.640647e-12,7.295531e-16,-3.7199696e-12,-7.533665e-14,1.7556428e-13,9.00974e-15,-1.2397015e-11,9.5680436e-11,7.51589e-16,-8.042425e-13,3.7512471e-16,7.952798e-13,2.7658054e-12,3.2371792e-09,2.0776271e-12,8.2641435e-11,3.6169093e-10,1.1622346e-12,2.2947325e-14,2.1290652e-12,-1.2006261e-13,9.192534e-13,-5.7640935e-15,-4.3585795e-12,-4.20411e-12,-2.6264423e-11,-1.3180228e-12,-1.30518e-10,1.230608e-08,-1.8472533e-16,2.7193658e-15,2.4848445e-13,4.22027e-14,2.6238013e-16,8.2324035e-13,1.2195682e-14,5.2140913e-12,4.1646487e-12,5.101648e-18,1.1234685e-12,-8.5724847e-19,1.4833695e-15,1.181899e-21,1.2420012e-11,1.4834013e-13,1.7547836e-17,4.118619e-15,4.514681e-13,4.10465e-09,2.2877223e-12,-1.109127e-12,-4.7940164e-16,-1.1757741e-15,-9.0920016e-10,-2.0317996e-14,-1.0801653e-08,9.241781e-12,4.0405523e-10,1.1787048e-13,5.4110925e-09,-9.877033e-12,-4.372338e-11,-3.7629833e-09,1.42697885e-11,-8.128051e-09,2.1554114e-07,3.7557973e-10,-1.7701174e-12,1.5979197e-08,3.045599e-08,-1.4726673e-09,-2.2331445e-13,8.776187e-07,9.159844e-09,4.2946238e-10,-6.551074e-10,9.0968555e-10,-1.301665e-07,4.078294e-09,5.313517e-08,-4.6919433e-09,7.576385e-09,1.771617e-08,2.2906287e-15,-4.075086e-18,-3.6409385e-18,-4.3076713e-16,-5.3926007e-14,-1.9091691e-16,-5.3026407e-17,1.1338201e-15,-2.3837769e-17,-3.051432e-07,-1.2285513e-09,1.9816744e-08,-7.306359e-07,6.1414074e-10,-1.1386998e-05,3.0757021e-09,-1.132342e-06,7.765197e-09,-1.05487015e-08,-3.989628e-10,5.08364e-10,-3.229687e-09,-1.3176031e-10,3.4100966e-10,-5.6220296e-15,5.9599314e-10,-4.314674e-18,2.8385623e-12,3.8001175e-11,1.855386e-12,1.12475194e-13,1.05977475e-11,1.244608e-09,1.3301463e-13,2.1244634e-13,3.613458e-13,-5.9191624e-10,2.9244873e-09,1.8514336e-06,1.8391157e-08,-1.2169697e-07,3.4862143e-08,1.1046214e-10,2.4448628e-08,2.0296766e-07,2.5636396e-11,-4.475143e-11,3.1573788e-09,-2.5276803e-11,1.0483136e-08,-1.8783581e-09,-1.1312471e-08,2.25444e-09,5.963405e-10,2.770626e-09,1.4137227e-07,1.3850234e-09,-2.787156e-06,-1.5744615e-07,-1.6147977e-06,2.374964e-08,1.0383571e-07,6.8827485e-06,1.1132623e-09,1.689061e-12,3.2389351e-09,-5.325755e-09,3.5859378e-09,-5.519523e-06,-7.897526e-09,4.2224655e-09,3.5040916e-08,-1.371071e-15,7.58256e-15,2.793298e-20,5.6184983e-14,7.3176957e-13,2.6958092e-14,-2.2212192e-14,3.4565406e-17,7.4858875e-14,2.2512459e-13,1.0111908e-17,-3.4575434e-15,4.3389562e-13,1.9135499e-11,1.6792597e-12,1.0334974e-12,3.5947562e-12,5.2803414e-14,4.497283e-12,-9.232462e-18,-6.744186e-11,-7.483111e-10,-1.3805293e-10,8.6506725e-11,-1.6667184e-12,1.2954272e-09,-8.317749e-17,-2.9073233e-09,-9.633637e-10,1.9073614e-11,-2.2465323e-09,2.1954014e-07,2.8235628e-13,-1.60791e-07,4.0918837e-09,1.7266731e-09,1.5124108e-13,2.5278682e-10,2.5420486e-09,6.99085e-10,8.289348e-09,-2.9614812e-08,4.659206e-09,1.231737e-11,6.4664446e-10,1.8724445e-12,3.8212634e-15,4.8339197e-13,1.2699957e-13,6.8787474e-15,-8.335918e-11,1.6764522e-16,-8.7327024e-21,-9.686603e-16,-1.6933756e-27,-2.700593e-29,4.3555437e-21,2.98474e-34,7.773091e-20,-2.7540126e-26,-3.8442594e-32,-3.1179816e-28,6.92615e-26,-3.4795212e-14,-3.2212153e-11,7.611426e-13,-1.6295924e-10,1.6955717e-10,4.338953e-10,-9.038997e-11,-1.3328245e-14,8.821328e-12,1.3837613e-13,1.7789841e-17,9.0832e-16,1.490706e-12,6.2500346e-15,7.450273e-15,7.346569e-15,8.368665e-11,2.4036711e-15,4.854865e-16,1.9437959e-13,5.1673435e-18,4.025959e-16,4.9236145e-15,7.224708e-28,3.304126e-26,1.21313396e-20,-8.551283e-30,1.547075e-09,6.1654206e-12,2.1911482e-08,2.358982e-11,8.020209e-08,4.266024e-10,-8.115645e-12,-3.3758464e-08,-2.2139654e-14,3.562033e-10,1.08130636e-10,2.2854626e-11,6.5105876e-09,3.173568e-09,1.2127398e-09,1.5008968e-07,1.559773e-07,1.0522196e-09,1.2580099e-12,1.6832343e-09,7.89942e-13,5.345268e-09,1.8953367e-07,3.7562475e-10,-1.03999284e-07,5.893325e-12,5.2336592e-08,2.923137e-12,9.550933e-11,2.935045e-14,-1.2192117e-09,-2.145971e-09,1.2298634e-09,-1.584721e-11,1.0996715e-10,-1.6761206e-07,3.054683e-07,-4.121918e-08,-9.2832806e-08,-5.6243795e-07,1.1561137e-10,-2.2503566e-06,-3.5236897e-07,1.2949938e-07,-4.273251e-08,-2.9865165e-19,4.6370207e-18,9.556591e-18,-3.8473783e-20,1.7880963e-12,6.7231493e-16,-7.6963816e-19,1.0531826e-17,1.1274936e-17,-7.415307e-16,-1.8228687e-20,-4.2977605e-16,-2.7181717e-18,-3.2372154e-24,-3.3306368e-17,1.899817e-24,-4.6056192e-17,-6.628295e-20,-1.2990025e-26,-2.1465677e-25,-1.2908764e-29,9.081231e-24,1.0474999e-23,2.512909e-17,5.843814e-22,1.8156165e-23,3.4333913e-21,-1.7276504e-09,1.5474466e-08,3.278204e-09,2.9637753e-12,9.956661e-09,1.5937706e-13,-2.5236666e-10,6.8450356e-11,1.7808959e-09,6.0111833e-12,2.7874696e-06,8.7146745e-10,-1.3362321e-06,5.369404e-09,8.570819e-08,-9.471144e-09,1.2987068e-09,2.0796156e-06,5.1851986e-12,-1.7044398e-16,-3.954552e-15,2.0399822e-13,2.54449e-13,1.1736402e-11,1.9686049e-13,2.6489358e-12,8.004239e-14,1.0315451e-09,1.8472965e-10,6.3407097e-09,1.2531115e-12,5.6455147e-09,7.2002965e-10,2.9448452e-10,8.897537e-09,1.3196404e-11,5.1796027e-14,4.0348584e-12,1.0109608e-10,2.2979072e-16,-9.4335824e-11,7.858127e-13,1.39298e-17,6.3322665e-14,5.5823474e-11,-4.6976316e-09,-6.6765266e-10,-7.1221646e-09,-1.5314808e-11,4.7975287e-12,5.0459105e-13,1.9766164e-08,-2.522456e-07,-4.8618637e-10,1.8214715e-08,2.8500232e-11,1.6029054e-08,1.4499277e-09,1.6967688e-08,4.6196593e-09,2.6677822e-09,1.332024e-09,3.1001644e-08,4.1855976e-18,-8.561959e-26,1.430034e-20,1.5087778e-14,3.7446975e-15,8.002917e-17,1.8369958e-12,8.035837e-18,8.479851e-19,1.8483155e-27,-1.460375e-27,-1.4002231e-21,1.8560879e-30,-1.7365e-40,-2.3776528e-23,5.027106e-39,-1.4505658e-32,-1.5610534e-32
1.9941e-40,-3.056033e-39,-1.208392e-39,-6.674338e-39,-5.686073e-39,-4.390005e-39,-1.1222127e-33,2.202879e-39,-3.044886e-39,-1.30744e-39,-6.40886e-39,-1.004407e-39,-2.48818e-39,2.529869e-39,4.07498e-40,4.21024e-40,5.243866e-39,1.642692e-39,-5.03223e-40,2.107425e-39,1.449042e-39,3.415896e-39,-1.30043e-40,1.11558616e-32,-4.67868e-40,1.6027016e-34,6.98355e-39,-2.47883e-39,-1.56128e-39,2.47223e-40,-3.830263e-39,2.258774e-39,2.64332e-39,6.586483e-39,-2.446442e-39,-3.5742e-41,-2.37452e-39,-1.709716e-39,-3.34925e-39,-2.479322e-39,-2.901718e-39,-2.180636e-39,-2.580156e-39,-2.317198e-39,-1.911416e-39,1.40807e-40,2.62799e-39,1.566041e-39,1.982413e-39,3.95256e-40,8.78219e-40,-1.45958e-40,2.01355e-40,1.836892e-39,6.62476e-40,-2.461784e-39,6.174495e-39,1.50051e-39,-4.738045e-39,1.78506e-39,-1.956972e-39,2.464971e-39,2.30834e-40,-5.34189e-40,8.32143e-40,-1.666156e-39,5.465255e-39,2.383826e-39,6.638445e-39,-2.387176e-39,2.81272e-39,2.316855e-39,2.465676e-39,-6.314468e-39,4.36984e-40,1.762846e-39,1.69629e-39,3.072725e-39,-7.51635e-40,6.17659e-40,1.762629e-39,-2.346271e-39,-5.2943e-40,1.566804e-39,-6.542325e-39,2.288553e-39,2.310871e-39,2.070987e-39,1.27556e-39,2.153587e-39,1.157299e-39,-1.5215e-39,-2.151422e-39,3.029379e-39,4.232986e-39,-5.07731e-40,5.32763e-39,-4.94976e-40,4.124942e-39,-1.730615e-39,1.658742e-39,-3.022127e-39,4.521067e-39,5.510542e-39,1.983838e-39,2.65675e-40,2.118281e-39,1.311093e-39,-6.483699e-39,3.4744e-40,5.40377e-40,-4.150654e-39,1.541591e-39,1.302049e-39,3.921332e-39,-5.24269e-40,3.217535e-39,5.2713e-41,1.206004e-39,-2.761675e-39,1.534064e-39,1.679222e-39,6.2222e-41,-1.584339e-39,6.31868e-40,2.877299e-39,-4.829372e-39,5.206466e-39,1.931377e-39,6.7754e-41,-8.1005e-40,-6.27811e-40,-1.58436e-40,-1.179459e-39,1.513695e-39,-5.829061e-39,-2.895953e-39,-2.681459e-39,3.657721e-39,1.519398e-39,-3.591412e-39,2.276282e-39,-4.686142e-39,6.774952e-39,5.769908e-39,5.916893e-39,-2.022893e-39,3.565153e-39,1.231011e-39,3.385453e-39,6.228584e-39,2.937e-42,3.23571e-39,-6.088778e-39,-5.6478e-39,-6.52573e-40,3.605998e-39,2.759618e-39,-2.59445e-40,6.538261e-39,-2.65259e-39,3.8759e-40,5.303361e-39,3.916107e-39,7.22575e-40,-6.591638e-39,-8.40682e-40,9.431e-42,-3.803937e-39,-3.552848e-39,-1.974896e-39,4.148204e-39,-1.921917e-39,2.729881e-39,-1.11374e-39,-3.656883e-39,-1.400263e-39,5.059614e-39,4.00155e-40,7.26627e-40,2.721198e-39,1.205538e-39,-2.177567e-39,-1.081477e-39,2.739093e-39,-7.0582e-40,2.200682e-39,3.00362e-39,2.299703e-39,5.804405e-39,-9.40749e-40,-2.411374e-39,-2.31555e-39,-6.21575e-40,3.20953e-40,-3.251265e-39,-1.387747e-39,-1.660257e-39,-6.44481e-39,-5.464373e-39,-1.948932e-39,-1.281256e-39,1.781e-40,2.00583e-40,1.258461e-39,1.780191e-39,2.169612e-39,9.19549e-40,4.038737e-39,-5.587353e-39,-4.522682e-39,2.616258e-39,-3.861773e-39,-8.99219e-40,-3.541694e-39,3.07452e-39,-3.131847e-39,2.457097e-39,2.265908e-39,1.22123e-39,2.9762e-40,2.802129e-39,1.251432e-39,-1.569913e-39,5.857463e-39,-2.270867e-39,-2.552588e-39,-2.04477e-39,-2.104855e-39,8.35112e-40,8.51202e-40,2.591432e-39,2.596997e-39,-3.416161e-39,4.8232e-40,-2.40104e-39,-2.303342e-39,-2.7226e-39,3.524856e-39,2.205969e-39,5.934503e-39,2.264313e-39,1.738754e-39,1.436412e-39,-6.58732e-40,-6.376726e-39,3.370316e-39,5.461314e-39,7.1267e-40,2.654355e-39,-1.366616e-39,2.2077104e-34,1.074608e-39,6.087222e-39,2.953157e-39,1.397096e-39,1.2528445e-28,-6.352562e-39,-5.126436e-39,9.794598e-37,-7.03393e-40,-2.847043e-39,1.385312e-39,-1.842053e-39,1.283365e-39,-2.902116e-39,1.94493e-39,-4.540133e-39,1.83643e-40,7.90495e-40,-1.255743e-39,1.26769e-39,4.034099e-39,2.33038e-39,-2.0278977e-37,-1.393242e-39,-1.4268167e-37,1.8957652e-36,-4.4359e-40,-1.817228e-39,2.480015e-39,4.154275e-39,5.11757e-40,-1.9685275e-38,-4.117658e-31,-2.0640148e-38,1.3872067e-34,-3.66707e-40,1.59707e-40,-4.30071e-40,-3.124984e-39,-4.047785e-39,5.714117e-39,-1.174985e-39,3.381867e-39,-8.56343e-40,-2.73982e-39,1.804054e-39,4.15252e-39,2.73952e-39,4.046521e-39,1.638268e-39,-8.47594e-40,2.7662e-39,7.11607e-40,-6.14015e-40,-1.475696e-39,3.137293e-39,6.684156e-39,2.463194e-39,-2.631496e-39,-1.009124e-39,2.862083e-39,-4.67608e-40,-1.442963e-39,2.607791e-39,8.5141273e-32,-1.2525e-40,-9.71276e-40,1.99262e-39,2.597538e-39,1.937711e-39,7.8220554e-30,4.072312e-28,-5.09989e-40,1.29713e-39,2.059963e-39,2.908719e-39,-1.26727e-39,-3.978445e-39,-2.999066e-34,-2.580616e-39,-2.145953e-39,2.69693e-39,2.463222e-39,-1.906387e-39,-2.72237e-40,1.966479e-39,-2.042542e-39,-1.691597e-39,-7.1818e-40,-8.61161e-40,6.0669e-41,-2.104013e-39,-2.74803e-39,-1.975668e-39,-2.375453e-39,-5.74011e-39,1.691343e-39,6.69515e-40,2.969937e-39,-4.461953e-39,-2.226945e-39,-3.732182e-39,1.875372e-39,2.243e-41,-7.98369e-40,5.186112e-39,3.199459e-39,5.562152e-39,2.740095e-39,9.77418e-40,5.925434e-38,9.27801e-40,-2.857116e-39,-3.3348e-41,7.42824e-40,-1.071863e-39,3.808079e-39,1.253812e-39,8.65754e-40,-5.20093e-40,-3.330297e-39,4.4716115e-31,7.19274e-40,8.07176e-40,-1.44164e-40,-6.00487e-40,-2.27997e-39,-6.779772e-39,-1.736654e-39,-2.215894e-39,2.7827e-39,-2.607996e-39,1.24403e-40,-2.217919e-39,1.646289e-39,-1.724717e-39,6.752161e-39,5.7293e-40,4.435356e-39,3.745803e-39,7.48913e-40,-1.3962e-39,-2.781998e-39,1.692394e-39,2.68698e-39,1.91618e-40,-8.46484e-40,6.98811e-39,-1.721474e-39,4.846779e-39,-6.6061e-41,2.44805e-40,4.743758e-39,-3.146738e-39,-1.216626e-39,5.613523e-39,1.03678e-40,2.268758e-39,1.116206e-39,1.01608e-40,4.575737e-39,2.541064e-39,3.268363e-39,2.21716e-40,1.711858e-39,-1.546168e-39,2.290616e-39,-1.128841e-39,-2.560198e-39,-4.47236e-40,-1.843345e-39,6.684917e-39,7.23608e-40,3.05873e-40,2.68249e-40,9.64863e-40,3.321248e-39,2.874618e-39,1.652739e-39,1.680262e-39,4.781973e-39,-3.235063e-39,-2.871282e-39,-2.474239e-39,-9.76311e-40,-1.557182e-39,-3.35227e-39,-3.416053e-39,1.422238e-39,-4.105028e-39,-4.010327e-39,-3.348691e-39,1.771334e-39,2.0471138e-35,2.554354e-39,-1.256958e-39,1.658235e-39,4.219908e-39,-5.459616e-39,3.32341e-39,-1.226436e-39,2.837478e-39,2.110829e-39,2.608722e-39,4.718917e-39,2.039782e-39,6.204664e-39,-6.611262e-39,-1.5945298e-38,-5.43432e-40,5.14618e-40,3.808925e-39,1.614437e-39,-2.569852e-39,-2.1215973e-31,2.0168913e-37,1.917576e-39,2.019446e-39,2.924569e-39,2.447302e-39,2.733802e-39,1.429745e-39,-9.9435e-41,2.267164e-39,1.441397e-39,2.452777e-39,-4.736769e-39,2.170204e-39,-6.251551e-39,2.162656e-39,-2.041433e-39,6.752053e-39,1.453975e-39,-2.720157e-39,3.898544e-39,-4.76589e-40,3.425319e-39,2.484806e-39,1.785911e-39,2.565748e-39,6.92188e-40,-8.85357e-40,-1.36608e-40,-2.264253e-39,2.750097e-39,2.54208e-32,-8.20726e-40,1.534828e-39,2.06e-39,3.749753e-39,6.62857e-39,1.936212e-39,2.436736e-39,-9.46862e-40,1.383398e-39,-7.1708e-40,3.047812e-39,1.892256e-39,5.653987e-39,-3.3741524e-38,-1.3708574e-37,-4.911212e-39,2.295585e-39,1.81868e-39,-1.589912e-39,-2.277415e-39,-6.771043e-39,-4.23402e-40,-5.723403e-39,-2.707687e-39,6.77228e-40,3.123765e-39,5.839044e-39,2.525402e-39,-3.226051e-39,4.35797e-40,2.662064e-39,1.782309e-39,-9.51723e-40,4.50872e-40,3.864575e-39,1.574405e-39,1.582868e-39,1.003906e-39,-5.418605e-39,2.542695e-39,1.735755e-39,4.753933e-39,-2.506577e-39,-1.83081e-39,9.06988e-40,1.70619e-39,-5.18381e-39,3.124325e-39,1.133052e-39,1.341906e-39,4.746816e-39,-1.138107e-39,-3.417518e-39,-2.621127e-39,-2.968037e-39,5.61873e-40,-1.580051e-39,-2.123851e-39,-5.88531e-39,-2.226937e-39,5.63227e-40,-3.385959e-39,3.185683e-39,2.896979e-39,1.820424e-39,2.7279e-39,2.56719e-40,5.92227e-40,2.230039e-39,-1.837467e-39,7.3016e-41,-2.911709e-39,2.948356e-39,3.7309e-39,-3.00531e-40,-5.276802e-39,1.34756e-40,3.253355e-39
9.920495e-06,-1.0775148e-06,-1.7658705e-05,4.927493e-06,1.663893e-05,-6.6202947e-06,4.730594e-05,2.0341378e-05,2.0484604e-05,-3.4390932e-09,-2.5581906e-10,-1.1466443e-09,-6.138751e-11,-7.0934834e-12,-1.0570302e-10,1.3073403e-10,1.3932234e-11,3.6462335e-12,1.5624418e-06,-1.1836392e-07,-6.2792294e-10,3.5189137e-07,-2.7137656e-08,-4.1901192e-08,3.9248854e-07,1.1359028e-06,9.9505264e-08,-6.0970714e-22,-3.4030545e-18,-1.0152695e-16,2.4909297e-18,2.5480922e-17,-1.8071295e-18,-4.48142e-15,-4.8493394e-17,1.8487745e-18,0.00010447334,2.0685955e-05,-1.6180476e-05,4.1608278e-06,-2.641616e-07,-1.1722638e-05,-2.7970671e-05,-2.2214386e-05,-5.4289547e-05,6.372028e-17,4.046536e-18,-5.262075e-18,-3.9139395e-13,-5.970799e-12,-7.2108486e-10,-3.54819e-11,-3.4429773e-10,-1.7673555e-08,2.877164e-12,-2.610527e-13,-1.4546669e-11,-2.492229e-14,9.038766e-14,-9.0689847e-13,1.4431392e-14,1.4277995e-15,1.0673946e-13,1.5595832e-07,-2.7187341e-09,-2.6567233e-09,1.350022e-07,-1.7117308e-10,-2.9032332e-09,1.5267748e-09,-3.12832e-11,-6.456625e-08,4.0671803e-05,6.1657456e-06,-1.3177073e-05,1.5264655e-05,7.911491e-07,-1.4078738e-05,-3.8241506e-06,3.886445e-06,-8.6957834e-07,8.02796e-09,3.2256549e-09,2.3541167e-09,-1.2170719e-07,1.6282218e-08,1.3969438e-07,-1.6418857e-05,-1.24592325e-05,-8.950904e-06,9.460549e-11,3.8745976e-10,-1.2407034e-09,3.1224367e-08,7.3170726e-11,-8.2853654e-11,3.930854e-08,9.789115e-09,7.3888815e-09,9.837781e-08,-1.540479e-08,-3.032962e-08,1.5251456e-07,-2.6376663e-09,3.622756e-09,1.4889227e-07,8.892664e-09,8.0605056e-10,1.8853403e-09,1.9148787e-10,5.2438755e-11,8.087162e-09,1.0170619e-09,-6.6576694e-10,4.1060684e-09,1.21475185e-08,3.0375805e-10,1.12057466e-08,1.230974e-10,6.6426517e-12,7.725568e-12,5.1374165e-11,4.4754472e-10,2.4220654e-09,1.9678907e-10,-1.1239166e-10,-1.910025e-18,-1.3220092e-20,-2.7854863e-19,3.0743423e-14,1.0072791e-15,-1.415655e-17,-1.6401116e-15,6.0911325e-16,1.612255e-16,-4.6077753e-07,-1.3580928e-06,-7.60053e-06,-1.2230652e-07,-5.655617e-07,-4.7580656e-06,-1.0691139e-07,-2.7339036e-07,-2.9566132e-07,-4.7674953e-10,-7.272679e-12,-2.1895615e-13,8.320083e-13,-2.884948e-15,-1.02550204e-13,2.0536845e-15,5.234592e-15,-1.0180767e-15,2.3292628e-06,4.121989e-06,-1.3926268e-05,3.846947e-06,5.246334e-06,-6.1830274e-06,1.8165719e-06,9.818361e-06,-3.4428679e-06,-1.4653831e-06,-4.1825447e-06,-1.143269e-05,-6.1083556e-06,-1.7679207e-05,-2.0971955e-05,4.576635e-06,-4.974666e-06,-1.3251163e-05,6.256412e-08,5.383693e-09,-1.5262911e-08,1.6042925e-08,2.2974596e-08,-1.6886488e-09,2.2883912e-08,1.863398e-09,1.9770884e-08,-2.4111964e-09,-1.14519265e-08,-9.629755e-08,4.000887e-09,-2.1623576e-09,-2.0887367e-08,2.4964467e-10,1.5751914e-10,2.065708e-11,-4.8722804e-09,-2.7283564e-08,-1.702579e-07,5.5345583e-07,2.1845974e-08,-3.6254335e-07,4.775752e-07,3.693032e-07,-1.032989e-07,-9.840032e-10,4.6481123e-08,3.217945e-09,-6.8830692e-09,1.2195797e-09,6.1900953e-12,7.6567674e-10,-2.210877e-11,5.048478e-11,-5.873963e-08,-2.439897e-08,-5.918709e-09,-1.272242e-07,-3.294798e-08,1.5716186e-08,-8.946979e-08,1.6931866e-08,1.0329899e-08,9.412202e-10,1.3967303e-09,-3.949444e-11,5.085243e-10,1.0957792e-10,5.755179e-10,1.6048012e-11,3.4498351e-10,4.1184556e-10,5.8811165e-09,-1.4343925e-07,-4.4142098e-08,1.5734486e-08,-1.6560043e-09,-7.058773e-10,1.765878e-08,2.204382e-09,1.0919441e-09,6.637322e-09,1.5964893e-07,-3.4751707e-08,6.1114474e-07,4.2721044e-08,-9.747374e-10,6.2188474e-07,-2.2543121e-08,-8.867348e-10,2.1760154e-06,9.094213e-06,1.4998429e-05,5.8165176e-07,2.7422334e-06,5.6451304e-06,-2.37409e-06,4.5173797e-06,2.5070153e-06,1.4949505e-06,4.554987e-06,-8.800651e-06,-8.488372e-07,-1.1514056e-06,-4.443781e-07,9.330312e-06,1.9652025e-06,-5.467438e-08,-3.3092534e-10,-1.0820268e-09,-5.8837785e-10,-6.430209e-10,1.1376531e-11,-1.10484235e-11,-2.4322885e-10,9.970818e-13,1.2799022e-13,4.481581e-06,1.7697445e-07,-2.8026443e-07,1.7564471e-06,2.984476e-09,9.607903e-07,1.9650647e-06,1.1086313e-06,5.3665417e-07,2.204209e-06,-9.992916e-08,-1.5799762e-07,7.914156e-08,2.047887e-09,-1.02451505e-08,1.6846661e-08,1.5743991e-07,7.398793e-09,5.132123e-08,3.221285e-07,3.238013e-09,4.5488586e-09,-1.4955237e-09,2.7320082e-09,-1.9303257e-09,7.27014e-11,1.9212809e-10,3.0782167e-07,1.0754198e-06,2.4691938e-06,1.0656665e-06,-1.8982572e-08,-1.3968199e-08,1.2853374e-06,1.2815356e-07,6.4169967e-09,-3.8879767e-07,-8.869947e-08,-2.6532018e-07,-6.608827e-08,-1.8237106e-08,-4.2581925e-09,9.3563705e-07,-1.8092706e-08,-5.4650037e-08,-1.5394604e-05,-4.0792706e-06,-2.829145e-05,2.5309038e-05,-4.794318e-06,-1.884313e-05,3.7922306e-05,-1.4320669e-06,-3.135354e-06,4.9896994e-06,5.999262e-07,3.8578726e-08,4.515974e-07,-1.2704383e-07,2.176846e-06,4.216377e-07,1.5136608e-07,3.4969048e-07,2.9045606e-11,-3.0176985e-12,-6.860842e-12,6.9919623e-13,-1.4999478e-14,-5.1251785e-12,5.0115504e-14,1.1059277e-14,-4.3064876e-14,2.9607185e-07,2.5083193e-09,-4.3909527e-08,6.999525e-08,5.3631593e-09,3.1606895e-08,9.629974e-09,1.7837493e-08,1.9592562e-08,2.9313021e-08,-2.9553275e-09,-6.1684613e-10,6.7295495e-08,-9.368638e-10,-5.1065365e-09,2.5903162e-08,5.774033e-09,-3.749134e-09,-1.2688275e-07,-3.099158e-07,-6.7997696e-08,-2.4619163e-07,-9.158384e-08,-2.0380332e-07,6.510103e-08,-1.0063816e-06,-1.0337134e-07,9.950505e-08,5.0740823e-08,-4.209662e-07,1.5404836e-06,1.3697522e-06,2.105901e-06,6.2190115e-06,2.3299576e-06,-6.231626e-07,-2.0227045e-10,-1.25439e-08,-1.6570402e-08,-2.483044e-09,-2.4290404e-08,-2.6936934e-08,6.792295e-10,-1.8660158e-10,-6.849906e-11,6.449601e-18,-1.4540591e-20,-8.5159857e-19,-6.4865995e-16,-5.733002e-16,-1.437218e-16,2.149278e-14,2.0421388e-15,-3.0820636e-16,-2.3431644e-08,1.4122884e-09,-1.1406337e-09,-2.4011396e-07,-3.3617106e-08,-5.4591145e-09,-1.4576403e-08,-4.0319565e-09,-2.0995594e-09,1.4443371e-07,4.2400604e-08,4.030452e-08,9.013367e-08,1.4956797e-07,4.986102e-08,-2.3569595e-09,5.911881e-09,3.9200696e-09,1.4438721e-12,-2.1209295e-14,7.298247e-13,5.861311e-16,-9.7043745e-14,-6.8146294e-11,-5.0704815e-14,-9.285487e-13,-7.465343e-11,1.0280539e-06,-8.181553e-07,3.020977e-06,2.8244378e-06,2.382022e-06,9.102252e-07,4.8158627e-06,4.839646e-07,-7.125707e-07,-2.1042437e-05,-3.5575267e-05,-2.088481e-05,-3.3207127e-06,-1.5473337e-05,-2.5861247e-05,-1.1604841e-05,-2.5792726e-05,-3.677761e-05,-2.6131959e-08,-1.28564865e-08,-5.958911e-07,-5.8253454e-07,-2.358264e-06,-5.9683634e-07,3.540753e-07,-1.8331765e-07,-7.90978e-08,5.044673e-09,-8.19241e-09,-5.322822e-08,1.1976478e-07,2.9838056e-09,-3.244584e-08,5.5805245e-08,-1.850366e-09,-9.379404e-09,6.872266e-05,1.39310005e-05,-5.8730093e-06,4.6917485e-05,8.5683e-06,-3.7138267e-07,9.5840915e-06,1.5022625e-05,2.0090943e-06,-2.3281934e-11,-9.051728e-10,3.2090777e-10,-3.0072604e-11,-1.9299465e-10,-1.5133503e-09,-4.825442e-11,-2.558015e-10,-1.0857559e-09,9.461811e-13,-9.118485e-15,-5.264394e-15,6.397705e-11,7.478255e-14,8.178265e-16,5.7249416e-16,2.2710686e-14,8.687908e-14,9.589717e-16,5.0970856e-15,-5.667589e-16,3.3651462e-16,4.2848115e-17,-2.9579552e-20,-5.5817993e-15,8.645328e-19,-1.6253654e-17,7.1154393e-09,-3.1903156e-07,-4.6458194e-06,-2.414363e-07,-6.104839e-08,-1.2776741e-06,-1.4931768e-08,-3.4311606e-07,-4.991621e-08,-1.5499342e-06,1.3223775e-05,6.081303e-06,4.1361877e-06,2.588908e-07,1.4308267e-07,2.3335915e-06,1.5062383e-06,2.879001e-07,7.587272e-07,3.349384e-08,-4.5372633e-10,3.1896488e-07,7.28985e-08,3.4851686e-07,-1.6557228e-08,7.704847e-08,3.8324927e-08,5.092879e-07,-2.2137215e-07,-9.723271e-07,1.7708784e-06,-9.429768e-08,-1.0029785e-06,1.4375329e-05,3.3988698e-07,-7.218064e-07,3.3284746e-07,2.3195612e-06,1.310489e-06,2.3049624e-09,7.583619e-07,5.499511e-08,2.6503175e-09,2.7134398e-08,1.1964468e-06,9.3497555e-08,-4.2197885e-07,-7.3427293e-07,9.196159e-09,-1.908085e-07,-5.390535e-07,-1.148664e-06,-1.2968505e-06,-1.90656e-06,8.71237e-05,3.1265672e-06,-1.50827045e-05,2.1031354e-05,3.4623833e-06,-1.8217766e-05,5.462781e-06,6.056592e-06,-5.2210286e-05,-6.48396e-10,-5.836541e-12,-4.580315e-15,-7.195953e-09,-6.5850947e-10,-1.0005283e-13,-7.679375e-12,-1.2079246e-10,-3.473543e-11,-2.1638236e-18,-1.9444895e-17,4.391728e-18,2.0418818e-22,-4.2632444e-21,-3.6382465e-21,9.890938e-27,-8.935926e-21,4.12559e-21
2.2728208e-14,1.8474571e-14,3.116163e-15,5.0273705e-15,1.0916558e-13,9.067241e-14,6.969512e-14,5.0587854e-13,1.8328476e-13,-8.846092e-27,-2.7373818e-28,-1.1600946e-22,2.2186843e-35,-1.7832324e-26,-1.7687184e-23,5.653175e-29,-4.072279e-24,-3.1442341e-24,-4.298353e-17,-2.852793e-18,2.5786428e-20,-3.5636688e-17,-6.9954615e-18,-2.1127291e-17,2.695094e-20,-4.310522e-16,-1.5290736e-17,-2.882882e-39,3.8646e-39,-9.18244e-40,2.160456e-39,4.414079e-39,-4.216409e-39,2.48346e-39,9.3318e-40,-2.559846e-39,1.8456463e-09,1.5271351e-10,1.6293808e-11,1.1051894e-10,1.02724764e-11,2.9966203e-11,1.019568e-12,8.5154654e-13,3.8895966e-11,-9.46352e-40,6.594487e-39,3.365396e-39,-4.9079537e-38,2.34081e-40,-4.382628e-39,2.0999204e-35,1.55893e-40,-4.597712e-38,-1.292371e-39,-6.433144e-36,2.261954e-32,6.264171e-39,-9.550567e-30,8.536099e-35,4.603449e-39,1.8292005e-35,1.213096e-39,7.871586e-20,2.0808677e-27,6.887887e-30,3.5643813e-22,1.024429e-30,2.673737e-29,6.755728e-29,1.7389021e-29,4.0376678e-24,-1.0668326e-15,-9.72329e-15,-4.6542936e-15,-1.3095665e-14,-1.5202095e-13,-3.5900265e-14,9.283819e-17,-7.514673e-15,3.5643684e-15,-8.3550907e-35,-1.5126865e-36,-3.83508e-33,3.2976675e-38,1.673425e-39,1.4884063e-35,4.683836e-39,5.251573e-39,4.7616314e-35,5.0453877e-25,2.0808358e-27,2.7964937e-34,1.7278263e-27,-2.3767473e-31,2.192153e-28,1.596038e-37,-1.042528e-33,3.48324e-24,4.524335e-19,-1.31552155e-20,-6.4273472e-21,1.1337363e-21,-4.848265e-23,-1.3021209e-18,-1.0158546e-25,-9.0630205e-21,-2.2832083e-22,-5.0692675e-23,4.7319136e-28,5.197966e-26,-5.8671275e-28,5.209567e-26,-1.6247911e-19,-1.2487644e-24,-2.4479402e-19,-8.642832e-19,-4.902832e-21,2.0759146e-21,-1.4980227e-21,-1.2444554e-19,-5.66052e-17,-2.8295592e-17,-7.5407253e-19,-3.453687e-15,-5.7010504e-18,-8.00967e-40,2.223897e-39,3.064368e-39,2.310189e-39,-3.26694e-39,2.183418e-39,-4.77073e-40,-5.95597e-40,-2.521077e-39,2.4185644e-16,3.8164703e-18,3.0415383e-20,4.037708e-20,4.46271e-22,-2.145352e-21,1.062486e-19,8.216968e-19,-1.6824697e-19,-1.9566111e-26,1.9786608e-35,6.7588956e-35,-1.4551974e-31,-3.550771e-39,2.9345458e-32,4.914128e-39,1.7164391e-31,-7.5086585e-26,1.9431906e-21,7.285262e-20,3.504854e-19,7.75902e-19,5.3923925e-19,2.5020572e-18,4.9021887e-19,9.938112e-17,3.9744874e-16,1.4988972e-11,7.2901467e-13,-4.2467047e-13,9.390513e-12,6.7823004e-13,-2.8260388e-13,1.0617306e-13,-1.569035e-13,-3.3996102e-13,-6.973277e-25,-3.005715e-22,-2.5148987e-21,2.1974108e-27,-1.8941117e-21,-2.7376714e-21,9.545065e-30,4.4574896e-25,-9.7163035e-24,1.1935313e-22,1.9466287e-25,-2.1235248e-26,1.573483e-22,-3.6023526e-25,-5.684704e-25,2.9349172e-28,1.1040069e-26,-2.1509637e-22,-1.4327463e-22,-3.624323e-22,-5.4204195e-22,1.8925283e-20,-4.982351e-18,-3.67231e-18,1.0001788e-18,5.126164e-20,4.0159928e-16,-1.846892e-22,-2.5849787e-20,-2.7886852e-24,-2.683595e-18,-7.271495e-21,-1.6006583e-25,-6.0245633e-22,-2.4304103e-21,-3.914316e-20,-7.411561e-27,-1.9385818e-21,-4.301916e-24,-1.6417887e-25,-7.338839e-21,-4.8341204e-23,-2.6367083e-27,-7.2944706e-25,-2.4714575e-26,-3.4396102e-37,-9.1876175e-29,3.550761e-35,-4.477351e-33,4.2376107e-29,2.5252612e-35,-7.5601894e-28,4.807937e-27,3.4333534e-33,1.0970472e-23,1.7270505e-25,9.125948e-24,3.9758156e-28,1.4554633e-24,6.380674e-26,7.95912e-29,-5.7717904e-23,-1.3331876e-25,-2.315223e-19,-1.7409274e-19,8.412291e-20,-1.5526762e-17,-5.408458e-20,1.9085766e-19,-4.141153e-17,-9.322204e-18,-6.8722106e-17,-8.0110574e-14,2.773625e-13,1.3051447e-13,-9.8631566e-14,-6.084777e-13,1.9097803e-14,-3.1504942e-15,-2.1718841e-13,-5.166276e-14,-2.0292433e-16,-3.577486e-15,-8.6491434e-17,5.5685576e-16,-2.42893e-13,2.45995e-17,-3.6082884e-15,-3.276024e-15,1.1220249e-15,-1.0953458e-34,-1.2380239e-37,-5.2062565e-37,-3.0701344e-35,9.832432e-38,-1.8169683e-37,6.607163e-39,-6.8184224e-37,-2.2344923e-33,-2.5553303e-16,-1.0909562e-17,7.036957e-16,3.8986518e-17,4.5566706e-17,-1.0143686e-12,-6.7029943e-22,8.7189396e-17,-2.2109881e-13,-4.9123194e-16,-6.26687e-18,-3.493623e-21,-2.5333292e-16,-5.975672e-18,-2.8069715e-15,1.832651e-20,-4.2787491e-19,-2.2098259e-17,1.1938054e-27,-4.1945344e-27,6.291923e-26,1.2037695e-21,-6.840757e-27,-3.913167e-25,1.0936299e-25,1.013158e-23,1.3342551e-21,9.419021e-19,-3.038015e-19,-1.6213667e-19,-4.310606e-20,-2.2784924e-20,-1.0344377e-17,-1.0297963e-24,3.1584127e-20,-1.26414506e-17,-2.2215442e-21,7.4167425e-22,1.1115192e-21,-1.8024749e-20,-6.2742733e-18,-3.6137045e-19,-1.36881e-21,-4.876616e-19,-3.767985e-17,-1.9808427e-15,2.6121734e-15,-2.0051421e-15,-2.1093801e-15,-2.4707695e-15,-9.472315e-15,5.1497282e-15,-3.9390966e-14,-7.651529e-12,-1.6592371e-15,-1.3679797e-15,4.781347e-17,6.9887603e-16,-1.4685102e-14,-3.5231881e-13,-2.2437888e-17,-2.873683e-14,2.3278421e-12,1.7246213e-38,-5.586481e-39,-2.780847e-37,4.087621e-35,-1.3729274e-33,6.209535e-33,1.9293564e-26,2.328953e-31,2.0826142e-35,1.925601e-22,6.8278317e-25,-1.0964303e-22,3.466102e-24,6.7238034e-21,-6.546869e-20,7.248139e-25,8.984724e-20,1.5723982e-19,-2.0753978e-21,9.625759e-25,9.993906e-22,-1.32833e-20,-1.955987e-24,1.0940191e-19,-4.134824e-22,-6.0460645e-18,-5.4620347e-17,-1.3351975e-19,2.3096241e-17,-2.8444607e-17,1.2241294e-16,-4.661531e-15,1.0761886e-18,3.1513094e-15,-1.2875113e-14,6.2944543e-16,-6.347211e-21,-2.6494016e-18,-4.914324e-17,-6.5287727e-19,1.4516541e-15,-4.2757935e-15,-9.2871326e-17,-3.0615183e-16,1.9860032e-16,-1.8900958e-26,-6.889211e-27,6.3588017e-27,1.518106e-22,1.476965e-20,3.0184696e-20,7.096761e-24,1.7238704e-21,6.689362e-23,-2.131598e-39,-2.3179e-40,4.351155e-39,-2.288767e-39,-1.708808e-39,1.854833e-39,2.110245e-39,-1.777732e-39,3.453305e-39,-2.0732837e-25,-1.4259672e-23,3.9766647e-29,4.5985646e-23,-1.774598e-21,-1.3288668e-25,4.7419797e-21,-1.3081537e-27,-2.3297067e-27,-4.808455e-28,-2.165443e-25,1.3647465e-26,-2.889089e-23,-1.8632516e-22,9.57575e-27,-7.1975896e-23,-3.2805857e-22,-1.1441946e-23,4.365724e-39,1.784185e-39,1.554564e-39,-3.15183e-39,4.53042e-39,-1.9319027e-37,2.315754e-39,3.120372e-39,2.345897e-39,-9.9728e-16,-1.04740394e-13,-3.457097e-13,-1.3895886e-15,-1.3577049e-13,-1.0819484e-14,-2.8913012e-22,-2.242582e-16,-1.1497084e-16,-2.4488813e-14,7.768877e-14,1.971738e-12,-1.7229358e-14,3.0518075e-14,1.4290264e-12,7.0202e-14,2.414963e-12,7.154171e-11,-8.1435815e-24,5.163197e-19,5.1800478e-18,7.442161e-18,-1.539975e-14,2.755365e-20,-6.011882e-16,-7.3843346e-17,1.6305769e-20,-1.9049726e-28,2.236093e-25,4.9149947e-23,-1.4936956e-24,-9.8214465e-26,2.592469e-24,1.6699051e-24,2.1778916e-30,-5.566912e-25,7.0960503e-12,1.1107405e-12,3.0348198e-12,7.301836e-13,5.2702986e-13,1.1208374e-11,8.534477e-14,3.8341764e-13,1.3024588e-10,-3.6203087e-28,-1.7831106e-23,-1.8675233e-23,-1.349409e-25,-6.996093e-23,-4.315235e-24,-2.2447465e-28,-8.277786e-24,-1.2086381e-24,5.155002e-39,2.720135e-39,4.5583e-39,-6.506006e-39,-1.456109e-39,1.750841e-39,-3.326879e-39,2.641131e-39,6.807479e-39,-3.067496e-39,4.251615e-39,5.804323e-39,-2.981323e-39,3.947493e-38,3.835738e-39,6.13182e-39,-1.604845e-39,-4.8456374e-35,-5.14582e-24,3.8646547e-20,2.4978993e-19,5.7702436e-23,6.106999e-19,1.8108426e-20,1.9367141e-23,2.5691737e-17,1.3924911e-18,-5.9840127e-14,-4.640548e-13,-5.9806472e-15,-9.744238e-15,-4.462217e-13,-1.8115746e-14,-3.7177395e-19,-4.87426e-15,-1.5133104e-13,-3.714703e-30,-2.4610904e-27,5.6933065e-28,1.14417354e-29,-4.912203e-24,-2.5044938e-20,-5.189463e-29,-4.6978466e-25,1.844137e-25,-2.2299174e-22,2.9549202e-23,7.2868045e-21,-1.02648916e-23,-7.5225744e-20,-7.5630506e-17,9.011372e-20,-1.4817255e-15,-2.6742718e-17,-4.5398014e-19,-6.2976192e-18,-7.878246e-18,-5.8677604e-21,-5.4000884e-20,-8.8309343e-20,1.8794616e-23,1.0101453e-24,-1.7715677e-22,1.2323412e-14,7.3985215e-16,7.1072353e-16,3.9338806e-15,8.6865463e-16,8.3761473e-17,-1.2576273e-15,-5.0097872e-14,-5.2443445e-14,2.8957622e-10,1.4287104e-12,1.722212e-14,6.6676505e-11,1.1451021e-13,3.9172394e-15,1.2926058e-12,4.581616e-15,9.409974e-13,-6.1622515e-38,5.68999e-39,2.499572e-39,8.7142794e-38,1.1726242e-37,4.683937e-39,4.946341e-32,8.519603e-32,-1.366686e-29,-6.351887e-39,4.001185e-39,2.932902e-39,-3.283265e-39,-1.267145e-39,3.264249e-39,1.235948e-39,-1.635936e-39,-1.972154e-39
-0.018271813,0.046612177,0.015746068,-0.003948213,0.057866592,0.039029807,0.0020767786,0.057436507,0.030911345,-0.028641555,-0.05642118,-0.047641072,0.01455034,-0.019812915,-0.031002756,0.035194688,0.034693755,0.015512091,-0.006609671,0.0021089795,-0.033084616,-0.021593848,0.022283413,-0.009928583,-0.011006872,0.0028547596,-0.040777538,-0.02964925,-0.030936902,0.00019361622,-0.020172086,-0.0064557292,0.015658237,-0.021510437,0.009520879,0.020944271,-0.06033258,-0.016540013,0.01196765,-0.04464462,-0.012216097,0.028236028,-0.042248756,0.0058073266,0.036899917,-0.037874706,-0.04987554,-0.0104390085,-0.01915628,-0.038470607,-0.013771788,-0.01783882,-0.025223136,-0.018720997,-0.012481649,-0.005104082,0.0051636305,0.002071104,-0.0022686557,0.0041205306,0.024101157,0.01904108,0.0274909,0.017945124,0.023820274,-0.00821202,0.022054734,0.002874977,-0.008419784,0.00095180975,0.0069685266,-0.01968404,-0.07390198,-0.017244892,-0.0048299558,-0.06708614,-0.023639161,-0.000904661,-0.06769055,0.015802218,0.043188993,-0.04798806,-0.027347075,0.010786156,-0.042685293,-0.024278844,0.018823536,-0.04018897,-0.044450562,0.0021359434,0.056470804,0.030860242,-0.01763075,0.041741382,-0.00806296,-0.02964814,0.04836693,0.007864877,-0.031020565,0.00051272823,-0.022659158,-0.027323218,0.016329246,-0.021993505,-0.022250451,0.009553378,-0.04046129,-0.005986052,-0.06537373,-0.043365993,-0.03558333,-0.05964756,-0.009104136,0.0009372466,-0.053862095,-0.00699014,0.016944434,-0.020578578,-0.035497207,-0.012286439,-0.016999604,-0.011633517,-0.003235031,0.015926568,-0.024737509,-0.030654695,-0.00815587,-0.0062587843,-0.004060954,-0.0074961586,-0.00028185765,-0.002122442,-0.0031044695,0.0019361692,-0.0015822335,0.01422367,-0.02171778,-0.046569265,0.015918307,-0.016429268,-0.057284884,0.034635957,-0.026230168,-0.042058043,0.0048910417,-0.01342904,-0.004866453,0.0091802925,-0.006974928,-0.002089832,0.011357829,-0.013371303,-0.019963577,-0.058173865,0.0023257416,0.014119577,-0.05360497,-0.022424338,-0.0012491529,-0.05216855,-0.026372282,-0.017906204,0.03669018,-0.006798888,-0.023672264,0.017820356,-0.028861182,-0.03760408,0.020532813,-0.02963916,-0.02961623,0.015380747,-0.019138813,-0.041719887,-0.0062598055,-0.0054258113,-0.004800134,0.010586343,-0.009201737,-0.015401357,-0.011952498,-0.059228938,-0.06771379,0.007307544,-0.030280232,-0.0471088,0.014524438,-0.0056907176,-0.040281378,-0.011444902,-0.016795745,-0.038307354,-0.023615578,-0.033820856,-0.052676123,-0.0010811419,-0.005584318,-0.023364939,-0.020748878,-0.011900462,0.014851269,0.042882163,-0.013436481,0.013734294,-0.008874942,-0.006140185,-0.014466507,-0.038297277,-0.04370775,-0.019209158,-0.0558926,-0.07040877,-0.055551425,-0.055395227,-0.059061844,-0.048818216,0.036215134,0.018066684,-0.0016715745,0.017931374,0.030516876,0.0111121135,-0.004099133,0.032675438,0.01609637,0.025056629,0.048869617,0.0029512027,0.048192296,0.025726128,0.015684783,0.02045337,0.026341638,0.0184765,-0.025275342,-0.041758895,-0.009986958,-0.03405219,-0.03294391,-0.035581023,-0.05305635,-0.020929482,-0.026046153,-0.051447958,-0.0067022513,0.0065388754,-0.075942785,-0.006626803,0.0056050983,-0.06801528,-0.025318319,0.01197494,-0.044015367,-0.05830788,-0.061026953,-0.047472816,-0.062399067,-0.0456897,-0.009621518,-0.048007585,-0.02311068,-0.024673056,-0.005908611,-0.020857215,-0.017066028,0.005970947,-0.008194877,-0.0008290623,0.0041659507,0.009118553,0.007810693,-0.03162699,-0.051928032,-0.00421536,0.019312222,-0.010376106,0.015426095,0.047408693,-0.028258437,-0.020910863,0.016004777,-0.012004593,-0.022284037,0.013026216,0.006662831,-0.031527527,0.012682395,-0.024663463,-0.051844377,-0.022510633,0.0035561905,-0.049338106,-0.029698512,-0.019339245,-0.08377611,-0.052350547,-0.03699113,-0.013324014,-0.05374284,-0.013261412,0.010336462,-0.03459118,-0.034377974,0.018594334,-0.034315024,-0.026223632,-0.058854673,-0.055149212,-0.057677515,-0.04051637,-0.018594703,-0.021825932,-0.007187659,-0.0354888,0.0013671247,-0.0053264154,-0.045765594,-0.04769762,0.038216263,-0.047411792,-0.051738646,0.012975949,-0.0069363895,-0.031135015,0.043075565,-0.02793674,-0.05158385,-0.0036684573,-0.009458033,-0.031109545,0.020952249,-0.0305457,-0.024774082,-0.022656571,-0.011403658,-0.004043043,-0.02092128,-0.00045342324,-0.0008411171,-0.028597409,0.0031974139,0.01975116,-0.04092873,-0.004227363,-0.0012367249,-0.03635646,0.02346191,0.011073435,-0.025476012,0.009372471,0.022049518,-0.05729561,-0.040703807,-0.02055217,-0.047720347,-0.014502432,-0.010425396,-0.01978957,-0.032885358,-0.044854823,-0.048023194,-0.04853314,-0.034098964,-0.04264671,0.004042554,-0.024747541,-0.00699363,-0.02063146,0.024858823,-0.0018173587,-0.0479328,-0.07753789,-0.012747726,-0.04641903,-0.067402445,0.017627755,-0.020520965,-0.02705826,-0.010447629,-0.025434135,-0.04064312,-0.004734572,0.006182621,-0.03214781,0.011806607,0.010332724,0.009546917,0.008749474,-0.0061718686,-0.0090749785,0.00079262635,-0.0066006174,-0.0071393587,-0.00044818444,-0.0037871888,0.0049020024,0.007256695,-0.041627027,-0.045407858,0.012660337,-0.006780576,-0.0018966047,0.014180769,-0.002307106,0.015368033,-0.040496804,0.0018883244,0.016807048,-0.06356877,0.010005013,0.012393425,-0.06416443,-0.023218708,-0.0017584749,-0.04117649,-0.015453858,-0.0017202668,-0.021298032,-0.007791854,0.016519269,-0.044348855,-0.0037526414,0.007567943,-0.015050234,-0.05721059,-0.07925069,-0.0044279317,0.02594211,-0.028135471,-0.0054892264,0.0060795736,0.006074397,-0.057465933,-0.043380696,-0.0032236725,-0.101528846,-0.093098156,-0.014668936,-0.09062163,-0.07083488,-0.0354957,-0.023858296,-0.050034612,-0.041260872,-0.00896991,-0.017123127,-0.038864084,0.025108203,-0.017022323,-0.0023581523,-0.029288832,-0.034982957,-0.022194061,0.007813881,-0.033880647,-0.017594606,-0.028791444,-0.0031452356,-0.004757638,-0.01626889,-0.026143864,-0.04081257,0.0039889645,0.024163498,0.021710392,0.020551935,0.037494123,0.014611111,-0.009675843,-0.0047787176,-0.006405194,0.005857945,-0.0021529768,-0.0049815504,-0.00560569,0.00061191537,0.0074599134,0.049610406,0.037799656,0.025541842,0.05189659,0.03771166,0.013483841,0.042603154,0.040871542,0.003597455,0.009559059,-0.0011651525,-0.009375055,0.003629378,-0.008088008,-0.01371743,-0.003992908,-0.005044994,-0.012727715,0.0036084652,-0.0064389245,0.00934667,0.0073100165,0.054372232,0.00096166367,0.062421966,0.013376059,0.039059557,-0.051059537,-0.039499734,-0.018113803,0.049234994,-0.0501618,-0.011844896,0.031198552,0.03711343,-0.0136909885,0.044058144,-0.0076259226,-0.05068823,0.03980915,0.008914297,-0.0482635,0.05538818,0.043129776,-0.004203799,-0.041058403,-0.038335875,-0.05175331,-0.030808372,-0.032674335,-0.06056755,0.04826892,-0.011215489,-0.03883154,-0.0025592644,0.021283876,-0.017098008,0.028945927,0.043742042,0.0063693887,0.022755193,0.040111937,0.03036018,-0.049267605,0.005175859,-0.0118105,-0.05528504,0.0012626376,0.026098536,-0.06745467,-0.036934964,-0.026110379,0.11227414,0.03319031,0.009509285,0.05157205,0.004807049,-0.0288173,0.010833583,-0.0121898195,-0.011359625,0.0041308342,0.023661988,0.018661398,0.009646576,0.007888975,0.0109912325,-0.0049749077,0.00765203,-0.0057680225,-0.007923555,-0.0022176618,0.0018662135,-0.011672645,-0.00066444505,0.0017814967,-0.00946338,0.002080299,-0.00025053928
0.00035292454,0.00076262053,0.0010884907,-0.0002542586,-0.0003464662,0.00071112736,0.0014861554,0.001835953,0.0002813436,0.0003225204,0.0003420472,-0.0005834661,0.00070824975,8.233079e-05,0.0004599826,0.00034803062,8.843464e-05,0.00021392426,0.00034138258,-0.0019334689,-8.585555e-05,0.00022335359,-0.0012133738,-0.00017326037,7.6284894e-05,-0.00012416943,0.00023499045,9.2584174e-05,-0.00015847138,-0.00023786403,-0.0001904198,-0.0003442521,-0.00028359288,-0.0004062992,-0.0005260076,-0.0004060579,-0.00044324738,0.00030030968,0.0013808456,-0.002297929,-0.000505438,0.00088603835,-0.0024036202,-0.000869011,0.00012955564,-0.0006780839,-0.0006935826,-0.0003526424,-0.00053767423,-0.0005268502,-0.00026840068,-0.00032822785,-0.00026884745,-0.00038622125,-0.0005621059,0.0006599315,5.447003e-05,-3.95248e-05,0.00034210732,0.00048020878,-0.00015867729,0.00029872445,0.0003324458,0.00095724605,0.0007517265,0.0004705779,0.00032800785,0.0006645277,-0.00021423849,0.0007778529,0.00030153964,-3.88343e-05,0.003112863,0.0034066264,-5.7914833e-05,0.0042889053,0.0015196201,0.0021350735,0.0017439589,0.00019237904,0.0016395509,-0.00047992976,-0.00033011427,-0.0003868951,-0.0017548841,-0.002689116,-0.0017361306,-0.0013885756,-0.0019382163,-0.0015019831,0.00010533766,8.204881e-05,-4.34486e-05,0.0010130052,0.00090308225,-0.00032651622,0.0019503724,0.0008742726,-0.00015660677,0.0002581404,0.0005274443,1.6567166e-05,-0.000359216,6.1824594e-06,-0.00043075904,0.00020008728,0.00022921545,0.00028663434,0.0005150888,0.0006175694,-0.00055213505,0.00039984152,-0.00035802918,0.0002442697,0.00026689094,-0.0001967243,-3.5836805e-05,-3.2913184e-05,0.00027072904,0.00033431695,0.00038665943,0.00031107984,0.00032813495,-0.00024795815,0.00023444863,0.00074113946,6.894596e-05,0.00016473424,-5.553009e-05,0.00020856036,9.8778444e-05,0.00013490033,3.1810945e-05,5.174422e-05,-2.6686148e-05,0.0006058631,0.0007192068,5.1913183e-05,0.00022885668,-0.00020461265,0.00022647032,0.00019978906,4.867703e-05,0.00032420602,-0.0001577737,-0.00017857639,-0.000275341,-0.0002304425,-0.00027791839,-0.00028608216,-0.0001093832,-0.00022746716,-0.00022485146,-0.0026474379,-0.0028568332,-0.001606856,-0.0035727166,-0.003444335,-0.0010663244,-0.003695414,-0.0021385627,0.00018339852,0.00088752736,-0.00044221026,0.0006396445,0.00037429918,0.00015403194,0.00053838786,-9.95427e-05,0.00022624483,0.00016477362,-6.461289e-05,0.00031719508,0.0005521596,-0.00019587693,-0.0003919787,0.000120364915,2.366629e-06,0.0002060378,0.0003031083,2.7607117e-05,-2.0002594e-06,-0.00012341667,6.060154e-05,0.0002046802,-9.1677364e-05,-1.215725e-05,-1.4096138e-05,0.00012189994,0.0007900249,-0.00034128118,-0.00063391356,6.581599e-05,0.00015266387,0.00023810311,-1.0449905e-05,-0.0003838107,0.00014465777,-0.0008070527,0.00023004347,0.00010092729,-0.0006840296,-0.00025203245,-8.343791e-05,-5.0909188e-05,0.00015959739,0.00032668578,0.00020339323,5.268981e-05,-0.0001205906,0.00013762934,0.00015783084,-0.00024550056,2.1661686e-05,-3.171548e-05,-0.00032404612,0.00048887247,0.00020285897,0.0010877738,0.0006818162,-0.00012579326,0.00019822898,0.00064457406,0.0006038522,0.00024561925,0.00024675328,0.00084535335,0.0008242262,-0.00022764802,-0.00026213526,0.00018641,0.00066286215,0.00078502257,0.0003486885,0.001092749,0.00020283773,0.0006811005,-4.540195e-05,0.00043333875,0.00027721183,0.0003092088,-9.339795e-05,0.00014456062,0.0025955567,0.0006869453,-0.002154424,0.001129158,-0.0001817491,-0.0013608714,0.0005729143,9.612205e-05,2.3726036e-05,0.0013479838,0.0005854599,0.00082302507,0.0011288846,0.0013983404,0.00096582825,0.0012386634,0.0012955463,0.00042528092,0.00030825374,-0.00018952464,0.00020652056,6.5269865e-05,-0.00016895696,0.00033399565,0.00016612091,0.00022949588,0.00015157396,0.0016227223,0.00049526064,0.0007910434,0.0062948395,-0.0003070826,0.0011442598,0.004701717,0.0040044286,0.00044820367,9.68923e-05,-0.0016027722,-0.00039173692,-0.00033497182,-0.0009109679,5.7884157e-05,2.430693e-05,-0.0004791426,-7.159465e-05,0.0013318367,0.0007766062,0.0009104192,0.00064640114,-0.00015871119,0.0006581718,0.00093045016,0.00046246048,-0.00014918344,-0.00011333314,0.00093962206,0.00063145,-0.00014756594,0.0005129303,0.00021905983,0.00084644393,0.00055673614,0.0012151912,0.00039626664,0.0009593537,0.0011992329,0.0002223039,6.134231e-05,0.0010760734,-0.00028018752,0.0010180208,0.00094286905,0.0047955355,0.002674918,0.0018362115,0.002454704,0.003990503,0.0011148305,0.0030455391,-0.0005004718,0.00035108114,5.7066238e-05,0.00021593818,0.001615726,0.00025454632,0.000725168,0.0005540377,0.0013585212,0.0011704761,0.0010825414,-0.0003563392,0.0005014833,0.00019093863,0.00017573214,0.00031515514,0.0004988946,-0.000120986886,0.00034347974,0.00019605987,0.00065001793,0.00057252834,8.753221e-05,7.38114e-05,4.9748876e-05,-0.00035352126,7.657615e-05,1.8862447e-05,0.00037041944,0.00028074675,0.0003749961,0.0006951808,0.00020116435,-7.150447e-05,-6.865526e-05,2.6635075e-06,0.00016140446,0.0006757049,-0.0017762706,-1.1053388e-05,0.000800121,-0.0005350315,0.0003706804,0.0009357929,0.0002664356,0.00034531602,0.0009604037,0.0029750303,0.004790839,0.0008785465,0.0052707354,0.0027387447,0.0017259505,0.0026515564,0.003716013,0.0036542271,-0.000493184,-5.6281715e-05,-7.644015e-05,0.00036967106,0.00070180325,0.00049107545,-0.00035742504,0.0001654023,-9.559553e-05,-7.973905e-05,-0.00018347829,9.2848306e-05,0.00015568998,-0.00010942582,6.71275e-05,-6.1314655e-05,2.4598416e-05,-9.530264e-06,0.00025978187,-0.00029165816,0.00012441639,9.9689256e-05,0.00014505196,-0.00015174734,0.000225988,0.000569431,5.557102e-05,0.00085622387,0.00044625424,-0.00041518593,0.0007668731,6.447582e-05,-0.00067229796,0.00030805072,0.00020272941,0.00011944571,3.5063054e-05,-9.162745e-05,-0.00019958724,-0.00037589384,-0.00012939988,-0.00026607706,-0.00034818813,-0.000509254,-9.6205695e-05,0.0027346278,0.0021593908,0.00021384232,0.001958769,0.0011178544,-0.0010746989,1.758141e-06,0.0003915118,0.000852274,0.0011470987,0.0009953526,0.000998935,0.0018743378,0.00027773815,0.0006664875,0.00095768325,0.0013721529,0.0009198809,0.00012788062,0.0008593058,0.00024118269,0.000194972,0.0006085351,0.0018394496,1.2138594e-05,0.00031210657,0.000861617,-0.00047918526,0.0015027572,0.0010042536,-0.0012769428,0.00039182,3.4441797e-05,0.0007676402,0.00079060893,0.0004722989,0.00045767557,-0.00097047864,0.00083836634,0.0022705004,-0.0007783097,4.4800618e-05,0.002584756,0.0015868889,0.001982673,-0.00015087744,0.00011926813,0.00015226689,-0.00045889433,-5.926722e-05,0.00019843328,-0.00036099597,-0.00014808837,8.33448e-05,-0.00014459029,-0.00040274224,-0.0003273412,7.987783e-06,-5.2674925e-05,-0.00015927567,-2.9949046e-05,-7.64556e-05,5.4233437e-06,2.3067383e-05,-0.00030631624,-0.00026634912,-0.000121367724,-0.00019728676,-0.0004276383,8.1128255e-06,-0.00023990373,-0.000323688,0.0008299047,-0.00027806617,0.00046080333,0.00041245474,0.00057300285,0.0007563309,-0.00019386914,0.00014345271,0.00046996135,0.00354487,0.00088760065,0.000834511,0.00046508634,-0.00019015367,0.0014257899,0.00013313463,-0.00014281562,0.00070487714,0.0009142564,0.0006391564,0.0013552032,0.00059862353,0.0006384781,0.0005620131,0.00046750047,0.00010076738,0.0005832866,0.0028830385,0.0019452285,0.0005265099,0.0023953815,0.003608433,0.0004678982,0.003229436,0.0042384826,0.0028873147,0.0011985331,8.230397e-05,1.576092e-05,0.00039919617,-0.00021667902,0.00054995687,-0.00032568458,0.00023015638,0.00027049406,0.0009071735,0.0006920035,0.00038085107,-8.576323e-05,5.912139e-05,0.00025979368,0.0007675034,0.00016058459,0.0001909799,0.002300699,0.0016431274,0.0022204951,0.0010468655,0.0020227802,0.0026586216,0.0027366502,0.0018623207,0.0018536046,-0.0004874631,-0.000780488,-0.00025975524,-0.00031046988,-0.00026779398,-0.00030104694,-0.00029109514,-0.0004669109,-0.0006629832,0.0003623469,0.00025110695,7.5335316e-05,0.00017835891,0.00016852048,-0.00015463604,6.6047796e-05,-2.956941e-05,-2.3788836e-05
-1.3056276e-12,-7.876067e-11,-1.6045648e-12,-5.672701e-13,-1.1945878e-11,-2.5897448e-12,-1.0686911e-10,-1.8311875e-12,-7.603169e-14,-2.739187e-32,2.8520195e-24,-4.962745e-18,-8.6165336e-20,1.5852102e-23,-1.7768508e-18,-3.235274e-26,-1.5161538e-22,-8.883796e-17,-4.7581408e-21,1.4570106e-18,-5.60682e-19,4.0304986e-23,-1.973955e-17,-1.1619687e-20,-7.5801903e-26,-6.1052033e-22,-2.0322965e-18,-2.183854e-39,-1.467571e-39,-7.831666e-36,4.9351e-41,-3.67366e-40,1.6743566e-34,-8.92142e-40,1.826797e-39,3.435712e-39,-2.836274e-09,-1.606215e-10,-5.2935717e-10,-2.9641678e-10,-1.1457076e-09,-6.2983188e-09,-1.4976251e-10,-8.54483e-11,-6.6197208e-09,-3.6357118e-20,-8.757612e-25,8.768226e-24,-7.17879e-18,6.359905e-30,-9.2822486e-24,5.5056904e-19,-2.1043385e-26,4.151188e-28,-7.734574e-37,1.4922521e-34,1.755257e-26,5.7294363e-37,-4.381595e-31,-4.6848316e-31,1.4726646e-34,-3.9368507e-31,4.016323e-30,-1.7761306e-15,1.4657483e-30,-4.5653925e-25,-8.261297e-18,3.0278152e-30,-7.181149e-20,-6.769337e-23,-9.2666664e-23,-4.9991696e-23,-9.21243e-12,1.11641224e-10,1.5310521e-10,-8.863121e-12,-4.0619043e-11,-3.0522186e-12,-3.4689421e-12,-5.2389945e-13,-1.2434874e-12,-5.5997394e-29,-2.747105e-27,-1.8684052e-20,2.6176886e-34,3.8120427e-32,-1.0024627e-20,-6.200373e-23,-1.5383117e-25,-1.4706671e-22,-8.919647e-18,-6.586305e-18,-1.9075366e-18,-1.9137452e-20,-3.2979562e-20,-4.5858284e-17,-6.0770245e-20,-2.5133487e-21,-1.195353e-20,1.1620174e-17,1.2195637e-20,-8.462375e-15,6.876981e-21,9.732966e-21,-5.6998405e-20,-2.2277874e-19,1.0580426e-21,-3.050493e-20,-1.09510815e-23,7.207695e-22,5.6755165e-17,4.333409e-21,-8.656132e-21,5.837208e-15,3.3284048e-22,5.4144403e-20,3.239572e-22,2.8740722e-29,1.1873649e-21,7.654809e-18,-1.0162215e-27,4.7787214e-24,1.9210792e-23,-1.007963e-20,1.28271576e-23,-7.947569e-17,-7.0898815e-30,7.423596e-27,-1.01502064e-32,-5.9977747e-30,-3.669233e-31,3.356927e-29,-4.3728884e-31,-1.7715565e-32,-5.809468e-31,-1.0866005e-14,-8.567645e-18,-1.5099658e-14,-7.4911313e-16,-2.7958508e-15,-8.010999e-16,-3.2881863e-15,-4.2835786e-15,-1.2739214e-15,-7.5432107e-25,7.481131e-28,1.4762091e-21,3.7875098e-28,-9.6892926e-23,2.2540304e-24,1.127254e-25,3.0704346e-27,2.1686462e-23,-8.5013084e-13,-4.4207994e-13,-6.5973046e-13,-4.9702153e-13,-1.8159766e-14,-6.7002014e-14,-8.424995e-14,-1.8271307e-14,-2.222329e-14,-4.4874775e-09,-2.0481283e-09,-5.993462e-09,-7.44739e-10,-9.228137e-09,-2.9114444e-09,-1.0386875e-09,-1.2612624e-08,-1.0309353e-09,1.9008364e-15,6.063444e-17,-1.2158154e-18,9.3621675e-21,4.7869537e-19,4.278931e-28,3.7971494e-17,1.1468667e-16,-3.194502e-22,6.519043e-16,2.4855986e-21,5.3246565e-21,3.5933687e-15,1.3482559e-18,2.4349516e-17,-1.2676348e-16,6.8606466e-17,1.8105618e-20,-5.2361967e-20,-5.3414354e-17,-1.6660222e-15,-1.5597339e-17,-1.3073291e-15,-5.353081e-15,-2.1783451e-16,-6.1802404e-15,-9.388551e-15,2.7555903e-16,-7.8745655e-15,-2.902654e-15,1.490022e-17,4.9157354e-18,-1.6969213e-16,1.8433454e-16,-7.1859306e-18,-1.7403632e-13,-8.2452026e-24,-1.0246115e-25,-4.9625166e-18,-4.6442847e-21,-1.01989515e-19,-2.2788776e-18,-2.967916e-21,-1.4386137e-17,-1.4954995e-18,1.6356021e-31,1.7270849e-28,8.465331e-37,2.5788063e-25,-7.230662e-35,-3.0480051e-30,-3.1700826e-32,3.018268e-33,-3.5696457e-36,1.0530292e-22,-4.4931174e-19,-6.430807e-20,1.4307429e-21,5.2891017e-20,3.2718152e-21,-3.2338923e-19,-3.689199e-30,1.079539e-27,-1.8837525e-20,2.9295853e-19,-3.9426468e-19,-2.4918571e-17,-3.498116e-21,-1.3936146e-16,2.5250621e-21,-5.99025e-22,-7.1170356e-19,-1.6442483e-14,1.4960162e-11,4.977502e-09,7.670355e-15,1.9499397e-11,1.9225795e-13,1.9746019e-17,-4.6772245e-14,-2.668031e-12,-1.9371412e-13,-4.7443234e-15,6.6818135e-15,-2.3805155e-14,-2.4299056e-14,5.5268523e-13,-9.6379705e-14,-5.0325658e-15,6.201517e-12,-5.0012228e-26,-7.810503e-28,-3.8343655e-18,-1.163967e-22,-1.289512e-21,-5.877882e-19,-5.4487347e-22,-7.897433e-19,-3.4439522e-18,-1.1514535e-09,-6.6872072e-18,-1.3617671e-14,-7.102135e-16,-2.2007697e-16,-1.178889e-17,1.1231322e-22,-4.3967847e-16,-6.80613e-21,-1.6262489e-13,-7.141697e-16,-1.6208371e-11,-2.8912138e-14,-4.938864e-13,-8.232152e-12,-2.4761157e-15,-1.5913345e-13,-1.07430766e-10,3.3823564e-18,6.124603e-20,3.4639734e-23,5.1946827e-18,4.5772517e-22,3.6964146e-18,1.3548929e-15,9.66362e-16,4.630939e-16,1.2097006e-13,2.767181e-20,-2.8020267e-15,3.0346273e-14,1.1815881e-18,-1.3261565e-20,-5.4685596e-16,-1.8199267e-16,-4.2328045e-23,1.3904697e-15,-8.138602e-20,-3.683673e-21,2.6691718e-25,-2.8879654e-20,-2.6113666e-24,-3.2571047e-17,-1.5370577e-17,-8.816946e-16,-5.789249e-10,-1.8404193e-10,-4.511929e-10,-1.2013763e-08,-1.9337549e-11,-9.083808e-11,-1.1397014e-11,-9.538864e-13,-3.5487e-11,-1.835485e-12,1.1321332e-17,-8.648508e-14,6.2226514e-18,1.2071993e-18,-3.0010938e-18,-5.4000782e-18,1.840709e-15,-9.728876e-13,-1.6872398e-35,-3.5385783e-26,-2.7204377e-20,-1.6518441e-27,-2.6187526e-26,-1.1733455e-25,2.206882e-28,-6.262266e-28,-4.1759557e-20,-1.5653979e-13,-7.7200023e-16,-4.83414e-15,-2.2239728e-14,-4.074176e-15,-2.4325697e-13,-1.8603057e-17,-7.228489e-15,-1.775685e-14,-2.2423257e-20,-1.2036793e-24,-7.5979584e-19,6.2413386e-30,1.5284261e-29,6.1787107e-29,-2.5349635e-27,-1.9142095e-27,2.400304e-26,-2.4701283e-16,-1.3935785e-15,-3.779315e-17,-1.2367383e-14,-3.5976765e-17,8.57662e-18,-1.7212755e-12,-2.6286892e-20,3.395805e-13,-3.0974006e-14,-1.4500759e-14,-6.3450276e-14,-5.231431e-15,-9.345794e-16,-4.301137e-13,-4.4936768e-14,-8.0005155e-14,-1.6944721e-14,-4.0724414e-17,2.5755747e-18,-1.569548e-17,1.834833e-14,-2.527539e-16,-5.063951e-15,-2.5696702e-17,-1.7696903e-18,-1.4979714e-19,-3.815089e-38,1.7876101e-38,-3.708983e-39,-3.182863e-39,-1.092656e-35,-2.050785e-39,-4.9630175e-35,-1.1223961e-32,-8.108617e-34,7.9522e-21,3.514614e-20,1.772938e-19,1.1471705e-15,2.804074e-17,2.1506042e-18,-1.3549277e-20,4.520477e-21,-4.9964476e-21,-1.052762e-19,9.609238e-22,-8.458112e-18,-1.1849725e-27,-2.8203783e-19,-3.5954966e-20,8.2215625e-30,-2.2102754e-24,1.2379917e-32,-1.5940543e-33,-3.3115412e-28,-9.447681e-25,-9.386495e-25,-1.1105328e-26,-4.0730865e-27,-1.9046103e-33,-1.3915061e-26,-4.6131314e-25,-1.1513572e-15,-2.0355769e-14,-4.4289718e-13,-2.0729813e-19,3.2275672e-14,-2.22138e-14,2.9034474e-18,5.9308705e-13,-5.118062e-16,-2.712274e-11,-1.2390023e-09,-2.3253804e-10,-1.3208107e-10,-6.236506e-11,-1.4887586e-10,-3.1236805e-11,-1.8334368e-12,-1.8200477e-10,-4.29442e-22,-2.3006804e-15,-1.0959513e-14,-3.1608258e-20,3.3346907e-22,3.341843e-27,-3.8256235e-15,-4.8076396e-21,2.3815133e-16,-4.3317934e-19,-3.2324437e-23,-1.0266339e-21,-1.4277427e-19,1.03652756e-26,-1.7887857e-18,-2.787858e-22,-1.2795238e-19,-1.5294392e-18,-5.182969e-10,6.8016816e-12,-1.5645266e-12,-5.098858e-11,-8.728209e-12,-1.5533899e-11,-1.2925093e-12,-3.7904957e-12,-1.2576772e-13,2.2609245e-20,-6.992008e-17,-1.8537534e-16,2.6486533e-19,-1.1279582e-18,-4.9162102e-18,1.2484761e-16,-2.7391782e-20,-1.9657577e-18,2.2940154e-33,-1.8559332e-35,-4.013158e-32,-1.3991613e-31,-2.76854e-32,4.303877e-30,1.2789189e-36,1.1028651e-27,-7.84864e-24,-1.1201272e-30,-5.353571e-29,1.6622514e-32,-5.2364365e-26,1.4293264e-31,2.5050298e-30,1.6914066e-30,-6.165903e-35,4.091804e-37,-2.777217e-17,-2.1415144e-15,1.581444e-18,-3.1056204e-19,-9.411621e-17,-5.1637866e-18,2.9780312e-17,1.837115e-19,2.9680156e-16,-1.911617e-14,-6.1990647e-19,-2.621081e-19,-4.3924416e-11,-5.923503e-17,-9.883354e-20,-4.0422196e-21,-1.6136817e-18,-4.123025e-17,-5.583652e-18,6.577505e-27,-6.8256355e-24,-7.204878e-23,-3.4677676e-28,-1.0343678e-31,-1.806938e-20,2.5931152e-25,-2.8079433e-27,-3.4175424e-16,-3.04795e-18,-9.9827624e-17,-4.2499656e-19,-1.8941261e-17,-7.0776134e-17,-1.3538714e-14,-2.8498777e-15,-4.7585418e-17,-1.02652135e-16,-1.834655e-13,1.066497e-15,-3.9313155e-17,-7.59574e-14,1.7356413e-16,6.583263e-19,-2.8136664e-16,2.3427124e-18,1.3238306e-16,-6.3963257e-15,-1.09495854e-13,5.686056e-17,-2.7027464e-15,1.7900544e-13,2.4163887e-19,-8.8642686e-17,1.0795643e-20,-6.050848e-07,-4.96272e-11,-4.256704e-12,-6.807271e-08,-1.152082e-09,-1.6801264e-11,-8.914913e-11,-8.385987e-12,-8.7170826e-10,-1.1791921e-27,-7.1250293e-28,-1.2339904e-26,1.7830887e-27,3.6019046e-27,2.9918153e-23,-3.565366e-20,-1.2701858e-20,9.427599e-21,3.24737e-40,-2.618737e-39,3.530143e-39,-1.696681e-39,-1.060323e-39,-1.696042e-39,-2.854344e-39,2.051299e-39,4.702706e-39
