0.00011433266,9.023613e-05,0.00081957685,-0.00040541726,-0.00017499393,-0.0015230306,-0.001725618,-0.0013275053,-0.00028889408,-0.005211564,0.02487157,-0.008545435,0.020327264,0.011158251,-0.03478069,0.01366454,0.0001274244,-0.04679463,0.039480448,0.0038759417,0.0035250846,0.017330421,0.004229553,0.03026911,-0.0037620137,-0.007857151,0.027695075,-0.006605106,-0.009340508,-0.023720652,-0.00219899,-0.0059007998,-0.0054002423,0.005225738,0.003966063,-0.005090979,-0.0060404628,-0.02330382,-0.029555034,-0.0044323197,-0.014540556,-0.041596856,-0.0116346,0.005209373,0.007496885,-0.04135183,-0.053009164,-0.067451015,-0.041539267,-0.03229654,-0.04234758,-0.024273347,-0.0043093925,-0.020590387,-0.000279492,-0.0011287706,0.00057005393,0.00081558956,0.0003435611,0.000294512,0.0025981462,0.00010101381,0.0017091744,1.5050973e-05,-1.1534169e-05,8.23406e-05,2.818886e-06,-3.630917e-05,0.00022661498,-1.1494806e-05,-2.0941507e-05,3.4657154e-05,1.3507226e-09,-6.490848e-09,4.305388e-08,-4.8310367e-10,1.0541705e-07,-2.1074447e-09,-2.0671593e-09,-4.6375412e-08,9.927228e-08,0.0070466846,-0.006429867,0.004022938,0.0110656,0.003983015,0.010139003,0.000647722,-0.0019347533,-0.00034872128,-0.00223773,-0.0049138186,-0.0023334953,-0.002315564,-0.006091334,-0.0017030166,-0.0015301289,-0.0064812168,-0.0013154476,-0.00020893173,0.00012958082,0.00084742066,0.0012803595,0.00048807406,-0.00030611086,-0.00091741886,-0.00022140883,-0.0009373874,-0.06780588,-0.015748082,-0.044786748,0.034956887,-0.05445276,-0.056992956,0.031638995,0.007674047,-0.0014666632,-0.0011341223,-0.0047413465,-0.009533176,-0.004691193,-0.011520453,-0.0037344925,-0.008492149,-0.002823831,0.0032363036,-0.039815,-0.028862258,-0.024711937,0.013532359,-0.049200706,-0.023538103,-0.00037601579,-0.019210098,-0.011796485,-0.06266961,-0.049550653,-0.04532406,-0.0012084272,-0.008662366,-0.018432029,0.08074388,-0.0038917332,-0.032613393,-0.03228674,-0.015010277,-0.043230496,0.008811596,-0.027659941,-0.03883893,0.03525719,-0.0322361,0.0125717055,0.01202794,0.0043994025,0.015629409,0.00892888,0.009712786,0.013658492,0.0058632516,0.008579824,0.0052979123,-0.0055998173,-0.015395132,-0.019675037,-0.03026363,-0.02745769,-0.046282057,-0.0022180616,-0.0044688783,-0.018515015,-0.022203133,-0.06330268,-0.021119615,-0.057764072,-0.018225195,-0.039156906,-0.023079876,0.13380092,0.011097906,-0.07290097,-0.006410636,-0.08103378,-0.021831525,-0.039086506,-0.029312002,0.11483732,0.02763945,0.006017921,1.122042e-21,5.63038e-40,9.728535e-28,-3.307742e-25,2.0878296e-28,5.137463e-32,-1.6386813e-31,5.922567e-28,2.0752706e-30,-0.0027825804,-0.0009771658,-0.015191932,0.0030490868,-0.0017914226,0.001104183,0.0012492028,-0.0072020506,0.0003185129,0.026806088,-0.028688654,-0.016069517,-0.000109653105,-0.025903108,-0.019776992,-0.008468654,0.013513773,-0.014001484,-0.035773963,-0.034911484,-0.061364837,-0.066525996,-0.063519925,-0.05274139,0.0029897196,-0.04456907,-0.047182847,-0.02708873,-0.01449629,-0.06025593,0.020222321,0.0084992815,0.0065423166,0.030842708,0.0054810657,0.027704794,0.0076670316,0.01366194,0.0034647603,0.0014647245,0.011673511,0.011884637,0.0014052931,0.0057869125,0.008145362,-0.021035185,-0.021630334,-0.008649296,0.0035928101,-0.023860397,-0.0054544667,0.0029063907,-0.013002248,0.026617846,4.082456e-05,4.515793e-06,-3.0072475e-05,-4.2767124e-06,2.313092e-06,2.3301309e-06,5.12948e-07,0.0035375308,-2.1743532e-05,-0.00024183915,5.34541e-05,-2.9760373e-05,6.8408176e-06,0.00012383128,-1.3681606e-05,-3.3497337e-05,-0.00071143353,-2.122648e-05,-0.0007515472,0.005001503,-0.0041233404,0.005354501,0.0032265685,0.011585605,0.000701274,0.0059277997,0.0013845194,0.017792346,-0.06165358,-0.09933912,0.07469664,-0.019275421,-0.018951224,0.047394637,0.044439532,0.055436708,0.0026799361,0.0013279092,-0.0075250044,-0.004173643,0.0010830441,-0.0021835838,-0.008296678,0.0069086812,0.0020160552,-0.006429664,0.012180563,0.0015858096,-0.030930968,0.003227618,-0.013799548,0.022890056,0.037267268,-0.015083314,-0.00420226,-0.02716783,-0.020378996,-0.0070659197,-0.007981556,-0.019965863,0.0086305,0.018173363,0.0057707066,0.0016288416,0.0008701883,0.0006186636,-0.0014646446,-0.0006838801,0.00014935725,0.00043840625,0.000522404,0.00086790073,4.930957e-05,0.0004642225,0.00019690055,0.0027891358,-0.0005618398,-0.001626696,0.00025011052,9.0539725e-05,-0.0005087625,0.019714639,-0.014481533,-0.023497505,0.0041643004,-0.01989656,-0.0025239417,-0.0025202695,-0.021438463,-0.006223361,-0.00010219836,-0.0011921313,0.00023847344,0.011250915,-0.0015878917,0.002727732,-0.0032222713,-0.00077988266,-0.0056536924,-0.023230122,-0.014842838,-0.033164065,-0.016942812,-0.017747734,-0.014385151,0.011468629,-0.00091117877,-0.012013728,8.7827825e-09,-2.0349304e-08,1.0429919e-08,9.084587e-09,-8.962683e-09,1.6837408e-10,2.7138796e-08,-9.383463e-10,-6.4477047e-07,-0.026163353,-0.053184144,-0.06110904,0.009660261,-0.033202764,-0.09199312,-0.02762571,-0.03635936,-0.08056441,-0.013264063,-0.016958553,-0.02851099,-0.0037715903,-0.022237642,-0.009877913,0.010013392,-0.007921569,-0.005112922,-0.052746322,-0.050056655,-0.07081395,-0.03943311,-0.08402229,-0.060047533,-0.059743293,-0.03998757,-0.03107191,-0.003733311,-0.005969539,-0.002967668,-0.0040074503,-0.0051487084,-0.0064671575,-0.0032384587,-0.004316979,0.0020272236,0.022213705,0.05433093,-0.038495306,-0.0056813518,-0.018685969,-0.083426766,-0.022155792,0.007003636,-0.047426138,-0.033205785,0.010512338,-0.0023522857,-0.07381679,-0.011207492,-0.05621348,0.011814426,-0.045961097,-0.052999485,0.014022894,-0.016117673,-0.007936887,0.0041266247,-0.018358527,-0.036586396,0.03880355,0.018524587,0.0073172157,-0.05237242,-0.036708985,-0.03870608,-0.0031366684,-0.009731506,-0.02752951,0.1429391,0.02485439,-0.011424251,-9.37498e-06,5.0970357e-06,-0.0009847004,0.0035944735,0.0005662202,-0.0026795943,-0.00011722054,-0.0010773693,-0.00024043105,-0.028883211,-0.030877631,-0.035442654,-0.021895286,-0.025760822,-0.011898637,-0.002713384,-0.016298238,-0.05380023,0.01119819,-0.059293717,-0.085682385,-0.020362193,-0.017602904,-0.06887577,0.01381457,-0.0379191,-0.04982106,-0.04747474,-0.030606931,0.015686318,-0.07042271,0.09292351,-0.056358617,0.0060547623,0.07264643,-0.07387056,-0.03068118,0.014743677,0.014958647,-0.0014475476,0.09461936,0.06776698,0.0035204722,-0.028199814,-0.02107606,-0.00852442,-0.052077778,-0.032674182,0.0057758614,-0.0014355939,0.0045818943,0.02134614,0.10809899,0.042836457,1.1322042e-15,2.7795952e-26,1.7763236e-12,4.8028366e-19,2.3614842e-18,6.218345e-13,2.8605004e-21,3.432906e-15,1.7546569e-21,0.0005315125,0.0002956198,0.000523247,0.00054252555,0.00020173981,0.0008684655,0.0010264638,0.00038081297,0.00046846888,-2.1425765e-05,-1.3613349e-05,-1.7995968e-05,-9.262549e-06,-5.6664197e-05,-6.2819313e-06,-4.1489813e-05,-0.00011675623,-4.070537e-05,-1.046996e-10,-2.8376804e-10,-7.590888e-09,-2.0764066e-11,4.6208112e-10,-1.7720425e-10,-5.946702e-10,-7.458063e-10,-8.713629e-11,0.0043221675,-0.0022193415,-0.011153747,0.0146674765,0.0105928155,-0.017821621,0.00057476235,0.005848893,0.003773299,-1.1682305e-06,-2.9662302e-05,-6.482763e-06,-1.0946948e-06,1.4940935e-07,-1.8547378e-06,6.093253e-07,9.903215e-09,1.7742802e-06,-1.6438253e-34,-4.309354e-39,-9.499121e-31,-5.247959e-31,5.9670192e-30,-2.5636352e-26,3.7864318e-24,2.7200602e-26,-1.0930929e-34,0.0033895888,-0.010256949,-0.0060573365,0.008535615,-0.0024168417,0.005709711,-0.0036882071,0.0044642948,0.012569593,-0.06449023,-0.039457887,0.0030095933,0.006245779,-0.028268449,-0.049232755,-0.01913662,-0.0374062,0.008209542
0.00035804263,0.0017687232,-0.0030487983,0.00025707515,-0.00094913744,-0.0016001991,0.00036687386,0.000226055,-0.0027904084,0.039498642,0.011975446,-0.0034826424,0.027398555,-0.027877748,0.01066469,0.04271836,-0.02748879,-0.010387098,0.0004867179,0.008020794,0.032170232,0.0051231384,-0.0033995248,-0.018192435,0.0056360634,-0.004003364,0.030594897,-0.003604788,-0.00468833,0.0013591384,0.005151799,0.0054001547,0.011545028,0.0019174314,0.003751746,-0.0011317659,-0.00429536,0.0022063218,-0.015306783,0.008069839,0.00079670193,-0.014360067,0.00782872,-0.0064248866,0.012538763,0.028167106,0.0106278565,-0.0048731347,0.01235266,0.029577414,-0.0052080955,0.0043028477,0.007181041,0.015984775,0.001577373,0.00031717608,-0.00022508444,-0.000348691,0.00043707335,0.00090640265,-0.00028320364,0.0007825905,-0.008339094,-1.47767305e-05,-0.000120157274,-0.00014203333,1.1241555e-05,-5.239233e-05,-8.557596e-05,1.605001e-05,-2.7085762e-05,4.2617587e-05,-8.388356e-08,-1.2036567e-07,1.8793243e-07,8.5229823e-10,-9.8576e-07,-7.341928e-08,-5.396762e-09,-3.8628022e-07,1.9134477e-07,0.021232136,0.0044708396,0.0005915407,0.014653241,-0.0026916056,0.0052838395,-0.0094840005,0.0069744736,-0.009612024,-0.0011818456,-0.0005334092,-0.00075603666,0.0015002927,-0.00026058208,6.104282e-05,0.0006676691,0.0022067155,0.00015897251,0.0019689684,-1.704495e-05,0.0005053019,0.00074119424,-0.00046814862,0.0005859614,0.00021127066,-0.00044313972,0.00043555105,0.006490295,-0.037952654,-0.083016895,-0.046603393,0.035608675,-0.034187578,0.04185383,0.04014292,0.021447288,-0.003280556,0.0044467547,0.0015092577,0.022109162,-0.003595827,-0.0026375907,0.017786099,0.0038068478,0.020447182,-0.02941514,-0.044959337,-0.02812987,-0.01948565,0.0523514,0.0040198267,0.045826223,0.0018102645,-0.04785638,0.009544445,-0.032491706,-0.022650974,0.008848524,-0.021457294,0.015598867,-0.007559753,0.040023778,0.016040199,0.011490503,-0.027725019,0.059621826,0.01777315,0.007631996,0.020023996,0.06766605,-0.0117105525,-0.002320579,0.00039681676,0.0005098412,-0.0031201364,-0.003656539,-0.0067416234,-0.018821057,-0.0016703673,-0.00930796,-0.019283623,0.0026215797,0.0032006982,-0.013402699,-0.008625708,-0.0070097605,0.00824586,-0.008088449,0.01069551,0.013650196,-0.03900612,0.020331193,-0.026599975,0.055047125,0.03129363,-0.057145316,-0.0007373207,0.032645673,-0.027721826,0.033141576,-0.03213687,0.11098979,0.047979597,-0.024127025,0.06456757,-0.0018993418,-0.050295983,-0.063683495,3.9925055e-15,6.8203114e-18,7.9767146e-14,-1.2933801e-17,-3.0977282e-17,4.2028453e-15,2.692204e-18,3.467041e-18,-5.9293034e-17,0.014280137,0.002904413,-0.0027768293,0.0067588547,0.008655397,0.0047301347,0.0031815015,-0.0033447226,-0.0031129697,-0.020404525,-0.0035637796,0.025918871,0.008772846,-0.008654528,-0.016044458,0.015124279,-0.015833609,0.029193798,-0.021208247,-0.035592694,0.034754686,0.021428151,-0.01994972,0.008091889,-0.010915495,-0.017358996,-0.07082755,-0.00065814157,-0.040360466,0.013089206,0.01642983,-0.009885538,-0.0060748784,-0.013405861,-0.009849796,-0.012232387,9.913177e-05,-0.0005240779,0.0072056977,0.0041204896,0.002411824,0.011733602,-0.0005553924,0.0004877281,0.009631485,0.01701198,-0.014181639,0.025582634,0.0071513797,-0.0037431389,0.041223537,0.018090656,0.022381801,0.006968677,1.7213213e-05,5.0325816e-05,-4.417775e-05,0.00012692963,0.00019544209,-1.19144315e-05,0.00014276775,2.5782112e-05,4.501333e-05,0.00019712897,5.9343387e-05,-7.534681e-06,0.00014178435,0.0037766476,-1.0464965e-05,0.002510234,-0.005088202,-0.00011456159,0.0043379995,0.0009686017,-0.0035858757,0.0034848878,-0.0016265468,-0.004354421,0.004088844,-0.013646519,-0.005209605,-0.028407317,-0.03639892,-0.1045134,0.02163052,-0.030459575,-0.106726855,-0.008113581,-0.024379957,0.01185598,0.008127088,0.00803004,0.014816917,0.015610261,-0.008757542,0.005083309,0.00082689716,-0.005185479,0.0019731615,0.021628689,0.035808507,0.015389033,0.0010111064,0.0033089146,-0.005176367,-0.014268634,-0.0107510965,-0.020314759,-0.003306965,-0.007653387,-0.00673004,0.0129075935,0.0047739022,-0.0003503339,0.0055739977,0.0042172773,0.0073255613,0.0001450706,0.00037253532,0.00033246996,-0.0005522887,0.00136608,0.0009854919,-0.00021702216,-3.810062e-05,6.82497e-05,-0.0011366886,0.000321575,-0.00145719,0.00036197313,4.3862565e-05,0.0027543476,0.00030132243,-0.0013444817,-0.0029705358,-0.0052688257,-0.0028666575,0.030977687,0.02246408,-0.018687796,0.008566917,0.005203251,-0.0016186653,0.023813393,0.0027161443,0.0057408796,0.012077395,-0.0011423568,0.00027308046,0.0011408704,-0.0040107425,-0.0062079714,-0.022905577,0.015693715,0.0036780373,-0.013193671,0.0070508495,0.009052073,-0.0007789378,-0.005476233,0.015818046,0.0035379247,-6.011555e-07,-1.2316513e-06,1.0142192e-06,-3.153722e-07,-3.590792e-06,1.2428464e-05,-1.1573757e-07,-3.8157853e-07,1.1101647e-06,0.012849538,-0.043659255,0.0718403,-0.0021514215,-0.037075814,0.0085317725,0.034591746,0.00046742987,-0.03132308,-0.0037406548,-0.013198812,-0.011952589,-0.0135902,0.010385512,0.020597057,2.6213136e-05,0.009508865,0.0113382,-0.02861702,-0.020102702,-0.029438125,0.024878424,0.051741958,-0.026312329,0.030353025,7.232047e-05,-0.009083161,1.0903263e-05,0.0023938715,-0.00036263632,-0.00015187236,0.0029459358,-0.0031402055,0.003429914,-4.1562966e-05,0.0023155885,0.05610231,0.027715221,0.018313084,0.028342666,0.03188385,0.06694535,0.08802946,-0.019628355,0.025417812,0.09209988,0.008240785,-0.029122852,-0.036948036,-0.025263574,-0.006350641,-0.033950564,0.05290808,0.0078868065,-0.0071393354,-0.02459116,-0.00067891774,-0.016985856,0.010194921,0.016129216,0.037245672,-0.005777017,0.02653701,0.046426523,-0.0066840826,0.0032671958,-0.011103222,-0.023134658,0.0259604,-0.040706445,0.03246384,0.010479722,0.0014954784,-0.00056425075,0.005360714,0.0018884417,-0.001953767,-0.0011825846,0.0009924715,0.004006748,0.007983502,-0.016767202,0.0072300215,0.0012451493,0.026158718,0.034686983,0.012262417,-0.0057388903,0.015266707,-0.0054765665,-0.04064841,-0.0848094,-0.06504624,0.055879034,-0.034041226,-0.020831155,0.04806068,0.047928814,-0.060496435,0.023860019,-0.054510247,-0.015012936,0.05598301,-0.05453086,0.030009847,-0.015398533,0.07701664,-0.05144499,0.06373992,-0.018566232,-0.047842313,0.010989444,-0.007964402,-0.02385032,0.050970204,0.08736594,0.026611026,-0.00539704,0.023722418,0.0051959925,0.026554972,0.0052458453,-0.011716577,-0.022634707,-0.04640624,0.00921738,6.733281e-12,6.8759894e-12,8.518132e-08,2.6964817e-17,1.4218315e-13,1.2149133e-12,2.3462632e-19,2.4987461e-15,5.6854556e-16,-7.163395e-05,-0.00027940047,-5.4563232e-05,-0.00030952346,8.752906e-05,-0.00044299092,0.0003335279,-0.0008005547,-0.0006544744,-2.1136757e-05,1.1083529e-05,0.00012693228,-0.00015298364,-0.00032414446,-2.3850207e-05,-0.00031157583,-0.00072674255,-0.00058834744,9.147396e-14,-9.28953e-13,-2.3267304e-09,5.051134e-10,5.424802e-09,-2.3644864e-07,6.663017e-08,9.533071e-08,8.8838064e-08,0.021245673,0.02514082,0.019418474,-0.0008629569,0.015870208,0.004505786,0.012717498,0.0052777636,-0.009915572,1.153125e-06,1.2101714e-07,1.4767885e-05,1.5880281e-06,1.0012694e-06,5.1626166e-06,2.2170045e-08,2.0664133e-06,8.512423e-07,9.497573e-14,-6.081992e-20,4.491401e-19,-6.1080406e-17,-3.1258623e-17,-3.0460585e-18,-9.926024e-15,-8.600277e-18,2.5798699e-15,-0.000698159,0.021176184,-0.006244935,-0.008929624,-0.02162754,0.026583752,-0.00466962,-0.024831168,-0.01993836,-0.024052827,0.014970352,-0.059185237,-0.042819362,0.056313165,-0.0480083,0.06997041,0.017097672,-0.026477806
-0.00079037464,-0.00180185,-0.0003906466,-0.00020577612,0.0005806369,0.0044721514,-0.00023228119,-0.0022074792,0.001769978,-0.05790226,-0.038816903,0.015063284,-0.028345352,-0.00021940387,0.00751226,-0.031511996,0.014354681,0.027830053,-0.005465106,-0.0040528155,-0.0027200743,-0.004341039,-0.007280867,0.006235859,0.006521121,-0.012855411,-0.026037326,0.0059644966,-0.0017512023,0.00043492875,0.0009257568,-0.000921971,0.011394394,-0.0020843244,0.0011681737,0.0066346643,-0.008144778,0.0004959813,-0.0038101024,-0.005755267,0.0056253457,-0.0043870653,0.008437653,-0.005955409,-0.014859634,0.015757503,0.03013336,-0.0018037114,0.026425965,-0.0006514489,0.016577797,0.003277686,0.016851868,0.035358183,-8.738195e-05,6.0286628e-05,0.014519323,0.00041455074,0.0021500043,0.0021871738,0.0008163573,-0.0036531033,0.0028176336,-7.377492e-05,-2.5087451e-05,-7.320902e-07,-9.949494e-06,5.9639444e-07,0.00017064589,-1.5368768e-06,-3.0596653e-05,-6.4969445e-06,-2.1784148e-09,-1.414141e-06,3.3952772e-06,-2.388615e-07,1.7202286e-08,-6.6498345e-09,-4.9413442e-09,-2.9880953e-09,2.9371995e-07,-0.0024252369,0.0024656656,0.0007358878,-0.003890211,-0.0029130494,-0.0048578302,-0.0036844646,0.002852117,0.005123986,-0.0017251291,-0.0024354032,-0.0007112844,0.00081734615,-0.0015245042,-0.0010515832,-0.0011970061,-0.0005443508,0.003793258,-2.5283898e-06,-2.815123e-05,-0.0014641224,1.5169862e-06,0.00016004535,0.0040775025,0.0001407932,0.0020359817,-0.0005621295,-0.005070779,0.010679022,-0.015709769,-0.056414332,0.0036106696,-0.037318617,-0.068746425,-0.037964195,-0.041182313,-0.0049464237,-0.014704353,-0.018243482,-0.016084973,-0.008212257,-0.004423742,-0.0022121633,-0.015818551,-0.008753874,-0.019153263,-0.04278622,-0.04012064,-0.00027260452,-0.017599333,-0.0029977243,-0.03111465,0.01453246,-0.007725969,0.034023155,-0.012936874,-0.0049925386,0.011522633,-0.02086812,0.019388573,-0.04519269,-0.025299346,-0.008073143,-0.023104554,-0.009321108,0.02459154,-0.027979556,0.018204551,0.025660569,-0.055648547,-0.0039640754,0.013800452,-0.009912756,-0.003292537,-0.015267833,-0.00046657334,-0.020586895,0.00014162416,-0.014741403,-0.004076264,0.0023135182,-0.0040392815,0.0050729066,-0.0049325423,0.0046706144,-0.00584218,-0.019312799,0.0028060225,0.031952787,-0.0031054618,-0.0663818,-0.047906026,-0.04032302,-0.011201512,-0.02031506,0.014253988,-0.009775561,-0.010229819,0.0411879,-0.05397594,-0.029998168,0.033656653,-0.03860925,-0.0043371744,-0.034423724,-0.027210703,0.016416945,-0.020863043,6.5239956e-29,-1.5949261e-17,2.277348e-17,7.2485974e-21,-1.4172708e-15,9.772766e-18,1.9392495e-17,7.521558e-15,2.3900327e-20,0.0034905805,0.005976189,0.002029838,-0.0011157495,0.0021633424,0.019004619,0.0026948587,0.00383636,0.006753284,-0.012373634,-0.014312653,-0.015242217,-0.017477497,-6.5988854e-05,-0.00651709,-0.0075381827,0.022186317,0.024383616,-0.06626746,-0.030513935,-0.0038521988,-0.044094786,0.0030802987,-0.020432178,-0.022882689,0.03424684,-0.022409407,-0.027823437,0.024520727,0.026442884,-0.030061409,-0.032588493,-0.0023861525,-0.012967266,0.0013126747,-0.044327307,-0.00013998311,-0.0005213484,0.0021468457,-0.002876212,-0.0023146411,-0.006217457,-0.0050076856,-0.0057121357,-0.003977337,-0.0096659,-0.010224925,0.02077003,0.002377141,0.0066757035,0.009751381,-0.015462224,0.010560264,0.042509336,3.639076e-07,0.001720135,6.6964435e-07,-0.000101429134,-4.1865886e-05,-1.8922026e-05,-0.00020771343,2.9961526e-05,0.0048555154,-0.00018701794,3.062419e-05,4.301379e-06,0.00057620386,0.0054111048,-0.00028496544,0.0053704344,-1.6115024e-05,2.791335e-05,-0.0020444004,0.00019269496,-0.0024388186,-0.0034600953,0.009169191,0.002782861,0.014751618,0.0100574875,0.0077054957,-0.036087867,0.023488626,-0.0012516653,-0.0758744,-0.046857633,-0.06502917,-0.07216634,-0.11435977,-0.14061397,-0.009653089,-0.011952874,-0.0041650888,-0.011279957,-0.000579315,-0.0022658824,-0.0014850806,0.0012699476,0.011007741,-0.05733696,-0.011283288,0.0062334277,0.0092514865,-0.0075006615,0.0008719589,0.034062915,0.036095954,0.029264333,0.00085932174,0.000859591,-0.0043572513,0.0003322913,0.00816948,-0.0013315513,0.0033489224,0.00016984175,-0.0013056461,-0.000882332,0.0029135188,0.0039601317,0.00038996802,-0.0060019745,0.000253361,-0.0004311943,-0.00029583438,0.00038361622,-0.00092640246,-2.799018e-05,-9.962542e-05,-5.0095296e-05,8.073129e-05,-0.00049429585,-0.00056088984,0.0017717772,-0.00018824326,-0.029152244,-0.023487108,-0.014716543,-0.018768726,-0.0204123,0.0017856148,0.007888292,-0.014609807,-0.02512628,-0.00013101473,0.00057765475,-0.0027879404,-0.0036367844,0.008758707,0.002162309,-0.0024610683,0.016296461,0.0026334636,0.019742865,-0.0043420605,-0.00021575572,0.031679723,-0.00067013723,0.027782466,0.011255628,0.0028800906,0.034280747,2.8041464e-07,8.258731e-11,-1.2619003e-08,9.5886095e-15,-3.1668976e-09,-8.219887e-06,-1.5307111e-10,1.1757827e-06,-3.9323545e-06,-0.06316278,-0.023438975,0.00029026472,-0.04446722,0.0030575849,-0.029722027,-0.048794147,-0.0027630408,0.015215826,0.011392511,0.014040768,-0.004167059,0.0055082818,-0.0009423198,0.030887434,-0.0030032995,-0.005838926,0.0037056901,-0.07496757,-0.055811785,-0.034535304,-0.034417633,0.0014324335,-0.018273655,-0.061534017,0.004937208,0.006257187,0.00032456644,0.0001522222,-0.0018546048,0.001985448,0.002207573,0.0014785199,-0.0038312615,0.0005113365,0.0035815684,-0.024192696,0.0002485779,-0.011490558,-0.045280945,-0.05110006,0.03835801,-0.03622532,0.078204274,0.07162773,-0.017996535,-0.06453341,-0.028509758,-0.04363554,0.0032955182,0.034475423,-0.01564621,0.03271156,0.03158771,0.0029640822,-0.02680621,-0.029957987,-0.016436474,-0.025094798,0.03010405,-0.03361144,-0.010271518,0.0143338535,0.026902227,-0.007490822,-0.046829734,0.012031902,0.007497345,0.023510518,-0.049694624,0.0028556006,0.03641953,-0.0018604,-0.00096198823,0.004204282,0.00038260582,0.0012185475,0.0016228025,0.0016653949,-0.016053636,-0.0025687458,-0.004849723,-0.0067036883,0.0059563187,0.0069000046,0.013363854,-0.013047612,0.008747684,0.04464624,0.01386477,-0.12806974,-0.10184228,-0.06586334,-0.08862569,-0.08305312,0.003406405,-0.16406497,-0.14804187,-0.044879824,-0.090312794,-0.007938835,-0.06646392,-0.030795846,-0.059118737,0.0649274,-0.050715823,-0.071347386,0.087190464,-0.020622421,-0.020505851,-0.00036770504,-0.03293023,-0.0044205096,-0.0033494185,-0.09053709,-0.09715779,-0.08794157,-0.004990246,0.0037595415,0.0196543,-0.01960269,-0.0007148329,-0.004345661,-0.010164504,-0.0062882556,-0.014753169,-1.6270672e-12,-5.418471e-10,-1.0772096e-19,3.496746e-14,2.1915314e-21,-1.7577865e-13,4.8875343e-20,-4.711707e-16,4.2606546e-16,0.0004465688,-0.0005195983,8.7317596e-05,0.0016479375,-4.0637875e-05,0.00017262048,-0.00034567245,0.00029590452,0.0014218817,-2.1322954e-05,-4.1867182e-07,-3.2540167e-06,-2.0875039e-05,-9.819337e-06,-2.8701368e-07,-3.543048e-05,-3.0452626e-05,0.0004497211,-2.71665e-10,-8.783581e-11,7.484333e-15,-3.2347143e-07,-2.750314e-10,-1.683255e-06,-1.1693707e-07,6.705657e-08,-6.7669017e-09,0.0013988488,-0.011317396,-0.009137664,0.0036038274,0.0010904582,0.005764482,0.015457431,0.023051465,0.016170217,2.0489933e-05,1.9207648e-06,3.478743e-05,2.0408137e-05,0.00026922938,3.0839758e-05,1.4031025e-05,0.00058382185,7.864432e-05,-4.956507e-18,9.3854485e-18,6.0497724e-31,1.9805197e-30,-2.2635602e-33,7.1931834e-29,-2.7790695e-37,3.427663e-30,-3.971219e-34,-0.001003213,-0.0028172324,0.0050919377,0.016856227,0.0098089315,0.0007276214,0.0067728898,0.01399232,0.001955567,-0.10037233,-0.039142355,-0.055242267,-0.03921299,0.011015989,0.035804965,-0.13405772,-0.07153333,-0.09445845
0.0001946524,0.0008098355,-4.5273177e-05,0.00037666113,0.000100296704,2.6438473e-05,0.00019574177,0.00029501063,0.00021257717,0.003152014,-0.010742081,0.0034101892,0.012530435,-0.03327727,-0.008288205,0.03995498,-0.014675665,-0.017507782,-0.0047890116,0.0030799643,-0.0004174614,-0.0008567723,0.00082730356,-0.0019424348,0.004592343,0.0036954705,0.0065358947,0.0008578473,0.0010237426,0.0006571028,0.00016245994,0.00026620354,0.000394591,-0.0010181172,-0.0014402617,0.00018280624,-0.00081205193,0.0019856659,-0.0026005795,-0.0029389726,0.0010450394,-0.00058292976,0.0012803563,0.00031443048,0.0018630677,0.016408179,0.016566586,0.0042711394,0.011853762,0.00028731558,-0.006514031,0.0057650018,-0.0058340654,-0.015253349,0.00013032439,0.00012011733,-4.3265016e-05,3.5526882e-05,0.0003809443,0.00017355174,0.00024956604,0.00014934111,0.00014805506,-3.3692336e-09,-1.40405785e-08,-1.2498566e-07,2.9227765e-10,4.860737e-06,-7.940798e-08,1.3262845e-10,2.1277385e-06,-1.5502314e-07,-2.7793257e-14,-1.5407156e-15,-2.1753268e-12,2.5961299e-14,-4.9282223e-15,-7.9706175e-10,5.4295972e-15,-5.4742337e-18,-1.8222945e-14,0.00054104085,0.0019604224,0.00054146576,0.0004537315,0.00019426306,0.0007858724,-0.0030610268,-0.0006270566,0.0007535985,-0.0004229305,0.00024505096,-6.085153e-05,-0.001783118,-0.0015807282,7.6379685e-05,-0.0005896312,-0.00045440413,-8.8706736e-05,7.6792545e-05,0.00017254887,0.00015852161,0.00014795357,6.608013e-05,0.00032622958,0.00019875747,-0.00012256745,6.642592e-05,-0.009918033,0.0092685465,0.013365704,0.01731455,0.004523235,-0.0040149256,0.015142684,-0.00066312216,-0.030369936,-0.0028724275,-0.0028506697,0.0003062941,0.0010580202,0.00028835936,-0.0015730818,0.001986581,0.0011412387,0.0043212883,-0.0035067876,-0.011637571,-0.0022978738,-0.009736812,-0.007780626,-0.0113634635,-0.01062153,-0.010102868,-0.00152612,0.008344499,0.0016475036,0.011809949,-0.008709167,-0.009071399,-0.01325013,-0.0026754967,-0.006108289,-0.013510624,-0.017252982,-0.02237106,0.009894584,0.00248538,-0.012680574,-0.0025669346,0.008385203,-0.0048002573,-0.005141672,0.0024379347,-0.00016936038,0.00066391745,0.00025400668,-0.0016210858,-0.0015529348,-0.0008568949,-0.0025148762,-0.00049506663,-0.00011296409,-0.000357271,-0.0030732476,0.00040382336,-0.0016568619,0.0017514707,0.0011905939,-0.003223796,-0.002062033,-0.02238599,-0.0068419757,-0.016648283,0.00823984,0.003847678,0.007841546,-0.008531499,-0.016108697,0.007381544,-0.00089179544,-0.022844188,-0.02193915,-0.018623907,-0.0050333687,0.033188418,-0.004305776,-0.008032733,0.01517162,1.594142e-39,1.71014e-40,2.75265e-40,-1.2532683e-21,5.84458e-39,-1.303758e-39,-1.0763822e-30,-2.97851e-39,4.419003e-39,0.0058029983,0.001707484,0.0026950582,0.006625651,0.0018872211,0.0012233655,0.002648931,-0.0010552374,-7.1442904e-05,-0.011270709,0.018104529,-0.003954205,-0.009730806,-0.0005431897,-0.008123347,0.0065342356,0.0034862822,-0.017107926,-0.007488449,-0.017425355,-0.01972679,-0.023976358,-0.024119163,-0.0022365842,-0.028098144,0.004724989,-0.0107048955,-0.012120574,-0.0016586771,-0.0011820393,-0.0036839417,0.0030983847,-0.005228116,0.004500013,0.00048321896,0.0042903083,0.0029575063,0.0025504106,0.00072117365,0.0019947707,0.0012431412,0.0001743385,0.00010132004,0.0009482061,-0.0009800305,-0.009904502,-0.0029955213,-0.003916567,-0.022502879,-0.013410351,-0.0010616916,-0.010592874,-0.008720327,-0.014544463,-7.666288e-08,2.0587576e-08,2.4734823e-07,3.580014e-07,-3.6174765e-08,-4.2407005e-06,5.374553e-07,6.1890114e-07,-1.312567e-06,-3.7486294e-05,-1.5969952e-05,-5.8681202e-05,-6.615444e-05,-1.2364829e-05,-0.000121088735,-4.8550937e-05,-7.273913e-05,-0.00021156578,0.0012434693,0.0008562176,-0.00023884568,0.0016216119,0.0009018737,-0.0009438685,-0.00012274602,0.0004356244,-0.00051931187,-0.026360434,-0.02889771,-0.040738504,0.002329829,-0.010379396,-0.034937214,-0.0035159895,-0.012966289,-0.00511709,0.001003609,0.00014824959,-0.0006883759,-0.0033053479,-0.006170985,-0.0027187439,0.0007206602,0.00090886327,-0.0004281203,0.014413669,-0.008013964,-0.009784748,0.0014184349,-0.013291968,-0.003133365,-0.017554414,-0.004512096,0.0094767,-0.0005608975,0.0005791214,-0.00122835,-0.0016745713,-0.0011040476,0.0005789904,-0.0030686648,-0.004311951,-0.004318132,0.000100431665,0.00096589496,0.0006587379,0.00017673697,0.0009802369,0.00031566675,0.000172208,0.0002630173,0.0003204445,-1.8681865e-05,-5.1921194e-05,-9.481352e-05,1.0839523e-06,-0.00027526106,-2.7301649e-06,-0.0003316374,-0.00041650064,-1.8641886e-05,-0.0049732006,0.0023649856,-0.0018183052,-0.0036131302,-0.0015284151,-0.003091721,-0.00033548224,-0.00032552832,0.00029169163,-0.0007130554,-0.0010318807,0.0018918794,0.0015293238,-0.0004536343,0.00068178773,0.00049205613,0.0016847587,-0.0012586277,0.009318655,0.0003819301,0.0028986547,-0.001081974,-0.0039229156,-0.0015759888,-0.0055174152,-0.0084503265,-0.004626935,1.1149602e-18,1.8233237e-19,2.106915e-14,2.8499255e-16,9.8435725e-18,6.516511e-16,1.2293171e-15,4.6893676e-16,1.2393708e-15,-0.0012733623,-0.01354869,-0.0032210099,-0.004355146,-0.022048062,-0.009784489,0.0011377994,-0.015587417,-0.021258969,0.003101542,-5.1801617e-06,-0.0010960714,0.0037341695,0.0032924914,-0.0006646374,-0.0023801841,-0.0020471562,-0.00076349697,-0.020325085,-0.00935277,-0.016120143,-0.015273341,-0.017474066,-0.03719502,-0.031130739,-0.020450655,-0.009662415,-0.00034961026,-0.0001474503,-2.4366898e-05,-0.00019353582,-0.00034437652,0.00023318765,-0.00023597557,-0.0007472575,-0.00037631078,-0.002203704,-0.005849736,0.011512734,0.01886908,-0.027931422,-0.023889123,0.018875994,-0.02071065,-0.03399834,0.0055127884,-0.021525336,0.0028368412,-0.05017549,-0.020853879,0.0062607913,-0.021219296,-0.014474936,-0.009852665,-0.006852418,-0.001861314,-0.0073068426,0.0021736235,0.005579158,-0.020853277,0.003713138,0.00085247186,-0.010563818,-0.016259233,-0.0094764475,0.0066853873,-0.026616363,-0.004614836,0.02664598,-0.0014285214,0.018600864,0.01913912,3.3141532e-08,1.744562e-05,0.0003620549,0.00015424019,8.1789105e-05,0.000376155,0.00080194377,-0.00012663152,0.0003384249,0.0001479431,0.002825979,-0.0040107993,-0.0055377157,-0.007913098,-0.0025807547,-0.015653428,-0.009587174,-0.027582595,-0.009982691,-0.017415464,-0.036329336,-0.009274045,-0.032850135,-0.022305997,-0.05897807,-0.017882634,-0.05019201,0.007824879,-0.039776176,-0.010509835,0.010922387,-0.038015585,-0.017009329,-0.014581898,-0.00095095875,-0.039487533,-0.018644424,-0.024699168,0.0021958651,-0.002722873,-0.0062566046,0.006205651,0.0027407692,0.019164715,0.00958891,-0.0009211702,-0.006859788,-0.0003663258,-0.01333984,-0.0015062146,0.008268373,-0.0077698515,0.0023297477,0.019011283,-4.4052427e-27,-1.724408e-39,3.714894e-39,-2.7993423e-26,2.6844954e-33,3.125572e-34,-1.996904e-39,-1.9251415e-27,5.3797064e-23,0.00020219493,0.00037510172,0.0002929254,-2.7026214e-05,9.466252e-05,0.00010759926,9.100791e-05,9.1982496e-05,9.557877e-05,9.276016e-08,3.1766064e-08,8.081568e-08,7.4550845e-09,5.8842367e-08,1.5455721e-07,5.377827e-08,2.256487e-06,1.9166453e-07,1.6583116e-18,-9.8522885e-26,-2.2867125e-18,9.653534e-19,-3.3676967e-15,3.6870776e-21,2.7689356e-17,2.9189951e-12,1.8835826e-22,0.008955318,0.008836315,0.0035324905,0.006234391,0.0059968596,-0.0031101003,-0.00018284492,0.00021638509,-0.008540957,-9.8628814e-18,4.2235664e-12,-8.007979e-14,2.1982663e-14,3.8578185e-13,1.2153802e-11,-7.664459e-12,-3.780893e-12,-3.261833e-11,-3.693673e-39,5.493777e-39,8.46066e-40,1.162959e-39,2.353409e-38,3.525574e-39,-1.370753e-39,1.793724e-39,3.528322e-39,-0.0013262498,-0.00086796563,0.0021414936,0.0008565184,-0.0036905555,0.001405174,0.0015703827,-0.0019381812,-0.002158802,-0.059428178,-0.043992184,-0.0561504,-0.014941942,-0.018175615,-0.026753537,-0.019160049,-0.015092417,0.020692829
0.0016976937,0.0015397173,0.0011860222,-0.00042148243,-0.00031303626,0.00043401562,0.00014218365,0.0009004298,-0.0006289776,0.033429325,0.0037209587,0.019532453,-0.03597496,-0.002411064,0.01291428,-0.010611236,-0.0071698828,-0.019735608,0.0032601033,-0.024313984,-0.050453704,-0.008617194,-0.01706825,-0.061913926,-0.00558459,9.854944e-05,-0.035625745,0.0069960076,0.012807518,0.022832604,-0.0026781843,0.004086565,-0.003562835,0.028765965,0.019719018,0.021827208,0.050971605,-0.015888445,-0.0013500617,0.03660741,-0.0014282865,0.0023751159,0.057316408,0.047342878,0.022304868,0.048488073,0.08628042,0.142868,0.027657222,0.06305626,0.084957175,0.053274762,0.047518548,0.046781536,-0.0021832108,0.0051727854,0.006894341,7.557166e-05,0.0012387045,-0.0032547833,0.002467233,-0.0005874696,-0.00673483,-0.00034609082,-0.0010673017,-0.0011473197,-0.00012876208,6.8048896e-05,-5.241689e-06,0.000722274,-7.7400015e-05,0.0005244818,1.542571e-07,1.2561114e-08,-6.6968704e-07,4.6169266e-08,-8.9490435e-08,-6.514247e-07,-3.4985055e-07,-4.5710244e-08,-2.9446733e-07,-0.0057161334,-0.0034785175,0.016350958,0.0009827547,0.010747049,0.01255684,-0.013581793,-0.002382347,0.00062690116,0.0059253406,0.01043423,0.022598794,0.0033424287,0.006609419,0.024087003,0.014316486,0.0016295275,0.019213311,0.0019377153,-0.0010173908,-0.00018983931,-0.0009310868,-0.002621436,-0.0016939047,0.00094012124,-0.00010526182,0.00067761407,-0.044727698,-0.033126034,0.06044769,0.017379599,0.031842254,0.09329626,0.11955413,0.137384,0.10328031,-0.0194845,-0.025193684,-0.023488639,-0.017554585,-0.034573108,-0.033558063,-0.032723818,-0.031586893,-0.034668077,0.022036105,-0.0015443481,0.017174525,0.0195913,-0.024065008,-0.02867725,-0.040016107,-0.050103318,-0.017394615,-0.016432408,-0.02676902,0.066169016,-0.0023829222,0.022328774,0.042803057,0.13152647,0.064383805,0.070366144,0.0003657033,-0.041432608,-0.0038676842,0.00715741,-0.059039816,-0.03384371,-0.023806773,-0.011441855,0.003245404,0.04366341,0.036438882,0.023814384,0.009491705,0.017078048,0.007645935,-0.005763607,-0.0039857426,-0.011794918,0.05303088,0.004651823,0.04508246,-0.01407965,-0.025075465,-0.038437713,-0.04142155,-0.017728588,-0.06763073,0.081098005,0.008963313,-0.010232575,0.022757575,-0.037045266,-0.055266716,-0.04410398,-0.107294954,-0.067935504,-0.045938578,-0.045452066,0.003808871,-0.07030654,-0.111653835,-0.018483568,-0.05569059,-0.070311695,0.009688787,-8.427044e-20,-2.6345208e-22,-3.6515134e-17,-1.3755874e-19,6.346498e-17,-8.5888075e-17,4.2472155e-22,3.4741263e-18,-5.4840486e-17,0.035113744,0.036042403,0.014158035,0.015601933,0.008860237,-0.00017199964,0.017548732,-0.007445737,-0.023919858,-0.037281923,-0.021994967,0.023686882,-0.07965431,-0.033884093,4.4835033e-05,-0.011518333,-0.011348141,0.0009815397,0.015740132,0.040717173,0.07947157,-0.031264756,-0.02569271,0.027853236,-0.035775322,-0.018515667,0.008410811,-0.055998117,-0.050924424,-0.03712672,-0.0066470546,-0.044973586,-0.040084608,0.052953143,0.031426806,0.012394701,-0.02140915,-0.03380352,-0.04210298,-0.029255355,-0.035256915,-0.047574077,-0.041089687,-0.04573929,-0.052120145,-0.010424688,-0.0008666655,-0.02113597,-0.018957935,-0.032019176,-0.06689623,-0.0072020697,-0.05276315,-0.079771236,0.00058463524,-2.181013e-05,-0.00034806028,0.000563625,0.00092120905,0.0013292885,0.0010987098,0.0015419878,0.0014693232,0.0014507858,0.0018642843,0.0044444,-0.00044331915,0.0012507342,0.0019215477,-0.00035853984,-9.416318e-05,-0.0011351181,0.011773126,0.01629678,0.0057888255,0.0031854266,0.006425704,0.004220293,-0.0034668695,0.002532472,-0.0037936212,0.0156639,-0.035531692,-0.024359278,0.08931693,0.010782911,-0.012683751,0.24461246,0.15599982,0.06317941,0.014243568,-0.0018165467,-0.0017855793,-0.01413844,-0.014132019,-0.001443481,0.00033337311,-0.005051822,0.0026103084,0.020453926,-0.028956294,-0.02889116,-0.041983914,-0.042522337,-0.052223153,-0.05692991,-0.03417464,-0.035485625,0.01428499,0.015699914,0.0231343,-0.0025681125,0.009960141,0.03258459,0.031960186,0.026973104,0.05249884,0.00010786005,-0.007674441,-0.005671573,0.0032546285,-0.0067080404,-0.0077374424,0.008186015,-0.0021104435,-0.0044079144,0.0007405471,-0.00035290074,0.0011050722,0.0015945139,0.002886837,0.0033193368,0.003020838,0.003471876,0.005321549,0.0035505837,-0.0038763906,-0.002730008,-0.02444697,-0.040991135,-0.023364246,-0.044536546,-0.05690283,-0.047737163,-0.00390844,0.005256181,-0.0054791896,0.010596019,0.008040122,-0.008262834,0.0050451956,0.00367687,0.00048318104,0.07053621,0.012193335,0.02305359,0.03197279,0.035249535,-0.0045945216,0.051654562,0.014855385,-0.005577606,3.306113e-05,-1.8341343e-05,1.4412977e-05,4.1700936e-05,-2.8681516e-05,2.6208634e-05,4.317091e-06,-1.8750223e-05,-1.5437245e-05,0.00059266796,0.04139653,0.059369028,-0.024887655,-0.016850043,0.019245746,-0.04986196,-0.021370353,-0.02377512,0.019028416,0.04155134,0.044336755,0.0072366623,0.035839036,0.02621974,0.040634938,0.004545467,-0.0071799126,0.044991154,0.029462032,0.09111413,0.006753617,-0.013697762,0.020330217,-0.016447077,-0.025494952,0.04198729,0.016364485,0.022198642,0.03609889,0.011720398,0.024131844,0.026496772,-0.0010277273,0.0045772837,0.010205848,-0.045466118,-0.026358437,0.029893145,-0.06462078,-0.039815463,0.0014132082,-0.00741982,-0.03320083,-0.021762975,-0.02417382,0.0052547664,0.02994793,-0.06899078,-0.057545327,-0.042547323,-0.023138046,-0.076684706,-0.034841757,-0.06036974,-0.041829802,0.03090487,-0.049782,-0.022869397,0.022691859,0.043623947,-0.009966425,0.016925288,-0.023868626,-0.002777268,0.04194467,-0.039279584,0.0033957476,0.01029558,0.07020547,0.0068213847,0.076074645,0.009696879,-0.002369179,0.007757117,-0.0040611243,-0.010126591,0.0005398614,-0.004324368,-0.015186452,-0.010954548,-0.018034037,0.039351314,0.092703834,-0.020632558,0.011357773,0.049202874,0.027322743,0.027778998,0.07805487,0.09439905,0.05739372,0.031542093,0.07570576,-0.007257193,-0.017056378,0.09933722,0.022175904,0.016424254,0.10105317,-0.050453182,-0.022421988,0.08565289,-0.012934573,-0.07797853,0.10525875,0.010544021,-0.045374293,-0.002006401,-0.026461676,-0.06754726,-0.0017805088,-0.031013241,-0.014407156,-0.039918777,-0.0142896995,0.00967745,-0.042021606,-0.05188139,-0.049221758,-0.07467329,-0.09454973,-0.0641325,-0.027268164,-0.037318785,-0.029218363,-1.783234e-12,-1.498966e-14,-6.19234e-13,-3.4862713e-13,-2.460745e-14,-3.1172214e-15,-5.2180194e-15,-2.5186553e-13,-1.2289972e-15,-0.0021629918,0.0005662934,0.004862132,-0.0004473426,0.00071317726,0.0045207096,-0.0013957337,-0.0010615366,0.0003508102,0.0056430493,0.00058033597,0.00055092206,0.0026423978,-0.0010641022,-0.00012847564,-0.0029674557,-0.0004581795,0.0006195013,-4.0275464e-07,-2.4573674e-07,2.0493135e-07,-2.1308786e-07,3.757461e-06,5.291354e-07,-4.5335113e-07,9.3687035e-08,2.7362614e-07,0.0077146906,0.030821044,0.018863544,-0.011870895,0.012596689,0.008742447,-0.042846497,-0.014728575,-0.03252524,0.00048238967,-0.00016128148,-0.0007960094,0.0002320788,0.00018440814,-0.00086120714,1.6068798e-05,3.861615e-05,-3.807567e-05,1.9221938e-16,3.6646076e-16,5.8656227e-15,1.8437038e-19,2.4192224e-15,1.1864153e-13,1.8159489e-14,5.95434e-13,1.5621139e-13,0.02104199,0.043446224,0.042810854,0.048135556,0.03406057,0.029452799,0.018262347,0.019980375,0.008687072,0.014830021,-0.02870309,-0.059826594,-0.016429253,-0.07004881,-0.12960654,-0.057950374,-0.099044204,-0.12062742
-7.818298e-06,9.332917e-06,3.974033e-05,-8.464264e-06,-5.0326257e-06,3.5045385e-05,-1.894244e-05,2.970136e-05,-2.9759873e-05,-0.00212236,-0.0020287326,0.0025131924,-0.004537997,8.522431e-06,0.0062654405,0.00044735055,0.00400264,0.00034558453,0.0006596352,-0.0011424124,0.0005177009,0.00083339226,0.0008610276,0.00050278084,0.0009843082,0.0003991814,0.0002054876,0.0006538377,0.00046997817,0.00027956703,0.0005224,0.00031462457,-4.492703e-05,0.00094721717,0.00046947575,0.00018841322,0.0004613195,-0.00040882282,-0.00076870853,-0.00017463483,-0.00027321058,-7.9624166e-05,3.3779026e-05,-0.00020758275,-0.00016889583,0.005998197,0.0027564287,0.003649271,0.000672881,0.008406762,0.008524605,-0.0073051495,0.0015556803,0.0011401414,2.9184255e-05,0.00018446686,0.000118630145,-9.687573e-06,-2.4071664e-05,-1.4311551e-05,-0.00025216272,-9.272864e-05,2.5309371e-05,-4.880112e-17,-1.583794e-15,-6.137563e-08,-3.9168034e-13,-1.7992673e-11,6.575269e-20,3.9391984e-13,-5.651439e-14,-2.408513e-11,2.0000023e-14,1.6025967e-20,3.727742e-22,-3.550909e-20,1.4947556e-17,2.761823e-15,6.9806696e-24,1.5739738e-24,1.0800423e-24,0.002770485,0.003845712,0.0029420005,0.00039413333,0.003504727,0.00274464,0.0021516187,0.0017669107,0.0039502135,0.0012687689,0.0010050441,0.00031400763,0.0021880073,0.0016495101,0.00072409847,0.000779532,0.00018168228,-0.0003166559,0.00022729652,7.472763e-05,0.00013994682,0.00026722357,0.00031604158,0.00016140514,0.00021490545,0.0001563699,5.1424464e-05,-0.0012302069,0.011113056,-0.004537949,0.011105478,0.006462097,-0.00029203336,0.004027542,0.0013567212,0.0032798792,0.0015112476,-6.52828e-06,-0.0015696137,-0.00037843728,-0.00043554712,5.8980557e-05,-0.0005373261,-8.5456384e-05,-6.785742e-05,-0.0004667608,0.0010622374,-0.0061643315,0.0034160619,-0.0016738473,-0.0009003167,-0.007330971,-0.004996217,-0.0052212826,-0.0011457504,-6.052487e-05,0.009358343,0.0005048007,0.007184001,-0.0005839684,0.00040297903,0.00018066741,-0.0008786081,-0.002232308,-0.00014614119,-0.0049806666,-0.0018146422,-0.0038358828,-0.0025394144,-0.00065587455,-0.0018280766,0.0004119371,0.004579546,0.0028539335,0.004430459,0.004143745,0.0033350498,0.0033348398,0.004210152,0.0029108906,0.0035629813,0.00082407193,0.003505525,0.00015859527,0.001579,0.00050652004,0.0013282973,0.00039900606,0.00026653893,-0.0009042485,0.0023693745,0.0012518102,0.0069166007,-0.00325269,-0.0019118262,-0.0037297902,-0.009567372,-0.004288701,-0.020975787,-0.0069506792,0.00305787,0.00047953287,-0.015280007,-0.012190032,-0.01667882,-0.0010140941,-0.014813549,-0.008545666,5.377896e-39,2.001737e-39,-2.75668e-40,-1.912531e-39,-4.169492e-39,-1.07712e-40,-5.69205e-40,-6.053775e-39,2.466993e-39,0.0021627015,0.0038061792,0.0027179352,0.0030498598,0.0029679025,0.001631583,0.0029890202,0.002628678,0.0015863737,0.005293098,-0.0024469683,0.001090004,-0.003639587,-0.0044372035,0.0023616476,-0.0009495266,0.0029357227,-0.0027531176,-0.0021247233,-0.00030307847,0.002225613,-0.0049184537,0.0008368685,0.002797809,-0.0037701672,-0.008688128,-0.0040075695,-0.0010677637,-0.0010126831,-0.0041819937,-0.0011134797,0.00028927554,-0.001485885,-0.00074572384,-0.00228768,-0.0018420117,0.0019233008,0.002437581,0.0020845125,0.0016062423,0.0018738718,0.0017282671,0.002497415,0.0028548685,0.0019838403,0.00041402286,-0.0008613046,0.0010220358,0.00021667175,0.0022792453,-0.0023850685,0.0009380523,-0.0022734362,-0.0031578804,-3.0882305e-08,-5.0521216e-08,1.3501037e-08,-1.5851572e-08,3.9077264e-08,1.724232e-07,1.3908921e-08,-2.69787e-06,-1.308632e-08,-3.0578294e-06,8.097498e-06,-7.225776e-06,1.068747e-05,-1.3570522e-05,-0.00014515182,-1.9680858e-05,2.7809181e-05,3.077439e-05,0.00063233677,0.0012653128,0.0014652801,0.0010096781,0.0013611529,0.0011216998,0.00085950206,0.0012654418,0.00037894593,-0.003372251,-0.00740632,-0.00089065137,0.0012072352,-0.0012277975,0.012865524,-0.004539515,-0.013274429,-0.0012325107,0.0004884089,-0.00016709919,0.0014090918,-0.00032136918,0.00078766776,0.0017549851,-0.00016166353,0.0004715101,-0.000747035,0.0010537285,0.0009843106,0.014573039,-0.0021417716,-0.0018056752,-0.0043114605,-0.0030502472,-0.0043137698,-0.008131287,0.0008754036,0.0005323784,0.00031269362,0.0015787549,0.0015379073,0.00075567036,0.001568046,0.0011505856,0.0011258876,0.0002355941,-2.420983e-05,7.110997e-05,0.00013785237,8.056581e-05,-9.505233e-05,0.00019107571,0.0002970921,-3.2667194e-05,-1.6787126e-05,-3.266202e-06,8.694886e-05,5.442847e-05,7.226423e-05,1.176068e-06,-2.979546e-05,3.0032081e-06,-1.5839282e-06,-0.00016524417,-0.0036573724,-0.0013571148,-0.0016433459,-0.0014502425,0.002074022,0.0007580521,-0.0010364632,5.2114123e-05,0.00097479095,0.0032052577,0.0011973974,0.0006121573,0.00227335,0.0010637454,-0.0009522174,-0.00013113473,-0.00043093163,0.0032277605,0.003499983,0.0028635247,0.003678272,0.0042433785,0.0017444299,0.0026705982,0.0033120227,0.0010183295,1.9239068e-20,1.7508876e-16,2.057792e-15,4.3867228e-17,2.8003474e-12,4.5151657e-22,1.8993892e-21,1.0095345e-17,1.0798835e-16,-0.0034047079,0.0027653875,-0.0005767362,-0.010289411,-0.00055634417,-0.0023138328,-0.0074444064,-0.009738426,-0.0025103504,0.00217786,0.0013447916,0.0014122747,0.0027797176,0.0014522915,0.0008882218,0.0016671058,0.000653683,-0.00060341036,0.0026098378,0.0022006186,-0.0038740397,-0.0022012785,-0.007311088,0.0077346647,-0.01660969,-0.012329021,-0.010861822,2.7166414e-05,0.00023224945,3.318266e-05,0.0003128575,0.00023735632,7.2270916e-05,4.9462673e-05,0.00018484764,0.00023033464,0.002211509,0.009545147,0.0012775976,0.0011069505,0.008431645,0.011769526,-0.0033767715,-0.008099263,0.0020903004,-0.019027947,0.000570726,0.0019845963,-0.010036233,0.023920605,-0.01180254,-0.0014198289,-0.009067306,-0.011714339,0.00046700583,-0.0025957786,0.0006835798,-0.00032815753,-0.0034959256,-0.0034595334,-0.0011803906,-0.0017433638,-0.0046388004,-0.0055798925,-0.0015990761,0.005205233,-0.0049310876,-0.0002032056,-0.006660671,-0.003980028,-0.0049553467,-0.007077618,-1.2297674e-05,-0.0002589254,-0.0001697483,2.4383835e-05,-0.00037888382,-3.9346727e-05,7.792046e-06,1.1317074e-05,-5.918935e-06,-0.0013433641,0.003315123,0.0010176718,0.0017364088,0.005093288,-0.0018713408,-0.00038447132,-0.0010199317,0.0017308424,0.00072721153,-0.014527613,0.016676582,-0.008550945,-0.0058624716,0.015234443,-0.018870983,-0.008096784,-0.020027809,-0.0041172286,-0.009908227,0.021922456,-0.006060425,-0.0018662384,0.005300142,-0.0077143568,0.0073895017,-0.009270137,-0.0045700367,-0.0011357717,-0.006282661,-0.0018943409,-0.0017685428,-0.0032119902,-0.0014652942,-0.00041759707,0.0009978666,0.0004093894,-0.001036401,6.295132e-05,-0.0035666176,-0.00068269944,-0.0042582457,-0.0016958549,-0.0017884928,-0.0033957649,-3.272281e-39,-1.781666e-39,-3.382617e-36,1.074923e-39,4.8437e-40,6.51564e-39,1.82478e-39,1.32354e-39,2.79681e-40,0.00028777245,0.00033737734,0.0002653534,0.0003251251,0.00030584424,0.00019807777,0.0003144411,0.00012664191,0.0002715111,4.8947557e-10,-3.3753303e-10,-1.9574742e-08,1.4673115e-08,4.78795e-10,-5.6394633e-10,1.8583548e-11,6.777739e-08,1.5137492e-09,1.4656471e-21,-2.3879181e-29,-1.2234893e-22,2.065846e-31,7.184672e-24,-1.2758616e-16,2.0194934e-29,1.393269e-29,-9.404536e-21,0.0014954538,0.007190934,0.004208327,0.0020066423,0.0028691664,0.0052333754,0.001386323,0.0029698168,0.0015629721,-1.8133118e-17,6.908864e-12,1.4913168e-16,-2.2699709e-17,-2.179071e-21,-3.7036876e-20,-2.7359186e-17,-8.097451e-18,-3.0772537e-20,1.3033e-39,2.458254e-39,1.675617e-39,1.841878e-39,3.132754e-39,-1.429375e-39,-8.69165e-40,2.456877e-39,7.46103e-40,0.003507046,0.0070819887,0.0027507443,0.0026893972,0.005190747,0.0008120641,0.0031679063,0.0055400627,0.002825418,-0.017068544,0.019298237,-0.02425065,-0.019312954,-0.020480009,-0.0030927507,-0.008045133,-0.011456286,0.007263488
0.00010289747,-1.0247866e-06,-0.0019263559,9.4892326e-05,-0.00054795324,0.00014886505,8.662893e-05,0.00024986838,-0.00052320695,-0.010716076,-0.0025433712,-0.0018643881,-0.014678566,-0.025684457,-0.0022892228,-0.0057297703,0.007021383,0.007017028,-0.0053284494,0.006055457,-0.020051021,0.0040002987,0.0015788747,0.005254114,0.0007145465,0.0016449913,0.0009001453,-1.301249e-05,0.00094907964,7.37175e-05,0.00024494165,-0.00096184714,2.9037463e-05,-0.0012234506,-0.0007249398,-0.0049161725,-0.0012286428,-0.00018846383,-0.0012712616,-0.0048702867,-0.0051448,0.0022747423,-0.0018405952,-0.0018272558,-0.0014683772,-0.02824567,-0.0010891289,-0.0024531758,-0.013948319,-0.008486754,-0.0149323875,-0.0027650157,0.0087717585,-0.01948424,-6.559843e-05,-2.514635e-06,0.00015382591,0.00016731734,-9.242371e-06,0.0012578807,0.000118279735,0.00015085693,-0.001104186,2.9702695e-08,-6.598663e-06,-1.4470758e-06,-1.5080092e-06,4.313946e-07,-2.1634614e-06,-1.1706909e-08,3.4369602e-08,3.564794e-07,3.018536e-10,-3.8730472e-10,-9.713295e-11,3.7112126e-11,-1.2660027e-08,4.2345473e-08,-1.58024e-10,-1.2723714e-10,1.2133625e-10,-0.0018668686,0.000424035,-0.0012387623,-0.0021796646,0.0003426434,0.0004676429,-0.00094255817,0.0013520012,0.0016248388,-0.00012154603,3.6295296e-07,-1.6966877e-05,-0.002291163,-0.00010695933,0.0004660559,-9.259478e-05,-0.000779507,-0.00060374296,0.0004948857,0.00020527582,-0.00023037591,0.00016938368,0.00011640966,-0.00033013147,3.549365e-05,-0.0003492998,0.0006160133,-0.022367353,0.01402482,-0.0325914,-0.014305298,-0.024402775,-0.036869846,-0.03352225,-0.021684129,-0.02670871,0.00035724815,0.0010888313,-0.003021021,0.0014883901,-0.0020501511,-0.0028498427,0.0015442797,0.0039718044,-0.0019303956,0.005348737,7.541227e-05,-0.016837914,0.00018669131,-0.00028140232,-0.006364583,-0.011634694,-0.015814241,0.011188681,-0.021804562,-0.0053285374,0.0061500836,-0.010116413,-0.006505093,-0.023088088,-0.0036618784,-0.021559834,-0.027950944,-0.009198359,-0.0015675125,-0.021857752,-0.008310149,0.002904782,-0.0032986072,-0.008672434,0.0067216326,0.010307269,-0.00020623713,0.00136373,0.0020895551,-0.0033313448,-0.00039162167,-0.002386849,0.0022497764,0.0019291993,-5.0568844e-05,-0.0069640055,-0.010773142,-0.001816174,-0.0061364044,-0.006686028,-0.00041928657,-0.0028417844,0.0004591316,-0.00030675813,0.009534262,-0.009287318,-0.01810425,-0.0069173924,-0.035991322,0.0011079902,-0.02311402,-0.009645639,-0.005308826,-0.030788984,-0.02786215,-0.036208734,-0.030914571,-0.01426234,-0.020710543,-0.0062560407,0.006900726,0.0034660348,-5.3215284e-28,5.2937645e-29,-1.5991154e-30,-1.2625205e-27,3.530247e-19,1.4599551e-23,-1.1563278e-30,1.03586326e-20,7.346337e-25,0.00048210262,0.0009460648,0.0024969005,-0.0007030365,0.002468015,0.0020940679,-0.0007811269,0.0015847255,0.0024024877,0.010988467,-0.0022394483,-0.0121166995,-0.008242821,-0.010610964,0.0013123233,-0.0056568678,0.0045933244,0.0047845608,-0.028189505,-0.030036798,-0.012709889,-0.015667738,-0.016923426,-0.026301507,-0.0029031057,-0.0015176643,0.008384304,-0.0064758463,0.0017709378,-0.006266723,-0.007936827,0.004708577,-0.007959606,-0.0036622486,-0.0045091696,0.0115499925,0.0037237932,0.0056042285,0.0035668898,0.0041394737,0.0063491375,0.0067945477,0.003657708,0.004252139,0.004342489,0.0019005663,-0.00044273282,0.008132788,0.00020134108,0.009169429,-0.0016053461,0.004804519,-0.0005356697,0.00750574,2.5713962e-07,7.7091727e-07,-4.8065467e-06,4.21553e-07,0.0015128119,2.5396116e-06,-1.0241637e-06,5.802118e-07,-3.8933976e-09,5.1085076e-06,-8.573503e-05,3.515721e-06,-7.0205286e-05,-0.00022412687,5.6176414e-05,-8.4019814e-07,0.00047664615,-5.550941e-05,0.0002677158,0.0012928365,-0.0005644754,0.00045466726,0.0009826934,0.00024552527,-0.00017308904,0.005628955,0.00091303984,-0.03134433,-0.028754694,-0.005658564,-0.033637587,-0.027108165,-0.016787868,-0.03542369,-0.01716886,-0.029380746,-0.0025924533,3.7256978e-06,-0.0017736686,-0.0024183423,-0.0035714584,0.00012151916,0.0009970061,-2.5570305e-05,-0.000542875,0.004475036,-0.0073805978,-0.021946399,0.006113635,-0.0050411047,0.02041991,0.035097,0.006651615,0.008898612,-0.00071343326,0.0007040081,0.000955357,-0.0033208323,-0.0035073832,-0.0017515568,-0.0033159906,-0.000745863,-0.00072072155,5.6170793e-05,0.00012483235,0.002116469,-5.952186e-05,0.0008214515,0.0023864594,-0.000503563,5.2433825e-05,0.00014881104,-0.0004049931,-0.00017714055,9.905896e-07,0.00055932405,-9.286694e-07,-2.8747627e-05,7.796655e-06,-1.7781544e-05,-0.000100463956,-0.0070554893,-0.0020164638,-0.0029246958,0.0032585354,-0.004146139,-0.0008539582,0.0017926234,0.004695062,0.0024246918,-0.0003524719,2.7028946e-05,-5.4047458e-05,-3.4764875e-05,0.0005735859,0.0017610147,0.0011333013,0.0005868911,-0.00075140025,-0.0019114441,-0.005550283,0.0012132897,-0.014264414,-0.0053170696,-0.00064804335,-0.003124399,0.0005190944,-0.000279124,9.654121e-12,7.9571016e-11,4.5462727e-11,1.2803942e-09,-1.6392332e-11,-5.9029244e-09,2.8705738e-12,-2.8771813e-10,2.3803685e-07,-0.0405809,-0.019756682,-0.008419759,-0.016118832,0.0045807147,-0.021693151,-0.007905609,-0.030226082,-0.013688227,-0.002931784,-0.005171858,0.0014716636,-0.0010919583,0.004728423,-0.001004661,-0.0009688161,-0.001365413,-0.004196585,-0.007567186,-0.04015088,-0.03523876,-0.03228508,-0.035048462,-0.015626725,-0.05606325,-0.008713035,-0.009602247,-0.00046196638,-0.000180497,-0.00021434025,-0.0009958467,-0.00076610415,-0.00017838953,-0.0010273654,-0.0013510471,4.4649525e-05,0.008937501,-0.033139553,-0.006524677,-0.010281926,6.538116e-05,-0.011114681,0.0071722143,0.022313332,0.006581625,-0.02145594,0.0056516174,-0.016178956,-0.047153566,0.003754203,-0.01680462,-0.0038303728,-0.011443642,0.038750567,0.0044791824,-0.0047361907,-0.002833698,-0.011849599,0.0045880303,-0.0066620973,-0.013689373,-0.0116796885,-0.013975571,-0.0031235018,0.0133976415,-0.00016605108,-0.03772631,0.010420295,-0.012214103,-0.0029276062,-0.0077700475,0.020209864,-0.00028667774,-0.00011164218,-0.0011343329,-0.00051062345,0.0003563601,-0.00036318027,-2.7126933e-05,0.00097444985,-0.0029294875,-0.002148015,-0.009944051,-0.00089051714,0.0031478812,-0.0029616903,-0.0030916599,-0.003302677,-0.0057427194,-0.0040809596,-0.061404582,-0.047436506,-0.040877897,-0.037581053,-0.048927657,-0.058230646,-0.080528066,-0.036058445,-0.07781078,-0.017454606,-0.030437447,-0.013955148,-0.028279088,-0.004028671,-0.009907236,-0.038561568,-0.0065756817,-0.026731774,-0.030061394,-0.028197294,-0.009328161,-0.01351542,-0.011799428,-0.014134166,0.0012298016,-0.015295039,-0.010658116,0.0049868147,-0.00076031743,-0.0010734043,-0.013085374,-0.006136094,0.005158938,0.0014977345,0.00048377085,0.0016721769,3.1616934e-24,2.6396233e-18,-1.4738032e-12,6.0726503e-19,3.822249e-15,3.6910036e-20,2.5045926e-21,-1.5499889e-33,1.221828e-16,0.000115680836,-9.673847e-05,9.53352e-05,0.00012210867,-0.00016542547,7.8377234e-05,0.00019831047,8.893085e-05,0.00015302165,1.0142365e-11,-1.07130404e-07,-3.232613e-08,8.1837e-08,-4.1147564e-07,-2.0236742e-08,-2.9184747e-07,-4.717298e-07,-3.636191e-06,9.185889e-21,-2.4701863e-13,-2.2773744e-21,-1.1503019e-15,-2.2230572e-15,-1.6044126e-11,-9.095841e-10,-1.7138347e-17,-3.5070173e-09,0.00069255685,0.0061950614,0.0030781857,0.0045054555,-0.0013372423,-0.006530064,-0.0017310398,0.0028673217,0.0031767208,-1.261843e-08,1.0143398e-09,-3.5419667e-10,1.7494625e-14,8.864892e-08,-3.5431924e-07,3.7350465e-09,3.047026e-06,1.0660752e-05,-4.79629e-32,-2.7238962e-28,-1.1601178e-28,5.960137e-30,-3.4122466e-35,-5.309158e-39,-1.532798e-39,1.264329e-39,2.864592e-39,-0.0008932627,-0.00042692234,-0.0030871185,-0.00016359461,0.00021631159,0.0015148517,0.003440277,0.0016977299,-0.0005990216,-0.05762794,0.0047084675,-0.021929808,-0.004655131,0.0025879918,0.02516787,-0.06671308,-0.06827251,0.016899696
0.0026715088,0.0012187593,0.001042929,-0.00019097526,0.0017483361,0.0021578912,0.000815854,0.0005838278,0.0007812925,0.01838647,0.002887515,-0.008802905,0.02125759,0.016463881,0.017796488,-0.014158644,-0.010028029,-0.0030066771,0.002239001,1.0141739e-05,0.00043641616,0.015524395,0.008591234,0.014594012,0.026478574,0.015054321,-0.004104417,-0.00023728912,0.002248374,0.00067412097,-0.0009176342,-0.00027986954,-0.0017302892,-0.0031734474,-0.00022233248,-0.002469559,-0.00039639702,-0.013316127,-0.006864715,0.006748689,-0.014521931,-0.016895173,0.011250169,-2.5368063e-06,-0.010945234,-0.0021807612,-0.009724614,0.0058353655,-0.06477125,-0.025923451,-0.028604116,-0.092038214,-0.0064552645,-0.0055668815,0.00022436988,-0.0011547764,0.00038746395,-0.0004319012,0.00060763524,0.0002056033,-9.295874e-05,-0.0010589319,-0.0011537756,-4.4505163e-05,2.198868e-05,3.5001976e-05,-1.4481142e-05,-1.6152084e-06,-3.6288628e-05,7.609007e-06,0.000100704136,-8.155092e-05,4.5172102e-10,-2.0072912e-08,-6.9731393e-10,1.7595753e-09,1.1947332e-08,-7.466752e-09,-2.8665192e-10,1.3345678e-09,-7.90434e-09,-0.0031550047,-0.003443716,-0.0015434142,-0.0031959715,0.01115754,-0.006321939,0.0018296385,-0.00518089,-0.0017379925,-0.00042765093,-0.0013171544,0.00050598936,-0.00631873,-0.0050651054,-0.0034330357,-0.0018751996,-0.004070197,-0.0011490383,1.4732501e-05,0.00038391133,-0.00017620237,-0.001317877,-0.0006253207,-0.0007607841,6.9546746e-05,0.0003826997,-0.0007010076,-0.0389304,-0.04856477,-0.024871187,0.017607084,-0.010494224,0.022881124,0.013080662,0.03740884,0.021195188,0.014577875,-0.009066323,-0.004952519,0.002418105,-0.0066733332,-0.011261106,0.020018086,-0.010530084,-0.014561318,0.014749055,0.025638813,0.0237168,-0.013855351,-0.02690126,-0.0045726886,0.012618704,-0.0283163,-0.0045393836,-0.008920659,-0.027339375,-0.024643192,0.0020895128,-0.002825076,0.016158056,-0.022899244,-0.0026825727,0.020851672,0.025491664,0.021897545,0.000936595,0.010511295,-0.02593722,0.008403297,0.046771027,-0.02172783,-0.015848666,0.009811344,0.015778804,-0.002434897,0.011444289,0.00696933,0.0023303088,-0.006236213,0.0016895822,-0.004019351,0.030260352,0.0008426192,-0.025911622,0.01312739,0.001283305,-0.019042656,-0.0040743886,-0.0035428472,-0.003507251,0.11442331,-0.007933309,0.013592667,-0.00044817393,-0.06885529,-0.052601513,0.04662585,-0.036255438,-0.033111837,0.007880843,0.011739986,0.0062241633,-0.046666138,-0.069062285,-0.047999956,0.034107324,-0.0329571,0.051247388,-3.379579e-39,5.84183e-40,5.901791e-39,-3.2106562e-35,-4.83805e-40,1.0153118e-38,-2.77567e-35,5.19761e-40,2.550027e-39,-0.0022824584,-0.00510195,-0.013889889,-0.005993722,-0.0036806278,-0.014384425,-0.01234377,-0.014998637,-0.013902533,0.05235145,0.009484509,-0.005823851,0.024624037,0.025841987,-0.011994651,-0.0027028702,0.037798233,0.0057146284,0.038276494,0.017063422,0.026513724,-0.034433376,-0.05469145,-0.0919757,-0.02429153,-0.03316307,-0.017066505,0.036206357,0.029374717,0.005075644,0.011715018,-0.015111714,-0.021346265,0.06170149,0.038600523,0.029814258,0.00040525314,-0.0009829841,-0.013505939,-0.009260965,-0.0038849583,-0.014086084,-0.02200716,-0.018034015,-0.020483673,-0.004325358,0.0034058972,-0.009289239,-0.007454538,-0.008997628,-0.014758991,0.0070005306,-0.026203874,-0.03976225,-1.2945821e-05,-3.4378754e-05,1.957967e-06,5.3983003e-06,8.0927784e-05,3.378991e-05,2.2459471e-05,1.7635333e-05,-5.050344e-06,0.00016959023,0.00023616785,0.00046402487,-2.5366471e-06,6.2836625e-05,4.3759792e-05,-0.00018254927,4.8999726e-05,-0.00029975816,0.0062753046,0.008227466,0.0019728844,0.002473769,0.006765548,-0.0006380464,-0.0025719856,0.00882075,-0.0029660515,0.048602857,0.0062715486,0.024579462,0.088260084,0.0425972,0.032276716,0.09895325,0.043221507,0.021471709,0.00626865,0.00069638854,0.0035539893,-0.0027422456,-0.0021152524,0.00036336167,-0.004008013,-0.002163908,-0.007942155,0.12517914,-0.013460178,-0.024737027,0.029162958,-0.020012487,-0.07633756,-0.026279785,-0.0034525304,-0.03584967,-0.004677936,-0.009680274,0.0054331855,-0.011105625,-0.008598345,-0.0039925594,-0.012610607,-0.0031394477,0.002039065,-0.0013122715,-0.0007144898,6.918905e-05,0.00056342746,-0.0007434543,5.7081736e-05,-0.00080307206,-0.0023946979,-0.0005123,0.00028431937,-0.00058315654,-2.0626074e-05,0.0007846897,-0.0011396739,-0.00035027304,0.0015930336,-0.0017916332,0.00025245486,0.04658534,0.014254248,0.014718473,0.032185826,-0.0028511218,-0.007358986,0.040950492,0.003120866,-0.0077835224,-0.0041267984,0.0018285654,-0.0038510277,-0.006054755,0.004715836,-0.010131032,0.0014280875,-0.0003096433,-0.0013623316,0.0122171985,-0.006473758,-0.017215189,-0.0003394079,-0.011402831,-0.011576311,-0.0066162855,-0.008654228,-0.00236927,2.946315e-09,-1.0075094e-08,-8.766126e-09,1.3010565e-10,5.366109e-10,-8.9281077e-10,5.166606e-10,-2.1611996e-10,-7.1002493e-09,0.0001231613,0.013098173,-0.04950573,0.00010113767,-0.019790765,-0.057364285,-0.0064107534,-0.034317054,-0.052223608,-0.0037284943,-0.0028132785,-0.0012027294,0.011919761,0.0024929056,0.0049369372,0.014092028,-0.0049677277,0.009574463,0.025806157,0.014829334,0.04077982,-0.07374176,-0.059488684,-0.04863937,-0.08762032,-0.082854204,-0.08245199,0.00046884525,0.0015221172,0.00030934656,0.0033654096,0.002427226,0.0014191179,-0.0022217075,-0.0009886689,-0.0008815363,0.018904475,-0.014368495,0.0037154413,0.04497205,0.0060770125,0.012562743,-0.008903105,0.014934534,0.0231863,-0.0011656149,-0.013947028,-0.0355293,-0.016348261,-0.017173246,-0.059446525,0.033857442,-0.052185338,-0.027288187,0.041371465,0.005151556,-0.016946327,-0.00025326954,0.0010105962,0.00063535094,0.022313198,0.009153217,0.004026375,-0.017148504,-0.020604916,-0.006464035,-0.04877558,-0.044933584,-0.0066388394,0.026078543,-0.026480507,0.06976017,0.00025137453,-0.0017778418,-0.0009735279,0.0034765892,-0.0011249101,0.000671411,0.0004146462,-0.0010402302,-0.002910317,0.013326654,0.02634932,0.019872338,-0.02418689,0.015461323,-0.018256035,-0.04862133,-0.03372213,0.0033662114,0.16470835,0.040472675,0.046536524,0.02792045,0.012739653,-0.06292839,-0.010161255,-0.0032106382,-0.075067475,0.18398735,0.011693697,0.026233727,0.10440656,0.023940325,-0.080417715,0.06476035,0.026644457,-0.039161026,-0.006749231,-0.016770378,-0.0086392015,0.06303207,0.038844757,0.056183953,0.07309602,0.0014660797,0.013378733,0.0028708118,0.014283801,-0.018566582,0.019315671,-0.009415268,-0.013464643,0.041524503,0.04868159,0.04551234,-5.2302436e-24,5.348462e-27,1.8369918e-23,3.684955e-25,2.569027e-25,1.2708871e-25,-1.8726577e-32,1.4206341e-27,-6.399509e-31,0.00027259503,0.00015117989,-0.0003455424,-0.0001987569,0.00012267941,0.00012489338,-0.00059565593,0.0001732236,-0.00021144279,-2.7081426e-06,9.534408e-06,6.241878e-05,-3.100313e-05,1.8643084e-05,1.936728e-05,-4.227084e-06,2.6515456e-06,2.1366084e-06,1.6426874e-11,3.416681e-13,4.4614578e-13,7.5067405e-13,-6.1467335e-13,-4.913143e-15,-4.3375877e-13,-1.10706765e-11,9.080394e-12,-0.0023430984,0.0039662826,-0.035577137,0.008790602,0.009576025,-0.042626258,-0.004291059,-0.019672068,-0.028942995,-4.51794e-08,-3.9001435e-08,8.278226e-09,-1.4518207e-07,-5.6496123e-09,-6.101662e-08,2.559174e-08,-9.708405e-10,-5.3394924e-09,7.462563e-30,-1.9999306e-28,5.08041e-35,5.1846358e-30,-1.8103697e-26,-1.0219702e-32,-2.695696e-32,-3.0466007e-28,-7.127181e-35,-0.020821216,-0.030476164,-0.0038154637,-0.008691719,-0.016006561,-0.009897364,-0.006954859,-0.014718273,-0.013492647,0.037648477,0.02534772,-0.008659906,0.02608046,-0.023680141,-0.05534142,0.06323737,-0.03719749,-0.08879713
0.0015489026,0.00057905965,-0.0047298707,0.005103649,0.0027824265,0.007976178,-0.0022931467,0.00034717022,-0.0037017202,-0.007651629,0.00014292463,0.002916525,0.0032814578,0.040082496,-0.015337249,0.009874957,0.07728037,-0.0012235111,0.040126882,-0.024033803,0.05283484,0.021984737,0.01475277,0.014070649,-0.016562369,0.051829454,0.013515834,0.0035062144,0.01786625,0.0025888234,-0.002272427,-0.0065108533,0.0008647155,-0.004174849,-0.006326187,0.009038647,-0.0049091615,-0.0103050675,0.0026126709,-0.0005315214,0.013890609,0.00065205694,-0.013810104,-0.003335553,0.006635101,-0.052429035,0.03815949,-0.030078344,0.012637722,0.062090244,-0.046874173,0.044454746,-0.009611336,0.023513762,0.007914582,0.0034584713,0.0050649415,0.005482421,-0.0033903362,0.005196264,-0.0015174431,0.0022082194,0.002993092,-0.00035161173,-0.00081879756,-0.0006428136,-9.7416225e-05,-0.00027382074,-0.0011456115,8.438695e-06,-6.566797e-05,-0.0007818404,2.0963384e-07,9.657942e-08,6.3757043e-06,5.555797e-07,3.4670256e-06,-3.0388985e-06,1.363471e-06,1.4598596e-07,-3.482273e-06,-0.0033107304,-0.013192012,-0.018312017,0.008710121,0.0099860355,0.013259422,-0.01290172,0.03139454,0.028477995,0.019128796,-0.0010031683,0.0009950662,0.011254375,-0.0016594076,-0.00017222221,-0.004021334,0.0015269064,0.0047772927,-0.001457422,-0.00046894996,-8.172358e-05,0.001360221,0.0024030483,-0.0009890029,0.003419388,0.0012880986,-0.00084358896,-0.032590456,0.027838416,-0.015794884,-0.06632808,-0.041232184,0.05259503,0.0048939004,0.00034847407,-0.058766503,0.003740263,0.027035395,0.02350043,-0.0058443476,-0.0040258216,-0.020090178,0.041891064,0.03297539,0.022830758,-0.023280786,-0.007970309,0.01092775,-0.0030495236,0.09320809,-0.020741554,0.013295276,0.06696401,-0.020664891,0.030506792,-0.02380011,-0.03808733,0.08900785,-0.062142793,0.022553679,-0.014790811,-0.053573035,0.046496335,0.041808862,-0.02434151,0.108215235,0.0017762037,0.037163153,0.07004211,0.033746317,0.046038434,0.025600411,0.008370171,-0.0011221017,-0.027221827,0.0074915653,0.0073402305,-0.003592701,-0.004217358,-0.01538433,0.005506992,-0.03341803,-0.003743941,-0.028729979,0.007951585,-0.0023227192,0.007877142,-0.028926533,0.03564337,-0.002926856,-0.079580635,0.16041808,-0.089072764,-0.020231755,0.04959587,-0.03233686,-0.0032992058,0.023573995,-0.027284535,0.123273306,0.033535473,0.14419231,-0.033633716,-0.08993985,0.06167078,0.07458311,0.021303486,0.073378034,-3.9929618e-16,-3.7657592e-16,-3.4456224e-13,-1.0553533e-13,1.6611297e-11,1.3914499e-12,-9.101445e-15,-1.2581252e-15,-1.8296946e-18,-0.007824869,-0.0034115014,-0.009753833,0.010400228,0.0029636864,-0.0107590845,0.0014050325,0.0022184614,-0.0039061802,-0.020906262,-0.0056263297,0.032087345,-0.013367307,0.09529372,-0.03540972,0.012391207,-0.0012050031,-0.02720483,0.055586156,0.02368864,0.09102392,0.03380824,-0.07735532,-0.033288687,-0.042990573,0.018186644,0.01397544,0.05240839,-0.025644807,0.052017245,-0.021936154,0.009623614,0.025739405,-0.024860099,0.009556061,0.012854887,0.009182549,0.011300998,0.012199314,-0.0019923607,0.0016942399,0.0021161146,-0.008289997,-0.012410804,0.00027839286,0.017673628,0.037587963,0.07530339,0.028080955,-0.01891547,0.009363125,0.010251127,-0.009232001,0.00303266,2.2438699e-05,0.0024436389,1.0194718e-05,-6.5751075e-05,0.0031740123,-0.00011869836,-0.00014480403,0.00018860179,0.00036027117,0.00037806685,0.004881395,-0.00086106727,0.0009183016,0.0054054614,0.00012239798,0.014148115,-0.007525747,-0.0013791547,0.006246294,0.005186772,0.006371145,0.0022307434,0.0019024308,-0.00067110255,0.027475778,0.018645598,-0.0076428987,-0.004478517,-0.0073109833,-0.015402648,0.013207912,0.015684875,0.01805554,-0.04706777,0.0054132193,-0.008700677,0.0049315956,0.008590949,0.022820754,0.0016154486,0.011956386,-0.017365344,-0.011752851,0.009074466,0.0063716313,-0.04367467,0.05089613,0.0069138035,0.075353146,0.022928342,-0.11278209,0.10668908,0.02738905,0.03599077,-0.0033154434,-0.013346616,-0.013931359,0.0022777712,-0.0152491955,-0.0017300108,-0.023485595,-0.002189412,-0.008806884,0.003215027,0.00050703605,0.0021441889,0.0022859583,5.4026525e-05,0.0006323246,0.004231647,-0.0018380379,-6.135933e-06,0.004125381,0.0011918803,-0.0020869314,0.0026645293,-0.0012799905,-0.0024183402,0.0005032386,-0.012121626,-0.014673449,0.0048710913,0.018170476,0.07186878,-0.0057057776,0.0042628604,0.037424225,0.0028771989,0.028135972,0.0142127555,0.009480482,0.007286387,0.02129211,-0.00013307587,-0.00848087,-0.020123787,0.008181052,0.01653113,0.00038604,-0.025965393,-0.019273132,-0.026520528,0.027199097,-0.022304319,-0.004628146,-0.011086622,-0.004891505,0.035014633,4.3208405e-07,2.4432308e-07,1.10249836e-07,-4.658984e-07,-8.834682e-07,-1.3901225e-05,3.518137e-07,8.1673136e-07,1.7572862e-05,0.031996034,-0.03130825,0.12154339,0.025739387,0.007523586,0.025748732,-0.03513003,0.07181002,0.03278709,-0.0018193133,0.01493676,-0.010688928,0.012190718,0.034506436,0.014079004,-0.00667327,-0.014546388,-0.021991452,-0.060259942,0.04776331,0.09137145,0.0147069935,0.07101945,0.008342546,-0.029083187,-0.03977575,-0.030164143,-0.009353067,-0.01183422,-0.0087241065,-0.00368306,-0.0035441145,-0.0062811,0.00462072,-0.0057522343,-0.0020113417,-0.048528194,-0.06730288,0.023109797,-0.0072822585,0.014121616,0.16570215,0.06918739,0.04668182,-0.03624067,0.03263655,0.011416144,-0.011415538,-0.011562763,-0.06376088,-0.009938149,0.034599334,-0.053158265,0.036147803,0.003266679,0.03948311,-0.041060153,0.0024294034,0.06338632,0.039391734,-0.009666752,-0.031134821,0.025413657,0.11762127,-0.025038857,-0.10045135,0.062585905,-0.047801748,0.015326862,0.012681622,-0.011178082,0.023611443,0.007972091,0.004389474,0.023654485,0.012790574,0.0013697343,0.01515448,-0.00029886927,-0.00043548556,0.01886219,0.046662107,-0.037688147,-0.0020255689,-0.006370043,-0.016606614,-0.011570364,-0.043930575,-0.0022028186,0.04432545,-0.07286153,0.14382307,0.032191157,0.02414414,0.05561943,0.0012416956,-0.020932531,0.01979694,0.04305944,-0.10367283,0.14138366,-0.04157928,0.03542997,-0.06367851,-0.063541874,0.08671635,0.002263202,-0.016624767,0.03776753,0.059530295,0.05365867,-0.0071634734,-0.010556401,0.01181421,0.026384057,-0.027011773,0.017736647,0.026925365,0.06664346,-0.02724531,0.011399271,0.03619246,0.008654891,0.010505235,-0.021268604,0.011933954,3.287874e-10,3.209451e-10,-9.326463e-09,1.3620341e-10,1.1936042e-09,-1.4300832e-12,-9.455564e-18,2.333529e-12,-4.1274115e-12,-0.00062922953,0.0019902831,-0.00013158085,0.0031883144,1.1979846e-05,-0.00027371667,0.0066081015,0.00081610144,-0.00051539514,-0.00023806578,-0.00034429217,-0.00038499502,-0.00022473962,-7.581882e-05,-0.00015657011,-0.00046961274,0.00020187824,0.001291628,-6.308433e-09,-2.0417632e-08,-1.018187e-09,2.6037978e-07,-1.6863296e-06,-1.0585118e-06,1.8618677e-05,5.2188984e-06,2.2346872e-07,0.023335027,-0.009202953,-0.010691588,0.01072671,0.08913159,0.029132849,0.026610892,0.051282573,-0.024025006,-6.657973e-05,4.9890323e-06,2.0627322e-05,-2.711694e-06,-6.38046e-05,-3.967808e-05,-4.0422954e-05,3.7952243e-05,-4.057975e-06,3.9973154e-13,1.6653523e-14,1.641279e-14,7.2025164e-17,4.007441e-14,5.997973e-15,3.666272e-15,7.974278e-13,8.059665e-13,-0.028376427,-0.040837035,-0.029040026,0.0043009953,-0.010094835,-0.02220516,-0.0077107185,-0.0004101098,0.013334709,0.005948481,-0.0016555439,0.049457636,0.08187376,0.057219867,-0.09919475,0.0036505614,0.012757568,-0.0075970185
-2.3530267e-05,-0.0007766148,-5.680917e-05,0.00021639443,0.00012229323,-3.0371117e-05,0.00013685475,0.00016006803,-0.00033665422,-0.020953575,-0.03537842,0.014193067,-0.020449981,0.003568822,0.0073379553,-0.0070262295,-0.0072812694,-0.021211231,0.0042155734,0.004162558,0.00034040122,-0.0033834744,-0.0040450837,-0.003897744,0.0019069479,-0.003599061,0.0026145466,0.003276148,0.002387438,-0.0003054892,0.0006302651,-0.0014584933,-0.0035537004,-0.0027158905,-0.0064013754,-0.006711489,-0.0024972023,-0.001764148,-0.003316498,-0.005536688,-0.0026020291,0.004112078,0.0045812065,-0.0052473787,-0.0021576064,-0.034977514,-0.018965418,-0.0012757166,0.0022329704,-0.009432241,-0.005699284,0.03079072,-0.006278692,-0.039608948,0.00015308308,0.0017423296,-0.00014253586,0.0002225478,0.001699421,-4.8117054e-06,7.53859e-05,0.00025699896,-0.0008194617,3.0239405e-06,-1.619666e-05,-6.977985e-05,6.3559596e-06,-2.9994288e-07,-1.1907388e-05,1.0668863e-05,-4.4158264e-07,2.5223796e-06,-1.8440929e-09,1.9435425e-10,-8.625808e-09,-3.341169e-09,-3.827948e-08,-1.7952985e-08,-1.6213182e-11,-2.268216e-09,-5.0089653e-08,-0.008770752,-0.008034779,-0.0053135916,-0.0035038863,-0.009331436,-0.0035413268,-0.0063160313,0.0008099492,-0.0010195002,-0.0016875518,-0.0016805626,-1.1235392e-05,-0.0011302952,-0.0008292501,-0.000665508,-0.0021748564,-0.0024009934,-0.0008712424,-7.44464e-05,0.00030334777,0.00025568463,0.00016276137,0.00092063285,0.00021324988,0.0003281723,0.0004613596,4.204284e-05,-0.0077549396,-0.009937226,-0.015642567,-0.015193393,0.0071600103,0.029175429,0.010044552,0.016347097,-0.03205552,0.0022297231,-0.00013217774,0.0010526367,-0.0050041145,-0.00067703344,-0.005617826,-0.003025025,-0.0017417436,-0.0031629482,0.008775785,-0.00348348,-0.0040548714,-0.015768735,-0.012347239,-0.013332002,-0.005528319,-0.008382987,-0.014494819,-0.0073646815,-0.0017827875,-0.013610103,-0.0029668561,-0.027849853,0.00039773062,-0.016788043,-0.01961092,-0.0045740125,0.009935353,-0.014601548,0.00054579595,-0.009889616,0.015982421,-0.022365414,0.00025485188,0.014602104,-0.0036837843,0.0004626654,-0.001519648,0.0017702054,-0.0023054015,-0.0030941851,-0.0014825332,-0.0006248347,-0.002531274,-0.0031368115,-0.019210346,-0.0072179963,0.0013946989,-0.022706814,-0.006699049,-0.0027107648,-0.015471537,-0.011801983,-0.007291026,-0.005014704,0.0002637095,-0.032426566,-0.025996314,-0.02385505,-0.037954845,-0.02153708,-0.023885036,-0.036826707,-0.01111612,-0.037659645,-0.04516117,-0.041431073,-0.053510163,0.002497655,-0.022694917,-0.0048491047,-0.001518456,1.6459819e-21,1.1482347e-20,4.828216e-24,4.6624387e-19,-1.28884e-17,-6.3266755e-28,8.2840354e-23,3.183139e-24,-6.587588e-27,-0.008994188,-0.002281692,-0.0009210686,0.002808122,-0.0012142129,-0.0019116083,-0.0061556315,-0.005250897,-0.006496982,-0.021931337,-0.0078224195,0.011013267,-0.008231295,0.010566772,-0.0003152684,-0.0013599447,-0.009026211,0.0017851697,-0.007446473,-0.01715834,-0.01650634,-0.020068504,-0.033833385,-0.011381426,-0.005585362,-0.024596892,-0.021472923,0.001208852,-0.008315244,-0.007872093,-0.009352121,-0.0017960367,-0.012765472,0.010924745,0.0026152455,-0.008326512,-0.002350762,0.0015349647,0.0016323434,-0.0014583395,-0.0024632462,-0.0021131528,0.0013860918,-8.948217e-05,-7.926683e-06,-0.0028009627,0.026969614,-0.0089218095,0.0061907195,0.0031176195,-0.016675431,-0.010711707,-0.014849524,-0.03193187,-6.120884e-07,-2.4226827e-06,9.812898e-07,5.338484e-06,2.3468604e-06,-4.2525994e-07,1.5299049e-05,-9.72644e-06,4.3427055e-05,-0.00013409939,-2.9596897e-05,-2.0727706e-05,3.4115325e-05,8.756379e-06,3.1283514e-06,-0.00010715545,-0.00029611625,-5.143664e-05,-0.0006114799,-0.0018733258,-0.0014307548,-0.00084053655,-0.0035104633,0.000509763,0.00018384887,-0.002933401,-0.0004240417,-0.057332456,-0.027594723,-0.04162921,-0.012267566,-0.017272307,-0.008914282,0.018070627,-0.01471258,-0.044966802,-0.0026703381,-0.0053692907,-0.00022082457,-0.002525347,-0.0035153641,-0.0025192918,0.00042446976,-0.002166624,-0.0009963901,-0.020784793,0.0020022185,-0.010542455,-0.026667008,-0.037981197,-0.039926928,-0.002551767,-0.027883278,0.02094333,-0.0032511794,0.000184834,0.0009585318,-0.0052029965,-0.0040931515,-0.00034101174,-0.0031630718,-0.009473968,-0.006352324,-4.2433876e-05,0.0003835285,0.0011511538,0.00043981257,-0.00013744025,-0.0001940472,0.0007078747,0.0006835444,0.0010834662,-0.00021268966,-0.00051526213,4.7055535e-05,-0.00012559675,-2.5939135e-05,6.572968e-05,-6.664691e-07,-0.00016916015,-0.00023496516,-0.002108198,-0.013256394,-0.0071466635,-0.0053611905,0.0067601628,-0.009256864,-0.0056642466,0.0015284722,-0.0010284437,0.0017833052,0.0013876625,0.0011003993,-0.00021126858,-0.0025907864,0.0015538157,-0.0028111306,0.00035828506,-0.00027636217,-0.0016355317,-0.01055844,-0.005988017,-0.016246332,-0.014849314,0.00332404,-0.013135603,-0.01545117,-0.004760721,-6.9848284e-08,2.0439176e-08,4.874583e-08,-2.6919304e-07,-2.9518858e-07,4.140047e-08,-1.1958492e-08,1.3799452e-06,7.060448e-08,-0.009979278,0.010961596,0.03359897,0.0213001,-0.02502468,-0.019654924,-0.014592347,0.004937994,-0.052628938,-0.009494106,0.013079835,0.0055120843,-0.002118121,0.01395272,0.0014027877,-0.0026726115,-0.009545553,-0.009993053,-0.019929875,-0.02517272,-0.0086310655,-0.01576899,-0.014674902,-0.07328052,-0.0043507027,-0.011785754,-0.05003353,-0.0024850995,-0.0019785378,0.00072706817,-0.0038189718,-0.002889287,-0.0006257061,-0.0018768323,-0.0034242647,-0.0010755692,-0.02140978,0.006300057,0.005149542,-0.021965375,0.025760174,0.0130222235,0.009053006,0.045311492,-0.010808193,-0.008933753,0.004140994,-0.026075853,0.010551972,-0.01922097,-0.0021126159,-0.018182939,-0.01681687,-0.012831593,-0.021765621,-0.00452486,-0.010650145,-0.008439522,-0.003991718,-0.0132720675,-0.005923798,-0.015279289,0.00096018537,-0.0013167127,-0.032538842,-0.043268424,-0.0036534294,-0.0033999695,0.0031554585,0.0017589984,-0.025802923,0.014015992,-0.0013730433,0.0005567719,-0.0007928642,0.0009576674,-0.0016873049,-0.0028098545,-0.000664775,0.0017088432,-0.0029460057,-0.012501266,-0.018643714,-0.009738051,-0.019696645,-0.032561842,-0.0116864145,-0.022005795,-0.0021493388,-0.013127641,-0.074599825,-0.013145735,-0.023542985,0.0004268664,-0.0025222749,-0.060361777,0.0059992084,-0.03615693,-0.057515055,-0.0018163216,0.0067509357,-0.03854325,-0.0011638999,-0.010577307,-0.045588456,0.0046093077,0.014588408,0.008821643,-0.020486876,-0.03103228,-0.028988864,0.012454407,8.980949e-05,-0.012407921,-0.01590901,-0.009835862,0.009509235,-0.0010688778,-0.014159257,-0.027776863,-0.0037079565,-0.010275908,-0.010717128,-0.0014826097,-0.0006375379,-0.010329192,-2.1054686e-16,1.3827693e-12,2.2867762e-12,3.29085e-16,6.4331845e-16,8.015594e-18,7.02359e-22,2.3082887e-18,4.5508372e-20,0.000154931,0.00021184768,0.00036281964,0.00020047843,0.00020893515,-7.350312e-05,7.755274e-05,0.00015923835,0.00016043338,-1.8991711e-06,-9.812796e-06,-1.2000489e-05,-1.3976021e-06,-8.5319886e-07,-8.586843e-06,-9.005302e-06,-1.9745863e-05,2.2678834e-05,-1.19622e-16,-8.7431244e-16,1.6652754e-13,8.9444875e-11,1.0632844e-11,-1.3975596e-12,3.9323772e-10,1.4733282e-11,2.1586619e-08,-0.009516045,-0.0052990285,0.004373436,-0.0072790836,-0.0036977315,0.0009174286,0.0041448036,-0.009875457,-0.008129451,-1.6372621e-07,-2.456488e-06,-1.329869e-07,-7.6611826e-07,-7.2618714e-06,-2.3582899e-07,-1.5454441e-05,-5.3648278e-06,-5.998399e-08,1.7480775e-24,-1.4974799e-28,-1.486712e-39,-4.4141706e-29,3.3995214e-30,8.40779e-40,2.2849637e-35,-6.351446e-29,2.0322293e-27,-0.007762279,0.00814401,0.005230002,-0.006318008,-0.012082468,-0.0059905,-0.0076036775,-0.007894131,-0.0017829293,-0.05315041,-0.024822818,-0.0442452,-0.034204133,-0.040304866,-0.07439508,-0.07065309,-0.06792638,-0.030286541
-0.00050119223,0.00027130704,-0.00029468208,0.00013694906,-0.00032446336,0.0016365055,0.0002996002,-0.00017254568,0.00054859597,-0.021209268,0.0033742173,-0.0034620853,0.030792797,-0.03441618,-0.01321326,0.0008949808,0.029071841,-0.006154229,-0.0019939102,0.017554758,0.007948552,0.027076533,0.011450687,0.0014317684,0.007814959,0.016701067,0.013807919,-0.00343195,-0.0014290704,0.00019806116,-0.0011788944,-0.000116441974,-0.0003320695,-0.0025915108,6.270512e-05,-0.00019703522,-0.0034214354,0.00024363866,-0.0043885545,0.0031379552,-0.001328118,-0.0061027026,-0.0015732057,0.001402158,6.9410016e-05,-0.0064277207,-0.012623184,-0.04116785,-0.023120522,-0.019936051,-0.027973747,-0.037241656,-0.008932686,-0.027518773,0.00026562653,-0.0012149191,-7.6850505e-05,0.0004477,-0.0009891096,-3.5420402e-05,0.0001720599,-0.00023054684,-0.0014186042,-8.53366e-08,-4.49896e-09,-9.4371686e-08,7.741097e-09,-7.954903e-06,-1.2881812e-07,-1.272265e-07,-5.573137e-06,-2.6500654e-08,-6.480618e-12,4.747866e-12,-2.0500912e-10,3.6330695e-12,-5.4477234e-12,3.6445968e-12,4.427458e-17,2.4342425e-12,-5.6251045e-12,-7.082075e-05,-0.0026448674,-0.005534371,-0.0022207457,-0.0014357391,0.0054914793,0.0057319393,-0.0010634784,0.004587652,-0.0008442541,-2.885569e-05,0.0011535536,-0.00014704769,-0.0010416078,0.0008283181,-0.0019425569,-0.001415765,0.00062013516,1.3068622e-05,1.2844829e-05,0.00013837026,-0.00038309916,-3.479874e-05,-0.000106450854,0.000275055,3.442174e-05,4.931538e-05,-0.025891097,-0.027354024,-0.035456378,0.022299487,0.013660114,-0.03541757,-0.0066151903,-0.037143096,-0.009592743,0.012758087,0.0013213687,-0.0040757484,0.006417269,0.0035663669,0.007215686,-0.00048840325,0.004886854,-0.006832188,-0.0020864815,0.033633538,-0.011091035,-0.0016964909,0.015869228,-0.00577792,0.028999576,-0.010450597,-0.00045116807,0.0034791979,-0.026373027,-0.006898762,-0.014882479,0.035443623,-0.03522577,0.0073727253,0.022674978,-0.038943205,0.011755246,0.02029571,-0.0027848363,0.04986221,0.022106593,-0.028586432,0.008355579,0.00958215,-0.008134769,-0.0050489274,-0.0053894892,-0.003166541,-0.007486601,0.00337753,-0.00039814197,-0.0014957894,0.0009946716,-0.0029068545,-0.0043309326,-0.003546624,-0.007026795,0.0024291147,0.0032464513,-0.0022678664,-0.0038770798,0.012204505,-0.014384626,0.06415714,-0.016696513,-0.002384126,0.03098558,-0.001839942,0.017568192,-0.022775887,-0.027705934,-0.05711628,-0.00068081776,0.014069361,-0.013463121,0.028534735,0.025579715,-0.04032862,0.02202641,-0.050834965,-0.05995517,-1.2371947e-36,6.28882e-40,1.334138e-39,4.6362403e-38,1.872013e-39,5.390825e-39,-3.49119e-39,-4.793204e-39,1.147142e-39,-0.0035268553,-0.0017541206,-0.00054659107,-0.0040757097,0.0011279489,0.0028182422,-0.003296573,0.0013330121,-0.0006446907,-0.009103796,0.015540906,-0.007324735,0.063258424,-0.016857646,-0.0387291,-0.014648734,0.031523492,-0.001256455,-0.014344869,0.018019978,-0.014114751,1.6756501e-05,0.021326583,-0.03407107,0.003776865,-0.017943501,-0.058677427,-0.014270485,0.029035203,0.012891263,0.008138341,0.008855514,-0.021146605,0.0059282873,-0.0091037685,-0.003393087,0.010459194,0.010495947,0.006862594,0.013361273,0.010150523,0.0073747737,0.0046825726,0.003349546,0.0033327867,0.027546048,0.014799534,-0.009820464,0.00019332254,0.013314742,-0.0039823563,0.04003708,-0.0034850775,-0.011431492,4.0022758e-07,-1.5900558e-05,-3.5200468e-05,-7.4388768e-06,-1.4559511e-05,-5.953628e-06,-4.240874e-06,-0.0025734918,2.4829365e-05,-0.00026708297,-8.665873e-05,0.00013161206,-0.00097572926,2.8579334e-06,5.402308e-05,-1.39844005e-05,0.00015581134,-9.5731875e-06,-0.0035051687,-0.0039181835,-0.0006452399,0.0029981113,-0.0016999154,-0.0048509114,-0.00083396444,-0.00015574667,0.0004988907,0.026406985,0.050636854,-0.0031758156,0.04748187,0.005587893,0.0018538167,-0.0039822953,-0.01769043,0.009122245,-0.0008974098,-0.0029532013,-0.00081171736,0.009528728,-0.0029155111,-0.00027919593,-0.0034813017,0.0036419078,0.0011453386,0.01729732,0.0049932105,0.049333166,0.027910687,-0.009057501,-0.031315234,-0.0069206744,-0.01190096,-0.049328998,-0.00143713,-0.0014903594,-0.0017288584,-0.003117293,0.0010121985,-0.0019466483,-0.0028277133,-0.00045843,0.0007111439,-0.00033206344,0.0006508749,0.00024573167,0.00043738028,0.0006304946,0.00024429552,0.00045859144,-0.0002278157,-0.0012110226,0.00018465289,-0.00013415342,-0.00011208341,-3.485389e-05,0.00046705917,0.00014289773,0.0008131401,-4.7982478e-05,-0.0002333298,-0.004385096,0.016310185,-0.004134136,0.017683918,0.007517898,-0.006546427,0.004903548,0.03188469,-0.0058847014,-0.00060993765,-0.0014977761,-0.0022352757,-0.004236714,0.0021993534,0.004041487,-0.004516368,-0.0013353539,-0.007849257,-0.0044913273,-0.0067140996,-0.011086243,-0.0017932854,-0.0006127845,-0.009809545,-0.0031028974,0.0010536946,-0.011523708,5.787358e-15,-2.390203e-13,-5.5105733e-12,-9.090274e-17,2.119085e-11,-2.4037284e-14,-2.295943e-13,2.8506093e-13,-2.7487826e-15,-0.0006658909,0.045191176,-0.023957903,0.009407307,-0.0018607867,-0.049582794,0.06513511,-0.003802394,-0.025746591,-0.0012865053,-0.0067109363,-0.006199258,-0.003691129,0.0077029727,0.0015747001,0.0032280406,-0.0009091116,-0.005888469,0.025341768,0.002643124,-0.03157069,0.02647656,-0.013893197,-0.015130563,-0.0026902116,-0.015023053,-0.04100791,-0.0012244178,0.000475229,-0.0004639884,-0.0009081307,-0.00029782695,-1.4637992e-05,-0.0012745367,-0.0005806238,-0.0012699433,-0.0052209743,-0.022313315,-0.035557866,-0.010293306,0.004505645,-0.011953658,0.040809702,0.023375617,-0.014964095,0.05398485,0.032290228,-0.02541443,-0.021770317,0.025379986,-0.04257093,0.09345674,-0.0028157982,-0.076835014,0.005023041,-0.002662866,-0.019356713,-0.01745651,0.017771516,-0.015787406,-0.004687387,0.038367637,-0.011031113,0.03067353,-0.010961858,-0.04511742,-0.013740325,0.015408788,-0.03723741,0.05645599,-0.014718456,-0.026662715,-4.0192804e-06,-0.0006664709,6.560505e-05,0.00084142364,-0.0030825883,0.0017401003,7.355191e-05,0.0022891683,0.0012578961,-0.009715842,-0.013539376,-0.00565848,-0.018032394,-0.009372189,-0.0070647374,0.0019664199,-0.007978989,-0.013077709,0.06673113,0.045031,-0.010865055,0.031420223,0.050907325,-0.051360276,-0.0034592203,0.028993014,-0.065748364,0.06757075,-0.0016657481,0.030855132,0.038515266,0.050827257,-0.0016752554,-0.016215824,0.049579635,-0.07000515,0.01483857,0.043188058,0.009089126,-0.0024568518,-0.0120291915,-0.020817643,-0.020376176,0.018899277,0.02151337,-0.003540373,0.010506261,0.005221739,0.019963538,-0.017659195,-0.018895812,-0.005894499,-0.0063931425,-0.011141914,-1.063399e-31,-6.1213593e-38,2.9392104e-34,-1.193513e-39,2.137068e-39,4.608007e-28,-6.240778e-39,2.7711277e-36,-2.051768e-38,-0.00035333075,-0.00044159917,-0.00034841686,-0.00041665926,-0.00030630722,-0.00011622079,-0.0002152375,-0.00015102711,-8.395547e-05,2.658375e-07,4.698118e-08,-2.9001055e-07,-1.6050683e-08,5.233915e-07,-3.4952876e-07,-6.758921e-07,-2.1482376e-06,1.3604472e-07,6.6271e-16,-1.8402937e-17,-1.4427123e-15,2.0796698e-15,-1.1704863e-11,2.2762695e-16,3.3390618e-17,-1.5713696e-12,-4.460351e-19,-0.0024867922,-0.0017369206,-0.014374408,-0.0035636306,-0.0063355803,0.010349151,0.008248648,0.006202417,-0.005098007,-1.6602456e-10,-5.3932667e-09,-1.7744232e-07,-3.215297e-11,-1.17774256e-07,-6.6978174e-08,1.0543725e-07,-4.8534897e-08,-2.393475e-08,-2.88595e-40,-3.510484e-39,5.361109e-39,1.177068e-39,-3.705689e-39,8.44005e-40,-6.46642e-40,4.315167e-39,2.575159e-39,0.0022295231,-0.0015202848,-0.0072197947,-0.005551784,-0.0045428765,0.0053706155,0.0022086732,-0.0022373751,-0.006709849,0.029831199,0.039639216,-0.018237937,0.03200053,-0.022591287,-0.04064018,-0.0190797,-0.047285076,-0.013382825
0.002589811,0.00076290115,0.003519705,0.0020331442,-0.0021340703,0.0024687876,0.00015238594,0.0008075137,-0.00020618412,-0.0137465885,0.03406155,-0.013476073,0.015772406,0.05471988,-0.011238772,0.069447964,0.056935687,-0.045635585,0.009442338,0.018812757,-0.016739532,0.0083585465,0.018011853,-0.0027295216,-0.0038027447,0.014710336,-0.007936592,-0.0030025854,-0.0013587637,0.0035735443,0.00030267265,-0.0006383016,-0.0026387377,0.004240029,-0.004982346,-0.002435456,-0.0052495897,0.0057299463,0.0013175306,-0.0044114646,-0.003668518,-0.002809355,0.0029779137,-0.0033602843,-0.00048235914,0.019520497,0.044837486,0.01317259,0.024079945,0.008337592,0.022766612,0.005609241,-0.036756754,-0.02482156,0.0014744085,0.0012999126,0.0037737926,0.00092481624,0.0024066884,0.00056603306,-7.9837955e-06,0.008506941,-0.00026716245,-4.4309778e-05,-1.120269e-05,1.338112e-06,-4.8920374e-06,8.107631e-06,0.00028038476,-2.6147617e-09,8.627579e-06,0.0003729248,-9.684136e-09,3.3685281e-09,-8.116231e-08,-8.89782e-08,-1.5629679e-08,-1.0283547e-07,-2.613051e-09,-1.449122e-08,1.6693168e-08,0.00667594,0.007441937,0.013496175,0.014051088,0.011054599,0.016190862,0.006770249,0.01206486,0.0035840427,-0.004109985,-0.0014323787,0.005878042,-0.0020478766,8.40019e-05,-0.00079260755,-0.0029930724,-0.0039351084,-0.0021272136,0.0006768104,0.0016877534,0.00028431346,0.00033581685,0.0021432037,0.0003964155,5.0584997e-05,0.003258811,-6.912002e-05,0.020394547,0.020589085,0.0021142648,-0.020993482,-0.040479865,-0.046479598,-0.03219275,-0.026269771,-0.042062614,-0.001956539,-0.0012808325,-0.0034361475,0.001329526,-0.00916239,-0.004844841,-0.0056140036,-0.0118075935,0.0020080232,0.00010964657,0.011231254,-0.0063636196,0.0069250413,-0.007791583,-0.03433834,-0.010771585,-0.010544421,-0.015188292,-0.0011652688,-0.026058242,0.028440332,0.0034901092,0.00152002,0.0016161718,-0.0299221,-0.017809395,-0.03305834,0.010736116,0.025290865,-0.0506335,0.013208624,0.011517559,-0.04649697,0.0047244355,0.084384955,-0.0041062282,0.014451026,0.021132471,0.010878214,0.018606478,0.01738027,0.021714907,0.016511371,0.01771773,0.011447564,-0.0070162565,0.005879068,-0.0018895934,0.0070993174,0.0003159323,-0.011692428,-0.0012274331,-0.0031464403,0.028992455,-0.053294007,-0.050324444,-0.083886676,-0.048968684,-0.045107998,-0.036815647,-0.024313783,-0.06322776,0.06173598,-0.041455477,-0.028498858,-0.019977203,-0.045760043,-0.051899366,-0.06459893,-0.017665839,0.084828675,-0.054071076,-2.0367888e-20,-5.019978e-18,-1.4128057e-26,3.3056081e-15,-7.5883813e-16,5.358042e-22,-4.2877218e-16,1.1612518e-19,-4.5426377e-22,0.000546906,0.0061402093,0.005756788,-0.0018141,0.009696501,0.0020970255,-0.0018199956,0.007483403,-0.0075174556,0.025427781,-0.0035837418,-0.02454841,-0.025226567,0.0249046,0.022680968,0.08025533,0.022654876,-0.018240383,0.034591734,-0.03103015,-0.019367896,-0.00728608,-0.0002931446,-0.008262304,-0.034393586,0.014242818,-0.07739732,-0.0082387375,0.0018593081,-0.0470599,0.006612155,-0.021262951,-0.017635316,-0.020847514,0.038498133,-0.010890492,-0.0016162838,0.0014986569,0.007564408,-0.009018505,-0.0019274381,-0.003495181,-0.007932991,-0.012191081,-0.012540677,0.022562804,0.030427737,0.009077011,-0.038213003,0.01725801,-0.05284401,-0.015912114,0.023998212,-0.024926199,2.397441e-05,0.0002333417,1.1678894e-05,8.165014e-06,8.2804356e-05,1.16267465e-05,7.4029062e-06,2.5906795e-05,1.6676739e-05,0.00038609657,0.00030704367,0.00012432189,0.0029395362,0.0004052158,-0.00019323216,0.004047846,-1.7297883e-05,-0.00010203781,-0.00022798179,0.009139626,0.0010438338,-0.0026139808,0.007526471,0.0010641093,0.017181791,0.0033426676,0.0051071607,-0.012544486,-0.025486281,0.03509822,-0.043725077,-0.007834385,-0.019180164,-0.012678077,-0.04474695,-0.032467995,0.0011879965,0.001580466,-0.0048692618,-0.004319414,-0.0024151108,-0.005335641,4.9638442e-05,0.005319457,-0.0060862843,0.0014776818,0.029801605,-0.018890357,-0.029039444,-0.0077593727,0.037024412,-0.008856371,0.017403906,0.07154848,0.011411073,-0.0015136391,0.0028592825,-0.006564107,-3.898431e-05,-0.0014204145,-0.0029937292,-0.0023557607,-0.009296257,0.001076901,0.0006697835,0.005664537,0.0006299486,0.0011423974,0.0016288094,-8.232395e-05,0.0007600212,-0.00023587556,7.872465e-05,0.00066661305,-0.0021981806,-0.00014764261,-0.0031474796,-0.002760322,-9.007874e-05,0.0013315381,-0.0012725284,0.009198943,0.04744831,-0.009854103,0.0087059215,0.04109303,-0.008444913,0.010407152,0.05237768,-0.029718261,0.00074667984,0.0036881054,-0.0004535131,0.0042600706,-0.0016220122,0.00017569706,0.0018666743,0.0030007178,-0.00019124374,-0.0050040185,0.0042708972,0.0033182558,-0.0024847444,-0.0024091615,0.019130403,-0.008377574,0.0033880353,0.015709883,1.8989092e-10,2.0428898e-14,2.2980233e-08,2.469024e-12,1.36968934e-11,2.8269192e-06,-3.065106e-14,6.748884e-07,5.2817535e-07,0.037853558,-0.005843402,-0.044996172,0.0010398942,0.07893158,-0.08660604,0.025571005,-0.013602171,-0.05079219,0.013009718,-0.0067588314,0.0076601976,0.024166886,0.0076357424,0.01224118,0.009736344,-0.0061194585,-0.007901453,-0.024278915,0.016720004,-0.03381653,-0.018201537,-0.03472958,0.0044210623,-0.0206872,-0.04544672,-0.07437902,0.0029434368,0.0020946944,0.000806362,0.0022883136,-0.0009228565,-0.000195232,0.0013388778,-0.00264289,0.001146078,0.027932992,0.06932489,0.07276637,0.014891449,0.08584231,0.037841134,0.047583114,0.06734338,-0.007881588,0.03505174,-0.031912453,0.046855733,0.011126584,-0.0277873,-0.06787777,-0.031190591,-0.011808909,-0.04145587,0.01816908,0.0044210944,0.010643485,-0.005667756,0.0066252756,-0.017155867,0.05004687,0.008858681,-0.04443811,-0.033301365,-0.05356956,0.036622293,-0.016177885,-0.058514845,-0.07275764,-0.033453822,0.024956584,-0.01600749,0.002478549,0.0018948138,0.0042542154,0.00034236012,0.018157905,0.00824492,0.00015313149,-0.003955847,-0.00059067,-0.03353827,0.012431853,0.0203163,-0.015458039,0.02707491,0.023181066,-0.022505196,-0.050214432,0.010447524,-0.038938522,-0.007126739,-0.04178939,-0.03983614,-0.034162953,-0.020541025,-0.050763924,-0.034222115,-0.10755944,-0.047185976,0.005587784,-0.08616498,0.00021042337,0.002143475,0.027094763,-0.014922198,-0.027216377,0.05462339,0.023231452,-0.014950884,-0.01935211,0.0043870686,0.013277202,0.07020991,0.0035472398,-0.031994738,-0.013670401,-0.010406495,-0.044715017,-0.025020076,-0.033241767,-0.052937664,-0.036582325,0.06630099,0.008427334,-0.006521562,-2.9413904e-17,-1.4782446e-11,-3.4665022e-23,-5.590518e-17,3.076447e-14,-1.17622536e-14,-9.892667e-34,-8.599191e-24,3.661967e-13,0.00020323056,0.00034177027,0.00030411955,4.233858e-06,0.000768135,0.00027821003,0.00021400242,0.00017854941,0.002383652,-1.1174844e-05,-1.1267749e-06,1.7478332e-06,6.53389e-05,-8.954764e-06,6.547608e-05,3.5129797e-05,-7.0649526e-06,-3.7785056e-05,4.9501527e-12,-4.763641e-12,-2.0921904e-12,3.2962129e-09,-7.044954e-14,-2.0333646e-07,-2.8126668e-09,-6.3472774e-09,4.503141e-08,0.030821685,0.040226057,0.027442768,0.005176549,0.021402234,0.010384882,0.02375935,0.030182783,0.028714357,2.283123e-09,1.9067346e-07,1.7299259e-08,1.05407175e-07,-3.601565e-06,4.8712116e-07,-1.087627e-06,4.4891884e-08,3.9583643e-09,-1.5272393e-26,3.6503434e-24,-2.0367103e-35,2.434981e-29,-1.74678e-36,-4.0029115e-37,7.500939e-39,-2.4873202e-29,-1.816995e-38,-0.008905048,0.005444214,-0.0055215657,-0.016422218,0.0018062212,0.0065437183,0.0021085984,-0.0066196383,-0.0151397325,0.035560716,-0.018611575,-0.066087216,-0.08166261,-0.06635262,0.007268528,-0.066078834,-0.0060433866,-0.04179686
0.00039109084,0.00083180045,0.0003105264,0.00034503997,-8.4389954e-05,-9.017946e-05,-9.097206e-05,6.174083e-05,0.00028118634,0.014809028,0.0055940407,0.014303916,0.018827163,-0.028403213,0.015970394,-0.016059693,4.126785e-05,0.023778366,0.0042555914,0.0036349604,-0.011786782,0.003958329,0.010552755,0.0028320206,0.0043173195,0.0128857335,-0.0019666094,0.00013639894,-0.0040575317,-0.0011950271,-0.0010850023,-0.00016381037,-0.005858293,0.00035064865,0.00031116503,0.0013651696,-0.000638801,0.00080901873,0.0022312733,-0.0022763044,-0.0057976493,3.5397563e-05,-0.0008151784,-0.002422125,-0.0014928314,-0.00630801,-0.017191231,0.005920653,-0.026042111,-0.027984155,-0.033111997,-0.041096143,-0.028783433,-0.028335745,0.0002366637,1.19850865e-05,-0.00081843726,-0.00015735277,0.00030596004,-0.00022331279,4.801422e-06,0.00061928446,5.0238647e-05,1.4822224e-05,-2.921119e-07,-5.942918e-07,1.409181e-07,-1.9692266e-08,-7.5905473e-06,4.264362e-08,-3.7338815e-08,-4.2408725e-08,4.697028e-12,-7.653928e-09,-7.682372e-10,-2.9899642e-12,4.2988555e-12,-4.4472568e-11,1.3235325e-12,-6.0414564e-14,1.082901e-10,-0.0033744664,-0.0026375733,2.402983e-05,-0.0040603653,-0.0020989534,-0.0078429375,-0.0020893838,-0.003709156,0.0040251534,-0.002072468,0.0011498164,0.00085338956,-0.0010421003,-0.00033253303,-0.0013269809,-0.0002765109,0.00010790234,0.00066676736,0.00023821123,-1.8622297e-05,-0.00050546386,-8.590116e-05,-0.0002746839,0.00054074056,1.8763596e-05,0.00030514115,-4.1043586e-05,-0.027922459,-0.0027763124,-0.015646987,-0.026153384,-0.015879214,-0.024677679,-0.06338257,-0.045539062,-0.050894137,0.0030270065,-0.0057162754,-0.008131053,0.010026223,-0.0001568544,-0.0061246185,-0.003057223,-0.0040458697,0.0010717754,-0.012739509,0.0024282522,-0.01703297,-0.01041392,-0.024066688,0.010864707,0.034517463,-0.015000084,-0.0047559463,0.018593017,-0.0020525963,-0.0050149793,-0.038101763,-0.0026384064,-0.03245556,-0.02743476,-0.010174775,-0.028401528,-0.017179696,0.008034797,-0.021198455,-0.0028969015,0.012522767,-0.0030273024,0.0015332879,-0.016091729,-0.012075419,-0.0058114678,-0.0026106485,-0.00834736,-0.0038948446,-0.008122411,0.00020759519,-0.006759198,-0.00082509057,-0.0025261284,0.004080565,0.0031005603,-0.00061123585,-0.005335434,-0.0002952088,0.0056613307,-0.0059519038,0.004710209,0.012869008,0.0051003275,-0.061998453,-0.008987914,0.057280455,-0.019211223,0.011366732,0.046100892,-0.003815372,-0.010308269,-0.079443626,-0.012255065,-0.046286352,0.06703903,0.048172608,-0.016082658,-0.009726327,-0.041306525,-0.03271067,6.59751e-40,4.8021464e-25,-4.5192803e-34,3.4069064e-36,2.9235753e-23,3.189563e-36,-9.371905e-33,-4.2087466e-31,-1.42602e-40,-0.0065690875,-0.0033712292,-0.0022164932,-0.0056236614,-0.0020597859,-0.008104185,-0.004444618,-0.0031929032,0.0014163263,0.015515642,-0.022606533,0.008598995,-0.006428377,-0.019947698,-0.008716388,-0.009372461,-0.027791856,-0.011919372,-0.041078378,-0.0034678879,-0.018589443,0.013016829,0.026361628,-0.022419663,-0.009635984,-0.02167542,0.0043582194,-0.015331642,0.0030872312,-0.02999748,0.021264708,0.012819325,-0.004657473,-0.008854629,-0.030745415,-0.018718945,-0.0016673044,-0.001378506,-0.00075202034,-0.0018876222,-0.0020687245,-0.0018705353,0.0021090093,-0.00022837735,0.0017615951,-0.013137938,-0.0072578616,0.0032117716,-0.015118698,-0.0004954067,-0.0009214063,0.0041967514,0.038799692,0.013983461,4.072529e-08,0.0002630307,1.8514089e-07,3.628198e-05,-3.7126001e-06,-5.478953e-07,4.6071875e-08,-2.3224648e-06,-1.7609414e-06,-5.52235e-05,-4.0463554e-05,5.077335e-06,-0.00011494649,-0.0010140082,-6.2939886e-05,1.7588703e-05,1.3356245e-05,-0.00019775084,0.00021275676,-0.0064648874,-1.6341102e-05,-0.0047061075,0.0022561334,-0.0016129453,0.0010570802,-0.0015520579,-0.0040096985,0.0010629032,0.028008133,-0.02249045,-0.008041371,-0.018746136,-0.06523496,-0.08215353,-0.04929682,-0.06728237,-0.0022209848,-0.0052175554,-0.00026162658,0.005372461,0.0014783235,0.0008918514,0.00039001097,-0.0029312128,0.014141574,0.020404665,-0.039688796,0.010121045,0.00922921,0.00911401,0.0039838236,-0.012069116,-0.0041485894,0.03133348,-0.0015130349,0.0015440951,0.0019099442,-0.00066348625,-0.0006383905,-0.00046132717,-0.004408276,-0.0029327476,-0.0019883527,-0.00034032625,-0.00031749788,-0.0003709765,0.0002914137,4.2026935e-05,3.8997263e-05,0.00024501872,1.2459677e-06,0.00038589985,-2.3390232e-05,-0.00013781228,-8.724359e-06,-1.0967478e-05,-0.00019997243,0.0005660557,-6.266614e-06,-0.00013465047,0.0003199009,0.0010272443,0.00047416706,-0.0071613574,0.0050234413,0.007141095,0.0017342851,-0.0019746698,-0.002622722,0.011013,-0.0017342807,-0.0005523797,-0.00034310675,-0.0007909562,0.0019565076,-0.0007060438,-0.00048514304,0.007850951,9.7540455e-05,-0.0050158105,-0.0047818297,-0.0012721034,-0.013540571,0.0017586002,-0.00043535075,-0.009350156,-3.3663593e-05,0.0040430687,8.434702e-11,-1.3122208e-15,-1.6261923e-14,-3.91611e-15,9.698158e-13,-1.44564325e-08,-7.274932e-14,2.8740207e-10,-1.6373062e-09,-0.019218367,-0.0095636,0.021173071,-0.024147358,-0.007054289,-0.0035494699,0.0014532804,0.01794499,0.012796711,0.0017358803,-0.002660649,-0.0040612537,-0.003340847,-0.001532013,-0.0061047426,-0.0014451703,-0.007190691,0.0010280465,0.00093777635,-0.022241974,-0.0076368474,-0.016501077,-0.0062255166,-0.006245477,-0.006825657,-0.019100027,-0.03998748,-1.2318445e-05,0.00043783165,0.00061284826,-0.0012698842,-0.0014503703,0.00047451086,-0.0013654894,-0.0010541654,-0.0008482937,-0.0004165513,-0.015417912,0.02311094,-0.021571783,0.008606861,0.038497698,-0.02370007,0.008197761,0.012561938,-0.009743189,-0.0053052744,0.019892832,-0.060863286,0.009505909,0.070658505,-0.024449598,0.045953467,0.03276381,0.007095207,-0.011021782,0.021345893,-0.020157816,0.0030084392,-0.015157792,0.0043629413,-0.0107461335,-0.00938505,-0.02728994,0.007119255,-0.018981108,-0.04333553,0.007669306,0.0035816745,-0.030485006,-0.013764275,-0.007140789,0.00019952492,0.00010913856,0.0018252273,-1.3272393e-05,-0.003016287,-0.005424452,-0.000436592,0.00011382136,-0.00015528752,-0.019507261,0.0015475757,0.0016078985,-5.35922e-05,-0.011576329,-0.020398099,-0.010489016,0.00070024707,0.008112797,0.051539402,-0.02490557,0.016543454,-0.041081388,-0.023739686,-0.03728013,-0.06700815,0.010796867,-0.014176247,0.03563366,-0.0695654,0.022033075,-0.034508716,-0.005522713,0.0015397936,-0.017706532,-0.0061774952,0.024471847,0.07523161,0.029223392,-0.0072540794,-0.0052030524,0.0015305183,-0.019407105,0.00044876785,0.03580247,0.0076131895,-0.019746128,-0.015115747,0.009159297,0.06261299,-0.0020030593,0.00040738803,-0.011615687,-0.031384498,-0.022448974,-7.9774736e-19,-6.6081324e-19,-1.0852768e-33,1.4366497e-24,-3.4557365e-24,-5.2471565e-27,-8.940497e-31,3.482483e-31,-7.960302e-24,-0.00017724674,-0.0001397917,-0.00024015302,-0.0003173211,3.189402e-05,-0.00015650029,-0.00024246464,-8.75214e-06,0.00010432319,-1.6961703e-08,8.574294e-08,5.3718797e-08,-6.9864905e-07,-2.2052114e-07,2.5798275e-07,5.412393e-08,-2.9031634e-08,-3.4033023e-06,-1.834659e-15,-2.325533e-11,-1.7061267e-16,-8.6358265e-10,-2.8645697e-13,7.578418e-10,-4.5067314e-10,-2.9109354e-11,-3.837182e-11,-0.006385763,-0.010064575,-0.0058632144,-0.013334813,-0.025870053,-0.00594374,0.0070177196,-0.012484692,-0.00753229,4.4192097e-13,2.85797e-08,2.3702603e-08,-2.5749933e-09,3.1524253e-06,7.5403517e-10,5.219655e-11,4.317905e-08,5.9797234e-09,1.3087025e-31,3.711352e-37,-4.354134e-39,-3.06181e-39,4.95426e-40,-2.4449483e-37,-4.00846e-40,-9.76376e-40,1.275626e-39,-0.0016280386,-0.0016503307,-0.0002944475,-0.006803179,0.0006620181,-0.0008840896,0.0031569235,0.007272947,0.0051487423,0.023468224,0.006902866,0.031898823,-0.0077000163,0.008817185,-0.009932387,0.090229385,-0.00050130265,-0.025896873
