-0.055609964,0.03564319,0.023370298,0.010204109,-0.0098358095,-0.0008110091,0.090931185,0.050323244,0.019847488,-0.010847305,-0.0038418586,0.019499553,0.044637445,0.018141411,0.03584715,-0.03348176,-0.002662441,0.086181074,-0.013414928,-0.00767911,-0.008798276,0.0011565234,-0.025662718,0.008586923,-0.006580253,-0.03440797,-0.0006439324,0.076670356,0.015018883,-0.037620854,-0.024635775,-0.09692709,-0.060072143,0.060381196,0.027654834,-0.030614045,-0.046008263,-0.0013098211,-0.009719798,0.020925218,0.0036659986,-0.016823385,0.00038105124,0.008494677,0.0024829505,-0.05402792,-0.04166534,-0.021814164,0.08854703,0.025888063,0.032998502,0.0026975423,0.21689399,0.14605965,0.026792562,0.017407445,0.034185402,-0.06564617,-0.021328049,-0.05264442,-0.010999152,0.009967244,-0.0067793815,0.045647144,0.021415077,-0.0004047685,0.042418018,-0.030872531,0.0030004762,0.03492063,0.08792439,0.0061417893,-0.027956696,-0.008734451,-0.013903205,0.05853688,0.035473607,-0.04507245,0.06710868,-0.03608719,-0.028703645,-0.025553538,-0.054388624,-0.012587393,-0.013559603,-0.06733158,-0.018396625,-0.08584984,0.05932989,-0.03040896,0.052279882,0.016704181,-0.01011079,-0.0086808605,-0.023057228,-0.016723068,-0.016669143,-0.005414336,-0.0032566644,-0.052082565,0.03245989,-0.002914551,-0.06408856,-0.02608037,-0.018127264,-0.006277942,0.016776185,0.026595464,0.0768121,0.032666896,0.040251844,0.01128674,0.030544551,0.029140064,-0.096011266,-0.10164205,-0.08272027,0.0048653395,0.074828215,-0.0109518925,-0.022299256,-0.016372424,0.0005719623,-0.016366564,-0.028707335,-0.009565703,0.015098883,-0.024977045,-0.008626415,0.03957662,-0.036237814,0.043425016,0.0114034945,-0.000489308,0.030255856,-0.035321694,-0.07689516,-0.12218787,0.0037447973,-0.014559067,-0.05580599,0.010203466,0.29375663,0.11071036,-0.012211317,-0.04116392,-0.047336534,-0.007515042,0.08364259,0.057573467,0.013554134,0.033187415,0.033937223,-0.052416656,0.08271075,0.013808638,0.033386916,0.009934377,-0.024950555,-0.05904786,-0.05453924,-0.046031002,-0.014040231,-0.01488469,-0.007100457,-0.054936256,-0.066955835,-0.032881845,-0.028147386,-0.017247902,0.010790663,0.011099402,-0.032269,-0.033798926,0.055568296,-0.019816784,-0.030742707,0.03210252,-0.02061074,-0.04907497,0.003209131,-0.028554631,-0.05009843,-0.0275721,-0.0009138399,0.033454202,0.029752301,0.042693585,0.030528614,-0.05823905,-0.046320084,-0.021787895,-0.064921975,-0.024059622,-0.06252465,0.01998724,-0.032132015,-0.017619552,-0.013062973,-0.0020069873,-0.038216613,-0.020688707,0.0049011284,0.017464176,-0.0016068957,-0.022000471,-0.0067065177,-0.04618069,-0.049096473,0.039832972,-0.03996063,0.015517063,0.005421306,-0.023010854,-0.0023827387,-0.021875467,-0.00017842103,-0.0077081854,0.0017437623,-0.0138599835,-0.028195536,-0.022142846,-0.035681438,-0.03351587,-0.029243592,-0.057412922,-0.02981524,0.025459867,-0.054712757,-0.074953504,0.019315533,0.03849935,0.046464533,-0.09263498,0.03164213,-0.0038743902,-0.03667996,0.028875884,-0.009930304,0.034274228,0.03455316,0.066122346,0.014270273,0.042674057,0.100937285,0.03852931,0.011284474,0.0012931078,-0.065961055,0.01731517,-0.03142661,-0.03854115,-0.0026257983,-0.028139265,-0.043257274,-0.0065326616,-0.0037111843,-0.04133787,0.14242545,0.029929942,-0.028764946,-0.034335017,0.012122127,0.005885841,-0.002502657,-0.032056168,-0.004855852,-0.042808466,-0.08099806,-0.06587327,0.004059485,0.002273221,0.0014034997,0.0028607517,0.00186026,-0.000121333316,0.0027459664,0.0055082166,0.0016759358,-0.0031498019,0.000368347,0.0026477796,-0.003906286,-0.00017322913,-7.297529e-06,-0.0021202404,0.002572616,-0.0018803421,0.05190445,-0.047220167,0.03489849,-0.037112344,-0.048328694,-0.0006402976,0.0113098705,0.02380555,-0.06336927,-0.06704384,0.004386351,0.03371816,-0.022004103,0.11454813,-0.04344167,0.04461178,0.10625212,-0.057776842,-0.017057274,-0.010386734,-0.058200475,0.030942652,0.022768762,-7.557651e-05,0.09186709,0.066187955,-0.0017722998,0.025740586,0.011517607,0.030519966,-0.07001126,-0.03761025,-0.049917772,-0.06351544,-0.03369649,0.012910263,-0.03128819,-0.060565975,-0.055502474,-0.024164429,-0.04295715,0.09762349,0.0016072846,0.012008029,0.008131463,-0.009541084,0.0021929713,-0.01664712,-0.06636176,-0.018654862,-0.010491341,0.0036295964,-0.018535396,-0.007357865,-0.049576372,-0.028844144,0.0036659418,-0.0066621993,0.0505129,0.026978493,-0.0041796057,-0.097859845,0.016329661,-0.003085669,-0.0046204445,0.004684996,-0.00045524086,-0.002340851,-0.0014859049,-0.002547793,-0.00264002,-0.0035959475,-0.01039765,-0.025328835,-0.052345317,-0.02935425,-0.035696372,-0.01988158,0.0034004876,-0.009769915,0.0062274993,0.014926422,-0.0146263745,0.020482471,-0.009257586,-0.0017431853,-0.036580157,-0.06476079,-0.045781165,-0.01584047,-0.015695104,-0.13357176,0.06196697,-0.0856809,-0.12200304,-0.13460378,-0.1281587,-0.020709002,0.07433476,1.116298e-07,-5.076069e-07,7.174792e-08,-1.4827821e-06,-8.086033e-06,1.6604763e-07,3.0258855e-07,1.2603806e-05,1.2136269e-06,-0.0074211834,-0.03595056,-0.021524131,-0.013243561,-0.029371016,0.022967972,-0.02331262,0.051183976,0.05188123,-0.074064136,-0.039594848,-0.00423831,-0.110034786,0.070736215,0.028393293,0.04949557,0.045714818,0.029649582,-0.018678995,-0.0378151,-0.1295536,-0.01738386,0.019467447,-0.05529684,0.038098373,0.22869138,0.016045999,-0.001429307,-0.027998583,-0.010517011,-0.04169887,0.002399017,0.046108197,0.0036555685,0.029621555,-0.00087024947,-0.025342254,-0.0084508285,-0.004400361,-0.015652226,-0.04547005,-0.007972753,-0.004478153,-0.0140610505,0.015516736,0.03167292,0.030361613,-0.0141563555,-0.008549019,0.021069951,0.039624795,-0.012243486,-0.0078876,-0.0025466534,-0.054005332,-0.04868192,-0.105418354,-0.06434954,0.07061798,0.054962173,0.08100766,-0.011943133,0.040234603,0.0763734,0.0055500353,-0.08784118,0.0077321115,-0.061714213,0.00067843404,0.04861311,0.0352171,-0.011797609,0.112355895,0.0020597803,0.0040388186,0.032089837,-0.009447296,0.027481358,0.10054203,0.10537375,0.038776085,0.02646604,-0.022373786,-0.047359403,0.023846626,0.016423058,0.035257522,0.0029000062,0.054462336,0.037963584,-0.04686198,-0.038820118,-0.015891947,-0.052333113,-0.053083614,-0.03399338,-0.023832079,0.030285392,-0.04614864,-0.023094041,-0.034307376,-0.035397794,0.0024597074,0.01200078,-0.05146126,0.05427786,-0.085119106,-0.051008824,-0.07019543,-0.030303225,-0.011118805,-0.00096063514,0.07763042,0.025223155,0.07150579,-0.009498049,-0.05866594,0.0077567785,-0.006127405,0.014844614,0.075066075,0.033928026,-0.027624391,0.01980325,-0.026773086,-0.06059762,0.013739168,0.0051898765,-0.017132005,0.0005059367,0.0015070847,-0.0067086853,0.008083375,0.0815185,-1.4847406e-05,-0.09432873,-0.0016954186,0.026154997,0.06617371,-0.00697956,0.013592025,0.08850731,0.011208036,0.1533042,0.00030415956,-0.034048073,-0.0010204437,-0.025927171,-0.03631383,0.041981556,0.066551164,0.030678472,0.035796233,0.018878452,0.024093548,0.0092791105,0.010163051,-0.017075164,0.012148317,0.012977107,0.011593957,0.014871019,-0.024263859,-0.02470603,-0.008703551,0.018757729,0.030013649,0.031727567,0.013444978,0.06568655,0.047883797,0.034874022,0.09826138,0.008787001,0.025378393,0.0064173853,0.0060342057,-0.0131403785,-0.03452023,-0.06307393
-0.0065180766,-0.010664559,-0.029001562,0.018091261,-0.011147354,-0.008605485,0.056682337,0.0023173094,-0.0044735563,-0.02758608,-0.03392756,-0.02797283,0.009391944,0.0041489284,0.03850552,0.0013898138,-0.026600204,-0.014689188,-0.0065054055,0.0046193837,-0.0016494439,-9.471914e-05,0.0068842545,0.01062183,-0.0049486835,-0.010172139,-0.0032367774,0.046431124,-0.048007023,0.040769298,0.01002172,-0.055686817,-0.031467665,0.003862585,-0.040387597,-0.030032393,0.0043046735,0.029342284,0.007449316,0.0052683447,0.001805141,0.027111005,0.024026062,0.013336746,0.0030710849,-0.044874065,-0.029968694,-0.07574985,0.03332877,0.016247777,0.019297294,-0.021467831,-0.032350708,-0.023049852,0.043494817,0.11320259,0.014708121,-0.018903226,0.07737369,-0.060701992,-0.0415247,0.020913724,0.050376732,-0.006509691,-0.011279823,-0.01903535,0.033940155,-0.0020915892,0.02528359,0.013973422,-0.019162051,0.021072024,0.011706205,0.011922398,0.06563043,-0.014814952,-0.031621248,0.006233354,0.0469459,-0.008599044,0.00022815062,-0.034081258,-0.0034249395,0.034021713,0.029320765,0.015503703,0.024681903,-0.061140127,-0.068226986,-0.053307157,0.018955754,0.0002521132,0.031599417,-0.01777931,-0.02273485,-0.024425799,-0.021987755,-0.014681548,0.01901862,0.01650216,0.016251968,-0.006688696,-0.0062064417,-0.003882861,0.03475997,0.021824041,-0.0005469653,0.035573106,0.06285749,0.157121,0.11008008,-0.05894738,0.027313225,-0.0028983285,-0.08283772,-0.0764674,0.003489813,0.007541255,-0.018644096,0.015246161,-0.014854461,-0.018818043,0.031408496,0.019995546,-0.012717398,-0.012237602,-0.004131524,0.00034579626,0.01237314,-0.028169783,-0.007982283,-0.016773993,-0.0003905641,0.016336352,0.046001352,-0.04268638,-0.019282196,0.01752,0.03190643,0.023623504,-0.043618213,-0.0014564013,-0.09624374,-0.03540319,-0.007838681,0.013320866,0.02118217,-0.008876663,0.010459733,-0.00037552262,0.0074446523,-0.015466923,0.013478167,0.023402678,0.030114979,-0.033761892,-0.0124389175,0.012898156,-0.0031813986,-0.014881344,-0.012251094,0.014850799,-0.004429339,-0.013776182,-0.015018849,-0.0064411964,-0.016663611,-0.0029428075,-0.0038788526,-0.012673491,-0.0057187066,-0.024739314,0.035735954,0.0045610196,-0.010008804,-0.005666619,0.034726374,0.012479403,-0.0126311695,0.02745364,-0.004816885,-0.0096362345,-0.0051033115,0.015102495,-0.0052116215,-0.017800132,0.017850999,0.020909276,0.027554104,-0.00106816,0.014717627,0.008125857,-0.056000564,0.0021378028,0.012446184,-0.048463613,-0.006274968,0.0051443796,0.014347923,-0.031676404,0.0009729228,0.03181195,0.0013355333,0.0042335237,0.022974387,-0.0042567183,0.008512925,0.0377926,0.0024215556,0.0037973116,0.051865563,0.07345955,0.11368479,0.010505239,0.029551197,0.03348572,-0.00210972,0.012869295,0.0053030914,0.006142349,-0.021108676,0.021041857,-0.015943592,-0.0024217055,-0.008784118,-0.03981392,0.045021378,-0.008496841,-0.029509736,-0.054368347,-0.028545726,-0.06398173,0.00901588,0.011120464,-0.0018380239,-0.037131894,-0.008889091,-0.005918161,-0.0074706553,-0.015859663,0.0129304705,-0.0017759943,0.015033397,-0.010589783,0.006702884,0.039888907,-0.02887711,-0.03287091,-0.033825006,0.008090505,-0.007593983,0.020878408,-0.005189121,-0.0633499,-0.01020532,-0.041079976,-0.0092096105,0.025121607,-0.04310065,0.0058494583,-0.0063229306,0.020267913,0.013189149,-0.0033402876,-0.010641194,0.021880407,0.04978083,-0.019782875,0.003994702,-0.021244269,0.0016307734,0.0012568035,0.00046881987,7.3954565e-05,0.0036028149,0.0004737353,-0.0061637764,-0.0030670906,0.00034683925,-0.00010947954,-0.00017747692,0.0002787737,-0.0008874331,0.0003123123,-9.9338184e-05,-0.0011825839,-0.001620756,-0.00025255707,0.039322626,0.06710533,0.05813956,0.020382233,-0.02366981,-0.011424114,-0.0109838825,0.025092378,-0.01961692,0.11980597,0.02524373,-0.020773599,0.070854194,0.09122682,0.011349948,-0.0058550388,0.008452554,0.0018327988,0.042516667,0.0038354655,0.02554502,0.038513023,0.006699345,0.012242401,0.016203772,-0.0067244824,0.0067748674,0.008136671,-0.032743562,0.046632998,-0.012738129,0.020865517,-0.001467931,-0.0025823633,0.034304533,0.019037286,-0.020167703,-0.01109532,0.07247624,0.046306066,-0.024855878,0.040807392,0.022489034,-0.004877205,0.015939455,-0.00052504207,0.003014729,-0.007841897,0.0076195244,0.025738994,0.010431354,0.02025473,0.0062365285,-0.026727458,-0.012512765,0.031290207,-0.03103387,-0.077272266,-0.010431131,-0.0073910677,-0.015390001,-0.007894216,0.023231205,0.000997567,-0.0003517693,-0.000687821,-0.0012759465,0.00024368039,0.0033410604,-0.00043382507,-0.0020122037,-0.003108265,0.0020512214,0.02041617,-0.009446731,-0.0012475797,-0.007865195,-0.013733473,0.0058832257,0.021779347,0.0125717,-0.012563327,-0.005863364,0.0031759173,-0.0008719855,-0.006413717,0.028489139,-0.022456251,-0.006345793,-0.019025773,-0.019098107,0.0033145468,0.061374392,-0.02995305,-0.004404577,-0.057699595,0.0026536544,0.12829907,0.047736246,3.110809e-10,-1.6736832e-09,-1.019199e-08,-2.5889263e-10,-4.5527705e-07,-3.2115246e-09,6.687556e-09,5.6751315e-07,1.2371025e-07,-0.002504203,-0.022739328,-0.030263057,-0.014888535,0.0055179163,0.039464734,0.01770884,0.013964829,0.0036905094,-0.00017469995,0.019202497,0.020184254,-0.044856653,-0.030843338,-0.034506533,-0.0075484393,0.003985617,0.008307269,-0.02560179,0.015815098,-0.0016500902,0.0005321442,0.02820726,-0.037992362,0.008492305,0.03369143,-0.0041803885,0.018780677,-0.015677314,-0.009901864,-0.020502217,-0.0056663053,0.008553911,0.020037645,0.005521923,0.05352647,-0.0022149454,0.010599446,0.005450133,-0.001920283,-0.002304572,0.008353269,0.009440884,0.0122506665,0.013506916,0.00876542,0.0243582,0.012001755,0.004716832,-0.00021614003,-0.018638678,-0.006482229,-0.01587126,-0.003979424,0.005305983,0.005393787,-0.03390994,-0.015201967,-0.056711562,-0.039031785,0.03495146,-0.015246608,0.100837834,0.011897097,0.014151332,0.07067611,0.04758703,0.055312343,-0.0250518,0.035681535,0.027124899,0.031300366,0.013574653,-0.062362384,0.015700698,0.061811186,-0.0020851714,0.020017434,-0.026639348,0.05805275,-0.016866667,0.0010472694,-0.026422977,-0.0060973633,0.0070190933,-0.023515774,-0.0028647236,0.036388405,0.04289487,0.029723817,0.028118975,0.01860649,0.043675818,0.002496832,0.025058703,-0.005786979,-0.013065896,0.003152484,-0.014473099,-0.053363573,-0.019940827,0.018869003,-0.045220625,-0.05760319,0.05218977,0.05222376,-0.031284537,-0.032286014,0.05103054,-0.005927333,-0.007394157,0.04796297,-0.080565244,-0.03291708,0.02489826,-0.02846002,-0.0034282627,0.041912477,-0.009032537,-0.0038428167,-0.0023401838,-0.044015903,-0.02249468,0.010769729,-0.011974701,0.012065583,-0.007866441,-0.006864655,-0.0024316402,0.008076523,0.00827888,-0.001268735,-0.0004112504,-0.011334923,-0.00058192434,-0.042122934,-0.015427088,-0.0430125,-0.011975554,-0.04744528,0.01269979,0.03539375,-0.031256996,-0.06524695,0.04568385,0.030415496,0.014636246,0.0062716105,0.0012553075,0.027421782,-0.010882628,0.00080851966,0.02441228,0.017277487,0.019089941,0.011618716,0.004562585,0.008525059,-2.8407343e-05,-0.00023528808,0.0029412461,0.0069349394,0.023082346,-0.029247856,-0.083602555,0.004977537,0.005602985,0.030554818,0.04012243,0.099874854,0.064864226,0.014669858,-0.0017619143,0.014041827,0.025461096,-0.002480544,-0.0020935284,0.0154071925,-0.029751189,-0.001470018
-0.07253715,-0.02514187,0.07723699,-0.033288557,0.035500165,-0.045358974,-0.052863654,0.028850326,-0.02566811,-0.056019895,-0.0145215485,0.027567212,-0.046455666,0.009013524,0.0011506148,-0.04258327,-0.010726153,-0.098020755,0.0052969023,-0.03474853,0.00038106024,0.05628335,-0.003949662,-0.028494658,0.006242612,0.028449908,0.019002685,0.07316997,0.07699983,-0.07513792,-0.11287977,0.0136299245,-0.024863884,0.008091598,-0.07581492,-0.018028151,-0.03750424,-0.034670155,-0.005862714,-0.008620121,-0.020600874,-0.030480234,-0.061183117,0.023951288,0.00043088937,-0.04457323,-0.028867267,0.02403379,-0.023089258,-0.08822439,-0.009897041,-0.05883691,-0.11858437,-0.11772441,-0.004920636,-0.0670664,-0.07116073,0.028742047,-0.06566398,0.016292503,0.1279893,0.0314335,0.044817463,-0.07233986,0.10064586,-0.023681795,-0.030425007,0.008680234,-0.032213096,-0.08482583,-0.065501705,-0.074563265,0.0010473691,-0.0028948463,0.08291839,-0.04993123,-0.0134680625,0.015636964,-0.004554,-0.046123616,-0.000425824,0.019394161,0.0095252935,-0.023746125,0.01286799,-0.046050295,-0.10974047,-0.013297039,0.06496121,0.0037032096,-0.006136539,0.010857516,-0.025422513,0.017744051,0.02831455,0.04648868,0.017453495,0.016593115,-0.05543606,-0.007243669,-0.0068345442,0.005571688,-0.03219028,0.019391328,-0.023788985,-0.038450677,-0.011994735,-0.057718102,-0.063627236,-0.09211669,-0.115125485,-0.028944572,-0.04189995,-0.061198957,0.12608355,-0.09061589,-0.014305463,-0.055553705,-0.0053055924,-0.037276182,-0.07491843,-0.07050847,0.014235451,-0.031478547,0.01933627,0.0040318705,-0.0205956,0.0040728496,-0.0150552355,-0.027282618,-0.069623046,-0.03800825,-0.0006309857,-0.027358646,0.04378229,-0.08796677,0.31720743,0.08415061,0.12173999,0.036703847,-0.04952812,-0.0556841,-0.053239446,-0.012893255,0.032161843,0.0012118131,-0.016349027,0.031942412,0.11648013,-0.043075934,0.053102214,0.016146488,-0.017716983,0.017256364,-0.040755164,-0.018628264,-0.014390612,0.061084863,-0.006591614,-0.012708164,-0.1028466,-0.08754131,0.055859316,0.042527035,0.0123057645,0.010033828,-0.027537735,0.022379724,-0.006502416,0.046612244,0.028574312,0.00034198212,0.02500373,-0.026573423,-0.008474417,-0.019807348,-0.08537544,-0.014699928,0.03319015,-0.057660572,0.024934815,-0.02113972,-0.02241894,-0.016374322,0.018006638,0.021053035,-0.033898875,-0.03129763,-0.03024099,-0.0041906736,0.13083854,0.040268105,-0.01253539,-0.020784326,-0.0061650826,-0.040438153,0.05643339,-0.00037561433,-0.06972099,-0.029183583,-0.051406883,-0.029743448,-0.030021356,0.047543928,-0.03870169,-0.027164835,0.007345277,-0.11274114,0.01685184,-0.10998994,-0.023402352,0.092244625,-0.07906845,0.03816673,-0.092396446,-0.08551486,-0.030379314,-0.048630822,0.03890227,0.051703725,-0.013690164,-0.0068084914,0.023120595,0.014360679,0.07350508,0.09664496,-0.08749247,-0.018406326,-0.006777591,-0.07753493,0.06907229,0.07233675,0.017047081,0.07926703,-0.018549144,0.07867305,0.01663495,0.0014962567,-0.040440705,-0.044499353,0.07505435,-0.070155375,-0.0053006206,-0.033474922,-0.06739405,-0.10036567,-0.09084059,0.022011526,0.008760496,-0.09029712,-0.07496738,-0.07318818,0.09597249,-0.012496441,-0.023474915,0.012147096,-0.028387226,0.017249465,-0.048685923,-0.049209747,-0.06264057,-0.059654955,0.0007760929,-0.07616859,-0.029062878,0.015241711,-0.030974135,0.02891574,-0.008650295,-0.04990733,-0.0069016246,0.0010093733,-0.011503113,0.008523246,-0.0012000469,-0.0019339715,0.005637356,-0.008510796,-0.007375566,0.0011028938,-0.0010046395,-0.0024590136,-0.0014718908,0.00064091117,0.0002649894,0.00017917549,0.007973449,-0.0010810522,0.013584355,-0.020296514,-0.054008447,0.08843654,-0.0141240815,-0.05298825,0.055481024,0.0044863136,0.054596033,-0.15219808,-0.08780326,-0.08389632,0.028134177,0.1503841,0.0163177,0.14068204,-0.019255338,0.038848076,0.032610577,-0.010341798,-0.04692328,-0.006875111,-0.01706016,0.011211686,-0.100003645,0.005831452,-0.049942218,0.008729948,-0.014805561,-0.13508968,-0.035473853,-0.013470335,0.07501736,-0.05791166,-0.058788456,-0.008948337,-0.009872131,-0.08867582,0.05118009,-0.02881861,0.052374646,-0.07414106,-0.099861994,0.07644653,-0.05204559,0.02605411,-0.011302879,-0.041371614,-0.013090839,-0.029619077,-0.0349403,0.022882592,0.003238966,-0.08346922,0.027765078,-0.021492768,-0.035478853,0.08352304,-0.029360756,0.061715715,-0.051518783,-0.178228,0.039540406,9.933073e-05,0.00043910427,-0.0045987517,0.0017237728,0.0020071415,-0.009219691,-0.001586918,0.010939105,-0.00015294978,0.037933383,-0.06623747,-0.040474966,0.0109642865,0.004894039,-0.045586497,0.0026366895,-0.028867885,-0.013472654,-0.046441842,-0.008209657,-0.041549563,-0.048320416,0.013013129,0.0055111507,0.0049306927,0.020184167,0.048239168,-0.11452786,0.13655865,-0.14932777,0.13745998,-0.0604838,-0.13138019,-0.07909201,-0.11810295,0.0905725,4.2693677e-07,9.798304e-06,9.914585e-05,-0.00018272846,7.232046e-06,6.1634805e-06,-4.3797045e-05,4.655461e-06,-1.1728591e-05,-0.031591486,0.05655602,-0.023739329,-0.052386653,-0.023974728,-0.09126465,-0.07080431,-0.059447743,-0.039721828,0.039337985,-0.03399034,-0.10268774,-0.031861883,-0.07832574,0.072781675,-0.031771258,0.09760768,-0.048492067,0.022021396,0.21919096,0.031497203,0.08229886,-0.0204134,-0.096520625,-0.05990907,-0.05161704,-0.111082464,0.0025461307,0.0017182343,-0.005971699,-0.1266025,-0.038255822,-0.0423305,-0.006555343,-0.013411121,-0.004656712,0.012805767,0.0071160877,-0.028514007,0.023256918,0.0019874591,-0.0127154635,-0.011726197,0.0076269004,-0.014060509,-0.021069754,-0.029075965,-0.027425941,-0.029365018,0.03953767,-0.085086755,-0.0071843243,0.031435803,-0.047353927,0.08935646,-0.034793228,-0.007585561,-0.094994344,0.10161855,0.08971444,-0.016020902,-0.047956813,-0.05384703,-0.05538037,-0.08267608,-0.028412186,0.04635313,-0.045028243,-0.029367432,0.02274121,-0.034284137,0.01658637,0.010745222,-0.01981192,-0.034369376,0.0871579,0.03852891,-0.045272034,0.041145343,-0.06372824,-0.02425752,0.02462131,0.030230807,-0.013792672,-0.00019047965,-0.013600076,0.010703759,0.07229175,0.020958388,0.019750675,-0.024112519,0.033978764,-0.048019126,0.014875736,0.042856738,-0.052695468,0.044999365,0.011414678,-0.026447842,0.031583894,-0.034373306,0.15703277,-0.054822847,0.1478051,-0.0043508816,-0.0116591,0.03270518,0.019800918,0.030399386,-0.00846958,-0.01228963,-0.048062425,-0.015568932,0.023911815,-0.00094359496,0.023402,-0.007752771,-0.057742603,-0.090158604,-0.049021766,0.005740686,0.0138838645,-0.0122023355,0.026012663,0.017174609,-0.040114246,-0.015852544,0.036629427,0.0066579157,-0.0033516476,0.0030195555,-0.00037558406,0.0013246262,-0.016653808,-0.008363188,-0.060162,-0.045714464,0.14362329,-0.14403333,0.09804931,-0.039547943,-0.09579579,-0.03928182,-0.0666826,0.080526926,-0.02893166,-0.035246816,-0.026352324,-0.06064444,0.032393254,0.009111578,0.05999119,-0.07548972,0.0049127745,-0.017417924,-0.0006753622,0.0031418374,0.028174508,-0.007242189,-0.014256797,0.044104457,-0.037900034,-0.03829578,0.06500092,-0.048477806,0.08207155,0.04880154,-0.057758536,0.12259473,-0.107702,0.024726698,-0.04161349,-0.01412933,-0.03165148,-0.038337998,0.02135995,-0.017941577,-0.05564297,0.054601002,0.06583042
0.0059331567,-0.004969004,-0.02112476,-0.021067923,-0.005901411,-0.012503033,0.0063550444,-0.0028090081,-0.015435185,-0.021856567,-0.035574134,-0.03161443,-0.011299518,-0.042494766,-0.017701829,0.014490195,-0.018494483,-0.011189734,0.013930644,-0.0015223499,0.009530895,0.004670253,-0.010217776,-0.006611867,-0.00061479816,-0.0040358035,-0.0061680824,0.022965364,0.0002514672,-0.020949855,0.06824642,0.026854426,0.09099663,-0.014752793,-0.042011477,0.012794368,-0.0029609152,0.029046524,0.0080572525,0.009956474,0.009318238,0.008080737,0.026279686,0.010121109,0.00822388,-0.0101375915,0.034234494,-0.013357047,0.015925882,0.04513923,0.010113479,0.0006271574,0.0076542892,0.003269392,-0.026273597,-0.009655863,-0.0068160924,-0.07436102,-0.03502586,-0.067035496,-0.019564837,0.010270457,-0.015653798,-0.037059546,-0.03299152,-0.026347216,-0.003975056,-0.02968387,0.008634546,-0.003202011,-0.014596614,-0.0057093613,-0.009866161,-0.01163018,-0.019244991,-0.01688965,-0.017156724,0.007513471,0.006748574,-0.020755842,-0.006131476,-0.013100836,-0.013583029,-0.029917331,-0.018222515,-0.016156789,-0.0011359183,0.023057077,0.004538852,0.023713779,-0.00045147847,-0.0003820891,-0.012715673,-0.004953261,-0.004444349,-0.00918338,0.0056981645,0.008395158,0.001353109,0.006252328,-0.029641872,-0.02496329,-0.003938131,0.024382733,-0.0034381363,0.009881935,-0.015175944,0.0004666756,0.014918069,-0.009006371,0.014273353,-0.0015059568,0.03411091,0.04886459,-0.010966524,0.042102844,0.06011336,-0.016034033,-0.031850956,-0.00788715,-0.025677497,-0.031926632,-0.035018068,0.047585636,-0.031095251,0.015720274,-0.017551318,-0.027926816,-0.01418831,-0.023402711,-0.023568528,-0.018853744,-0.015599167,-0.014469065,-0.024117187,-0.086674966,-0.049317762,-0.017920343,-0.00878137,-0.012033799,0.04773305,-0.036717612,-0.03477624,0.011500917,0.00015591894,0.025146047,0.020126384,-0.028428623,-0.023736343,-0.00080106047,0.010427227,0.026339455,0.011375223,0.0030727342,-0.00396104,0.018701019,0.013176568,-0.030037304,-0.0034875371,0.027349733,0.02311377,0.036252964,-0.009704835,0.022502301,0.03328122,-0.0031547216,0.003066681,-0.010565601,0.023486892,-0.0018779753,-0.00809766,-0.034982163,-0.0028645843,0.017161747,-0.019708753,0.0005399789,0.030913085,-0.0003589524,0.012893995,0.0038949666,-0.011511783,0.014207751,0.0032187654,0.001139127,-0.0023218342,-0.0036118974,0.0012506072,0.013100699,-0.0024309482,-0.03834505,-0.047909003,-0.035694715,-0.00077167765,-0.02220171,0.047576245,0.008452417,-0.025581688,-0.00704587,0.010703762,0.0034412972,-0.0097590415,0.04286952,-0.005210421,-0.024992283,0.031231431,-0.00807272,-0.01374378,-0.0011117806,-0.006005634,0.0075632925,-0.022444196,-0.024127766,-0.016279016,0.015078577,0.009039111,0.04803778,-0.004436465,0.0029538074,0.019274909,-0.010231474,-0.01768548,-0.0037904426,-0.0016784859,-0.011173124,-0.0008322294,-0.017444937,-0.004382125,-0.010964198,0.0078081386,0.00077177223,0.032008797,0.013705937,0.070743084,0.03164247,-0.021072475,-0.007334015,0.007687624,-0.0057803267,0.015853643,0.010433433,0.037267685,0.028832735,0.040006805,0.014935459,-0.010941834,0.0040344894,4.9737617e-05,0.01967708,-0.02866745,0.021606095,-0.0033646931,0.006249565,-7.483756e-05,-0.01871778,0.0005779369,0.01973888,-0.01686782,0.01694879,0.016251972,0.009907791,0.023349226,-0.028471906,-0.012340746,0.004124907,-0.0073994957,0.015634367,0.002767064,-0.046586458,-0.020989427,-0.014634979,0.020248868,0.024458174,0.019751692,0.005013077,0.008671246,0.007979091,0.0043691234,0.0041752746,0.0032922847,0.0006867508,0.00060268154,0.00014698713,-0.0003990059,-0.00016145628,0.00028416922,-0.0009800218,-1.5745085e-05,-2.4730662e-06,-0.03659659,-0.046524063,-0.033781473,-0.036800526,-0.027651053,-0.020046188,-0.049652375,-0.02159798,-0.029108966,-0.03330449,-0.051967286,0.028074654,0.007612505,-0.044677,-0.019635824,0.0069114584,-0.040698774,0.0028736785,-0.003790327,-0.006033635,0.0038670895,0.022960322,0.021237258,0.023472711,-0.006749917,0.009313308,0.006630651,0.009878557,-0.026336776,0.019463012,0.024030678,-0.008254446,-0.0015997404,0.04955316,0.022831775,0.01891184,-0.010570759,-0.013764782,-0.01249796,-0.023093756,-0.042844273,-0.00073583005,0.015595574,0.022324696,0.032952204,0.05901368,0.047414355,0.027588945,0.042421244,0.03808899,0.024629481,0.05273462,0.0234235,0.02963818,0.00015537345,-0.033180982,-0.015667286,0.030782053,0.0013248586,-0.00668253,0.039475333,0.028834118,0.010907209,0.0025198853,0.0016841895,0.0013741121,-5.8782643e-07,0.0022556363,0.0007825414,-0.0010102483,0.0015695898,0.0010178103,-0.0054416414,0.0061774817,-0.0003043065,-0.0013329965,-0.0030929914,-0.008944979,-0.015307714,-0.021420347,-0.009292759,0.0003441964,0.005119622,0.0012614359,0.021947268,0.017835235,0.04947541,0.0072451974,-0.009707215,0.0075813145,-0.096303105,-0.054659583,-0.07807543,-0.05189674,-0.0276641,-0.0052005653,-0.0075785033,-0.0127895055,0.010749753,-1.8014015e-16,-5.383603e-26,-1.5917604e-17,-2.5630084e-15,-4.861028e-18,-1.633129e-13,8.8061984e-14,3.4644724e-12,1.10273305e-14,0.004126463,0.005302489,0.0026570938,-0.011660284,-0.013499332,-0.008935847,0.0405524,0.026682965,0.048794672,0.0346815,-0.013769359,0.03179155,-0.02978782,-0.024426537,-0.04481851,0.031306434,0.045856915,0.021025006,-0.03932923,-0.034322824,0.00056574814,0.010827727,-0.019116506,0.028577736,-0.012208141,-0.013691837,0.0102732545,0.0035248755,-0.017623167,-0.010316807,-0.0022785706,-0.009271215,0.003995637,0.004828252,0.027146472,0.03204016,-0.0042151087,0.009845755,0.0036391008,-0.0046230094,0.004809314,-0.005135114,-0.011390639,-0.00519293,-0.0057972046,-0.030333733,-0.027743282,-0.0053285756,-0.046807878,-0.03601459,-0.023703031,-0.00889637,0.0025123977,0.0015056668,-0.065624304,-0.05013718,-0.027593225,-0.04671766,-0.04653143,-0.05412645,-0.039861325,-0.005342657,-0.04529259,0.033180624,0.00942491,0.018740661,0.01894346,0.00593082,0.035598658,0.022757681,0.01671024,0.023863792,-0.05154451,-0.055839237,-0.0010362746,0.028812198,-0.022160303,0.0088468455,0.011928134,-0.022741467,-0.0414515,-0.017562412,-0.03156276,-0.014905647,-0.020402314,-0.028169967,-0.0036108254,0.0128438715,-0.0036513417,0.010274304,-0.013546997,-0.020390827,-0.018896773,-0.052200302,-0.04691017,-0.048307333,-0.032276038,-0.014882127,-0.003298795,-0.0731326,-0.0007857643,0.017824892,-0.032010216,-0.00067073945,0.058325868,-0.0053537413,-0.014330187,0.008755487,-0.05509036,-0.07659658,-0.068618745,-0.042210214,-0.05607604,-0.03979987,-0.005721455,0.006531856,-0.025533006,-0.08663589,-0.076077476,-0.06233639,-0.05488205,-0.060390092,-0.034752507,0.001737498,-0.030839603,-0.023143224,-0.0055213463,-0.0015720318,-0.006508358,-0.0014555969,0.0035578837,0.0028700277,0.00148359,0.0008905966,-0.0017264221,-0.021124056,-0.024247015,-0.0045873225,-0.025593882,0.006695402,0.040604435,-0.04094747,-0.017823637,-0.0075765266,0.011942678,-0.030910121,-0.015290064,-0.012509149,-0.011792699,-0.006202833,0.007098162,-0.009697276,-0.0030046443,0.001818561,-0.0056476677,-0.0011948425,-0.010931652,-0.0029605995,9.9004676e-05,0.0014163305,-0.00055518927,-0.0032886516,-0.051835556,0.0037959176,0.021085998,-0.06506645,-0.0029360976,0.019141208,0.021480469,0.019712353,0.010512699,0.0024461083,-0.026456043,-0.018721126,-0.018150037,-0.034661856,-0.044296924,0.022550816,-0.008870067,-0.016114244
0.016882805,-0.024777863,-0.036033515,0.028595662,-0.06491844,-0.030706028,0.0715532,0.055469,0.009548793,-0.037114736,-0.06485962,-0.05814051,0.059120517,0.021807425,0.008485342,0.12200923,0.06448638,0.049338195,-0.035209298,-0.020086886,0.01734017,-0.017196592,0.0073098238,0.020427652,0.032997794,0.02951009,0.028391965,0.050010856,0.0039164852,-0.08224848,-0.01710684,-0.031693593,-0.03578573,-0.0054674847,-0.00773073,-0.026047166,-0.012206658,-0.019114269,0.00926207,-0.046282023,-0.0040409444,0.01646158,-0.00097057835,-0.0041548805,0.0057336343,0.054889567,0.02817809,0.0038273095,-0.003680977,-0.022891188,-0.024472075,-0.016524872,-0.073110394,-0.064997934,-0.03520281,-0.0031493823,0.034806807,0.004919813,0.008753356,0.027627781,-0.044217493,-0.0547611,0.0045276624,0.060478393,0.038883407,-0.023114927,0.01129405,-0.029774634,-0.03680289,0.048646998,0.020251766,-0.032720745,0.01978777,0.007501249,0.03193455,0.101946495,0.04911614,0.060478836,0.04761702,-0.023983464,-0.0020503218,-0.0072068963,0.010705842,0.07645248,-0.05620137,-0.010438056,0.02387431,-0.008578378,-0.060953934,-0.04681308,-0.00905439,-0.013084142,-0.013916294,0.0010423299,-0.014591342,-0.0089911055,0.012638194,-0.008385177,-0.0025478401,-0.022536991,-0.018457608,-0.07428267,-0.010915191,0.00054863817,0.0019402012,-0.019370822,0.002032093,0.012182018,0.0118868565,0.10384337,0.120689824,-0.023379788,-0.018421063,0.03995278,-0.12412736,-0.08468886,-0.06625066,-0.03300926,-0.029828934,-0.001362558,-0.05818225,-0.06569277,-0.09115361,0.080730975,-0.034095593,0.0061807176,-0.008011688,-0.0017594257,0.018007904,-0.045640152,-0.0985023,-0.039018832,0.0020831325,0.0013405412,0.04063815,-0.061999083,-0.12051096,-0.035535514,-0.0847691,-0.09539219,-0.09001828,-0.056078546,-0.008752383,0.015955359,-0.030392708,0.02320543,0.017976375,-0.06798922,-0.07827718,-0.027617624,-0.079804435,-0.02858229,0.022366118,0.015457544,0.028486606,-0.0110271275,-0.060331363,-0.054723725,-0.061872974,-0.068941645,-0.07556055,-0.040736564,-0.03855771,-0.029972995,-0.0030467075,-0.04895933,-0.03441036,0.004363699,-0.057600737,-0.028842017,0.013193997,0.03654208,-0.009235032,0.03634528,0.01301496,-0.069378376,-0.025016269,0.012286362,0.015984397,0.042545944,0.0012689893,-0.004937473,-0.010780046,-0.046430778,-0.009421449,-0.023874423,0.01890763,0.032721493,0.027097318,-0.08972644,-0.05399002,0.014263154,-0.067631066,0.017195791,0.06327168,0.010286868,0.03080265,0.08856324,0.069644675,0.041295014,-0.010698591,0.0772565,0.076807864,0.02099505,0.080204524,0.07051563,0.017500192,0.0009750243,-0.009051774,0.02193781,0.017828908,0.08357912,0.040319867,0.11896038,0.14114122,0.15508913,-0.04293336,-0.016441986,0.03758752,-0.011955238,-0.053189497,-0.019396072,-0.007273052,-0.0023596769,0.023337621,-0.054734983,-0.018357333,-0.026763797,-0.07587552,-0.031364236,0.0065005105,0.004640233,0.014365029,-0.040579,-0.047631964,-0.0662855,-0.041299798,-0.023358291,-0.016741104,-0.009365835,0.04952443,0.03268495,0.0763023,0.0053261593,-0.022776801,0.019926393,-0.012863342,-0.056439906,-0.06695049,-0.023757532,-0.08785375,-0.0370551,-0.012111843,-0.044800315,-0.027865842,0.0007956021,0.019655505,0.042600743,0.06898149,0.048191626,0.08728876,-0.029690698,-0.008084723,0.029197063,-0.00042130827,0.062673144,0.021789946,-0.024045015,0.02858472,0.11666941,0.032246146,0.043297917,0.048439372,0.031215413,0.03554964,0.042338736,0.006486733,0.012245098,0.015628753,0.0055553224,0.004984555,0.0055722347,0.0031212652,0.0057927608,0.006939216,0.008304786,0.008468192,0.0044876407,0.061461106,0.06860943,0.06440262,0.053839575,0.0305523,0.0544248,0.013397554,0.009128586,-0.029964464,0.0013863237,-0.0020712186,-0.00045344804,0.034113586,0.004957967,-0.00919593,0.030963723,0.036499664,-0.008869122,0.02057412,0.016023528,0.011092553,0.017635392,0.043228455,0.0070762597,0.031002669,0.053467933,0.0062405467,-0.04304734,-0.070136055,-0.018270724,-0.06329373,-0.043059412,-0.067771964,-0.067902684,-0.03769685,-0.01123501,-0.045421947,0.00019408391,0.033691585,-0.042598717,0.025022289,0.064328186,-0.006340113,0.065518536,0.055430643,0.09435856,0.059999797,0.029268702,0.0585596,0.07259472,0.016030926,0.049316626,0.07842381,0.06523931,0.0146690775,-0.023134807,0.015543268,-0.0006875011,-0.05193457,0.0035900357,-0.0011626704,-0.028215464,0.009726087,-0.006127263,0.001430703,0.0053224056,-0.004648064,0.00269034,0.011993628,-0.010179715,-0.0025879599,0.0004539684,-0.0039378307,0.0013499056,0.009751837,-0.012414017,-0.035766836,-0.04795109,0.028851764,0.0125491,-0.021624703,-0.014449427,-0.034012493,0.0038884727,-0.02597237,-0.011652093,0.023382105,-0.020835254,-0.018958833,0.003363226,-0.0716669,-0.09678193,0.09208765,-0.085470155,0.040267214,0.07519132,-0.10236267,0.03582139,0.117290415,-1.280368e-06,-2.3086734e-06,-6.3460075e-06,-3.7232214e-06,-1.03142565e-05,-4.3475284e-06,4.7496865e-06,3.8823628e-06,6.8846965e-08,-0.034684666,-0.0021808622,0.02472008,-0.09308917,-0.024036443,0.06849567,0.041154336,0.096608035,0.13542446,-0.12663674,-0.093243495,-0.0949461,-0.12156312,-0.11251544,-0.11116324,0.00066722365,-0.007344538,-0.009096772,-0.06533049,-0.048609268,-0.06556403,-0.029114613,-0.059902087,-0.064347126,0.04031957,-0.035570737,-0.015861604,-0.02473168,0.016683653,-0.0075507932,-0.010421922,-0.026876502,-0.007888231,-0.027644167,0.022754665,0.054051556,0.0023351791,0.023077225,0.040225722,-0.052037403,-0.00013260682,0.01833667,-0.059485074,-0.0033960287,0.0045884955,0.005225709,-2.6694292e-05,0.018094724,-0.030980181,-0.023920238,-0.012547203,-0.011397536,-0.017552434,-0.023920517,-0.09063986,-0.06896789,-0.09745914,-0.14903852,-0.114334024,-0.08508907,-0.027633829,-0.043020282,-0.0037097386,-0.02629105,-0.08197567,-0.010172299,-0.031011287,-0.015055744,0.026132107,0.15245503,0.13385066,0.14247647,0.05026974,-0.0075284326,0.026042696,0.033731434,-0.007509646,-0.031117314,0.12030591,0.06424245,0.018564476,-0.058790296,-0.07456241,-0.07639812,-0.0982725,-0.1131352,-0.117934845,0.049293604,0.014715009,0.003372645,0.05831007,0.06470841,0.05262071,0.008300379,0.025638312,-0.012003681,-0.015166802,-0.0411505,-0.04283534,-0.047020517,-0.06530536,-0.0018910848,-0.02671153,-0.028110819,0.040881597,-0.0011641582,-0.05103348,-0.08745629,0.053331908,-0.0056073777,-0.031172484,-0.03610201,-0.041479185,-0.11910849,-0.03696894,-0.098510236,-0.15115018,0.024630075,-0.020016832,-0.04482013,-0.008125868,-0.048173644,-0.008424582,-0.012990425,-0.04423482,-0.09652479,0.00053085457,-0.003449864,-0.008694359,-0.0047716512,-0.025824204,-0.012816921,-0.0046498147,-0.010320457,-0.007954463,-0.034878638,-0.05083905,-0.04513065,0.0067967554,-0.05436281,-0.021719003,-0.009955449,-0.05410332,-0.053972505,-0.007112825,-0.0052954294,-0.0262112,0.00012550998,-0.023092257,-0.024868207,0.012207662,0.00899152,-0.0023010008,-0.01546036,-0.003618778,-0.018873716,-0.011468656,-0.019595493,-0.029167986,0.005111908,-0.0031780747,-0.024667084,-0.0746868,-0.092933424,-0.026152767,-0.03980312,-0.0048278533,0.034160815,0.03953163,0.08864746,0.116519846,0.025233151,0.007824805,-0.0012162479,0.00481969,0.0069371527,-0.03873442,-0.017145066,-0.014112195,-0.08513841
-0.0321851,-0.022466611,0.011813624,-0.026919486,0.0066278125,0.006986133,-0.008753576,-0.045378692,0.009564445,-0.013696237,-0.028196057,-0.013497121,0.011406326,-0.007582984,0.0061517465,0.0023584622,-0.005108691,0.011074836,-0.013199101,-0.0047510793,0.0022268102,-0.008373357,-0.01457223,-0.022308957,-0.006606589,0.011485023,0.0005991599,0.0016570135,-0.016040092,0.020801911,0.006623532,-0.010995778,-0.022443853,-0.021899218,-0.012074028,-0.016717969,0.004159432,0.014909502,-0.015878797,-0.0035609188,-0.0073451237,-0.0030978671,-0.003302461,0.00016073312,-0.003187209,-0.041735042,-0.02717806,-0.010111276,-0.00050221646,-0.034565922,-0.044235997,0.008454955,-0.029317396,-0.022375463,0.05354923,0.041796822,0.08900596,0.00014106934,-0.0035274453,-0.026970575,-0.008582783,-0.052937854,-0.04409028,-0.01628769,0.005618673,-0.03458697,-0.0072812075,-0.023946658,-0.031005656,-0.03287002,-0.03832054,-0.02209499,-0.004514129,0.0018055579,0.011599771,-0.00039321746,0.037230518,0.014695983,-0.013388106,-0.009244591,-0.03306556,-0.0006635332,0.0057570785,-0.00704104,0.01249806,0.0032133502,-0.008747607,-0.015753085,0.008876863,-0.029724931,-0.00054345623,0.009720476,0.0047284896,-0.009040114,0.040127423,0.044086043,-0.007634075,-0.004573964,-0.016330741,0.002501589,0.00773963,-0.018763822,0.0080416845,0.015077666,-0.010077835,-7.642832e-05,-0.0012403305,0.006678705,0.029967057,0.017137397,-0.050216045,-0.023624439,-0.0070685116,0.018965084,-0.010778143,0.023211533,-0.0017247642,-0.013316305,-0.006928681,0.021199983,0.012268517,0.0017595432,-0.023645047,-0.02276326,-0.040820077,0.0067166593,-0.0032632733,-0.0071579185,0.008629125,0.0020265125,-0.0017122808,0.017659621,-0.004800436,0.0021285007,0.018679613,-0.031922217,0.0034366995,-0.04887077,-0.042292647,-0.035522927,0.014808882,-0.0472119,-0.012715091,-0.03629851,-0.013947829,-0.027541004,-0.029578898,-0.0073910984,0.005289359,-0.003583831,-0.021927381,0.021600248,-0.03235795,0.015770614,-0.0052668112,-0.016181508,-0.01669376,0.0124205705,0.018618466,-0.024876578,-0.026212014,-0.026414175,0.03445469,0.04813053,0.04238911,-0.0008836327,-0.018408602,-0.004626642,-0.0026082762,-0.010919433,0.0009363721,0.009032494,0.060018506,0.011600256,-0.01332717,0.0071213627,-0.011979971,-0.0025559347,-0.011589104,-0.005089402,-0.009494824,-0.009929343,-0.015754307,-0.014064984,-0.016674824,-0.0037834893,0.0023066995,-0.0025529368,-0.011767526,0.0040499317,-0.002845981,-0.037830565,0.0061230743,0.0068541,-0.008724004,-0.025759201,-0.0103178965,-0.04084026,-0.007052819,-0.0132832825,-0.011702566,-0.010110688,-0.011900338,-0.013959537,-0.01210034,-0.0030230044,-0.01611247,-0.043286584,-0.012788248,-0.03733815,-0.0059075356,0.0043078866,-0.029682728,-0.02763775,-0.019977136,0.005074384,0.016064331,0.013474997,0.028208697,-0.018113937,-0.013367682,0.0071922545,-0.018169045,-0.010854723,0.002223341,-0.054749303,0.013246768,0.08029879,-0.040318124,-0.0051599815,-0.02969519,-0.02238645,0.005002844,-0.04939679,-0.013040904,-0.023508292,-0.0029127444,-0.012792661,-0.017228652,-0.04518424,-0.008967287,-0.017025253,-0.029789412,-0.0013055069,-0.01349313,-0.01797083,-0.04071616,0.0018529445,-0.032479107,-0.027828718,-0.050440975,-0.025076296,-0.05510428,-0.027655875,-0.005050506,-0.018099973,-6.9334405e-05,-0.018496573,-0.01932048,0.0072928104,-0.0059736553,-0.010427653,0.019109562,0.0019374483,0.01770669,0.022993099,-0.001175289,-0.009257514,-0.0065419534,0.037798762,0.014331086,0.009536167,0.0040490753,0.0148288645,0.011704629,0.0033858167,0.014925976,0.01432836,0.009718117,-0.0016923554,0.0010759543,8.0917336e-05,-0.0011839663,-0.00021637847,0.00059008284,-0.00090528524,0.0007790028,0.0002387371,0.022569105,0.0009374164,0.018427191,-0.019646557,0.017693013,0.014685452,-0.058069814,-0.015571727,-0.034190565,0.031329736,0.008982631,-0.061305393,-0.028706118,-0.02989378,-0.013548843,-0.04620996,-0.015491629,-0.027095174,-0.03809552,-0.012142741,-0.017698642,-0.009333017,-0.0006268225,-0.015565394,-0.007248604,-0.006302244,0.01180765,0.01539292,-0.012403163,0.010805494,-0.028858371,-0.009083036,0.036557984,0.0035401885,-0.019298622,-0.006922403,-0.004018832,-0.016526556,-0.0075773117,-0.005566424,-0.0039870427,-0.024682349,0.041155048,0.017060116,-0.01942309,0.004987994,0.024718313,-0.0099457735,-0.006179217,-0.013079386,-0.0073480066,-0.001334973,0.03850094,0.02742789,0.01581592,-0.010663464,-0.01635844,-0.023490101,-0.00031283905,-0.028972046,-0.019853119,-0.038191006,-0.05185377,0.006814004,0.0064757727,0.0033756385,0.006849278,0.005208784,0.0051078876,0.0051584556,0.0059672943,0.0052785757,-0.0039698114,0.0039355033,-0.010925196,-0.018110735,-0.004937901,-0.008240091,-0.009090583,-0.0042280518,-0.009816218,-0.0074631535,-0.004078524,0.0049825613,0.026269035,-0.0009320368,0.011881279,-0.0029873375,0.008680722,0.012995036,0.096998565,0.018051239,-0.070566796,-0.018864341,0.00066050555,0.06126729,-0.060437474,-0.09677411,-0.05574256,-1.9020243e-08,-3.4565775e-10,3.544198e-09,7.508472e-13,4.122977e-11,1.7092638e-09,1.6700709e-11,-3.74787e-10,-5.3110555e-10,-0.0069868774,-0.011893498,0.0033866786,-0.0003853342,-0.035310954,-0.0155683495,-0.03966646,-0.05448132,-0.03130536,0.008255196,0.003319486,0.04148776,-0.03339911,-0.0072293803,-0.019582048,-0.023607481,-0.056453682,-0.013052354,0.034546625,0.021217154,-0.043020688,-0.021651546,-0.032801706,-0.04435768,-0.04989653,-0.014690052,-0.05793175,-0.009707891,0.0045550684,-0.01646004,-0.0058582835,-0.02348981,-0.010099644,-0.008487834,-0.013682806,-0.021874335,0.008119573,-2.9985487e-05,-0.0024470116,-0.0045774886,-0.003952549,-0.006442882,-0.0106993355,-0.007618511,-0.005040394,-0.017780233,0.030688113,-0.036332864,0.00019553286,0.024788179,-0.01763372,-0.006592334,-0.0034799061,-0.019039333,-0.06008498,-0.041531924,-0.040846433,-0.04719095,-0.06895477,-0.051043306,-0.027114352,-0.020681392,-0.058190294,-0.036630716,-0.0043646335,0.0072589098,0.008054149,0.005427223,0.020115726,-0.03693969,-0.000917958,0.04104612,-0.0008745072,0.00093035353,0.041121192,-0.06493915,-0.059984237,-0.01920072,-0.07891417,-0.030036854,-0.10694359,-0.022819474,-0.015335437,-0.023428887,-0.013740368,-0.008854032,-0.015104426,-0.012432476,-0.015883204,-0.014108886,0.008449329,-0.009157508,-0.0022107535,0.0043969858,0.004706214,0.0070798015,-0.024376785,-0.022393962,-0.032824256,-0.025964227,0.031367946,0.03663713,0.0025491223,0.008498436,-0.0135893375,-0.009348606,-0.020024575,0.007985637,0.019040018,0.008801935,0.039448414,0.015138274,-0.014516429,-0.036164504,0.0017252843,-0.016008692,-0.022645967,-0.023349753,-0.020192897,-0.055902794,-0.020322265,-0.020693045,0.015841743,-0.007968625,-0.025810739,-0.01868518,-0.0111238165,-0.0034596995,-0.0032484215,-0.0016675288,0.0023350858,-0.010385026,-0.0026872577,0.0032700833,0.00020034616,-0.04513713,-4.1151245e-05,-0.031883754,0.0004204515,0.0006747501,-0.024349438,-0.026527056,-0.031695385,-0.0011756395,-0.014197986,-0.017844029,-0.0012291842,-0.013037347,-0.006624044,-0.031152183,-0.0072588306,-0.016544709,-0.022743212,-0.0056671067,0.0064995964,-0.014966945,-0.0016935008,-0.006165867,-0.0068446537,-0.0015344596,-0.00576762,-0.022468572,-0.023244655,-0.005483963,-0.018102517,-0.03474147,-0.0037788257,-0.018568814,-0.00028147578,-0.027863003,-0.017865608,-0.0010424978,-0.005171776,-0.026491003,0.0013442347,0.0210695,0.012846076,-0.021816105,0.017931662,0.001971011
0.030935539,-0.01236795,-0.055300303,-0.038358103,0.03127938,0.012033714,0.0048213974,-0.0025550984,0.036820143,-0.019176839,0.009323023,-0.022417298,0.0025389974,0.047349982,0.0032472815,0.05377259,-0.001325086,0.040701903,0.0028170666,0.006557734,-0.024589298,-0.010929513,0.020111887,0.004415329,0.013820727,0.0037229306,-0.009353231,-0.024621015,-0.05362197,0.045232058,-0.017486094,-0.02851979,-0.016201768,-0.045572508,0.019079968,-0.004757931,-0.04307118,-0.0071892883,-0.0048444653,-0.020510783,0.010206009,0.01490402,0.010669841,0.025731523,0.008377931,-0.014764826,0.0044366987,0.0070332764,-0.02050279,-0.024390638,0.002004991,0.043645483,-0.0131440135,-0.036940027,-0.025485229,0.07549415,0.011202085,-0.052921824,-0.023787824,0.009111658,0.021712681,0.013099739,0.08191996,0.007579409,-0.030017357,0.042740267,-0.038902313,0.054771163,-0.014914174,0.017494101,0.0245385,-0.043565948,-0.009553553,0.032704856,0.010852401,-0.0026335681,0.0057797246,-0.03332819,-0.0033281085,0.032850362,0.05333521,0.0151992235,0.039309382,-0.041958287,0.008131779,0.030024521,-0.058170278,0.034606192,-0.008177279,-0.010329793,0.008826489,0.020396175,0.030368812,0.022800835,0.012542316,0.009941421,-0.010210291,-0.017749563,0.00938889,-0.06822953,-0.0016184312,-0.025541658,0.03260681,0.003157098,0.017105058,-0.01015504,-0.013346157,0.022026278,-0.03608698,-0.09769652,0.002675862,-0.03008583,-0.054224964,-0.010444908,0.000986753,0.05188037,0.0044907145,0.04133947,-0.012277009,-0.0070722466,-0.01645099,-0.035471465,0.0326857,0.022075184,-0.017513994,0.010065039,0.009552231,8.410493e-05,-0.027973048,0.0064812973,0.0052563143,0.002575424,-0.008223786,0.053920723,0.0025309871,-0.040895455,-0.093143314,0.062214307,-0.051638298,0.16454542,-0.07847756,0.03166719,0.058830965,-0.076890044,-0.036960326,-0.0057399003,-0.019973472,0.0041259984,-0.023468202,-0.035842627,0.014178284,0.0593195,0.040337224,-0.052776143,0.002734868,0.03330312,-0.029165609,-0.020834628,-0.008412998,-0.01708107,-0.023589225,-0.051065616,-0.010817737,0.049361087,-0.014851103,-0.008207724,-0.015102846,-0.007878421,-0.0038216636,0.035744168,0.012575288,0.0011892322,0.04116356,-0.0529739,-0.061005592,-0.043211598,-0.0031613244,-0.014644115,-0.021849368,-0.016643573,-0.010139743,-0.0010070034,0.023130933,0.0042106034,-0.026085215,0.024706142,-0.005225139,0.0052074906,0.015099932,0.0116364965,0.04369061,0.051027857,-0.01856372,0.056210577,-0.037425295,0.022214517,-0.009470398,-0.06339135,0.006213854,-0.0111445,-0.00330108,-0.025906483,0.011145415,0.0077661,-0.030140134,0.0064432314,-0.01650815,0.037474476,-0.004241622,-0.0005959589,0.0450597,0.022538517,0.029946,-0.038098656,0.11421689,-0.040920295,0.01613084,0.0006085373,0.009622355,-0.023268446,-0.017866086,0.019032024,-0.0026688343,0.048820794,0.01519296,-0.0203186,0.09355312,0.0052849255,-0.014988873,-0.113148004,0.009587072,-0.011840295,-0.039693385,0.13527739,0.008197397,0.009874019,0.014519178,-0.0032227463,0.021616116,-0.03319901,0.021350207,0.057523575,0.01485567,-0.013433587,-0.023909751,-0.086993404,-0.053332146,0.022763513,0.0110316435,-0.05485893,-0.0501056,-0.041174084,-0.008403737,0.038148582,-0.0006573827,0.021894416,-0.03219149,0.015605447,0.023505185,-0.008097492,0.008032463,0.03487028,0.023306342,-0.0032595731,0.0095677525,-0.025267852,-0.0056342874,-0.0016319945,0.012955992,0.022995694,-0.0044709244,-0.0017851443,-0.002159988,-0.010184192,-0.003609629,-0.0047571687,-0.0044948347,-0.003104789,-0.0033380804,0.002416858,0.0010900783,0.0034433247,0.0007028149,0.00026096287,0.00085895864,0.00081160653,0.001343226,-0.0009389041,-0.015111965,-0.03033628,0.041731145,-0.033157203,-0.03571098,-0.0073956335,0.023809185,0.015108836,0.027054066,0.0059267525,-0.049805995,-0.07553232,-0.04792291,0.07156033,-0.068198174,0.021064246,0.0976432,-0.06835036,-0.039497744,0.03235621,-0.04246145,-0.059891026,0.03105005,-0.0056800223,0.002386809,-0.010890595,0.0425777,-0.03595902,0.039704066,0.023517255,-0.020925753,0.061112955,-0.027559713,-0.050793737,-0.023056457,-0.020490943,-0.00021435658,-0.02606655,0.039910834,0.111530654,-0.042111706,0.019363133,-0.0069317594,0.034975126,0.02757083,0.019682094,0.0336816,-0.021018943,-0.015356585,-0.0016992065,-0.03597385,-0.04279315,-0.015537862,-0.02047696,-0.015825363,-0.033744,-0.030243851,-0.022639364,-0.0018375316,-0.07031545,-0.0040014144,-0.017534891,0.00057054043,-0.0024866443,0.0007029983,-0.0012046449,-0.0024146964,-0.0005554218,-0.002641954,0.00055977557,-0.0052077207,-0.006799834,-0.018475367,0.027383158,0.013924629,0.042144656,0.010209582,0.0066271974,-0.017744213,0.011854977,0.018930277,0.040754426,0.0014727047,0.015093614,0.040986173,0.010539814,-0.0059459656,-0.035546944,0.042992797,-0.018433046,-0.098932065,-0.06853179,-0.06545555,-0.11714142,0.18736745,0.024375327,-0.028252063,-0.035100777,-0.11481792,-3.4124266e-11,-2.1578998e-08,-5.9780137e-12,-5.082203e-09,2.8651108e-08,-1.6922491e-10,3.4528375e-07,1.7302868e-07,6.9731215e-08,0.0042991657,-0.02420523,0.08295665,-0.012096912,-0.026547326,0.017109815,0.04256186,0.008572492,0.031592157,-0.049162813,0.08834031,-0.009183222,-0.027984034,-0.019247646,-0.044525124,0.061156992,-0.022813445,0.106116466,-0.0009089419,-0.0044651437,-0.012499955,-0.100953706,0.20972404,-0.044005733,0.073327705,-0.020538352,-0.0570788,-0.013982763,0.0064943586,0.015564772,0.010462364,-0.018968524,-0.0071898396,0.029801767,-0.001920665,0.036161475,-0.0016300763,-0.007575073,-0.0003966385,0.005597345,-0.0019430417,-0.0026190944,0.0072933934,-0.0012234247,0.0013650251,-0.07650204,0.012698474,-0.023003437,-0.037650436,-0.0071625365,-0.032702435,0.022290217,-0.011056145,0.027233278,-0.070240356,-0.010342564,0.054408647,0.062639475,-0.08194792,-0.036043826,0.022142187,0.027831461,0.06854969,0.016370982,0.017388673,-0.0031409971,0.018899623,0.050989177,0.035228107,0.0038550838,-0.0030598724,0.052248444,0.0011086353,-0.0135187255,0.05683506,-0.010026309,-0.030417068,0.027323507,0.10006034,0.029084709,0.013473892,-0.00577062,0.016667746,0.0008350542,-0.012328611,0.014316763,0.004396497,0.008888012,0.067112096,0.04369815,0.009473979,-0.013227321,-0.0017850483,0.005484312,-0.0020808242,-0.0453741,-0.004430144,0.03599631,-0.019460103,0.049236443,0.013556974,-0.0133435065,-0.0665411,-0.051328238,0.07442871,-0.0002990978,0.012669935,0.024376353,-0.009987222,-0.0091116,-0.036344714,-0.012583518,-0.042960316,-0.07395793,0.01807967,-0.0043768957,0.0756539,-0.067729555,-0.0068561486,-0.020715607,-0.022339374,-0.060047153,0.0029080259,0.00739343,-0.015569372,0.03659387,0.0043812655,-0.0027199138,0.008615795,-0.0062824776,0.018081142,-0.00022503073,-0.01132971,-0.0050701615,0.0056022666,-0.06570794,-0.013735061,-0.09777401,-0.10189532,-0.04180175,0.10642634,-0.0014020867,-0.015620139,0.07501033,-0.053189024,0.01419204,0.00041634348,-0.01822158,-0.00078724517,-0.0065728063,-0.013834606,-0.008943319,0.0680544,-0.038540434,0.020205788,0.011402815,-0.037857927,-0.0031428381,0.020571394,0.007877429,-0.012171375,0.05537735,-0.00691121,0.010906554,0.006021233,-0.057843246,0.07468332,0.01685804,-0.032369502,0.06747433,0.033806007,-0.0069014854,-0.002147146,0.0031580029,-0.003981977,-0.04167428,0.016267436,-0.032729656,0.009909519,-0.021959083
0.048487253,0.10768004,0.0630748,0.036679395,0.039273266,0.074514404,-0.0036161023,0.04012152,0.02587568,-0.021471264,0.01688736,-0.0028134296,0.011247518,0.013861267,0.03082577,0.030000975,0.043136805,0.019600451,0.014919314,-0.0002537521,0.032614566,0.0045499126,-0.026904754,0.020037947,0.008604938,-0.002286878,0.02525068,0.121323906,0.055724483,0.028817942,0.09214092,0.02636667,0.017435722,0.049739078,0.012857663,0.0026801866,0.0042550345,-0.011722713,0.009521054,0.01649242,0.0039714114,0.017814852,0.004393081,-0.00055156497,0.016414594,-0.014756074,0.0015035071,0.03719619,0.043300625,0.0048510353,-0.0019467766,0.021631893,0.045573644,0.10116043,0.039502356,-0.011279704,0.09201628,-0.06351288,-0.022829596,0.015215675,-0.028155452,-0.043724578,-0.012041583,0.07808004,0.048484594,0.031485714,0.06445165,0.048576735,-0.001981542,0.056103796,0.07538648,0.0752031,-0.032156944,0.006103961,-0.018641818,0.00071830413,-0.010618211,-0.024749046,0.018947277,-0.0033976506,-0.04288817,-0.016309712,0.013314085,0.041827112,0.03575581,0.018582033,-0.04256037,0.04524865,-0.01370772,-0.0042465976,0.016733998,0.017276134,-0.013777058,0.006921704,0.036089532,0.0032578509,0.006996581,0.014113073,0.028011661,0.029871965,0.02421916,-0.0010283313,-0.017814476,-0.029061314,-0.007165387,0.029304994,-0.011611301,0.0281582,0.026605994,0.017374735,0.0981735,-0.05827313,-0.10654775,0.028813865,-0.08598654,-0.0759854,-0.031541277,0.0067453966,0.0011292674,0.009913338,0.057653677,0.0053766915,-0.009070573,0.031362347,0.0018986517,0.0011149093,0.022284402,0.04587894,0.027145151,0.008821976,0.011968338,0.0045748726,-0.012132599,-0.02624556,0.0070888787,0.083352715,-0.026763989,-0.07169026,0.048712485,-0.0029701504,-0.035502758,0.022812054,0.039162263,-0.026404807,-0.010742922,-0.021421233,-0.012709373,-0.01674795,0.013527298,0.022785839,-0.001325891,0.009142854,0.0062178485,0.032477576,0.029941486,0.014292001,-0.011613583,-0.029663488,0.008478339,-0.023789942,-0.03878515,-0.042079743,-0.009235512,-0.013153182,0.008304987,-0.025710687,0.0062746033,0.010101809,-0.011071076,-0.020774696,0.011278788,0.015154053,0.08408647,0.020158151,0.014961761,-0.030378748,-0.016972201,-0.03376119,-0.013780067,-0.017066088,-0.012512922,-0.011472853,0.017964978,0.013449817,0.012538994,0.005485129,0.005455366,0.0048296247,-0.0039067487,-0.04151703,-0.05312435,-0.07631033,-0.016482582,-0.010495775,-0.025857689,-0.04864931,-0.018724602,-0.047399905,0.04952623,-0.008115103,0.013918376,0.026560104,0.017427629,0.014162785,0.035674226,0.04124506,0.013327534,0.00391599,0.0020574837,0.0024456235,-0.0016874366,-0.006686679,-0.006629508,0.038487207,0.03961854,0.02114332,-0.018740721,-0.03161321,-0.009974128,-0.023640072,-0.015744172,-0.01958485,-0.043399442,-0.0047155577,-0.017896306,-0.0134341745,-0.08168737,-0.0652462,-0.04799624,-0.033977654,-0.09474671,-0.0027691806,-0.0052447757,0.01019587,0.01778624,-0.029166585,-0.032013588,0.0058942945,-0.0003478831,-0.044771604,0.057172146,0.042319525,-0.0066617527,0.09910815,0.09482317,0.072006755,0.030245049,0.039922465,0.049371168,0.0414563,0.045727167,-0.02982627,-0.0005103968,0.0039316486,-0.0352186,0.035226937,0.0008994754,-0.028442167,0.04477494,0.021920655,0.02606349,0.026163217,0.0027671831,0.016463496,-0.008400191,-0.0062058712,-0.02398621,-0.007888694,-0.01804091,-0.028081812,-0.003085114,-0.0009141583,-0.0019911241,-0.0075570936,-0.005789549,-0.003094936,-0.0024337748,-0.0001008775,0.0015825037,-0.00045738986,0.000100284335,0.0010173876,-0.00078098365,-0.00038511027,-0.00029024115,-0.0021823745,0.00038661488,-0.00054563506,0.04542453,-0.049400378,0.0449251,0.017714186,-0.043703232,0.018379444,-0.047096323,-0.04388887,-0.014340082,0.08793327,0.05340174,-0.009531777,-0.0017804144,0.0847145,0.05895174,-0.05376782,0.015246194,0.0060797837,0.07301565,0.022546276,0.02582191,0.055535454,0.023058226,0.0110342065,0.025427591,0.03763679,0.073116325,0.04797273,-0.017850157,0.045978036,-0.0013274236,-0.017365899,0.0038444856,0.012661906,-0.021778384,-0.05212465,0.003049583,0.057538357,0.00960882,0.0009722441,-0.013617574,0.011335995,-0.022803172,-0.013885013,0.05566358,-0.06223592,-0.0120096,0.005273486,0.004844819,0.018802404,0.042295005,-0.0168109,-0.040318172,0.0050641554,0.0011668871,0.018802429,0.039793864,-0.008513478,-0.021058038,0.023143224,-0.019607596,-0.041042484,-0.055553522,-0.0017733324,-0.0025074605,0.0018068006,-0.002119759,-0.0016269675,-0.0016207601,-0.0041126637,-0.00096406403,0.0013731378,0.022053173,0.011775888,0.015239056,0.00277732,0.0024389352,0.013491217,-0.0272434,-0.014939782,0.0041986816,0.096152686,0.016155055,0.032754496,0.04055726,0.013552459,-0.00010363097,0.017833317,0.004060856,-0.005628351,0.16198488,-0.08392945,0.023826417,0.004681737,-0.04446993,-0.037799638,-0.012587341,0.053426433,0.008281381,2.024565e-08,4.538996e-08,1.5186307e-08,4.7487053e-10,-1.6587073e-09,-4.1920146e-08,-1.2712805e-07,-2.7891917e-07,-9.0185e-08,0.041697744,-0.0075867786,-0.0076605217,-0.018867742,-0.013092775,0.029952943,0.0051774695,0.010734417,0.010564908,-0.011764695,-0.04406968,-0.038008783,-0.030364316,-0.044801828,-0.060243856,0.012149912,-0.028336639,-0.019496834,0.044666186,-0.027057841,-0.03830387,0.057023063,-0.008203278,-0.07960474,0.021924347,0.0632739,-0.0027770337,0.0062846523,-0.002634435,-0.018398304,0.016819265,-0.023985349,-0.01858341,0.028849259,0.01016811,-0.027528701,0.004862482,-0.013885058,0.0210452,-0.0065462235,-0.0006978893,0.010856394,-0.0048740082,-0.005600651,0.009829415,-0.004206083,-0.022352459,-0.048160914,-0.020540828,-0.041806556,-0.043400098,-0.030249074,0.00015924203,-0.063924305,-0.07530073,-0.050776664,-0.03802242,-0.041358504,-0.016534679,-0.034362093,-0.021838408,-0.03899187,0.0005919104,0.08590656,0.04242546,0.031324543,0.06824687,0.07253147,0.049131025,0.003612566,0.006436612,0.03562287,0.082210355,-0.05205717,-0.04061202,0.08702834,0.016541077,-0.016877122,0.102023005,0.072748594,0.05466182,-0.012514456,-0.05255766,-0.013182678,-0.01256445,0.0023041738,-0.029569961,-0.0022246486,0.0031298061,0.0006747353,-0.0110547505,0.012207924,0.0053672944,-0.0016175078,0.014597334,0.011384544,-0.011240273,-0.002596968,0.024018643,-0.007789733,0.02325537,-0.07830951,-0.0046203053,-0.024716815,0.0025877208,0.0031169325,-0.039918017,-0.066984124,0.030229175,-0.00043075433,0.03320158,-0.0019010047,-0.0077869194,-0.03410138,0.025874872,-0.038638335,-0.042873386,0.005898738,-0.07673493,-0.017403217,0.05119567,-0.057200633,-0.024000831,0.017579645,-0.0056426316,-0.11241163,0.026875058,0.0042052073,0.0014989673,0.011545475,0.0055185067,-0.0040776213,0.013642148,0.016260175,0.010829599,0.029569052,0.06467313,-0.062493917,0.03374967,-0.020969909,-0.035998393,0.06469563,0.0365407,-0.0034238822,-0.002209897,0.0062032663,0.035727404,-0.025655799,-0.034478467,-0.023385296,0.007157591,-0.011168539,-0.007140813,-0.00078374374,-0.018996691,-0.0027059515,-0.009272456,-0.016550114,-0.014783629,-0.0024952053,0.01149835,-3.8746366e-05,0.013937624,-0.005648373,0.04719135,-0.015332223,-0.04934552,0.015879491,0.024354672,0.013854225,0.0075807213,0.04553832,0.035604976,-0.008600578,0.03467624,0.009374139,-0.023418093,-0.0060650455,-0.021910593,-0.025123337
0.04995221,-0.018637044,0.055755507,-0.07870767,-0.07443708,-0.01376481,0.08889929,-0.026863884,0.044853102,0.02844154,-0.022909734,-0.022115171,0.020964975,-0.042695336,0.0025384321,0.040290423,0.022424437,0.02941113,0.00027944226,0.026534712,0.0066235205,0.01435832,-0.0048969737,-0.002594638,0.024638075,-0.00069400185,0.011340295,0.03406732,-0.040668026,0.0027625263,-0.016689224,0.012527699,-0.043290485,-0.045692287,0.030325202,-0.07405446,0.033728603,0.009380645,0.06707125,0.032434285,-0.0017791688,0.08536455,-0.013078229,0.039549388,-0.01630505,0.03487015,0.12294291,0.0074116886,-0.008633734,-0.09329944,-0.056492902,-0.06352689,0.007239168,-0.016530452,-0.021946669,0.053970315,0.010737836,-0.032749433,0.07907125,-0.04486353,0.11956195,0.028646799,0.017827978,0.02195487,0.03622341,-0.087630406,-0.009485813,-0.029525122,-0.04231445,0.048573073,0.004203977,-0.05114297,0.004023942,-0.017732088,-0.030708283,0.0148415435,0.04577035,0.14198571,0.07667917,-0.0012339661,0.099176005,-0.0065689394,0.12389037,0.025757315,0.011072343,-0.028685933,-0.05465565,0.048779033,0.087166525,0.02837271,-0.008149224,0.02812614,0.018149015,-0.0035811544,0.025966661,0.0995134,0.0057758326,0.030299973,0.13452984,0.024741247,-0.024997743,0.034089625,0.04400222,-0.034123085,0.0015224753,0.031390976,-0.07953833,0.06972854,-0.047995772,-0.066736415,0.036990512,-0.066865094,0.030438881,0.047715,0.09028238,0.006786828,-0.032963354,-0.04080424,-0.032639317,0.013140735,-0.04136585,-0.044940125,0.061436325,-0.010586809,-0.05808312,-0.0020999967,-0.016730135,0.017888175,0.07669736,-0.044766314,-0.034488443,-0.006738595,-0.019280937,-0.04996494,0.012889447,-0.026629355,0.15027736,-0.038566124,-0.06454194,0.043805834,-0.09559033,-0.11502463,-0.01916523,-0.07348398,-0.003256779,0.024201965,0.0030345274,0.0065922015,0.017069234,-0.07376547,0.008797474,-0.015114668,0.036251348,-0.04207177,-0.022492828,0.030880075,0.0010089447,-0.03581017,-0.021952065,0.0049011973,-0.06959553,0.088587746,-0.0292801,0.024102816,0.013415916,-0.040139366,0.024426892,-0.011920521,0.04352793,-0.0063042655,0.042186197,0.020181004,-0.09507002,0.04955264,-0.0076037054,-0.0027805094,0.13369669,0.040130008,0.05864142,0.0008627867,0.023252647,0.065998934,-0.036326498,0.02293637,0.029160727,-0.011087252,0.0037473575,0.007709252,0.040355433,-0.024051158,0.029646566,-0.059248153,-0.081531316,0.10017275,-0.024285024,0.0617614,0.08902472,0.049500864,-0.0068471744,-0.019415837,-0.054399014,0.053850178,-0.028892897,-0.05823473,0.10295128,0.0060213357,-0.04709277,0.029596979,-0.0008722414,-0.022546357,-0.059608553,0.0123388255,0.012408036,0.00092267373,0.16935788,0.0035671643,0.012575888,0.0065929336,-0.004261084,0.03426844,0.0117799975,-0.053811714,0.012761484,0.04271719,0.03044483,-0.11605604,-0.05542689,-0.034865767,-0.070124336,-0.043823164,-0.024060346,-0.022714332,0.031393692,0.079749934,0.017982248,-0.028252684,0.044464767,0.035192568,0.019134948,-0.04349474,0.013878089,0.008854587,-0.038893055,-0.044503506,-0.0021013173,0.07002623,0.0017103443,0.07666797,0.001683955,0.0020077685,-0.07879084,-0.011501368,0.040905707,-0.09037314,-0.0033033136,-0.08511199,-0.0077273366,-0.01745964,0.030618947,0.02808896,0.088878945,-0.03455712,-0.023137623,-0.03222876,-0.0054229647,0.023313988,0.047048014,-0.024584863,0.05147082,0.009718866,0.01091981,0.009738835,0.008619753,0.0124872755,0.011053278,0.015228336,0.0022722033,0.004373213,0.0034862622,-0.0009025682,0.005436666,0.0013302914,0.0028383466,-0.0018127381,0.0007346554,0.0030534044,0.0008178109,-0.00076799805,-0.045525886,0.03933941,-0.033342026,0.022360861,0.06221099,0.021544438,0.060431447,0.0819588,-0.031430047,0.083205804,0.028309815,0.073904105,-0.010998704,0.0027191907,0.005842842,0.014817639,0.026211057,-0.08117176,0.03329463,0.003964055,-0.046890967,0.020268604,-0.0155289015,-0.00900956,0.09263404,-0.0076795598,-0.034601618,0.016433796,-0.021648908,0.12586513,-0.015595151,-0.08013939,0.021078058,-0.013695422,-0.085427776,0.11475611,0.023109268,-0.033021968,0.057698507,0.038469017,-0.052087877,-0.059515227,-0.030727383,-0.023954853,-0.057011113,0.0024279018,-0.034857683,0.041626696,0.056353617,-0.007391972,0.12426629,0.037232302,-0.007532549,-0.012871852,-0.007181227,0.004160501,0.026063818,-0.021705937,0.0064135827,0.09771609,0.043492697,-0.0937487,-0.003466601,-0.0018627453,0.0013276862,0.0045418907,0.002093325,-0.0010420792,0.005864932,-0.007159433,0.0005085459,0.004369826,0.0029748487,0.085973956,-0.0020193807,0.04960595,-0.0284671,-0.03207474,-0.0068376646,-0.030941183,-0.011062663,-0.024650265,0.00046126446,0.0279293,-0.0031005992,0.006461188,0.0051031183,0.026365317,0.031703822,0.01812077,-0.14659196,-0.123573445,0.07167396,-0.05546199,0.12293048,-0.1032031,-0.0824221,-0.033852234,-0.040395964,3.8092895e-07,-1.1674892e-06,1.3688339e-07,2.8441318e-06,-1.571472e-06,-5.22911e-07,1.7125592e-07,1.0612645e-06,5.717441e-08,-0.045439187,0.028279923,-0.03145199,-0.00715653,-0.00068655965,-0.04489417,-0.001475023,-0.009725569,-0.0077650244,0.013211323,-0.0016019349,-0.015758818,-0.06564415,-0.05945229,-0.036832813,0.10456805,-0.1090484,-0.068149194,-0.040427208,0.12039848,-0.017756442,-0.031518113,-0.0022061039,-0.15827362,-0.0373587,0.00015623796,-0.030139798,-0.018401468,0.045174316,0.03819478,0.043755006,-0.059491858,-0.013028681,-0.034218863,-0.030020306,-0.0155298235,-0.009356491,0.0031707184,0.008906091,-0.032215443,0.030164715,0.004945978,0.00024010037,-0.0038773345,0.0032453442,-0.035211306,0.008015286,0.058756758,0.016911585,-0.0026386788,-0.07215599,0.0024593682,-0.038713902,-0.013701418,0.022329992,0.006858057,-0.1099731,0.05483452,-0.014861168,-0.045493986,0.050094347,-0.09223468,-0.008336738,-0.030833824,-0.014929446,0.028845757,0.010490455,-0.06754009,0.01959202,-0.017266419,0.03444258,0.155732,-0.022005348,0.055512976,0.06064426,-0.0023446907,0.10568118,-0.05731305,-0.06032672,0.085718185,-0.046408378,0.0710178,-0.014292065,0.061263833,-0.008947519,-0.025807297,-0.02607262,-0.00069718715,-0.023431644,-0.010320173,0.09510231,0.031642247,0.020305581,0.023275448,0.050281204,0.01365185,0.011276887,0.038841635,0.0070660505,0.0032036123,-0.06195532,0.054297324,-0.017075159,-0.050098855,0.20323151,0.05439407,-0.017738761,-0.012941831,0.027429147,0.046333387,-0.048237234,-0.045790616,-0.05945709,0.03449899,-0.039919723,0.051348157,0.02402561,0.0395014,-0.0059597366,-0.10445606,0.051343005,-0.041367024,-0.05397368,0.076902375,-0.04469215,-0.10841577,0.0028794636,0.02011806,-0.009227223,-0.0011646446,-0.010434681,-0.015809415,0.02048228,0.025104329,-0.013915579,0.00729706,-0.0008845912,0.06398762,0.049760826,-0.04883478,-0.013964255,0.005382198,-0.0573057,-0.025975151,0.049631167,0.0144107975,-0.051931947,0.04776978,-0.05598385,0.042716578,6.6051434e-05,-0.06877262,0.00414462,-0.0049779806,0.019016221,-0.029347053,0.024690075,0.0015752137,-0.055481613,0.021851623,-0.02560644,0.0023101175,-0.043388933,-0.11175334,0.019102968,-0.06962956,-0.018623363,-0.003816873,-0.013513697,-0.01356694,-0.037162714,-0.03181498,-0.08570287,-0.009426591,0.050023317,-0.030888727,-0.045511138,0.066365674,0.09523303,0.07616487
0.027656142,0.008228938,-0.039651837,-0.08910234,-0.034360107,-0.028733162,-0.011965552,-0.01606054,-0.039453167,-0.027988425,-0.046875786,-0.06340225,-0.00032115637,-0.043021746,-0.031971812,0.01614038,-0.00710787,-0.035049103,-0.0016006512,0.02797412,-0.012602575,-0.0006089095,0.00074237,-0.009156735,0.026725747,-0.004191664,0.016727451,-0.02525759,-0.008254403,0.017353889,0.027839506,0.0045826416,-0.0032712838,0.010049965,0.0019283285,-0.03155144,-0.009084367,-0.0022394208,0.013503906,-0.00065611646,0.01036642,0.0048968797,-0.0041102134,0.023183031,-0.0075711175,0.011636828,0.029080383,-0.028064461,0.007587046,-0.03814641,-0.018395009,-0.006677068,0.0060998113,-0.04216679,-0.04118758,-0.0045247674,-0.04747345,-0.08477166,0.04046674,0.03969055,-0.033110753,0.0075676064,0.047970057,-0.040366888,-0.012177242,-0.031611506,-0.027416326,-0.009739207,-0.032391965,-0.019892257,-0.061683267,-0.05068484,-0.020468572,-0.016619362,-0.027512867,-0.0010630778,0.058327075,0.064429075,-0.024606882,0.009130341,0.022309205,-0.03269632,0.008217325,-0.010108404,-0.024983866,-0.0271109,-0.021139022,-0.011766536,-0.01092908,-0.006587934,-0.020970644,-0.027736662,-0.03448098,0.0061899335,-0.017972525,0.005279355,-0.008994962,0.029634416,-0.0008516233,0.013439453,-0.013072478,0.017177472,0.008873886,0.014459542,0.03395056,0.0054139197,-0.016682409,0.0032040915,0.02808095,0.00823977,0.02264335,0.00033139766,0.11499816,0.00469685,-0.022185458,0.0015295256,0.023497093,-0.0063684145,0.05155879,-0.032662887,-0.058055997,-0.018775541,0.00025199572,0.00012694058,-0.037730616,-0.0461625,-0.021590132,0.016925683,-0.020278819,-0.058907732,-0.059418358,-0.037362225,-0.031722322,-0.021556979,-0.07181393,-0.011287306,-0.035488192,-0.060262308,0.028894069,-0.01962959,-0.08137211,-0.016742544,-0.039595652,0.008242861,0.055118605,0.009688288,-0.016110929,-0.011277201,-0.033503212,-0.06163755,-0.028166706,0.014437752,0.015645556,0.019879945,0.023012467,-0.012270916,-0.0073622228,0.024855955,-0.0018401304,-0.0064200466,-0.026868101,0.042609185,-0.009641289,0.035455953,0.041668568,0.00095195114,0.019850025,-0.0058066407,-0.02603586,-0.027463065,-0.013323464,0.034526467,-0.0031490861,-0.0065308856,-0.032164942,0.00025651255,0.014805058,0.02024767,0.010155867,0.00475131,0.0015322693,0.00807947,-0.0021880565,5.574152e-05,-0.014574415,-0.018837629,0.00101728,0.0016300641,-0.0066660554,-0.06501342,-0.049962115,-0.08164472,0.027240437,0.029918497,0.02566669,-0.021158025,0.027494289,0.012422981,-0.012064728,-0.015269811,-0.036149334,-0.008170487,-0.00013792954,-0.036145933,0.015458652,0.0068231244,-0.008646752,-0.042223465,-0.043368783,-0.02878879,-0.027029606,-0.029503718,-0.03590165,0.116818145,0.0895406,0.051524233,-0.0052897083,0.0006647821,-0.0030402057,-0.0026692185,0.0071447818,-0.030386785,0.062198427,-0.0071728365,-0.018607896,0.0007407077,0.03571431,0.042696778,-0.0003991633,-0.064412795,0.1055806,0.014949257,0.04138981,0.060958117,0.02277312,-0.019114457,0.010091584,-0.003462145,0.0010087133,-0.033209976,0.02651168,-0.0056500966,0.016000748,-0.0107171405,-0.009334426,0.041098285,-0.042805135,-0.034068655,-0.0023502544,-0.08132097,-0.035355356,0.003895415,-0.01342776,-0.015101106,-0.014943913,-0.018490648,-0.025875611,0.009006785,0.033244982,0.04767034,0.044598293,-0.02181838,-0.019240627,0.0067498214,-0.0038108032,0.03649966,0.05795825,0.03620681,0.002257129,0.01686714,0.020891502,0.024647437,0.02192718,0.017897243,0.025455615,0.021813389,0.006706754,0.008568023,0.009651606,0.0007605493,0.0008079505,0.00017742495,0.0010431012,0.00034433708,0.00044329156,0.00040685976,-0.0010704711,2.7742137e-05,-0.048164863,-0.030765684,-0.002480644,-0.04436084,-0.012601695,-0.0052955127,-0.02156307,-0.01812197,-0.011914061,-0.015700221,0.028813198,0.058868628,0.04600536,-0.052546833,-0.037407734,-0.008742493,-0.021331731,-0.022689063,-0.05144901,-0.049739953,-0.024694633,-0.011514519,0.0019609574,0.009035374,-0.011096708,0.01055896,-0.0008918916,-0.013721316,-0.036679074,-0.041028697,-0.034285083,0.021306112,-0.027436592,0.0041979398,-0.009318729,0.022706728,-0.02296841,0.014814528,0.0062771123,-0.016024869,-0.07212309,-0.04099248,-0.002697357,0.0031535705,-0.020993467,0.016322859,0.02790511,0.07302069,0.040030085,0.023742512,0.07224427,0.043341357,0.07004069,0.010066941,0.009465135,-0.035052065,-0.04367872,0.0026925304,0.025911681,-0.015756812,0.010795649,-0.004537719,0.01454613,0.00015053578,0.00081144465,0.0028410621,0.002925226,0.0043803346,0.0043082745,0.00010657851,0.00086644647,-0.0015127134,0.016302073,0.042601578,-0.003989555,-0.014959032,-0.037222512,-0.016828401,-0.026056787,-0.016927313,0.009809969,-0.013231796,-0.018894972,-0.010391541,-0.00405007,-0.008564249,0.016805781,0.019615684,0.002135456,-0.019524245,-0.13700199,-0.02390866,-0.04470436,0.022918984,0.06972294,-0.033091437,0.019448271,-0.05842974,-0.025855709,-8.622871e-09,-3.817362e-08,-2.0739641e-08,1.043881e-09,2.3233361e-10,-2.0916573e-09,5.695544e-09,1.5553822e-09,1.7545259e-09,-0.0085555995,-0.0137965605,0.024624575,-0.01824138,-0.012455202,-0.038359776,0.030121345,0.0134223355,0.013389776,0.100340895,0.114662066,-0.00010267907,-0.03353813,-0.033847205,-0.061948556,-0.015040817,-0.030653449,0.035839997,-0.033696,-0.063913964,-0.06716458,0.08417817,-0.013749771,-0.022633597,-0.01719381,0.008045052,0.022094524,0.017725624,0.04598785,0.033078957,-0.013685385,-0.0037192358,-0.055116057,-0.033698436,-0.020729499,0.012006249,-0.021917012,0.0077088573,0.01052705,-0.018429141,0.004618297,0.00786063,-0.008773414,-0.022118898,-0.015775433,-0.017146064,0.001040091,-0.015764102,-0.01687356,-0.018466737,-0.025891216,-0.03135945,-0.0056271665,-0.024200395,-0.067922466,-0.029423317,-0.04551512,-0.03899618,-0.058660958,-0.092864014,-0.058721736,-0.050784707,-0.037147816,-0.0350215,-0.034328848,-0.050375745,-0.035603333,-0.085039034,0.012164858,-0.010566799,0.041626338,0.051629703,-0.015951747,-0.07359501,0.01843787,-0.04713901,-0.05368993,-0.019572442,0.051023386,0.04539375,-0.026863545,0.011339932,-0.018719176,-0.02406415,-0.034446947,-0.07162341,-0.09709147,0.028612362,-0.041048158,-0.011113853,0.05654788,0.017790264,0.0018339667,0.008516683,-0.019037955,-0.01891755,-0.0014738446,-0.032615818,-0.026342725,-0.0036445938,-0.05357495,0.009456346,-0.02297523,0.01970113,0.09906089,-0.0023035516,-0.0036986996,-0.047847975,0.020110141,0.035814922,-0.094176434,-0.013536022,-0.02807326,-0.020678306,-0.03350012,-0.018042043,-0.010377233,-0.023033246,-0.047698744,-0.07638034,-0.043176692,-0.06427202,-0.05017564,-0.0017122057,-0.0639667,-0.041644428,-0.008309102,-0.0063784053,-0.002071388,-0.0031453262,-0.010459072,-0.0012528802,-0.0031073245,-0.0030917975,-0.0023368858,0.05460314,0.025537737,-0.025323221,-0.01503506,0.0008250868,-0.028225537,-0.040211923,-0.026821708,-0.0037510006,0.018052196,0.0141887115,-0.039179463,0.0014796325,-0.016237099,0.0026839648,0.0074643437,-0.01857622,0.0015652999,-0.00907005,0.013411793,-0.017940266,-0.008966175,-0.007999635,-0.024722915,-0.001250975,-0.010614489,-0.0030932114,-0.00595611,-0.03159458,-0.02835315,-0.08153848,-0.0033679581,0.001214396,0.013200724,0.022775443,-0.0071764444,-0.029271578,-0.05509853,-0.0048587895,-0.054279123,-0.05796555,-0.015116777,0.006971245,0.009213028,0.036840867
-0.022881854,0.031296946,-0.013744305,0.015133382,-0.053375136,-0.049974646,-0.015501318,-0.04353112,-0.033364996,-0.004882791,0.035034947,-0.025322754,0.019615661,0.0110075865,-0.0014914661,0.0089197,-0.025887838,-0.023407407,-0.005510908,-0.008809032,0.0055683586,-0.00503144,0.0016019383,-0.010565081,0.00029019086,-0.00769429,0.009617705,0.023611568,0.04379514,-0.01920002,0.0013233454,-0.025340375,0.031057298,-0.031368423,0.007982014,0.010175159,-0.012553927,0.01877706,-0.0008048613,0.013567518,0.004114448,0.017177224,-0.0035074959,0.0107697295,0.0021993588,0.04982137,-0.0054308814,-0.038233045,0.026707562,0.018493332,0.014701369,0.015190501,-0.033328258,-0.04815959,0.039199095,-0.022280706,-0.0016805655,-0.044473253,0.00489361,0.007511531,-0.02659847,0.044556253,-0.010047907,0.024791732,-0.024664532,-0.008277111,0.045770936,0.014429934,-0.023774484,-0.037711203,-0.0043313703,-0.014093504,-0.028469887,-0.012371603,-0.018266253,-0.009296893,0.015260038,-0.006325794,0.0068753203,0.013630383,-0.012319184,0.016379567,-0.0018036069,-0.023079224,0.030136636,0.008286223,-0.009706226,0.028474072,0.0839317,-0.0015101649,0.004095536,0.0065986402,0.0002335638,-0.006450393,0.017075151,-0.0042198,0.012000147,0.037942603,0.009308643,-0.002380099,0.033136103,-0.009351489,-0.0073599387,-0.004621907,-0.012728129,0.02617254,-0.012917679,-0.036943823,0.004830925,-0.08274406,-0.06061824,0.0022560884,-0.032153953,0.0076864134,-0.049153946,0.03617805,0.009398953,0.02703673,0.012032899,0.017303977,0.02661311,0.046470575,-0.0113188485,0.036154225,0.0012860396,-0.014917613,-0.01736298,-0.017849173,0.014760805,-0.027261257,-0.018149987,-0.01911623,-0.027715426,-0.021366963,-0.0066613783,0.13431115,-0.01204059,-0.04989537,0.07006464,-0.001303662,-0.036110267,-0.03255294,-0.030221704,-0.012914549,0.048702527,0.02046516,0.004538097,0.017766673,0.03129728,0.010303712,0.007275857,0.03249684,0.0412478,-0.015873862,0.013593397,0.04220156,-0.030160792,0.008207521,-0.024990112,-0.015998555,0.00067032746,-0.008524827,-0.017226437,-0.0033664082,-0.017598577,0.006413477,0.03528147,0.025583904,-0.0054927897,0.029023709,0.01217482,-0.051719394,0.0052763433,-0.025789851,-0.031457055,0.0036197293,-0.047606155,-0.0046503968,-0.040375292,-0.030891104,0.013223365,-0.0037227462,0.047387376,0.0053753457,-0.0019308266,-0.00830237,0.013001849,-0.0051362547,-0.0076548583,0.011241543,-0.01994451,-0.0042949533,0.06615985,-0.012480742,-0.04164571,-0.019622428,-0.0033144318,-0.026924642,0.010797937,-0.014706089,-0.00045101234,0.03886102,0.0025776469,-0.02962454,0.021758405,-0.0015240476,0.027740601,-0.0068578157,-0.037362434,-0.0023512468,-0.009824296,-0.0225106,-0.015525859,0.04229525,-0.035157252,-0.009169865,-0.005955173,0.0022769053,-0.0019010969,-0.00071234506,0.008866641,0.0045661214,0.0005950611,0.027511228,-0.005249846,-0.0059708906,-0.03158229,-0.039155804,-0.07487914,0.013686467,0.002861964,-0.01469944,0.010237263,-0.023174679,0.036436465,0.018106412,-0.0013312052,-0.0010763846,-0.008308126,-0.0014183247,0.010006708,0.008554577,-7.35678e-05,0.056136742,0.031198975,-0.037525762,0.033936948,-0.061108653,-0.05471838,-0.0054456755,0.000976398,-0.028608732,0.0019660844,-0.012650433,-0.0020006234,-0.027902113,-0.010832681,0.0023351915,-0.006932005,0.021642728,-0.017592708,-0.014320095,-0.036497027,0.00493706,-0.06914479,-0.03360552,0.018631948,0.028602408,-0.0051376116,-0.03273112,-0.0029408636,-0.0029873906,-0.0011481784,-0.0033830155,-0.00540688,-0.0028806725,-0.0074383216,-0.007458269,-0.0049238806,0.0005455049,0.000893583,0.0007950267,-0.0015139751,0.0009335499,-0.00042544256,-0.001062575,0.00046710376,0.0002452805,-0.0065331473,-0.023226222,-0.0034902634,-0.039041966,-0.018362602,-0.011302823,-0.02812523,-0.017472666,-0.010515124,0.024315877,-0.05189465,-0.012501776,0.06714493,0.027709011,-0.03563884,-0.010236471,-0.023587894,-0.021170996,0.021308832,-0.0040835617,-0.021656113,0.0010284611,-0.012294604,-0.016037636,-0.009996495,-0.0103938915,0.00044219563,-0.0070709833,0.014768422,0.027220327,0.008515311,0.021607146,-0.029263213,-0.009377385,0.011443762,0.019343654,-0.040731005,-0.009599706,-0.012720938,0.00015288417,-0.015665067,0.009275742,0.04668416,-0.0028369897,-0.011190532,0.0008032516,-0.015808517,-0.010630194,-0.033386968,0.0151031045,0.012861955,0.022549193,-0.009513218,0.00035597355,0.01653121,0.07006832,0.032047663,-0.059108716,0.05059506,0.0017210518,-0.048063092,0.008787167,0.018974956,-0.0014987248,-0.001534111,0.00088336144,-0.0021301839,-0.003408149,-0.002555302,-0.0017713311,-0.001175642,-0.0036608567,0.004776201,-0.0013112678,-0.0082092965,0.0026067575,-0.0012517113,-0.017130459,0.00030169994,-0.012488683,-0.004038059,0.03158589,0.008170587,0.02498082,0.0008734803,-0.007829567,-0.0019984634,0.008572869,0.003524945,-0.013533744,-0.06679868,-0.06339998,-0.008949729,0.013315983,-0.057095464,-0.00054593314,-0.16167983,0.05658105,-0.020223994,-5.4298577e-10,7.120991e-13,2.3626733e-11,-2.2385982e-12,1.3114296e-12,-8.961116e-09,2.2214961e-13,-4.3537254e-10,-7.792761e-12,0.019413654,-0.011334951,-0.0029173363,-0.016056336,-0.039068148,-0.027677331,-0.004579601,-0.03770198,0.00937041,0.0291824,-0.031216484,-0.042467847,0.001034634,0.040475607,-0.0098677,0.038983315,-0.008774949,0.020135723,0.054211363,-0.021527687,-0.0494053,0.033549443,0.015646629,-0.08533159,-0.03746152,0.0058997865,-0.07094843,-0.008274394,0.025813613,0.008546184,0.0017698971,0.0014981021,-0.006443087,0.0035233365,0.006132332,0.0015130375,0.0093423035,-0.0034974099,-0.0053046625,0.004649472,-0.0015518095,0.00012241649,0.0018630733,-0.008791791,0.0009999933,-0.009297353,0.022787994,-0.02003864,0.0019659481,-0.0040279157,0.015729444,0.015639313,-0.020095149,0.006730805,0.057931338,0.036206916,0.04186415,0.016044555,0.050817195,-0.024633845,0.035956636,-0.0060784062,0.012857526,-0.014128617,-0.0018731019,0.05881501,-0.0077404086,-0.014618761,-0.020531459,-0.011764257,0.076924995,0.04731306,0.021942794,-0.05434141,-0.0076933233,-0.066508226,-0.0036927068,0.02834381,-0.051930416,0.00082439743,-0.026833124,0.05105367,0.047235858,0.05708129,0.044224024,0.01701614,-0.013606014,0.04583835,0.0043108645,-0.009653217,-0.008419294,-0.008351506,-0.01762358,0.008655799,-0.0013491671,-0.016693635,-0.025130099,-0.016933663,-0.018917872,0.007873508,0.077885516,0.022148076,0.061774164,0.049760234,-0.019452374,0.03947094,-0.0002534952,0.0265402,0.014471481,0.026851159,0.014635816,-0.032364435,0.04699292,-0.035550788,0.020684669,-0.030278396,0.014522793,0.009747434,-0.07443015,0.04545366,-0.012586814,-0.020647306,-0.011132967,-0.031892166,-0.0050538527,0.05747069,0.016435092,0.0033033132,-0.0040696794,0.011429195,0.0024929913,-0.0022538502,-0.0014171113,-0.009756238,-0.006362314,-0.013209397,0.08120836,-0.035365455,0.052121766,0.031026363,-0.014068442,0.019610746,-0.010469255,-0.029381488,0.0038287865,-0.008626118,0.010844688,-0.0127418665,-0.008958946,0.02140011,-0.017312113,-0.018007366,-0.017988212,-0.0120619675,-0.0044103856,-0.005570981,0.0021046612,-0.0025926128,0.03352037,-0.00425881,0.010386546,-0.002532863,0.012538092,0.02105044,0.039976727,-0.05654606,-0.023510179,0.021392833,-0.008653356,-0.026911113,0.007771607,0.033048477,0.056181107,-0.008798668,0.033723794,0.035291336,-0.011381072,0.07780211,0.036516875,-0.0058141337
0.09560738,0.011964589,-0.037644833,-0.04417722,-0.023289302,-0.13428436,0.002886587,0.06781282,-0.047943924,0.06631406,-0.035672266,0.044023145,0.008449094,0.0123115415,0.012817283,0.0395477,-0.0054747327,-0.010570219,0.0032867582,0.019851012,0.0035389434,0.0046212915,0.019127414,-0.0019146395,-0.056097783,0.013536909,0.02001795,-0.07232239,-0.046220023,-0.0769417,-0.12838158,-0.09660874,-0.08813452,-0.008300519,-0.05194183,0.0060671945,0.029332567,0.023455366,0.015547255,0.05630631,0.101908796,-0.041319493,0.020107932,0.01582629,0.01486833,-0.0065085306,-0.016671397,-0.073129624,-0.1176503,-0.06763535,-0.10468234,0.022332372,-0.049410354,-0.062059183,0.01507535,0.027224228,0.054611474,-0.0072786054,-0.012417145,0.11230547,0.0037264798,-0.031814124,0.038001653,0.028023118,-0.027466446,-0.011096787,-0.08477183,-0.083100066,-0.05750511,0.08626433,-0.06749852,-0.021910656,-0.021509219,0.018430278,-0.015162703,0.017054673,0.00030271185,-0.083547436,-0.0014883468,0.13914342,0.031628165,0.030299386,-0.0091126915,0.010996326,0.010565619,0.08068638,0.047212146,0.049276683,-0.03334394,-0.011940036,0.044884812,0.07724351,0.066435106,0.0226514,0.042121943,-0.022587154,-0.0043716333,0.028846368,0.0013425068,0.049200017,-0.07089661,0.017170127,0.0046715997,-0.025058249,0.004075397,0.012085024,0.04277844,0.00054241123,-0.04946217,-0.01599844,0.012186369,0.004957501,-0.09243947,0.05537942,-0.03403265,-0.047418725,0.0053125783,0.032403782,0.0068965107,-0.053636346,0.016226849,-0.0012660017,-0.029417826,-0.04190124,0.0050349734,-0.048480432,0.0070058107,0.045438908,0.0697991,0.045487724,-0.0032289787,0.014819389,-0.032559685,0.0057977387,-0.022893084,-0.023225702,0.021294966,0.06848447,-0.076391846,-0.09237889,-0.08967905,0.03206956,-0.082593724,-0.0107888235,0.003552544,0.04579497,-0.06044886,0.12606342,-0.059528973,-0.06312073,0.01823374,-0.03544291,0.02842346,-0.010672061,0.02428704,0.048370164,0.014491838,0.029924659,0.14990509,0.0017243967,0.03359686,-0.027309768,0.010767207,0.020523254,0.002475753,-0.00842607,-0.015136398,-0.00018029977,0.058735773,-0.0008686887,-0.07037413,-0.0013152028,0.07038495,-0.053032484,-0.030850943,0.020473197,-0.034295976,0.014096104,0.073807046,0.017187005,0.0036828215,0.0407617,0.030984739,0.003355741,-0.021672634,0.06372994,0.00935648,-0.013382208,0.034295052,0.010082246,0.0062092333,-0.020239592,-0.02014937,-0.10587164,-0.06714127,0.074411646,-0.00011187035,0.032889538,0.041342117,0.036543448,-0.0042817104,0.05470149,0.0254007,0.006940759,0.05102261,-0.0010106128,-0.038675144,-0.030923953,0.042946406,-0.034135215,-0.019499226,-0.03323923,0.021920731,0.016804256,-0.024181122,0.048139196,-0.022304116,0.039684556,-0.04336965,-0.037166663,0.026429629,0.05382784,-0.029492887,-0.0069537605,0.047538303,-0.036590274,-0.08478213,-0.052314315,-0.14547911,-0.06648349,0.03159131,-0.12560968,-0.042015385,0.08606615,0.0040392564,0.033570312,-0.04131551,-0.021751413,-0.027362233,-0.058373276,-0.052480776,-0.0023677747,-0.052697252,0.034786593,-0.0075994683,-0.026375711,0.013320364,0.026585959,-0.011789098,-9.199693e-05,0.030633993,-0.10807938,-0.03626223,-0.0019601325,-0.041620195,-0.052773345,-0.019526875,0.045583438,-0.02028687,0.024233395,-0.0035516452,-0.03514065,0.051283408,0.042694025,0.017914932,-0.016955012,0.022559837,-0.01234199,-0.07264679,0.03515632,-0.009906238,-0.0028843011,0.0034985878,-0.00287861,0.0059908903,0.008346481,-0.004842478,-0.003977624,-0.0047728876,0.0023931914,0.00034276192,0.0016227579,-0.0031739553,0.005937913,-0.00037499546,0.0009093051,-0.0016076273,0.001600801,0.0041090576,0.055222772,0.028253121,0.025751365,-0.009855939,0.043147743,0.033754412,0.014941404,0.23555931,-0.0475848,0.008021521,-0.0038872706,0.028839424,-0.0819846,0.038857527,0.06052555,-0.07909024,0.013269753,-0.0011406982,0.046277083,-0.004296026,-0.054344214,-0.01203106,-0.06675297,-0.010961736,-0.03527958,0.035144195,-0.044060685,0.047653712,0.040089704,-0.12551577,0.10715016,-0.0078006387,-0.08322637,-0.013223861,-0.12695123,0.05516127,0.07258529,-0.060384143,0.03015768,0.013439178,0.015170972,-0.04126961,-0.031712387,-0.03744643,-0.0015438744,0.031063315,0.04263626,0.05290543,-0.022487523,0.008473523,-0.02267729,0.026150154,-0.11070415,-0.038880076,-0.06931256,0.012309395,0.018425968,0.059310008,-0.005366215,-0.075623676,0.055214513,-0.0888054,-0.0024550722,0.00018497596,0.004862628,-0.00058672193,-0.0037623388,-0.0008649625,-0.0063870526,-0.003613724,-0.0032503945,0.0350669,0.060393628,0.10740587,0.013787769,-0.028524078,-0.012894125,-0.040566392,-0.0273352,0.030713756,-0.028410742,0.04440363,0.010426115,-0.03457781,-0.02686136,-0.020175463,-0.018467952,-0.017928956,0.04061982,-0.01403383,0.10876451,0.022831637,-0.053793713,-0.059362236,-0.031932186,0.11002555,-0.057268538,0.037340358,1.7879258e-06,4.0738946e-08,3.465041e-08,6.3301813e-06,2.458621e-07,3.9279626e-06,8.9657405e-08,3.1130257e-10,9.125887e-06,-0.015483564,-0.0143577065,0.027142864,0.021658337,-0.03129426,-0.023758464,0.044804443,0.011507065,-0.04190665,-0.006307806,-0.01375283,0.03967448,-0.030492937,-0.107214175,-0.062438354,-0.042520743,-0.04385399,-0.0003359293,0.03390852,-0.022266554,-0.061330132,-0.081335254,-0.08689495,-0.09624616,0.07627012,-0.022452712,-0.04090624,0.048021235,-0.010550566,-0.0024791555,0.006487032,0.021190265,0.05421186,0.011889016,-0.04674732,-0.000331401,0.021831676,0.0021021236,-0.008260819,0.03432201,0.008769731,0.00914712,0.034856584,0.0041208183,0.02969502,0.0075481185,-0.03993762,-0.05787051,0.004012486,0.0006640468,-0.048597362,-0.020204555,-0.09143854,-0.011910743,-0.018223684,-0.09840188,0.022367956,0.018195307,-0.015941387,0.09281659,0.007818421,-0.016929368,0.039628595,0.003926558,0.017037086,0.1392053,-0.050759666,0.02736683,0.098826915,-0.08179502,0.013037906,0.0019014211,-0.004214103,0.0007480489,-0.12130398,-0.0041781934,-0.121268906,0.075324744,0.03313854,-0.061863966,0.16341914,-0.008687123,0.11978929,-0.0077589476,0.038440432,-0.008025471,-0.00967371,-0.01485869,0.025952201,-0.028740548,0.05317284,0.058954813,0.050675612,-0.025214905,-0.08084256,0.019301305,0.011838509,0.012105431,0.07662232,0.01514741,0.0069454517,0.04791967,0.034987208,0.018354297,0.025168097,-0.0065243575,0.16796373,-0.007691402,-0.0018929704,0.016318886,0.05555434,0.07120117,0.018873813,-0.027267907,0.032586694,0.06039267,0.0010480213,0.010389963,-0.013044347,-0.08128414,0.027211033,-0.031102717,-0.004227097,-0.06406566,-0.03261771,0.090326056,-0.008457199,-0.016179224,-0.018250888,-0.049982525,-0.010017878,-0.019504724,0.020246953,-0.008459892,-0.013321416,0.091022715,0.009528423,-0.06697225,-0.01668632,-0.051760335,-0.075606555,-0.051023666,-0.0113894055,-0.06904764,0.019434225,-0.025520429,0.0940533,-0.0026117703,-0.044534557,0.022894315,0.016681144,-0.016895931,0.0053905365,0.037853498,-0.01604728,0.016161326,0.014775307,-0.02439915,0.036241718,0.00812138,-0.056169912,0.024207495,-0.0592578,0.064415246,-0.06945103,-0.051370922,0.10965185,-0.020380171,-0.07268544,0.067208424,0.06432996,0.0072021848,-0.01117511,-0.040523916,0.030551616,0.037002977,-0.024833396,0.076643564,0.07987056,0.017946063
-0.058113635,-0.013512832,-0.025496388,0.028716153,-0.024591632,-0.0333407,-0.0060848678,0.035682697,-0.04418321,-0.028287604,-0.0048137116,0.0125890905,-0.02041059,0.03238791,-0.0064787515,-0.03625978,0.004646043,-0.057631414,-0.011838081,0.022168528,0.0008330971,-0.012776089,-0.0136488145,0.011528864,-0.0054496774,-0.016501993,0.0038261968,-0.013241252,-0.05450057,-0.048193663,0.040903155,0.005509276,-0.055033702,-0.049710695,-0.025987769,-0.036034584,0.036279943,-0.03319102,0.02474403,-0.016823305,-0.0058666496,-0.01530054,-0.0066116867,0.01522842,-0.0095939655,0.006687224,-0.023692355,-0.047074545,0.10975677,0.03186428,-0.028592387,0.016781192,-0.023760887,-0.08265891,0.030664966,0.036081374,-0.042901717,0.042783782,0.003618038,0.057905205,-0.048022263,-0.010499142,0.036569525,-0.0554661,-0.0041408776,-0.025438821,-0.036613535,-0.019128997,-0.061603464,-0.021699026,-0.074776895,-0.037046533,-0.019197352,-0.009970869,-0.025059126,-0.023335671,-0.038777266,0.0001700123,-0.031091718,-0.061642423,-0.028716348,-0.0031227353,0.025501968,-0.018260365,0.02904076,-0.030801658,0.0109347515,0.008614767,-0.0076927757,-0.02582445,-0.002438094,0.0003753306,0.0124861505,0.0045069144,-0.0021003478,-0.0038837302,-0.008924184,-0.019652843,0.0029983036,-0.047446653,0.02419829,0.0630685,-0.00420312,0.017053036,0.068649285,-0.035506174,0.011521781,-0.007878827,0.03732337,0.07244785,0.07449481,0.009280759,-0.035876166,0.0073192217,-0.017533988,-0.074939884,0.034049276,-0.01048944,-0.04286198,-0.00090347877,-0.0053759944,-0.037977234,0.04288293,0.028932502,0.054301277,-0.044590324,-0.00303115,-0.022616286,-0.057102192,-0.0073524374,-0.00784311,-0.0428918,0.021727685,0.034724083,0.07662615,-0.0021464457,0.077977836,-0.07058333,0.14021888,0.0079035135,-0.045261238,-0.04977121,-0.13454401,-0.041936737,0.016904088,0.036461174,-0.0027782477,-0.029773032,0.04351606,-0.018180925,0.013708246,-0.03635014,-0.05299778,0.031971097,0.0027439822,0.045743354,-0.00080688903,-0.030590476,0.021198833,-0.013511634,-0.06580411,-0.1007212,-0.0032103492,-0.022926472,-0.023883823,0.014993915,0.007813317,-0.0023483422,0.015322328,-0.010498772,-0.021958653,-0.0387092,0.010201905,0.04690758,0.02379097,0.010618403,-0.007274398,0.0076214755,0.044058803,0.014561797,0.043913987,0.015151182,-0.0058919643,0.008726434,0.013774894,-0.01386405,0.017524412,-0.0045036594,-0.023083048,0.01581794,-0.051820282,0.01627626,-0.00045909345,0.001945691,-0.030854221,-0.06570598,-0.06961333,-0.011898578,-0.010491608,0.019347288,0.0067245364,-0.040736154,-0.02743675,0.0012102214,-0.060609657,-0.034885954,-0.033364713,-0.03338086,-0.013665587,0.0036842232,-0.020130895,-0.018421557,-0.05383227,-0.026925413,-0.029075716,-0.046233654,-0.018608553,-0.01376847,0.007570842,0.033301864,0.00038362644,-0.006736466,-0.017588101,-0.0012342894,0.031739276,0.046213895,-0.08889672,-0.001640547,0.04743835,-0.02839243,0.030492384,0.02167432,-0.020574694,-0.056747593,0.005267555,0.065461345,-0.0034437566,0.03413495,0.023200631,0.013553924,-0.00951278,-0.03479422,-0.012994994,-0.023720644,-0.014538386,-0.06915733,-0.0361018,0.005611399,-0.0361364,0.045395494,0.026681932,-0.059873495,0.04045009,-0.024400463,0.03203775,-0.038592573,0.0030928296,0.022943871,-0.022404118,-0.02979221,0.012822698,0.0007470623,0.016230533,0.024768764,0.039266154,0.016880037,-0.013670284,0.058864996,0.044463463,-0.010183049,-0.0035085666,-0.0009292507,-0.003539214,0.0009799501,-0.0038641922,-0.008199494,0.006949756,0.00026386537,0.001955448,-0.0012833191,-0.0012644656,0.00029033882,-0.0024650514,-0.0027021577,-0.0009539112,-0.00064611493,-0.0012288084,0.00040903292,0.008900818,-0.0031799106,-0.02448507,0.13017987,-0.0046952297,-0.013021043,-0.059058983,-0.012389387,0.05820752,-0.0555071,0.12577179,-0.07011429,-0.006675396,0.07449395,-0.0015801307,0.12602888,-0.020641813,0.0110111665,-0.011184602,-0.018651305,-0.023268891,-0.019594662,-0.02101492,-0.013608866,0.004749907,-0.018349856,0.004128683,0.0503753,0.07927648,-0.019170918,-0.033328023,0.0035225244,-0.021711824,-0.032251377,-0.036980916,-0.05064111,0.05563453,-0.070818335,0.04618668,-0.0019269964,-0.004972249,-0.05980957,-0.04566537,0.058533035,-0.007894405,-0.0049321963,-0.008340797,-0.011810946,-0.0062094238,-0.045053802,-0.02962441,0.020411652,0.0027692867,-0.009662178,0.0467938,0.020098114,0.011807058,-0.032213353,-0.07127616,0.034203373,0.00435369,-0.08531602,0.040136885,0.0010693463,0.0016954172,0.0019845497,0.00090152177,0.0014662379,-0.0026061567,0.003985678,0.0027401752,-0.0041083195,0.009630244,-0.01821901,-0.0029536604,-0.0039467686,0.022048568,0.0101264315,0.03965347,2.6805938e-06,0.014437058,-0.01638696,-0.0058069965,0.007628571,-0.002415552,0.0041471133,0.0005180765,0.0076349135,0.00070122234,0.001941733,-0.022957759,0.06615934,-0.04273229,-0.08671422,-0.117132105,-0.07299644,-0.07392089,-0.19753392,-0.0005541036,-5.0263537e-08,-4.2820736e-07,-1.6974496e-09,3.2231046e-08,9.199651e-08,5.120779e-08,-2.0635848e-07,9.716875e-10,5.2612968e-08,-0.03947979,-0.0122096855,0.003166097,0.043123294,-0.06657971,0.015896289,-0.01177914,0.016355705,-0.016773522,0.013627951,0.0048829997,0.021094486,0.038866397,-0.01131276,0.123867154,0.031780243,-0.004807479,0.025896637,0.0091877,0.09836516,-0.0023571213,0.021515336,0.009315645,-0.060918204,-0.016595414,-0.15135172,-0.061612163,0.0111439945,-0.040732626,0.0010387116,-0.0062313913,-0.002924282,0.025833191,-0.007127592,-0.01756736,-0.023509037,-0.004298535,-0.011577806,-0.006625214,0.0051354794,-0.009194251,-0.017132625,0.008040984,-0.017077338,-0.011743829,0.0072130575,0.020294063,0.07159936,0.007256849,0.003061808,0.021674057,0.0070797377,0.045722604,-0.034126412,0.10925138,-0.034498114,-0.0029931986,-0.011738091,-0.017638726,0.047230415,0.022374326,-0.05255786,-0.022283029,-0.013114077,-0.01380409,-0.008354806,-0.010434766,0.0069803083,-0.018938163,0.0108319605,-0.08948747,-0.003644285,-0.00015509331,-0.04643254,-0.03998524,0.111126445,0.00559165,-0.082797304,-0.03943792,-0.0072922106,0.0031526636,0.025297714,0.023526473,-0.031455845,0.004460834,0.060716208,0.04057672,0.035355248,-0.008552565,0.012635543,-0.06540631,-0.005788843,-0.040552177,-0.030893639,0.04657906,-0.0070278295,0.020157572,-0.0017726874,-0.005972463,0.010737514,-0.00026145767,0.06166744,-0.012170731,0.00847018,0.028302252,-0.002394241,0.009287697,-0.054789476,0.057097528,-0.07059605,-0.0040733935,0.035245385,0.05440919,0.018126309,0.042429682,0.015984481,-0.041689493,0.027597116,-0.0019013351,0.04397232,-0.030333325,-0.036580525,0.009209535,-0.020912759,-0.030661918,-0.02777829,-0.0041922275,-0.027167972,0.0042583956,0.01680745,-0.008729471,-0.0037451761,0.0032347466,-0.021710012,-0.009364766,-0.06838355,-0.029780079,0.08816205,-0.037958324,0.051858287,0.0011423493,-0.01868738,0.04372377,-0.085110605,0.014811318,0.017419636,0.023453709,-0.016112456,-0.018343417,0.04140075,-0.009527951,0.041565817,0.0012794768,0.009228438,0.0017335238,0.05807353,0.014096355,-0.007291326,0.02970301,-0.012591072,-0.0033072168,-0.02339365,0.02507845,0.11522134,0.019132031,0.03712585,-0.0016587148,-0.024873199,0.005446631,-0.074070156,-0.0001423387,0.01843028,0.022926183,0.034287576,0.0040760553,0.014142967,0.003633563,-0.04070626,-0.009351195,-0.011716049
