0.03825771,0.0063193184,0.057998776,-0.038638074,-0.14371514,0.049405325,0.024139866,0.07567337,-0.013077694,-0.044447057,-0.060202677,0.018803198,0.08741702,-0.054282144,-0.005745043,0.06711547,-0.021753898,0.06165444,-0.07028083,-0.060385764,-0.06219919,-0.0114545245,-0.0028336677,-0.08587316,0.060943697,-0.07060035,0.047622163,-0.04767461,-0.054599144,-0.01956006,-0.055850293,-0.07906725,0.016446678,-0.042715464,-0.039638106,0.044688664,0.009288126,0.035010345,0.015480788,-0.019238338,-0.043244053,0.00048408602,0.003869331,-0.026264334,-0.07867795,-0.047528803,-0.0031370835,0.022031898,-0.003959958,-0.038668465,0.05648743,-0.021096596,-0.010411295,-0.017112037,0.012372679,-0.0073116617,0.004971754,0.081675224,0.047541987,-0.0070570437,0.06487813,0.021035759,-0.005366098,-0.02351716,0.08198598,0.057558473,-0.0058104354,-0.014015325,0.015339727,-0.04322214,-0.00811058,0.021958852,0.026857823,-0.06740989,0.014527164,0.01311244,-0.099066705,-0.052102618,-0.10548477,-0.020881858,0.08357787,0.03729998,-0.0314137,-0.037184045,-0.03516788,-0.009920036,-0.05452302,-0.035061996,-0.013522705,-0.09431723,0.078038074,0.047706015,0.13167518,0.023118213,0.11590114,0.049427237,0.058198825,0.036659673,0.038815748,-0.025682503,0.034800332,0.023044277,0.015235765,0.046986733,0.008166864,0.09284308,-0.010292108,0.0010515833,-0.007194854,-0.0357402,-0.02692144,-0.027958011,-0.0074544325,0.026600415,0.0710694,-0.05594884,-0.046700522,0.026595114,-0.036450896,0.025143981,0.074869104,0.012186788,0.07430941,0.052570134,-0.066997804,0.0035188275,0.030462915,0.009829781,-0.0029314249,-0.046032067,-0.01371059,0.040805906,-0.01703235,-0.00824506,-0.009011223,0.084229834,0.050450288,0.02430114,0.060086396,-0.024453832,0.036045697,-0.039896157,0.0017270349,0.028472425,0.070978716,0.11025051,0.017474694,0.065617085,-0.046813138,-0.013691296,-0.024846118,0.010070356,-0.06130119,-0.0096111065,-0.036113434,-0.029656034,0.0027663822,0.038344357,0.059776075,0.13108785,0.05460087,0.093681,-0.034192525,0.1589097,0.10538831,0.07385793,-0.0037842812,-0.055407867,0.048592445,0.05304132,-0.11562488,-0.013373549,-0.016860766,0.046099845,0.023370737,0.040166207,-0.046259165,-0.042738542,-0.0010263326,-0.057435922,0.0070499503,0.091748185,-0.018834691,0.10039083,0.15266648,-0.004906301,0.020890849,0.0942373,0.051246997,-0.00971804,0.024047464,0.05564491,-0.009614356,0.05205375,0.026425214,-0.033597022,-0.04060364,0.09499535,0.056624882,-0.0035139385,0.06770786,-0.021158442,0.03064733,-0.071333036,-0.018873531,-0.01827733,-0.028676897,-0.10609633,-0.025214652,-0.008495248,-0.030498346,0.012588576,-0.040916614,-0.039556768,-0.032702394,0.021067481,-0.052991018,-0.059187863,0.033023193,-0.0040414515,-0.03884928,-0.023815854,0.026612919,0.0040602065,-0.0045255846,0.08443169,0.050368536,0.0470168,0.02890119,-0.08081018,-0.061145402,-0.01409743,-0.04884139,0.03118644,-0.05267328,-0.042788368,-0.04931178,-0.08748861,-0.047441635,-0.0041135973,-0.05336614,0.021055993,0.04267447,-0.00081752613,-0.00782267,-0.027767425,-0.052919008,-0.065201566,-0.034143116,-0.014084445,-0.07616133,0.052495316,-0.030476939,-0.04249339,0.010677736,0.016169358,0.008556426,-0.006905999,0.027702857,0.011085953,0.015930116,-0.01693863,-0.00050684833,-0.0016307038,0.025126733,0.046383955,0.060795534,0.039463613,0.010891063,0.002065558,-0.009602219,0.012687895,0.063556276,0.04854941,0.05747587,-0.041042797,0.049439576,0.04301188,-0.02060059,-0.058390014,-0.016132744,0.043370232,0.078910284,0.053110324,-0.011880224,0.09074193,0.07750069,0.063381255,-0.022238398,0.0443844,-0.05164994,-0.09583361,0.036021225,0.013078929,0.02072909,0.01664075,-0.035089795,-0.04129963,-0.030390339,-0.10652335,0.011563748,0.04392718,-0.055436563,-0.043066133,0.036037643,-0.029886609,-0.018614223,-0.03198703,-0.0819728,0.012542031,0.056729265,0.031034593,0.08973382,0.0012103176,-0.004093014,0.12124664,0.071105376,-0.014073414,0.04618247,-0.026571522,0.0954846,-0.071406394,0.1365241,0.037766885,-0.06012962,-0.01780002,-0.02641832,0.12076626,0.0029798355,0.10235686,0.029963193,0.06257597,-0.05817642,-0.040282194,-0.03054798,-0.017285995,-0.0050476026,-0.0658098,-0.037429392,-0.034457818,-0.059512924,-0.062657885,-0.019941172,-0.022413522,-0.002161353,-0.052292164,-0.03661645,0.031513155,0.011702252,-0.062628314,0.062252086,-0.041946277,0.04589971,-0.03837261,-0.013395618,0.029555678,-0.027909186,0.009506168,0.011033882,0.14025682,-0.01964315,-0.030733248,-0.011238026,0.14475532,0.08062503,0.10886269,0.02161926,-0.021702116,0.09682821,-0.030611051,-0.019662412,0.06791948,-0.009904113,0.044030856,-0.0072193434,0.02387386,-0.037546046,0.1131333,0.11668364,0.17850226,0.05812556,-0.0378663,0.040668435,-0.016148604,-0.09371719,-0.01681407,-0.015093892,-0.009379139,0.09341144,0.058269106,0.035699077,-0.010043335,-0.07039207,-0.06960011,-0.047008842,-0.010657116,0.05380886,0.07825536,0.09110826,-0.06800844,0.082731694,-0.013559131,-0.010988523,-0.027490685,-0.044037525,-0.0679707,-0.049398575,-0.027480904,-0.023079459,-0.06343217,0.015014483,0.06513591,-0.00638166,-0.046881977,0.05916488,0.012023563,-0.0005397199,0.011949673,0.0012549408,-0.053949695,-0.048267975,-0.07000835,-0.031395495,0.029771827,0.008521442,0.014100174,0.004192595,-0.047083434,-0.007031937,-0.034899496,-0.03625871,-0.024180893,0.012695452,0.0012072062,-0.011771215,-0.07287051,0.010712451,0.045742474,-0.06502977,-0.01712729,0.007432774,0.039726302,0.11597242,-0.0017000488,-0.045585085,-0.0140265925,0.061117172,-0.061919414,0.051275723,-0.017882708,-0.023124311,-0.04478009,0.02928329,-0.030268539,-0.035948146,-0.022133056,0.066389196,0.00020766648,-0.025719684,-0.03531215,-0.012688935,0.007892999,-0.0046063806,-0.0013926128,-0.042001463,0.00421084,-0.01903836,0.015646297,-0.036680017,-0.021443745,-0.031369757,-0.10492723,-0.012888911,-0.055861775,-0.055373404,-0.035476655,-0.020220922,0.020885922,0.02252662,-0.020685527,0.01229616,-0.031371854,0.02945219,-0.03614934,-0.033844057,0.009294685,-0.00083834975,-0.000271452,0.00045125562,0.00022182867,0.0009625708,0.0010417833,0.00043115817,0.00038686045,0.00026094358,-0.04087386,0.04481819,0.0067317863,0.11654341,-0.046854623,-0.017019592,0.0054128673,0.051348854,0.018817881,-0.0007275699,0.021779621,-0.019165993,-0.019911908,0.02107565,-0.041073114,-0.06309506,-0.06008753,-0.036299385,-0.050371606,-0.02460718,0.010537455,0.04515801,-0.0029473354,0.057617724,0.032490876,0.022979397,0.05199389,0.057634078,-0.055482868,0.020822117,0.117967136,-0.00080380554,0.0047629676,0.045135785,-0.021338021,0.015930487,-0.03056836,-0.02860614,-0.064670615,-0.039199773,-0.018777706,0.028871242,-0.04730849,0.13452226,0.0631878,0.010332852,0.016907701,0.024140682,-0.01005731,-0.0066596884,-0.0010259745,-0.039384812,-0.03859153,0.0023336648,-0.0002643943,0.12865777,0.085165195,-0.032289922,-0.0065726954,-0.046736665,-0.03357257,-0.027769895,-0.04057847,-0.07197174,-0.013000096,-0.03869888,0.0809053,-0.02511813,0.036118556,0.031188646,0.013954411,0.054156326,0.010475723,0.013488931,-0.013966718,0.015751105,0.020428957,0.02809352,0.007538988,0.040216412,0.014869653
0.031244244,-0.03973776,0.021728007,0.0080006765,-0.05406134,0.044489536,-0.011332345,0.09823764,-0.019927204,0.018683137,0.02053112,0.027752168,-0.006668737,-0.02690143,-0.016944509,0.06042337,0.0068134535,-0.009704466,-0.013955679,0.08769433,-0.02128962,-0.006029208,0.03714165,-0.06367369,0.096438326,0.031878237,0.045948055,-0.035886187,-0.0149850845,0.021119714,-0.00877001,-0.021911371,0.01465351,-0.029729005,-0.030770909,-0.036948692,0.06622869,0.03923222,0.029844375,0.043313466,0.029876962,0.048967473,0.00027444997,-0.033678472,-0.033697207,-0.045878574,-0.0058812047,0.0013288257,-0.031097867,-0.02875357,-0.01082627,-0.014165493,0.009610177,-0.04865289,0.028410003,-0.0058224513,-0.0025740839,0.015248613,0.0041253804,0.010625571,0.032269053,-0.0016110651,0.0069887848,-0.046725295,-0.043245975,-0.026415449,-0.028153745,-0.03004687,-0.051855374,-0.024238713,-0.040166505,-0.06093223,0.05783766,0.0066341357,0.031874113,-0.034842044,0.016841086,0.054502096,-0.074014015,-0.02385129,0.0033154963,-0.01374401,0.010453389,0.008789141,-0.013784461,-0.026191197,0.0087837195,-0.02524039,-0.03668095,-0.04049878,0.0034296147,-0.022862948,0.016359583,-0.00078593614,0.013196278,-0.008586505,0.043543197,-0.013727569,-0.033904765,-0.034529086,0.015721323,-0.01883201,-0.010509362,0.02160564,-0.013974946,0.054305945,-0.0031815597,-0.03456361,-0.042411815,0.07349489,0.0016916482,0.020872457,-0.0011422377,0.034442686,0.016496744,-0.0122989295,-0.018451346,0.030440554,0.031021807,0.04745433,-0.012165096,-0.009763745,0.020935902,-0.016555736,-0.02964752,0.010544736,-0.012959523,-0.064105675,-0.026819209,-0.019340977,-0.020586828,-0.03713647,-0.0116617875,-0.003485152,-0.00376552,-0.035744146,-0.057707906,-0.08995716,-0.056967936,-0.06383056,-0.052841205,-0.027892815,-0.015023267,0.008390796,0.030493971,0.005736065,-0.012384423,0.012062515,-0.020798113,-0.0032387264,-0.0125218155,-0.0009076329,-0.020884158,-0.004889564,0.052546225,0.070202485,0.015558563,-0.020375332,0.032843675,0.03062014,-0.043586623,-0.031996295,-0.058892142,-0.052064877,-0.0061506527,0.052756026,0.0026663023,-0.014657437,-0.014243399,0.026053568,-0.05540498,-0.006054917,-0.017570721,-0.041932832,0.027493538,0.061916795,0.01196104,-0.022471426,-0.0190077,-0.03586812,-0.04937871,-0.03534519,-0.0437206,0.019720862,0.010092833,-0.05018535,0.0025606332,0.0021355306,0.028691825,-0.0012081901,-0.051601525,0.0095574325,0.051594187,-0.0046771104,0.007301305,-0.008494617,-0.050605983,0.04072704,0.077776276,0.0064208494,0.015337176,0.006165524,0.054630123,0.096090734,-0.014281699,0.048447035,-0.027282465,-0.023236003,-0.032156788,-0.025698828,-0.02596068,0.009274817,-0.024883447,-0.044506248,-0.062047858,-0.01760264,-0.0057282853,-0.010645414,-0.011120745,-0.013192783,0.0058267466,-0.032824107,0.007743455,-0.061229564,-0.022428079,0.062616386,0.014710589,-0.00021318137,-0.006927856,-0.012727772,0.0023856985,0.049285475,0.06505607,0.07284014,0.06019509,0.014342177,0.04117721,-0.037570227,0.013657159,-0.0020444833,-0.055552155,0.06270117,0.030862113,-0.02138137,0.025060149,-0.014077824,-0.029265767,0.025552899,-0.020165728,0.019601647,-0.008456736,0.030028643,0.019517368,0.009106508,0.01718633,-0.0290595,0.0070278193,0.018878091,-0.024638748,-0.014700284,-0.07547556,-0.02301373,-0.008218121,-0.02695122,-0.018467791,0.011950762,0.01586767,-0.01530247,-0.00285278,0.023656964,-0.03866695,-0.023532506,-0.05734077,-0.005064135,0.049694464,-0.05982366,0.036421444,-0.021457901,-0.04152941,-0.040703002,0.039067097,0.0048889825,0.014217878,-0.0046527544,-0.045955088,-0.015333058,0.009759692,-0.030048938,-0.050866216,0.0040204236,-0.10144529,-0.001015322,0.07298892,0.013880071,0.0020264385,-0.17514428,-0.13191025,0.016428899,0.017946454,-0.0015408206,-0.0046125907,-0.011412507,-0.043309677,0.036002915,0.029450554,-0.016715595,0.033887997,0.0037189955,0.034519017,-0.030685717,-0.013195802,0.014688474,0.095280804,0.00813109,0.0033483584,0.052745372,0.022514688,0.040327244,0.015637554,-0.008003359,0.028063107,-0.09420537,0.05555276,-0.0853837,-0.0061450046,-0.015963828,0.024309669,-0.025567519,-0.033046316,-0.044860266,0.07229549,0.02316333,-0.08427195,-0.004191631,-0.02993473,-0.006152487,-0.04191438,-0.029242303,-0.03710559,-0.03083447,0.008704887,-0.03342373,0.011338521,0.006482819,0.0014930122,0.0013305594,0.011663372,-0.0013715597,0.059744496,0.0069156736,0.02685112,-0.036185376,0.021220947,-0.1005908,0.029542333,-0.0028933492,-0.06048467,0.010804279,0.009766615,0.06590671,0.019122403,-0.023045586,0.023468642,0.025634749,-0.03500144,-0.0046299277,-0.004355385,0.02554794,0.084783524,0.057402242,-0.021231327,-0.07030878,0.055210084,0.03422315,0.010780992,0.0063503087,-0.031914994,-0.012908544,-0.052797176,-0.047413893,-0.051090755,-0.023523085,-0.04930563,-0.03859084,-0.10528473,-0.0033210781,-0.05074707,-0.064920574,-0.008615645,-0.010309057,0.073145024,0.02578409,0.005859759,-0.030254742,0.0033766855,0.013465396,0.07134774,0.0053103697,0.0019188118,-0.018132415,0.04994732,0.02808111,-0.0110787405,-0.043551564,-0.040183745,-0.03176151,0.026029801,0.01578914,-0.0184236,-0.0014081728,0.025935456,-0.012637884,0.012264573,-0.0047475826,0.020311736,0.00016928627,-0.028946318,0.02053231,0.035112884,0.020603726,-0.020341707,-0.060337856,0.008492753,-0.03626086,-0.0077407863,-0.052573077,0.0779399,0.050649505,0.05873738,0.07326727,-0.013065621,0.11437769,0.008657135,-0.03119522,-0.020208357,-0.002364785,-0.0044000703,-0.0060164216,-0.033231344,0.025192872,-0.007464503,-0.025677582,-0.038883083,-0.047823798,0.04403756,-0.022324618,-0.03769024,-0.06942514,-0.022092123,-0.057176765,-0.007368044,-0.019465024,0.009628225,0.0048895944,0.0010615496,0.0060546948,-0.0025090333,-0.015791206,-0.037896007,-0.018981373,0.02410217,-0.02544992,-0.031120988,-0.007034136,-0.028128177,-0.013907003,0.026956562,-0.02927139,0.026823834,0.008934552,0.044151008,-0.040422983,-0.012848114,-0.006444617,-0.021042697,-0.01078388,-0.030847749,0.0064535025,0.0049740234,-0.02893705,0.038995627,-0.0013258748,-0.006148892,-0.01931305,0.010104666,-0.029742213,-0.00044132248,-0.0002439133,0.00035589305,-6.3066305e-05,0.00048925256,-5.024194e-05,-5.3696447e-05,0.00025303423,-4.342338e-05,-0.070575364,-0.017377103,-0.026023114,0.11450305,-0.032585755,-0.025934367,-0.072972395,-0.0021958514,0.031901084,0.0029457328,-0.051253945,0.0010906652,-0.019886512,0.09303034,-0.0308583,-0.06870425,0.052011263,0.06278886,0.009523486,-0.012187906,-0.00035711483,0.0028281151,0.059810653,-0.03471464,0.02961476,-0.018719684,-0.024038048,0.018825855,0.017628826,0.015774999,0.06946134,-0.03322922,-0.055656765,-8.7367225e-06,-0.02328213,0.06260011,-0.046797734,-0.0036089644,0.072031714,-0.028723797,0.0030833122,-0.076458335,-0.06306355,0.14172712,-0.0029706564,-0.011806202,0.034278695,-0.02410684,-0.0035307554,0.007932519,-0.028051902,0.0067545907,0.023090124,-0.010244494,-0.014285423,0.0051561897,-0.0351855,-0.004067803,0.08635228,0.024878697,-0.024118297,-0.0019811478,-0.0066384547,0.016707825,0.054836914,0.013342881,-0.02118125,-0.028080052,-0.06538294,0.011281298,0.014788975,0.013281673,-0.0070168437,0.0034723922,0.017594283,0.0073096375,-0.0023944352,0.0013484539,-0.009776315,-0.0094730025,-0.004419545
0.010422172,0.071854115,0.039503753,0.004667051,0.05544839,-0.06525415,0.03807663,0.028578263,-0.024171058,-0.020744486,-0.009792157,0.0037553587,0.028026165,0.00035257533,0.0014352624,0.0024092551,0.03182154,0.03915191,-0.0073097623,-0.027293772,0.00955786,0.04552409,0.049551874,0.080762,0.023687819,0.07899655,-0.032610137,0.022679174,-0.02302246,0.014451836,0.0017327222,0.013457688,0.020121556,0.014124328,-0.058885247,-0.019532008,-0.003404266,0.038083043,0.05103122,-0.010069508,0.026146967,0.0063411817,-0.03120863,-0.018690387,-0.034664433,0.015016258,-0.011678041,-0.024941564,-0.01978269,-0.005442512,-0.012994838,0.01049436,0.0014673485,0.017478367,-0.015964938,-0.011185863,-0.009383456,-0.009945002,-0.0014477255,-0.013252374,-0.022309178,0.0051859845,0.0032715073,-0.0046976474,-0.029071176,-0.0063723368,0.012525637,-0.0009396929,8.178838e-05,-0.0023984103,0.024183901,0.00824527,0.027694173,-0.03275861,0.09383299,-0.031574175,0.016269721,-0.0031500752,0.0365184,-0.03191145,-0.050338034,0.0006165692,0.011355271,0.005157559,0.030585244,0.008883137,-0.005759926,-0.030286549,0.032635063,0.01292796,-0.03983238,-0.015024514,-0.019605322,0.07129724,-0.009022928,-0.0003911936,-0.011949614,0.0022344855,-0.025603311,-0.056484647,0.013274192,-0.0041646017,0.10884784,-0.038930126,0.040293384,0.0050920155,-0.033764157,0.009132016,-0.00088643475,-0.040290546,-0.02652494,0.080527544,-0.015212526,0.038648397,-0.028435193,0.011474611,-0.012455692,0.03946806,-0.022668833,0.021393444,-0.0007153697,0.005763085,0.00841858,-0.0286709,-0.014200268,-0.04744677,-0.015828665,0.009099526,-0.0030279518,0.039270032,0.006997921,-0.012696082,0.03604724,0.027762692,-0.011462082,-0.027029905,-0.052293286,-0.0065338775,-0.015372272,0.009647628,-0.076190576,0.0025553633,0.091482475,-0.015041861,0.009217695,-0.015165919,-0.00054264703,-0.010828226,0.00027263112,-0.008426587,0.024693787,0.03317378,-0.009108754,0.027691847,-0.024031825,-0.06439893,0.02386047,-0.040784646,0.03111083,-0.027789587,-0.038824964,-0.028109364,-0.038485505,-0.03140577,0.033897996,0.011993022,-0.027925922,-0.036096808,0.010161502,-0.0016213739,-0.014215276,0.04076124,-0.0268639,-0.019936059,0.027408801,0.0040638978,-0.004785113,0.021713551,-0.014795071,-0.029550835,0.030166138,0.018264286,0.03330928,0.003980368,-0.022589318,-0.002808447,0.04221037,0.012446136,-0.021430526,-0.008043211,-0.014494406,0.0037157706,-0.0008199278,0.04891213,0.0009165573,-0.015911281,0.0028215072,-0.015810486,-0.013681114,-0.03535679,0.020871282,0.018142544,-0.025818126,0.008993345,0.008202589,-0.021128234,0.048697647,-0.0060763382,0.047642253,-0.025836185,0.07654429,0.0144566065,0.009484467,-0.0054996437,-0.017813774,0.016054649,-0.018709324,0.035211902,0.014567193,0.008935237,-0.0014649944,0.03929908,-0.019540943,-0.01780124,0.00092896307,-0.005534073,0.007193873,0.008645724,0.010304039,0.005678371,-0.007758335,0.005586708,0.015180425,0.011810054,-0.018340368,0.047959253,0.032745365,0.023947248,0.038409688,-0.039776683,0.007609363,-0.019727422,0.0058397655,0.031682976,0.010078628,0.029581742,-0.042483903,-0.039642643,0.0096158255,0.0374119,-0.072526135,-0.014689437,0.0178405,-0.03955958,-0.022037704,-0.020866312,0.04101335,0.026821932,-0.04004886,-0.009178379,-0.0038584478,-0.0016080984,-0.00076822925,0.01097838,0.017961401,0.01021177,-0.0051178765,0.035880588,0.018625965,0.0015043009,0.0026154497,-0.020719761,-0.020594643,0.022317033,-0.02266738,0.03033304,-0.022061799,-0.041956935,-0.0018755592,0.013354742,-0.058591254,0.028735813,0.013334411,0.01146317,0.03543804,-0.03659037,-0.023144413,-0.013095416,-0.06799145,-0.047604296,-0.0010283256,-0.013681126,-0.03141134,0.0048123603,0.09021392,0.005951431,0.011120388,0.008022281,-0.035621326,-0.025089169,-0.00045036786,-0.01800899,0.014563447,0.016064268,-0.03729069,0.029740343,0.026751367,-0.025602428,-0.040250484,-0.025945237,0.01290912,0.052257556,-0.019787267,-0.00023996306,-0.017099557,0.029783407,0.036493964,0.024047894,-0.08150121,-0.027397892,-0.024529329,0.03590851,-0.00062937546,0.039414484,0.050325863,-0.00055324106,-0.023950912,-0.04878566,-0.022386001,0.07022577,-0.0060714283,-0.048576966,0.08591422,-0.028185058,-0.02935713,-0.022694921,0.011870205,0.018125374,-0.010922603,0.0033196583,0.0406191,-0.0377378,-0.00061583065,0.0058700764,-0.0011187122,0.034408644,-0.013416832,0.040239677,0.006616162,-0.0058446852,-0.016222022,0.1075212,0.026853766,-0.025098182,-0.013904954,-0.050673973,0.032212313,-0.010401955,0.040754877,-0.032769967,0.0070241736,-0.047279675,0.011696635,-0.023629418,0.061617136,-0.01217886,-0.040612932,-0.006843038,-0.05570353,0.042103034,-0.065873586,0.016806444,-0.010222641,0.050257936,-0.038455065,0.01389429,-0.014435013,0.09461563,-0.041741382,0.07025831,0.011488721,0.06040728,0.027678281,-0.015375028,-0.046090625,-0.03174123,0.010448222,0.014045891,0.00877914,0.0026294969,0.004450098,0.0013081732,-0.01763977,-0.013045377,-0.023705726,-0.025736757,-0.04676609,-0.019100469,-0.01699537,0.0044245077,0.0028702652,-0.050775237,0.014060005,-0.02847923,0.091314845,0.0029944235,0.007712703,-0.013173039,-0.01732269,0.015881702,0.03095005,-0.014238101,-0.018036846,-0.011132656,0.030308146,0.021246307,0.028887847,-0.01521037,-0.01632068,0.025505606,-0.021004826,-0.027257528,0.00019042718,0.016153112,0.045946673,0.060401537,-0.0032099385,-0.008564277,0.02644363,-0.012977307,-0.06755841,-0.05211406,0.0064282715,0.022951646,-0.012935159,0.006348275,0.041078355,0.035444044,0.02760882,-0.016109366,-0.028386638,-0.018668761,0.01811504,0.0047911103,0.02571045,0.020750565,-0.009903703,0.020521745,0.0054694065,0.08834483,0.0068154107,-0.014793212,0.0022968608,0.025411228,-0.025606673,-0.004066919,0.012863487,0.018803343,-0.026676951,0.006662762,-0.019899067,-0.003719071,-0.025493676,-0.0015609516,0.012463364,-0.025404906,0.018519392,0.0072934376,-0.0052715773,-0.0025739786,-0.005784286,-0.008556491,-0.025467237,-0.024878943,0.0042419685,-0.0077758166,-0.0013403792,0.004047574,-0.019668316,-0.025777724,-0.028391507,0.028481517,0.0042405617,-0.0004631236,0.034144193,0.02203461,-0.00011273856,9.518271e-05,-0.00015537087,-3.0132953e-05,-0.00023887093,0.0005508102,7.379215e-05,-0.0004952849,6.051023e-06,0.019216096,-0.042378914,0.031436007,-0.020860663,-0.03293379,-0.058242712,-0.048116878,-0.0151936095,-0.03639342,-0.048005298,0.013417421,-0.039350353,0.023464246,0.0045508575,-0.006733628,0.038748953,-0.0982913,0.04843193,0.0013880387,0.004035881,0.05602869,-0.0064466638,0.017809382,0.09126319,-0.045981023,-0.019475585,0.050680224,0.037015863,-0.013274693,0.001761185,-0.037605245,0.027457194,0.0016381501,-0.025449505,0.05034122,-0.037361484,0.05004683,0.030709015,-0.0418753,-0.049334027,-0.033040494,-0.014419629,0.030688815,-0.07353007,0.0057923044,0.012106689,-0.017071875,-0.013547299,0.0083279,-0.006919909,-0.028309792,-0.009934189,-0.004819726,-0.03770276,0.025195379,-0.017238125,-0.013250433,-0.01351351,-0.046580337,-0.013948726,0.0087821325,-0.0057369517,-0.03862001,-0.0142982965,-0.033360623,0.021869287,-0.023692982,0.012707752,0.07137479,-0.011241454,-0.014119197,0.06285614,-0.010960093,0.0047616763,-0.006618321,-0.004673085,0.0066488534,0.009176176,0.017042398,0.005494635,-0.0010949282
-0.102975406,0.15447354,0.080787815,0.13053152,-0.047942422,0.046841435,0.053079046,-0.087028734,0.054975327,0.0059692776,0.008229397,-0.1112556,0.033657424,0.0833357,-0.052717175,0.053120233,0.05159417,0.020502811,-0.022058245,0.026461923,-0.08999718,0.017284827,0.022240672,-0.036070608,0.017551603,0.033501025,-0.073377356,0.008175301,-0.02533942,-0.10453131,-0.05985017,-0.048859783,-0.061349183,0.023334669,-0.0017402729,-0.06880274,-0.052859265,-0.027701575,-0.01927432,0.013328474,0.030596694,0.11070928,-0.04532317,-0.03170228,0.051938735,-0.03851078,-0.05388758,0.02818949,0.016102236,-0.025648182,0.008767897,0.024565257,-0.023863563,0.034024768,-0.068417154,-0.07973887,0.018409051,0.009569517,0.012416723,0.048183788,0.057735007,0.0067400127,0.062506825,-0.051279183,-0.040495247,0.030258965,-0.023014173,0.008642004,0.020746289,-0.022500362,-0.06730329,-0.0020570024,-0.057795085,0.034633767,-0.02915215,0.034543093,0.037851498,-0.024735399,-0.014041517,-0.076615915,-0.020908095,0.018688293,-0.025764897,-0.08598414,0.024839927,-0.02375068,-0.028458487,0.0074826027,-0.06296986,-0.02246649,0.005728358,0.08587918,0.009157764,-0.034054734,-0.032605983,0.05794176,-0.032005806,-0.0020613067,0.0106625585,0.06883436,-0.019765325,-0.081547566,0.0114612505,0.022059282,0.09051593,-0.058518656,0.12456948,0.018337024,-0.017837482,0.013153327,-0.022952259,0.0069390316,0.082111,0.08282704,-0.017213274,0.027734803,-0.0101220235,0.06513338,-0.012878118,-0.07521635,-0.007731874,0.054173466,-0.047492065,0.07383825,0.049795512,0.016654365,-0.031972107,0.0049915854,-0.05687149,-0.020411927,-0.026932683,-0.051821247,-0.03133215,-0.05923935,-0.021017453,-0.0644363,0.03522587,-0.03276354,0.06900448,0.13130324,-0.006955141,0.10358665,-0.03506053,-0.028525207,-0.0025303804,0.07961336,0.08991973,0.004040639,0.036578033,0.012537568,0.03667752,-0.02935292,0.051066704,0.04434395,0.03147054,-0.07582527,0.004672586,-0.026612373,-0.020596633,-0.011719075,0.014819888,0.12468217,0.029395444,0.04108881,0.020738408,0.013002792,0.04702555,0.099728435,0.044447467,-0.0025494783,0.077036686,0.05751135,-0.024757616,-0.024677537,0.06593649,-0.016972177,0.013278246,0.0910296,0.12446692,-0.039747853,0.037100706,0.022737514,0.062107336,-0.033898145,0.049418777,-0.033876628,-0.0048044277,0.10258302,-0.09286587,0.012171008,-0.06348873,-0.024686372,0.060667492,-0.010841923,0.100234434,0.05616671,-0.049207617,0.015124055,-0.036191728,-0.022609306,-0.026936516,0.048132025,-0.064098634,-0.0623087,0.011822636,-0.015958397,-0.07262871,-0.0034944043,-0.080227435,-0.08312804,0.029694952,0.013735405,0.003146384,-0.038470816,0.0046656337,-0.07248418,0.018464593,-0.040363234,-0.07993612,-0.04982026,-0.06272028,-0.07656703,0.008309493,0.052703265,-0.06786119,-0.076515526,0.09463032,0.051105935,0.076497614,0.060567684,0.07507012,0.06902225,-0.021714225,0.055924352,-0.11248804,-0.01890869,-0.056930684,0.07919426,0.0032878811,0.09248921,0.006584642,-0.013085716,0.043635435,0.012915957,-0.123615526,0.019848779,0.05332713,0.02158014,-0.029000714,-0.041754857,0.008488716,-0.026420632,0.0010412503,0.06660193,-0.027660843,0.057339378,-0.04012604,-0.0004526743,0.04755926,0.057578586,0.04977991,0.06028399,0.029491596,0.0037869557,0.01317305,0.060187716,-0.011777876,-0.008780012,-0.004257735,-0.03419173,0.002661994,-0.008962087,0.0208729,0.026203295,-0.06393241,0.015189993,0.07068726,0.10373825,-0.08748579,-0.100438915,-0.07714274,-0.07864169,-0.074307345,-0.061000407,0.052449998,0.045731254,-0.052073907,0.045069374,0.13020559,-0.07496217,-0.008731265,-0.0402436,-0.016720258,0.052016832,0.075620286,0.15243721,-0.06427964,0.032150675,-0.03792054,0.061322216,-0.017754426,-0.023999028,-0.055031165,0.04932813,-0.023822721,0.004690969,0.072268374,0.009110933,-0.0812058,-0.008606684,-0.08795573,-0.056304052,0.067214146,-0.03167037,0.07457323,-0.08322586,-0.025735386,0.014459533,0.09362239,0.040402375,-0.038538042,-0.20951436,-0.076464646,-0.008162059,0.05724773,-0.053340543,-0.026795628,-0.025676548,-0.031213231,-0.111411214,0.0013356903,0.06604926,-0.0056721778,-0.09655936,-0.08851564,-0.058657765,-0.028723292,-0.012540727,-0.065053344,0.020440822,-0.08196243,-0.00076869456,0.08178258,0.07777923,-0.034031317,0.039236195,0.0491818,0.012712601,-0.0018613836,0.0597052,-0.042343203,-0.0143528525,-0.10075292,0.042053707,-0.014870001,0.0869234,-0.01904236,-0.029358275,-0.0047777435,-0.06499739,0.006810065,-0.13074592,-0.07783545,-0.05793172,-0.0002547924,-0.020026186,0.14643471,0.046072472,0.05599552,0.03641988,-0.06217788,-0.16207118,-0.040655162,0.02706247,-0.056229588,9.5341005e-05,0.12018755,-0.022466535,-0.05154288,-0.024575949,0.017795548,0.1037178,0.04340336,-0.025747294,0.018518118,-0.04658139,-0.049303494,-0.026508471,0.029322973,0.08040196,-0.01845271,0.07242645,0.06640669,0.04698739,-0.036996264,-0.013511379,0.012274064,-0.034818258,-0.03858499,-0.08698023,-0.020469913,-0.010695001,0.0019259369,0.05095098,0.011119284,0.044562437,-0.028758524,0.03198972,0.045830987,-0.033194277,-0.072860554,0.010970614,0.031972054,0.012721359,0.05199415,-0.03737252,-0.039923813,-0.02383326,0.0018895195,-0.04135064,-0.0707543,-0.0025065574,-0.089880854,0.10823038,-0.08574297,0.003396671,0.06282182,-0.016702188,-0.15142626,-0.043975398,-0.033210207,-0.1039392,0.029636804,0.0323421,-0.04863715,0.0668661,-0.028715337,-0.042898092,-0.034088634,0.03103489,0.09417868,-0.08885074,0.010770218,0.009314386,-0.005246219,0.049917396,-0.012471122,9.323843e-05,0.044634607,-0.009815301,0.040757664,0.03679724,-0.031781018,-0.040534034,0.01182368,0.05419376,0.008412569,-0.04224505,0.05788973,0.011143952,0.023850938,0.028481523,-0.06852571,-0.0058205044,-0.056369357,-0.03616775,-0.030647596,-0.016176157,-0.008350636,-0.07193254,-0.06763876,-0.037653,-0.04501548,-0.052197423,-0.038567856,-0.04749787,-0.055978775,-0.11279708,-0.06297597,-0.008976618,-0.073689416,-0.01452672,-0.055902798,-0.07576465,-0.013634935,0.011424389,-0.0006016855,-3.0331983e-05,-0.001010446,0.0011241286,-0.00037931374,0.0042239884,0.0007233002,6.5070686e-05,0.0014058666,-0.09026765,-0.09874377,0.05146982,-0.08421327,0.09718137,0.022956232,0.14457546,-0.0318143,0.010163487,-0.14096788,-0.044612434,-0.118681766,0.017590078,0.059939645,0.0018071865,-0.08617997,0.10245967,-0.030904422,0.029615296,0.018835917,-0.13677558,-0.09402822,0.021516724,-0.111084275,0.0146221705,0.115429595,-0.016043376,0.054000795,-0.10314478,-0.057326928,-0.01628219,0.09676567,0.048057843,0.118542194,0.030500583,-0.020555245,-0.10369465,-0.014133603,0.00264057,-0.001574323,0.045841154,-0.04008992,-0.064730085,-0.07322832,-0.05604851,-0.0094591025,0.02721446,0.046011083,-0.03742313,-0.0024946139,0.023283526,-0.023390884,-0.019342864,-0.02599316,0.03469265,-0.0018326737,0.09146022,-0.016140947,-0.04500035,-0.033263326,-0.099485405,-0.063224904,-0.027718803,-0.095691495,-0.12872027,-0.0731335,-0.08000944,0.013728621,-0.11038176,-0.039396636,-0.0025496169,-0.016615106,-0.02542287,0.011054639,0.03944125,0.019098619,-0.017208377,-0.007702213,0.032369167,-0.020551696,0.03004742
-0.036860112,-0.01120626,0.0014484007,0.07796446,-0.048600923,0.08384339,0.010057814,0.042957153,0.054875635,-0.02844892,0.021356534,-0.005136834,0.016781345,0.0008212252,0.01939503,-0.0014355239,0.0041488297,-0.010887299,0.024932511,0.07172498,-0.005375228,0.037575558,0.0056752637,-0.05189618,0.022012731,0.019290922,-0.049513463,-0.018745787,-0.030362265,-0.045121945,-0.037692517,-0.018583555,-0.03218272,-0.0146372365,-0.055035163,-0.04442492,-0.011824999,0.0033882018,0.013181724,0.030818911,-0.011164906,0.018287078,-0.003447623,-0.0053986493,-0.019410178,-0.010939489,-0.011980874,-0.023067204,0.00016368282,-0.004322022,-0.0069825454,0.027317906,0.017715983,0.004275851,0.0038709478,0.0054318667,0.010604089,-0.016807206,-0.025501654,0.016998013,0.052565787,-0.00925112,-0.0088994345,-0.008506022,-0.00029335567,0.00047057844,0.037197407,-0.0021518448,-0.00041652969,0.029616982,0.04008213,0.018148791,-0.00898926,-0.024949282,-0.0042973873,-0.011537327,0.09788611,-0.011826762,0.03435928,-0.021568272,0.02060552,-0.0031927791,0.012477946,0.0017982445,0.03020093,-0.006939459,0.023905002,-0.0091533195,-0.0339641,-0.008725013,-0.013809152,-0.037497077,0.00080126297,0.053692803,-0.023550287,0.018483428,0.0054780478,0.026329845,-0.016769104,-0.041084774,-0.03698592,0.010773562,0.008693881,0.004767952,0.047835447,0.026856253,0.0045151217,-0.015325311,-0.031022497,0.10495597,-0.04757763,0.013160286,-0.017660223,-0.028434101,0.03960418,0.08683523,-0.025765076,-0.039049286,-0.035553053,-0.05369123,0.025909308,-0.02129259,-0.05821297,-0.05413681,-0.039871074,-0.005058563,0.0023209231,0.016489213,-0.0073249354,0.043585237,-0.0016258463,-0.015087288,0.012963061,-0.009613078,-0.0027479727,-0.05022815,-0.024269769,-0.02830065,0.022742512,0.037702672,0.019766686,0.04883361,0.0020557516,-0.052712437,0.00016778457,-0.00095462496,0.009166884,0.024905479,0.0016570642,0.040877357,0.05012602,-0.0058679697,0.015764393,0.024312716,0.052444138,-0.049325854,-0.007939348,-0.033036876,-0.018608069,0.0063734935,0.013961685,-0.0143634025,-0.01231045,-0.038730953,0.014756916,0.00172812,-0.043554682,0.049220175,0.07987025,0.101627305,0.036277983,-0.003252714,-0.014128465,-0.010661319,-0.016788159,-0.0011608935,-0.0020396723,-0.019807985,0.004414738,-0.057696503,0.07296387,-0.0063531394,0.0131627275,0.028578943,0.0013331617,-0.032015182,0.029183721,-0.0183877,-0.023351755,0.0022989907,0.03920227,0.030096086,0.040820315,0.035369016,-0.00529894,0.018156273,0.0039322632,0.0038784994,-0.05145221,0.047197502,-0.06451274,0.0020569535,0.024342692,0.03537182,-0.0008388177,0.066297196,0.031611517,-0.0323723,-0.030582618,-0.020661877,0.001878798,-0.0020992884,-0.047476795,-0.022000667,0.009893715,0.0074350554,0.0064846016,-0.05385298,-0.008902898,0.00747012,0.0070831804,-0.016285125,-0.037358683,0.0008962269,-0.013854925,-0.025690565,-0.023823667,-0.0092758145,-0.027916454,-0.012768765,0.020497346,-0.022850253,-0.06098839,0.041457918,0.044570487,-0.0051950435,0.070007615,0.022865789,0.052673224,-0.024796013,0.02018823,0.0056839744,0.04087103,-0.008311905,0.0030892594,-0.054246474,-0.032248247,0.045439642,-0.0027996493,0.037141807,0.06231687,0.07446885,-0.014772448,0.014232115,0.042001836,0.03255178,0.00042670983,0.07049464,-0.009022428,0.06604966,-0.03275935,0.024210382,0.022801973,0.018924566,0.01694237,0.013816667,-0.0031974013,0.016511822,0.0048690736,-0.0066991397,0.017934673,-0.029119724,-0.022184065,0.026068633,0.017989153,-0.016314995,-0.034475047,0.019362796,-0.05015985,0.055497225,0.017805668,-0.0059195617,0.035552416,-0.052929405,-0.023826964,-0.03771529,-0.013757097,-0.06662784,0.061966483,-0.03255829,0.0018312573,-0.01859702,0.029392187,0.01475268,0.040487632,-0.006206262,0.010771241,0.011518966,-0.048728514,-0.007357508,-0.04729279,0.05089902,-0.015462666,-0.011504831,-0.06428386,-0.0049015535,-0.021250507,-0.03908435,-0.050744593,-0.014995015,0.02714714,-0.017597033,0.06269081,-0.0135943545,-0.035967268,-0.013157652,-0.013263818,0.023044828,0.026052367,-0.09555108,0.048377953,0.07617241,-0.024984013,-0.02720351,0.026280092,-0.106535,0.03185605,-0.0042158766,0.08814012,-0.019395093,-0.018619608,-0.004277065,-0.0056940597,-0.0066930773,-0.0024704784,-0.03806859,-0.010544913,-0.06293427,-0.03821594,-0.037047066,-0.045274206,-0.06957268,-0.0030374117,0.014074166,0.033667766,-0.0037508395,0.045402408,0.041524883,0.025891295,0.017193783,0.048123315,0.033367842,0.02438583,-0.044495303,-0.014941714,0.023536764,-0.021306805,0.0043785893,0.038425293,-0.030107781,-0.021881219,-0.020536877,-0.047727622,0.015226242,-0.037135668,-0.09076249,-0.011483651,-0.03646953,-0.055660468,0.00012175653,-0.021552598,-0.00074618176,-0.04665963,0.020445557,-0.014760717,-0.01930075,-0.022192152,0.010205809,-0.03082398,-0.04511728,-0.0037042862,-0.014572944,-0.013910959,-0.014792475,0.029339885,0.08911721,0.056803238,-0.029684437,-0.016979132,-0.020750625,0.034343872,-0.028944988,0.012635628,0.03858514,0.022742914,0.022165703,0.022733971,-0.057654433,-0.033518124,0.0318653,0.029219532,-0.007783389,-0.05116053,-0.04086345,-0.0443951,-0.047132708,0.012165902,-0.068219185,0.012287855,0.022663992,-0.020983428,-0.04576712,0.013557246,-0.009821677,0.0023218135,0.017433226,-0.019343838,-0.028491668,0.036053196,-0.00325255,-0.002312112,-0.036337666,0.021781567,-0.044348564,0.037949964,-0.075687565,-0.034054816,-0.0024173749,-0.06883807,-0.041499518,0.035288937,0.039207008,0.004733732,0.0016360877,0.01194357,-0.0002492906,0.009134569,-0.026537113,-0.00011349944,-0.01708029,-0.04866168,0.016284969,-0.039569132,0.0008665258,-0.028395899,0.0227833,-0.029411381,-0.035303373,0.005037145,0.062934674,-0.015756948,0.04165265,0.014509747,0.017464373,0.010445337,0.063836105,0.06439956,0.04453053,0.01631045,0.037375398,0.0014868431,0.018711684,0.018848607,0.032126326,0.010454008,0.030383708,0.02268092,0.028691592,0.0022973246,-0.0026012873,-0.029986236,-0.005664373,-0.009032218,-0.02362399,-0.0062974296,-0.032003198,-0.051553935,-0.03492312,0.0073188823,-0.013955257,0.012228446,-0.0148768,-0.026020035,0.0170456,-0.00862527,-0.0086533725,0.00018686072,0.00046092606,0.00027680627,0.00021876064,0.00050024246,0.00021361612,0.00023086937,0.00011392362,-0.00018035983,-0.0684331,-0.06624021,-0.015941463,-0.010716397,-0.049676925,-0.08654781,-0.033395104,-0.018305976,0.03390926,0.03304762,-0.0009935191,-0.030776192,-0.019908773,-0.010605802,-0.022973072,-0.011241641,0.04436149,-0.017395254,-0.005181908,-0.08157111,0.047118787,0.008331865,0.024355209,-0.024467556,-0.01767948,-0.0011006582,-0.039317742,-0.04195268,-0.01680484,-0.014015962,0.035124756,-0.034594316,-0.0580483,-0.029120117,-0.018075896,-0.032718915,0.092945136,-0.04085857,0.029687135,0.0033300028,-0.013667607,-0.040089324,-0.07176337,-0.03288852,-0.013897429,0.0067344136,0.003710021,-0.00576513,0.0034997538,-0.0010907562,-0.021773346,0.019004442,0.0022270374,-0.012484107,0.0217893,-0.013523696,-0.0020993098,0.00070363184,0.04134431,-0.01126811,0.045525894,0.01809527,-0.059406854,0.06132274,0.014677497,0.054128997,0.005908439,0.021201065,0.005779042,0.05620784,0.018628366,0.08284392,0.027221529,-0.00049704115,-0.0062387707,0.00210558,-0.00969067,-0.015565561,0.004794266,-0.015303938,0.0001518613
0.08939884,-0.0064216256,0.04344827,-0.052587163,-0.09064193,-0.0036739146,0.03400547,-0.061274216,-0.0044178516,-0.05617249,-0.06507996,0.006816873,-0.004201691,-0.090186216,0.0036274188,0.015700458,-0.04965245,-0.0041737235,0.058834847,0.024697881,0.036340576,0.0035102984,0.00051132025,0.03336741,0.02850549,0.0426134,0.08678151,0.043594465,-0.03962831,-0.05665453,-0.030829227,-0.03686866,-0.012594579,-0.018117437,-0.03962666,-0.08287778,-0.02118076,-0.012485795,-0.039439846,0.11116998,0.10054804,0.01983398,-0.01537852,-0.05215072,-0.07370469,-0.026496578,0.028557848,-0.00702085,-0.060093097,0.022469826,-0.0030634322,0.007293447,-0.008808646,-0.017039437,0.10439854,0.07186699,0.00596413,0.00865721,-0.104640715,-0.07642897,-0.027757434,-0.027705755,-0.022299452,-0.028278135,-0.008784711,0.010126205,0.014219032,0.07803226,0.06347592,-0.020858124,-0.03210601,-0.042012062,-0.00383666,-0.06146234,-0.04834237,-0.0021952596,-0.0698152,-0.006221759,-0.06021624,-0.11921962,-0.049321197,-0.025509484,0.005669235,-0.04980615,0.034609713,0.011445842,0.023967955,-0.06440799,-0.05349332,-0.08857906,-0.02926775,0.044934973,-0.021714536,0.03491689,0.06118391,0.049233686,-0.021545874,0.02390574,-0.021142814,-0.055746302,0.01012865,-0.10797848,0.09023387,0.11263279,0.12570126,0.0038096863,0.108099535,0.0011811983,0.052699868,0.028027881,-0.051641118,0.069242164,0.08458874,0.08124842,-0.016374663,0.024549123,0.014766261,0.02433742,-0.002291833,0.052393857,-0.020365106,-0.07838656,-0.007688543,0.12157201,-0.014454557,0.013255681,0.010054699,-0.04147837,-0.035994563,0.04224499,-0.022912076,-0.016274597,0.013976245,-0.019216767,0.016212797,0.03144465,-0.0016536395,-0.05551436,0.036808457,-0.03940127,-0.011028008,-0.02498577,-0.019079227,-0.0007106502,0.1288223,0.15099488,0.091201924,0.048711453,0.067072846,0.019800229,-0.013875917,0.00082022836,0.003276678,-0.09767994,-0.072108045,-0.05010292,-0.03074048,-0.095864154,-0.04719817,0.082700364,0.026141576,-0.005423112,-0.0209374,-0.0088090245,0.03049685,0.058905266,0.12975529,0.020109935,-0.029187365,-0.034477618,-0.121465325,-0.029148726,-0.009302216,-0.01621802,-0.02038892,0.040834785,0.06344009,0.043263067,0.055147372,-0.031615064,-0.0032864406,0.08213758,0.062306803,-0.05346699,0.057708744,-0.030154169,-0.049020708,0.09977884,0.011686296,-0.01398839,-0.05609175,-0.017993268,0.0044766227,0.01981747,0.042351462,-0.0078107477,-0.007979374,-0.007959578,-0.052712098,0.08097831,0.013430502,-0.005008459,-0.026771145,-0.055012114,-0.04845795,-0.061979447,-0.067363665,-0.051523186,-0.057198014,-0.020139819,0.028053695,-0.013352181,0.03962075,-0.05971643,-0.095868535,-0.104818866,-0.047620118,0.04089724,0.020309549,0.00035512753,-0.061338454,-0.025244989,0.016106673,-0.05474643,0.008923393,0.18133637,0.14037493,0.063971326,-0.0011394562,0.059241,0.01644234,0.08370329,-0.026377017,-0.012359852,-0.07408242,-0.16208993,0.016609745,-0.007956225,0.11712637,0.051649533,-0.021946372,0.004611114,0.08312693,0.02926958,-0.024710968,0.012905661,0.0036863624,-0.030122165,-0.02123471,-0.07548591,-0.013986939,-0.005878681,0.023814743,-0.0820818,-0.0605406,-0.027496168,0.0014749599,0.023467269,0.10576307,-0.02126619,0.053280894,-0.0041774847,-0.014267259,-0.01757459,-0.021302857,-0.006314158,0.028669586,-0.040090982,0.0007177311,0.025794016,-0.033115987,0.017916573,0.047632877,0.0052320063,0.101265386,0.10641745,-0.033965748,0.013431873,-0.031521022,-0.038120303,-0.0011889308,0.03476577,-0.046797115,0.029799864,0.094650246,-0.0117822,-0.013594527,-0.019540593,0.046290465,0.0035195856,0.02889808,0.017457623,0.063832484,-0.011765713,-0.09251282,-0.052666824,-0.05288352,-0.017091291,0.014240435,-0.033942904,-0.07708055,0.029782297,-0.049563386,-0.051647414,0.12617049,0.023639841,-0.04395536,-0.04771736,-0.03322091,0.03301224,-0.004334768,-0.00050960795,0.056855347,0.114975184,0.021434471,-0.015298946,-0.0033529561,0.027479507,0.11232021,0.07579886,-0.10330974,-0.016191544,-0.018002678,0.04347017,-0.04953494,0.0533527,0.1423313,-0.0580389,-0.064503655,-0.0845015,0.033496276,-0.022715837,-0.028406834,-0.057572626,-0.06873061,-0.07941036,-0.03599929,-0.08398713,-0.032199122,0.019576656,-0.029260885,0.045127746,0.049139984,-0.0029646347,0.01542275,-0.024782289,-0.02538442,-0.022823246,0.015455091,-0.028973749,-0.05241755,-0.011252704,0.15019259,0.073552474,-0.020744076,-0.05382446,-0.004667819,-0.08398442,0.0064483867,0.049837444,0.0152854845,-0.0029721318,0.0776068,0.02968755,-0.075459786,0.011797948,0.15142208,0.04395213,0.053331673,-0.007812294,-0.01589535,0.05515411,-0.021987645,0.0064755427,0.13563205,0.10282513,0.07417061,-0.057203602,-0.09425588,-0.051282294,0.10022688,0.10501898,0.080881804,-0.037729114,-9.420299e-06,-0.066787764,-0.03407108,0.008381623,0.029182862,0.058021378,-0.006522783,0.069553174,0.07121723,-0.0717513,-0.06582068,-0.03997271,-0.007342414,0.095759325,0.049081635,-0.06889028,0.00412285,0.07466992,0.0012398562,-0.09011859,-0.11315321,-0.008078138,0.03631738,0.04204375,-0.026384104,-0.069243185,-0.0037449282,0.05630047,0.02435061,0.016838666,0.078931645,-0.028202608,-0.06406815,0.02675646,0.036037903,0.057711408,-0.03452959,-0.0015920857,-0.027676137,0.031521633,0.0072233058,-0.0015716733,0.070880055,-0.09594266,-0.026319085,-0.013464536,-0.03329661,-0.106741555,0.009460871,-0.056422036,-0.014672028,0.0398549,0.065820746,-0.047300432,0.005404948,0.06547774,0.042354506,-0.034909595,0.038506098,0.115664214,0.040920366,0.0152432965,-0.035517503,0.057118565,-0.09808892,-0.08051517,0.09433828,-0.015318724,-0.019547207,-0.0016103663,-0.006905586,0.012306025,-0.03343557,-0.012178206,0.031604003,0.11309388,0.096374996,0.015488831,0.044448014,0.03721666,0.0010433722,0.022634031,0.014183237,0.056360207,0.039190598,-0.004419257,-0.0054081627,-0.0011845705,-0.04563634,-0.0146623645,-0.02039249,-0.0041913604,-0.020780934,0.007301498,0.02111614,0.010941709,0.028455626,-0.015384429,-0.020756684,0.051635683,-0.024411252,0.0072904495,-0.0010537117,0.00058833155,-0.00036345495,0.0015738225,0.002040003,0.0011693186,0.00021546842,0.0014225174,0.0003378884,-0.015976977,0.036485616,0.018069994,0.08035729,0.05784865,0.0014046775,-0.009074221,-0.06690145,-0.07086719,-0.05569925,-0.07206792,-0.00041316426,0.003541932,0.04981644,0.015030603,-0.06997464,-0.05591413,-0.010122399,-0.025695423,-0.033639275,0.03385075,0.026485175,-0.0006190526,0.04105669,0.079323985,-0.040806442,0.1695456,0.0052323947,-0.037073635,0.088410325,0.054074235,0.0154949315,0.032454826,0.16174398,-0.00897534,-0.03437829,-0.014155365,0.096765555,0.17102194,-0.08012732,0.026321022,-0.060956493,-0.07909973,0.046099626,0.068308935,0.026921863,0.07695533,0.019998008,-0.038926173,0.02943321,0.041538674,-0.044421736,0.01772848,0.090289705,0.040425718,0.045182858,0.03339596,-0.04140889,0.048398525,0.021475019,-0.12928985,-0.046811223,0.050288495,-0.033637024,-0.019369923,0.05790079,-0.053291626,0.023275677,-0.022396907,-0.067722395,0.0023001083,-0.0018152589,0.023597904,0.06401425,0.030263497,-0.0045141545,0.031641163,-0.0059451577,-0.009707989,0.047723312,0.023011826
0.08508186,0.046152037,-0.12704006,-0.028016757,0.022883613,-0.113317564,-0.11500958,-0.014269832,0.051075067,-0.00288038,0.08147875,0.0045868834,-0.0026936377,-0.015818248,-0.030181168,-0.07073601,-0.04948558,-0.08804087,0.06275405,0.0044088624,-0.005877617,0.04908421,-0.06540519,0.014236271,-0.0506811,-0.060841285,-0.10598342,-0.02742369,0.009149766,0.003584434,-0.042924237,-0.050574154,0.10168128,0.04579227,0.029867994,0.025028428,-0.026870318,0.050769813,-0.07521022,-0.018555466,0.050283995,-0.023584982,-0.0060439515,-0.007278037,-0.097654566,-0.040894303,-0.025802337,0.06160688,-0.008517011,-0.027778307,0.018812776,-0.017986674,-0.012939162,0.07592337,-0.03883261,-0.0049690027,-0.024474483,-0.110425696,-0.032260727,-0.037523415,-0.043963652,-0.0053718267,-0.005264581,-0.0027909456,-0.0030923148,-0.04843093,-0.0604584,0.042441938,-0.015334403,0.031346764,-0.0018055825,0.035740413,0.037222486,0.030813398,0.08099067,0.039176863,-0.10637658,0.016069073,-0.002401585,0.060544644,0.0066849114,0.10545713,-0.024504067,-0.029902037,0.008501063,0.072815135,0.07888277,0.06999874,0.102862485,0.07659156,-0.015531431,-0.06609358,-0.06951434,0.022440972,-0.038782794,-0.07499836,0.045808006,-0.04183682,-0.036719315,0.028429143,0.030105343,-0.00958831,0.08586863,-0.09496234,0.042088382,-0.007902077,-0.03436024,-0.07389155,0.08285857,-0.11174028,0.11499601,0.035030108,0.04716238,0.099326074,0.059678312,-0.0440194,-0.09488267,0.08156409,-0.04135598,0.047911316,-0.05413978,-0.07153286,-0.08884243,-0.08409136,-0.007463734,-0.086459,0.06829373,-0.051168326,-0.005315702,-0.00363282,-0.01801602,-0.052570544,0.017359411,-0.015158429,-0.044337865,-0.08175254,0.0032649487,0.02731159,-0.00988255,-0.00023869815,-0.014686217,-0.10050504,-0.1168913,-0.08218925,0.013291748,-0.06010718,-0.15245453,0.07259199,-0.045441177,-0.07919926,-0.041801617,-0.0017019063,-0.056976758,-0.0030692117,-0.03169946,0.12851731,-0.047269,-0.028264493,0.021019356,0.06640209,0.09715424,0.04780943,0.024265762,-0.07943202,-0.11356158,-0.043420907,0.04995169,-0.028262237,0.037478328,-0.1003253,-0.0003082856,0.1802295,0.030218873,-0.019816093,-0.081245996,-0.03258699,0.018989088,-0.08545301,0.0710562,0.08184823,0.15500484,0.00026876526,0.0010890363,-0.015218983,-0.033573147,0.00031119122,-0.0071570165,0.021495217,0.010090655,0.07072594,0.03392248,-0.0005009104,-0.016311435,0.026380489,-0.023334768,-0.08036134,0.014306564,-0.10426121,0.010096864,-0.077824704,-0.09916386,-0.02603659,0.026127253,-0.056685288,0.050282173,0.09106813,0.09316084,0.025581721,0.07327051,-0.10131351,-0.039263364,0.020131141,0.030184682,0.0800721,0.034654632,0.1398131,-0.015368654,0.044916637,-0.005468752,-0.08708212,-0.072031714,0.08990392,0.1399226,-0.036913056,0.009567488,-0.024940746,-0.052178606,-0.09533729,-0.026489882,0.015392683,-0.041253187,-0.06630643,-0.036069453,-0.03990808,0.0034891544,0.005863514,-0.055962607,-0.050645117,0.06752877,-0.014077066,-0.0041924412,-0.061178826,-0.02810149,0.0062061027,-0.07083197,0.09630632,-0.018804424,0.010684676,0.21462132,0.0020998856,-0.045606013,0.038951434,0.134414,0.08734199,0.027038906,0.0085254945,0.075144514,-0.074735,-0.011884952,-0.012187025,-0.019544603,0.09515223,-0.023934966,-0.04193116,0.0061237155,-0.035486124,-0.03173294,-0.028831376,-0.020687984,0.036026426,0.03382829,0.038738105,-0.045691438,-0.062263664,-0.06365373,-0.024288232,-0.08672452,-0.07705825,0.012890348,0.14930445,-0.005744941,-0.015394627,0.04806484,-0.040322706,-0.02178034,-0.046144888,-0.010194915,0.012637128,0.12899218,0.06642605,0.031763747,-0.07763107,-0.034178637,-0.009034941,0.068915874,0.0024265763,-0.051044215,-0.02381962,0.037537493,0.015911069,-0.014629337,-0.036241192,-0.0541439,-0.11466763,-0.019954508,-0.058881804,0.027850717,0.08137773,0.07133638,0.007485134,0.0044369875,-0.03942209,-0.08703685,-0.001806471,-0.007245896,-0.08463026,-0.056074988,-0.07533712,0.10955961,0.1138476,-0.055717397,-0.056371875,-0.07096121,-0.03657232,0.046171922,0.19080947,-0.040287685,-0.117057644,-0.049907673,-0.045308497,-0.020996451,-0.031913955,-0.022577059,-0.030968122,-0.051276486,-0.05456843,-0.017342716,-0.048552945,-0.10966846,-0.055883568,-0.0009462639,-0.034370396,0.06270002,-0.02602545,0.037787925,-0.042980608,-0.1002184,0.052918144,-0.042846672,-0.00033262226,-0.0439625,-0.20334177,-0.0679514,0.07050658,-0.020658191,-0.0501728,0.07101769,-0.041586608,-0.021472331,-0.043392096,0.072121546,-0.066635,0.054654412,-0.09809649,-0.040833384,-0.16045217,-0.13444597,0.041928858,-0.116094746,-0.01472809,0.043373946,-0.0045591993,-0.15713504,0.059029564,-0.04594978,-0.1141855,-0.006107999,-0.13712426,0.027589697,0.10295545,-0.04937888,-0.019102227,0.100625634,-0.014355044,0.037167195,-0.023220534,0.11356162,0.07972193,0.018164378,-0.025803672,-0.021109413,-0.026855934,-0.027741108,0.013883281,-0.016634062,0.061810665,-0.08207904,0.10692316,-0.16735072,-0.031755134,0.028409762,0.052489784,-0.017194634,-0.055695,-0.03742917,-0.15220688,0.090693384,0.106592536,-0.0042040776,-0.09741263,0.15516205,0.02648792,-0.0961409,0.002856184,-0.020822058,-0.061778113,0.05847826,0.09731533,-0.055186044,0.05027905,-0.0070587182,0.007551432,-0.024965955,-0.020670244,-0.04070282,0.01854909,0.046308763,0.08594415,0.20518546,0.08548472,0.045087624,0.058247674,0.0015429049,0.021973457,0.050711397,-0.00062615745,-0.04153486,-0.018033113,-0.066366665,-0.028328538,0.06742257,0.043275855,0.10958646,-0.16587423,-0.04749017,0.08736383,-0.0131947305,-0.04255506,-0.016146582,0.027681489,0.0513871,-0.0794071,0.0002438288,-0.07463074,0.059693012,-0.08022889,-0.025240138,0.024890969,-0.008426815,-0.0007339752,0.042832006,-0.017725652,-0.0049783234,-0.01564725,-0.07667049,-0.007632275,0.006566317,-0.09189932,-0.044633523,-0.038335122,-0.045762945,-0.05128713,-0.03370734,-0.04098937,-0.026635846,0.0028743024,-0.029983874,-0.03944213,-0.006337081,0.0007050993,0.0011714867,0.050955243,-0.034199987,-0.046978008,-0.06276123,-0.0012549827,-0.00061917,-0.00024923412,0.0007951666,0.0020774866,0.00029691207,0.0003683345,0.00038463395,-0.0007907986,0.0017980721,0.08170803,-0.016857948,-0.037543893,-0.07303535,0.05897748,0.075660974,0.01149537,0.10609448,0.07548141,0.006407306,-0.070342466,-0.019250253,-0.018658612,0.05732638,-0.07828221,-0.013295383,-0.043201786,-0.0026047318,-0.017510397,0.18230878,0.012696475,-0.05180688,-0.030197397,0.07516054,0.05694867,-0.10034894,-0.070331745,0.03603466,-0.09627518,0.04086274,-0.0916888,-0.021970747,-0.0117977,-0.09829904,-0.0717987,-0.08867892,-0.045754746,-0.008538544,-0.0138459075,0.032395937,-0.018737404,-0.05051192,-0.023853509,-0.009918697,0.048442204,-0.022128174,0.0046933116,0.032204077,-0.015617484,0.032502767,0.040209163,0.021964557,0.01052526,0.027225154,-0.07842948,-0.03047946,-0.023769828,0.08471973,0.002684033,-0.0017979247,0.036263138,0.046017442,0.08806884,-0.06993282,0.11140469,0.00770472,-0.06714169,0.07048466,-0.024072835,-0.055799264,-0.07286156,-0.14271754,0.015972495,0.029143808,-0.028329104,0.024788966,-0.009888184,-0.024508247,0.000978027,-0.007231388,0.04927728
-0.031354234,0.05984954,0.018705321,-0.047481127,-0.035955805,-0.031105565,0.06612398,-0.11189969,0.0286374,-0.043585632,-0.06281915,-0.016754825,0.033050083,-0.027675549,-0.01262461,0.036524273,0.008919789,0.059490994,-0.06157893,-0.08326189,-0.07608768,-0.021217156,-0.055008,-0.0055934363,-0.047118887,0.09785177,-0.06342999,-0.021331456,0.02727459,-0.029347366,-0.06165587,0.06272511,-2.5961956e-05,-0.06782605,0.031934466,-0.045793723,-0.013615114,-0.012648065,0.06847762,-0.009092581,0.108224325,0.036305215,-0.059752997,-0.026067896,0.051784948,-0.06852308,0.0036675886,0.016466692,-0.028067376,-0.072200604,-0.044895384,-0.082739934,-0.016330525,-0.04096187,0.007627063,-0.008405243,0.06357068,0.045481853,0.04639568,0.040831912,0.11710602,0.015855245,0.02357983,-0.06469714,-0.015813537,0.0048837326,-0.006655282,-0.038467605,0.0073074093,-0.083711445,-0.049531855,-0.030249538,-0.042402558,0.05491075,-0.019593814,-0.085158266,0.09206399,-0.0063203527,-0.09235922,-0.03142305,0.026785163,-0.015367747,0.037488632,0.05202594,0.024332622,-0.016416151,-0.04808659,-0.053312115,-0.043710694,-0.027410423,-0.05660925,0.008299643,-0.05150231,-0.064553626,0.07354066,0.059976652,-0.01496001,-0.020562906,-0.048690043,-0.04248142,0.052306715,0.018967036,-0.045640547,0.06273558,0.031103384,-0.025420565,0.11648615,-0.052514993,0.008970354,-0.03901507,0.058575597,-0.019755457,0.035504095,0.081813365,-0.06402053,0.0042181457,0.022055855,0.05464103,-0.01927149,0.032204613,0.024824046,0.012636175,-0.02195991,-0.031486496,0.05014704,0.059755765,-0.03661316,-0.012780987,-0.028122773,-0.008070928,0.00891668,-0.028400652,-0.025976557,-0.06747852,-0.019283025,0.025026979,0.07810976,0.12433251,0.082085446,0.004524318,-0.037633117,0.019424627,-0.10151056,-0.033142816,0.0443817,0.055441447,0.08203831,-0.006605324,-0.011746239,0.08991891,-0.013361192,-0.045854725,0.023040077,-0.034108307,-0.10503961,-0.058068704,0.004731115,0.03847774,0.018495655,-0.034222547,0.15927461,0.08163447,0.035577483,-0.0043596397,-0.032831647,-0.044764295,0.07383481,0.106376186,-0.056876533,-0.023131805,-0.00026107824,-0.053039987,0.03210161,-0.022500627,-0.07530811,0.020468881,0.0916213,-0.019265693,0.005772978,-0.049486034,-0.0099534,-0.015290456,0.044343196,0.016050547,-0.018990135,0.029693605,0.0307518,0.052199267,-0.0092480155,-0.029387724,-0.0057424135,-0.003102789,0.009007229,0.029542897,0.035623062,-0.07624503,0.00058836443,0.017187629,-0.06969406,0.11886143,-0.090806596,-0.010577664,0.045298375,-0.026510758,-0.118927956,-0.025927959,0.041452587,-0.039413713,-0.034548342,0.031886246,0.049348094,-0.051043846,-0.055627838,-0.06354523,-0.028599283,-0.09838127,-0.015511361,0.030720206,-0.008612209,-0.036240082,0.034927826,0.03299259,0.015774423,0.05768587,-0.06370033,0.117376,0.07924566,0.0004354248,-0.013996431,-0.013391858,0.047841877,0.05645741,0.041467387,-0.05892757,0.004288966,0.064567566,-0.15592167,-0.06907795,0.012735056,0.005054332,0.00049774104,-0.07981359,0.053827688,0.027384922,0.051681336,-0.046883676,-0.05269908,0.033412095,-0.0057938504,-0.09774253,0.072438926,-0.06992209,0.0117157735,0.012063091,-0.06846761,-0.015180776,-0.0897704,0.06942049,0.036617395,0.006049997,0.03204245,-0.010888745,-0.030057654,-0.020674467,-0.01920918,0.0028257668,-0.027380615,-0.026928823,-0.007950785,-0.011073662,-0.056530118,-0.0042709773,-0.03677898,-0.057734277,-0.017533833,0.077283666,0.07870463,-0.039795242,0.0031830336,-0.12907197,0.01754424,0.022951378,-0.07142066,-0.005398624,0.01741158,0.019215452,0.0472003,0.051000383,-0.11489093,-0.030195652,-0.013179971,-0.11090761,-0.02462815,0.07318409,0.104191914,-0.072938815,-0.0743892,-0.062521756,0.045058053,-0.004196508,0.00065538,-0.032665163,-0.029464673,-0.030049363,0.06398037,0.0320054,-0.020101415,-0.078628436,-0.07604172,-0.037915867,-0.023761207,-0.021975623,0.043519523,-0.00024025669,0.034229793,-0.09830459,0.037186123,-0.013220065,0.0007149717,0.0825824,-0.001927773,-0.15062743,0.04065983,0.097179495,0.01956863,0.03800906,-0.06462128,-0.09731839,0.010144979,-0.035747256,0.047635768,0.010834078,0.10077968,-0.03221653,-0.036415372,0.04123415,0.032096095,-0.04756389,0.034213796,-0.016651608,-0.060635712,-0.0015074022,0.02731152,0.005884769,0.009094339,-0.016394544,-0.052583713,-0.035662245,-0.0071705463,0.03525087,-0.068778716,-0.06998251,-0.05273199,0.108140476,0.052183352,-0.092588015,-0.047525637,-0.018125275,0.0868881,-0.060721505,0.03704022,-0.03488795,0.044239584,0.023652626,0.034289382,0.01939641,0.08623743,0.009718097,0.12822184,-0.03860352,-0.066221274,-0.078639194,0.035681,-0.0018541923,0.026449373,0.083952315,0.048507515,-0.050130524,0.0048066103,0.042199124,0.124286845,0.0444197,0.12459972,0.026844915,0.006727647,-0.031064676,-0.0073449276,0.018819502,0.021989888,0.077340096,-0.022733884,0.048583373,-0.0077079064,-0.036894858,-0.05773867,-0.0457918,-0.03392782,0.02427786,-0.042798147,-0.044248194,0.107588165,0.022532435,0.03933847,0.06680585,-0.040641434,-0.002876298,-0.008490002,0.0023299302,-0.044898957,-0.03011717,-0.070322745,-0.07390915,0.073910266,0.008498479,0.019210616,0.057992402,-0.005798462,-0.014986944,-0.022155583,-0.010444197,-0.028280629,0.01705146,-0.09963887,0.026392046,-0.016159559,0.001958169,0.023064,0.07338664,-0.00569032,-0.0511841,0.047031853,-0.07403498,-0.028740777,-0.036066215,-0.0072564106,0.02926839,-0.0039046714,0.008178937,-0.015229578,-0.058970567,0.015487266,-0.040944975,0.04363192,0.0036758364,-0.025748635,0.08612629,-0.038006082,0.04107847,-0.017559255,0.005450344,0.043046426,-0.062875025,0.014833594,-0.02326567,-0.0011830047,0.08432158,-0.02207785,-0.0570968,0.065011464,-0.014016697,0.009950345,0.00669299,-0.06661332,-0.02736443,-0.0649244,-0.0344303,0.008922207,0.014614589,-0.011454957,-0.02144523,-0.00022398127,-0.024859248,-0.046236172,-0.0113153765,-0.05425501,-0.03964124,-0.021504061,-0.004848031,-0.018880706,0.018723851,0.047846504,0.01023631,0.015958091,0.04645603,0.017392455,0.01189274,-0.0004785583,0.0004385091,-0.0008790086,-0.0012251849,0.000103586535,0.0012958898,0.0001007076,-0.00011799386,-0.00011683325,-0.009812325,0.014833269,0.19979057,0.036384214,0.09811304,0.033363428,0.13412382,-0.046297703,0.02311807,-0.093289725,0.03221009,-0.06000077,0.050296143,0.007610992,0.01517191,-0.155868,-0.020649653,0.054665357,0.05973511,-0.04749935,-0.10424142,-0.040303018,0.07256417,0.009338276,0.08732609,0.082941785,-0.051273987,0.010910481,-0.03772245,-0.02058012,0.028375546,-0.0026899194,-0.026821004,0.027936134,0.11036537,-0.0018640251,-0.12708576,0.029189419,-0.021195184,0.07137088,-0.014787562,-0.04365317,-0.010524223,0.043037176,0.08410675,0.005648883,0.06605497,0.012037253,-0.016237982,-0.01285989,0.0025631073,0.0032248104,-0.019601598,-0.01966416,0.070800975,0.034483526,0.081445344,-0.090750776,-0.02872593,0.03732323,-0.051430218,-0.043236654,-0.062073253,-0.10866135,-0.022842923,-0.077669464,-0.046000503,-0.009511576,-0.021015747,-0.02941521,0.095200256,-0.029271025,-0.0038154589,0.0025772094,0.011597726,-0.008308719,-0.008719036,0.016595665,-0.007013459,0.0056969966,0.046974197
-0.0043840054,-0.02537161,0.045333777,-0.12521845,-0.006384638,-0.05354894,-0.04672172,0.07405178,-0.03853595,-0.0289852,-0.025108049,-0.020946309,0.018617477,-0.017641302,-0.014926769,-0.0056117387,-9.464752e-05,-0.013716914,-0.1106681,-0.019959567,-0.03570751,0.041497923,0.04926681,0.0138585875,0.10172472,-0.014997312,0.0059184884,-0.022596814,0.00033523288,-0.006171253,0.011163715,-0.026878577,-0.011709055,-0.03261191,-0.018954556,-0.04660759,-0.0573954,-0.023775982,-0.038702015,-0.0017385198,0.049603574,0.03871329,0.0056764903,0.08514311,-0.0031145262,0.03781111,0.040498305,0.032044392,-0.002724905,-0.008531838,0.018596712,-0.0017334473,-0.017176758,-0.013742216,-0.0357209,-0.024413276,-0.009974355,-0.004802032,-0.037734997,-0.018133191,-0.0073116687,0.0031041964,-0.006461163,0.0086653745,0.0029333998,0.025015607,-0.031869315,-0.008602016,-0.029681591,0.0044050836,-0.009155613,-0.024392508,-0.027068406,-0.078836106,-0.0017106596,0.053240318,-0.056657784,-0.06261369,-0.038405232,0.03510558,-0.061114363,0.023518449,-0.041703366,-0.019588953,0.030147893,0.07151372,0.033925187,-0.061535526,0.021657677,0.0073049916,0.012270699,0.024445083,0.015434425,-0.03481739,0.039415367,-0.064171396,0.034317143,0.026548298,0.006558823,-0.046595555,0.07221594,0.0150555335,0.013860441,0.03679896,-0.05102844,0.017966066,-0.059558302,-0.05012888,-0.05317386,-0.019169737,-0.042986304,0.039718203,0.030205533,-0.0054330896,0.0073736724,0.011626413,-0.06774342,0.005780306,-0.0031650397,0.012458406,0.0053292224,0.039662387,0.017941337,0.0037111242,-0.051678166,-0.049577016,0.06424864,-0.002059726,0.0060952837,-0.04594221,-0.038618192,-0.06149143,0.008210716,-0.014871466,-0.012957146,0.080904365,0.024275802,0.016889123,-0.06339604,-0.058767945,-0.022165913,-0.08869665,-0.014157725,-0.026954738,0.02266391,-0.03179053,-0.0017168359,0.005646092,-0.038276754,-0.014654395,0.011834126,0.028686382,-0.010480452,-0.06604404,0.028993517,-0.022027977,-0.012069539,-0.044293426,0.055863097,0.08854309,-0.049715873,0.0012953198,-0.055420615,0.016421547,-0.0064378837,-0.08660712,0.13855666,-0.093286775,0.009322947,0.08218276,0.004681138,-0.0309151,0.05657157,-0.0125352945,-0.036942944,0.07910653,-0.03798822,-0.07345325,-0.02367045,0.0003111806,-0.027674304,0.079301804,-0.11101252,-0.044504426,0.037365288,-0.07514527,-0.011843148,-0.0020649962,-0.03440249,-0.012795122,-0.047421068,-0.011873262,0.0032216113,0.046522237,-0.03652536,-0.055377584,-0.03119448,-0.034133032,-0.015265371,-0.09708261,-0.024793599,-0.050511345,-0.018934686,-0.067275375,0.01445859,0.13075839,0.048341874,-0.053336773,-0.022466296,-0.020430017,-0.0068373955,-0.023909533,0.056776803,-0.0273688,-0.06809729,-0.01797649,-0.0050046635,0.008246865,-0.028039362,-0.021861536,-0.042088278,0.004512859,0.033980187,-0.032774396,-0.03721867,-0.0087799905,-0.017825168,-0.050686684,0.0005465363,-0.0123646,-0.039167106,0.0054486003,-0.0021753353,-0.028612543,0.027692698,0.029397583,-0.028260045,-0.03320979,0.06091955,-0.04099405,-0.00727222,-0.03119938,0.08509209,-0.10386805,-0.034260973,-0.054644655,0.015459854,-0.058503274,-0.13350064,0.074848026,-0.036184948,-0.031053476,-0.060059186,-0.030147355,-0.008475854,-0.055829845,0.03905698,-0.040253393,-0.03398303,-0.00447697,0.00906063,-0.014523048,0.0035322243,-0.008802214,-0.025052976,0.017288776,-0.0026059179,0.01723031,0.058141313,0.009159791,-0.053798143,-0.025915101,-0.034926955,-0.035442665,0.011085194,-0.046553556,0.03530419,-0.060382344,0.032665264,-0.0005228053,0.000880708,0.0129966065,-0.01301039,0.040569782,0.016744774,0.054656293,-0.04539815,0.050801087,0.053886924,-0.03877386,-0.11848639,-0.019626092,-0.006203931,-0.047414165,-0.04783819,-0.107741624,0.008499752,-0.0080853645,0.005797608,-0.0158879,-0.00089830504,0.032580275,0.018119674,0.03775864,-0.0429151,-0.022500616,-0.0031079366,-0.0084382,-0.04661572,-0.059157185,0.01651658,0.030233854,-0.0057245926,0.0051915203,0.030119414,0.029479831,-0.0577448,-0.010837119,-0.002677413,-0.0073118065,-0.022967026,-0.041588712,0.19410853,-0.01934085,-0.019930132,-0.010410238,-0.097401015,-0.034133613,0.021594873,0.08966236,0.011045864,-0.031530175,-0.044223104,0.019823596,-0.02404917,0.054611057,0.007893621,0.00939933,-0.043218788,-0.02451016,0.010576557,-0.048101787,-0.012722988,-0.00072805246,-0.04146366,-0.03133373,-0.0038085466,-0.017040445,-0.016321117,-0.0028671718,-0.007747527,-0.056548245,0.06100988,-0.093087025,0.007754887,-0.04657147,-0.0067563727,0.07751042,-0.009150314,-0.011370175,0.0692739,0.017962303,-0.0023744404,-0.059323736,-0.0028355683,-0.056977842,-0.0782043,-0.06213936,0.033077467,-0.06601803,-0.03555257,-0.045761876,-0.00690854,0.03120636,-0.017024407,-0.052802436,-0.047717057,0.047875285,0.055344142,0.08825581,-0.06742548,-0.038985368,0.032102082,-0.047567464,-0.052072898,0.031235488,0.08638402,-0.036774494,0.0531143,-0.013832536,-0.043313827,-0.026613554,-0.043772858,0.006493455,0.01005757,0.022713672,0.06280367,-0.011052875,0.0011615888,-0.032041844,0.06290026,-0.014123587,-0.005569233,0.020178024,0.11300523,-0.0511858,0.008134044,-0.057962473,0.024332896,-0.017072467,-0.034116067,0.07944635,-0.043612096,-0.0564322,-0.0143422475,0.02973836,-0.03574331,0.08180649,-0.013481092,0.002943019,0.053260144,0.009937532,0.030165939,-0.10724459,-0.054045506,-0.019721426,0.065742195,-0.05620882,-0.11901885,0.09152049,0.09789607,0.0883393,-0.064027235,0.03553596,-0.060562503,-0.057546902,-0.014364504,-0.027380807,0.00030814204,0.08213847,0.05484115,0.05098082,0.051669788,-0.05376174,-0.05000301,-0.0037441489,-0.037180215,-0.04717945,0.031438325,0.06064511,0.00030247992,-0.062214773,-0.0011484167,-0.0027074108,0.0064397324,-0.06057033,-0.0013675853,0.02217413,-0.02676712,0.021149915,-0.022945613,0.00019763983,0.0069663124,-0.0017897186,0.012402881,-0.01056351,0.014072113,0.016300945,0.0047492734,-0.00939196,-0.031570658,0.016984163,0.050024763,0.04685967,-6.548951e-05,0.016663697,0.02738599,0.024518298,-0.014684953,0.015134809,-0.012233819,-0.022535544,-0.04282929,0.010826315,0.021292754,0.015798625,0.0004628872,0.0002983151,-0.00047786257,-0.00033458267,-0.00020788805,-0.00045193196,-0.0004464965,-0.00046814448,-0.00056501414,0.029869225,0.05201329,-0.032189682,0.0003021313,-0.054884262,0.0365023,-0.08698925,-0.008166266,0.065836586,0.020105036,-0.007364572,0.0028096172,-0.07716117,-0.035614397,-0.04471333,0.05018761,0.03646867,-0.023143582,-0.028358374,-0.016209604,-0.04590708,-0.069413885,0.019698488,-0.049398474,0.016659245,-0.057609644,-0.03644574,-0.03150611,-0.090423465,0.006970238,-0.032555845,-0.042208456,0.011313093,0.012816434,-0.06767895,-0.0013218293,-0.035885733,-0.0067201257,-0.037279096,-0.0035095871,0.040676203,0.02689245,-0.039782878,-0.036798067,-0.034729753,0.017266588,0.009800069,-0.016805757,0.0026471019,-0.020155221,-0.015861489,-0.019884976,-0.043044504,-0.0039445595,0.0034693056,-0.034301672,-0.039427593,0.008973195,-0.014669236,-0.07226307,0.10650309,0.06369126,0.09369764,0.012660965,-0.044688847,0.03574844,0.007157704,0.0068645044,0.014978229,0.015959315,-0.027617294,-0.026986193,0.01859945,0.016075531,0.010943572,-0.022790339,-0.0100181345,0.010936209,-0.0027694348,0.0031989624,-0.014044087
0.13770653,0.008669023,-0.026869973,-0.033868484,0.0034592075,-0.08514162,0.09242883,-0.0008762467,0.046242915,0.048885576,0.076308906,-0.006718087,-0.0040336405,-0.016469551,0.04737964,-0.088867694,-0.12005012,-0.013451244,0.042559847,0.05315976,-0.0069285384,0.02932066,-0.011047631,-0.04025552,-0.16579643,0.021444157,0.08256493,-0.03941414,-0.022036428,-0.04045865,-0.092624746,-0.030488428,-0.02898849,0.0034069864,-0.08530518,-0.0325441,-6.05401e-05,-0.067235954,-0.048104696,-0.039478045,0.004141856,-0.03104392,-0.02581663,-0.01446224,-0.068173245,-0.048679598,0.030208644,0.0048907497,-0.011150139,-0.04132113,0.021085965,-0.05044208,0.020833757,-0.006669085,0.009038906,0.07921453,0.0117374025,0.0028516152,-0.009901588,-0.0823746,-0.059473664,0.011873003,-0.0077848285,-0.040366367,-0.04736386,-0.038055483,-0.026073446,-0.020409517,-0.0110161165,-0.019404907,0.012543378,-0.05894581,-0.08379138,0.002668374,0.018744381,0.056089982,0.0005027768,-0.0037538516,-0.011538905,-0.04704365,0.026500344,-0.059911232,-0.042541087,-0.037704114,0.03322812,0.04574629,0.027559798,0.002365795,0.03625155,0.045678627,-0.0045151343,-0.065440334,-0.105974,-0.026909351,-0.055694763,-0.039830185,-0.006640853,-0.03163543,-0.025294514,0.0110041415,-0.10004479,-0.07855581,-0.07372458,-0.037648566,0.06287902,-0.015186927,-0.11694521,-0.10953408,0.016036838,0.04400031,0.025609456,0.061205868,0.017402245,0.03908829,0.0031171616,0.01584476,-0.04031601,-0.013776422,0.0897,-0.04219943,-0.030398618,-0.029723294,0.008281583,-0.07035326,0.017706664,0.030895406,0.06848177,0.023796538,-0.009119696,-0.0013661941,-0.037132487,-0.075112484,-0.032533012,-0.06816763,-0.015438954,-0.003614992,0.06170682,0.015808826,-0.030923214,0.0046427734,-0.11965076,-0.10352247,-0.12898129,-0.15003182,0.010904726,-0.003681499,0.08175258,0.023622096,-0.048479844,-0.09708256,-0.018237483,-0.029835353,-0.04547168,-0.083469965,0.07943891,-0.02529726,-0.03038792,0.0073032086,0.009404644,0.07826556,-0.0065292935,0.09079308,-0.06617485,-0.027262263,-0.0644829,0.03145795,0.044763997,-0.01154845,-0.12490564,-0.06961908,-0.14464435,-0.04072437,-0.008356065,0.031761378,0.028895881,0.03188832,0.13328491,-0.0041885437,0.009319638,-0.09362679,0.029833466,0.05615837,0.07957146,-0.05158067,-0.027951946,-0.06574408,-0.07045068,-0.04186627,-0.095502816,-0.011018081,-0.058199618,0.0011046934,-0.005027971,0.022714438,0.019690104,-0.040782016,-0.019754661,-0.03845969,-0.027301263,0.0060658595,-0.017112002,0.0049622753,-0.010448042,0.060203537,0.0026362438,-0.07114782,-0.055326242,-0.066198714,-0.06473431,-0.048939005,-0.027069584,0.06873448,-0.028222773,-0.014551696,-0.028814187,-0.012242867,0.028522752,0.01790309,-0.0654507,-0.1337315,-0.036607508,-0.005393624,0.036371525,-0.030010097,-0.029678512,0.001631307,-0.01918089,0.007589359,-0.03496098,-0.0061154645,-0.046071548,0.013972385,-0.022504767,-0.06353921,0.017584415,0.006789727,0.032538693,0.027361209,0.123945825,0.06685574,-0.0015663909,-0.052813947,0.026758121,-0.07654925,0.12557355,-0.0043342034,-0.010689286,0.05505621,0.0044136653,-0.044662084,-0.04834314,-0.032263417,0.053887796,0.03967,-0.0040891753,0.04732135,0.04429281,-0.031004053,0.0379048,0.009933772,0.024020532,0.028657,-0.0040270267,-0.022830866,-0.02345775,-0.0073905704,0.013583537,-0.033369336,0.011419759,-0.03278797,0.049021795,-0.08250096,-0.038951255,0.0050465604,-0.0741595,0.039668724,-0.055006623,0.019417405,-0.03385486,0.033280987,0.03145567,-0.04404808,0.0024908695,0.01736756,0.07768988,0.00549103,0.08201099,0.014371887,0.025651699,-0.0065560862,-0.1426095,-0.012156178,-0.05535534,0.07405148,0.06012306,0.011306004,-0.058121614,-0.027043931,0.056210987,-0.017310413,-0.01348485,-0.059039608,-0.050785355,-0.10964049,-0.047065202,0.0120497625,0.035294283,0.052777134,-0.08491882,-0.0576687,-0.048210148,-0.05310253,0.0076215905,-0.030730542,0.018716931,0.019240981,-0.00074842095,0.05358515,0.108088784,-0.09226441,-0.16071157,-0.12898922,-0.006102632,-0.04788338,0.091500156,0.08642706,-0.082863316,-0.03258938,-0.028107503,-0.02843947,0.0069683325,-0.024879752,-0.0014095386,0.009430504,-0.008409885,0.0011414129,-0.052818336,-0.08095527,-0.07401682,-0.049854897,-0.06510837,0.0070695584,0.02052633,0.066599734,-0.015508153,-0.033400383,-0.03299829,-0.03235993,0.015857719,-0.022335751,-0.06292631,-0.03344678,0.103588685,0.1332281,-0.06259056,-0.04446677,-0.09260843,-0.09916853,-0.06718529,-0.032394715,-0.017083965,0.03831514,0.044436425,-0.030556345,-0.069885634,0.12526913,0.001802703,-0.06043137,-0.06879707,-0.05622628,-0.06800016,-0.016786253,-0.049517393,-0.059345547,0.102799766,-0.037832197,-0.08470919,-0.04452931,-0.096322924,-0.046327256,0.00033252506,-0.0013086279,0.034900084,-0.059833504,-0.023846418,-0.12734713,-0.02518545,-0.05834338,-0.031843316,0.0044000275,-0.03672265,0.013891295,-0.07579755,0.018103732,-0.0061389855,-0.0640416,0.033463858,-0.03949332,-0.059505392,-0.06273053,0.024544548,0.07110588,-0.0765099,-0.11114485,-0.06848385,-0.037749115,0.0989866,-0.01290081,-0.07210502,0.028380387,-0.033383977,-0.11334161,0.036234055,-0.010458451,-0.06728614,0.003908971,0.014238211,0.011193006,-0.023004139,-0.05580921,-0.044625375,-0.011847928,-0.08148048,-0.053832415,-0.03241403,-0.045375165,0.0007033336,0.15041412,-0.019488556,-0.08251349,-0.012556436,-0.10434566,0.040043194,-0.037684284,-0.024522578,-0.013081385,-0.062213555,-0.017374856,0.02596608,0.063490726,0.0005493619,-0.063844375,-0.030518902,-0.0024043587,-0.04834586,0.04769522,-0.057778783,0.065330885,-0.018178046,-0.005122841,-0.010756606,-0.018591493,0.016001893,0.06062703,-0.017136477,-4.249961e-05,-0.019620635,-0.028361414,-0.044371355,0.073949344,0.045369085,0.037273597,-0.004682684,-0.034593277,-0.023776338,0.025823416,0.023732672,0.06783661,0.00050977373,-0.044636186,-0.038897138,-0.0036792269,-0.0058347327,-0.016853118,-0.02361093,-0.02838539,-0.050123755,0.0020092279,-0.024290336,0.01849835,-0.025017139,-0.016679697,-0.042131655,-0.054378532,0.011764993,-0.0644353,0.00048376084,-0.00029755844,0.00014673537,0.00058483356,0.00011904308,0.0010052047,-0.00042005104,-0.00032371742,0.00012509746,-0.13943024,-0.053392977,-0.0174123,-0.042191245,0.09882331,0.039307315,0.048998687,0.027171459,-0.11115359,-0.061612286,0.037869073,0.061251562,-0.039379116,0.03712864,0.02003121,-0.09853159,-0.12443142,0.0055579417,0.0942551,0.04671254,-0.0623518,-0.046483304,-0.00090464833,0.023536801,0.008219983,-0.08409481,-0.0043736207,-0.035490733,0.026284568,-0.008753397,0.06415006,-0.024037773,-0.0069603114,-0.081019014,-0.010932871,-0.03778607,-0.05061051,0.03698573,0.22953889,0.066833295,0.0028648337,-0.060348682,-0.15296407,-0.060927384,0.044489626,0.0064959303,-0.023392845,-0.021356253,-0.03611274,-0.049870502,-0.016938146,-0.016295262,0.007461775,0.0221461,-0.052297868,-0.06551614,0.03414946,0.007964421,-0.016288806,-0.03429025,-0.042167038,0.027739376,0.07329417,0.043590847,-0.05038062,-0.030972231,0.0115769,-0.023976052,0.020751275,-0.0566751,-0.045063604,-0.032095086,-0.021695565,0.00048802956,0.042200316,-0.015362887,-0.037905306,-0.042775072,-0.0059112487,-0.03569487,-0.03134133
-0.060027752,-0.064739734,-0.0063203517,-0.07306629,-0.002157562,-0.052820608,-0.023502901,-7.565267e-05,-0.036792308,0.009940434,-0.010397193,-0.019305555,0.011555014,0.019267838,-0.027335947,-0.012497721,0.024035133,0.037127342,-0.01644503,0.03182231,-0.025464194,0.0765851,0.004417716,-0.029235795,0.036397476,-0.036991686,-0.057752952,0.042340178,0.015996221,-0.05049523,0.016297095,0.002373914,0.008620666,-0.010782261,0.006590493,-0.030679975,-5.706458e-05,0.04515683,-0.0171466,-0.034358576,-0.039009757,0.010455816,0.006818742,-0.015630675,0.0056273807,-0.014294434,-0.007042918,0.0018317703,-0.0092597725,-0.0071691344,-0.021953512,0.007714241,0.006052374,-0.028261645,0.043481924,0.003921516,-0.010735312,0.023403602,-0.024672262,0.03356479,0.0034125063,-0.010410259,-0.01151053,-0.027436275,-0.02066769,-0.0029722766,0.00369941,0.0027088972,-0.024537943,0.019032747,0.021081485,0.0007507008,0.07159869,-0.00021273718,-0.04019902,-0.02953143,-0.034344144,-0.010765116,-0.027467726,-0.006399546,-0.086862944,0.027796991,0.0032696677,-0.02938894,0.025240561,0.031147169,0.029720748,0.05442914,0.043783914,0.01974997,-0.007143701,0.027917055,-0.0106898025,-0.056776147,-0.017465837,-0.068889454,0.0036292798,-0.020113574,-0.018428065,0.032894846,0.06929989,-0.04654693,-0.015023763,-0.029320836,-0.03589082,0.0100197615,-0.00019167807,-0.019550493,0.09270578,0.06783725,0.013504032,0.026486188,-0.0026697963,-0.021559963,0.022194168,-0.043266103,-0.018400673,0.006341713,0.0053282604,-0.00778672,0.02373489,-0.027203819,-0.043287102,-0.03865996,0.0030508004,0.0021895096,-0.0124195805,-0.019009005,-0.026660226,-0.0035438887,0.004576912,-0.02848723,-0.003667971,-0.029049858,-0.006527164,-0.024290826,-0.028308986,0.04175087,-0.00327317,-0.031879768,-0.017108541,-0.019565206,-0.03931999,-0.036749035,-0.032858547,-0.042604387,0.023667183,0.021162666,0.0005747408,0.02508686,-0.018114613,-0.009071803,-0.001763943,-0.003583088,0.0028334493,0.033963528,0.13310814,0.015493641,-0.022304932,-0.043396764,0.0066687404,0.055999864,-0.043221615,0.08981814,0.003966889,-0.073090374,-0.02387484,-0.021794269,-0.028078068,-0.025473518,0.075185634,0.002958302,0.065450646,-0.066298105,-0.036334053,-0.0049990937,-0.025864188,0.03911936,-0.056024402,-0.03816057,-0.019713907,0.0032561026,-0.043986674,0.009870664,0.0026562996,0.01430308,0.039568685,-0.059217703,-0.042065326,0.03767527,0.01911049,-0.038660128,0.0135982325,-0.016719464,0.018923918,0.012853531,-0.024035381,0.022384748,0.005448459,-0.0021359862,-0.005588891,-0.013803894,0.08402579,0.027864909,0.09604649,0.10060633,-0.023100682,0.018574078,-0.012832802,0.0332901,0.016045718,-0.00078985305,0.05047424,0.056684814,0.011679742,0.023555895,-0.016587565,-0.006746489,-0.03308112,0.009053596,-0.017007079,-0.025796255,-0.051794205,0.023888765,-0.04818462,2.8905633e-05,-0.02258302,-0.024773993,0.01681573,-0.0518184,0.0044863885,0.012570598,-0.011363444,-0.0385442,0.032907464,-0.023693353,-0.009975091,-0.032999057,0.0021348412,0.021275636,-0.053123474,-0.007453805,0.038770996,0.0627992,-0.012715142,-0.07220764,0.04074225,0.013096471,-0.009594165,0.016544595,-0.03924245,-0.024858186,-0.015469411,0.031254184,0.039669346,-0.011813311,0.043655038,-0.053243123,0.025463242,0.008798845,-0.031706933,0.0050635925,0.019260354,0.0004852132,0.010140452,0.036664415,-0.014009633,0.005309804,0.005685856,-0.0321835,-0.029666474,0.013297435,-0.05405479,0.004480219,-0.012405622,-0.07006226,0.0047610537,-0.0153985405,-0.060697377,-0.04043185,0.026389012,-0.069025174,0.029054511,-0.04413629,-0.07791123,0.026318504,-0.08496193,-0.008247665,0.09463034,-0.0154545335,-0.018089589,-0.050397802,-0.07791851,0.025369575,0.03905019,-0.0050623217,-0.041136686,-0.044650953,-0.00051696604,-0.040474355,-0.021912893,0.035450146,-0.030716918,-0.024220617,-0.022258598,-0.01825407,-0.04132777,-0.005908379,0.014498331,0.015642725,0.0013196418,-0.044529706,0.016378526,-0.013751359,-0.0008161695,-0.033926688,-0.02396754,0.028198946,0.012043876,0.012284888,-0.076813355,-0.083971515,-0.008587985,-0.034243725,-0.054011133,0.017932769,0.02385599,0.0048541827,-0.048933867,0.0086060995,-0.028214673,0.046800017,-0.04209877,0.016928155,0.030149778,0.014080079,-0.018945996,-0.020297656,-0.042112786,-0.02661502,-0.032214597,-0.02549149,-0.042855658,0.005138332,-0.05118245,0.0098128235,-0.016330633,0.041035235,0.00093754655,-0.0013780255,-0.026128165,-0.034069236,-0.07190728,-0.033530973,0.07254924,-0.011452869,-0.05286721,0.004243874,-0.008060171,-0.01874638,-0.014019526,0.014905476,-0.02832539,0.03841493,-0.015348761,-0.007306737,-0.028929578,0.008568282,0.009946592,0.005685003,0.0013741554,-0.043726765,-0.05015706,-0.010303974,0.03504719,0.027218113,-0.038771965,-0.035145123,-0.012172191,0.049980044,-0.004663876,-0.059779394,0.00038916394,0.012982261,0.021284467,-0.01583376,0.1211052,-0.054892544,-0.052486733,-0.021475717,-0.015227966,-0.0104160765,-0.024347961,-0.03401157,-0.0082535865,0.06328169,0.006613506,0.042385682,0.011064141,0.05030205,-0.0055009704,0.03900335,0.04677626,0.06145196,0.008002776,0.020608459,-0.030760886,-0.028751532,0.10092599,-0.002228421,-0.025200231,0.031678706,-0.008280788,0.035149053,0.00084186037,-0.03347514,-0.017672678,0.030410208,0.0021624968,0.01847214,-0.0019971724,-0.035303213,-0.020083437,0.112468,-0.026258262,-0.0732449,0.031818055,-0.07023192,0.042110972,0.0023435142,0.062433485,0.056251846,0.015994573,-0.01804395,-0.010437664,-0.05001191,-0.00913192,0.020510197,-0.03267482,-0.04623193,0.000724877,-0.069180734,0.02258901,0.015217774,-0.025717493,0.003961002,0.04481657,-0.008921559,0.023309557,0.057812646,0.045177877,0.03649239,-0.004096368,-0.008602431,0.011981293,-0.011162348,0.012566687,-0.027591228,-0.010129179,-0.023406306,-0.023363322,-0.021186085,0.0053566815,0.00948889,0.015462656,-0.009193546,-0.014094466,-0.029418025,-0.03072319,-0.010413387,-0.03121844,-0.007362816,-0.0010751437,-0.03275291,0.0050964337,-0.013360541,-0.028824616,-0.02926791,-0.0023918464,0.00086982007,-0.0065905345,-0.031541042,-0.0014226042,-0.03776678,-0.043485213,-0.015174726,-0.00022792364,-6.4964934e-06,0.00039039768,6.106522e-06,-3.2416858e-05,-1.549118e-05,-0.00012756528,-1.3147385e-05,-0.00014513006,0.02214057,-0.032135308,-0.05382855,0.021549318,-0.020145632,0.063396476,-0.033276804,0.01793733,0.080556884,-0.02202247,-0.05896524,-0.048411015,-0.08146868,0.08385109,-0.078801855,-0.0179463,-0.043211676,-0.06557639,-0.02056857,0.023148598,-0.03894023,0.014578833,-0.00044815094,-0.030529238,-0.010943472,0.035026014,-0.056447018,-0.005518635,-0.038987525,0.00799734,0.035864532,-0.016080784,-0.021450028,-0.013261282,-0.018348245,0.010747924,-0.0505706,-0.041152835,-0.056315385,0.054739434,0.12419959,-0.07976348,0.005125489,-0.03649732,-0.050737817,-0.014513837,0.0031617102,-0.060195018,-0.009711072,-0.017628087,-0.036352273,-0.01588478,-0.01761737,-0.061217148,-0.040532425,-0.006722805,-0.09543161,0.038676098,0.003002128,-0.041769553,0.05822868,-0.020476975,-0.04520674,-0.048782427,0.0010946952,0.026214551,0.0158936,-0.020430401,-0.017345235,-0.031088874,-0.015846364,-0.0105033545,-0.0021952055,-0.0015543771,-0.010250427,0.002095372,0.016970553,-0.0021383099,-0.015716398,-0.01725473,-0.00463295
0.051196888,-0.08155874,0.03508412,0.04228021,0.003733858,-0.003111615,-0.02196744,0.042901844,-0.042784933,0.029934594,0.023069449,0.0038194594,0.037919592,-0.033159055,0.034970228,0.047377862,0.023352941,-0.003436829,0.07048637,0.12247089,-0.051341336,0.05523965,-0.00350869,-0.03222014,0.07451215,0.00089324417,0.013586047,0.015662361,0.0060628783,-0.025641976,0.028547872,-0.01821038,-0.024558656,-0.030073086,-0.049883835,-0.02329935,0.008894204,-0.006328976,0.009481732,-0.014956269,0.013235815,-0.033992186,-0.043041185,0.008779666,-0.049344525,-0.0031963538,-0.0047281343,-0.002086464,0.0035463963,0.031418376,-0.0073753535,-0.011389356,0.031004159,0.0054637324,0.025310332,0.025902491,-0.024645824,0.007915281,0.002022332,-0.014794061,-0.07500923,-0.023734432,-0.039014954,-0.008796206,-0.015742889,-0.021516621,0.04583796,0.028443277,-5.2414176e-05,-0.007916282,0.037379656,-0.002967856,-0.02099364,0.026338447,-0.022598343,-0.031150578,0.0048986757,0.07948207,-0.0009816104,-0.06793803,-0.036123525,0.004316596,0.052902207,0.011023817,-0.035211988,-0.022826694,-0.0720153,-0.01922631,-0.029588465,0.003374943,-0.0008010378,-0.01143629,-0.018037759,-0.029383026,0.001759987,-0.027209915,0.01583984,-0.037745457,0.0141615,-0.047803923,0.0026327693,-0.04374509,0.019492297,0.018835157,-0.014123361,0.027436867,0.029164713,-0.007490211,-0.04578701,0.053539418,0.04149552,0.07020436,0.028657826,0.011450549,0.091947354,0.04258829,0.079654396,-0.022165542,-0.019748123,-0.06140217,0.031101117,-0.019288419,-0.047188632,-0.008719229,-0.077716894,0.06534267,-0.01857394,-0.022866454,0.029505856,0.016744459,0.0018920838,-0.033997595,-0.011194539,-0.0106562115,-0.009095208,-0.046317454,-0.057411056,0.0023133128,-0.0503855,-0.08047932,-0.07236975,0.020741658,-0.02218145,-0.09823479,0.01570879,0.03232099,0.012282177,0.0026921593,-0.00310066,0.015868738,0.0006516184,-0.036686026,-0.010283799,-0.05993569,0.04878681,-0.05019161,-0.0110709295,-0.058131833,-0.07273822,0.030395074,-0.05805495,0.036647905,-0.05745231,0.017386388,0.036546245,-0.122748025,0.037988514,-0.018660227,0.021176701,0.025939347,-0.038952183,0.03428857,-0.08302051,-0.05293973,0.08132193,-0.037693344,-0.02109822,-0.0056906287,-0.05477554,-0.005186128,0.029997647,-0.0065316455,-0.041402463,0.047183298,0.022689525,-0.030168079,-0.03990649,-0.061984077,-0.037067562,-0.056725487,-0.025641948,-0.06627933,0.11443546,0.015784029,0.005786379,0.0042771874,0.022046546,-0.044129163,0.028863525,0.041292395,0.06370062,0.03544921,-0.0041329334,0.0013660748,-0.022504238,0.1039333,-0.12190229,0.03984068,0.0042076414,-0.0015901765,0.02075809,0.0899159,-0.033400998,-0.011460167,0.030385913,-0.01138892,-0.016272612,0.032916445,0.0025821924,-0.003636262,-0.029193912,-0.019853892,0.0015960955,-0.049556043,0.011560333,0.015386518,0.0013655445,0.021431765,-0.0036064473,-0.0003450943,-0.020960325,-0.053637285,-0.0045037614,0.008759058,-0.0069700386,-0.03712895,-0.0055003483,0.0002575295,-0.046337277,-0.018836498,0.017684013,0.10062467,0.028662074,0.018487861,0.14767405,-0.0724284,-0.045191247,0.021480568,-0.04883632,0.031414617,0.030337144,0.024373358,0.045575883,0.024031125,0.05028762,0.014344197,0.049880512,-0.03138204,0.041696727,0.041285872,0.011587751,7.1299146e-06,-0.017582284,0.02335496,0.030110532,0.03676233,-0.003932927,-0.005965473,0.0014545568,-0.0055952743,0.044122517,0.0016387681,-0.04668896,-0.02956229,0.02826039,-0.022638638,0.0027610115,-0.044128217,-0.0737628,0.017798355,-0.0073035313,-0.05194454,0.040976573,-0.016261086,-0.07650231,0.03682155,-0.05610896,0.0062974496,0.023435067,-0.008031753,-0.046339624,-0.01540745,-0.021473542,0.09443964,0.023493456,-0.09654794,0.024032295,-0.03907879,-0.004955623,-0.08662728,-0.005057452,0.0043522785,-0.041522328,-0.038372844,0.05904581,-0.03375403,-0.014541331,0.055978194,-0.017346544,-0.023843914,0.009403917,-0.06792207,0.031517103,0.04979649,-0.008362016,-0.031132618,-0.11804513,0.08890139,0.014350423,-0.041214235,-0.033526782,-0.023619518,-0.048474386,-0.09731418,-0.0022366808,0.049629666,-0.016031532,-0.051532403,0.045559153,0.0220755,0.0334836,-0.08524831,0.018402746,0.0075745354,-0.02113115,-0.04397457,-0.04375463,-0.04072691,-0.016577037,-0.06423587,-0.020986686,-0.0332936,-0.014496252,0.027254831,0.0035576548,0.0039459835,-0.025800608,-0.045911536,0.03689665,-0.039403405,0.025257457,0.029485544,0.09651082,-0.06286788,0.03086164,0.015527246,-0.018227113,0.078059144,0.034158103,0.03618109,0.013844881,-0.06636278,-0.099568285,0.032043193,-0.09941551,0.027638314,-0.019524707,-0.07208694,-0.034480777,0.0076180208,-0.06128895,-0.07344983,-0.00882396,-0.056830782,0.05417182,-0.103483245,0.021902848,-0.03134051,-0.0914076,-0.02552902,0.042631343,-0.019192418,0.07920948,0.01879485,0.054449808,-0.0049031354,-0.09388534,-0.031430673,-0.0441224,0.015017954,0.006509973,0.029293746,0.0027543104,0.02254605,0.007829543,0.0022975798,0.03397283,-0.018703049,-0.0012109118,-0.00832118,-0.01931472,-0.005426657,-0.03100647,-0.056466963,-0.1326568,0.04953888,0.06300757,-0.0390782,-0.038746357,0.025505837,-0.068627104,0.0037522882,0.020199332,0.04286702,-0.035923254,0.01254795,-0.035911985,0.032606505,-0.0594487,-0.015239328,-0.0036326759,-0.038791228,-0.019432178,0.009865414,0.118520595,-0.115884304,-0.0622748,0.087813765,-0.025835583,-0.02716202,-0.021633372,-0.021877944,0.056497414,-0.0136356205,0.007588892,-0.028984353,-3.9234314e-05,-0.023984332,-0.07616233,0.015523042,-0.017549288,-0.016200203,0.014117068,0.011121981,-0.008237938,0.050501004,0.05833414,0.00116005,0.01229701,-0.01584117,-0.017543044,0.01463242,-0.030636745,0.02710937,-0.0076238737,-0.012399464,0.059202224,0.020436067,-0.012689507,0.03730745,0.0050489707,0.030909542,0.05070075,0.0042343414,0.024571244,0.043078497,0.017772993,0.033483468,-0.017110432,-0.01882996,-0.014850059,-0.024497872,-0.039258216,-0.03145176,-0.026834436,-0.039528638,-0.04574134,0.009541415,-0.016839543,-0.04778011,-0.027491335,-0.015411298,-0.024535574,-0.059423037,-0.028081674,-0.078505985,0.00031243858,0.00017007886,0.00017953748,-7.910814e-05,0.00019494625,0.000600821,0.00039252854,-0.00025893925,0.00041242316,-0.036366105,-0.09731334,-0.05763541,-0.0262495,-0.08494012,0.019951843,-0.099567726,-0.0067952713,0.0076122507,-0.00040826463,-0.081139594,0.020470142,-0.026814297,-0.027062465,-0.09109107,-0.07159315,0.061251964,-0.09977715,0.027742852,0.01909801,-0.06849738,-0.033396866,0.04856597,-0.008869948,0.04428551,-0.06752829,-0.04186289,-0.01837814,0.032532766,-0.04215942,-0.0012775529,-0.005756883,-0.013698738,-0.05668713,-0.028758006,0.009431415,0.0046075615,-0.007115087,0.023744643,0.050492927,0.054873686,-0.055961248,-0.021625543,0.015109575,-0.061132796,0.03235247,-0.005468552,-0.03133691,0.029535599,-0.024833534,-0.03019969,0.014543996,-0.025144136,-0.00984225,0.0153634995,0.046833344,-0.014295728,0.046170685,0.00040429464,-0.03055286,-0.0047008283,-0.0593567,-0.07032267,0.05164106,0.03577355,-0.005481549,-0.04230348,-0.06704714,0.04845894,0.027248789,-0.018140012,0.03906784,0.009214854,-0.028685402,-0.018912708,0.013163402,0.020664962,-0.016508479,-0.008690277,0.017282076,-0.010298751
0.09072697,0.042628545,-0.12581708,0.0227382,0.045782823,-0.050809693,-0.026323412,-0.10790247,0.08626805,0.13173954,0.08690141,0.11928175,0.040593136,0.06814776,-0.020307586,-0.104648985,-0.11647979,-0.14043976,0.17967534,0.057751834,0.087425426,0.037784107,0.14951836,-0.069765165,-0.04894611,-0.048815366,-0.12803994,-0.059090596,-0.043845437,0.01257746,0.004814177,-0.07293336,0.056748737,-0.05829905,0.011318898,0.07378325,-0.031903867,-0.015522099,-0.04182072,-0.011843102,0.021019964,-0.087388195,0.03961336,0.04276343,0.088009045,0.020160329,0.016526591,-0.05837915,0.03359063,0.031604316,0.093912095,0.026368177,0.09303277,0.13127829,0.004195535,-0.0072962823,-0.028706312,0.027190674,0.07601544,0.044726755,-0.028245354,-0.07128714,-0.03240904,-0.029595036,-0.016977228,-0.06261605,-0.010767938,0.025770072,0.018426975,0.013439382,0.086455636,0.046404608,0.027042124,-0.055812385,0.05989795,0.074973375,-0.0752405,0.021837955,-0.011582777,0.023968495,0.010044263,0.08152512,0.057060774,0.073889926,-0.006061413,0.09626413,-0.02340209,0.021676788,-0.009707215,0.06703994,0.016567253,-0.13124898,-0.08470716,-0.076934904,-0.031068042,-0.07038635,-0.010552201,-0.10247668,-0.071589895,-0.0002795949,-0.09511128,0.094139636,-0.025603417,-0.044291783,0.032084733,-0.14532894,-0.08162428,-0.057048284,0.025129879,-0.14207117,0.21927649,0.08437572,0.028040294,0.078793265,0.025990684,-0.031973105,0.054158967,0.028272536,0.060843363,-0.026141154,-0.0025227126,0.016747866,-0.110979654,0.04029833,-0.042921424,-0.062077936,0.081558384,-0.000683808,0.06497609,0.016083263,0.0024929321,-0.044460796,0.046908937,-0.057599306,-0.06836896,-0.05750232,0.0044681,-0.004327586,-0.0019646436,-0.022126801,-0.012316903,-0.07347995,-0.15609321,-0.16194406,-0.055023912,-0.055965755,-0.08656586,0.112030804,0.014332225,0.104552336,0.02917329,-0.016317602,-0.055556502,0.027879039,0.019772101,-0.021385375,-0.06308851,-0.051617645,-0.0014493278,-0.048602298,-0.051047605,-0.05311264,-0.13895415,-0.026585434,-0.12520865,-0.024085158,-0.011654504,0.07254507,0.0730815,0.007867107,0.10892223,0.073460996,0.060984112,-0.04394666,-0.11788032,-0.0009558614,-0.041877702,-0.08063101,0.039086796,0.10765513,0.032721538,-0.03553052,0.027952705,0.020532718,-0.02382994,-0.06735188,-0.00036408886,-0.04894544,-0.121588886,0.080920696,0.08171011,0.0504007,-0.041714102,0.09583128,-0.093968466,0.01856532,0.03244464,0.033630483,-0.06948677,0.13582098,-0.0062410873,0.010621351,0.07536954,0.09039432,-0.04946745,-0.013202268,0.07197625,0.011267329,0.025542809,-0.042753518,-0.0072261225,0.014212976,-0.0024250667,0.032254875,0.0609394,0.07746533,0.029974367,0.10941015,0.1447643,-0.017396305,0.028288795,0.044370692,0.013871383,-0.055416856,-0.042661414,0.044783704,0.021466373,-0.005341081,0.1212946,0.016951533,0.032281533,-0.08176459,-0.055796426,-0.0010644484,0.05463196,0.09577819,0.004401353,-0.01144126,0.030736499,0.07783465,0.016095253,0.072301686,0.05669998,-0.08054859,-0.063474506,0.09001853,0.09161557,-0.08117908,0.20392773,-0.07004779,0.08067299,0.04069171,0.039199818,0.07451951,0.052311655,0.009766035,0.018173296,-0.0632595,-0.0022742185,-0.07588653,0.024355458,0.034825675,0.042953003,-0.011449184,0.0776644,-0.06473401,-0.018329907,-0.03494552,-0.0101689175,-0.093485735,0.097783774,0.03232727,-0.04716714,-0.0087995995,0.005469703,0.049181644,-0.052685812,0.041893974,-0.026958726,0.041214336,0.07037004,0.010770412,-0.006336492,-0.044960883,-0.13330518,0.012518184,-0.038948163,-0.12687385,0.07167947,-0.053898815,0.11568634,0.11098874,0.055646982,0.15728697,-0.038333006,0.010863564,0.058110844,0.038512394,0.0632281,0.017853456,0.05930469,0.09961781,0.028059619,-0.13941233,0.04752351,-0.055677105,0.025469234,0.07922113,0.04657029,-0.0058960626,-0.01116151,0.016670456,-0.109355874,0.002676992,-0.051360913,-0.10145027,-0.008030746,-0.057022642,-0.009135723,-0.12094717,0.020090144,0.059650164,-0.091180064,-0.16314206,0.018604074,0.04424324,0.045883957,-0.03496558,0.058419768,0.12771733,-0.014642095,-0.059001658,-0.08751281,0.071452655,0.05158706,0.02106894,0.012121885,-0.05445478,-0.039647326,-0.073927954,-0.07711486,-0.035243485,0.021891242,-0.046926986,0.08836163,0.008205218,0.040275212,0.023746692,-0.08712348,-0.09559194,-0.069702715,-0.02546266,0.076742075,0.07653487,-0.08349069,0.060548622,0.100159585,-0.06281527,-0.06894644,-0.081353955,0.0148515515,0.032931056,-0.10229113,-0.072005674,-0.06307728,-0.09931735,-0.044886645,-0.11769005,-0.09139245,-0.010175789,0.08077583,0.08545962,-0.0886376,-0.056760184,-0.012282951,-0.13878115,-0.062393773,0.0044170637,-0.052992016,0.015973208,0.02652299,-0.08866624,-0.045625146,0.10440472,0.110137776,0.038154468,0.087757096,0.0045954115,-0.0014688363,-0.06230329,0.022601081,0.0032863943,-0.011916723,-0.05188707,0.056234136,0.05669753,0.06893783,0.066671446,-0.04440173,-0.11321001,0.023092553,-0.013419988,-0.11754654,-0.082984574,-0.041254953,0.043780446,-0.03652492,0.04651327,-0.0012804528,-0.021261023,0.17035057,0.0053412993,-0.07379693,0.070855305,-0.023931233,-0.114237376,-0.014239871,0.041528035,-0.04382041,0.03987301,0.08075,0.17637113,0.043179758,-0.081397824,-0.13003321,0.09769221,0.03698286,-0.020643152,0.08852806,-0.0154237505,0.064324506,0.07913614,0.0565866,0.020727077,0.07396849,0.09115527,-0.09115406,-0.04253783,-0.013754567,-0.059184738,-0.010795245,0.07918739,0.030452982,-0.0006386652,-0.11968094,-0.07106989,0.06390768,0.006826055,-0.054536726,0.045029003,0.023299605,-0.081130415,-0.0072544524,0.09218914,-0.028845208,0.07556855,0.035741054,0.034870125,-0.0088346815,0.03984538,0.00838393,-0.009203561,0.119656675,0.10123379,0.008520556,0.032659557,0.06650151,-0.054037888,0.086097755,0.065940924,0.056743126,0.00763568,-0.027248276,-0.00025418136,0.042516638,-0.050509572,0.03073045,0.0060079177,0.034229722,-3.1951407e-05,-0.014230962,0.016605224,-0.07815424,-0.05727702,-0.063225746,-0.044523634,0.0034602191,0.00085893244,-0.0008930499,0.0035826403,0.00015137868,0.00340882,-0.0020661578,-0.0025122983,0.0010646496,0.0034875253,-0.085238114,-0.085760914,-0.096928,-0.00013750227,-0.046198774,-0.019520318,-0.022043822,-0.017024115,0.025316913,0.09311064,0.048456572,-0.08131698,-0.10261267,0.10908113,-0.07159526,-0.10795515,-0.06933655,-0.03160082,0.11218227,0.07764064,-0.025233684,-0.040968336,0.05983671,-0.024914082,-0.08382947,0.017739939,0.0023017738,0.059072033,0.01340866,-0.06160476,0.037400976,-0.026124135,-0.02161382,-0.08150279,-0.07568297,-0.046563506,0.06263839,0.009776163,0.02033947,0.016981006,0.17535247,-0.0063502365,-0.02321505,-0.0031073142,-0.028309517,-0.052317765,-0.043366097,0.071444474,0.0483028,0.0147404345,0.04362247,0.045642015,0.01825983,0.033876386,-0.10446463,-0.1357342,0.100633666,-0.0335708,0.04110273,0.0439164,0.1314936,-0.0031574364,0.11407319,0.099209026,0.030579893,0.018111696,-0.009453145,0.00728514,-0.013867347,0.043047592,-0.014966473,-0.040401615,0.016339738,-0.017283795,0.03806887,0.012336115,0.0025747987,-0.046005595,-0.018082608,-0.009627482
-0.008823829,-0.06440151,0.0387879,0.040774874,0.00919409,-0.040637594,-0.037840854,0.13313481,0.008206371,0.0218676,-0.036733877,0.029688021,-0.012717598,0.033468086,0.019920522,0.016736848,-0.015914151,-0.027795505,0.018035227,-0.07150545,0.053990442,-0.0076167206,0.052851886,0.02060444,0.0756732,-0.05382461,-0.016628696,-0.03653605,0.046956103,-0.024600985,-0.00346303,-0.06612185,-0.05899588,-0.018185357,-0.067683324,-0.05115614,-0.038633563,0.0066631064,0.043216564,-0.032012716,-0.039926577,-0.040466484,-0.058835827,-0.042458825,-0.0150653,-0.02097788,-0.016423004,-0.023021804,-0.0096595315,-0.021295015,-0.022758333,-0.023857204,0.0105650155,-0.019908693,-0.015705898,0.03289793,-0.03175906,0.0568498,-0.015493988,-0.045537,-0.019657379,0.054923475,0.028106008,-0.00790742,-0.032731418,-0.0541856,0.022987837,-0.037691455,-0.026873363,0.010461432,-0.0031104137,-0.038546123,-0.01445764,-0.07680951,-0.051834345,-0.050953664,-0.046466637,-0.032134738,-0.02947351,-0.105967455,-0.02116502,0.013740718,-0.0012924987,-0.03716736,0.050199073,-0.040197074,-0.014329568,0.023910794,0.030929198,-0.05439795,-0.003450366,-0.039689403,-0.014595264,-0.029723875,-0.010005413,-0.013985853,-0.016237505,-0.0029398818,-0.04123919,0.022698859,0.09849156,0.038582236,-0.019563925,0.0011857478,-0.015943766,-0.024582455,0.022078924,-0.005084322,0.023746017,-0.05667351,0.057080563,-0.014208906,-0.049212854,0.0064606285,1.854918e-05,-0.013602614,-0.064675026,0.02387555,-0.044274643,-0.02048997,-0.046757594,-0.018671481,-0.02124187,0.0076380875,-0.082071684,-0.033830415,-0.014545817,-0.027694512,-0.03851936,-0.015198298,-0.04032311,-0.027888743,-0.022135729,0.032404434,-0.02658186,-0.0052169897,-0.02196069,-0.0542381,-0.08183502,0.044425853,0.054173466,0.039764218,0.118359804,0.030904857,-0.0036745472,-0.01163381,-0.03832484,-0.0050396025,-0.016866012,-0.039890848,0.0435693,0.049054608,0.037804794,-0.010166161,0.02294478,0.10261023,0.03236751,0.031237196,0.03344658,-0.03802095,-0.107662946,-0.015205745,-0.0023328108,0.009608909,0.020841531,-0.078077674,-0.061085995,-0.010527994,0.083859675,0.06966899,-0.057978984,0.009058107,-0.021227065,-0.07016603,-0.01608072,-0.011908835,-0.073309064,-0.060573064,-0.029730903,0.02169508,-0.005351832,0.10135323,-0.049547583,0.07565506,0.06344873,-0.037185572,-0.018228699,0.017043538,0.05733281,0.039612427,0.03520334,-0.0021784066,-0.013944436,-0.038969543,-0.040036872,-0.03174233,-0.012233894,-0.04414861,0.01904521,0.01450324,-0.05373714,-0.059418187,-0.05040471,0.009487269,0.011910051,0.030877499,0.011934353,0.030820966,0.016235437,-0.05292186,0.006046766,-0.009854768,-0.0370969,-0.041307207,-0.00085462735,0.011035376,-0.048393834,-0.028470205,0.00036921923,-0.051608384,0.031750795,-0.011459739,-0.026521293,-0.036016844,-0.021910667,-0.016139658,-0.03622466,-0.05711789,0.012589448,-0.061889697,-0.027582504,0.04039193,0.15131196,0.044991914,0.03072273,0.006687439,-0.050012518,-0.020563507,-0.0130430665,-0.03247474,0.015183716,0.030864637,0.009373853,-0.053770702,-0.026251547,-0.02532685,-0.086805776,-0.043490063,0.051401217,0.056741614,-0.036232077,-0.06898277,-0.025046416,0.00806901,0.03743454,-0.021528322,-0.020989088,0.008495016,-0.092699915,0.048937105,-0.082886934,-0.028569354,-0.03608413,-0.0059699058,-0.013351847,-0.008494644,-0.047063928,0.012605283,-0.07903797,-0.029276492,-0.03175821,-0.044647735,0.033680305,-0.01682013,-0.025356974,-0.02808069,-0.033794556,-0.068970494,-0.043806132,0.024920046,-0.043241687,0.03170802,-0.010218862,0.021674521,-0.05036765,-0.021842625,0.007952412,-0.040123858,-0.044275556,0.06901573,-0.10207741,-0.054709226,0.052404765,-0.08939823,-0.027510736,-0.06453522,-0.000922028,-0.047225136,0.043721147,-0.04474427,-0.056821063,-0.014859176,-0.046458386,0.054514047,-0.023021152,-0.07189891,0.0016612303,0.046438016,-0.030694308,-0.041454375,0.02715458,-0.019714048,-0.054842457,-0.09891066,-0.07734837,-0.042303596,-0.05374144,-0.07475981,-0.061521985,0.03075838,-0.02028097,-0.04537852,-0.026704885,0.016098935,-0.100677334,-0.004230075,-0.04008489,-0.13276234,0.020591734,-0.015291005,0.009651082,-0.07585379,0.07111682,0.0046869153,-0.04989145,0.030736253,-0.008970316,-0.04494009,-0.014035848,-0.0090665035,-0.029271461,-0.062667176,-0.07036319,-0.019138414,-0.024905115,0.013029383,0.055740904,0.045595847,-0.014953866,0.017707888,0.10320582,0.004391612,-0.037786648,-0.026182804,-0.018555615,-0.07025776,-0.039046407,0.0509512,0.008876593,0.077897206,-0.008353064,-0.04552923,-0.0033402469,-0.027419016,-0.03404913,0.038745776,-0.05854835,-0.05115584,0.024419637,0.037738852,0.108048484,-0.031847153,-0.023819534,0.008932235,0.016773822,-0.008793532,-0.0053865053,0.016050687,0.121643715,-0.06271223,-0.077105574,-0.075141735,-0.01726639,-0.038250055,-0.07274931,0.10915665,0.0008082108,-0.009785906,-0.014504522,-0.035696536,0.024663642,-0.023947844,-0.038582478,-0.015480783,0.03138876,0.055837948,0.02982029,0.044048097,-0.046265088,-0.0030749384,0.04680331,-0.03583174,-0.027418166,0.007840189,0.0036171705,-0.004500873,-0.044812717,0.0330146,0.011770873,0.018506072,0.00012620582,-0.01647684,0.008440549,-0.0014152875,-0.024775026,0.035178177,-0.023815498,-0.06778275,0.008300663,-0.018843481,0.061734255,-0.018461883,0.06258509,-0.027579993,0.0664568,-0.032766405,-0.055249225,0.002555165,-0.08807085,-0.03632505,-0.10989131,-0.003392971,-0.039188664,0.029173262,0.0019221619,-0.042350467,-0.006766722,-0.017010156,-0.09873914,-0.06401009,-0.029942982,-0.007031598,0.008798497,-0.019471824,-0.061523076,0.10496092,0.012044805,-0.014743144,0.055081412,0.10151011,-0.012111613,-0.017627032,0.071882136,0.0004895173,-0.013586909,0.008837669,-0.0046927147,-0.018784674,-0.03849527,-0.032877035,-0.023665382,-0.03096499,-0.023179779,-0.016932229,0.0037920354,0.09156696,0.018366145,-0.039669618,-0.037987586,-0.021979589,-0.012621088,-0.052616857,-0.057277463,-0.02719517,-0.01063583,-0.038951423,-0.016845938,-0.021808429,0.026914185,0.019702394,0.019993678,0.021045677,-0.03143093,-0.009013065,-0.03253745,0.01065166,0.00014926115,0.00020512711,4.6680187e-05,-0.00037649134,0.0005298604,0.00018389776,0.0008764158,0.00059133547,-0.00022566153,-0.040127736,-0.03380593,-0.06375118,0.007219615,-0.00038403127,-0.007466972,-0.053984977,0.05474933,0.12857518,0.02104036,0.039454635,-0.1324697,-0.007272937,-0.13487741,0.038002428,-0.071071975,-0.025919883,-0.0013596256,-0.07677199,0.031412512,0.055174105,-0.05668894,0.11525925,0.02150958,0.03101817,-0.060079943,-0.022836896,0.08864789,-0.03255085,-0.032542925,-0.058880784,-0.009855299,-0.0040869387,-0.009325663,-0.06919677,-0.015976,-0.048679914,-0.057224084,-0.03126603,-0.04978043,0.022134412,-0.12299892,0.004355807,0.1034299,0.029238695,-0.030666007,-0.027423812,-0.004094061,-0.016030954,-0.019040372,-0.009403938,0.017372223,-0.002725566,-0.027745381,-0.036073748,-0.107988834,0.026938254,-0.06504005,-0.058702454,-0.029406706,0.07320911,-0.051185925,-0.012612301,-0.09979158,-0.048156567,-0.054220185,-0.048166696,0.021969022,-0.00043937372,-0.056335382,-0.06963199,-0.033917427,-0.010536973,0.0041902442,0.0010456452,-0.005598322,0.019845687,-0.01420597,-0.021123925,-0.0055450173,-0.013742263
