-4.0654852e-23,-3.4289236e-24,-7.2679207e-23,1.3998777e-20,1.7446265e-21,9.6057486e-20,-4.2835566e-19,-1.7384837e-19,3.2283656e-18,-4.7704667e-09,1.5622417e-08,-1.8872134e-08,1.7268697e-07,-1.7261519e-07,8.495777e-06,-5.419736e-07,1.4004395e-05,-5.3711085e-07,5.704124e-39,-5.6254e-41,-2.090667e-39,-1.482123e-39,-5.41687e-40,-1.914112e-39,-2.920439e-39,9.32487e-40,-1.928809e-39,3.07403e-40,-3.592977e-39,-6.593198e-39,3.118276e-39,-2.137322e-39,3.155225e-39,-1.441014e-39,-7.75224e-40,-9.42404e-40,3.8902565e-37,1.578855e-35,-2.695683e-35,-2.5423024e-35,3.271237e-39,-8.8643445e-36,-3.8987887e-35,-3.6555662e-35,-5.271112e-35,8.622424e-14,-1.8638149e-16,2.1536745e-11,-1.6370687e-18,1.2477452e-18,-3.5086575e-14,-1.0330649e-17,4.2624337e-12,-5.303489e-16,-4.568174e-39,-2.342965e-39,-2.414147e-39,4.246464e-39,-3.02599e-40,-2.4276e-40,-2.16065e-40,-6.7189e-39,4.31911e-40,-2.5070628e-09,1.04758655e-07,-3.1974372e-07,1.216236e-07,1.2447506e-07,-8.4847517e-07,-3.195782e-06,-2.6268776e-06,8.041417e-07,-1.9941307e-26,-2.3029123e-25,-1.0810524e-24,1.4548651e-23,5.1295473e-20,7.0630923e-20,-5.998198e-19,5.3505247e-18,5.7984786e-18,-0.013314564,-0.0102058295,-0.019001372,-0.020753022,-0.013311621,-0.0022366869,-0.050852768,0.012147515,0.007823853,-0.00013310672,-0.00021153368,0.00014056049,0.0003133634,0.00077841105,0.00042848187,-0.00017588405,0.0009564771,6.7804012e-06,-2.9987772e-24,8.42921e-32,-2.2112834e-24,-1.525681e-19,-1.4342483e-22,2.6587661e-18,-2.8625945e-17,-7.374014e-15,5.916927e-20,1.9482493e-36,-8.273535e-25,4.392317e-28,-1.2667873e-30,2.635347e-25,-1.2940926e-24,-1.2918726e-22,-1.6648024e-28,-3.9230982e-19,-0.033776093,-0.028866803,-0.037401974,-0.02226616,-0.006902039,-0.014898233,-0.014012016,0.0139610935,0.013526586,1.9424197e-13,1.3926605e-13,7.401222e-13,6.0321567e-13,2.270012e-11,1.3006365e-11,1.5102499e-13,1.6295883e-11,8.5032e-10,0.0021963264,0.0065065897,0.0039709653,0.0053806156,0.0062322696,0.005911122,0.0026115887,0.0028932712,0.0010385679,-5.760131e-39,4.022939e-39,5.798423e-39,-3.865906e-39,2.413e-42,-9.81497e-40,-1.42366e-40,2.30844e-39,-6.306231e-39,0.00045505574,-0.001253263,-0.001320749,-0.0015274242,-0.00150532,-0.0010053454,0.00031505365,0.0009866866,0.00044973948,1.01945e-39,-2.890275e-39,6.1285833e-38,-1.438831e-39,-3.784931e-39,4.4123687e-33,-7.84573e-40,-3.28015e-40,1.398161e-39,-7.0452766e-28,1.7703983e-34,1.8967102e-38,-3.0612377e-27,-1.2672456e-35,-1.365049e-37,-3.112033e-38,3.7836266e-34,7.6697594e-38,-5.687061e-24,1.169913e-19,-1.6855572e-18,5.5990944e-22,1.470646e-14,-1.5254404e-16,1.3126935e-21,3.8666336e-21,-6.2068663e-16,2.11075e-39,6.650537e-39,-1.21979e-40,2.897169e-39,9.40982e-40,-5.81397e-39,2.74236e-39,3.0139e-40,5.17063e-39,-9.21233e-40,2.548883e-39,3.5415657e-37,7.11424e-40,-2.46914e-40,3.55114e-37,2.880069e-39,-1.690929e-39,-2.630355e-39,-0.014854369,-0.003114146,0.008008572,-0.012521555,-0.006047162,0.0088893995,-0.013439184,-0.005190459,0.0054878737,7.3259e-40,1.0928498e-37,2.972363e-39,-1.03745e-40,-6.516863e-39,2.018933e-39,2.052583e-39,1.530713e-39,-3.6077935e-33,4.3107825e-28,3.1040148e-28,-1.368039e-27,-1.6297866e-23,-8.350445e-21,3.6222914e-27,-8.125809e-17,4.6360082e-17,-1.5425351e-18,-4.100098e-39,6.717133e-39,3.03582e-40,-6.40916e-40,2.415124e-39,-2.50073e-39,-4.343459e-39,-2.107634e-39,-8.07338e-40,3.190158e-39,-8.07145e-40,9.68227e-40,1.626697e-39,6.697755e-39,5.382722e-39,5.634345e-39,2.275287e-39,2.607309e-39,2.3697703e-06,6.9906164e-05,-0.00023892213,3.151877e-05,0.00044231236,0.00011939228,0.00027857124,0.00027788628,0.00025466172,1.6570788e-25,-9.8736905e-27,2.954865e-22,-2.8354816e-31,-3.6384228e-31,9.7693986e-23,2.348729e-39,-5.3987905e-23,3.7002666e-19,7.7614964e-26,3.119947e-18,1.216849e-21,-1.4235272e-25,-1.3085764e-22,-3.3752585e-31,-2.2086974e-28,-1.12086264e-23,-2.3973234e-20,-6.158428e-34,3.5368612e-34,-6.5717406e-29,-3.4839982e-30,7.572036e-34,-1.0357427e-24,-6.0535025e-27,-2.0542283e-26,-1.633843e-27,6.031686e-39,-1.68998e-40,2.487554e-39,6.22633e-40,4.639303e-39,6.134035e-39,4.631894e-39,2.418909e-39,4.62403e-40,-6.817142e-10,-2.7736682e-10,-4.383193e-09,3.5398182e-10,8.9551994e-10,1.7513834e-09,3.09803e-08,1.4795867e-07,3.685077e-08,-9.669766e-09,-4.5975693e-08,-3.4773213e-06,4.064821e-09,1.12977405e-08,-1.1812059e-08,-1.62604e-09,1.5857901e-07,-3.7107828e-08,-2.3626853e-18,-3.313038e-16,-3.0023436e-15,1.4908583e-14,1.4980936e-14,1.1458022e-14,-6.535317e-13,3.064553e-12,1.2388116e-12,-2.1846285e-09,-2.6162041e-09,-3.2865506e-09,-1.6455466e-08,-8.353171e-08,1.2181125e-07,-1.6853758e-09,2.754528e-07,9.861737e-09,-3.59198e-39,4.879093e-39,2.326375e-39,-2.564205e-39,1.52924e-39,2.861594e-39,-1.385667e-39,3.208884e-39,2.69041e-39,-2.7572014e-20,9.459306e-30,4.6480902e-21,-1.7901677e-25,-2.8994087e-23,-7.535117e-18,-1.780851e-36,-4.725948e-20,-1.3278493e-21,3.2967067e-12,2.4876328e-09,3.137488e-12,-7.772444e-09,7.976192e-10,-3.4384787e-10,6.29154e-11,3.5069666e-12,2.6790778e-10,-0.009384117,-0.008047846,-0.0018957095,-0.021502832,0.0037869278,-0.00028116512,-0.022506937,0.007449284,0.006471351,-0.11795908,-0.14490882,-0.16043949,-0.02344945,-0.04071729,-0.03589759,0.008534455,0.037436064,0.016060047,-2.633026e-39,8.19813e-40,3.314172e-39,1.823983e-39,-4.974507e-39,1.31609e-40,-1.599385e-39,-1.95517e-39,-8.72589e-40,0.022925148,0.024943778,0.023114856,0.044982724,0.039131675,0.034824926,0.005132105,0.029107196,0.019105492,2.6468663e-36,-5.662236e-34,3.465585e-39,-2.9982987e-23,1.73247e-40,1.6227451e-26,-3.7626378e-22,-2.278227e-39,8.4473574e-21,-9.249969e-05,-0.00049672526,-0.00435193,-0.006802316,-0.004110913,-0.005529208,0.004062643,-0.0012331711,-0.00077299785,2.374269e-39,2.098166e-39,3.975012e-39,-1.982906e-39,1.186683e-39,1.579153e-39,3.262902e-39,6.063489e-39,1.8756e-39,-3.269938e-39,4.65027e-39,-5.634275e-39,-6.801024e-39,-4.718112e-39,5.852826e-39,-1.36898e-39,-3.229723e-39,-5.531868e-39,0.00048528865,-0.00054571306,-0.00030701506,-0.00029275368,-0.00023379666,-0.00026378027,-0.00046338467,7.478554e-05,0.0006260723,5.89563e-40,-8.41885e-40,-4.76846e-40,-4.515759e-39,-2.299591e-39,-2.519008e-39,1.208438e-39,1.781811e-39,-4.148658e-39,-2.034129e-39,1.079734e-39,-1.424383e-39,2.184624e-39,1.562487e-39,2.90621e-39,-1.899288e-39,-7.57123e-40,-1.52259e-39,5.139352e-39,3.671025e-39,4.161643e-39,4.805612e-39,2.770106e-39,6.177026e-39,2.15061e-39,-1.41466e-39,-2.078937e-39,-2.4195083e-16,-2.965016e-22,-2.7280972e-17,1.141812e-15,-1.3310673e-17,-5.855876e-16,7.8773793e-13,4.8929237e-12,7.7966355e-13,-0.0085955085,0.0034323805,-0.0007017664,0.0050094104,0.00459746,-0.005839808,-0.0031065831,-0.0040669125,-0.0040888386,-6.276357e-39,-2.111367e-39,-4.20333e-40,4.150821e-39,2.096425e-39,-7.60366e-40,2.986932e-39,6.49952e-40,-1.02513e-40,-0.009748603,-0.013918995,-0.012553266,-0.030550784,-0.0023485583,-0.0010680425,-0.010083612,0.0018409541,0.012273904,-1.698854e-39,2.082034e-39,2.320071e-39,2.283388e-39,3.136117e-39,-4.73504e-40,1.711517e-39,-2.445249e-39,-1.934166e-39,-6.153421e-39,-2.825105e-39,1.38958e-39,-3.145745e-39,-2.762838e-39,-1.314083e-39,-4.835259e-39,-3.862116e-39,-2.073787e-39,2.535123e-39,2.100371e-39,1.972096e-39,2.501091e-39,-9.58529e-40,-2.99966e-40,-2.33128e-40,1.4877741e-38,-1.510322e-39,2.94999e-39,1.393653e-39,-4.69787e-40,1.692219e-39,2.453585e-39,-1.975056e-39,3.33994e-39,2.66608e-40,2.294234e-39,-0.05251468,-0.072426364,-0.087113634,-0.017218748,0.011883247,-0.01572785,-0.0034376052,0.051130153,0.019447675,-1.4405393e-25,7.512591e-39,3.1712944e-27,-3.0670152e-38,1.0097493e-24,8.931157e-24,-1.17912e-35,3.699386e-18,5.2288848e-31,5.311716e-39,9.96929e-39,-1.18327715e-32,7.88951e-34,6.440217e-33,2.493451e-39,4.9144813e-27,-1.02677e-39,-8.427796e-30,4.2350926e-27,8.16862e-39,-4.0015966e-28,-7.838303e-36,-4.2014944e-25,-6.892952e-20,-5.0073825e-30,9.142895e-18,-1.6429463e-20
1.1298308e-09,6.1013044e-12,4.594304e-12,2.9124656e-09,1.8136564e-09,5.4952864e-10,4.8123784e-08,8.5501355e-08,6.0340656e-11,1.982851e-08,1.2757586e-07,1.9983036e-06,4.4947177e-07,3.9582715e-06,-5.639044e-07,1.194719e-07,1.4497176e-07,1.0772517e-05,-3.4633065e-29,-1.2404151e-30,-2.2389053e-31,-6.0140294e-24,-2.1653812e-24,-2.1964557e-23,-2.1685924e-20,-2.7035623e-21,-1.0992508e-22,-1.645527e-39,-1.051903e-39,-3.09243e-40,2.856921e-39,-1.819068e-39,-7.09082e-40,-3.33625e-39,2.908661e-39,-8.28714e-40,9.2277845e-35,1.8812128e-36,1.1373366e-34,-3.134068e-35,-6.4301e-40,4.20903e-35,-2.5034313e-36,1.7159302e-35,-1.5706693e-36,-2.7559866e-09,-2.854407e-09,6.785501e-09,-2.841963e-10,2.5886282e-09,1.6055229e-07,-4.9024274e-10,3.3213382e-08,4.9388302e-09,1.317223e-39,-1.369081e-39,-1.6046699e-37,5.778981e-39,7.73266e-40,1.19544e-39,-3.336227e-39,6.255786e-39,1.410613e-39,-3.070867e-05,-2.104879e-05,-3.3418222e-05,4.3716132e-05,-7.189859e-05,-8.855868e-05,0.00087569363,-0.00013550087,6.430833e-05,-9.575542e-13,-6.9908326e-13,-1.2205175e-12,-2.9572424e-11,-1.36175645e-11,-1.7753054e-11,1.5175767e-11,-2.978234e-11,3.1929636e-11,-0.05006674,-0.09586845,-0.056001805,-0.0015035059,-0.03203246,-0.014425399,0.025769794,0.005046788,0.014664557,-1.0744619e-06,-7.259996e-08,-0.00030361282,-0.0003667338,-0.00018293144,0.0014649428,-0.0009009197,-0.000850836,0.00014679386,3.965037e-14,3.620696e-17,1.7671851e-16,-5.976573e-13,5.8594358e-12,3.497253e-13,-1.317323e-09,6.9672206e-09,-1.07558944e-11,4.6421735e-21,6.6837536e-15,1.482269e-23,2.8024068e-15,1.9755606e-12,1.2425944e-15,4.4024836e-12,1.8033096e-13,3.989059e-12,-0.019550366,-0.039741438,-0.027761186,0.010740515,0.0006228477,-0.0022879944,0.030645624,0.02926167,0.025181372,-1.084805e-06,-3.604787e-07,5.0022854e-06,-8.7210844e-07,-1.6580302e-08,5.262394e-07,-9.4124744e-08,-2.1524546e-07,7.1503705e-06,-0.0076406845,0.0087331375,-0.0032753018,-0.004558575,-0.0051161447,-0.0075547495,-0.014140463,-0.015473978,0.0036406193,-2.390441e-39,-6.10154e-39,-1.425545e-39,-4.235656e-39,-1.863412e-39,-9.88853e-40,-7.46085e-40,5.325177e-39,1.308661e-39,-0.0061609447,-0.00639737,-0.002077465,0.0028914788,5.718963e-05,0.00038093518,0.012907198,0.0061056507,0.010052754,-5.3565567e-28,5.349664e-34,4.262411e-20,-1.6314231e-28,-6.7998963e-31,-1.0300399e-19,4.2421762e-26,3.6247712e-25,2.0677758e-23,-7.428604e-11,-6.403256e-15,-5.3450777e-15,-2.894893e-14,-2.1808195e-16,5.998028e-16,2.789503e-12,-2.574839e-11,-5.714534e-17,-5.568765e-12,-4.6845587e-12,-2.1896956e-13,-7.992582e-12,-2.8994328e-11,3.373371e-14,-3.4468213e-13,-1.8070892e-13,3.9411082e-11,4.48595e-40,1.499361e-39,2.897105e-39,-6.46562e-40,7.054155e-39,2.511668e-39,2.418229e-39,-1.670353e-39,9.65635e-40,-8.183516e-17,-8.239729e-17,-1.7942499e-22,-2.2965773e-20,2.3119385e-19,2.5861742e-26,-1.2916661e-18,5.582237e-23,3.8419134e-28,-0.026663214,-0.04258875,-0.015091075,-0.004717471,-0.022484746,-0.01379419,0.010824194,0.017260082,0.0056237513,-7.353074e-30,-1.1181579e-14,-1.868784e-20,-1.4162468e-18,-3.6848416e-21,-3.691178e-22,3.4475714e-26,1.5528895e-34,-8.891806e-17,-1.2334805e-12,-9.400914e-13,-2.7282555e-14,1.7083729e-11,1.1286471e-10,5.24706e-11,1.5930794e-08,2.1591607e-08,-4.4499946e-09,9.03756e-40,1.993294e-39,1.113397e-39,-3.31721e-40,-2.566789e-39,2.107645e-39,5.436584e-39,1.01872e-40,2.3933054e-30,-8.21263e-40,-1.306866e-39,8.22966e-40,1.0517e-40,-4.05062e-40,8.11272e-40,1.371639e-39,2.049744e-39,1.075263e-39,-0.0013210088,-0.00029032817,-0.00027313456,-0.00040805258,0.0008126034,5.9078382e-05,0.004442286,0.0035831868,0.0014449984,-9.226182e-13,1.46473e-10,9.2509736e-11,-2.5433564e-12,1.9577322e-13,9.333763e-12,2.2453086e-15,-1.03038346e-13,-1.0255332e-11,-1.0693417e-11,-5.1977766e-11,-1.4496536e-09,-1.9564919e-08,-2.469326e-07,-2.9713887e-10,-3.1402944e-10,-9.875453e-10,-2.3391378e-09,-7.7515426e-16,2.8679516e-31,3.2815504e-18,-6.772618e-20,-8.736273e-14,-8.0503655e-15,2.8450842e-13,-1.6264733e-13,1.2228792e-11,-7.998278e-39,1.07083175e-36,-4.770302e-39,2.596229e-39,2.40735e-40,1.416451e-39,-8.36493e-40,-1.325945e-39,-1.13296e-39,1.7003222e-07,1.4918133e-07,4.071439e-08,3.046447e-06,1.8241305e-07,-2.7527895e-08,5.873614e-07,-8.5253987e-07,-1.9472038e-06,2.6147686e-06,2.1042145e-07,1.00351945e-05,1.5636238e-06,1.8128252e-06,-2.6037874e-06,1.719139e-06,-5.4413367e-06,-6.7101956e-07,-2.4254293e-08,-6.2425065e-10,3.2641007e-10,1.5137523e-08,1.4220974e-07,7.8943096e-08,2.4271083e-06,2.57659e-06,8.131875e-08,3.773796e-08,1.2782833e-07,-6.580294e-07,1.985604e-06,1.2049087e-07,-9.176769e-07,-4.9529876e-07,-6.835223e-07,2.3188963e-06,-9.83796e-40,-7.39624e-40,2.312423e-39,-3.98829e-40,-1.78803e-39,1.695861e-39,-1.34355e-40,-9.6301e-41,1.585686e-39,-2.240128e-09,1.5947359e-09,4.3438533e-09,-1.3141661e-11,5.5252574e-13,-2.1134554e-11,-1.5192651e-15,2.5657525e-13,-5.2817613e-16,5.669898e-08,-6.383879e-07,3.9863835e-07,2.7872449e-07,4.4458908e-08,-4.5427382e-07,6.685715e-07,9.519345e-07,1.0617089e-05,-0.01544564,-0.037058596,-0.013456776,0.0023834198,-0.0140118925,-0.008115326,0.02193751,0.0006217817,0.019294417,-0.072992794,-0.057208523,-0.13412471,0.02321172,0.028315745,0.0024445734,0.053098865,0.065535836,0.03368688,3.3087e-41,-7.97876e-40,-1.548079e-39,1.961986e-39,-1.739402e-39,-6.228594e-39,2.035927e-39,2.507865e-39,-1.053186e-39,0.018086929,0.009693187,-0.01553357,-0.02454272,-0.035251398,-0.048196245,-0.03136461,-0.040874667,-0.03422083,-7.834805e-13,7.390998e-11,3.6986634e-15,6.458756e-14,-8.426708e-15,-1.1016803e-15,-1.037662e-18,-3.3119382e-22,-9.101056e-15,-0.0015447403,0.001543974,0.002263672,0.0087426575,0.0025854865,0.0031176328,0.010996173,0.0039352924,0.010126684,4.890057e-39,-6.42755e-40,2.372513e-39,-2.370017e-39,-2.217667e-39,6.07076e-39,3.615e-40,1.461364e-39,9.04643e-40,3.718657e-33,2.7500407e-21,2.781499e-24,-1.0274608e-14,-5.785947e-28,-2.1450032e-15,6.613505e-39,-8.181304e-20,-9.29508e-40,-0.0016561998,-0.0010766443,-0.0006842425,-0.0013548242,-0.0017160575,-0.00089610554,0.0014181024,0.00014776867,3.0680436e-05,6.381942e-39,-2.889208e-39,-2.113455e-39,-2.281325e-39,3.450384e-39,2.575605e-39,2.141284e-39,3.156875e-39,-5.3723e-41,-3.79328e-39,-8.762431e-31,2.346208e-39,-1.4073439e-30,1.9277708e-37,9.07042e-40,-4.374506e-39,3.2921314e-36,-3.8483886e-22,-6.26854e-40,-3.20149e-40,-4.384303e-39,3.8084036e-34,3.1239894e-34,-1.4099306e-27,1.23623544e-23,6.0449174e-25,4.4477615e-24,-2.1844983e-07,-4.7543097e-08,2.1532223e-09,6.198367e-08,3.4911469e-07,3.0766972e-07,5.0307785e-06,7.683417e-06,3.884138e-06,0.0041827275,0.0043180524,0.008734445,0.0033166092,-0.00798507,-0.016388163,0.005596453,0.0016476568,0.004782628,-1.43675e-40,2.009598e-39,-2.498131e-39,-4.67644e-40,-2.615929e-39,5.0264e-40,-1.539332e-39,-5.665284e-39,-6.53484e-40,-0.011733967,-0.025094844,-0.008848725,0.014489025,-0.006408877,-0.0029931227,0.03553871,0.015237822,0.016947338,4.3601666e-18,-1.3317261e-17,-5.258124e-17,-6.616393e-19,-2.3384848e-13,-2.5171231e-21,2.3560744e-17,6.507166e-15,2.0353086e-28,-2.1615493e-20,-8.7932996e-20,1.8663354e-37,-2.0833496e-19,-1.4532523e-25,-2.3209393e-37,-3.9640083e-25,-3.7309742e-31,-3.3239623e-28,1.3613848e-21,1.0291963e-27,-7.906523e-22,-5.3445326e-26,1.1140503e-25,-8.1033636e-25,3.462473e-32,-6.7944304e-25,1.2962044e-24,6.75496e-40,9.85474e-40,-8.37238e-26,-2.315198e-37,-8.7419465e-33,-1.4228297e-32,-3.4379005e-38,6.757326e-26,-4.90784e-40,-0.025673278,-0.018650917,-0.0070159445,0.024206832,0.044299062,0.022508204,0.072904125,0.07356097,0.040813237,3.3239417e-18,-9.258761e-22,4.4150583e-17,1.0268679e-17,1.250429e-15,2.8713664e-18,-1.7048917e-24,5.716293e-12,1.7432958e-18,-8.334069e-19,-3.3769275e-17,6.659466e-18,9.090465e-14,6.2493477e-16,6.296865e-15,4.063269e-15,9.493646e-14,-6.9323365e-14,3.125808e-12,6.111325e-11,9.3373504e-09,-1.4670861e-14,-1.586639e-13,7.318007e-15,4.644087e-19,-3.3567005e-13,1.6949761e-13
1.005774e-12,1.7011888e-12,-5.242824e-12,-3.607526e-14,-5.6667097e-15,-5.215351e-16,2.2320068e-13,-6.597202e-14,-3.2497307e-14,-2.337518e-07,3.593198e-05,-9.861434e-06,-2.1749182e-08,7.1759854e-07,-5.82255e-05,-2.5196107e-06,-1.7392571e-05,9.366021e-05,2.580072e-39,-6.487254e-39,-8.325017e-35,6.279748e-39,2.5980688e-32,6.034109e-36,1.187245e-39,1.0945596e-28,7.20644e-40,-1.376732e-39,-1.049749e-39,5.096523e-39,-2.529484e-39,2.711158e-39,1.973817e-39,2.30945e-39,-2.094882e-39,1.757437e-39,-9.482505e-36,3.2377739e-37,1.6741846e-35,-1.7206253e-35,-3.008645e-39,-7.1499346e-35,-5.4164554e-36,1.3789549e-35,5.7696095e-36,-5.6454094e-15,-1.5971361e-06,-1.6123821e-11,-2.0028022e-08,1.4760387e-09,-3.5708696e-09,2.3206254e-10,-3.756742e-12,-6.229323e-08,3.425712e-39,-1.623898e-39,-1.169548e-39,-7.3915553e-34,-5.853752e-39,-5.833418e-39,-6.968065e-39,-3.592419e-39,-1.672615e-39,3.1919524e-06,-1.6701935e-05,3.3928604e-06,-2.1344017e-06,1.496819e-07,5.358322e-07,1.1208659e-06,2.4975674e-07,4.8658876e-07,3.442018e-18,1.2753897e-15,2.3129012e-15,2.5753408e-14,1.3385635e-17,4.204893e-17,1.5546971e-18,6.240874e-17,3.7890727e-15,-0.0033168131,0.045997914,0.053530443,-0.03079434,-0.007791189,0.0042051887,-0.018063275,0.0009032502,0.027340781,-0.0002168412,-0.00052374345,9.433604e-05,5.0591014e-05,0.000882725,0.0012513646,0.00023055983,-0.00029669984,0.0005642534,5.0560857e-18,-6.586181e-16,4.0445026e-17,3.3369058e-17,4.981009e-17,3.2550854e-16,1.8160556e-16,-1.1011587e-14,1.5583697e-14,1.3294845e-16,-8.9992976e-24,-3.2102853e-17,6.80218e-17,-1.4604358e-15,-2.8270322e-10,-7.460913e-18,-1.6586874e-10,-8.6180864e-17,0.01576069,0.054483134,0.042743847,0.006710012,0.04866748,0.048873406,-0.009309497,0.010800599,0.023528595,5.1056075e-09,7.474494e-07,-4.3772093e-06,2.6333058e-07,1.9252839e-07,3.4853997e-09,2.597515e-12,9.097217e-09,-8.246149e-09,-0.0045323125,-0.005186277,-0.0044387514,-0.004749953,-0.0067005227,-0.010858041,-0.0006975002,-0.005400186,-0.0073907897,2.445348e-39,7.883938e-39,2.197096e-39,-3.70024e-39,1.416179e-35,-3.09632e-40,3.1104125e-34,-4.857027e-39,3.357504e-39,0.0045865346,0.0029404592,0.003658175,0.0009800176,-0.0007865814,-0.00087873975,-0.001989557,0.0003605745,-0.0010728573,2.5148912e-29,1.996937e-18,1.6299374e-20,7.176773e-27,-5.503937e-26,-8.85573e-40,3.8078876e-32,-2.4302455e-34,-5.6738744e-22,-8.770491e-26,4.294252e-31,2.1014253e-28,5.0336973e-25,2.8125768e-25,-1.1219574e-33,7.300871e-18,3.0697404e-24,-2.5540638e-34,-2.1082948e-14,-9.502969e-16,-9.962825e-11,-8.507646e-14,-8.612729e-11,-5.912144e-08,-5.69031e-13,-8.298905e-09,-1.1694757e-09,2.506042e-39,-4.352414e-28,1.665e-39,9.998202e-30,3.394787e-39,5.809538e-39,-4.249334e-39,-5.77926e-40,1.356942e-39,5.7885923e-25,-4.6119167e-20,-2.1483623e-33,1.9372136e-31,-6.48917e-40,3.6705758e-36,1.0071075e-38,1.14088026e-35,-1.3223479e-29,0.007105294,0.0022332175,0.038247034,-0.016009286,-0.007446837,0.013415686,-0.0110128755,-0.009039685,0.011441328,1.881743e-34,-2.9382e-40,2.0941179e-17,-1.1710576e-35,-8.932305e-20,-3.1279957e-28,-4.99053e-40,2.130353e-24,-1.725049e-39,3.3945587e-12,1.1047555e-13,4.6501594e-13,4.6946457e-12,1.3002521e-15,1.3014095e-11,-1.0150643e-12,7.590494e-14,3.6592454e-14,2.4298999e-26,1.9650985e-27,-1.0753165e-28,-1.430217e-39,1.698032e-39,-1.504305e-39,8.24402e-31,-8.674296e-22,-1.8002466e-27,-2.019383e-39,-2.786744e-39,2.28383e-39,2.305811e-39,-2.782334e-39,-2.5428e-39,-3.87669e-40,-4.386948e-39,1.009856e-39,0.0005103775,0.00031263378,0.0010855725,-3.2857934e-05,0.00012495254,0.00029874718,-0.00018772554,0.00017454448,0.0002879215,2.0537381e-27,-1.3158833e-15,-1.7806616e-14,-6.441699e-21,-3.4634703e-15,-2.5620735e-13,1.3086324e-19,2.670696e-15,-6.549007e-20,7.587974e-14,-4.9587895e-12,-9.190381e-16,-2.8110785e-13,6.186324e-12,-5.7218213e-11,3.93661e-10,-8.516584e-11,-8.211752e-13,-3.910637e-18,9.595924e-18,3.4957674e-20,1.405163e-19,1.3312927e-16,3.0864861e-13,1.4054001e-16,2.7133913e-13,7.046514e-19,-3.140854e-39,-2.113059e-39,4.105513e-39,-1.676588e-39,3.7442117e-28,-2.7649463e-38,-2.848557e-39,-2.304206e-39,3.04254e-40,9.0548167e-07,3.5849134e-06,2.4390542e-07,1.6926551e-06,4.1677694e-07,-2.6331315e-07,-2.0818763e-07,-4.0070492e-07,1.6627892e-07,5.310131e-10,-2.042669e-05,-1.9130126e-05,-3.848089e-06,2.3567989e-06,-1.9805608e-05,1.0519591e-06,3.2305812e-07,1.882367e-05,-1.4788584e-10,-1.06693e-09,2.677625e-09,5.2815426e-11,2.5636306e-11,-2.3538756e-12,-4.0830725e-10,-1.6174076e-10,-1.5063227e-09,-9.0418906e-10,2.9466817e-08,4.4609767e-08,-2.2020116e-07,2.0859213e-07,3.035506e-07,-3.3928316e-08,1.3784696e-06,1.5506012e-06,4.154812e-39,1.338852e-39,-7.02942e-40,-1.238103e-39,3.991575e-39,2.357756e-39,-4.35168e-40,5.75393e-40,-2.28435e-40,3.1991017e-23,1.0575062e-12,-8.227394e-15,5.4739918e-18,2.1964894e-15,6.4465594e-15,4.7518956e-16,3.6231434e-17,6.5360777e-12,-1.4786592e-07,-4.0593813e-09,-8.774085e-10,-9.915984e-09,-9.714958e-09,-2.0213287e-09,-9.601435e-10,-2.594971e-05,-1.4048274e-07,0.0027834938,0.009286825,0.016163351,-0.009041887,-0.009519576,0.0030804183,-0.0023009877,-0.010217676,0.005910142,-0.038919922,0.04618622,0.057958752,0.007979012,0.08480637,0.12243723,-0.012609019,0.10590045,0.05915026,-8.27404e-40,7.45957e-40,-2.076908e-39,2.019962e-39,1.7532785e-36,-2.487162e-39,2.763548e-39,-3.111145e-39,1.689205e-39,-0.003525435,0.003918002,-0.0017912928,-0.013748868,-0.013283662,-0.02717271,-0.027245834,-0.013568788,-0.007846393,5.5724304e-19,-1.6842376e-15,-2.845469e-11,-1.6269261e-15,-1.1486586e-10,-9.101587e-17,1.0945142e-15,-1.4174736e-18,-3.6603065e-22,0.010574434,0.010770425,0.008806915,0.012601392,0.011739871,0.00789784,0.005171589,0.0038631747,0.0050691073,-4.634132e-39,1.9236e-39,1.354362e-39,2.1104113e-36,9.29954e-40,2.005977e-39,-2.579224e-39,-2.809861e-39,-3.14137e-39,1.140632e-39,1.0754725e-29,1.26073e-40,2.5056168e-32,6.871852e-29,-3.905317e-39,-2.960757e-39,2.161004e-39,3.3395678e-38,-0.0002193781,0.0003874649,0.0012023804,0.0006053369,0.0009803231,0.0004462719,-0.00047763702,-0.000101154525,0.0002281425,1.043845e-39,1.487506e-39,9.49603e-40,-2.309002e-39,-3.924513e-39,-1.778374e-39,-5.94406e-40,-1.438244e-39,-7.6693e-41,-8.0018e-40,1.557044e-39,-3.575384e-39,-4.64183e-40,-6.83046e-40,-3.06565e-40,-3.655323e-39,-1.97672e-39,4.503284e-39,4.8247778e-26,1.4374702e-29,1.7611437e-21,5.425783e-27,7.509945e-24,-1.8824888e-34,7.8097644e-20,7.230331e-27,1.0038122e-24,1.6503535e-09,6.574282e-09,2.2910902e-08,3.0576996e-10,1.10123915e-11,-6.970651e-12,4.301327e-09,2.0298952e-11,1.730981e-11,-0.0066074734,-0.0026178516,-0.00094787066,-0.0034322594,-0.0040925113,0.010003419,0.0046795355,-0.0011697011,0.009694684,-1.062487e-39,-5.53041e-39,-3.223234e-39,-5.643065e-39,-3.356296e-39,2.993573e-39,2.022665e-39,1.285697e-39,-2.396048e-39,-0.0016986445,0.0059519513,0.016761968,-0.00518617,-0.00224585,0.003976756,-0.006022833,-0.0012837327,0.006074015,-1.6910656e-31,-2.5885778e-18,-1.9536395e-31,-1.7715e-16,-1.2714402e-18,1.5341033e-16,-3.6274828e-22,-1.3726442e-24,1.5352577e-33,1.6118379e-26,-2.650092e-32,-3.916009e-32,-3.258444e-17,1.1749571e-24,-9.880956e-31,-4.0319116e-34,-2.790035e-34,-9.945955e-37,2.516212e-39,2.4006486e-26,-1.0533944e-21,-1.493621e-24,5.5574563e-36,6.9250117e-34,-5.73472e-40,-1.305949e-32,6.2060425e-18,-2.573189e-39,1.5160579e-31,1.54906e-39,-9.92911e-40,9.885533e-39,-2.7432848e-26,2.044891e-39,3.5229958e-38,-6.0316707e-24,-0.015877651,0.04351558,0.02694414,0.01618903,0.07038454,0.06044856,-0.005573443,0.05891579,0.028907675,-2.1767241e-15,1.1683585e-11,-8.8552917e-16,1.9630526e-12,-1.0482562e-10,2.43233e-17,1.82504e-10,-1.14010286e-11,-1.5395268e-18,-1.9848285e-17,-6.730575e-30,4.699047e-19,7.806803e-32,2.2652324e-22,-8.832333e-17,-2.5043555e-19,1.6758517e-10,1.0613419e-15,-3.345523e-20,1.2268679e-08,-3.510543e-12,-1.8052415e-09,-7.902121e-20,3.4722325e-20,-2.25558e-39,1.1764962e-31,-2.0765323e-12
2.106506e-39,-1.741745e-39,1.3340653e-37,-3.1588e-40,-3.67915e-40,-1.153696e-39,-1.84641e-39,-3.712576e-39,-4.476484e-39,-4.4388507e-21,1.3075088e-18,-2.4037945e-22,-3.4292882e-20,-3.42004e-21,-1.4250682e-21,1.1487844e-21,7.279099e-21,-6.696248e-21,4.98271e-40,-5.045835e-39,5.356737e-39,2.340813e-39,5.880363e-39,3.204454e-39,5.476768e-39,1.48284e-40,-1.899467e-39,5.163736e-39,-3.644556e-39,-4.878487e-39,2.321622e-39,-8.0434e-40,-4.550406e-39,1.065294e-39,-2.551725e-39,-6.90075e-40,1.5304597e-34,8.352239e-35,9.130526e-35,7.858244e-35,1.417987e-39,9.3121265e-36,7.330662e-35,1.1671741e-35,1.9334044e-35,-1.063862e-39,-3.464834e-39,1.115446e-39,-7.276939e-35,1.403563e-39,-8.58428e-40,-3.0212277e-30,7.144279e-35,8.691902e-27,5.84683e-40,1.021855e-39,2.568032e-39,1.957795e-39,-2.000941e-39,-1.339606e-39,-2.798338e-39,-1.11057e-40,2.03096e-40,-9.846251e-24,-4.243971e-23,-8.2500787e-16,-1.171718e-19,-1.0689295e-15,-1.3713392e-15,-3.7519399e-16,-1.9431317e-13,-3.994114e-15,-3.41942e-40,2.234991e-39,-4.347458e-39,-6.65956e-39,-4.670468e-39,-4.27212e-40,-8.71348e-40,1.605509e-38,-9.6463e-41,0.028489888,0.022190034,-0.0013128663,0.015873415,0.012915728,-0.00844785,0.009255874,0.012602202,0.010803626,-0.00019229834,-7.3108386e-05,-0.00027530838,-1.564418e-05,-0.00039693303,-0.0007710436,0.0003624218,-0.00032401888,-0.0010862238,4.70256e-40,-1.38116e-40,-3.184508e-39,6.339492e-39,7.83882e-40,-2.980413e-39,-1.266763e-39,-1.5339645e-34,2.1894207e-38,-6.284912e-39,-2.554908e-39,4.4134e-40,6.50278e-40,2.483691e-39,-1.338358e-39,2.278329e-39,2.214256e-39,-5.265358e-39,0.015740316,-0.002107801,-0.017953625,0.008334858,-0.0013688206,-0.009094246,-0.006444187,-0.0011677502,-0.0028391825,-7.626613e-27,-1.4387318e-23,1.0121012e-21,9.946208e-24,-3.577604e-17,-3.6038427e-15,1.9365049e-25,1.2008822e-28,-2.1758374e-26,0.0008872235,0.001001927,0.0007421834,-3.5384146e-05,0.0009845415,0.0020864555,-0.0011549136,-0.0009932326,-0.0003065773,-4.389132e-39,-8.63425e-40,-3.348819e-39,1.709032e-39,-3.514698e-39,6.104331e-39,7.1626e-40,-8.53085e-40,-1.936204e-39,-0.0003256526,-0.00033076236,3.963027e-05,2.0781066e-05,-2.7392409e-05,-3.9021797e-06,-0.0007514448,-0.0010056507,-0.0010274646,-6.593109e-39,-2.287536e-39,6.401702e-39,-3.923008e-39,-1.926577e-39,1.757838e-39,-4.312834e-39,2.034313e-39,2.172533e-39,-1.453062e-39,2.827599e-39,-3.85412e-40,-9.10718e-40,-4.187101e-39,-3.201736e-39,-7.50622e-40,-3.03042e-40,5.614085e-39,3.4117e-40,4.272458e-39,1.6394e-41,4.63637e-39,4.381165e-39,-6.271122e-39,5.08465e-40,-4.31418e-40,3.79899e-39,1.099174e-39,-9.9934e-40,1.194656e-39,5.926551e-39,-3.727168e-39,-1.9055e-39,-4.55536e-40,-1.490005e-39,-2.862748e-39,-1.77233e-39,-2.75922e-39,-3.049902e-39,-5.753901e-39,-5.446951e-39,-1.339473e-39,-3.918803e-39,-3.288838e-39,-2.66833e-39,0.0090594385,0.016056702,0.0021262509,0.0054613957,0.0037553087,-0.000703697,0.00083723734,0.0018076578,0.00025402592,3.306884e-39,-3.847807e-39,-3.37322e-40,-4.015707e-39,-6.777781e-39,2.40195e-40,-5.458258e-39,-2.3637e-39,-8.32346e-40,6.153684e-39,5.921852e-39,-7.6412746e-32,6.873352e-39,-2.404964e-39,-8.6464684e-36,-2.5003862e-37,-2.0070108e-33,4.61612e-39,-4.002201e-39,-1.839001e-39,-2.223805e-39,-5.214901e-39,1.993063e-39,2.157191e-39,-3.154351e-39,-3.734444e-39,2.68671e-39,3.039677e-39,6.869517e-39,2.91657e-39,4.490258e-39,6.458037e-39,-2.375567e-39,5.640518e-39,1.368106e-39,-2.215208e-39,2.922968e-06,3.889275e-06,1.18095595e-05,-2.1420801e-06,-1.8069259e-06,-2.1258425e-06,6.8479686e-08,-3.1121448e-07,-9.101831e-07,1.333469e-39,3.86494e-40,-5.111965e-39,-4.783098e-39,2.245013e-39,4.93142e-40,6.60239e-39,4.34614e-40,-1.042311e-39,6.204964e-39,-6.88147e-40,8.88129e-40,3.621325e-39,5.097621e-39,2.161776e-39,5.329774e-39,1.428872e-39,7.225667e-39,4.402162e-39,2.28383e-39,3.31679e-40,2.439714e-39,2.305018e-39,1.545465e-39,2.920463e-39,-1.857281e-39,-2.34802e-40,-1.438471e-39,9.72612e-40,4.640852e-39,1.826607e-39,2.255372e-39,6.596035e-39,4.620978e-39,2.732243e-39,-1.503337e-39,-1.5667036e-26,2.5868993e-24,-1.1920074e-25,-6.5549253e-25,4.9868132e-23,1.4078878e-24,-3.3376552e-21,-7.60785e-20,1.1748633e-18,9.611146e-18,-1.5854038e-14,-2.6440165e-12,-8.0436036e-10,-3.8178796e-12,-1.0019076e-09,1.332538e-14,-2.223794e-12,-4.468972e-11,-3.4056402e-34,-1.18454015e-36,1.1356938e-30,5.2325207e-37,-1.6466457e-33,3.5211474e-28,-6.3811944e-37,5.8973685e-27,9.84781e-25,3.0624073e-12,-2.3214937e-12,-3.8026388e-12,1.6014653e-11,-1.6685228e-11,1.4059419e-12,-3.5461107e-12,-3.960752e-12,-9.360018e-13,-3.399004e-39,-1.49074e-40,1.337667e-39,1.650462e-39,5.202417e-39,-1.098088e-39,-3.084101e-39,-1.329038e-39,-5.001384e-39,3.127503e-39,2.19082e-40,-8.16729e-40,-5.15822e-39,-6.525202e-39,3.112134e-39,-5.045357e-39,-1.290283e-39,-1.627755e-39,9.714089e-25,5.182189e-20,4.869126e-16,-5.5024317e-21,-7.223961e-16,-1.0270882e-15,-3.3673469e-21,-1.5808659e-17,-7.742993e-16,0.009897469,0.010850839,0.0031389236,0.0045754965,0.008475815,0.00052954844,-0.00036628323,0.0032595145,0.00448482,0.048856623,-0.00498522,-0.066448525,0.052068345,0.06552348,0.009750391,-0.0045668366,0.017898338,0.04522571,2.764008e-39,3.932858e-39,-8.82096e-40,-3.612518e-39,-9.13312e-40,-7.23398e-40,-2.475056e-39,-1.140451e-39,-5.986905e-39,-0.012019114,-0.014197303,-0.022958562,-0.011198265,-0.0026758222,-0.018100135,0.0029013043,-0.0017346529,-0.0019418438,-2.142278e-39,6.156762e-39,-1.873868e-39,6.26656e-40,4.2338052e-33,2.2529488e-38,-4.625387e-38,1.5840251e-38,7.4719e-41,8.463529e-05,0.00024886464,0.0018463496,0.0011900907,-0.00016483612,0.0003693006,0.0019571842,0.0011758156,0.0016111879,2.369505e-39,-1.135968e-39,-7.51687e-40,5.18533e-39,-1.6087e-40,1.58096e-39,1.341806e-39,1.688052e-39,-4.152053e-39,3.56506e-40,-6.08395e-40,2.735e-40,-2.045234e-39,-5.102088e-39,-2.047101e-39,4.59665e-40,1.050734e-39,-2.58118e-40,0.00056504225,0.000114794886,-8.089822e-06,0.00027714463,1.844623e-05,4.6809655e-06,0.00014850112,6.973858e-05,8.997993e-06,1.389114e-39,-5.129473e-39,1.858224e-39,2.441795e-39,2.775693e-39,2.447712e-39,-2.476078e-39,-2.362142e-39,6.480585e-39,1.4188e-40,2.29688e-39,-5.398343e-39,-3.67633e-40,-4.278369e-39,-3.51293e-39,-5.240509e-39,-2.67886e-40,2.846543e-39,2.479152e-39,-2.840558e-39,-6.942698e-39,1.672221e-39,5.38651e-39,2.956887e-39,-1.236266e-39,1.171913e-39,-1.804715e-39,-3.4569962e-34,-2.367634e-39,2.8969093e-27,3.0369783e-35,-4.464227e-37,3.814659e-30,-9.027775e-29,-1.1283148e-31,-1.1416285e-24,0.0018724639,0.00063524436,0.0046444084,0.0031292224,0.0017774137,0.002940864,0.0026065386,-0.004512849,-0.0004512899,-4.926528e-39,-6.221074e-39,-6.325114e-39,-6.09304e-40,-2.729343e-39,-9.79404e-40,-2.643188e-39,5.936696e-39,-3.692232e-39,0.0068202377,0.006809364,0.0022452674,0.0035890068,0.0017643806,0.0025086948,0.0010099765,0.004006364,0.0032999734,-6.256014e-39,-5.55134e-40,-6.67644e-39,4.684155e-39,1.086764e-39,3.66845e-40,-2.480906e-39,-2.831724e-39,-2.415798e-39,-1.814768e-39,-7.8138e-40,-6.109387e-39,-1.519033e-39,7.8857e-41,5.602065e-39,-2.254452e-39,2.282236e-39,-3.361733e-39,3.727164e-39,1.736182e-39,3.170427e-39,-5.45857e-39,6.477118e-39,-5.72564e-39,5.027465e-39,-2.485946e-39,2.025725e-39,-1.80183e-40,1.485488e-39,-3.37019e-40,-4.714732e-39,1.242146e-39,5.618142e-39,-3.731309e-39,-2.523795e-39,3.397601e-39,0.02223656,-0.0051688575,0.003222286,0.036026616,0.034994084,0.03859589,0.025531244,0.034002177,0.06320841,7.11712e-40,2.08474e-40,4.38323e-40,-2.005156e-39,-9.62133e-40,9.10808e-40,5.87263e-40,2.531156e-39,2.411116e-39,1.612519e-39,-8.57328e-40,1.74464e-40,4.543518e-39,1.337297e-39,2.196432e-39,-1.227757e-39,-2.09504e-40,4.775589e-39,-3.3822255e-37,-3.95675e-40,-4.9036467e-33,-1.912631e-39,2.812476e-35,9.766875e-25,8.98564e-40,-1.431138e-39,1.465911e-39
-4.7926046e-06,-5.082392e-06,-2.4069335e-05,-4.483951e-06,-1.3486392e-06,2.4018811e-05,3.5521993e-05,6.200255e-05,0.00017577973,-0.00036362046,-0.00010712314,-0.00019215964,-0.00030979575,-0.000108048705,-5.403456e-05,-0.000973658,-0.00033287395,-5.5180462e-05,-8.3157087e-19,-1.9622273e-17,-1.2726116e-15,-6.333748e-19,-2.329464e-17,-5.5271976e-16,-1.6584638e-21,-7.1464305e-19,-1.0753678e-17,3.608579e-39,-4.469535e-39,-3.735546e-39,-2.031112e-39,-1.302e-42,-1.054015e-39,-1.390293e-39,4.7741e-41,-3.66891e-40,-2.8227608e-35,5.273707e-35,1.1870816e-34,-7.0047295e-35,-3.877146e-39,5.3060064e-35,1.7255115e-35,4.877434e-35,1.1305009e-34,5.6941785e-06,-1.3598925e-06,-8.1157145e-07,4.326625e-07,-1.5437728e-06,-2.0904733e-07,4.8553915e-07,9.47071e-06,3.2874132e-06,-1.77934e-40,-3.557343e-39,7.1988e-40,-4.221719e-39,1.681603e-39,1.703334e-39,-6.41353e-40,2.83894e-39,1.813789e-39,0.00042971518,-0.003396129,-0.00726659,0.001629074,-0.0022171095,-0.0067137326,0.0052799103,0.0035394698,-0.0007045953,4.1692765e-06,1.1663645e-06,5.846299e-07,-1.5931672e-08,2.3249544e-07,1.3771396e-06,1.6103382e-08,1.3120955e-06,1.340602e-05,0.11704029,0.029370945,-0.032427125,0.16291162,0.034744002,-0.046869673,0.19029076,0.10966428,-0.007540008,-0.0004420311,-0.007346403,-0.011374875,0.0043901014,-0.00668198,-0.01078688,0.011112693,-0.0036646272,-0.012798203,-3.4524504e-07,-2.249114e-06,-1.4830916e-06,-7.338061e-08,-1.3925358e-06,-3.0291073e-06,-3.2073558e-08,-5.8425787e-08,-7.914846e-07,-2.842738e-09,-8.952761e-09,-2.7112346e-10,-1.34769e-07,4.702646e-07,1.4381496e-07,6.5002505e-06,3.909408e-06,6.445857e-07,0.05762207,0.010848642,0.006493914,0.06849767,-0.024304021,-0.0309687,0.08120432,0.03344345,0.008417991,1.4409629e-08,-5.4755384e-07,-1.8925384e-06,7.895589e-08,-2.2173457e-07,-9.618595e-07,7.464943e-09,1.5578041e-07,-9.057616e-08,-0.019077469,-0.02077388,-0.0056339074,-0.023963178,-0.020663055,-0.005187907,-0.015074936,-0.02479699,-0.028818777,2.986743e-39,-2.936369e-39,-5.559048e-39,1.18375e-40,-1.090992e-39,1.751672e-39,-7.91615e-40,1.14492e-39,-1.392292e-39,0.032396507,0.011517227,-0.010440609,0.02536549,0.0007709175,-0.018803712,0.03130228,0.0192115,0.005507283,4.533003e-30,6.44569e-35,-3.2510755e-34,1.9672562e-17,7.1641803e-22,7.556451e-28,1.5867336e-14,7.76498e-19,-2.1155431e-26,3.3919024e-15,2.668378e-16,6.9497026e-16,6.564015e-13,8.4591253e-13,8.057174e-14,-1.455463e-13,-6.1562395e-14,4.526533e-14,-0.0006453973,-0.00042831816,4.3184882e-05,-0.0002161273,-7.7913086e-05,5.3469585e-06,0.00014547272,2.2847282e-06,1.5782919e-06,-3.889947e-39,1.175168e-39,-6.570752e-39,-4.56411e-40,-4.820519e-39,-2.900513e-39,5.098797e-39,-1.246632e-39,-1.462965e-39,-3.559903e-15,-8.4968653e-13,-6.1764206e-13,-1.4779736e-11,-1.2906402e-10,-2.10663e-11,-2.0775656e-11,-5.089064e-11,-1.6165011e-12,0.092598386,0.04667027,-0.036674593,0.116749525,0.05666777,-0.04308061,0.1215671,0.08175647,0.00079697213,6.7280707e-22,3.1347556e-23,-5.0755897e-25,2.931744e-22,-2.69366e-23,-6.32041e-23,-2.648268e-24,6.844135e-27,1.7314069e-26,9.28185e-08,-8.551289e-07,-4.5233446e-07,-3.0151828e-09,-6.4803776e-09,-6.0450725e-06,4.384864e-06,1.2267902e-06,9.853607e-06,3.245044e-39,2.469295e-39,-6.557422e-39,2.808658e-39,3.009623e-39,-2.112045e-39,2.550952e-39,3.216381e-39,4.1827533e-34,-2.25423e-39,3.526e-40,-2.584423e-39,-2.4681e-40,4.78108e-40,2.2695e-41,-1.846155e-39,-1.661536e-39,8.58396e-40,0.001942951,-0.009845828,-0.010267799,0.006777421,-0.012176822,-0.014801138,0.026236726,0.0054394794,-0.009593752,5.2058043e-13,-8.9629064e-13,1.9711646e-11,8.96768e-12,7.4993296e-11,-2.03049e-11,3.3544036e-14,-1.2035509e-10,5.180663e-10,-6.5542016e-09,-3.4928142e-08,9.471027e-09,-1.3766904e-11,-5.927892e-12,5.256664e-11,3.7362977e-11,4.360495e-12,2.1276436e-09,5.198668e-15,5.1835608e-14,4.5677893e-13,1.3002903e-10,-4.1855238e-16,-6.8059766e-15,3.4954033e-09,-2.7892296e-12,-1.3010243e-11,-3.396108e-39,3.074833e-39,2.345835e-39,4.537697e-39,1.946768e-39,2.642024e-39,1.142692e-39,3.12914e-40,6.81648e-39,-0.00070796814,-0.000579375,-0.00017175105,0.00010389538,-0.00028762777,2.670837e-05,0.00013569708,-5.1505474e-05,0.00016627181,5.9556305e-07,-8.821693e-08,-3.1266975e-07,4.7286036e-08,-6.755305e-07,-6.388969e-07,4.951763e-07,-2.2749583e-07,5.082023e-07,-0.00010960137,-0.00015031084,6.6328226e-05,-1.7196413e-06,-9.12546e-06,-9.870847e-05,0.0001908416,0.0003082371,0.00067368854,-6.489543e-05,-1.9672412e-05,2.276404e-06,-0.0004681485,-0.00065594784,0.000106550455,-5.2729552e-05,0.0004942481,0.0008794751,-1.31815e-39,-1.668955e-39,-2.774959e-39,-1.89996e-39,-1.007895e-39,-9.1019e-40,-1.25379e-39,-2.8257e-41,-6.40532e-40,-8.8091e-11,-1.295341e-09,-1.274305e-11,1.5815267e-08,-3.118999e-08,-1.54303e-08,-8.1650295e-09,3.7008745e-09,-1.9722758e-07,-6.5690488e-06,-1.938389e-05,-1.9400963e-05,9.398677e-06,-3.0877716e-05,-5.933651e-05,2.1582186e-05,2.6021538e-09,-6.6268556e-05,0.10084328,0.043635186,-0.008951677,0.10481571,0.02840897,-0.020490086,0.09103565,0.073706314,0.010165201,0.07274494,-0.010116277,-0.02564102,0.080539845,-0.047696535,-0.049985316,0.12776716,0.03750847,0.019457558,-3.683124e-39,7.77258e-40,-3.205239e-39,-5.639401e-39,1.192855e-39,-2.633672e-39,-4.068199e-39,-1.02545e-39,-9.94416e-40,-0.0040641706,-0.021714447,-0.027832115,-0.020667452,-0.028641539,-0.030738173,-0.026034528,-0.019938646,-0.030687068,-1.8094646e-35,-5.487811e-28,-2.6386115e-24,4.9480903e-23,-7.4263197e-29,5.268737e-25,1.26188785e-17,3.7902408e-24,-1.06664754e-23,0.019908486,0.0059259636,-0.0062992745,0.012911545,-0.0012742466,-0.009346357,0.014071614,0.0128559545,-0.0012618777,-3.898243e-39,-9.46385e-40,-9.7624e-40,1.985838e-39,2.016132e-39,4.75758e-40,-1.879426e-39,-1.081559e-39,6.230449e-39,6.244846e-18,-3.8924126e-16,-2.2908947e-17,-5.432736e-12,-3.0746525e-18,-2.204322e-19,-1.2278793e-19,-1.4902419e-29,3.0846297e-37,0.015373231,-0.0018518269,-0.013253004,0.035379216,-0.005103779,-0.014508109,0.050303247,0.006654209,-0.010888505,-8.2e-40,1.383331e-39,6.43688e-40,1.452161e-39,1.868874e-39,1.607017e-39,2.22148e-39,2.07505e-39,1.875108e-39,1.204964e-39,-8.63832e-32,1.2120826e-33,-2.7085252e-34,-1.1280259e-24,-1.9286036e-28,-6.1400404e-29,-3.2002849e-27,-3.9804244e-38,1.5502386e-25,-8.243868e-20,-9.742043e-16,4.1360742e-19,-1.2916874e-22,-1.0156822e-19,2.406338e-13,2.1041017e-16,2.2114438e-16,-0.00018054435,-0.00022110048,-0.00018255836,-1.2785073e-06,-1.12556345e-05,-0.00031372395,5.4610733e-05,9.070835e-05,-7.202024e-05,-0.00013105804,-0.00016069558,0.014949637,-0.0012990327,0.004665961,0.009833786,-0.00054721703,-6.882916e-05,0.010128922,-3.039712e-39,1.104906e-39,-7.93781e-40,-4.84434e-40,-2.131923e-39,-1.64067e-39,-2.7268e-39,-2.253571e-39,-1.511107e-39,0.081293054,0.039918996,-0.013332472,0.08814495,0.016724791,-0.039184526,0.07564906,0.061188098,0.015108443,-7.1434283e-23,4.5997705e-31,-4.129871e-27,2.9359352e-27,1.1236362e-30,1.4766923e-31,-4.393648e-32,1.7554765e-28,-1.4571465e-33,-4.1921025e-37,1.7435798e-26,3.1662072e-29,-1.8348765e-30,1.5522068e-28,1.0760572e-29,4.732468e-24,2.7822772e-25,1.4914429e-31,-2.96017e-40,2.6651344e-35,1.6333573e-33,2.43909e-39,4.27029e-39,6.59028e-39,4.365324e-34,-8.206754e-32,5.570522e-39,1.75015e-39,-6.3974017e-38,5.724899e-34,6.182449e-39,4.047107e-39,-4.0702127e-31,2.011132e-39,5.815348e-39,-1.25275975e-36,0.020194093,-0.05500874,-0.045799267,0.02662815,-0.082580455,-0.060926177,0.0795333,0.016462611,-0.007648171,-9.132433e-20,9.368963e-18,3.251034e-15,3.2247897e-18,3.6171566e-17,1.7871621e-14,1.04881674e-19,1.84396e-17,1.0328331e-16,5.6738253e-16,1.2220728e-14,1.110495e-12,2.6822114e-17,1.838108e-14,1.8097258e-11,7.689452e-20,6.483256e-18,1.6485888e-13,3.5756074e-20,2.4291429e-20,1.1112295e-17,3.7464185e-26,1.21933385e-20,-1.6856776e-16,-8.508275e-20,-1.1633935e-17,-1.6897405e-16
-9.801985e-21,5.93533e-23,1.1101119e-15,-7.493681e-15,-3.5852473e-17,-4.1650567e-13,-2.6140366e-12,-1.8026479e-13,-2.0499468e-12,-6.828345e-11,4.9972584e-08,2.224076e-11,-4.948395e-10,-2.3546649e-07,3.2260676e-08,-9.8066035e-09,-7.983714e-09,-2.0700055e-11,-3.6542e-41,-1.311322e-39,-4.98069e-40,-1.572494e-39,-2.103207e-39,-3.6422e-40,-4.333965e-39,-2.689757e-39,-2.324903e-39,-1.039364e-39,-1.65367e-39,1.100567e-39,-2.736835e-39,2.790616e-39,9.10644e-40,-1.65078e-39,-1.106967e-39,5.24641e-39,-6.8604404e-35,-4.8651386e-36,3.5933974e-36,-5.1375664e-35,8.02552e-40,1.8077053e-35,-9.723096e-35,-5.977567e-35,-3.1399687e-35,-3.4695776e-21,4.262204e-22,3.471514e-23,-8.559496e-24,-1.088605e-22,1.8828956e-22,-5.9050667e-31,-2.2579012e-21,3.3513023e-23,4.334768e-39,5.300423e-39,-1.320476e-39,-2.745481e-39,-4.268249e-39,1.503888e-39,-4.17527e-40,8.31612e-40,-5.33302e-39,-8.526499e-07,-1.424005e-07,-9.068731e-06,-7.1362484e-07,-8.601459e-06,-5.0125036e-05,-1.8865421e-05,-5.7628204e-05,-7.842488e-05,8.662971e-18,7.8200395e-20,-1.2824906e-21,-4.933634e-28,-2.6829143e-21,-1.29165824e-17,2.0227269e-18,-3.9611714e-13,-4.2132374e-12,-0.007626446,-0.00018834462,-0.0030416006,0.0031256545,0.008665602,-0.015336506,0.0057504084,0.011033834,-0.012419502,6.0332814e-06,-3.125055e-05,-7.02862e-05,2.1247355e-05,3.801656e-05,3.5143206e-05,3.280511e-05,3.2061835e-05,3.7124144e-05,1.4435681e-18,1.334412e-19,-2.595163e-22,9.642258e-18,1.8084566e-19,-8.2520846e-23,1.106708e-18,5.8549862e-18,-4.683801e-20,-5.2482804e-27,-6.0472035e-34,-1.1372747e-23,-5.439521e-29,-6.855429e-27,-5.8201386e-29,1.7959075e-32,-4.8103088e-33,-1.9754419e-26,-0.01208929,-0.0057445294,-0.0067272834,-0.014806213,-0.0076091206,-0.009926593,-0.013438802,-0.011609187,-0.010388693,1.0545555e-15,8.959788e-14,1.8530728e-16,-1.4275462e-17,-9.31934e-11,1.9544284e-14,-1.0960739e-14,-1.25608845e-14,-6.091907e-18,0.0018109987,0.0015431221,0.002297955,0.0020335861,-0.00028247354,0.0015007105,0.0010017342,0.0005263926,0.0009286492,-5.767702e-39,1.577248e-39,-6.102331e-39,5.900262e-39,-4.446009e-39,-1.02969e-40,7.21529e-40,-2.057814e-39,-4.04807e-40,-0.00052081316,9.7074444e-05,-0.0010452276,6.748957e-05,5.1559102e-05,-0.0017922417,7.4504846e-05,5.5559372e-05,-0.0020055508,-1.480222e-39,2.105274e-39,4.1491e-39,2.588088e-39,1.260803e-39,1.799047e-39,2.561373e-39,3.997229e-39,2.032956e-39,4.097896e-39,-1.150933e-39,2.10582e-39,-1.914024e-39,-6.914646e-39,-2.863825e-39,4.835148e-39,2.636274e-39,-7.55185e-40,6.425253e-31,-1.205572e-24,-1.375613e-25,-9.609116e-22,-3.7658462e-15,-7.277967e-18,-5.973063e-16,-1.1592448e-13,-9.932573e-18,-9.23429e-40,-6.58389e-40,1.88773e-40,-4.795667e-39,-2.46891e-39,-1.361702e-39,-1.07367e-40,4.862038e-39,-2.901133e-39,2.750743e-39,2.444117e-39,3.702678e-39,1.794384e-39,2.429748e-39,2.216912e-39,7.89116e-40,1.780075e-39,1.418654e-39,-0.002926986,0.001022467,-0.0036883086,0.0014263068,0.003770877,-0.0031620718,0.0032707755,0.008639876,-0.0030332329,1.686248e-39,-8.06973e-40,-5.383881e-39,-5.78532e-40,-9.4843e-40,-2.975105e-39,-2.505841e-39,1.315175e-39,-3.38894e-40,-1.1591987e-24,-2.3435297e-23,6.461039e-17,-2.2102057e-22,7.8226886e-22,7.463601e-16,-6.732282e-16,-2.6614643e-14,1.2096674e-13,5.51906e-39,2.686342e-39,-5.250658e-39,4.965781e-39,5.01384e-39,-1.100801e-39,-2.379101e-39,1.323168e-39,-3.035082e-39,2.87643e-39,1.22908e-40,3.564508e-39,-5.447242e-39,-2.46127e-40,-3.7965e-40,-5.520348e-39,2.445297e-39,-4.550355e-39,-1.1511483e-05,0.00014757585,-0.00010131505,-1.9377505e-05,1.1335486e-05,-0.00017970847,-0.00024827835,-0.0003123671,-0.00062835705,2.4784635e-27,3.6452852e-29,-2.8001841e-31,-8.1127014e-33,-2.9218363e-25,-1.5427394e-26,6.05382e-40,1.4169475e-35,-4.696648e-34,-1.6603209e-27,-6.814592e-23,-7.815044e-18,-2.3554943e-30,-1.8864058e-29,1.9694603e-22,-4.6331555e-33,3.6350203e-25,1.0531505e-19,-2.4439848e-34,-3.8398278e-35,2.693837e-39,-1.9722424e-29,-3.7485828e-31,-4.7393013e-37,-1.4031814e-30,4.739378e-35,2.3951572e-34,-1.314118e-39,-6.647271e-39,1.285701e-39,4.50741e-39,-1.788564e-39,-5.734504e-39,1.78969e-39,2.52926e-39,6.6203e-39,-4.066069e-10,-1.0680219e-11,2.5659172e-10,-2.9751085e-10,-2.6909447e-10,-5.4216986e-09,-1.3885934e-10,5.3358806e-10,4.5325455e-10,5.2635194e-09,1.0307139e-07,-1.7910761e-11,9.539443e-10,8.8721565e-12,1.1030443e-09,1.5299081e-11,1.5498915e-10,-1.7747946e-12,6.076898e-13,1.2700224e-14,6.175114e-13,-1.8218417e-13,-3.6223076e-14,-1.5214413e-10,-2.810565e-10,-2.1816602e-09,-1.5092516e-08,9.79571e-12,6.309385e-11,1.11187115e-10,6.101895e-11,4.0603043e-10,-3.1283623e-10,1.2741051e-10,1.1146696e-09,2.059232e-10,3.466193e-39,-6.234807e-39,-2.51319e-39,1.947082e-39,3.763706e-39,-4.366178e-39,7.18632e-40,1.812498e-39,-2.581978e-39,3.149568e-39,1.011397e-39,-6.0400955e-37,-4.129377e-39,-5.494878e-39,3.6864892e-35,6.617231e-39,-6.293489e-39,-4.19197e-40,-1.6951947e-15,-6.124847e-13,-8.595414e-14,-4.804494e-14,4.9482682e-11,-1.3334459e-14,-2.0701284e-12,-6.5449537e-15,-8.473166e-14,-0.0021523763,0.0006924497,-0.0058064773,-0.0010208816,0.0029383735,-0.007997082,0.0040315157,0.008421586,-0.0038026092,-0.011163705,-0.016485153,0.012211479,-0.0327193,-0.03166029,-0.03013637,-0.05567222,-0.050618056,-0.037317716,2.895518e-39,2.90023e-39,2.776153e-39,2.19917e-40,-5.562223e-39,2.657015e-39,-6.727857e-39,1.46947e-39,-3.378671e-39,-0.020773023,-0.015231399,-0.021683011,-0.023466453,-0.019392392,-0.021442784,-0.012059161,-0.012095207,-0.017462669,-2.329377e-39,-1.8228104e-32,1.6341403e-38,-5.305841e-39,-1.872435e-39,3.003199e-38,-2.9448e-39,-2.280842e-39,5.006774e-39,0.000395367,-0.000573148,-0.0014549346,0.0007426802,0.00025411116,-0.00012318457,0.00082743034,0.0010371996,0.0004046918,-1.595493e-39,2.470828e-39,2.33149e-39,-3.875871e-39,-3.263543e-39,1.821511e-39,-2.72634e-40,-1.102797e-39,-3.636042e-39,-3.48014e-40,1.216878e-39,2.177024e-39,1.141956e-39,-3.939606e-39,4.764436e-39,1.89926e-39,5.91078e-40,4.537727e-39,1.726066e-05,-1.5288342e-05,-2.382968e-05,-9.9763834e-05,8.56351e-06,-7.060157e-05,-0.00017022819,-5.5492397e-05,-0.00022206451,1.291378e-39,-4.80717e-40,8.16171e-40,6.5973e-41,-1.740392e-39,2.709119e-39,1.945688e-39,1.363578e-39,1.235945e-39,-2.300737e-39,-2.698186e-39,-2.460352e-39,6.587084e-39,1.786098e-39,-9.17911e-40,-3.386732e-39,6.661872e-39,4.680902e-39,-3.043941e-39,-1.54475e-39,4.2489e-40,2.245052e-39,3.27605e-39,5.720116e-39,3.20136e-40,2.479505e-39,6.045172e-39,4.2246947e-14,5.6181636e-16,1.3354608e-11,-2.9420088e-17,1.0477051e-14,2.8693137e-10,-1.9943223e-10,-8.4917023e-10,1.5430545e-09,0.0024210818,0.0011877042,-0.0011203837,0.0006162266,-0.0006054229,0.00171954,0.0003565003,-0.00035000505,-0.0008645064,-4.82439e-39,4.55164e-39,-6.014257e-39,-4.571766e-39,-2.226376e-39,-2.312549e-39,-1.985692e-39,1.5114e-40,2.999925e-39,-0.0052785203,-0.0011871106,-0.005275552,-0.004442719,-0.0015549483,-0.008425153,-0.0021929245,0.005141498,-0.0077952044,1.845273e-39,6.818259e-39,7.38481e-40,-3.778938e-39,-3.67255e-40,2.582823e-39,1.833581e-39,2.768655e-39,-3.537717e-39,5.443656e-39,1.62513e-39,1.947576e-39,-5.607472e-39,2.12873e-40,2.283288e-39,2.65788e-39,-8.42682e-40,-5.987486e-39,8.78939e-40,5.801701e-39,1.894422e-39,1.424473e-39,8.05417e-40,2.6215e-40,-1.969996e-39,1.088957e-39,-1.248871e-39,-3.857452e-39,2.582167e-39,-2.25142e-39,2.701074e-39,1.229603e-39,3.90088e-40,3.491114e-39,1.181824e-39,-1.603277e-39,-0.0058222325,0.011428656,0.0056679863,-0.0135456985,-0.021436926,-0.006980205,-0.025811838,-0.026870752,-0.022947999,-9.747351e-38,1.3766636e-38,-5.9936e-40,-2.6915675e-31,-8.209241e-33,2.427408e-39,-4.464765e-39,1.4214321e-37,1.2221391e-32,-2.2779415e-38,7.388591e-31,1.738015e-39,-1.1462107e-34,-8.919846e-39,-5.273483e-39,-2.0743237e-37,-2.06118e-40,5.651992e-39,-1.2515567e-36,-3.588347e-34,2.040337e-39,-4.43863e-39,6.024894e-39,1.4107059e-29,-3.77152e-40,-1.4044599e-34,2.622775e-39
7.489678e-32,-3.1273915e-37,-5.4890575e-24,-4.617542e-28,3.8173817e-26,2.734816e-25,-7.443692e-19,-6.028369e-22,5.781308e-20,-1.320041e-12,-5.805081e-14,7.109765e-06,-5.462341e-12,1.5388353e-09,-4.8190195e-08,3.59422e-12,-2.1891546e-09,3.4446379e-07,2.86693e-39,-2.513785e-39,1.70121e-39,2.041023e-39,5.66877e-40,-6.646097e-39,9.83807e-40,3.96394e-39,-1.100939e-39,-5.864534e-39,2.28068e-39,-6.867028e-39,-5.61469e-39,-2.037931e-39,3.58704e-40,-1.560042e-39,1.977769e-39,5.333502e-39,8.64394e-35,-2.1720794e-35,8.025632e-36,5.504748e-35,-2.273237e-39,2.273611e-35,1.2593602e-34,1.1813571e-35,-3.5246713e-35,-1.853992e-18,-9.843375e-24,3.0107078e-14,-4.3253594e-23,-3.973936e-11,-2.2026777e-16,-2.8607638e-15,-4.7390893e-12,-3.8380918e-15,1.725029e-39,5.287613e-39,-5.308134e-39,6.09434e-39,8.213e-40,2.18501e-39,6.644949e-39,-5.423567e-39,5.137037e-39,-2.5165595e-11,-1.553977e-10,-1.359857e-09,-8.255306e-08,-8.624255e-08,3.903763e-11,-5.919635e-07,-6.267034e-09,-1.5723658e-07,-5.1807254e-33,-2.289028e-29,-2.9878196e-24,-3.7962678e-23,-4.262463e-22,-1.1894046e-18,-2.736363e-17,-6.2134675e-19,-2.5307852e-14,0.004379042,0.0090207895,0.0045137634,-0.026198946,-0.018612288,-0.015997376,-0.028037522,-0.018640079,-0.027208338,0.00023661007,-8.058916e-05,0.00029548781,-0.00014878981,-0.0003715022,0.0004326493,0.00021427884,0.00031829177,0.00016188144,1.0501409e-29,7.274326e-34,3.6587422e-23,-1.4179557e-36,-1.1553735e-31,-6.4220706e-36,1.9538195e-23,-1.6700327e-23,-4.528887e-32,-1.2125845e-36,-1.2694029e-33,4.636642e-39,-9.165039e-27,-1.2521255e-33,-1.1691165e-20,-1.8361434e-26,-1.5498409e-34,-4.9051053e-17,-0.014051857,-0.00083181483,-0.00544201,-0.029082004,-0.016590003,-0.013323578,-0.028717661,-0.015680669,-0.023890197,3.5343703e-10,-1.1316781e-10,5.537753e-09,4.7490067e-11,-2.99714e-09,-2.7207255e-07,8.282974e-11,5.693189e-10,-6.070912e-09,-0.0018238929,-0.0007262927,-0.00022594158,-0.00016849801,0.00072915765,-0.00020191542,0.00010894865,0.00029413385,-0.009780868,-3.19336e-39,6.186793e-39,-6.37437e-40,6.49578e-39,1.518346e-39,6.71317e-39,2.628257e-39,3.333269e-39,-5.33526e-39,0.0011893909,0.0006357677,0.0010692932,0.000116217096,0.0003205908,-0.0005460754,-0.00039244114,-0.00013783663,-0.0006809765,1.879534e-39,1.435112e-39,-1.6980413e-26,4.395585e-39,4.826382e-39,9.537565e-34,7.80536e-40,3.3799595e-36,-3.68389e-40,4.243434e-20,-3.5435463e-30,3.775363e-25,-6.876897e-23,3.3058995e-22,1.5972161e-31,1.471634e-18,-6.396935e-17,2.7084515e-27,-5.9144695e-34,1.3255687e-30,-5.761867e-26,-1.68818e-22,1.0021256e-28,-8.453533e-17,-2.906306e-18,-9.241045e-18,-1.1307908e-17,-8.60987e-40,-9.62794e-40,-7.004067e-39,-6.231486e-39,3.571117e-39,-4.790812e-39,1.379857e-39,2.02493e-39,-2.909128e-39,1.0099457e-37,3.029293e-32,-3.6007934e-34,-4.313746e-34,4.4164015e-28,-1.38483e-39,8.69378e-40,-4.40772e-39,-5.132299e-39,-0.0007396373,0.0105026085,0.0055307383,-0.0067764614,-0.0002080944,-0.010186465,-0.0073365155,-0.004327276,-0.0002315213,4.54426e-39,2.01306e-40,3.911755e-39,-4.36126e-40,-6.5109e-41,-3.9974955e-23,-2.581985e-39,2.0392106e-35,1.174905e-39,1.899316e-34,-1.9511087e-25,4.6710878e-32,4.843855e-26,-4.620572e-28,-1.2718291e-23,-6.168227e-20,1.4865961e-21,6.467088e-16,-1.221995e-39,2.20395e-39,1.017664e-39,-1.311882e-39,-4.394308e-39,7.8613e-40,-2.5931e-41,6.092984e-39,2.198699e-39,-6.86587e-40,6.3604e-40,-3.311728e-39,-2.006222e-39,-1.37216e-39,8.99876e-40,1.764654e-39,5.528365e-39,-9.38455e-40,4.869891e-07,0.00023441321,-6.9005895e-05,3.1833383e-07,-7.230154e-06,-1.643169e-05,-9.097183e-06,-3.6178199e-06,5.8899135e-05,4.6129006e-25,5.910767e-27,5.601358e-16,-4.2900263e-30,-5.526499e-17,5.4055012e-18,-7.0718057e-25,-8.847109e-22,1.0081371e-19,6.5548987e-25,9.658308e-18,-3.927739e-27,1.4366686e-23,1.503625e-17,5.2147704e-19,-1.2073657e-15,6.0640566e-13,-2.660879e-13,1.806298e-36,-6.96353e-40,-1.4247988e-33,-1.953985e-39,8.300963e-31,1.6420581e-28,1.0712763e-38,-1.9361597e-24,-6.1981444e-24,-6.81021e-40,-2.19193e-40,-1.22413e-40,-1.495355e-39,1.754138e-39,1.82537e-39,2.391557e-39,-1.152476e-39,-1.653546e-39,8.561566e-16,-4.1518194e-13,3.0580167e-12,4.0325132e-11,4.3315915e-10,7.429086e-15,-4.965024e-10,2.912749e-11,-2.3986761e-13,2.9365232e-10,-2.2386697e-11,3.164877e-09,-5.0396354e-10,-1.2155292e-07,2.66045e-11,-1.7046828e-08,-6.176974e-07,-3.6322817e-10,-1.5041369e-23,-4.1459583e-26,-1.6698012e-17,2.4802648e-22,7.204504e-19,2.5123498e-18,-1.9455754e-15,-8.115993e-17,3.380865e-14,-9.330655e-12,2.746083e-13,-9.789927e-08,-3.4943944e-12,-5.048385e-11,-2.0667933e-10,-2.9176428e-10,-1.5108724e-10,-5.817662e-09,5.312363e-39,3.09458e-39,-1.204563e-39,-6.973667e-39,-3.879751e-39,-4.343566e-39,-5.728203e-39,-3.809499e-39,3.671364e-39,-4.0626312e-14,1.2795848e-13,6.483631e-12,-6.776276e-14,-7.111966e-14,2.0964192e-12,-7.634577e-17,-4.6283833e-15,7.9341957e-16,5.031858e-12,7.859709e-10,1.0904996e-09,-2.1037967e-10,-1.1152998e-12,-8.702465e-12,-2.3514383e-13,-1.675952e-12,1.5862414e-09,0.0020854718,0.012253108,0.0054107406,-0.0063083074,-0.001256443,-0.0083265975,-0.00952138,-0.0056789946,-0.008594489,-0.07429867,-0.03686022,-0.045821615,-0.061636984,-0.024398983,-0.031011475,-0.0807784,-0.043161113,-0.02460707,1.174682e-39,2.633948e-39,1.807273e-39,3.398084e-39,-1.470908e-39,-8.21593e-40,-2.217524e-39,-1.043274e-39,-2.304811e-39,0.0032737353,-0.006471432,0.0008028955,0.005732528,-0.001156532,-0.0017119811,0.004785209,0.0020000914,-0.017059922,-4.7837472e-23,-4.31385e-26,-1.178682e-22,-5.2149065e-21,9.78644e-19,-4.1019867e-17,-1.6113059e-26,-8.333785e-17,8.0053e-29,0.0025004568,0.0013618672,0.0013850862,0.0039394293,0.0009759377,0.00381368,0.0016100553,-0.0004102941,0.0022147186,-1.780445e-39,6.160946e-39,5.752993e-39,-9.77843e-40,-3.09522e-40,-3.487554e-39,7.69226e-40,-3.746786e-39,-4.495349e-39,-1.557433e-39,-8.52233e-40,1.013967e-39,1.448357e-39,-1.43613e-39,-3.999572e-39,2.091203e-39,-4.778861e-39,-2.28364e-40,-0.00017084547,2.0742698e-05,-7.192405e-05,-4.665207e-05,-0.0001706492,-6.9527174e-05,0.0003004865,-0.00019088112,-8.542606e-05,-2.835938e-39,3.23265e-39,-4.88428e-40,-1.747877e-39,-2.575715e-39,-1.531751e-39,1.524058e-39,1.141714e-39,-3.521596e-39,2.35178e-39,2.496513e-39,2.51739e-39,-1.892518e-39,-8.36247e-40,3.872714e-39,-2.615231e-39,6.49401e-40,3.042356e-39,-1.662496e-39,2.692693e-39,1.446743e-39,3.431966e-39,6.172524e-39,-1.705635e-39,3.36323e-40,1.085304e-39,2.675303e-39,-1.18639955e-20,-2.2722294e-26,-1.832117e-15,-1.0622034e-18,-6.7701453e-18,-8.42014e-16,-5.211908e-14,-6.769941e-14,-1.7116689e-13,-0.001899485,0.0018782758,0.0017614345,-0.0012762609,0.000688061,0.00052041555,0.0014872456,0.0031202121,0.0112562375,-1.750887e-39,1.61115e-39,2.487239e-39,4.3792e-40,1.814958e-39,8.4636e-41,-1.766289e-39,-1.818359e-39,8.39948e-40,-0.005029001,0.0068087187,0.006486708,-0.0051558926,-0.0011029637,-0.0018699442,-0.005667863,-0.0026891981,-0.006621843,4.588627e-39,7.661947e-39,-8.32269e-40,-3.082042e-39,-2.9730028e-25,1.2304722e-38,2.4457238e-36,-9.4020626e-27,1.5895643e-34,3.55e-40,3.079069e-39,2.558342e-39,-6.911697e-38,8.83918e-35,-3.5379e-40,2.3879729e-35,-1.61604e-39,6.081157e-39,1.845657e-39,-3.4853e-41,-1.8666494e-33,-1.017495e-39,-2.646449e-39,-3.242347e-39,-1.92513e-40,-7.26827e-40,3.8889606e-31,1.878069e-39,-6.14914e-40,1.257252e-39,-6.581682e-39,1.0210017e-35,3.12655e-39,7.03917e-40,-1.13483e-39,2.363657e-39,-0.03079722,-0.0049829804,-0.03357237,-0.029478239,-0.0062922714,-0.0007845739,-0.0369472,-0.0034206444,-0.007592259,-7.6146e-40,2.4912055e-33,5.0261456e-27,-2.52865e-27,-5.471546e-19,9.002568e-34,-4.2333788e-29,-4.3199248e-15,5.359238e-26,2.6797046e-27,-5.020778e-32,-9.289377e-36,-1.1000185e-21,-5.260155e-39,-8.7756204e-35,-3.5745707e-35,-1.0735585e-19,-5.165787e-23,3.675576e-39,-4.4623365e-22,-5.737948e-16,-7.900848e-33,1.0406464e-13,6.2725537e-16,1.8911923e-18,3.403984e-22,1.2669298e-29
-5.418991e-09,-1.9696769e-08,6.082791e-07,-9.9684044e-08,-2.7382058e-08,5.483041e-08,-2.0411026e-07,-5.464395e-08,-1.2212553e-08,-1.576703e-05,-1.9522256e-06,1.4797173e-05,4.710482e-06,-8.070117e-06,2.0695763e-05,-2.1212795e-06,-6.750008e-06,-2.2205447e-06,-3.6268911e-37,7.3268415e-26,-4.0317368e-22,6.059732e-39,-1.6941068e-30,-4.612636e-25,4.741809e-39,5.1556053e-34,-1.4598627e-29,-5.50525e-40,-3.084671e-39,-2.178892e-39,-3.541025e-39,-4.22796e-40,3.445029e-39,-5.789273e-39,-2.722039e-39,-6.624475e-39,-2.1737104e-34,-1.9610318e-34,-1.6378063e-34,1.1621885e-35,2.093342e-39,-1.8614201e-35,1.0571638e-35,2.2843274e-36,-5.3484517e-35,1.3116637e-09,2.9606463e-08,1.9992168e-08,1.2073367e-09,1.11669465e-07,2.0783094e-11,3.4460965e-10,1.1310345e-08,7.88653e-09,-3.334635e-39,-2.436753e-39,-3.005048e-39,3.23525e-40,-6.075266e-39,-5.251555e-39,5.284592e-39,-3.323873e-39,-2.481957e-39,-0.00023488907,-0.0008794511,-0.0012463958,-5.758804e-05,-0.00044269502,-0.0010342624,4.7303478e-05,1.471492e-05,-9.119998e-05,5.475864e-11,6.497416e-10,1.2957564e-09,-1.2422094e-12,-9.864782e-10,-2.520177e-09,-1.7880871e-09,-1.8606235e-08,-2.5221723e-08,0.03261976,-0.00906678,-0.023234805,0.04452327,-0.022737347,-0.0522291,-0.005719596,-0.040806595,-0.08532829,-0.0011994784,-0.0019859362,-0.00094016246,0.000694367,-0.0019744392,-0.002475402,0.0010838683,-0.00030964654,-0.001472985,4.7663793e-09,7.473872e-09,-4.5084477e-08,9.492435e-10,2.003642e-08,4.0595034e-09,2.6253499e-08,1.2350885e-08,1.6968442e-10,-2.8173995e-12,-3.183561e-13,-5.1127163e-16,-4.6614486e-13,-6.9826285e-13,-1.443859e-14,-6.351276e-14,-4.899754e-14,1.9584016e-15,0.04971866,0.0029316547,-0.004879632,0.00972196,-0.058131058,-0.06096447,0.034307346,-0.023977514,-0.03934679,8.76844e-10,4.7936246e-09,-4.1247723e-08,3.7610934e-10,1.08709564e-07,1.694078e-07,-6.3324457e-10,-1.9020773e-08,-2.5899695e-07,0.0019470592,0.0124824485,-0.0008664306,0.0056311414,0.023198651,0.01273305,0.0063128383,0.00575082,0.02114469,-1.743416e-39,-1.898914e-39,-3.803344e-39,-1.811328e-39,3.679429e-39,-6.94086e-40,2.493665e-39,-7.64543e-40,-1.40811e-39,-0.0097880745,-0.013830606,-0.015926754,-0.009420008,-0.020725345,-0.01917452,-0.010257768,-0.012332278,-0.015056172,2.615765e-26,5.426665e-26,-1.6745104e-27,5.7690294e-22,6.456906e-24,1.185209e-26,3.553627e-21,2.342424e-23,3.8241607e-28,5.942891e-18,-2.626151e-16,-3.7164907e-17,4.958266e-15,-9.002408e-16,3.1131846e-16,1.7389478e-15,-1.3401692e-14,-4.6648298e-17,-2.8125173e-06,-3.1519924e-06,-1.15247e-06,-8.594235e-07,-9.761256e-07,-8.1634823e-07,1.5385416e-08,-2.916577e-07,-3.9587414e-07,1.696569e-39,-1.587747e-39,-1.895787e-39,7.24299e-40,2.554147e-39,-2.560361e-39,-2.72857e-39,4.485925e-39,-1.715199e-39,-4.328191e-23,-5.0127443e-18,-3.8870643e-17,-3.2918557e-20,-4.823282e-16,-8.518303e-17,-2.256946e-20,-5.005429e-18,-1.06387085e-19,0.015233092,-0.015887791,-0.010089677,0.012224404,-0.030457914,-0.027639564,-0.008117628,-0.025378902,-0.037958346,7.08334e-40,1.4192078e-32,7.3802344e-27,-4.8618555e-32,1.8369659e-32,1.4124084e-28,-1.0753279e-31,5.313667e-31,3.7530543e-29,9.863767e-09,-4.7707026e-08,-4.8262456e-07,9.6578265e-09,-4.5385907e-08,-1.507842e-07,1.084608e-07,-1.7009897e-07,-4.089995e-09,3.09747e-40,6.3540165e-35,3.285662e-39,-5.029737e-38,6.861199e-39,8.48709e-40,2.9805942e-35,4.3297e-40,-8.113654e-39,6.40147e-40,2.505667e-39,1.979043e-39,-1.100693e-39,-1.081622e-39,2.651096e-39,-7.17591e-40,6.4115e-40,-2.098223e-39,0.0020681971,0.000951992,-0.0017264817,0.0034336064,-0.0009790217,-0.0012936323,0.0023169862,-0.0025766937,-0.00075718336,3.1177295e-16,-2.858966e-14,-5.0827175e-17,-1.861449e-12,4.2455392e-13,-5.305284e-15,-8.8235306e-16,-5.8578207e-12,-1.3707251e-15,1.6751062e-11,5.004555e-10,1.2625352e-09,8.9550804e-11,9.390979e-10,5.429472e-09,9.042585e-10,9.555001e-10,2.4351968e-10,5.798883e-19,-4.504302e-16,-2.9862393e-12,-2.9823697e-13,-2.7448706e-15,-3.208874e-14,-1.7468414e-12,-1.3986369e-13,-2.4064382e-14,1.711867e-39,-3.41232e-40,5.996122e-39,-1.733765e-39,2.8607e-40,4.24955e-39,2.75852e-39,8.3575e-41,8.43519e-40,-0.00024979643,-1.5122483e-05,-1.9086192e-06,-1.218803e-06,-6.626683e-05,-1.367054e-05,2.388933e-05,-2.938632e-05,-3.6299787e-06,-1.2766395e-07,-2.9673004e-07,4.585334e-06,-1.1504291e-06,1.4074412e-05,8.833415e-06,-1.6354235e-05,4.0729014e-06,3.3122495e-05,1.7642092e-06,1.2961001e-06,2.3138457e-05,-4.23989e-07,-1.9539661e-06,-4.3486546e-07,-3.3564072e-06,-2.1103738e-06,1.463487e-06,-3.1334446e-06,1.0750936e-06,1.9040455e-07,6.834443e-08,5.1419267e-08,1.6808681e-07,8.3026583e-07,-8.611705e-07,-2.0077964e-06,-1.401603e-39,-1.45176e-39,-2.098276e-39,-3.360689e-39,-2.442368e-39,-4.82928e-39,3.53151e-40,-4.23701e-40,-1.611558e-39,3.3900972e-17,8.852093e-18,1.5864568e-19,8.191542e-20,-3.8566295e-18,-1.4759632e-17,-5.3737672e-20,-1.3899304e-18,-2.5314742e-15,2.0317621e-07,3.1041577e-06,1.2732172e-06,8.000764e-07,3.3955692e-07,-2.7603696e-07,1.5292014e-06,3.2626965e-06,5.978468e-07,0.0059359665,-0.023292042,-0.01923971,-0.014213068,-0.05030717,-0.05306204,-0.03896353,-0.04787883,-0.06147206,0.23179609,0.03825704,0.015817344,0.13433322,-0.075366415,-0.093105495,0.115685284,-0.021835832,-0.07822477,1.01063e-40,-2.998838e-39,5.62767e-40,8.0947e-41,8.17096e-40,-4.28813e-40,1.778203e-39,2.437016e-39,-6.38315e-40,0.00071464956,0.03689235,0.034048624,-0.009720797,0.01697076,0.030932454,-0.0046760207,0.017209211,0.024162704,7.590842e-29,3.6888725e-24,4.274947e-26,5.2889377e-26,4.3084127e-24,8.026306e-19,3.7525305e-22,1.5988404e-18,3.4067373e-21,-0.0023946224,-0.0061446643,0.013044238,0.0008549194,-0.003013623,0.01318253,-0.004632795,-0.0064937426,0.0029186364,2.097113e-39,-3.876717e-39,-1.497667e-39,-2.591292e-39,3.459014e-39,5.593209e-39,2.113619e-39,8.4098e-41,2.430926e-39,5.15585e-40,2.118426e-39,1.681324e-39,-1.959303e-39,3.739623e-39,3.67718e-40,-4.405625e-39,-2.517979e-39,3.532669e-39,0.00011257879,-0.0013854995,-0.0007462998,0.0023437827,0.00013254584,-0.00087703305,0.0026701447,0.00037184157,-0.0019440835,-4.792236e-39,-6.650428e-39,2.937737e-39,8.2472e-41,5.02509e-39,-1.282579e-39,2.081521e-39,7.84758e-40,6.399025e-39,-5.679573e-39,-3.637112e-39,-7.32338e-40,2.234655e-39,-4.772667e-39,-1.380531e-39,1.696123e-39,-1.10139e-39,-5.530025e-39,1.3009872e-26,-3.9485615e-20,-1.7745213e-17,5.165082e-21,-5.4399434e-22,-2.5165008e-19,4.5515398e-17,1.8676175e-18,-4.0464234e-21,6.17553e-07,-2.1149144e-07,-6.2410218e-06,3.9405208e-07,-1.6733246e-06,-6.8342183e-06,4.7365565e-06,-4.314194e-06,-4.3890077e-06,0.004489795,0.014555865,-0.0028937776,0.011691781,0.012441244,0.0077885943,0.0092591895,0.003970196,0.005645911,7.77143e-40,3.058418e-39,-1.763921e-39,-1.101181e-39,2.384371e-39,-1.801103e-39,-2.808971e-39,-2.988804e-39,-2.074873e-39,0.0020750514,-0.029642537,-0.012854937,-0.020177957,-0.05371261,-0.0490766,-0.031363443,-0.05527172,-0.05650599,-1.7525743e-36,2.1048393e-35,6.780609e-34,5.3372617e-38,5.04006e-40,7.5495e-41,-8.630876e-34,-2.916643e-31,3.1569878e-25,8.09948e-40,-2.004888e-39,-9.4195e-40,-5.95988e-40,-2.9652583e-33,-2.383638e-39,3.0039025e-26,6.625145e-28,-5.050554e-39,-6.287021e-39,-8.84295e-40,2.636553e-39,-3.454482e-39,2.503714e-39,3.007345e-39,-2.745366e-39,5.582716e-39,-2.6315e-39,1.974001e-39,5.793067e-39,-1.3567789e-35,2.49425e-39,4.26596e-39,-2.1577171e-37,2.065882e-39,1.173307e-39,-7.101e-41,0.104737446,0.007598548,-0.009809307,0.052873474,-0.061864514,-0.069693,0.08025381,-0.012006969,-0.039630916,-3.3673257e-16,5.591648e-19,-9.00174e-19,3.930657e-17,-5.2440544e-17,2.4456898e-17,3.2239668e-18,2.6479588e-18,-2.075973e-18,3.497054e-20,1.3024589e-18,-3.43999e-14,-8.7536026e-20,-3.3264094e-19,2.5324854e-14,9.22146e-23,-4.0174448e-25,1.166532e-19,7.1394974e-25,3.2665501e-24,1.9810365e-20,-5.9229066e-20,-3.8233251e-16,-6.174968e-16,7.229741e-20,1.953059e-21,-5.031064e-18
-2.9881152e-21,-8.3274154e-21,-8.1642685e-18,1.03184166e-23,-7.0887223e-22,-2.4166158e-20,1.2550863e-16,-1.20439894e-14,-4.2528443e-13,-1.6841335e-07,1.05857474e-07,3.5716885e-06,6.580353e-08,3.0028235e-07,3.21102e-07,-2.0600096e-08,-1.3520459e-07,2.7066145e-08,-5.78924e-40,1.153559e-39,5.26284e-39,5.4484435e-38,4.8645056e-35,3.5465163e-34,-2.7127884e-34,7.6781418e-34,3.6715196e-33,2.675414e-39,6.519687e-39,-4.6405e-41,-6.653111e-39,-4.896609e-39,-6.34465e-40,-2.293158e-39,-7.65678e-40,1.368105e-39,-9.491639e-36,-1.14256114e-35,1.16886985e-35,5.8621883e-36,-4.471147e-39,1.2987848e-35,-5.523907e-35,-9.088387e-36,1.3976718e-35,-4.2840174e-15,2.1297447e-10,-1.6828823e-13,-2.7514325e-12,9.275617e-11,7.3497e-09,2.9278774e-11,9.36427e-13,-2.1299025e-10,-1.285206e-39,7.12862e-40,-3.174361e-39,5.20016e-39,6.402604e-39,7.69394e-40,5.294265e-39,1.290964e-39,5.936392e-39,-7.796887e-09,-1.1097969e-07,-3.6784633e-07,-3.819725e-07,-5.490822e-07,1.3778373e-07,1.4716337e-06,-7.4037944e-06,-5.9386202e-06,-9.254533e-21,1.7090044e-19,2.7263966e-17,-7.900192e-15,-2.0294582e-14,-2.624491e-13,-1.1305284e-12,-1.003747e-11,-1.0228209e-11,0.006789501,0.020033991,0.01727022,0.0036841098,-0.0024824573,0.0023345416,0.016552819,0.0006117545,-0.0048986385,0.00030750528,-0.00021822208,0.0007233126,3.106524e-05,-0.0002607677,0.00038921504,-0.0005616777,-0.0008842524,0.0006013299,-4.2410746e-20,-5.9268814e-19,-4.5378128e-18,-3.2562786e-20,-1.5177732e-16,1.2633466e-18,-2.4554265e-16,1.4081335e-13,-5.6634583e-18,-3.1598718e-30,2.8415522e-26,-1.1408808e-28,-7.883623e-20,1.235872e-26,-3.7584564e-18,2.4946002e-21,3.6053102e-22,1.0044741e-17,-0.011903195,-0.0075786626,-0.0009976713,-0.025482485,-0.015488347,0.004504203,-0.018392807,-0.017999686,-0.008636933,-2.0990791e-09,-1.3782826e-09,2.8487426e-07,-6.183231e-09,-1.617661e-08,-2.1636549e-07,-5.583113e-10,-1.8480634e-09,-1.8167663e-08,-0.0048674834,5.0158786e-05,0.0010976626,-0.0023544105,0.002105515,0.0021210406,-0.0011405806,0.0009694989,-0.00035812816,2.707114e-39,1.244238e-39,2.85859e-40,4.020358e-39,5.06501e-40,-4.503462e-39,2.117089e-39,2.797384e-39,1.245721e-39,0.0009153646,0.00096728216,0.0013541367,0.00027912756,0.00032501933,-8.350335e-05,0.0002553365,-0.00082538923,-0.001104153,2.165418e-39,2.3038748e-35,5.129937e-27,1.365612e-39,-5.228851e-39,-1.207536e-38,-1.848704e-39,1.195508e-39,-8.519193e-34,3.6355283e-18,2.4155762e-23,-3.5732288e-23,-6.367326e-18,-3.4378664e-21,2.0849097e-20,-2.482865e-16,2.4400534e-17,1.5733758e-22,4.829186e-19,-6.1711364e-20,-6.068581e-14,2.8594982e-18,-2.2346913e-14,-2.3591294e-12,5.806908e-17,-6.0311364e-18,-2.5644432e-12,3.205587e-39,3.13438e-40,-3.52847e-40,6.584288e-39,1.382954e-39,-1.291383e-39,2.64677e-40,2.83718e-40,8.51149e-40,1.6277042e-29,1.2487789e-28,2.173535e-29,-3.4936428e-26,1.0099497e-33,-3.424407e-34,3.8803503e-32,-4.825009e-35,-1.5008591e-33,0.006843991,0.015757117,0.009763326,0.008353794,0.0087589715,0.0068970453,0.021546839,0.005692708,0.0026356818,-6.033232e-38,3.7837697e-35,-2.4576154e-26,-6.563691e-28,-1.05406385e-26,-2.7325413e-23,4.2703434e-36,-7.7158e-40,-5.1824635e-34,1.708845e-22,1.3774867e-19,-3.1523512e-18,-3.5563318e-21,-2.3190192e-21,-3.280549e-16,-5.651878e-15,-4.6277566e-16,9.8998724e-14,-2.039077e-39,1.668797e-39,3.10571e-40,-2.26464e-40,-2.06582e-40,-2.61341e-40,5.761682e-39,9.3556e-40,-1.7784598e-38,8.0041e-41,-7.75376e-40,-2.645836e-39,1.970891e-39,-8.27886e-40,-1.985204e-39,-4.04214e-40,-2.43455e-40,-5.548e-42,-6.776629e-05,0.00017094835,-5.4682587e-05,-0.00012952498,5.2236235e-05,9.7589065e-05,-0.0001231391,-2.283559e-05,0.00011119304,7.500175e-19,1.1427176e-13,-2.2009262e-13,-3.4013318e-19,-1.9942516e-15,-2.3306818e-13,-8.841253e-20,-9.046511e-18,5.2512443e-16,-5.095067e-16,-2.6641004e-17,-1.5233425e-18,-9.765412e-12,-2.5352487e-12,-1.933555e-14,2.4759406e-11,-8.5539215e-12,-7.870027e-12,6.8976397e-34,-2.0232809e-32,1.388995e-24,-5.231066e-28,5.864278e-26,-3.9982793e-22,3.6009608e-28,1.5616436e-20,-2.4411511e-22,-1.84808e-39,-9.87366e-40,-7.88516e-40,1.435351e-39,1.757095e-39,-1.158355e-39,1.964419e-39,-3.538099e-39,-2.660194e-39,-5.115151e-10,-3.407955e-08,-7.752115e-10,1.8476434e-09,-2.2284674e-08,1.0202326e-09,-2.9761669e-08,1.3171107e-08,-1.1292898e-07,-3.0206834e-08,7.144556e-07,-4.2610845e-06,-7.62079e-07,-1.6210868e-05,-1.5159058e-07,-4.789916e-06,1.2740398e-05,9.499157e-08,1.6500961e-15,3.662385e-17,2.2814923e-13,5.0496607e-17,1.9329365e-16,9.403333e-15,6.8226713e-12,7.479568e-12,-4.625841e-10,-4.2661203e-09,8.3136754e-08,-4.4651163e-08,-5.7363447e-08,2.3160536e-07,-8.020317e-08,-4.5907473e-07,-8.895385e-08,5.5009895e-07,4.473421e-39,2.624063e-39,-5.9099e-40,5.36128e-40,1.119315e-39,1.163264e-39,-4.638064e-39,3.074389e-39,2.210536e-39,-4.5542387e-20,2.0371212e-17,-2.1084761e-15,3.641699e-20,2.798385e-16,2.0361916e-16,-7.662333e-18,5.9850265e-19,-2.341664e-15,2.2104973e-07,-5.473106e-09,9.854992e-09,4.1299297e-09,1.4560024e-09,8.4611484e-10,1.2018251e-09,3.4601644e-07,1.2665459e-09,0.0042550303,0.016339196,0.017897634,0.011711919,0.006181192,0.0032007082,0.020647297,0.0012263171,-0.0018293393,-0.08965637,-0.068840116,-0.08693386,-0.060501203,-0.0269763,-0.05208659,-0.05652277,-0.060738664,-0.046193108,2.422814e-39,1.121999e-39,-1.87865e-40,1.220937e-39,4.99972e-40,1.654222e-39,5.58167e-40,5.00789e-40,-1.02882e-40,-0.0062386314,0.017754488,0.007718115,-0.022715887,-0.001468417,-0.004766346,-0.034338307,-0.003609724,0.006057389,7.236313e-20,-6.7322674e-19,1.7661539e-18,-6.4090144e-16,4.2696327e-17,9.781419e-15,-2.1213658e-23,3.4551535e-20,2.8113545e-26,-0.0004989942,-0.003319334,-0.0077018663,0.0023836314,0.00476376,0.0014244056,0.0023685582,0.0049803047,0.0024307827,2.158719e-39,1.13566e-39,1.893425e-39,2.88493e-39,-3.174321e-39,-1.527993e-39,1.125976e-39,-3.105322e-39,-3.246705e-39,1.577002e-39,-2.374568e-34,-3.752596e-39,-1.9984823e-24,3.659074e-35,-5.3590956e-33,-1.099295e-39,-5.618414e-39,-3.348547e-39,-1.758403e-05,-0.00046263443,-0.00030165634,6.6091874e-05,-1.3232771e-05,-1.7900984e-05,-0.0006384978,8.469778e-06,3.312132e-05,1.317114e-39,2.488892e-39,-1.549326e-39,-2.34836e-39,-1.468416e-39,-1.742325e-39,-1.34672e-40,-2.851163e-39,6.26586e-39,-4.598599e-39,2.71497e-39,1.414657e-39,1.765504e-39,-2.64351e-40,2.581845e-39,-1.903183e-39,1.895287e-39,1.923258e-39,-1.061037e-39,-2.040576e-39,-1.862537e-39,-6.74211e-40,1.16905e-40,-2.012319e-39,-1.13159e-40,1.03105e-39,-8.56304e-40,-4.226956e-14,3.642961e-15,1.6318651e-12,-1.0416716e-15,1.685882e-15,1.1956949e-11,-2.7579872e-11,-1.9936805e-10,2.639326e-10,-0.003130253,-0.0014517127,0.00015404017,0.010277555,-0.004371871,0.0034778356,-0.0017247023,-0.00049527804,0.009664299,6.344007e-39,1.950543e-39,-2.9373e-40,9.96451e-40,-2.402647e-39,-1.973046e-39,-1.917894e-39,-5.59026e-40,8.72474e-40,0.013302365,0.016695416,0.00933803,0.010605977,0.0038965435,0.00012436423,0.012174867,0.0030670643,-0.0040228753,-1.5667107e-35,-1.764326e-39,-4.5144052e-38,6.5822084e-27,-1.3886304e-18,2.0394419e-32,8.757519e-22,-5.9438974e-27,2.4333484e-33,3.219755e-39,1.41169185e-33,1.506662e-39,2.4835396e-24,-4.683447e-37,7.67406e-40,-1.2198704e-28,4.626008e-35,2.3968065e-32,-2.2702815e-38,1.0734134e-35,-1.6590908e-24,-2.7131985e-32,-2.806753e-39,1.0968255e-37,2.5348117e-28,1.1262682e-34,-2.7657975e-30,3.304071e-39,1.0392348e-32,-2.626165e-39,3.83791e-39,-5.0988867e-30,-1.678945e-39,-1.010616e-39,-5.742769e-39,3.536e-41,-0.028201042,-0.049551267,0.0029145228,-0.042954937,-0.026536986,0.015109122,-0.04750118,-0.025094084,-0.020953411,3.215761e-20,2.7905156e-23,9.8019804e-20,-1.0591994e-24,-2.4288276e-17,2.7021535e-22,1.929664e-21,2.0312021e-19,3.5648545e-25,-5.6640203e-25,-2.2115269e-23,3.3042412e-22,-1.0066789e-30,-1.3481266e-22,-1.6227316e-18,-4.832341e-21,-7.6274083e-16,1.5374915e-17,-2.0839281e-18,2.962246e-13,-7.864146e-11,1.0919742e-18,-3.1596617e-13,9.207865e-19,-1.101351e-22,4.978768e-26,1.9574344e-20
-2.2814884e-30,1.2408792e-27,6.802336e-24,6.695692e-21,4.281889e-20,4.6053502e-17,5.7874314e-15,8.563249e-15,2.2750695e-14,1.8207426e-14,3.7985064e-13,-9.987959e-13,-7.946693e-11,4.5812198e-11,1.0034462e-14,1.086414e-09,1.633988e-09,2.2383146e-11,-2.603966e-39,-1.16429e-39,-3.092163e-39,4.60698e-40,-4.979487e-39,-3.264731e-39,-1.341286e-39,-9.58575e-40,-2.174882e-39,-6.352576e-39,1.451707e-39,-1.010384e-39,-1.921484e-39,-1.024564e-39,-4.695519e-39,-3.3657e-40,3.877977e-39,5.938529e-39,2.9103992e-35,-6.4760074e-36,8.404472e-36,1.6035999e-36,-7.12199e-40,2.1729152e-36,-3.062481e-36,3.801971e-36,-5.131779e-36,-1.6636948e-24,-8.009982e-20,9.331492e-20,-6.8281125e-26,-5.5205743e-21,-1.5273365e-25,7.5862455e-18,1.13573444e-13,-5.0449554e-19,-5.411239e-39,4.931008e-39,1.392515e-39,-1.81746e-40,3.498747e-39,3.249303e-39,-1.924154e-39,6.6569e-41,5.87859e-40,4.564204e-08,2.722478e-09,8.368822e-09,6.689109e-07,1.6867004e-07,6.348971e-07,1.5950252e-05,1.2315747e-05,1.3494491e-05,4.738163e-32,-2.3939783e-29,-9.0489614e-29,-8.315996e-25,-4.308895e-26,-5.0065628e-21,-2.9866356e-19,-1.2946208e-20,-1.5087568e-17,0.016106237,0.014456198,0.0071837013,0.016926955,0.013885018,0.0076127173,0.027253946,0.02489516,0.008499753,3.803125e-05,0.00011646319,5.0081177e-05,7.683409e-05,7.8866586e-05,0.000113475755,0.00010782808,0.00015113282,5.5928187e-05,1.2311083e-37,-1.0783921e-38,-8.182154e-34,1.0572535e-37,-3.1483795e-36,2.2713548e-36,-7.953222e-26,-1.8725032e-25,-5.5572226e-34,2.3897242e-33,3.224251e-33,-1.3660791e-33,2.976234e-20,-4.9822442e-30,3.6081763e-30,3.0436982e-19,4.571131e-17,7.8339366e-23,0.0041042184,0.0036737265,0.0036028335,0.00617216,0.0064970814,0.006171689,0.016784353,0.015417027,0.0019596154,3.0346652e-09,2.362157e-09,1.0953231e-10,-7.085987e-09,-3.3762756e-08,-1.3431786e-08,-1.9808248e-09,-2.7741276e-09,-6.6169767e-09,-0.0016129456,-0.0014566594,0.00017892089,-0.0008141086,0.00020719506,0.00078032655,0.0004992537,0.0008431513,0.00049772195,3.589799e-39,9.1884e-40,3.8158e-40,-6.001491e-39,-2.6521e-41,3.347205e-39,2.877614e-39,1.76448e-39,-3.63478e-39,0.0011171026,0.0009306436,0.00046529114,0.0012918594,0.0012619519,0.0009840841,0.00299407,0.002767619,0.0012615805,2.682012e-39,-8.766515e-38,8.23473e-40,5.156712e-39,2.195128e-39,4.196483e-39,-1.723202e-39,1.854642e-39,2.04148e-40,-3.0625724e-33,3.9907167e-35,-4.9226167e-37,-6.665293e-28,8.843866e-31,-2.543507e-38,3.4106288e-35,4.155453e-39,-2.295533e-39,-3.7247247e-36,-3.448729e-30,-2.7661453e-31,-3.835482e-30,3.9934284e-29,7.1402326e-28,1.691868e-38,-1.844084e-39,-5.229059e-39,1.302499e-39,1.446258e-39,-2.94829e-39,2.04547e-39,1.410462e-39,-4.28027e-40,-4.46357e-39,9.57241e-40,6.99853e-40,-1.553355e-39,6.031552e-37,1.190804e-39,-1.260181e-39,-2.579898e-39,-5.04763e-40,-1.22482e-40,-6.495879e-39,6.049627e-39,0.008783587,0.007558718,0.004903209,0.0072382125,0.008368818,0.0044012135,0.0094372565,0.010764158,0.0041991724,3.249475e-39,4.688128e-39,8.82329e-40,3.55307e-39,-2.515442e-37,1.0652538e-33,1.823505e-39,-1.809806e-39,1.477903e-39,-2.324663e-32,-3.3455796e-23,-1.5917994e-26,6.5535963e-28,2.1714125e-23,4.1953793e-20,3.464931e-20,9.889136e-18,-1.0284589e-16,-4.550898e-39,-6.84026e-40,1.10726e-39,1.09184e-40,-1.916641e-39,-6.66137e-40,-5.756178e-39,8.56164e-40,-2.1216635e-34,-1.8704e-40,-2.14721e-40,1.600549e-39,-7.60172e-40,3.427802e-39,-5.579182e-39,6.233331e-39,1.043967e-39,1.249218e-39,2.6767175e-05,8.311054e-06,9.86084e-07,8.958966e-05,6.5563196e-05,5.2292173e-05,0.0006024211,0.0004064155,0.00024557958,1.6068865e-23,2.748233e-23,3.5961925e-23,-1.5098605e-23,-1.9554632e-21,-1.8870069e-29,8.743423e-32,1.4361658e-24,2.7195169e-30,4.0890674e-17,-6.0429155e-11,1.7102749e-15,7.807347e-17,-5.1738816e-13,2.974954e-20,8.771904e-16,7.0096513e-16,2.8011912e-20,-7.472e-41,6.23424e-37,6.988787e-39,7.13599e-38,6.402886e-32,-1.1861064e-32,2.3842943e-29,5.87572e-26,1.7548769e-34,4.8348e-40,1.457932e-39,4.6739e-41,-1.669804e-39,-1.626498e-39,-1.586372e-39,2.100743e-39,1.535862e-39,-1.78209e-39,1.4276941e-16,5.7386323e-17,-2.2314095e-17,-1.11793767e-13,-7.701511e-15,5.5761275e-16,-7.577583e-13,1.6248827e-13,-1.7936275e-14,-6.438529e-10,-1.324853e-10,-2.5567276e-10,-1.7237307e-08,-2.8027263e-09,-1.2900054e-09,-6.9887767e-09,-4.438651e-10,4.295522e-11,1.010468e-21,1.2972325e-24,9.370381e-20,5.9466774e-22,8.388214e-18,6.8102334e-15,5.213755e-13,3.523477e-11,7.3652605e-11,1.7820155e-11,5.5202953e-11,-1.5865025e-09,-8.9545876e-10,-1.1645593e-10,1.3139063e-09,1.88669e-08,6.1375887e-09,3.0878986e-09,3.476902e-39,4.924597e-39,2.114349e-39,5.354852e-39,2.522646e-39,2.836175e-39,4.35406e-40,3.010589e-39,-2.536503e-39,-2.1087378e-10,-3.206342e-10,-2.419621e-10,-2.9193844e-12,-3.9637126e-12,-1.9556958e-12,-9.182816e-18,1.9281478e-19,-1.9093678e-17,4.1849892e-14,1.503461e-11,4.3038384e-14,1.1361076e-12,9.96101e-13,1.0873749e-13,-1.755649e-14,2.0079732e-13,5.046885e-13,0.0037121936,0.0032406703,0.0023962054,0.0020458142,0.0033134276,0.0029141,0.0043483526,0.009285951,0.0044082315,0.0072110128,0.025660878,-0.0024608134,0.030877924,0.052500922,0.031625465,0.025365124,0.028028348,0.009464543,7.51787e-40,2.836754e-39,1.492041e-39,-4.35336e-40,1.436e-40,-5.74947e-40,1.926058e-39,2.517197e-39,-3.789541e-39,-0.008778135,0.0010873178,0.004547698,-0.01138321,-0.0004145275,0.00016005272,-0.0050569763,0.0018785232,0.0020003405,-3.600323e-17,-5.6990645e-19,9.558319e-24,1.0537095e-20,-1.1093099e-18,1.8463629e-22,-8.338522e-24,2.044741e-27,1.6856103e-34,-0.0004844083,-0.0005901546,-9.099386e-05,-0.0003668235,-0.00038115683,-0.00017560866,2.1847549e-05,0.00050144887,0.00017176053,1.114074e-39,3.903757e-39,4.48798e-39,-3.313069e-39,1.410927e-39,2.1447e-41,2.165257e-39,-5.267293e-39,-8.78443e-40,2.179287e-39,-2.51845e-38,-7.57032e-40,-5.416517e-26,-1.0492164e-30,-2.092329e-39,-2.626745e-39,-5.056363e-32,-3.445412e-39,6.6611305e-05,5.234736e-05,1.8531975e-05,0.00021497345,0.0001573752,1.07084425e-07,0.00076872273,0.0002600473,-6.797203e-06,1.096337e-39,1.768027e-39,1.52915e-40,-8.25543e-40,1.151558e-39,-7.17051e-40,-2.91174e-40,7.66058e-40,4.385635e-39,-1.258587e-39,2.005756e-39,2.678721e-39,-1.058077e-39,-2.87995e-40,6.394004e-39,-6.470713e-39,-3.40126e-39,-2.047256e-39,-2.789079e-39,3.467123e-39,1.46943e-40,-3.358509e-39,2.858164e-39,-8.09602e-40,-1.77061e-40,-2.095973e-39,-2.40385e-39,1.1621443e-19,9.2235013e-20,7.540383e-19,1.2235426e-18,1.2227914e-14,4.757349e-14,2.3657753e-12,2.5714986e-10,1.9667669e-10,-0.00049785385,-0.00027013634,0.00021835048,-0.00029551995,0.00027464287,0.0004697725,-0.00019374413,0.0024585994,0.0006906395,1.659066e-39,2.827164e-39,2.040602e-39,-1.747062e-39,-2.957756e-39,1.19214e-40,-2.06182e-39,1.450394e-39,2.91598e-40,0.004267865,0.003262429,0.0037763314,0.002699779,0.0030995947,0.0020418076,0.0050754086,0.006330942,0.0032272004,-1.557012e-39,-3.12314e-39,-5.467669e-39,7.3965e-40,-1.3666737e-30,-5.548761e-39,8.838462e-30,-8.58134e-40,-1.59149e-39,-4.917416e-39,2.469037e-39,-6.216349e-39,1.651392e-39,-1.929992e-39,1.082832e-39,1.9934521e-36,-5.609647e-39,2.951265e-39,-6.0736e-39,2.04067e-40,1.28768e-40,-1.173411e-39,-3.1848624e-37,9.985857e-31,3.1587987e-32,-1.1207324e-37,1.416756e-39,1.259987e-39,1.58173e-40,-2.80452e-40,-4.166349e-38,1.144595e-39,7.69907e-40,5.731747e-39,3.095297e-39,1.70856e-39,0.02082226,0.023499716,0.0112527525,0.02808862,0.028236983,0.02098118,0.033161175,0.023626562,0.005113991,4.6062498e-35,5.065446e-30,-1.399341e-39,1.992571e-25,1.944727e-30,-9.56186e-40,1.1024872e-24,8.804636e-25,1.639963e-39,2.466786e-39,-1.0434052e-38,-1.210412e-39,-4.926719e-36,-1.4172329e-22,9.468306e-39,-4.1775876e-26,2.1681245e-22,2.0914784e-36,-3.5986528e-26,1.7889627e-17,2.2945919e-23,-7.8899643e-17,6.869876e-17,3.0052957e-28,-2.4793888e-24,1.068993e-35,1.934403e-39
1.8434317e-30,-1.3004244e-33,5.3232467e-33,8.8251535e-37,-8.00197e-40,1.2278793e-31,7.72256e-40,-6.7192663e-35,4.3972492e-33,-9.664479e-11,-2.577002e-10,5.009736e-10,3.6495537e-12,-2.8184746e-10,5.1510934e-10,1.02268645e-11,7.878721e-13,2.1288782e-09,-1.554022e-39,-1.26345e-39,-1.215772e-39,1.810202e-39,-6.68443e-40,8.59838e-40,2.513868e-39,-2.215121e-39,-9.66745e-40,2.884119e-39,1.324883e-39,-1.504769e-39,4.96665e-39,1.698817e-39,3.184262e-39,6.65152e-40,-3.808066e-39,-1.560501e-39,-3.1066944e-35,-2.595766e-35,2.8150963e-35,-2.7610039e-36,-2.290452e-39,5.8197933e-35,-2.3655284e-35,-2.2046514e-35,7.164562e-35,-9.031491e-11,-1.4064619e-14,-2.3763723e-20,-9.30924e-13,-1.9889162e-14,1.4461735e-18,-1.6481306e-13,-9.682783e-16,-8.221847e-23,5.851792e-39,1.467913e-39,1.032735e-39,6.78558e-40,-1.828269e-39,-4.122871e-39,-2.541436e-39,-5.895851e-39,-6.194527e-39,-3.714702e-08,6.1725686e-10,-2.3154123e-09,5.794219e-09,5.7823926e-11,-3.8208461e-10,-4.0830375e-10,1.4819498e-10,-8.949728e-11,-1.39831e-39,4.87423e-39,3.841129e-39,3.268918e-39,5.985173e-39,4.275942e-39,-4.02572e-40,3.356467e-39,-1.933971e-39,0.015616022,0.017370667,0.007924271,0.03759195,0.012024251,0.0061158175,0.015288743,-0.007918273,0.0040338654,-0.00013166241,0.00027359586,0.00036727707,8.504753e-05,-9.264447e-05,0.0009022188,3.8139693e-05,0.00017262703,0.00020634354,-1.205988e-39,1.1676455e-26,-3.679125e-18,6.122042e-36,-5.8639533e-36,1.9916315e-18,5.6383155e-26,-1.10467254e-35,-7.0213944e-18,2.844986e-39,1.3192265e-34,-6.9575586e-33,-4.077375e-39,-7.113287e-33,-7.04883e-40,-1.6110661e-38,-2.484909e-39,5.3715016e-38,-0.0073138527,-0.0034749338,-0.007879021,0.005679164,-0.0014211404,-0.010226438,-0.01455764,-0.010670237,-0.015555419,-6.4253403e-21,1.6428507e-19,-5.3555974e-19,7.0011196e-22,2.7594246e-21,-8.5741785e-26,7.554533e-26,-3.8163488e-25,2.1640399e-20,-0.00044439457,-0.00030354311,-0.0010976633,-0.0018383298,-0.00068752415,-0.0027685177,-0.004345594,-0.001535618,-0.0012985491,1.877825e-39,1.384945e-39,-1.43909e-40,-4.542605e-39,-6.015082e-39,1.482e-40,2.352542e-39,-6.40877e-40,2.747646e-39,0.0015964155,0.0015992258,0.0016536784,0.0026737007,0.002456943,0.0022961674,0.0026213927,0.0025684356,0.0018937276,-6.848602e-39,-2.635118e-39,1.404038e-39,-2.37631e-39,2.095502e-39,1.946332e-39,-3.176343e-39,5.0038e-40,3.237738e-39,-3.863464e-39,-5.89122e-39,4.384841e-39,1.534349e-39,4.318506e-39,1.911276e-39,2.816771e-39,8.20109e-40,-1.471979e-39,-3.144778e-16,-1.5949722e-12,-1.18793686e-14,-1.2465048e-24,-1.125167e-12,-4.0373438e-21,-8.574966e-23,-1.1408203e-22,-9.2475497e-38,1.114165e-39,-1.932477e-39,-2.610084e-39,-2.11194e-40,-1.229173e-39,-9.3518e-40,1.48306e-39,2.127237e-39,-1.2421e-41,-1.494971e-39,-1.934225e-39,1.765766e-39,-1.071654e-39,-1.638917e-39,1.261393e-39,5.44032e-40,-2.57582e-40,-4.480355e-39,0.006835812,0.004552252,0.0027875246,0.017076284,0.008236145,0.00062853744,0.008907744,0.002065654,0.0015243595,4.376555e-39,5.591442e-39,-3.065026e-39,2.342472e-39,1.340694e-39,8.20885e-40,-2.384812e-39,1.767742e-39,-4.152164e-39,-2.6795519e-36,-1.0240364e-36,3.7771987e-32,4.28561e-39,-2.41833e-40,2.77771e-40,-1.729903e-39,-4.29829e-39,1.450683e-39,-1.450574e-39,-7.29781e-40,-2.329674e-39,-1.096192e-39,1.254276e-39,-7.25166e-40,1.934687e-39,-1.534163e-39,-4.896092e-39,1.183587e-39,-4.185171e-39,4.326868e-39,1.65719e-40,-1.802426e-39,1.189474e-39,-1.62514e-39,1.0272e-40,4.462974e-39,4.943809e-06,-1.4815118e-05,-1.7615484e-05,6.931719e-07,-1.892015e-05,-1.7423901e-05,1.1284759e-06,5.937563e-06,8.724969e-07,1.64493e-39,-6.233249e-39,4.91107e-40,-2.890747e-39,1.847438e-39,-5.35045e-40,-3.491506e-39,3.50561e-40,-1.475713e-39,4.575459e-35,-6.646083e-39,-2.818666e-39,-1.1360277e-28,-2.7968007e-35,2.3732845e-34,3.2555878e-37,-1.3503034e-37,-1.332636e-37,-3.33682e-39,-2.934609e-39,-2.379042e-39,3.24824e-40,-6.58778e-40,2.655465e-39,6.214421e-39,1.383094e-39,1.538928e-39,6.694137e-39,1.08424e-40,-1.451308e-39,-7.31687e-40,-3.84578e-39,9.0029e-40,6.481534e-39,5.948372e-39,6.147638e-39,-3.3978045e-10,1.1397431e-12,1.1681608e-10,1.1249524e-13,-3.747515e-14,-1.2086796e-13,-8.649993e-15,1.4983393e-14,1.1086773e-17,-1.21824195e-08,5.0304875e-11,-1.245342e-09,6.634478e-11,-3.3716246e-10,-1.0771823e-09,2.0010033e-15,3.3066866e-10,-3.633661e-13,4.111846e-21,-3.0316929e-21,4.811739e-21,2.8826627e-25,-4.7367363e-31,3.0274937e-24,-1.8264238e-31,3.1910396e-29,-7.029069e-23,-3.5020586e-10,-2.2467219e-11,4.381592e-10,1.2654723e-12,-3.6111426e-11,-7.676415e-10,5.2167174e-13,-1.11367695e-11,-7.6023313e-13,-5.029215e-39,2.513788e-39,-5.131024e-39,2.887513e-39,3.737787e-39,1.4775e-39,-1.564513e-39,-3.822884e-39,-5.56495e-40,-2.87678e-40,-3.759915e-39,2.03601e-39,2.445248e-39,1.988696e-39,7.19427e-40,-6.776e-41,-1.55178e-39,-3.020883e-39,-3.077392e-13,-3.2142544e-12,-3.7013574e-18,7.783994e-15,-5.946191e-15,-4.0014946e-16,-6.2792895e-09,-1.486879e-14,-1.7268694e-14,0.011819137,0.0069418717,0.00017358159,0.018069215,0.007658523,0.0035707045,0.0060233856,0.0013560777,0.00010429439,-0.043765754,-0.018250521,-0.022508405,-0.013254517,-0.033027604,-0.04403607,-0.06563126,-0.05420625,-0.04812694,6.905284e-39,-5.11939e-40,-3.759567e-39,-1.106107e-39,4.481309e-39,5.878153e-39,1.6473e-39,-6.308857e-39,3.343449e-39,-0.0038270415,-0.009774213,-0.009575711,-0.021619601,-0.011333381,-0.015300664,-0.020346254,-0.010384871,-0.010681075,6.03259e-40,-1.234346e-39,-3.485043e-39,-4.6151997e-36,-1.60312e-39,-4.043364e-39,-5.816256e-39,-3.778652e-39,-2.224449e-39,0.00055641506,-0.0001568099,0.00036753202,0.0013268894,-0.00068242016,0.00064464065,0.00067704916,0.00021981186,0.00035926182,-6.281697e-39,3.035668e-39,-3.692447e-39,-3.868429e-39,-4.767002e-39,-5.23287e-39,-1.114552e-39,-2.305764e-39,6.924476e-39,1.759106e-39,3.780929e-39,4.225868e-39,5.07604e-40,-5.084003e-39,-3.273666e-39,4.907742e-39,4.094113e-39,-3.109857e-39,-0.00024500772,2.4233268e-05,-1.6783146e-05,-5.054407e-05,0.00015664373,-3.390479e-05,-0.00010635855,0.00024673442,-1.8655095e-05,-5.265551e-39,5.069051e-39,-1.679773e-39,3.02054e-39,-3.866918e-39,1.51322e-40,-1.60125e-39,3.21564e-39,-3.276575e-39,4.47372e-40,-1.377315e-39,3.63577e-40,-2.296546e-39,-2.9359e-40,1.174138e-39,4.357686e-39,-4.083612e-39,-4.533569e-39,-1.13673e-40,-2.408915e-39,1.420069e-39,-2.203437e-39,3.1005e-40,1.96411e-39,-2.6016e-40,-3.819906e-39,1.548428e-39,1.2999504e-18,-1.5358441e-19,-5.9416894e-20,-2.906336e-25,-3.759965e-26,7.2261465e-24,-6.5372504e-25,2.3806543e-26,1.2910386e-23,-0.0010566186,-0.0010488173,-0.0015947381,-0.0022639772,-0.000798034,0.00011051079,-0.002889729,-3.6394755e-05,0.0027907414,9.29798e-40,-8.26822e-40,3.629018e-39,2.89507e-40,-4.6259e-40,-4.410955e-39,-2.47627e-39,-9.0141e-41,-9.039e-41,0.008896548,0.001848325,-0.0016676413,0.014920253,0.0060094064,0.0022818672,0.0072980314,-0.0005964425,0.0013239044,1.892448e-39,-1.874178e-39,-6.38502e-40,1.27392e-40,1.34966e-40,-1.82779e-39,1.526139e-39,-7.71119e-40,-4.504484e-39,-2.21887e-39,-1.76656e-39,3.04616e-40,3.25539e-39,-2.09712e-39,-1.015358e-39,5.44666e-40,-1.727881e-39,3.73013e-39,1.378466e-39,4.016372e-39,-2.5948e-40,-2.905179e-39,-6.661584e-39,-1.464204e-39,-3.208737e-39,7.054682e-39,5.274549e-39,-7.42144e-40,1.423417e-39,-4.61128e-40,-9.99166e-40,-1.75895e-39,-4.35885e-40,-3.482413e-39,-4.131545e-39,-5.009213e-39,-0.024891734,-0.011569766,-0.020530706,-0.0220678,-0.030113341,-0.029342744,-0.030169543,-0.034315523,-0.038729753,-8.245986e-30,2.9158e-40,2.1963132e-37,1.2021294e-35,3.638368e-39,-1.7696377e-35,2.324812e-39,1.261885e-39,-7.78609e-40,1.921752e-39,2.0173e-39,1.231405e-39,1.81518e-39,-1.303886e-39,-5.69809e-40,3.8298418e-33,-2.11136e-39,-4.182042e-39,-4.585531e-34,-2.299613e-39,4.193692e-37,5.764168e-39,1.452316e-39,1.729092e-39,-5.27675e-39,-3.7087e-40,2.158892e-39
-9.8230695e-17,-1.6699895e-17,-7.057383e-16,-5.9383045e-17,-4.504344e-17,-1.3772361e-13,-4.1387744e-14,-5.770241e-14,-1.5205073e-11,3.9670853e-10,-3.463669e-08,-2.9140492e-07,-5.8378644e-09,-2.6600944e-06,-4.8325237e-06,-1.16969915e-07,-1.3374936e-06,-3.3734446e-05,2.69152e-39,2.258334e-39,1.8376e-40,2.997122e-39,5.825681e-39,2.999093e-39,-3.463037e-39,-1.734145e-39,1.69406e-40,2.571932e-39,1.322271e-39,-1.163003e-39,1.975291e-39,3.87449e-40,-1.169479e-39,2.653768e-39,-2.264535e-39,-1.23927e-39,-4.478884e-36,-1.5390065e-35,1.597799e-35,1.3172208e-35,-1.948073e-39,3.265799e-35,9.6063416e-36,1.3223782e-36,2.8044724e-35,-6.9404122e-12,6.364357e-08,-2.023306e-11,-9.763466e-08,9.885575e-10,1.455874e-11,2.821336e-10,2.866135e-11,3.835226e-08,1.000988e-39,1.873065e-39,-9.43697e-40,6.09161e-39,2.77147e-39,4.051326e-39,-2.67267e-39,-2.440117e-39,2.374888e-39,1.51938275e-05,-5.091053e-06,1.0578713e-06,1.5845322e-05,-6.1450805e-07,-1.975805e-05,1.2769973e-05,-2.1159701e-06,-0.0001212863,9.701348e-14,-7.0847072e-15,-1.7804576e-17,-5.2020163e-14,-2.8284277e-15,-5.5351946e-16,-8.5452765e-16,-8.26285e-15,-2.6721556e-13,-0.002031142,-0.038569696,-0.029300826,0.032517683,-0.01569462,-0.02719133,0.032000024,0.015456729,-0.039962117,-0.00015071439,-0.00013091788,0.0004910109,-0.00018373548,-0.00045849817,-0.00028649025,-0.00036705626,-0.00033967593,0.0002159288,-2.442705e-14,-5.2599963e-14,-3.0217534e-14,-5.7763403e-12,2.4192679e-13,-4.5220555e-12,-2.3207814e-11,-1.6464564e-13,-1.8377991e-10,-2.0638782e-22,-6.7346494e-38,-4.475819e-29,5.4638258e-24,-1.6602894e-23,-5.416919e-23,3.1519813e-24,-1.683552e-16,-4.42448e-25,-0.00085724064,-0.024848757,-0.018010974,0.017337857,-0.017787933,-0.010783736,0.0031400083,-0.01153739,-0.0151230795,-1.4904415e-11,-9.8887586e-11,-3.103359e-10,6.9208486e-11,-1.1803639e-09,-1.0469119e-09,6.4797356e-14,-2.6357822e-11,5.8241845e-13,0.0015033311,0.00025726153,-0.0010560466,-0.0008845226,0.0002124884,-0.0016545985,-0.0012554311,-0.0067231744,-0.006045896,-6.829022e-39,-2.984323e-39,2.030756e-39,-2.270139e-39,-3.699118e-39,-2.99075e-40,-1.479135e-39,-2.641047e-39,1.3342e-39,0.0005777319,-0.0032664542,-0.004741698,0.0020990896,-0.0024701187,-0.0053840186,0.0007448062,-0.000923167,-0.0036569939,-4.708329e-39,-8.0971995e-32,-3.19556e-39,-2.39027e-39,-4.9553505e-36,-2.182906e-39,-4.733289e-39,-1.651369e-39,-1.825508e-39,9.56828e-40,6.4244067e-31,1.3039919e-27,-2.65314e-37,2.8550037e-37,1.0990345e-27,3.7400496e-27,2.682632e-39,1.515661e-24,-3.4956774e-19,4.7002654e-14,1.9787201e-11,3.4711524e-13,9.996873e-13,5.8232725e-09,4.6332067e-15,4.7896388e-11,9.3949744e-11,1.377865e-39,2.50855e-40,-5.838919e-39,-4.415653e-39,2.306605e-39,2.21405e-39,-3.301732e-39,6.401657e-39,-4.867273e-39,5.50579e-40,7.8396e-40,4.394656e-39,5.97133e-39,3.142766e-39,4.002128e-39,4.035943e-39,3.618423e-39,6.34899e-39,0.002693576,-0.018258663,-0.021977678,0.01828127,-0.012516932,-0.009152466,0.021214321,0.004624238,-0.0072263745,-6.8242e-41,-2.6360106e-38,-3.0431172e-26,-6.66757e-40,-1.2813831e-26,-1.208819e-37,-3.033448e-39,-6.380144e-39,4.45337e-39,5.244172e-16,-1.467202e-18,3.4547506e-17,2.1732679e-16,6.1264596e-20,6.9812805e-16,-6.4829007e-18,1.4620924e-17,4.3958476e-14,4.595607e-39,2.506605e-39,-2.15049e-39,-7.9633e-41,-1.95524e-39,-4.458514e-39,1.616689e-39,2.628198e-39,7.3847e-41,1.539933e-39,-5.15447e-40,-2.690223e-39,-7.15773e-40,-5.586387e-39,-6.928311e-39,6.80316e-40,-2.737956e-39,-2.297289e-39,-0.00016211432,-0.0009455505,-0.0016431061,0.00013143633,-0.0006451234,-0.0023826815,1.6613965e-05,-0.0003051422,-0.0023571162,-5.5516247e-34,-5.43556e-20,1.8071753e-19,3.1919637e-25,-3.0912965e-21,-2.522759e-25,1.1146923e-25,5.391732e-26,-7.971817e-25,-2.1152039e-14,-2.5665714e-13,-1.8827943e-14,-4.00526e-14,-5.0914918e-15,1.09951693e-13,-2.4454876e-12,-1.9844724e-15,-3.0707454e-16,4.519115e-39,-3.227129e-36,4.51085e-39,2.5454017e-32,7.6026523e-28,2.4590394e-33,6.114966e-31,5.2889372e-23,-6.8440454e-29,-1.501875e-39,1.193581e-39,-1.89786e-40,2.051195e-39,1.598761e-39,4.456056e-39,4.556875e-39,1.49744e-39,-1.739164e-39,-3.609979e-08,-5.8003785e-08,-1.0877743e-08,-2.3839815e-09,-4.422826e-09,-1.4299766e-07,-1.7768127e-08,1.8135388e-08,1.8434167e-07,5.585371e-10,-1.4928743e-06,-1.4673918e-09,1.2220057e-08,-4.7671324e-07,8.932878e-09,-4.3275303e-08,-1.1606689e-09,1.8661731e-07,-7.553149e-10,-3.9240368e-11,-3.464721e-11,-2.91427e-10,-2.8813369e-12,-1.6189298e-11,-1.8882132e-11,-3.9834663e-12,-1.514254e-09,-2.4411276e-10,-1.1775626e-09,-1.4421654e-09,9.0077606e-10,-5.162275e-10,1.3590108e-09,3.150471e-08,2.9966614e-08,2.758298e-07,-1.110629e-39,4.09999e-40,-2.61019e-39,-4.463755e-39,-8.96744e-40,-3.125008e-39,-6.09865e-39,-2.458689e-39,-3.954766e-39,-4.9575593e-33,6.883103e-19,3.0094677e-17,-8.261723e-31,4.258873e-21,4.1902863e-16,-1.6762928e-23,2.9740039e-27,1.09718246e-17,5.1416155e-10,-3.0212606e-09,-7.075798e-09,1.6775924e-10,1.7599119e-08,-3.3198905e-10,2.417139e-12,6.6334464e-06,-6.474159e-11,0.0025346994,-0.011441946,-0.014669722,0.021991871,-0.004162547,-0.024722347,0.015527691,0.007968051,-0.014749105,-0.01772151,-0.090438634,-0.08306228,0.036720663,-0.040195704,-0.012812755,0.03459099,-0.054746762,-0.024686651,-5.102534e-39,2.578088e-39,-2.5258e-41,3.798229e-39,5.257124e-39,3.0026e-39,-4.603911e-39,-2.145391e-39,9.87808e-40,-0.0072270306,-0.002959935,0.00062379683,-0.023450779,-0.0120724365,-0.005509175,-0.003253944,-0.0038734674,-0.036983963,1.0426148e-22,1.2884641e-29,-2.7060428e-26,3.0395437e-19,5.411381e-16,5.180357e-39,-5.1776156e-24,-1.959546e-26,-1.49212e-40,-0.0020467122,-0.0036981213,-0.0016482875,-0.0002640041,-0.0015978367,-0.000317213,0.0011942774,0.0010663997,0.0020392276,-1.621078e-39,1.44949e-39,9.13998e-40,-4.061669e-39,2.306949e-39,-2.900728e-39,-9.16592e-40,2.55193e-39,-9.80689e-40,8.636e-42,1.202365e-39,-9.58043e-40,-8.11e-43,3.7579792e-38,-2.796406e-39,1.372122e-39,-1.728715e-39,-1.371486e-39,-0.0014742452,-0.0013172622,-0.0016649223,0.0003379039,-0.00047426196,-0.0010252718,0.001686496,0.0006750121,-0.00033781215,-6.20692e-39,3.72151e-39,-8.51971e-40,-8.79189e-40,4.71265e-40,8.26008e-40,-2.09921e-39,1.340608e-39,1.891208e-39,-6.095811e-39,-2.230595e-39,-1.879555e-39,-2.22881e-39,2.478475e-39,-1.283587e-39,-3.580573e-39,-3.957554e-39,2.576687e-39,-2.421285e-39,-2.507362e-39,-2.54437e-39,-1.370592e-39,-6.476256e-39,-2.377198e-39,-6.385014e-39,-4.150942e-39,-5.60655e-40,-1.7886143e-09,-4.728612e-10,-2.356799e-10,3.1800673e-12,-7.666489e-12,-2.6998473e-11,1.4412795e-11,6.8739454e-12,-2.0377666e-09,0.0015719874,0.010372765,0.0049343933,0.00412026,0.022937132,0.004890635,0.0048854244,0.015180162,0.008361125,-2.19896e-40,-1.152324e-39,-2.15859e-40,1.415611e-39,5.02661e-40,-4.10216e-40,-2.437176e-39,4.651647e-39,-4.95163e-39,-0.00014280801,-0.0056077368,-0.010420839,0.008326676,-0.0053394632,-0.018461458,0.014287905,0.0062654694,-0.004189665,-1.983436e-39,-6.85406e-40,3.255319e-39,-1.416057e-39,1.0240545e-33,-1.25876e-39,3.7690054e-34,-6.200761e-31,-4.70091e-40,4.537198e-39,-1.25248e-39,5.42883e-40,3.371339e-30,-6.92021e-40,-3.11027e-40,-1.171676e-39,-3.073294e-39,2.350989e-39,6.251003e-39,3.9494857e-35,-1.820048e-39,3.573021e-39,-5.8435e-40,-1.3340015e-32,-5.76123e-40,-5.70844e-40,-3.8639189e-28,4.5436e-41,1.917164e-39,2.998512e-39,4.75246e-40,2.58712e-40,3.1472e-39,3.5063e-41,2.300016e-39,-6.55495e-40,-0.034810107,-0.05448144,-0.03484176,0.008574133,-0.00725728,-0.030414935,-0.0086079575,-0.016031163,-0.026013987,-1.4076167e-30,1.5042758e-26,-1.577187e-33,-7.4356274e-23,7.1179154e-26,-6.900995e-30,-3.301885e-19,5.5728144e-24,-2.7384886e-34,5.0981023e-36,-2.649903e-39,2.333459e-39,-2.0067114e-30,5.9297195e-25,-1.24461e-39,1.4446404e-26,7.430289e-22,-1.115757e-39,-2.9531735e-25,-1.1653768e-15,-4.110757e-22,-2.3054573e-17,1.0041017e-20,-2.897861e-34,-1.307854e-39,4.479485e-39,1.5233855e-31
