0.007813953,-0.023019118,-0.028116798,0.033030108,-0.007896789,0.010964634,0.12800339,0.055885058,0.046053916,-0.044330936,-0.06966458,-0.061855305,0.0200075,-0.0061670123,-0.010441348,0.046487346,0.030682355,0.032644913,-0.006104849,-0.05676373,-0.034835014,-0.026516723,-0.075471304,-0.09229356,-0.0008631119,-0.046711594,-0.0541223,-0.010082903,0.01038745,0.055915438,0.027479358,0.042522483,0.06764312,0.04821911,0.04422164,0.07575669,0.037407164,0.0017882556,0.0020299524,0.12607843,0.046065122,0.024854803,0.14661455,0.071738884,0.04384371,-0.025185788,0.00018539399,0.013767627,-0.017137878,-0.012183725,0.02633428,-0.024319805,-0.0015349048,0.00072657433,0.015848042,-0.018783567,0.0017007834,0.03169431,-0.012902215,0.04144991,-0.0115987575,-0.012362109,0.020328557,0.142232,0.090971485,0.037227992,0.14153221,0.032992616,-0.033053994,0.17854223,0.03836669,-0.019918894,0.029990226,0.011909221,0.07617701,0.023722725,-0.029906293,0.00026355078,0.054603364,-0.011260416,-0.0482225,-0.037392907,-0.028992807,-0.00059891684,0.0017944763,0.04010175,0.047488127,0.0029532318,0.027576972,0.04371283,-0.0020392244,-0.01343284,-0.026974076,0.0012270889,-0.029303806,-0.03675078,-0.010232673,-0.021747746,-0.029546617,-0.07097646,-0.044066586,-0.033098068,-0.043892886,-0.04119147,-0.015102373,-0.028213194,-0.030435108,-0.008133264,-0.019738209,-0.05962525,0.02283115,-0.040176682,-0.0037942142,-0.03344513,0.04155011,0.03175065,0.0049926303,-0.02535949,-0.016850863,-0.013532466,-0.024472838,-0.020033533,-0.0023986115,-0.03135931,-0.0412334,-0.0072135315,-0.0027494933,0.0029057302,0.0045808903,-0.014836894,-0.0064686663,-0.0030266768,-0.0015736731,0.013296956,0.013472818,-0.017391456,-0.02099707,-0.025856009,-0.041097663,-0.032412875,-0.059543893,0.0029050237,-0.003473042,-0.0008141201,-0.042104635,-0.036197267,-0.018538248,-0.06405783,-0.043236133,-0.03441909,-0.041929122,-0.038540315,-0.03412346,0.03048149,0.02415793,0.07134017,0.072992906,0.032886043,0.016957803,0.0727326,0.013900399,-0.0031055731,-0.016012827,-0.032676045,-0.012042909,-0.030307768,-0.017054832,0.0073585566,-0.0024425306,-0.01606568,0.0035111557,-0.04909778,-0.042946115,-0.04436073,-0.023075227,-0.062235374,-0.03929341,-0.017174212,-0.03553731,0.013007916,-0.01826582,-0.011410136,-0.000464315,-0.0035081508,-0.0023395028,-0.0021258632,0.018806336,0.018231187,0.012177047,0.07847517,0.02039048,-0.04020517,0.07285544,-0.010802437,-0.039162777,0.07011191,0.0026730779,-0.030519629,-0.026493298,0.0044216635,-0.024230689,-0.01962019,-0.0166432,0.012304757,-0.03418602,-0.035413355,-0.047705192,-0.06288548,-0.03599324,-0.017801704,-0.0705511,-0.03898802,-0.030744027,-0.087607644,-0.0622017,-0.043218497,-0.00033136952,-0.038855225,-0.029483216,-0.008697062,-0.031738516,-0.014609924,0.015861025,-0.028326502,-0.0020799781,0.0034899877,-0.024313023,-0.02969216,-0.002138562,-0.021201137,-0.024695037,0.019030496,0.010623555,-0.016234811,-0.10196426,0.0019619472,-0.010947537,-0.057920888,-0.049083557,-0.06516469,-0.13281927,-0.03642335,-0.0300265,0.03190608,0.05779653,0.05468059,0.0040536933,0.045253687,0.019616758,0.00014449253,-0.011291558,-0.0062123192,-0.08585871,-0.04652253,-0.04699237,-0.055595078,-0.10108027,-0.042971198,-0.05351963,-0.09884132,-0.11166548,-0.02369109,-0.038549468,-0.018331187,-0.012351272,-0.0172616,-0.021515239,0.01320273,0.020319536,-0.020018227,-0.057070315,-0.046013504,-0.076020226,-0.034117155,-0.059875477,-0.07582712,-0.005624118,-0.05785078,-0.038438644,0.004594431,-0.013602964,-0.023173727,-0.027966086,-0.026743267,-0.062058777,-0.039681103,-0.06653209,-0.056229025,0.04290218,0.04563366,0.041998975,0.06512239,0.02629357,-0.026401171,0.032987945,0.03483741,0.013347542,-0.041883104,0.021014499,-0.043840837,-0.04151451,0.00674928,-0.0027848105,-0.06526864,-0.0023685452,-0.0014646072,-0.056928664,-0.04156379,-0.04517474,-0.029324152,-0.0019887115,0.021673005,-0.036505844,-0.035998035,-0.008451762,-0.073436536,0.00866067,0.00012263581,-0.047393605,-0.02178732,-0.050250754,-0.026137318,0.0034960476,0.0005894026,-0.022654409,-0.03329808,-0.023634452,-0.02424864,-0.0008457773,-0.004458624,-0.02215523,-0.05982541,-0.0034018662,-0.02183881,0.017095732,0.01580267,-0.010736504,-0.0043863356,0.008015334,-0.021056376,0.017917681,0.018043108,0.020312453,-0.009552999,-0.04145998,0.043002825,0.00461619,-0.0009982695,0.09731937,0.04611432,0.014177361,-0.06772384,-0.059413858,0.05411955,-0.07734447,-0.032182872,0.040205825,-0.015777892,-0.027090976,0.015561891,0.0048315125,-0.042766396,-0.022711864,0.02555718,-0.059683308,-0.03848996,-0.010093932,-0.025261873,-0.056675896,-0.09004844,-0.053407658,-0.04875709,-0.083091564,-0.06913057,-0.073659845,-0.018600926,-0.0415242,-0.08782934,-0.037799872,-0.042081658,-0.014451485,-0.03511073,-0.04400596,-0.07024851,0.009694128,0.10018615,0.030338319,-0.006593868,-0.009109503,-0.004545342,-0.0019953877,-0.011235928,0.0011317772,0.0016854877,-0.013957497,-0.001578073,-0.05751531,-0.043092508,-0.056623388,-0.02894497,-0.029750839,0.0017664755,0.0039740875,0.020930769,0.028210517,0.0043482073,0.042696968,0.046700817,0.036440298,0.06085711,0.036525145,0.060954187,0.0550212,0.017565615,-0.053621847,-0.004375472,0.024934206,0.0033240595,0.031585064,0.030499075,0.04505145,0.036212843,0.022473738,-0.0807466,-0.09207287,-0.08217521,-0.040118705,-0.030994313,-0.036719803,0.02919851,-0.016536498,0.042391405,-0.014338334,0.03470707,0.04258495,-0.040837493,-0.025536284,0.040541783,-0.045588374,-0.015174534,0.011151034,-0.09808048,-0.056853764,-0.02736094,-0.03643136,-0.002949924,0.01281727,-0.013804028,-0.05609373,-0.031153535,-0.037897766,0.003174834,-0.07792401,-0.05498708,-0.016114417,-0.022788815,-0.0053961845,0.020074263,-0.013047042,-0.014889173,-0.038635362,-0.03441869,-0.012161909,-0.0029032791,-0.014147498,0.013076197,-0.04120912,-0.035320032,-0.01376434,0.0028742556,0.0007922244,0.000829598,0.0040552155,-0.011472894,-0.017647805,0.0046133613,-0.0030239618,0.019909734,0.009047569,-0.021091055,0.044124458,-0.0071411333,-0.001197077,0.012543387,-0.02805175,0.012824223,0.012125897,0.000409158,-0.02226195,0.009666718,-0.012500976,-0.03389037,0.016564453,-0.0055851857,-0.02025127,0.0052347872,-0.055833448,-0.023149112,0.035843097,-0.013605522,0.0051722527,0.051374286,-0.018294683,0.01655236,-0.047047332,0.025096405,0.029646719,-0.044754386,-0.018154124,-0.030790355,-0.0054569943,-0.040935136,-0.016885903,-0.011700619,-0.05356285,-0.032212157,0.00014019437,-0.08488072,-0.047930256,0.060568087,0.0074865725,-0.003060821,-0.034365736,-0.06963874,-0.025410095,-0.049254674,-0.053425454,-0.04792145,-0.08422597,-0.055246644,-0.025876824,-0.024040036,-0.052372985,-0.06449524,0.025233855,-0.008960683,-0.08974644,0.027355654,0.022464244,-0.022877228,-0.042965323,-0.0646644,-0.008894367,-0.05063327,0.02837196,0.007949331,-0.044038948,0.022763245,0.0025217994,0.057728145,0.04411929,0.025650065,0.058910042,-0.01673924,-0.015796099,0.0385257,0.0133479545,-0.027275592,-0.017291095,0.05125179,-0.0132629685,-0.0005173239,-0.0017974734,0.03496521,-0.006231337,0.02108927,0.054798055,-4.1923224e-05,-0.009967439,-0.014073215,-0.022003427,-0.003988052,-0.010253059,0.00088972895,0.0071585285,0.004297265
-2.100343e-36,-3.982019e-34,3.3321528e-35,-5.0171216e-37,-5.4755197e-32,-1.7255651e-26,-2.1457246e-30,-9.649425e-26,-2.808781e-30,-1.1642575e-18,-2.1594569e-22,-1.602463e-22,-3.5451994e-19,-1.8447964e-24,-2.9923828e-27,-1.8930549e-29,1.4205788e-33,-9.38326e-40,4.058041e-39,2.372251e-39,1.2840716e-38,1.721819e-39,1.632901e-39,-1.7374824e-28,3.037134e-39,1.2050886e-35,1.093069e-39,-1.283526e-39,1.439618e-39,1.081828e-39,1.691646e-39,-5.18036e-40,5.941578e-39,-3.063261e-39,4.354343e-39,5.952904e-39,-8.0520454e-17,-3.4642734e-17,-4.6012464e-15,-6.018939e-17,-8.4062514e-19,-3.505511e-16,-9.367792e-17,-2.6122566e-18,-3.276567e-16,2.229109e-39,1.826113e-39,1.69265e-39,3.093932e-39,1.502356e-39,-2.05126e-39,5.467501e-39,2.441432e-39,6.2748e-40,-1.9330211e-21,-2.3059891e-21,-8.758084e-22,-9.6035335e-25,-2.4224743e-23,-3.43355e-25,-1.0814348e-30,-4.3995616e-30,8.954225e-34,5.567028e-39,3.0338962e-33,1.6837101e-34,-1.7416556e-32,-7.591015e-26,-1.8014789e-29,-1.5815558e-25,-1.2261805e-24,-7.059654e-26,-1.0355672e-26,-1.4033167e-26,-4.8876014e-22,5.130079e-35,-1.4897484e-31,-4.5007866e-21,-3.643844e-39,3.164493e-39,1.1694882e-24,-3.6792346e-15,-1.6699112e-16,-4.3927483e-17,-9.131286e-19,-9.600512e-22,-4.1567903e-22,-2.0364842e-25,-2.1607104e-36,1.958977e-39,-4.821602e-39,-3.443531e-39,-4.75127e-40,-5.624711e-39,-1.00279e-39,-2.05104e-40,-1.744167e-39,-6.47726e-40,5.69502e-40,-9.138346e-23,-6.620901e-39,1.178627e-39,3.7173978e-23,-2.492778e-39,1.022017e-39,2.2651115e-28,-1.290777e-39,-3.404637e-39,-8.4044e-41,3.809619e-39,1.569922e-39,2.515722e-39,-2.047455e-39,1.37812e-39,4.709768e-39,-5.462099e-39,-2.182023e-39,2.966584e-39,-6.22196e-40,-1.922936e-39,-6.163e-41,2.14306e-39,4.679381e-39,2.370689e-39,-3.283541e-39,-4.08001e-39,9.52513e-40,2.022511e-39,-2.754312e-39,2.584119e-39,4.381146e-39,5.516653e-39,-5.017747e-39,5.09097e-40,1.725724e-39,-9.772644e-38,-2.010872e-39,2.146568e-39,4.058141e-39,-5.866542e-39,-4.973e-41,2.922412e-39,2.120145e-39,1.798157e-39,-1.3386702e-22,5.15752e-40,-8.6222e-40,-6.0030677e-29,-5.088385e-39,2.210707e-39,4.3069955e-35,7.84431e-40,-5.29945e-39,-9.961866e-19,-9.1992275e-20,-4.905219e-19,-9.093422e-20,-7.6040996e-22,-4.4972037e-21,-2.4619178e-29,-1.1839982e-24,-2.1986507e-25,-2.625867e-39,-1.0297123e-33,-6.74204e-40,-3.9756994e-30,-1.3489673e-28,7.698431e-39,-2.2102297e-28,-3.3927077e-29,1.9130792e-35,-1.9504149e-22,-6.329634e-39,-3.149076e-39,-6.7257995e-28,1.006995e-39,6.30181e-39,-3.05641e-40,6.621994e-39,-2.074834e-39,-2.5170737e-25,-1.1444076e-36,-1.7199768e-28,-4.337586e-23,1.5126129e-34,-3.6391858e-29,-1.6960898e-23,1.6822318e-33,2.8344943e-34,-8.0987527e-25,-3.4460556e-24,-7.9094804e-28,-3.6993878e-23,-8.1518913e-19,-1.6292123e-22,-6.894973e-23,-1.8911015e-21,-1.1800266e-23,2.961367e-39,-1.794112e-39,1.662852e-39,-2.127041e-39,-1.6226818e-38,-1.123352e-39,3.234589e-39,2.491509e-39,2.544824e-39,2.1471646e-35,-5.0887637e-34,1.0273898e-33,-2.5845e-39,1.831622e-39,1.737006e-39,2.513098e-39,3.672376e-39,-5.897416e-39,6.814841e-39,-1.738136e-39,-3.479175e-39,3.014487e-39,-4.073879e-39,-2.368983e-39,-1.186873e-39,-3.573601e-39,1.256446e-39,2.5390093e-35,-1.2469416e-33,6.370373e-39,1.3356101e-33,-2.6381973e-37,8.351761e-39,3.442615e-39,6.226231e-39,-2.105472e-39,4.894182e-39,1.45968e-39,1.762532e-39,-7.1936e-41,1.70221e-40,1.067171e-39,-5.57918e-39,-1.123103e-39,2.619003e-39,-7.254817e-29,8.932974e-24,2.4752614e-16,2.389767e-26,4.11737e-21,2.2105233e-13,2.1427593e-34,-1.5466869e-31,1.20218e-14,-9.9648025e-18,2.1126325e-14,4.259348e-39,-5.1413356e-23,1.8847559e-14,-1.12167e-40,-5.6389704e-35,-7.8042407e-19,-8.13864e-40,-5.6921846e-27,-5.919004e-28,-4.8036135e-30,-1.5040831e-32,1.6738292e-35,3.959573e-39,1.70245e-40,2.6074e-41,1.0896e-39,-2.181406e-39,4.434521e-39,-4.6572143e-37,2.190395e-39,7.828e-42,-6.962855e-28,-4.964875e-39,-1.8657739e-37,-6.2695035e-38,-1.31135e-15,-2.6974024e-16,-8.09881e-16,-2.614704e-20,-2.1407192e-20,-8.142209e-19,-1.0936579e-27,-1.6277962e-25,-3.4959654e-27,-2.742801e-39,3.307374e-39,2.170858e-39,-1.222322e-39,2.310614e-39,-8.65344e-40,6.19921e-39,3.543269e-39,4.87352e-40,-6.1824804e-22,1.11841e-39,-2.393219e-39,1.636093e-20,-1.827659e-39,-1.572674e-39,2.490806e-27,-5.31783e-40,1.2773e-39,-1.5891168e-36,2.771457e-39,2.559832e-39,1.844706e-39,5.424988e-39,1.402208e-39,-2.773605e-39,2.186223e-39,-1.548084e-39,2.962573e-20,-9.456556e-29,-3.1525845e-32,1.678448e-20,2.5925103e-34,3.315621e-39,-8.2364726e-20,1.321246e-39,-3.7976315e-27,-7.427629e-26,1.3521831e-25,-4.033842e-39,-4.289433e-39,-6.5620535e-22,-7.762131e-38,-2.892346e-39,-1.7387562e-25,-2.915097e-39,1.417738e-39,2.756437e-39,6.44475e-40,4.985622e-39,-2.615196e-39,5.2038e-40,-5.06694e-39,-2.133613e-39,-3.014095e-39,6.99364e-39,3.496169e-33,3.168494e-35,5.67002e-39,-1.4864597e-36,-1.8092402e-37,3.145638e-39,6.280681e-39,-4.3538054e-36,6.86353e-40,-5.92445e-40,-4.962453e-39,1.942802e-39,2.887493e-39,3.873197e-39,-1.711193e-39,1.132281e-39,9.01055e-40,2.662834e-39,4.825314e-39,2.543763e-33,1.74227e-39,5.3357795e-30,6.680916e-39,-2.61132e-40,1.4420578e-38,-2.212715e-39,-3.7765247e-28,-2.3185e-39,2.526146e-39,-2.9727788e-27,-1.2534064e-27,-1.270834e-36,-3.5388083e-30,-4.7322437e-37,-2.886016e-39,1.846078e-39,4.497847e-39,-9.668e-41,-3.041943e-39,8.75244e-40,-2.472371e-39,-1.324206e-39,-1.228164e-39,-1.63773e-40,2.27529e-40,2.302174e-39,6.06852e-40,-5.911663e-39,2.690141e-39,1.85335e-39,-4.551747e-39,-2.159669e-39,-1.394051e-39,-6.523076e-26,-1.8610778e-30,-2.313796e-36,-6.332709e-30,6.731442e-34,-2.580875e-36,1.4702304e-34,2.105717e-39,2.8579e-40,4.178208e-39,-6.186357e-39,3.8914296e-33,2.463229e-39,7.5163703e-34,-6.5224106e-27,1.2176e-41,5.018089e-39,-8.9241844e-26,5.685312e-39,-6.29e-40,4.143987e-39,-6.283191e-39,5.67949e-39,-1.159022e-39,7.41968e-40,5.410806e-39,-1.415467e-39,5.8627166e-37,-9.396089e-32,-4.055168e-25,3.2690667e-30,-4.5239112e-35,-1.0991215e-24,-2.377898e-39,1.560664e-39,-2.6192295e-22,5.039047e-39,-2.8449907e-36,-3.632925e-38,-1.29224175e-36,-8.00303e-32,4.930056e-37,-7.087181e-26,-1.1855631e-36,1.720914e-39,2.144514e-39,-7.927812e-38,-1.659917e-39,8.18182e-40,-2.8983058e-30,-6.83576e-40,-2.771718e-39,1.6375211e-38,2.77554e-39,-1.1350271e-30,2.0804333e-36,2.0892539e-34,-3.6384072e-32,-2.506924e-39,-2.51304e-39,5.1124674e-34,-6.90476e-40,9.02948e-40,-9.509438e-21,-2.033226e-16,4.99041e-29,-2.9091394e-26,-2.3498193e-17,-9.4173426e-24,-5.327105e-39,-6.812078e-21,5.87883e-25,1.1311489e-37,3.5616147e-34,-2.351166e-39,-9.56703e-40,-1.4264024e-38,9.15898e-40,-1.87291e-39,-1.742823e-39,-2.505237e-39,9.21858e-40,-8.9663e-41,4.252679e-39,-6.360398e-39,1.145936e-39,-2.872958e-39,-2.17211e-40,2.091152e-39,1.329849e-39,2.03533e-39,-2.827745e-39,-2.090578e-39,1.684858e-39,4.733506e-39,6.548519e-39,-7.26252e-40,3.259509e-39,-1.733129e-39,2.108688e-39,5.8505786e-34,-4.2243143e-31,-1.4335632e-31,-1.282073e-29,-6.138582e-36,8.738369e-34,4.394532e-39,-3.419723e-31,-2.24285e-40,-5.668506e-39,2.60618e-39,1.8594263e-36,4.39634e-39,3.17393e-39,-5.54096e-40,-1.810342e-39,1.923102e-36,1.158504e-39,2.745927e-39,-3.467157e-39,-4.166472e-39,-2.253259e-39,-3.3908e-40,-3.488369e-39,-9.98969e-40,-1.2692e-39,5.650363e-39,4.501025e-39,1.963906e-39,1.312273e-39,2.714751e-39,7.2956e-41,1.893664e-39,-4.104567e-39,9.30929e-40,-3.367727e-27,1.8318235e-31,-4.3233482e-30,-5.167514e-39,-6.52399e-39,2.011317e-39,2.874188e-39,1.514774e-39,3.93182e-40,-2.155333e-39,2.257255e-39,1.5582852e-38,-6.361208e-39,2.345832e-39,6.290302e-35,-1.994645e-39,1.0175012e-38,9.071479e-38,-2.40199e-39,3.953813e-39,-6.019209e-39,2.9095e-39,3.551291e-39,-5.5120445e-37,2.824418e-39,2.48036e-39,-6.431375e-38,-1.250337e-39,3.32377e-40,-5.479027e-39,-1.13582e-40,3.062074e-39,1.7747e-41,1.873493e-39,-3.345261e-39,-3.728188e-39,1.581817e-39,1.333068e-39,3.60791e-40,1.5011e-40,4.6349e-40,-4.610982e-39,-1.653625e-39,8.5205e-40,2.163256e-39
3.5082905e-27,4.3291794e-21,2.0209404e-19,1.8510794e-19,-4.8948985e-20,-3.8282594e-20,-2.9929824e-20,-9.968189e-24,-5.1869334e-23,-3.6172922e-38,6.97358e-35,-7.5274e-33,-5.5624478e-37,-7.935868e-30,2.0727656e-31,-6.035352e-36,-6.266863e-39,5.0495416e-37,-2.1561346e-22,-6.8418096e-24,-4.636917e-22,-1.3596782e-26,-1.4122193e-26,-1.5160871e-21,-7.672978e-30,-2.7312636e-23,-5.787378e-23,-2.656526e-39,4.566483e-39,-1.17566e-39,3.743717e-39,6.1977e-40,2.460384e-39,1.308547e-39,-1.579367e-39,6.81624e-40,1.1479629e-10,5.1563344e-11,5.1339923e-09,1.239834e-13,3.84042e-12,5.108622e-09,5.9297147e-13,1.7622884e-12,1.7369596e-09,1.688031e-39,1.2774046e-37,-1.4462694e-28,-1.541672e-39,-3.09593e-39,6.2355397e-32,-1.6963063e-33,4.7954524e-38,-1.747111e-34,-1.808102e-39,6.422599e-39,1.92195e-40,5.634223e-39,-6.25687e-40,5.28044e-40,-2.482221e-39,6.90668e-40,-7.34966e-40,5.830881e-22,1.566174e-23,3.738103e-23,1.5232767e-23,2.13624e-24,-1.1753687e-33,-2.0025475e-24,-5.5982828e-24,4.6385583e-32,5.5310363e-28,-6.566554e-18,1.1599893e-15,2.2097718e-22,-4.1453045e-17,-5.3131114e-18,-9.293024e-23,-1.679463e-20,-2.3944573e-20,1.375784e-39,-2.404864e-39,-2.56045e-40,-2.459109e-39,1.424937e-39,-2.400396e-39,4.86253e-40,-2.755153e-39,-2.175422e-39,6.16148e-40,1.62782e-39,7.50782e-40,-6.483086e-39,-2.097152e-39,1.41961e-40,-2.8991e-41,1.982984e-39,4.748874e-39,-4.9145567e-23,-1.1776122e-21,5.862267e-21,-5.2484095e-32,-5.878221e-29,-2.30838e-21,-1.4585613e-34,-1.3905019e-26,-2.4716162e-24,-1.811348e-39,-2.552713e-39,-3.1698126e-36,-1.434769e-37,-3.560795e-39,-3.3027973e-36,4.895234e-39,-9.979517e-35,-3.51274e-39,3.815754e-39,-1.833554e-39,-3.419123e-39,2.894975e-39,-2.15458e-39,-4.507307e-39,4.623297e-39,-1.815917e-39,2.670944e-39,1.234306e-39,4.339524e-39,9.90747e-40,-2.291399e-39,2.465275e-39,-2.527395e-39,6.627812e-39,-5.264126e-39,1.933021e-39,-6.627752e-39,1.1168895e-31,-1.4182661e-33,-4.1849263e-35,6.9601444e-32,3.1435117e-32,-5.70834e-39,-1.4647576e-31,1.7810973e-33,-4.551482e-39,4.67527e-39,3.44494e-40,-1.03657e-40,2.066754e-39,4.159141e-39,3.466779e-39,5.25823e-40,-2.88227e-39,2.5395484e-19,3.9697226e-14,1.4915572e-11,-8.90394e-22,-1.1597444e-16,1.1769036e-13,-1.1740045e-22,-9.300686e-18,-2.4682508e-16,-4.452326e-21,-4.3430633e-21,-1.2818637e-21,-3.7327666e-20,-4.353526e-20,-1.7459436e-21,-2.7209672e-19,-5.14109e-21,-2.3656993e-23,-5.80688e-28,-2.1783634e-38,6.068048e-32,-5.52686e-40,4.759436e-39,7.557861e-39,5.99611e-40,-4.385893e-39,-6.27263e-40,8.056163e-17,5.46514e-20,4.572888e-15,3.9164487e-18,9.43024e-22,8.781453e-17,5.4956403e-18,2.3509316e-20,5.7547145e-18,4.9260467e-20,2.2623681e-17,6.1051327e-18,4.8161423e-19,1.8939222e-19,6.452016e-20,-2.8093853e-17,-2.928428e-22,5.600946e-22,-3.4563e-40,-5.56337e-40,-2.083794e-39,-3.557367e-39,-6.18055e-39,1.292226e-39,4.936973e-39,-5.2709e-40,-4.988433e-39,3.1642397e-25,-2.948592e-37,-2.896185e-39,4.38773e-26,4.398841e-39,1.627327e-39,-8.772901e-34,2.089784e-39,2.249556e-39,-1.326514e-39,2.794e-40,-6.1061e-39,1.138601e-39,1.740614e-39,-2.403409e-39,-3.56235e-40,-1.31306e-39,-1.712928e-39,2.35639e-28,-3.2673813e-22,-1.5343608e-24,-7.165319e-27,-3.4209565e-24,-6.0306276e-25,2.5938608e-32,-3.0510718e-29,-5.7720786e-30,9.9625e-40,-4.077319e-37,2.35351e-40,-5.250851e-38,5.431944e-35,-4.6169345e-36,4.115963e-39,3.49379e-40,-1.504444e-29,-2.4285682e-25,-4.0187626e-22,7.3256716e-23,-6.53878e-27,-3.1656738e-22,-7.982437e-21,1.3716565e-31,-1.9266896e-24,-3.3889894e-24,-1.979598e-30,-1.20322015e-20,-1.049008e-25,-2.6422736e-29,-5.2575724e-26,-6.9460685e-22,-2.9953005e-20,-2.653173e-29,-5.9907522e-27,2.373644e-39,1.42386e-39,1.109747e-39,4.197318e-39,-4.26792e-40,3.1794e-41,1.662678e-39,2.348033e-39,-1.457482e-39,5.4944465e-28,-1.1466658e-34,-4.683731e-22,6.336694e-26,5.256364e-36,-9.7570356e-23,1.9275517e-19,-1.0786023e-27,-1.8129532e-27,6.243717e-27,1.0890436e-25,4.529745e-21,-1.3324726e-31,1.3964194e-25,3.7665556e-20,-3.4939644e-31,1.097951e-24,1.6411023e-21,-2.9613825e-36,-1.911902e-39,-7.6898e-40,-1.926179e-39,1.0923845e-33,-3.30463e-39,-2.420734e-26,-2.618339e-39,3.1132816e-38,-9.08387e-24,-1.9835628e-27,-5.1021542e-23,8.1374266e-32,-1.7283648e-35,-1.2836927e-28,-4.21418e-39,-3.416293e-35,-1.0346856e-29,-8.708616e-24,-5.0423846e-35,6.011669e-36,-6.0516894e-35,1.0050844e-36,8.0045405e-33,-1.4188361e-34,-2.445228e-39,3.326405e-39,5.4985276e-31,-3.8955832e-22,-1.2122511e-18,2.9873385e-22,-3.1123393e-23,-2.6123359e-20,-1.0670415e-23,-9.516324e-23,-2.1465014e-16,1.320741e-37,6.8429283e-37,-7.173157e-32,-3.0700213e-35,-2.000758e-35,-7.000501e-25,-1.033837e-27,1.0811336e-38,-2.0308467e-37,-1.347983e-39,3.157575e-39,2.494234e-39,3.126871e-39,-1.21318e-39,1.366413e-39,-3.75607e-40,-8.52673e-40,-1.599358e-39,-3.8058284e-25,1.7731369e-27,2.5427608e-24,-7.149459e-28,5.9042396e-33,-1.8444194e-23,-2.134177e-25,-2.4028908e-25,1.331595e-28,2.413744e-39,-2.091615e-39,5.83858e-36,-1.258726e-39,-9.0677e-40,7.439721e-38,-2.718677e-39,-3.781565e-39,-3.457483e-39,-1.3322449e-27,-6.3615357e-24,9.117928e-32,4.3332257e-32,-5.957309e-21,-2.548637e-39,-2.1695827e-30,-1.3245964e-25,-1.016627e-39,1.6784316e-38,4.6437934e-33,1.2006926e-31,-7.6726336e-31,-1.1688509e-26,-2.0345873e-28,-2.344654e-25,8.55999e-32,3.824863e-32,-3.024177e-39,-4.511368e-39,-1.407244e-39,2.676374e-38,-8.76716e-36,6.64646e-40,2.549818e-39,1.903314e-39,6.860623e-39,2.756895e-39,6.7707e-40,1.627667e-39,-8.69281e-40,-5.749968e-39,-1.376399e-39,-3.739781e-39,-6.31697e-40,1.14818e-40,6.052336e-25,4.7661566e-25,1.6632894e-22,-4.4993373e-28,4.3865163e-24,1.1393005e-19,-3.1601143e-24,-6.2471555e-30,8.780278e-26,-2.766186e-39,4.681319e-39,-1.097584e-39,5.880735e-39,2.621682e-39,-2.590379e-39,1.51122e-40,8.02362e-40,2.894745e-39,-1.16716e-40,-1.545823e-39,-1.973153e-39,-2.102402e-39,-1.31464e-39,-1.176799e-39,-1.604432e-39,3.488409e-39,-9.7739e-41,-2.755183e-29,1.1812181e-31,-2.3822317e-25,8.0288565e-23,-2.8659198e-29,-1.9875797e-26,-1.1385417e-37,-1.8941069e-37,-8.100209e-35,-1.0343009e-21,-3.9180554e-20,4.6405465e-23,-9.9848346e-23,-3.123065e-20,-2.7186214e-22,-7.122606e-23,-5.442771e-21,-3.239269e-21,-6.03186e-40,-2.4262778e-29,-1.4139379e-35,6.312274e-39,7.179738e-32,3.6979741e-34,-4.641654e-39,-3.629852e-39,1.6744054e-33,2.97838e-40,-5.018512e-39,1.37551e-39,-5.34822e-40,2.733998e-39,-2.178218e-39,-3.362362e-39,2.099615e-39,-6.7274265e-36,1.4047123e-18,-1.33441074e-17,1.4740273e-18,7.220095e-22,-5.7635046e-22,-1.340253e-18,-7.951766e-31,-6.551481e-27,-2.8103044e-20,9.86896e-37,1.288771e-39,2.318659e-39,2.475846e-39,1.662465e-39,7.66107e-40,-2.2323e-40,-1.733747e-39,-6.29058e-40,-1.200352e-39,1.89374e-40,-8.79022e-40,4.653868e-39,-3.412e-40,2.41317e-39,-3.16148e-40,2.500406e-39,-5.07583e-40,-1.19387e-39,2.86747e-39,-6.563274e-39,3.12867e-40,-2.220094e-39,2.992302e-39,4.491108e-39,-4.438837e-39,-1.383091e-39,-1.0789013e-30,-5.6701954e-22,2.9417076e-18,-6.3853764e-28,-4.1968316e-22,-6.915697e-20,-1.9267031e-30,-1.5190378e-23,-2.9296524e-22,6.04588e-38,-3.501099e-27,-1.2859112e-29,3.6747746e-33,-8.5169674e-35,-4.9358618e-31,-2.385405e-39,-6.489932e-39,-5.434249e-28,2.193133e-39,2.562454e-39,2.54305e-40,8.32541e-40,3.219636e-39,-1.961291e-39,5.8345e-39,5.9089e-40,3.870347e-39,2.1259391e-32,1.9888149e-32,9.284374e-33,3.170953e-35,-2.3385078e-29,-1.0613738e-34,4.8924537e-38,-2.1427747e-35,-7.6758e-40,-3.416307e-19,-6.220196e-20,-1.1911362e-24,-7.699826e-24,-3.416383e-24,-3.49716e-25,-4.724235e-39,-3.9615265e-35,-2.691453e-25,4.017503e-31,-3.1179258e-24,-1.0347604e-26,5.561383e-28,-1.1724393e-27,-6.9032277e-28,2.830262e-37,-9.413347e-30,3.267751e-32,2.007922e-34,8.281219e-39,-1.2934239e-31,6.0044345e-26,-4.0225173e-34,-8.396353e-32,2.6314352e-21,5.6651986e-35,-5.8623407e-35,1.215886e-39,1.307842e-39,2.296524e-39,-6.546113e-39,5.186208e-39,-1.168024e-39,2.60518e-40,-4.52216e-40,2.816405e-39,-4.679415e-39,-8.92022e-40,5.26347e-39,4.256731e-39,4.784996e-39,1.156075e-39,-3.895369e-39,5.852756e-39,2.448734e-39
0.009685087,0.0029079784,0.0046635377,0.019585306,0.043792516,0.04482885,0.016243625,0.04312129,0.014400139,-0.02028733,-0.036492966,-0.023175878,-0.0038311004,-0.0065712756,-0.0029502176,-0.0011052005,0.0041359817,0.009951504,0.0006057113,0.011110387,-0.0026764038,-0.005307563,-0.015672741,0.0029032822,-0.022575062,-0.02499849,-0.013753984,0.0017377947,-0.0009207278,0.006523367,0.0015538853,0.0008648327,0.00972013,0.0013537244,0.0014077668,0.012645234,-0.0018338126,0.0013807304,-0.0019194484,-0.014985598,-0.011159196,-0.017529316,-0.017342834,-0.020248981,-0.027929073,0.0018382249,0.0012965342,0.00992213,0.00023676603,0.0051256353,0.015953926,-0.000443075,0.0024814068,0.0088354945,-0.008729441,-0.010701871,-0.0010452889,0.0023073498,0.0031017298,0.0046555107,0.0072434912,0.012641256,0.004942501,0.0049381563,0.007401001,0.011266825,0.0046040146,0.0004673177,0.0062910533,0.008006127,0.0005877385,-0.0040177708,-0.018970385,0.002533796,0.031865258,-0.010847826,-0.006061139,0.005039422,0.002157101,0.0020333831,0.0016414924,-0.004414946,0.013063081,0.013003316,-0.0036325667,0.0071819015,0.004792661,-0.012910398,-0.0052684736,0.002080998,0.001128087,0.001889021,0.0064077456,-0.0011717769,0.0035412645,0.0032887284,0.0015310564,0.0040633273,0.00719197,-0.019303704,0.0044438546,-0.0054649324,-0.012308855,-0.0190496,-0.0067828484,-0.0017168318,-0.013053881,0.0025098708,0.0006585194,-0.004606199,-0.0011778994,-0.0153437825,0.004333525,0.01084344,-0.015849672,0.012236952,0.008895062,-0.021106303,-0.019265817,0.0034766053,-0.0049587945,-0.017415237,-0.0058977613,-0.007099781,-0.009357516,0.0017984273,-0.00066914037,-0.00043655522,-0.0012176366,-0.0007365399,-0.00033585395,-0.0010444364,-0.00030066574,-0.0008574095,-0.00050858344,-0.02099465,-0.020630615,-0.0007968022,-0.008092083,-0.019739836,-0.005505148,0.005046338,-0.01113655,-0.009991642,-0.0028317743,0.0056495103,-0.0010339865,-0.0002979612,-0.0043609594,-0.004062899,-0.004365915,-0.006054642,-0.008249853,-0.008098441,0.039915413,0.021677501,-0.0148902405,0.022094883,0.01163705,-0.035012994,-0.023603868,-0.025803545,-0.017421002,-0.014524268,-0.0035867228,-0.0048993346,-0.0014089503,-0.00047236102,-0.01661881,-0.01270727,-0.0055241287,0.002491331,-0.010264585,0.00074018445,-0.0007196157,-0.006672009,0.010154175,-0.0038597526,-0.002653002,-0.0033749426,-0.013691577,-0.01201031,-0.013833742,-0.010890798,-0.017548794,-0.01897091,0.0013950225,-0.011285352,-0.013134196,-0.005294726,-0.019018082,-0.031345453,-0.016102554,-0.015584488,-0.016174866,-0.014357525,-0.017424742,-0.015280075,-0.0080501,0.012390533,0.023543542,-0.0041667814,0.01742006,0.028046645,-0.010611429,-0.004355063,-9.927968e-05,-0.02290332,-0.014700685,-0.006169397,-0.023541134,-0.01807523,-0.012836105,-0.031268414,-0.02987016,-0.02471147,0.0008725045,-0.0014424836,-0.00034640796,0.010780441,0.008986183,0.0012712983,0.011351442,0.007445235,-0.0008834275,0.0027036397,-0.006050249,-0.011361036,-0.0011978158,0.002859547,0.022096999,0.0031255756,0.016490862,-0.0056412686,0.013505694,0.012726698,-0.0012834141,-0.0071893637,0.012753873,0.008419343,-0.012243338,0.011768929,-0.0018282678,-0.00446197,-0.0007338301,0.015420169,-0.024934923,-0.0041424097,0.032725677,-0.002547741,-0.022516944,0.026596785,-0.02719423,-0.03064341,-0.026405096,-0.018253172,-0.00827006,-0.025219262,-0.035056796,-0.020228533,-0.010701844,-0.00084568386,0.0014123269,0.0037581755,-0.0006314757,0.0009101385,0.003994226,-0.0009295174,0.002349503,0.0033435016,-0.025756074,-0.024218168,-0.034364656,-0.020248014,-0.0060260873,-0.019562783,-0.013875573,0.0075309803,0.002168126,0.019590512,0.022243513,0.00883289,0.0029421637,-0.0009006243,0.0028006763,-0.009640189,-0.005935727,-0.0051996205,-0.014976657,0.0013953364,0.0008077711,-0.010683306,-0.013935047,-0.008984597,-0.035812154,-0.034402005,-0.014031397,0.003794548,-0.005058771,-0.008307836,0.0040803896,0.0046103313,0.006359676,-0.0054455665,-0.0017931089,0.0034115934,-0.025273724,-0.024423026,-0.022702908,-0.0008545534,-0.010981449,-0.015914923,-0.018840194,-0.0098733045,-0.0093585085,-0.037938707,-0.012906388,0.013276137,-0.040323526,-0.020222956,-0.017619943,0.008194567,0.021242745,-0.006848082,-0.0071818475,-0.0039471043,-0.0068751113,0.0045152297,0.0036676703,-0.004338468,-0.0061660456,-0.011964193,-0.011354955,-0.0031143657,0.0025654202,0.014490695,-0.005505405,-0.004688593,0.008380426,-0.00085330504,-0.0035378414,0.01049075,-0.0012174468,-0.004864476,-0.006919664,0.007302827,0.00039285287,0.0019139996,0.014499022,0.005381506,0.0025176972,-0.015472834,-0.007357191,-0.0043786615,-0.014162582,-0.01563982,0.008656369,-0.011114726,-0.005882256,-0.003843436,-0.037679072,-0.024757396,-0.0034471715,-0.024971202,-0.018656773,-0.019571895,-0.007922399,0.013274583,0.004042218,-0.04028191,-0.021001693,-0.0068371044,-0.028376764,-0.017029407,-0.0049729818,-0.030435398,-0.018891051,0.01168343,-0.009616196,-0.0155352615,0.00038862374,0.0027953887,5.9878657e-06,-0.008463614,0.007850281,0.0020600203,0.012635628,0.00021270123,0.0011106685,0.0004999103,0.000518629,-0.00018674985,0.0001399368,-0.0015272021,0.0021547445,-0.00048091757,-0.02548436,-0.020121742,-0.014655482,-0.0071274964,-0.012288914,-0.0068442235,-0.017351009,-0.030984968,0.016130721,-0.0041063116,0.008999831,0.007999003,-0.019345801,0.006196415,0.01222699,-0.02085555,-0.009290667,0.0058462922,0.0120583605,0.017111251,0.012047706,0.0012087625,0.0035760405,0.016019283,-0.011471211,-0.0049580736,0.0055650733,-0.02128311,-0.03925727,-0.05092391,0.0027094325,-0.013592544,0.00928991,0.007179632,0.019545611,0.035775945,-0.023292938,-0.0078124655,-0.01954635,-0.034811478,-0.020467523,-0.015061892,-0.03212671,-0.021317858,-0.01899834,-0.030653885,-0.04300403,-0.016774572,-0.006735485,-0.006216542,0.009290938,-0.00554518,-0.00344538,0.011638869,-0.01114551,-0.013143488,8.9472014e-05,-0.010990236,-0.0083346795,0.0113188485,-0.003974082,-0.0065235607,0.0001743069,-0.02010583,-0.014087502,-0.028814713,-0.010927748,0.01828149,-0.024269935,-0.012775057,0.0137364855,-0.024036927,-0.0016511737,-0.0019769543,-0.0033272528,0.0001587489,-0.0037853634,-0.0016466688,-0.00019097053,0.004293306,0.00092467596,0.0128799025,0.0056848,-0.0032075366,0.020056218,0.006368387,0.0029093588,0.013817113,0.009643907,0.010140628,2.7691454e-05,-0.00096176297,0.00065233,-0.0004020669,-0.00094536145,-0.0006595301,-0.0008482108,-0.00070887385,-0.0008863343,-0.024953572,-0.026787655,-0.040003344,-0.0017145136,-0.0055942745,-0.012736785,0.0018025781,0.002946798,0.008167118,-0.014494063,0.009541366,0.03317012,-0.020632476,0.020225232,0.019632531,-0.011310289,-0.0026467936,0.016002959,-0.0067290138,-0.0038315682,-0.0042087743,0.0011565969,-0.0052049197,-0.006697018,0.0039177476,0.0013925994,0.0005309568,-0.008642144,-0.009243789,-0.014947935,0.003716878,-0.014935365,-0.019654162,-0.006159136,-0.014066913,-0.015700154,0.022275632,0.028607966,0.026999475,0.02348262,0.03611366,0.029473271,0.019319504,0.029923514,0.0054104794,0.012504012,0.014750241,0.023866048,-0.0036042524,0.024704035,0.0339522,0.0013303624,0.029143011,-0.0064408914,0.018787412,0.0054548406,-0.008832182,0.008092201,-0.003668746,-0.0043999627,-0.0050889696,0.01001466,-0.008082366,0.024054756,0.041523494,0.022026865,0.014446967,0.027785271,0.031255256,0.0063378178,0.024036262,0.031650238,-0.00067130045,0.000121606536,6.6892804e-05,-0.0005657968,-0.0012792934,0.0011608147,-0.00081059337,0.0018523044,0.0011446463
1.83424e-40,-5.383803e-39,-3.307898e-39,-6.035391e-39,-2.023586e-39,-1.306379e-39,1.465454e-39,2.950627e-39,4.698949e-39,-3.788015e-39,-7.54269e-40,-1.150396e-39,-2.441594e-39,-3.308284e-39,6.03997e-39,-2.50371e-39,-4.011828e-39,-2.339552e-39,1.806715e-39,2.687954e-39,5.63001e-39,1.487286e-39,1.348566e-39,8.44427e-40,5.67335e-40,1.636735e-39,8.70014e-40,1.167535e-39,1.182119e-39,2.100345e-39,6.536163e-39,2.445817e-39,-1.8684e-41,-2.329133e-39,2.91942e-39,-3.202975e-39,-2.289863e-39,-2.172827e-39,5.2522e-40,-2.474085e-39,-2.09062e-39,-7.43883e-39,-1.521325e-39,1.0962663e-29,3.6032655e-27,1.655456e-39,-1.820252e-39,5.6653e-41,-1.00894e-39,5.06358e-40,6.37573e-40,-3.71238e-40,-2.362422e-39,-2.691857e-39,-1.00536e-39,-1.905552e-39,-3.063955e-39,2.14295e-40,-2.4463e-39,1.503083e-39,1.527041e-39,-2.249212e-39,1.232337e-39,-7.9374e-40,5.68184e-40,6.257088e-39,-1.70604e-40,2.565721e-39,6.637226e-39,-1.832816e-39,2.885461e-39,8.26121e-40,-1.658433e-39,2.733286e-39,2.838172e-39,-7.79894e-40,4.905336e-39,3.561969e-39,-2.632157e-39,1.331288e-39,8.71515e-40,-7.72187e-40,-3.092477e-39,-7.97951e-40,-2.193322e-39,-6.543953e-39,-4.75304e-40,-8.86606e-40,-5.131464e-39,1.312893e-39,4.64959e-40,-1.848807e-39,-3.823771e-39,-2.308086e-39,-6.133793e-39,-3.948719e-39,-6.288659e-39,-1.701953e-39,-5.21791e-39,-2.2168e-40,-1.848358e-39,-2.807036e-39,-2.217443e-39,3.96344e-39,7.21195e-40,1.979527e-38,1.428636e-39,-2.712968e-39,-2.245991e-39,-6.715056e-39,5.488852e-39,3.761641e-39,-4.282217e-39,-2.218246e-39,5.026515e-39,-3.028768e-39,2.278926e-39,6.4043e-40,2.281233e-39,-3.788444e-39,-6.4028e-40,1.417336e-39,1.448634e-39,2.42238e-40,8.46353e-40,1.002231e-39,-2.461825e-39,6.320035e-39,2.295331e-39,4.514692e-39,5.687515e-39,1.248299e-39,6.781347e-39,-2.64216e-39,3.8004e-40,-1.850593e-39,2.73714e-40,-2.53821e-39,-3.51163e-39,-1.920248e-39,-6.330748e-39,5.897868e-39,-2.034426e-39,-4.002097e-39,-4.30154e-40,3.19336e-40,2.464493e-39,-1.5662e-40,7.16494e-40,-3.4899e-40,5.771346e-39,-1.53027e-39,-2.163168e-39,3.609558e-39,-2.126337e-39,-1.475656e-39,2.184232e-39,-1.539736e-39,-3.138185e-39,1.579503e-39,2.464995e-39,5.935263e-39,2.110192e-39,1.185557e-39,1.074349e-39,5.99485e-40,2.58512e-40,7.63956e-40,-4.4469e-41,-4.72606e-40,8.62257e-40,-2.656926e-39,-6.582005e-39,1.441932e-39,-5.966308e-39,-4.424321e-39,7.54121e-40,-3.472633e-39,-3.613392e-39,-1.80811e-39,-3.428888e-39,2.449943e-39,-1.442303e-39,-2.18845e-39,2.28703e-40,2.79465e-39,-4.402941e-39,-8.82955e-40,1.580836e-39,-2.461448e-39,-2.06757e-39,1.89816e-40,2.558515e-39,-3.35848e-40,-5.059559e-39,5.02583e-40,3.9692e-41,-1.164539e-39,-3.879102e-39,-4.057453e-39,2.632505e-39,-1.723112e-39,-3.438456e-39,-2.787892e-39,-1.4065e-41,-3.032553e-39,-4.34029e-39,2.665473e-39,6.68921e-40,-5.13419e-40,2.31506e-40,-4.40875e-40,-1.070848e-39,1.241045e-39,-4.57492e-40,7.30022e-40,-6.4516e-41,4.849855e-39,-1.46495e-40,-3.885675e-39,3.081835e-39,4.27812e-40,-2.163169e-39,-2.745086e-39,-4.201526e-39,-8.18916e-40,-7.8481e-41,8.26211e-40,4.60975e-39,-6.43347e-40,1.806089e-39,1.081564e-39,-1.469088e-39,2.657612e-39,-1.932173e-39,9.5461e-40,2.211396e-39,-2.599699e-39,1.38594e-40,-8.82337e-40,-1.724889e-39,7.1545e-40,2.35657e-39,1.839257e-39,5.014809e-39,1.1465592e-38,1.892961e-39,2.868197e-39,-6.659185e-39,2.532159e-39,3.362746e-39,-6.539732e-39,2.19335e-39,6.59624e-39,1.947212e-39,3.76673e-40,1.808774e-39,2.479966e-39,1.469743e-39,-1.677095e-39,5.887596e-39,7.99009e-40,-1.542772e-39,3.561687e-39,-4.18978e-40,1.6622e-40,-2.69933e-39,1.752796e-39,5.51426e-40,-1.606645e-39,1.756247e-39,1.635615e-39,-2.165665e-39,1.849851e-39,1.79057e-40,-1.596387e-39,-2.949617e-39,-1.981317e-39,1.79683e-39,2.78805e-39,3.065204e-39,2.724553e-39,2.431373e-39,1.832807e-39,3.116725e-39,2.263555e-39,1.936754e-39,3.46261e-39,1.482302e-39,1.44226e-40,1.198612e-39,-1.613227e-39,-6.078655e-39,4.918238e-39,2.504923e-39,-3.837887e-39,-1.02656e-40,1.232812e-39,1.63903e-39,3.7097e-39,-1.064316e-39,2.25714e-40,1.918614e-39,1.581341e-39,8.2584e-40,7.17758e-40,2.64208e-40,1.882005e-39,2.161517e-39,-6.94772e-39,-6.489962e-39,1.107656e-39,7.81129e-40,4.16683e-40,9.53167e-40,1.431206e-39,2.740766e-39,3.9816e-40,1.962147e-39,1.685866e-39,4.382177e-39,1.890738e-39,2.228255e-39,6.438629e-39,-1.546564e-39,-2.538804e-39,4.845394e-39,1.934892e-39,7.75909e-40,1.587814e-39,1.713295e-39,9.68353e-40,8.79962e-40,-1.385883e-39,2.311135e-39,2.035427e-39,-1.75024e-39,1.0066e-39,8.12602e-40,-2.49738e-39,1.276412e-39,1.074488e-39,2.199306e-39,3.121081e-39,2.442029e-39,3.206441e-39,4.250895e-39,4.233576e-39,4.114976e-39,6.593045e-39,2.630325e-39,-3.920137e-39,-2.061602e-39,5.970058e-39,-5.632721e-39,-3.051573e-39,-3.18595e-40,-5.964389e-39,-2.758747e-39,3.48182e-40,4.81834e-40,1.245579e-39,9.4529e-40,-2.081489e-39,1.095803e-39,-1.649977e-39,-5.07902e-39,-7.5e-40,5.12306e-40,-2.209022e-39,-1.74868e-39,-8.09767e-40,3.36519e-40,1.586756e-39,4.2214e-40,2.128767e-39,2.155948e-39,5.29638e-40,-1.938772e-39,-2.54441e-39,3.90753e-40,6.46189e-40,-1.347249e-39,-2.254558e-39,4.318331e-39,6.670862e-39,4.14468e-39,-6.453893e-39,-7.4671e-40,4.495249e-39,6.53187e-39,3.30656e-40,2.08819e-39,1.257364e-39,7.89985e-40,2.699093e-39,-4.6237e-40,3.55373e-40,3.73062e-40,-5.742053e-39,2.538528e-39,1.954706e-39,-8.41263e-40,-9.837e-42,-3.809078e-39,-1.585529e-39,4.307804e-39,1.264188e-39,-5.138503e-39,-1.013862e-39,3.22157e-39,-1.310283e-39,1.044929e-39,2.64267e-39,1.896657e-39,-2.034175e-39,4.948316e-39,-1.399816e-39,-4.152877e-39,-6.3862e-40,1.499162e-39,6.593824e-39,1.467707e-39,-2.282415e-39,2.928312e-39,3.276561e-39,-2.102243e-39,3.89936e-39,-1.699656e-39,-3.339156e-39,2.561483e-39,-1.416037e-39,6.21909e-40,2.002258e-39,-7.46e-42,-1.422933e-39,-1.16626e-40,-5.732922e-39,-4.024491e-39,-3.490663e-39,5.669946e-39,-1.130692e-39,-2.25039e-39,2.6699e-40,-3.1389e-40,8.10043e-40,6.05053e-40,-1.9375e-39,1.139902e-39,5.93679e-39,-3.06177e-39,-4.981602e-39,1.069817e-39,-8.9484e-41,-2.530341e-39,1.774759e-39,-4.220712e-39,1.06862e-40,2.466703e-39,2.318782e-39,3.152015e-39,2.223579e-39,3.624862e-39,2.426008e-39,9.31674e-40,7.040027e-39,2.306148e-39,3.128619e-39,-2.979881e-39,-4.31685e-39,-1.027505e-39,-3.006133e-39,-4.55485e-39,-2.926629e-39,-4.912972e-39,-2.947921e-39,-1.097477e-39,-6.43583e-39,-2.034587e-39,1.467597e-39,9.422e-40,4.705983e-39,4.60476e-40,-1.155491e-39,2.747021e-39,6.465873e-39,-2.041252e-39,-8.07994e-40,-7.0157e-40,1.97615e-40,1.607715e-39,-3.615926e-39,-3.151239e-39,1.628679e-39,1.657028e-39,7.7853e-41,8.65377e-40,1.117544e-39,-1.769916e-39,-6.110747e-39,-2.398e-41,-2.710704e-39,-1.401366e-39,-1.718785e-39,1.046663e-39,3.852856e-39,-1.834773e-39,1.082476e-39,2.547526e-39,1.130959e-39,1.410138e-39,1.967649e-39,2.678733e-39,1.056149e-39,-3.362923e-39,4.958733e-39,-8.49815e-40,4.36151e-39,7.046834e-39,2.836211e-39,4.628908e-39,1.261136e-39,-1.056949e-39,-2.581197e-39,1.939761e-39,-1.488735e-39,-4.472527e-39,2.5209e-40,2.875031e-39,1.6975e-41,-1.243494e-39,3.94749e-40,6.71847e-40,2.215266e-39,1.31548e-39,-5.228934e-39,-4.066351e-39,-4.367838e-39,1.5071e-41,-1.193164e-39,-2.220044e-39,-1.890381e-39,2.875452e-39,9.39634e-40,2.740452e-39,9.6721e-40,1.937444e-39,1.036e-39,-1.20212e-39,4.093703e-39,-1.507811e-39,-2.940762e-39,-8.37863e-40,2.370685e-39,-1.7912e-40,-1.54136e-39,-1.305409e-39,-2.026809e-39,-8.40534e-40,-1.023974e-39,-1.863295e-39,-1.105906e-39,-1.477536e-39,-1.843665e-39,-3.123395e-39,-1.657412e-39,3.625937e-39,2.042503e-39,1.049612e-39,-3.369477e-39,2.055035e-39,7.98288e-40,1.537349e-39,9.32947e-40,-3.448881e-39,1.178768e-39
-4.320402e-20,-2.8193304e-20,-1.6022384e-16,1.8758099e-18,-4.2296045e-19,-1.5380358e-16,-2.5140608e-18,-5.08551e-17,9.051701e-22,-9.916637e-23,1.8271422e-29,5.1717716e-35,5.9042726e-26,1.0649817e-21,2.0389772e-21,1.6024742e-36,3.215847e-34,2.3764827e-36,-1.7451706e-17,-9.60392e-22,-5.6010496e-21,-1.3509825e-17,-1.0916256e-16,-1.8456566e-15,-4.8953237e-16,-8.753504e-16,-9.529922e-16,-1.426675e-39,1.365934e-39,3.440597e-39,-2.94172e-40,-1.0920479e-37,5.62369e-39,1.297422e-39,-3.5312243e-33,-5.144446e-38,1.2358525e-09,1.9885674e-10,4.743133e-09,1.3642771e-11,-4.219206e-16,9.389962e-12,3.8217817e-07,-6.775595e-08,-6.296529e-10,4.6648453e-22,2.2017767e-22,1.6712549e-21,-1.5890594e-21,-8.2300655e-25,1.4318448e-32,-1.1474037e-16,-6.9618703e-17,-2.8936665e-19,-6.3590274e-37,-6.78895e-40,1.517693e-39,6.04718e-40,-5.417218e-39,6.43623e-39,-3.26777e-39,-5.182587e-39,1.316284e-39,1.058758e-12,-7.819608e-13,-5.263817e-12,-4.565686e-13,-2.2578943e-13,-2.4040069e-14,-3.234526e-11,-2.6477228e-12,-6.546427e-16,7.2920774e-19,6.332184e-19,-3.2286224e-18,-3.440147e-19,-2.4483662e-16,-1.1597796e-15,-3.7319605e-16,-2.164261e-15,-2.6605536e-15,1.0224712e-37,-1.123736e-39,-2.297521e-39,4.735911e-36,-9.18554e-40,5.659793e-39,1.721921e-39,-6.77245e-40,1.585618e-39,-1.243822e-39,-3.140331e-39,3.09318e-39,8.67289e-40,3.302973e-39,-2.106639e-39,-1.111354e-39,4.99243e-39,-4.51667e-40,-1.2681525e-20,-9.056932e-20,-1.4645666e-22,-9.495951e-15,-4.518485e-16,-1.7505462e-12,-1.911889e-12,-6.8388585e-15,-3.0716545e-13,-2.1015357e-32,-1.5571634e-37,1.223943e-35,4.509216e-28,-3.6335876e-24,-1.8179757e-30,1.9191312e-33,-1.1522236e-22,-3.278165e-38,-6.150721e-34,-2.4720842e-37,-1.0886597e-36,1.2021779e-38,-5.702115e-25,2.4541595e-33,2.43434e-39,-1.6658212e-29,-7.3285057e-34,-2.832278e-39,-1.812863e-39,2.381931e-39,2.389881e-39,1.566122e-39,2.065405e-39,2.275888e-39,5.99255e-40,1.65757e-40,6.0006933e-33,-9.955711e-32,2.0020639e-29,-2.772786e-28,-1.2141285e-28,-2.625488e-23,-4.1114003e-29,-3.5344167e-24,-2.787166e-20,4.6055515e-29,5.094191e-39,1.699701e-39,5.70719e-39,2.299054e-39,1.206339e-39,4.104236e-39,1.17108e-40,1.13056635e-36,-4.2873926e-17,-5.8278658e-15,-1.6237853e-13,-6.0115483e-17,-8.550097e-15,-9.693535e-14,-3.362872e-12,-1.4464869e-12,-1.591735e-12,1.7420171e-14,-2.2952023e-14,-7.071067e-16,-3.2687584e-13,-1.1090369e-12,-2.7394499e-14,7.414617e-14,-1.6778951e-12,-4.1543016e-14,7.2339933e-22,2.7786649e-27,-4.7765578e-27,-3.3861324e-25,3.4791428e-30,-1.2271971e-25,8.450135e-36,-1.7651058e-33,1.2075227e-35,4.9777985e-14,-3.5575777e-14,-6.750112e-14,-8.011361e-14,-3.36833e-16,-4.9230083e-19,-2.2872856e-10,-8.348658e-12,-3.489252e-12,1.1816011e-13,3.557338e-15,-7.223145e-18,-6.49303e-14,-1.937037e-15,-2.0907288e-16,-3.728589e-11,-4.458452e-12,-1.3624635e-13,1.4745171e-27,2.5926814e-28,8.599874e-35,1.5001658e-29,-1.4487449e-34,-2.9669595e-32,4.9315583e-36,4.869596e-39,2.6921802e-36,2.7465834e-29,-1.3772634e-34,-6.4877e-41,-3.8199943e-34,-2.1034312e-32,3.200138e-39,2.7036318e-27,1.8851982e-28,1.3352939e-33,1.283099e-39,-2.419034e-39,2.6810156e-34,5.209296e-39,2.1364e-40,-3.61828e-40,6.98843e-40,1.74361e-40,-2.31881e-39,-3.83238e-21,-4.6982713e-23,-4.7460562e-24,1.3601778e-20,2.1323121e-19,-5.2606385e-24,-3.3046234e-20,4.2163886e-24,7.730128e-31,-1.5411517e-32,1.7322776e-28,2.4253233e-28,-3.2801837e-28,-8.129912e-24,5.098736e-28,2.3862097e-23,1.6947418e-28,-2.046833e-20,2.9207163e-20,4.1679357e-15,6.6086894e-17,-2.3122247e-19,-2.2641318e-15,-7.486259e-16,3.4674062e-19,4.3235614e-19,-5.2896322e-15,-4.4014717e-21,-3.903786e-16,-6.2428235e-18,-6.134415e-22,-1.9981022e-19,-1.6890888e-25,-7.821992e-16,-5.616348e-18,-4.9883834e-21,5.2185305e-37,2.3291002e-37,1.03918e-39,6.03116e-32,-1.0430258e-31,-3.198579e-35,2.8634556e-33,7.393531e-36,-1.47504e-39,-8.39053e-20,-3.5766076e-15,-7.457086e-15,7.2556957e-22,-2.6794813e-20,-1.4410817e-15,-2.242138e-22,-1.0227612e-21,-9.205466e-22,3.4160534e-17,2.1673481e-19,-2.0990653e-16,4.0487112e-23,-1.5729707e-19,-6.092295e-15,8.777227e-28,-2.901265e-25,-3.7056288e-19,-3.4428793e-24,-5.110781e-29,3.0778694e-33,1.3643724e-34,-2.4708418e-25,-3.3747158e-26,-3.7266625e-23,-1.7464779e-33,-1.6241669e-24,-2.0933245e-18,-1.07083384e-19,-1.1691005e-18,-1.1776465e-21,-2.8569572e-19,-6.8522604e-11,-1.2743612e-29,2.9418323e-34,-3.901631e-14,-5.399141e-23,-1.1129e-28,-1.7166105e-32,-1.3001268e-30,-2.2011615e-24,-6.6388355e-30,-2.3220828e-35,1.1852456e-32,-4.449387e-36,1.2917152e-18,-7.6945866e-19,-2.1771706e-17,1.2265506e-15,-1.1242727e-18,-2.3033024e-18,-3.6753984e-15,-1.7541407e-17,-1.2706019e-14,-2.6880854e-20,-1.641707e-16,-6.6308787e-18,4.4331606e-25,-4.29847e-19,-3.5254854e-21,2.3306437e-31,-1.8278786e-25,-1.2165268e-17,-1.184806e-39,-6.41435e-40,5.067844e-39,2.73783e-39,-4.07602e-39,2.26749e-39,-3.130457e-39,1.540103e-39,3.487878e-39,-5.2941534e-19,-1.238491e-16,-4.0939954e-17,-2.0393618e-16,-2.1614957e-17,-1.9731391e-15,-2.6515184e-14,-2.5091047e-14,-7.877986e-16,-7.233219e-31,1.5111169e-34,-3.5327671e-37,-7.357459e-33,-3.3593158e-35,-1.0620367e-20,-4.772139e-39,-1.358147e-39,1.8611539e-32,-1.3916991e-18,-1.202235e-17,-2.0310816e-23,-4.3679473e-20,-1.3724365e-12,-1.7882131e-18,-2.4909481e-29,-5.3332086e-21,1.5305856e-25,-1.8651032e-22,-2.7513139e-19,-1.6057814e-21,-3.046885e-22,-1.4451756e-22,-5.933129e-23,2.2872276e-22,3.7772657e-22,-2.200009e-21,3.6745208e-19,1.745247e-21,1.3325052e-24,-2.022732e-24,-2.0013569e-26,1.6531507e-31,3.2123226e-22,7.566121e-32,1.613822e-39,-1.28212e-39,4.6122e-41,9.43755e-40,2.914584e-39,2.520276e-39,1.61895e-39,-1.340105e-39,-2.74409e-39,6.96696e-40,-3.698821e-17,-2.6065958e-19,-4.2325935e-21,-1.2993617e-15,-1.0115971e-16,-2.0337545e-27,-6.931497e-14,-4.6783696e-15,-2.681804e-18,7.59125e-40,-3.1896978e-38,-4.985855e-38,1.353925e-39,1.7875725e-35,2.0304644e-38,2.314424e-39,1.398754e-39,-8.89785e-40,4.693628e-39,3.089604e-39,2.935771e-39,3.38962e-39,-2.188867e-39,-5.641794e-39,4.402824e-39,-1.359014e-39,-2.183264e-39,-7.959527e-20,2.2399298e-20,-1.1237134e-20,-3.3604323e-22,-6.74689e-17,-1.7415022e-19,7.153165e-18,4.5016067e-14,-3.1720164e-19,-2.5408733e-20,-5.9944965e-20,9.5695604e-21,-6.2451065e-24,-3.6877263e-18,3.3982627e-19,-9.813017e-20,-1.7407067e-19,-2.2424502e-18,-2.5615747e-19,-2.4231603e-18,-1.9374507e-23,-1.4814846e-23,-1.0513625e-21,-1.5463724e-26,-8.901336e-23,-3.4520127e-25,-5.723989e-29,1.110801e-39,1.5148763e-35,4.5195356e-35,3.4725572e-31,1.7548371e-35,8.591639e-36,-1.3967437e-27,2.0822573e-37,2.8319543e-33,-3.5619165e-14,-4.2274317e-15,-5.200864e-14,1.9514287e-13,-2.897907e-17,-1.0325555e-14,1.8497439e-20,-1.4806023e-21,-8.35166e-21,-3.3118772e-37,4.8161616e-35,1.3931003e-35,-1.7739341e-32,-8.057326e-33,-1.1814269e-32,8.498491e-35,-2.3020406e-37,4.4054955e-36,1.48564e-40,-8.6087e-40,2.458945e-39,-5.61028e-40,1.895577e-39,-4.02149e-40,-3.4555e-40,-3.789302e-39,-3.788909e-39,-1.07925e-39,8.75544e-40,-5.300344e-39,-6.85208e-40,-7.43812e-40,4.859372e-39,1.939305e-39,1.3125e-40,-1.093366e-39,-5.2424778e-17,-1.2301089e-18,-4.484921e-20,-4.289009e-16,-3.6042743e-21,-5.784898e-17,-4.829294e-20,-6.714608e-20,-3.407451e-21,-1.7395285e-23,-3.3714654e-19,-7.1834123e-22,4.933933e-18,-3.9948987e-21,-1.2949297e-21,2.9725007e-19,-4.507338e-25,-2.2010561e-21,-4.064645e-31,-7.422808e-24,-2.4278847e-24,1.9754045e-36,5.74129e-29,5.9680394e-38,2.38833e-40,1.894237e-39,-5.266168e-39,-4.560237e-25,1.6586838e-31,-2.4433971e-23,8.9999177e-35,-5.214619e-26,-1.0968872e-24,7.660102e-30,-4.8913147e-31,-1.5659999e-34,4.011327e-24,2.6096028e-20,-1.1205897e-19,5.264311e-25,5.4070203e-22,-3.1716242e-22,8.4012043e-29,6.646715e-27,2.9551733e-23,-2.8841108e-22,-1.6222205e-22,3.4053764e-28,-8.139807e-20,-6.2750016e-23,-1.5809036e-22,6.888473e-30,-2.710694e-23,1.3781505e-25,6.03749e-18,2.195441e-16,-1.8035023e-18,-6.8294183e-20,-2.7138016e-20,-9.032144e-25,-5.9975828e-25,-2.3993162e-23,-1.2484119e-29,1.804392e-39,1.15206e-40,-5.617995e-39,-2.638908e-39,-4.195617e-39,-7.92912e-40,-4.172415e-39,-3.573716e-39,-1.92534e-40,-2.984935e-39,-5.976109e-39,-5.520417e-39,6.357924e-39,6.853615e-39,2.661558e-39,1.49945e-40,-4.831592e-39,2.560503e-39
-4.4099025e-36,-1.773744e-39,-2.27646e-39,-3.871907e-39,-4.342927e-39,9.665795e-31,-2.500823e-39,-1.4892999e-33,-4.944915e-39,-5.219303e-39,2.09639e-39,-1.628424e-39,-5.355457e-39,1.675188e-39,-3.118943e-39,-1.098401e-39,-2.598267e-39,3.51978e-40,2.6783e-40,8.676085e-27,2.464081e-39,-6.718073e-39,3.045112e-24,-2.040903e-39,2.0347528e-23,-6.621905e-39,-3.814182e-39,-1.3125e-41,-9.45256e-40,-1.188792e-39,2.292359e-39,1.498868e-39,5.94036e-40,1.585807e-39,1.668847e-39,7.55865e-40,-2.77599e-40,-1.278e-39,-3.517736e-39,-1.814662e-39,-1.453627e-39,-8.77646e-40,-1.653508e-39,-1.29258e-39,-3.24317e-40,4.345009e-39,5.598704e-39,2.103489e-39,-2.322324e-39,1.777449e-39,2.109533e-39,6.155271e-39,5.863628e-39,4.753431e-39,-2.99607e-39,-1.705973e-39,-5.27197e-40,7.7913235e-32,2.726293e-39,-1.482288e-39,-6.8717e-40,-5.46163e-40,-5.063962e-39,1.431282e-39,1.63314e-40,2.65347e-39,-1.696923e-39,5.21242e-40,3.380327e-39,2.34587e-40,-2.436666e-39,-1.5314e-40,-1.467791e-39,-2.417103e-39,-5.297223e-39,-2.2688051e-33,-4.08008e-40,-4.541345e-39,-3.221395e-39,1.566925e-39,8.9888386e-38,8.32206e-40,-2.1294e-40,-2.42753e-40,1.830396e-39,1.915571e-39,-5.160266e-39,4.78773e-40,-3.894892e-39,-1.812853e-39,-4.081359e-39,1.067611e-39,-2.481833e-39,-5.01449e-40,-2.307632e-39,2.821631e-39,-4.63716e-40,-1.744817e-39,-1.697838e-39,-6.398483e-39,-7.6737907e-35,-6.76082e-40,-4.249841e-39,-2.538958e-39,1.940845e-39,2.241172e-28,3.583627e-39,-1.567535e-39,1.552398e-39,-2.573003e-39,3.829188e-39,-1.636057e-39,-2.440075e-39,3.291179e-39,7.508226e-33,-1.202472e-39,-4.250923e-39,1.736e-42,1.38279e-40,5.951061e-39,-7.1399375e-34,-6.885989e-39,-3.926147e-39,-8.0328e-41,-4.357311e-39,-3.28062e-39,2.2498e-40,-3.929936e-39,-1.93574e-39,-1.342464e-39,3.55153e-39,-2.648894e-39,2.544476e-39,-1.230201e-39,2.202375e-39,9.89413e-40,-1.264945e-39,1.528356e-39,-7.87838e-40,-3.546466e-39,-2.295555e-39,-3.11667e-39,-5.511164e-39,-9.1859e-40,-2.68607e-39,-3.345314e-39,-1.123946e-39,3.06697e-40,2.692581e-39,-5.749039e-39,-3.180498e-39,-4.704787e-39,-6.618214e-39,-1.549924e-39,-6.904887e-39,-6.93847e-39,-4.46287e-40,-5.36059e-39,-5.62612e-39,-9.2345635e-36,-2.902554e-39,-1.490686e-39,1.5156e-41,-2.728936e-39,-2.619381e-39,2.38037e-40,2.056114e-39,-6.641562e-39,-2.6445242e-35,-1.4526496e-34,-1.3052122e-33,-2.45649e-40,-5.030939e-39,9.41874e-40,-1.19137e-40,-1.37428e-39,3.715589e-39,-8.925676e-34,2.105957e-39,-5.93648e-39,-2.708917e-39,-2.920952e-39,1.176153e-39,-1.055402e-39,-5.979314e-39,-2.510981e-39,-1.572494e-39,-6.730114e-39,-2.492767e-39,2.615693e-39,2.353338e-39,2.552888e-39,-1.08989e-40,-5.34161e-39,-2.43844e-39,-1.510724e-39,5.391381e-37,-3.5303835e-34,2.273596e-39,1.277162e-39,-2.464262e-39,1.656782e-39,3.142113e-39,-2.752879e-39,-4.789526e-39,7.74224e-40,-1.798701e-39,-3.66538e-39,-4.180267e-39,1.803665e-39,3.698523e-39,-5.685975e-39,1.87277e-39,-5.05919e-40,1.38271e-39,5.39219e-39,-8.3614e-40,4.88719e-39,-2.288584e-39,2.660124e-39,-4.465368e-39,1.893807e-39,1.306383e-39,-2.094215e-39,-1.431697e-39,-4.875887e-39,-4.21117e-39,7.0744e-40,-3.020378e-39,-2.050739e-39,-3.834764e-39,-1.481272e-39,-6.21292e-39,2.71804e-40,8.1174615e-37,-3.13664e-40,2.514567e-39,-2.299472e-39,4.577383e-39,6.276933e-39,-1.85397e-39,1.7026728e-26,2.036307e-39,-2.02105e-40,2.384669e-25,-9.225133e-29,-3.064221e-39,2.038693e-24,3.423783e-26,1.0048405e-24,1.864057e-34,2.480287e-27,1.5590261e-21,-9.712712e-38,-3.438503e-39,-3.360831e-39,8.7543025e-30,4.7754144e-37,-2.887645e-39,7.4433066e-28,5.872064e-39,-1.260999e-39,4.391354e-39,6.18127e-40,-4.01716e-39,5.314807e-39,-1.06292e-39,-2.66139e-40,-1.606202e-39,-3.688962e-39,3.371785e-39,3.038444e-24,-3.494618e-39,-2.589897e-39,1.5191611e-20,-8.30055e-40,-3.693306e-39,-6.30535e-40,3.731265e-37,5.53813e-39,8.8386115e-23,-4.855138e-39,1.2711016e-36,-4.8177318e-29,4.595747e-39,-1.773258e-27,2.91783e-39,2.4487978e-37,-2.57798e-39,1.154835e-39,-8.66217e-40,6.07355e-40,-3.94422e-40,-2.190789e-39,2.32346e-40,-3.58543e-39,2.372523e-39,1.04599e-40,-6.396866e-39,-1.564792e-39,3.9276796e-38,-5.469575e-39,-1.014578e-39,3.0370543e-38,1.233003e-39,-1.515988e-39,1.3091707e-38,7.475333e-37,-2.38904e-39,-6.634995e-39,-4.384916e-34,-2.757867e-39,1.016199e-39,-2.331082e-39,8.980232e-39,-2.6971931e-33,-5.346354e-39,7.4967314e-23,8.54922e-40,7.5176604e-37,1.3066058e-28,-4.105517e-39,3.4873798e-19,-2.05584e-39,-6.896281e-35,-5.8058445e-27,3.985919e-39,-4.350383e-39,2.3673941e-23,4.09616e-39,-5.181937e-39,5.270984e-39,1.2557837e-31,-2.46368e-39,-2.70364e-40,-4.615472e-39,-4.267158e-39,1.318012e-39,-1.506212e-39,-3.969946e-39,-2.216466e-39,-5.804757e-39,-9.49325e-40,-2.694045e-39,-3.292949e-39,-1.519354e-39,-2.165824e-39,3.011232e-39,-5.475087e-39,4.120843e-39,-7.78399e-40,7.2625e-41,9.003489e-38,2.35821e-39,-6.27508e-40,2.0552024e-29,-1.078317e-39,-3.320741e-34,1.937455e-39,-2.37732e-39,-1.4591429e-33,-1.822638e-39,1.641183e-39,5.301287e-23,6.634354e-39,-5.70663e-39,2.49681e-39,3.153584e-39,-1.966469e-39,-5.367524e-37,1.316624e-37,-6.85e-39,-6.987355e-35,5.99518e-40,3.802264e-39,-5.579717e-39,3.73229e-39,1.965338e-38,-3.981481e-39,-4.617552e-39,2.75422e-40,1.138732e-39,5.61554e-40,1.029929e-39,2.86904e-39,1.45155e-39,-8.04055e-40,1.671125e-39,3.634391e-39,-1.25718e-39,6.307421e-39,-4.969404e-39,-2.97713e-40,-7.66882e-40,6.154954e-39,-1.45252e-40,3.7986004e-33,-3.961247e-39,-2.45303e-39,-2.445501e-39,-1.822099e-39,5.218206e-39,-2.905567e-39,-6.611158e-39,-3.318355e-39,-1.64422e-39,-2.083284e-39,-3.321461e-39,6.80983e-40,-3.107905e-39,-6.474697e-39,-2.425798e-39,3.25986e-39,-3.010899e-39,-1.341875e-39,-1.872782e-39,-1.018025e-39,-3.536331e-39,5.692094e-39,4.687346e-39,-7.34803e-40,-1.23324e-39,-3.83136e-40,-1.627418e-39,4.652576e-24,-4.551906e-39,9.884224e-38,-6.435774e-39,3.557161e-39,5.22853e-37,-4.225054e-39,6.5467517e-25,-2.09466e-39,4.945435e-39,2.236016e-39,-1.934486e-39,-8.94597e-40,-2.890505e-39,-9.96033e-40,-2.645343e-39,2.020684e-39,1.1835201e-28,-3.24204e-39,-3.658293e-39,1.6102167e-36,8.5509e-40,-2.27411e-39,2.404915e-39,2.00751e-40,4.978955e-39,-2.317645e-39,-9.50533e-40,-3.053491e-39,7.970115e-35,-2.925911e-39,-3.068137e-39,1.117659e-39,2.2806131e-38,1.044838e-39,-4.340692e-39,-1.0625979e-33,-3.2986398e-37,-2.182712e-39,1.119626e-19,-6.3612116e-37,2.61613e-37,3.8677607e-23,-1.799227e-39,-2.01466e-40,-2.608186e-39,-2.297321e-39,2.487092e-39,2.444267e-39,-5.53105e-40,2.64946e-39,-2.473585e-39,-4.613222e-39,2.33687e-39,3.59834e-39,-2.019624e-39,9.5444e-41,-3.693013e-39,6.331408e-39,8.30618e-40,3.45398e-40,-3.582222e-39,4.631485e-39,-2.504846e-39,2.645531e-39,-4.477608e-39,-5.91228e-39,2.306676e-39,-5.28211e-40,-1.688748e-39,7.45066e-40,8.400767e-38,-1.880862e-39,-1.882301e-39,4.1922147e-24,2.189082e-39,-4.383658e-39,-1.936117e-39,-1.018092e-39,5.125513e-29,7.85059e-33,-1.740113e-39,1.2533162e-21,-1.270622e-39,-6.65827e-39,3.71552e-26,6.891296e-39,1.3491427e-24,1.855133e-39,1.499769e-39,1.642126e-39,-2.455975e-39,-4.865174e-39,-4.5665757e-35,-2.69858e-39,-4.327779e-39,-2.689734e-39,2.234044e-39,-3.906215e-39,2.865421e-39,-7.40796e-40,1.6446754e-29,-5.363704e-39,3.318866e-39,5.316945e-29,2.339614e-39,-3.42959e-39,2.43196e-39,-2.369213e-39,4.84798e-39,-3.845803e-39,1.512136e-39,-3.150612e-39,-2.121391e-39,2.532875e-39,6.27789e-40,-1.95055e-40,-1.618114e-39,2.626106e-39,-4.6552062e-35,-4.804462e-34,-1.99756e-40,8.7699285e-27,3.7644563e-37,-4.826892e-39,-4.981326e-39,-1.810199e-39,3.438117e-39,-2.494692e-39,-1.67311e-40,1.597257e-39,-2.956218e-39,-2.995599e-39,-1.272783e-39,-8.90716e-40,6.9511e-40,-1.544946e-39,1.540691e-39,-4.240102e-39,-1.663734e-39,-2.125705e-39,-4.865198e-39,1.917088e-39,4.024397e-39,1.186569e-39,1.497845e-39,-5.817408e-39,-1.76484e-39,-3.76854e-39,3.639473e-39,4.035217e-39,-2.817458e-39
4.59099e-40,-3.044332e-39,2.033217e-39,-1.553742e-39,-7.71583e-40,2.839175e-39,-5.501e-40,-2.83631e-39,-4.89649e-40,4.8413e-40,8.27691e-40,4.01147e-40,-1.5172e-40,-1.824038e-39,9.24175e-40,-1.18601e-39,-1.868934e-39,4.88764e-40,-9.91235e-40,-8.62048e-40,-1.647968e-39,-2.395101e-39,-9.98237e-40,-2.905325e-39,-1.488193e-39,-1.990004e-39,3.294119e-39,1.384402e-39,-1.282628e-39,1.823497e-39,-1.097065e-39,1.466037e-39,-4.284124e-39,8.0612e-40,1.585716e-39,1.670143e-39,2.74992e-40,-4.49772e-40,-4.47903e-40,5.108469e-39,6.613043e-39,-1.67713e-39,-3.85804e-40,-4.26714e-40,1.695068e-39,1.926294e-39,-5.634013e-39,2.28143e-40,1.754095e-39,-1.55589e-40,-4.04472e-40,-2.95155e-40,1.649506e-39,5.218487e-39,2.10601e-40,-6.00236e-40,-1.977276e-39,-1.481184e-39,-1.985608e-39,-5.48229e-40,2.224493e-39,-1.981407e-39,-2.920307e-39,2.598677e-39,3.02659e-39,-1.899886e-39,5.922955e-39,6.278514e-39,4.455207e-39,5.813875e-39,3.42206e-39,2.643915e-39,7.73871e-40,-9.97349e-40,-1.75863e-39,9.79338e-40,-1.018982e-39,-1.890703e-39,-2.341177e-39,2.312409e-39,-1.419515e-39,-1.237442e-39,-2.932794e-39,-2.413259e-39,-1.741999e-39,1.769223e-39,-1.325334e-39,-9.52854e-40,2.690147e-39,2.056572e-39,8.45175e-40,4.772587e-39,-2.496028e-39,3.149919e-39,4.34212e-40,3.38478e-40,2.307555e-39,-2.272724e-39,2.60972e-40,-1.109006e-39,1.882887e-39,-1.394518e-39,-2.93679e-40,7.31175e-40,-5.152001e-39,-1.1868e-40,2.390129e-39,3.05509e-39,-2.141558e-39,5.19367e-40,-1.578935e-39,1.680269e-39,-6.69099e-40,-2.648844e-39,-3.884461e-39,-5.91111e-40,6.413728e-39,8.98347e-40,1.811056e-39,-9.60942e-40,-5.46916e-40,-1.690121e-39,-2.45647e-39,-1.247406e-39,-2.104229e-39,6.183678e-39,-4.284633e-39,3.15656e-40,-5.346546e-39,-6.765248e-39,-1.186925e-39,2.384824e-39,-5.34494e-40,-1.808213e-39,-2.608951e-39,-2.65252e-40,1.6313e-41,2.172653e-39,9.372e-42,-5.11756e-39,2.308592e-39,4.073901e-39,4.469816e-39,-2.434515e-39,-9.08965e-40,1.544734e-39,-2.935043e-39,-7.5869e-40,2.14545e-39,-6.92931e-40,3.661369e-39,6.67611e-40,-8.60764e-40,-6.542052e-39,-1.485351e-39,-1.713467e-39,2.151135e-39,-2.167362e-39,2.476181e-39,1.989956e-39,2.596029e-39,1.999483e-39,-2.551759e-39,-2.619177e-39,-2.655166e-39,-2.71181e-39,-2.69029e-39,-2.099631e-39,-3.87884e-40,-3.297009e-39,-2.99957e-39,-8.42826e-40,1.544805e-39,-9.11511e-40,-1.248708e-39,-4.25454e-39,-2.180638e-39,-1.195106e-39,2.261446e-39,2.893711e-39,-5.82457e-40,-1.619663e-39,-2.435311e-39,-1.107812e-39,-2.236669e-39,-1.530785e-39,-3.77059e-40,-2.246555e-39,-2.243183e-39,-1.61078e-39,2.05462e-39,3.824595e-39,-1.301484e-39,-1.927415e-39,-3.218853e-39,1.54306e-39,-2.241004e-39,-2.393939e-39,5.898271e-39,1.717026e-39,1.32292e-39,-2.66733e-40,-1.298754e-39,2.677433e-39,-9.10747e-40,-6.12561e-40,-1.396182e-39,-1.836812e-39,-1.896718e-39,2.20077e-39,-5.701334e-39,1.558767e-39,-2.16732e-40,-5.91778e-40,-1.473315e-39,-4.45733e-40,-3.794154e-39,-8.18483e-40,-4.97555e-40,-1.71973e-40,-1.43959e-39,-4.201178e-39,4.10663e-39,1.636756e-39,2.672062e-39,7.16344e-40,2.011202e-39,-1.496252e-39,5.596066e-39,-2.11742e-39,-1.297359e-39,1.364932e-39,1.06318e-40,3.733188e-39,1.259842e-39,2.919348e-39,1.766391e-39,-2.136654e-39,-1.977627e-39,2.560731e-39,-2.481307e-39,2.169167e-39,-3.271809e-39,3.05507e-39,2.785144e-39,-1.619279e-39,-2.445693e-39,-1.540197e-39,-1.570421e-39,-2.233984e-39,-2.519413e-39,-2.351415e-39,-1.482602e-39,1.85491e-40,-1.721296e-39,-2.619692e-39,-2.021772e-39,-2.561561e-39,-1.827765e-39,-2.230256e-39,-6.635328e-39,6.2639e-39,4.117945e-39,1.41774e-40,1.174976e-39,2.32905e-39,-1.632047e-39,-2.1368e-41,-1.62035e-39,5.229591e-39,4.44802e-40,-6.35458e-40,-3.727035e-39,3.026889e-39,-1.040419e-39,2.15238e-39,-7.43571e-40,-1.966837e-39,-3.146303e-39,-1.373132e-39,-2.548728e-39,-4.278649e-39,-2.109641e-39,-2.23973e-39,5.253136e-39,-1.11167e-39,2.144868e-39,-2.122335e-39,-1.630918e-39,-1.934663e-39,3.5277e-40,-1.1283e-40,-6.526431e-39,-1.172803e-39,-2.98599e-39,1.922601e-39,3.190555e-39,-2.137968e-39,-2.750401e-39,-1.405664e-39,-1.74774e-40,-6.488865e-39,2.900113e-39,2.0006e-39,1.895929e-39,-2.864073e-39,-1.38789e-39,5.191096e-39,-1.844898e-39,-2.14298e-39,-2.996593e-39,5.875789e-39,-1.57547e-39,-1.239547e-39,4.952197e-39,2.55625e-39,-2.04375e-39,-7.20822e-40,-9.06112e-40,-2.008847e-39,4.21354e-39,-2.025887e-39,2.358123e-39,-2.292806e-39,1.283013e-39,1.09182e-40,-2.143208e-39,1.914268e-39,-1.002221e-39,-2.141617e-39,-1.31704e-39,-4.68788e-40,-6.091069e-39,-1.6232e-40,6.554984e-39,3.560243e-39,1.02786e-39,-2.249255e-39,-1.452069e-39,-1.010716e-39,-2.401369e-39,-4.843504e-39,1.678425e-39,5.300912e-39,-2.940518e-39,2.410619e-39,-2.831989e-39,-1.754857e-39,1.594243e-39,-2.365389e-39,2.363232e-39,7.463e-42,4.970598e-39,7.0415e-40,9.90749e-40,5.920642e-39,-1.774921e-39,4.169662e-39,-1.38097e-40,-2.832321e-39,-5.46226e-40,-1.850636e-39,-3.467935e-39,-1.342707e-39,3.04092e-39,-3.21749e-39,-1.133353e-39,-2.247555e-39,1.618994e-39,-1.08778e-39,2.310873e-39,-6.885909e-39,-1.914546e-39,-2.75689e-40,-1.94119e-39,2.552657e-39,-2.662787e-39,-1.395302e-39,1.959773e-39,-3.651375e-39,-2.223372e-39,-1.559577e-39,-2.313426e-39,2.091424e-39,-1.875845e-39,3.303159e-39,3.296492e-39,-2.753225e-39,2.60417e-40,-2.009866e-39,1.352526e-39,2.55034e-40,-7.86322e-40,5.446e-40,2.885737e-39,-6.335333e-39,1.770337e-39,-1.573978e-39,-1.354041e-39,-2.050262e-39,-2.362947e-39,-1.308057e-39,-2.267329e-39,-2.763796e-39,-3.15697e-39,1.192321e-39,-6.72871e-40,-8.41333e-40,2.433394e-39,-1.398119e-39,-8.70222e-40,-1.394393e-39,-2.70514e-40,-8.71204e-40,-5.105097e-39,-1.92913e-39,-1.480616e-39,-3.94516e-39,-3.350744e-39,1.655273e-39,2.68039e-39,-2.805611e-39,-1.3988e-40,-2.227846e-39,-2.188252e-39,-3.219538e-39,-1.915854e-39,-9.44209e-40,-2.373301e-39,-8.20907e-40,-1.354094e-39,-7.95945e-40,-2.6591e-40,-4.72495e-40,4.76415e-40,6.33977e-40,-5.96075e-40,-1.724993e-39,-2.567257e-39,-1.797601e-39,2.348337e-39,2.572308e-39,-1.991898e-39,-2.317907e-39,-2.240382e-39,-2.075504e-39,-2.045401e-39,-1.431509e-39,-3.047741e-39,-2.056944e-39,4.97566e-40,-2.383415e-39,-2.342912e-39,-1.32917e-39,-1.87208e-39,-1.908692e-39,-1.035035e-39,-2.050924e-39,-2.097947e-39,-5.840916e-39,-2.124563e-39,-5.031145e-39,-1.458463e-39,2.74741e-40,1.730246e-39,-1.47832e-39,-1.947261e-39,-6.391439e-39,-2.503306e-39,1.558315e-39,1.14736e-39,-2.14756e-39,-1.5822e-39,-1.788303e-39,1.712877e-39,-2.649512e-39,-3.533287e-39,6.20107e-40,3.373905e-39,-2.642929e-39,1.339515e-39,4.890298e-39,-3.970808e-39,5.98263e-40,3.491652e-39,2.6977e-39,-1.172614e-39,-4.265677e-39,2.70719e-39,-5.06578e-40,-4.453119e-39,-1.753841e-39,-1.27295e-39,1.558301e-39,4.452791e-39,-1.082066e-39,2.741796e-39,2.246796e-39,-9.462e-40,9.42148e-40,-1.016178e-39,2.388862e-39,-1.274517e-39,-4.284833e-39,-4.229207e-39,-1.336193e-39,1.367698e-39,3.9953e-40,-1.549937e-39,-2.711829e-39,-1.552633e-39,1.424779e-39,-1.508892e-39,-3.310398e-39,6.832314e-39,4.951092e-39,1.744663e-39,-1.18185e-39,2.33832e-40,-3.455578e-39,6.7027e-40,1.294805e-39,-1.18593e-39,-1.82136e-39,-1.399201e-39,1.133756e-39,-4.234022e-39,-4.61455e-39,5.02394e-40,-1.303784e-39,-2.647972e-39,-1.794892e-39,-2.207397e-39,-1.90323e-40,-2.129054e-39,-7.84918e-40,-1.802356e-39,-2.875351e-39,-4.45609e-40,-8.446e-40,-2.289509e-39,2.742258e-39,-2.686145e-39,-1.758097e-39,-1.250395e-39,-1.628806e-39,4.72563e-40,-1.369682e-39,-4.956048e-39,-2.457673e-39,-3.861478e-39,-7.05222e-40,-2.07044e-39,7.87633e-40,2.674492e-39,-3.851505e-39,2.39356e-40,-4.76018e-40,-1.975657e-39,2.36673e-39,-7.02438e-39,1.36879e-39,2.057854e-39,1.933011e-39,-1.967507e-39,-2.771754e-39,-1.86683e-39,-5.6874e-40,-6.481203e-39,-1.585495e-39,3.973519e-39,5.19656e-40,-1.037067e-39,4.305491e-39,-2.592895e-39,1.06741e-40
-8.78353e-40,1.353336e-39,1.486947e-39,-2.502215e-28,1.1181616e-27,4.2163e-35,3.9948843e-28,-3.8235334e-32,2.943348e-35,2.590843e-39,2.66605e-39,1.555663e-39,2.768243e-39,2.932394e-39,2.225387e-39,4.224618e-39,1.866342e-39,2.36955e-39,-9.841427e-32,4.325169e-34,-9.134839e-37,7.0705974e-35,1.525379e-39,1.393031e-39,2.94316e-39,-1.939228e-39,5.874568e-39,2.00063e-40,-4.67906e-40,5.43705e-39,-4.17675e-40,-2.047178e-39,2.534492e-39,-4.83038e-39,3.273107e-39,-7.04735e-40,1.661414e-19,9.204607e-19,-2.6760126e-14,2.9253355e-21,1.8343672e-20,-1.2991114e-17,6.3730063e-19,8.238083e-21,-5.2432345e-17,-3.094612e-39,-2.60152e-39,-2.275738e-39,-2.835319e-39,-3.505303e-39,2.397169e-39,-5.28206e-39,-5.377427e-39,1.849605e-39,1.748912e-39,2.65453e-39,1.488489e-39,-5.90855e-40,5.7304e-40,8.74583e-40,-3.34521e-39,-2.32862e-40,-8.26504e-40,-1.3310416e-33,-3.333128e-35,-6.8705326e-35,2.2788586e-36,1.3450605e-37,-1.448868e-39,1.6488382e-31,5.7705296e-37,-3.390948e-39,1.4480152e-32,7.7034217e-31,1.8724096e-28,-1.4415826e-38,4.5674335e-35,1.933706e-39,-5.607271e-38,3.267144e-39,5.68501e-39,2.575715e-39,3.748958e-39,2.55015e-39,-6.15902e-40,1.168492e-39,1.030272e-39,-3.493703e-39,1.711434e-39,9.74157e-40,-3.1311e-40,3.034086e-39,-1.295604e-39,2.792503e-39,-2.845243e-39,2.383358e-39,-1.935745e-39,-3.389531e-39,-2.124325e-39,-2.292789e-39,-2.934514e-39,-6.36959e-39,3.736724e-39,2.784662e-39,-1.882814e-39,2.085422e-39,2.038844e-39,2.519896e-39,-2.1973e-39,-2.888247e-39,3.89482e-39,4.20813e-40,-5.617319e-39,-1.336455e-39,-2.96087e-39,-1.81449e-39,1.708027e-39,-6.12105e-40,-1.847398e-39,-2.264958e-39,2.241375e-39,1.915481e-39,-5.719973e-39,9.88497e-40,8.8415e-41,-4.624344e-39,1.011742e-39,1.752294e-39,1.411304e-39,-9.98233e-40,-2.023961e-39,-2.43936e-39,1.175647e-39,-2.209317e-39,-2.217245e-39,-4.503682e-39,-2.238349e-39,-6.339819e-39,4.975753e-39,-1.00065e-40,-2.058516e-39,3.808505e-39,6.32237e-39,3.839299e-39,2.852852e-39,2.645789e-39,2.29251e-40,2.0286e-39,6.037601e-39,4.797613e-39,1.8285e-40,-5.43758e-40,5.08793e-40,1.4156834e-29,-4.216869e-25,-2.8112028e-21,5.6865974e-35,-2.2246807e-31,-1.0420438e-26,1.347788e-39,-3.4239547e-30,-9.917528e-29,-2.4745326e-29,-8.606221e-33,-1.7530495e-37,5.6637545e-34,-8.862826e-38,1.078903e-39,-3.6135973e-27,-2.0587007e-29,-8.894176e-38,9.2762e-40,2.27362e-40,-4.15554e-40,2.01757e-39,2.203407e-39,2.441962e-39,5.18556e-40,1.602616e-39,2.815067e-39,2.8082364e-24,1.2703795e-25,5.261679e-26,7.4710605e-27,-5.834633e-34,1.0072525e-28,1.1376272e-27,-2.2360733e-37,-2.6724233e-37,2.934321e-29,1.1774025e-25,-4.5168126e-27,6.417687e-26,1.4346914e-27,1.3649941e-29,1.0665794e-24,-8.397052e-29,-5.613906e-30,2.291908e-39,-6.302106e-39,-2.023524e-39,-7.96029e-40,-3.546196e-39,-4.139298e-39,-1.3875e-40,8.2915e-40,2.109604e-39,2.544516e-39,4.82115e-39,-2.470778e-39,-1.733996e-39,-2.492229e-39,-2.732791e-39,4.48708e-40,2.257192e-39,2.310406e-39,2.932345e-39,-2.43471e-40,-4.699183e-39,2.153249e-39,6.88213e-40,-3.879205e-39,-4.5016e-40,-5.368394e-39,-1.916375e-39,-1.084353e-39,-1.47099e-40,5.793348e-39,2.428607e-39,1.79372e-39,4.776748e-39,6.515022e-39,2.873431e-39,2.389969e-39,5.516203e-39,-5.250225e-39,-6.353065e-39,-3.001759e-39,-3.365619e-39,-2.645566e-39,3.117777e-39,4.53409e-39,-2.25291e-40,6.086835e-35,1.6439428e-24,9.180618e-23,1.3076687e-31,1.4071349e-21,7.8983465e-22,-4.9159294e-37,-9.731263e-30,-2.032445e-28,-3.885027e-29,-6.838284e-25,1.4115112e-33,-1.2690385e-36,8.0591e-35,2.9479917e-34,-3.514471e-30,1.776432e-35,2.041211e-39,1.83536e-39,1.947459e-39,1.386642e-39,2.285816e-39,2.300262e-39,2.18968e-40,2.246539e-39,1.374134e-39,1.143652e-39,1.6719935e-32,2.593504e-35,1.218847e-35,-7.2050967e-38,2.238224e-39,-1.638632e-39,2.5362008e-36,-7.125481e-37,6.4562816e-35,-3.0288672e-28,-3.616985e-27,-7.174233e-29,5.922794e-35,-5.193617e-33,-2.5337673e-29,5.59662e-39,6.60836e-39,-5.890253e-32,-2.374259e-39,2.799259e-39,1.858253e-39,-3.098973e-39,-8.36407e-40,-2.513086e-39,6.97241e-40,-1.810131e-39,-2.538355e-39,1.6277834e-30,4.7341554e-31,-3.51328e-37,-1.144705e-39,4.464182e-39,2.239753e-39,-3.021115e-39,2.799115e-39,3.63317e-39,1.87554e-39,1.346644e-39,5.184084e-39,1.67158e-39,2.53791e-39,1.74334e-39,3.047798e-39,2.111122e-39,2.856693e-39,-4.494757e-32,2.2205757e-32,4.777885e-30,-2.3262718e-29,-5.42502e-27,-3.8430968e-31,6.872655e-35,-5.0144e-32,1.8867621e-28,1.934315e-39,4.294877e-39,4.4811808e-35,4.356413e-39,6.625406e-39,9.071263e-37,6.549383e-39,6.410021e-39,-3.769661e-37,1.969868e-39,-2.673156e-39,-4.470693e-39,-2.804707e-39,-2.702449e-39,3.399738e-39,-3.862344e-39,1.12904e-39,2.883456e-39,-1.50299e-40,5.13193e-40,4.5799657e-36,4.3898e-41,9.5986e-40,-6.4363106e-33,9.73332e-40,5.25109e-40,1.22652045e-33,-2.851837e-39,-5.627526e-39,-1.770772e-39,8.39917e-40,2.584048e-39,2.445721e-39,1.060433e-39,1.189475e-39,1.63404e-39,3.1494992e-35,1.7257921e-33,-1.62521e-40,4.299229e-39,-5.86872e-40,1.640583e-39,2.494046e-39,4.089897e-39,2.193953e-39,7.90569e-40,3.891047e-34,8.95389e-40,5.0252e-34,1.67507e-40,1.721875e-39,-1.432155e-39,6.611001e-39,-4.50599e-40,6.145627e-39,-4.575797e-39,4.833825e-39,3.399909e-39,-2.324805e-39,-1.670052e-39,5.564741e-39,2.281827e-39,-1.963668e-39,6.3916e-41,-1.254008e-39,-2.46211e-40,-4.26188e-39,-1.839573e-39,-2.80787e-39,-1.961909e-39,-5.612374e-39,-1.210653e-39,2.311747e-39,5.858274e-39,3.659949e-39,-1.4997e-40,-1.014662e-39,-2.26183e-39,5.56262e-40,-4.43404e-40,-4.107555e-39,4.04698e-40,-2.157635e-39,-1.649576e-39,2.270325e-39,-6.907194e-39,-4.093512e-39,-1.88612e-39,2.527732e-39,2.759936e-39,-1.146e-41,-5.93537e-40,8.5418e-40,-4.208475e-39,2.51665e-39,2.531067e-39,-1.182538e-39,2.534834e-39,-1.204527e-39,1.66735e-39,1.2621214e-34,-2.8449156e-34,6.365987e-39,-2.8329478e-34,1.2734168e-29,-1.351195e-39,-1.0684e-39,-2.2937933e-38,-1.1427648e-30,-2.0181823e-26,-1.5858487e-30,8.999687e-35,8.9305455e-37,-3.7232137e-37,-3.2304768e-37,2.031673e-39,-8.500508e-37,2.957666e-39,4.068882e-39,2.106508e-39,4.402492e-39,-5.237866e-39,3.79629e-40,3.265046e-39,2.677946e-39,-3.79829e-40,1.884564e-39,1.914078e-39,2.348332e-39,2.604128e-39,6.811022e-39,1.19738e-39,1.35861e-39,-1.78723e-40,4.5486e-41,-1.1151037e-25,2.1163668e-23,-5.999484e-26,2.295488e-24,-6.3838323e-28,3.222209e-35,-4.735762e-34,2.26475e-40,-3.8256962e-31,-4.236972e-39,5.343185e-39,-8.93605e-40,1.71992e-39,2.790166e-39,-1.927202e-39,1.913e-39,2.628602e-39,4.065418e-39,-3.60532e-40,1.134532e-39,2.085382e-39,1.929013e-39,-4.805595e-39,9.63121e-40,-4.086043e-39,-1.180808e-39,1.632502e-39,-4.262045e-39,2.26521e-40,5.892125e-39,-6.81276e-40,-1.776727e-39,3.011936e-39,2.009671e-39,9.77268e-40,-9.0502e-40,-1.9266592e-37,-1.8185149e-38,-1.1371999e-37,4.062888e-39,-7.598503e-39,1.7857086e-35,1.557528e-39,9.056838e-35,-1.5173859e-36,3.728225e-39,1.1413323e-26,-2.212823e-31,2.04177e-39,2.261486e-39,-5.639092e-38,4.893921e-39,2.671206e-39,6.501463e-39,-5.343206e-39,3.010362e-39,-1.718082e-39,3.490773e-39,4.459041e-39,-3.75117e-39,-7.7314e-40,2.588006e-39,-2.205027e-39,-5.95557e-40,1.250397e-39,1.563758e-39,2.46769e-39,6.526658e-39,3.97205e-39,5.041893e-39,1.77962e-39,4.517918e-39,3.653401e-39,-4.49445e-40,4.845872e-37,1.591882e-39,-7.05746e-40,-3.4511526e-37,1.924824e-39,-1.86666e-40,1.40478e-39,1.96203e-40,-6.22604e-40,-3.1976e-41,2.8951557e-27,7.224376e-34,1.5526359e-38,3.1570527e-35,-9.055837e-39,3.084838e-39,-6.565225e-39,-6.120708e-39,-1.923433e-39,-4.735342e-39,-6.392534e-39,9.21158e-40,-6.096729e-39,-3.435363e-39,2.4211e-39,-3.165864e-39,3.4273e-40,1.416262e-39,-9.36349e-40,2.8948e-40,4.447751e-39,-4.383884e-39,1.49844e-39,1.903906e-39,-1.372363e-39,3.81473e-39,2.248844e-39,-8.63186e-40,6.3847e-40,-2.574091e-39,1.405076e-39,-1.183894e-39,5.317175e-39
-0.002567056,0.002662227,-0.03148538,0.02712963,0.023804203,0.027341215,0.06259262,0.035000168,0.026443973,-0.024869053,-0.04245628,-0.029274806,0.007507786,-0.016435241,-0.007049446,0.038422816,0.023183456,0.024594925,-0.02120641,-0.039935514,-0.046847817,-0.021474453,-0.0466878,-0.062968336,-0.0138284275,-0.02511365,0.0048637963,0.0010036534,-0.009213234,0.01786198,0.0071665775,0.0012134868,0.029515231,0.009924898,0.016455956,0.035251826,0.030502774,-0.00022846826,0.005547397,0.09486734,0.053092577,0.035775647,0.13018581,0.09436301,0.058598507,-0.012408189,2.4059475e-05,0.0075648385,-0.008351903,-0.0066552754,0.0065894374,-0.0104304245,9.8852965e-05,0.00053587917,-0.0068798726,0.0118990205,0.0030580168,0.003936619,0.009628726,0.009802027,-0.0065145753,0.027876085,0.018637713,0.07522635,0.039107684,0.031001508,0.07813094,0.014961298,-0.0065746927,0.094696656,0.018424828,-0.010319886,-0.0011987988,-0.027261417,0.027799867,0.007168045,-0.045554467,-0.025626982,-0.00012210227,-0.017392762,-0.035916243,-0.01919195,-0.008051181,0.015634347,0.003565512,0.020850727,0.032592278,0.009739547,0.014574448,0.025813464,-0.003619501,-0.008475687,-0.01608404,-0.009581962,-0.017499447,-0.02202844,-0.0051496103,-0.0058101313,-0.012500569,-0.039607905,-0.016834531,-0.030069375,-0.030281143,-0.021513358,-0.026902927,-0.013156072,-0.026616562,-0.027198087,-0.016710175,-0.031613287,-0.008986014,-0.0006750018,-0.017326634,-0.020594636,-0.010223784,0.010666727,-0.023030631,-0.027362082,-0.012444709,-0.00620862,-0.019903487,0.0051247226,-0.01072677,-0.010955031,-0.0056061684,0.0020008835,-0.00084660214,-0.00020593325,-0.00047131348,-0.005673409,-0.003368584,-0.0019337283,-0.00051173416,0.0026734073,0.0015305965,-0.022616476,-0.027122984,-0.013693571,-0.02808602,-0.02530569,-0.03532644,-0.0103444755,-0.028360935,-0.02054607,-0.033945337,-0.032941088,-0.02489254,-0.038071938,-0.029746428,-0.032946438,-0.038510736,-0.036924135,-0.03338522,-0.0018832544,0.02642474,0.04606676,0.042257093,0.03504322,0.02876563,0.049142312,0.03909174,0.013705729,-0.019153938,-0.020734247,-0.01468988,-0.020062141,-0.001924467,0.0019609148,-0.0007441086,-0.026458789,0.00552204,-0.053198095,-0.023936799,-0.022663664,-0.030832902,-0.024415571,-0.011802024,-0.028033752,-0.015489926,-0.0013670287,-0.011217095,-0.0015629433,-0.003156776,-0.008488703,-0.0040599653,-0.002526566,0.005413587,0.0002824093,-0.0006003546,0.02510781,-0.013440806,-0.03670253,0.020615915,-0.026371859,-0.041042887,0.030286044,-0.0032616549,-0.009045536,-0.027071793,-0.0052821836,-0.025862169,-0.024475224,-0.013320803,-0.02320211,-0.05146424,-0.028749296,-0.04220878,-0.04609039,-0.026286079,-0.00435155,-0.047830187,-0.030729515,-0.010167299,-0.052407704,-0.03440024,-0.01980774,-0.008512172,-0.028616447,-0.0028521535,0.0069479523,-0.014101547,0.0064542787,0.0059093866,-0.017763434,-0.0039449236,-0.017511738,-0.0078101945,-0.036916457,-0.0053310073,-0.0068208086,0.0017322596,-0.012152923,-0.01634835,-0.02715071,-0.0120145455,-0.009353697,-0.014024946,-0.033908233,-0.021970065,-0.023030972,-0.07524116,-0.02884979,-0.03509602,0.01120532,-0.002335199,0.011515108,-0.04415638,-0.03024133,-0.020793037,-0.030424424,-0.045839027,-0.053450037,-0.079979084,-0.041574497,-0.029235974,-0.04543742,-0.066592455,-0.055546016,-0.048935317,-0.06418365,-0.045131788,-0.007862839,-0.021818083,-0.009976274,-0.003998823,-0.009981317,-0.0034401228,0.018286299,-0.002732977,0.0006033722,-0.06758051,-0.047351405,-0.03371613,-0.03135885,-0.050648607,-0.037756547,-0.024354324,-0.029725175,-0.0021864232,-0.019559084,0.0033962599,-0.008412851,-0.01603977,-0.014638199,-0.028721763,-0.043196507,-0.015830008,-0.020633614,0.0046159765,0.018474272,0.013636898,0.03134322,0.00911806,-0.018366491,0.016142745,0.01650887,-0.02122199,-0.028859152,0.007774948,-0.021334074,-0.021574842,0.008514458,-0.014873346,-0.0061919596,0.003117857,-0.0020855148,-0.06105977,-0.009334956,-0.033730004,-0.024883142,0.010649663,-0.025985394,-0.018388487,-0.019295372,0.014116292,-0.039519493,-0.019041765,-0.04454926,-0.027959034,-0.022065148,-0.037031498,-0.012327908,0.0015393718,-0.00569871,-0.025601516,-0.027813334,-0.029773002,-0.010823974,-0.0065125423,-0.015439095,-0.0154267205,-0.053885315,-0.00011689646,-0.0063242987,0.0057041915,0.004822316,-0.004896408,-0.0015065833,-0.011901379,-0.010904624,0.0030796381,0.0047368025,-0.0005117644,-0.018406438,-0.021272307,0.033670258,0.0003124901,-0.004291463,0.05374969,0.033600956,-0.0065553766,-0.063489564,-0.045567647,0.0068813977,-0.041252784,-0.017870434,0.007956259,-0.0059019867,-0.012668121,-0.0004029663,-0.0030060918,-0.01182922,-0.018477062,-0.025124332,-0.019150998,-0.049910937,-0.025057863,0.0058925278,-0.0005054439,-0.0640975,-0.029996283,-0.03605234,-0.04734332,-0.04983315,-0.06192589,-0.026058856,-0.018714959,-0.05064067,-0.013282271,-0.015359952,-0.019331034,-0.0028790608,-0.011506311,-0.03671629,0.020484865,0.02959972,0.006577477,-0.0042423937,0.0044056443,-0.0015557264,-0.003873106,-0.0034971545,-0.008103559,-0.0054851165,-0.005751362,-0.004554854,-0.035319034,-0.044072054,-0.042390905,-0.01280015,-0.023412563,-0.029044745,-0.006749953,-0.009004038,0.0024907226,0.0073395,0.018155558,0.0049680844,0.017095516,0.023198007,0.00014036044,0.021618925,0.014425694,-0.010315794,-0.010948921,0.003867215,0.022500636,0.030518739,0.026436543,0.041444045,0.027011916,0.029640831,0.007290169,-0.024967872,-0.06969391,-0.07276801,-0.02361191,-0.03383319,0.00031384997,0.0047062924,-0.013910068,0.010119216,-0.014209537,0.012292873,0.021423519,-0.028521083,-0.005645039,0.0075946385,-0.024349991,-0.0051364573,0.02074716,-0.06342704,-0.026118679,0.00193873,-0.04284078,-0.008163582,0.006971963,-0.009200723,-0.00067955063,-0.01718974,-0.011478238,0.0047209584,-0.047217242,-0.028140243,-0.014411287,-0.04971814,-0.03794787,-0.0077934703,-0.033031438,-0.0047670975,-0.018651288,0.019869665,-0.0121269,-0.008762218,0.0031592348,-0.019775229,-0.028314598,-0.031756394,-0.010874881,-0.0055345683,0.0019304428,-0.0021528034,-0.0030193985,-0.008866229,-0.005896628,0.0022060822,-0.010418794,0.007927164,-0.0015708003,-0.01928057,0.015581266,-0.015244393,0.00434487,0.008109487,-0.012843578,0.0030596466,0.00017380205,-0.0056274277,-0.010897688,0.004954138,-0.0028188266,-0.012669047,0.0069085155,-0.0048733265,-0.012282261,-0.012084342,-0.011737124,-0.029690035,-0.0005696341,0.016831338,-0.0073072957,0.019864934,0.008413546,0.01880002,-0.042010855,-0.04470958,0.011521213,-0.031651583,0.00448784,-0.003993457,-0.0007527568,0.022545576,0.009294325,-0.0152010415,-0.050333913,-0.018340236,0.0015259559,-0.029043509,-0.011245081,0.026922224,-0.003058523,-0.0057988656,-0.04073307,-0.026494808,-0.03798654,-0.023520118,0.00263365,-0.028453536,-0.029183077,-0.015290503,-0.008549229,0.014844848,-0.03352035,-0.041630715,0.029118147,0.016817054,-0.032695845,0.029599989,0.034912724,-0.00320194,-0.033614926,-0.03818533,-0.016718708,-0.036554776,0.0042377096,-0.004489502,-0.045791116,-0.004161092,-0.03253917,0.055398084,0.045850027,0.00642804,0.030636707,0.014904458,0.0080596395,0.034970548,0.021247383,-0.005844161,-0.0058825784,0.016803123,0.014429789,-0.007605402,0.010124516,0.03336855,-0.01642638,0.0132378,0.050865866,-0.00023601069,0.0016462394,0.0038897612,-0.009539811,-0.004334552,-0.003278713,-0.008033491,0.00054736866,-0.0011223094
-2.0494442e-17,1.8186534e-15,1.11789316e-20,-8.569289e-14,-5.7197517e-18,1.273038e-16,2.4373977e-17,-4.5953e-18,5.5619257e-19,-2.8534323e-23,-1.0846242e-22,-9.4482555e-26,-3.472873e-21,1.4277921e-20,6.297992e-31,-1.2469701e-21,9.947335e-28,1.5314758e-30,3.1737095e-14,-5.1392857e-17,-6.537724e-20,-6.285171e-23,-6.4660783e-24,2.7674736e-19,-1.5023433e-33,-5.024935e-17,-9.744275e-22,-3.272482e-39,-6.46297e-40,-1.512821e-39,-2.084143e-39,4.281701e-39,-4.879278e-39,-2.289904e-39,-1.660052e-39,-4.804454e-39,-2.670822e-08,-1.0765256e-09,-8.208062e-11,-2.1010564e-09,-3.1037818e-11,-7.300313e-11,6.731196e-11,-7.985479e-11,-2.2221984e-09,2.484003e-25,-8.310027e-31,-7.689735e-36,-2.2852244e-21,1.0792502e-29,2.7820893e-31,-4.909605e-25,3.5805502e-32,3.2141433e-28,-3.495982e-39,2.508967e-39,-5.4564567e-33,1.409226e-39,2.549769e-39,-1.736092e-39,-5.07466e-40,2.165502e-39,-1.9109e-40,-3.8420955e-18,3.0265798e-18,-1.5279829e-23,3.29765e-13,2.331339e-12,9.947199e-18,2.2505176e-10,3.6079378e-13,2.9766237e-15,-2.934651e-17,-4.3616234e-14,-3.3722892e-14,-3.139261e-16,-3.1578407e-11,-1.860928e-14,2.358097e-11,2.7500384e-17,1.9322908e-17,-2.786152e-18,-3.2090867e-22,-1.4610744e-22,-1.3076361e-27,-8.024565e-38,-3.0481123e-38,-2.3704578e-33,1.534409e-39,1.436973e-39,3.17549e-39,1.454069e-39,5.59865e-39,-5.97496e-39,3.091187e-39,-3.84188e-40,-3.529284e-39,-1.091917e-39,6.17987e-39,-3.2211848e-19,7.44161e-33,1.12766606e-29,-9.688799e-25,8.0264116e-30,1.2342247e-17,4.388303e-27,4.8726524e-21,6.756378e-23,-5.327053e-31,2.0693189e-35,7.909439e-19,-2.177209e-34,-6.7961516e-23,1.3641562e-20,-1.32154e-38,-2.5540801e-17,3.127006e-39,1.5544339e-38,-2.8394305e-33,8.546615e-39,-6.45664e-40,1.514305e-39,2.0862e-39,-2.98383e-40,-2.1109487e-36,-9.644e-42,6.539717e-39,5.796397e-39,-3.365716e-39,5.224505e-39,1.670564e-39,-5.146047e-39,-1.60223e-39,-2.658116e-39,3.558763e-39,1.0933214e-27,5.79207e-40,-1.7593406e-38,-1.23732925e-26,-1.7934059e-38,-2.833392e-31,-1.710409e-20,3.3026527e-20,-4.9693054e-35,8.041773e-32,-1.851538e-39,9.41017e-40,3.461353e-37,-2.012298e-39,-2.511505e-39,6.0826967e-37,-2.411687e-39,1.39264e-40,-1.1716326e-12,-7.964238e-14,-9.972371e-14,-3.8528473e-19,-2.9721395e-15,-9.8617685e-12,-2.6756357e-16,-9.850965e-12,-4.974977e-13,8.2085144e-29,-3.2613618e-24,-2.672154e-31,-2.4470203e-18,4.5075175e-20,-3.363568e-27,-2.098248e-18,-1.4266194e-19,1.1728317e-24,3.39438e-19,-2.57559e-34,2.2311294e-25,2.2660523e-25,-1.5265025e-22,-1.0766008e-38,2.459939e-39,-1.5000564e-37,-2.542669e-39,1.0891964e-18,-6.3123053e-26,-2.0958505e-21,3.8395107e-17,-5.3762602e-24,-6.0037273e-18,3.504328e-17,2.7542155e-20,-1.0236187e-20,-2.9569903e-19,2.8362757e-19,4.4588566e-19,-2.408852e-16,1.2619645e-14,4.571525e-17,-6.945663e-14,4.3881203e-15,1.3450829e-14,2.3782574e-35,-1.58065e-39,2.612242e-26,-3.6644336e-37,-6.899142e-39,-2.55571e-39,-2.873753e-39,-1.471899e-39,-9.612265e-35,-3.9147667e-34,-3.3657088e-31,-3.41743e-31,-6.798392e-36,-1.706075e-36,-3.4599714e-37,-3.368572e-39,-1.6481974e-33,-1.97416e-39,6.386676e-39,-3.888637e-39,1.599771e-39,5.2441e-40,1.33335e-39,1.2450403e-33,-1.6227422e-38,1.060885e-39,-2.318021e-39,-1.7196025e-20,8.5316856e-20,9.346885e-27,-2.1487449e-14,-3.550784e-19,-1.5197783e-22,-2.498695e-12,-2.201185e-12,1.2561612e-16,-6.3740224e-38,3.510932e-27,9.8340315e-33,3.5243217e-24,-2.6792004e-21,-4.823838e-24,-5.2079264e-28,-9.580326e-28,4.1930067e-19,1.7979292e-21,2.5908994e-17,1.4775794e-10,-9.968281e-21,-1.2328151e-15,8.599313e-11,-4.023542e-18,-4.343953e-16,3.031947e-16,4.975268e-18,-1.2113846e-12,8.0751465e-20,-8.5399423e-17,5.690464e-13,2.7301095e-33,-8.652671e-15,4.3237785e-18,2.0620066e-21,8.688393e-31,-3.6345856e-33,4.138437e-36,2.0526725e-24,-1.3266794e-33,-1.8393933e-23,-1.694751e-33,-1.3680443e-25,2.211437e-39,-1.9020136e-21,-1.19365385e-20,-1.159129e-18,-5.1254425e-21,-1.1091205e-15,3.5994678e-15,9.849876e-30,-4.5967114e-19,-2.200895e-21,1.2183049e-23,-1.5037867e-25,7.2337365e-23,-1.3131055e-24,-1.309573e-18,4.5086708e-18,5.587184e-32,1.6713107e-17,-2.2861268e-23,-8.03825e-31,-2.0933252e-34,3.0358665e-37,2.2236916e-31,2.222e-40,-4.3866588e-36,-1.2193196e-37,-1.0460082e-31,8.83957e-40,-1.2370204e-15,4.6331628e-35,-5.1001384e-28,1.9928928e-20,6.066939e-26,-1.5492441e-21,-1.4517757e-30,-2.5939703e-29,1.0153403e-32,-2.9456565e-27,-5.704214e-22,-2.2380988e-36,1.8618693e-35,-7.9709686e-26,-9.116198e-28,-5.230654e-34,4.0692166e-26,-3.8451225e-26,-3.915114e-12,4.323036e-15,-7.0757e-18,-1.12662836e-13,-1.3951436e-16,-2.3733765e-14,-3.7184687e-13,-1.9892615e-21,8.388321e-16,-1.6136968e-22,-4.6893105e-18,-2.2145996e-28,3.9072425e-38,-7.7867073e-20,2.1783724e-22,-4.695201e-36,-4.9173354e-23,-5.874383e-22,-5.80789e-39,-1.535579e-39,2.251859e-39,-1.877956e-39,9.8112e-40,-5.718073e-39,-2.257912e-39,5.259304e-39,6.1307196e-35,-7.70558e-24,-1.7736798e-21,4.570633e-22,-9.327407e-24,6.283171e-19,1.4107367e-18,-4.933778e-24,2.3168217e-28,-6.4325023e-19,6.0563485e-34,2.1257424e-31,-8.360722e-28,7.459458e-31,-5.398489e-19,5.4075483e-25,3.1017568e-36,-1.6485287e-22,5.6424587e-32,-1.220205e-25,-1.2739242e-25,1.3524328e-23,-2.1658552e-26,3.5520795e-16,1.952497e-31,-1.6796363e-22,-5.561797e-26,1.1712504e-32,-3.528861e-21,-7.902045e-25,-6.8118203e-34,-2.163166e-28,-7.770947e-22,-1.3654613e-24,2.6937782e-22,-1.8436833e-27,-5.0919776e-23,-2.316383e-39,-2.943011e-39,1.929041e-39,1.5251622e-32,-5.2444887e-35,1.82425e-40,2.76363e-40,4.792065e-39,-1.4847267e-33,6.041826e-39,1.304554e-39,-3.807071e-39,8.3291e-40,-3.397133e-39,-3.63016e-40,6.414e-40,-5.1765e-41,-3.299204e-39,-1.1659237e-15,3.164154e-17,7.942606e-18,-6.831309e-21,-4.4821987e-25,2.1216467e-24,1.2223238e-22,-1.6740173e-24,1.2226283e-24,2.173733e-37,-1.0361396e-31,2.4799075e-21,9.2308255e-36,-1.0259982e-24,1.8181803e-21,6.384317e-39,3.7046485e-31,-6.7354156e-23,1.767442e-39,7.04803e-39,-6.0403156e-35,-1.163267e-39,-1.214514e-39,3.216973e-39,1.70183e-40,-5.17847e-39,-1.510458e-39,-4.05435e-30,-8.162397e-25,1.0456539e-15,3.633454e-30,2.067954e-20,-2.1118217e-15,-1.7329615e-32,-4.6671168e-26,-2.8812585e-21,-1.4148155e-18,-1.4127479e-20,6.658616e-32,-4.842747e-23,-6.613821e-24,-1.5873522e-32,-9.800857e-19,-1.7846567e-23,1.11412995e-24,-1.1025088e-35,-2.36407e-24,-1.69053e-40,-1.2399418e-25,-2.677814e-18,-3.3018703e-33,-6.876126e-24,-3.8506813e-25,-1.6152815e-33,-1.0622041e-38,-3.140104e-39,-2.596477e-39,-1.2257271e-23,1.774243e-39,2.4143187e-34,1.1289274e-30,8.94391e-40,3.425046e-36,-3.304618e-16,-4.2769768e-12,-4.2807113e-17,-5.718625e-13,-1.2488773e-12,-1.3644152e-17,-3.271273e-12,-3.362057e-12,-8.828312e-18,4.069699e-39,-3.7752927e-34,-3.9352455e-31,-1.314496e-38,2.2015471e-32,1.03466665e-30,-5.6123e-40,2.541641e-37,-6.86146e-40,-2.79439e-40,4.3294e-40,2.08424e-39,-1.32126e-39,1.42607e-39,-3.356e-41,-4.59744e-39,6.09893e-40,4.38849e-40,-1.841708e-39,-1.160959e-39,1.972684e-39,1.663285e-39,3.315199e-39,-2.595929e-39,1.12879e-40,-1.456489e-39,3.48618e-39,-4.0751902e-28,-2.657432e-18,1.1001468e-15,-7.323356e-19,8.333776e-15,6.4695745e-24,-6.725158e-17,-7.807244e-19,-4.3891563e-19,-9.008588e-28,3.518752e-18,-6.139002e-23,-5.5680807e-22,-1.3164037e-23,-3.079049e-25,3.6882678e-36,3.7189215e-36,-8.5489805e-17,3.813729e-39,1.447362e-39,-1.211498e-39,-5.64597e-40,4.666625e-39,-3.16722e-39,3.0219e-39,-2.623754e-38,3.550426e-39,-1.2393815e-21,-9.130936e-15,3.3893902e-28,1.01378316e-35,-6.3597505e-23,-2.4854198e-28,1.89538e-37,-2.4868826e-22,5.6712695e-36,-1.212937e-25,3.877901e-26,-3.199677e-31,-1.2616566e-30,4.8638563e-27,-1.1588665e-24,-2.313436e-39,-4.694385e-39,1.771512e-39,8.674147e-26,2.0606517e-19,4.405101e-24,-3.3069443e-13,-1.912452e-16,2.1943354e-30,-1.10974514e-10,-7.944075e-13,-4.557835e-34,-2.941337e-22,-6.048502e-22,-2.2432352e-19,1.1880899e-19,9.121742e-20,-3.0559746e-19,5.212252e-28,-6.6850396e-23,-1.4535357e-17,1.636481e-39,-5.956369e-39,-4.679035e-39,-2.320958e-39,-1.016901e-39,1.748842e-39,6.218104e-39,1.62576e-39,2.975471e-39,-1.766974e-39,2.283853e-39,-2.234192e-39,-1.985843e-39,8.71147e-40,1.794412e-39,1.47192e-40,7.57222e-40,-1.438523e-39
5.082915e-23,1.1412801e-24,5.255615e-24,1.1461704e-23,-1.780058e-39,-1.6867668e-21,-8.974637e-31,-1.099418e-24,1.5452305e-21,-1.2632175e-27,-1.1668854e-31,-1.8855328e-31,4.1688982e-26,3.255696e-36,-1.0657953e-23,-2.734006e-26,-9.756999e-25,1.3401476e-25,2.1376163e-20,-3.7833352e-17,-9.7701945e-21,-4.560226e-22,-4.417838e-13,-2.8111008e-38,-1.2412087e-13,6.7713976e-32,2.4061025e-30,5.923978e-39,5.336947e-39,6.25655e-40,-4.554645e-39,-6.51815e-40,3.515289e-39,-2.963033e-39,-9.79356e-40,2.386085e-39,-4.68485e-33,2.3355556e-23,5.44798e-27,1.1271658e-24,1.029791e-23,1.9785944e-20,1.7817975e-25,-2.8832532e-23,1.8204008e-20,4.143672e-39,1.418669e-39,6.68422e-40,4.51678e-40,1.73216e-39,2.186143e-37,5.292907e-39,-5.3007814e-30,-2.19537e-40,-1.393084e-39,-8.332853e-24,-6.267644e-39,-3.835975e-21,5.179841e-39,-2.419403e-39,-8.792558e-37,-2.843338e-39,6.8165e-41,-1.8107245e-37,-5.085896e-39,-1.727644e-39,-3.08277e-40,4.750423e-39,-7.579524e-31,-1.59568e-39,9.740625e-34,-3.9895848e-35,-3.137973e-22,-1.0377039e-17,1.5478453e-25,-4.528213e-16,1.2673256e-14,-5.3399044e-24,1.9252125e-19,2.3824695e-27,-7.703613e-24,-3.566233e-39,3.3603587e-27,5.500036e-26,-1.367524e-31,3.890173e-21,-2.930421e-31,-1.121718e-39,-5.038532e-33,6.370534e-37,-6.04128e-40,2.580776e-39,-3.578353e-39,2.027875e-39,2.370572e-39,6.584e-40,6.104027e-39,-2.157373e-39,1.173452e-39,3.502641e-39,1.01963234e-20,6.7956215e-21,-6.571215e-29,2.919468e-14,2.3584727e-35,-7.538534e-24,3.095418e-22,1.8399769e-32,-4.3558096e-37,-1.7033882e-21,-2.5869927e-25,-2.3771788e-34,-1.728182e-18,-9.537493e-35,-2.0337428e-19,-5.7615305e-33,6.616002e-39,-6.891262e-25,-3.4258532e-20,8.007431e-32,-1.2899193e-18,-1.889224e-19,3.344118e-32,-2.9769353e-18,-3.1383235e-30,-2.3554642e-25,4.40332e-39,-2.733981e-39,-3.204302e-39,2.8881e-40,-8.17363e-40,-3.583676e-39,1.990676e-39,-1.94281e-39,-1.614586e-39,-2.1932944e-37,-1.222148e-27,5.5023043e-31,3.817674e-38,3.0365303e-24,2.6306542e-33,9.797368e-33,-1.5824962e-30,-3.6722943e-27,2.618822e-39,1.1616203e-32,4.860537e-37,9.22712e-40,-3.3731983e-22,1.5200157e-32,-8.988449e-26,-8.313741e-33,1.0201074e-37,6.0097443e-23,1.348179e-26,-3.626474e-30,-7.327681e-36,7.0553057e-25,7.566464e-23,3.0902257e-17,2.3257614e-28,-4.823464e-30,-7.353225e-39,-4.0533542e-35,8.758011e-29,1.4002063e-20,1.2249058e-24,5.21715e-20,5.431692e-26,-1.381022e-27,1.6306387e-18,1.694274e-39,-4.276246e-18,-1.5067458e-19,3.906647e-31,1.0451273e-18,-3.9035366e-24,-5.7235995e-32,-4.211096e-36,-2.900288e-33,-5.454993e-39,4.6697414e-35,-3.6455529e-31,1.681079e-39,2.833433e-25,1.096228e-28,1.1934004e-34,1.2001493e-21,-7.6434205e-27,-5.788799e-31,-6.0202173e-32,-1.7828324e-28,1.234473e-17,1.1246513e-20,-4.2751607e-23,1.976358e-24,1.3457284e-32,-1.2020083e-21,-1.7976682e-31,9.48882e-40,6.688457e-36,-2.15833e-39,4.268807e-31,-1.256846e-29,2.505115e-39,-5.668822e-19,1.9473879e-32,-1.7462e-40,-3.9094743e-37,1.5597322e-25,-2.1672076e-37,1.5143931e-27,3.525835e-27,-2.2195689e-36,-4.541911e-33,-7.81164e-24,1.3961783e-34,-1.18855e-39,-1.231523e-39,7.84502e-40,-3.16536e-39,-7.37746e-40,-1.44594e-40,-4.111512e-39,-4.733045e-39,-3.5792983e-25,-8.988646e-35,-4.1111663e-27,-3.081678e-39,4.2226e-40,-3.8131203e-28,-2.6740386e-33,8.19951e-33,-5.767844e-36,-2.446075e-25,-1.1619632e-32,2.318784e-30,6.732287e-20,8.6376025e-21,3.08437e-22,-9.404767e-33,-2.5790314e-17,5.7352285e-31,1.2602801e-24,3.2736e-14,7.763921e-25,-1.8288042e-23,5.5681257e-13,-7.032353e-22,1.9567118e-16,1.1741198e-13,-4.239172e-23,-1.443015e-16,-3.0237103e-29,-6.664415e-20,-9.191212e-14,-3.2598122e-21,2.950177e-15,3.6859846e-18,-2.7226028e-17,4.8163756e-17,-1.1795951e-38,1.0047603e-38,-6.430704e-29,-2.791003e-39,4.934818e-31,1.4973679e-31,-1.1827043e-38,-2.219784e-27,2.238145e-39,1.5163097e-16,-2.2263477e-21,-1.03421896e-16,-1.4290071e-21,-3.7893413e-13,2.6709497e-38,4.755508e-18,9.095681e-25,2.0914181e-30,3.768716e-21,-6.2669597e-19,4.7037305e-19,-1.760464e-21,-2.769932e-15,5.3853076e-29,5.419275e-19,-6.6954366e-26,-2.9696825e-24,8.354327e-39,-3.078081e-39,-8.799139e-31,-4.697748e-39,8.1784586e-23,-5.95741e-39,-3.681898e-39,-2.24726e-39,2.308077e-39,-8.994478e-31,4.0414067e-16,-2.504986e-17,3.3489095e-25,1.1738687e-16,-2.9521975e-27,-9.09483e-26,1.9229256e-20,-1.2015859e-28,-5.3963233e-25,-1.9206162e-21,-3.8335275e-26,-5.2057978e-21,1.05529725e-19,-4.8904277e-28,-1.415189e-18,-1.4303358e-28,-2.6017974e-20,2.1254424e-19,-3.176217e-21,-1.1721853e-15,-2.8795792e-20,-5.609984e-19,-4.013721e-12,-8.4086583e-23,-7.294623e-12,-5.8677143e-16,3.3299106e-22,-1.5409715e-18,-2.0723536e-21,-1.5434949e-18,-4.667066e-16,5.6292165e-26,-1.291499e-16,5.3627342e-27,4.9189146e-16,1.02038e-40,2.768191e-36,-3.136151e-39,-5.244275e-31,3.029098e-33,6.8028924e-31,-5.2946083e-29,-1.7408666e-32,-8.86184e-40,1.6064778e-38,3.729088e-24,5.5305324e-34,-4.5668743e-37,-8.0236744e-25,8.3240153e-35,-6.680323e-24,-1.6583162e-32,1.8477682e-31,3.56324e-29,-1.5268294e-23,-8.2352775e-35,2.1415424e-32,-1.002043e-18,1.667097e-39,-4.9116836e-16,-4.5697422e-32,2.01341e-39,-3.9635242e-17,-2.753658e-14,4.299114e-36,-5.6193015e-12,2.1632178e-33,2.5170844e-30,-1.2737236e-18,-4.6246246e-25,-5.538926e-20,-5.9174335e-34,9.334877e-28,-3.494189e-24,-2.6675274e-18,2.2483048e-18,7.626038e-24,2.0200006e-24,-5.748715e-31,-2.0565313e-18,-1.0392547e-37,-3.942141e-39,4.375986e-39,-5.907823e-34,1.5262772e-30,-2.5799172e-38,2.136519e-39,5.0181308e-36,-6.420256e-39,-1.651542e-39,-5.933074e-39,1.923966e-39,2.020225e-39,-2.120237e-39,6.312194e-39,-3.56165e-40,1.736589e-39,-4.518113e-39,7.92741e-39,1.518991e-39,-1.1948063e-33,-2.0057846e-24,2.655193e-26,5.7149842e-30,8.41621e-27,2.0731584e-21,3.2102698e-28,-1.410624e-39,-8.8463805e-26,-3.893057e-37,-2.847153e-39,3.6123617e-26,6.79253e-40,3.7478208e-34,2.7617253e-24,-6.41505e-40,2.396e-40,-3.685881e-37,-1.037622e-39,2.646965e-39,2.421843e-39,7.87761e-40,1.29474e-40,2.924029e-39,-6.29177e-40,1.4583054e-32,-2.940885e-17,1.2016554e-24,2.4436796e-20,1.335901e-16,7.057531e-22,2.6922683e-31,9.265383e-26,-8.872331e-19,2.8762229e-30,1.3730612e-32,2.0892107e-36,-2.6307244e-19,-1.2659217e-25,-1.21697e-40,-5.329299e-24,-8.370968e-26,-1.2576643e-26,3.1499588e-31,1.0864837e-31,-1.8112285e-33,-1.5081009e-16,-4.2634557e-37,-7.466838e-22,-1.0404358e-30,2.099011e-30,3.693049e-17,-5.536208e-33,-1.5694578e-33,-6.1635458e-24,-1.1667453e-26,-1.2494518e-24,-3.6871754e-21,8.510223e-36,-1.9572096e-18,-6.6580065e-20,9.630254e-13,-6.326884e-17,-2.152173e-17,9.713287e-19,-8.1759855e-15,1.6769004e-17,6.013107e-16,-6.130514e-16,5.434483e-31,5.753639e-39,-2.4495908e-35,-6.1273706e-37,-6.133399e-36,-1.0668218e-33,-1.4446451e-26,5.320107e-39,-2.811297e-35,1.887689e-30,2.0511938e-34,4.630374e-39,1.294448e-39,-5.513448e-39,-5.422631e-39,-3.302164e-39,-6.67931e-39,1.3618213e-35,9.10747e-40,1.016823e-39,-2.70839e-39,5.99896e-40,2.75111e-40,-2.441977e-39,-2.987238e-39,-2.16723e-40,-1.2553203e-36,-2.358275e-39,2.6559959e-24,-7.5258555e-18,4.4694286e-38,-7.433273e-17,-4.250255e-31,-5.2996004e-22,-1.4386309e-35,-1.3021763e-29,3.093518e-18,2.1163667e-17,4.2883766e-25,-1.0196599e-19,2.6693334e-21,1.9335079e-20,-3.708477e-15,2.0575425e-28,-9.154452e-14,1.286834e-36,-6.684913e-39,-5.21516e-40,-5.10626e-40,-6.62633e-40,-5.6830185e-25,-3.1289e-40,-2.2828816e-28,-1.869048e-39,-5.046045e-39,5.4529833e-31,-3.1737573e-20,-2.5375277e-33,-4.7187715e-24,-1.0988797e-25,-5.92519e-38,-1.450616e-18,-1.0045154e-34,-2.4747062e-24,-7.4687e-40,2.1900951e-23,-2.0217622e-36,2.9667053e-33,3.659658e-39,-4.761756e-34,6.804e-40,6.6670354e-32,-3.2104494e-28,-1.9829131e-23,-5.4701144e-20,-5.0307707e-22,1.1354052e-21,-2.730857e-21,-1.7694511e-23,-4.7492252e-15,-2.3634164e-22,-3.5405497e-35,1.2052625e-37,-2.0159968e-37,1.0627115e-30,-6.765916e-33,1.0889069e-22,-1.2379653e-24,-6.8836674e-36,3.6838792e-22,5.1116254e-25,-6.49387e-40,-1.760126e-39,3.075774e-39,-2.113797e-39,-4.26103e-40,1.4315515e-35,-9.06499e-40,2.8935693e-32,-5.633618e-39,1.749399e-39,-7.59805e-40,-2.096242e-39,-1.638495e-39,-2.492824e-39,-2.272515e-39,1.649384e-39,-5.7799e-40,-3.974747e-39
