-0.07836065,-0.113719724,-0.08485234,-0.010282677,-0.028140137,-0.046237674,-0.0283275,-0.053201966,-0.022151947,7.10572e-40,6.787436e-39,-1.593314e-39,-3.3799e-39,3.634454e-39,1.547846e-39,1.84514e-39,2.46622e-40,-1.17762e-40,-2.282457e-39,-1.96917e-40,3.040004e-39,1.323117e-39,4.298285e-39,4.585455e-39,7.0799164e-35,-3.5919945e-35,6.845836e-36,-0.010078115,-0.0078214295,-0.0020288033,0.0073121544,0.0053652576,0.0038389666,-0.0076500936,-0.001759527,0.002424432,3.450868e-39,9.9867e-40,-8.7275e-40,8.33417e-40,1.58445e-39,-1.394228e-39,1.104052e-39,1.559016e-39,-1.556993e-39,-2.4589772e-35,6.48486e-37,-1.3754177e-33,-2.743746e-31,-1.8305211e-37,2.2986559e-33,-9.0173333e-23,-9.042286e-24,1.1893218e-25,-5.033191e-39,1.127353e-39,4.293623e-39,-6.66486e-40,1.754754e-39,-1.959388e-39,6.55148e-40,4.410898e-39,3.421946e-39,2.683209e-39,6.86283e-40,-1.0993e-40,1.613278e-39,3.8834e-41,-5.96893e-40,3.039175e-39,8.66398e-40,3.335701e-39,-2.32283e-39,-3.069237e-39,-2.05938e-39,-5.25941e-40,1.794085e-39,2.845386e-39,2.408839e-39,9.3229e-40,1.103426e-39,-0.05477955,-0.08396578,-0.047114074,-0.0118229855,-0.021586936,-0.023811422,-0.008099038,-0.023657294,-0.0040225103,-5.757114e-39,1.22496e-39,2.386137e-39,-5.612922e-39,-1.007598e-39,5.95686e-40,2.910545e-39,-7.8032583e-38,-2.2889e-41,6.514202e-39,-2.284093e-39,-2.28369e-39,-1.331061e-39,5.979618e-39,-5.162357e-39,-6.277366e-39,1.875714e-39,1.5515599e-37,8.16308e-40,-2.5144765e-32,-1.69921e-37,-4.2224246e-27,1.792739e-39,1.9338165e-34,4.6948253e-34,3.6461046e-37,4.2296213e-26,-4.75716e-40,-3.231132e-39,1.988853e-39,-9.47195e-40,-3.888083e-39,1.831905e-39,2.175924e-39,5.393928e-39,5.048415e-39,3.746e-40,-2.681713e-39,-1.30822e-39,-3.946729e-39,-5.90886e-40,-2.582562e-39,1.187808e-39,-2.636347e-39,-4.284757e-39,0.0019242654,0.0007670953,0.00084304914,0.0005085575,-0.01012382,-0.000731964,-0.0005280384,0.0013515349,0.0003934774,1.334068e-39,3.927774e-39,2.719081e-39,4.067685e-39,-3.495815e-39,2.36707e-40,-2.545824e-39,-9.50604e-40,6.625101e-39,2.527735e-39,2.494524e-39,2.400124e-39,-2.587269e-39,1.088062e-39,2.532078e-39,4.421314e-39,-5.97935e-40,-6.993254e-39,1.275002e-39,1.68843e-39,-1.895344e-39,-1.70164e-39,2.286088e-39,-1.305885e-39,-7.46177e-40,2.651443e-39,1.17569e-39,-0.05283137,-0.08327807,-0.046603855,-0.011432153,-0.020668887,-0.014829108,-0.01296914,-0.016413119,-0.007161733,-9.032714e-26,-6.3664305e-24,-1.3058841e-31,-7.7557915e-25,-4.6406957e-21,1.995423e-23,2.5526358e-25,1.9123461e-25,-3.0867765e-18,1.6176951e-31,2.789785e-39,-3.0240315e-27,9.615933e-28,-8.988e-42,-1.3919097e-21,-6.18207e-40,-2.1489648e-29,1.576383e-37,3.932139e-39,4.410293e-39,4.256619e-39,-2.861173e-39,-2.441202e-39,1.1578e-39,-2.06466e-39,3.59247e-39,-1.194132e-39,0.016574692,-0.014757549,0.0079895295,-0.016881824,0.022272352,0.022868045,-0.010951593,-0.0075690914,-0.03306927,-8.056411e-23,-9.064798e-24,8.582176e-21,2.0762987e-22,-1.6954673e-26,-2.4269796e-20,1.1246092e-18,8.905966e-17,8.303919e-18,-3.035242e-35,-1.5076988e-35,-7.85205e-37,-1.14508095e-35,9.66062e-40,1.0202215e-35,-3.237956e-36,-2.033254e-36,6.0163105e-36,4.020222e-39,8.32091e-40,-2.593452e-39,-1.398602e-39,-6.584092e-39,1.583956e-39,1.814553e-39,-3.4451e-40,4.047613e-39,-8.94006e-40,1.759165e-39,-1.516697e-39,1.514759e-39,-1.196118e-39,8.69366e-40,-1.428e-40,-1.533664e-39,1.148607e-39,-3.43434e-35,2.3784568e-37,9.477023e-29,1.114115e-32,3.315003e-36,-3.2248085e-27,1.3374073e-25,-1.3815173e-26,1.8477598e-23,-2.501138e-39,1.667168e-39,8.29344e-40,1.81587e-39,2.063398e-39,2.29601e-39,-2.141575e-39,4.181475e-39,-2.179077e-39,1.61434e-40,1.853496e-39,6.471237e-39,-3.041035e-39,9.0047e-40,-2.167807e-39,-5.00024e-40,4.15722e-40,-1.016981e-39,6.197911e-39,3.842685e-39,3.803826e-39,8.69668e-40,1.187194e-39,1.575166e-39,1.290048e-39,4.86996e-40,4.987581e-39,-9.06103e-40,2.24795e-39,-7.47315e-40,-1.846193e-39,-1.120257e-39,4.16976e-40,1.664083e-39,-1.81637e-39,-7.32513e-40,0.0024713816,-0.00021285265,-0.0005156593,-0.0024223349,-0.0018357077,-0.00022460229,-0.0012901447,-0.012377407,-0.0011289434,-0.0064759576,-0.01074641,-0.008452565,-0.00055459136,9.8372235e-05,-0.0015841104,-0.00215525,0.0004075189,-0.00015137708,-1.154687e-39,-4.220407e-39,2.338917e-39,-2.145486e-39,5.60728e-40,-1.657191e-39,6.08454e-39,-1.533805e-39,4.9251e-40,1.681516e-39,-3.102808e-39,-1.696667e-39,1.762053e-39,1.0642616e-37,-2.293532e-39,4.01569e-39,2.086015e-28,1.722095e-39,-1.1535002e-16,-1.1393092e-16,-2.0712854e-16,-8.586677e-16,-1.4363072e-14,6.2492083e-15,-4.7402826e-13,2.5390954e-14,2.8304008e-13,0.0055523887,0.0018258078,-0.002553053,0.01129432,0.011178942,0.0001650202,0.0018422329,0.004683049,0.0003724667,3.163777e-39,4.979531e-39,-4.438055e-39,-1.279187e-39,1.836812e-39,5.205915e-39,2.885302e-39,5.32056e-39,5.39374e-39,-0.0175246,-0.022304976,-0.01356475,0.0118691325,0.00094188197,0.0026601863,-0.015613239,-0.0013446007,0.0030024494,-6.9733104e-12,-4.829985e-12,-1.6063625e-13,3.4109122e-09,3.090184e-08,2.1038116e-11,3.6024437e-11,-4.287687e-11,2.8037974e-08,0.028401658,-0.0016031563,-0.008370092,0.00932596,0.048980325,0.05058482,-0.028175881,-0.008153101,0.029274037,3.055165e-35,-1.065996e-39,-1.580596e-32,5.7856714e-36,-5.777448e-39,2.0032286e-29,5.18386e-24,-1.2363978e-24,-6.3519785e-25,1.974856e-39,9.10048e-40,3.304152e-39,-2.386177e-39,3.699665e-39,-1.810646e-39,-1.46468e-39,-4.412072e-39,2.6972e-40,-0.0074465154,-0.04538464,-0.012676813,0.029219285,-0.012852964,0.014812554,-0.013595476,-0.019704396,0.008586096,-6.641555e-08,-7.696654e-08,2.1413625e-08,-2.5491877e-08,3.987621e-07,4.3103762e-07,-3.0183529e-07,5.891239e-06,4.496736e-05,-0.0006968586,-0.00043501542,-0.001948283,0.0007101339,0.0019512584,0.0011235256,4.8078833e-05,0.0012539942,0.00069666683,-2.337877e-39,3.861083e-39,-2.70337e-39,-2.704187e-39,-2.590403e-39,-5.18349e-40,5.430411e-39,2.23982e-39,1.021338e-39,3.4598016e-35,5.8773845e-35,5.4354027e-35,-2.3899788e-35,1.320652e-39,2.885321e-35,-8.283582e-35,-5.1980297e-35,-3.9017837e-35,-5.372424e-39,4.644905e-39,8.83407e-40,-4.110803e-39,3.07055e-39,1.063813e-39,-6.03074e-40,3.19121e-39,4.84816e-40,6.59238e-40,-1.4194006e-38,2.882877e-39,4.263295e-39,-1.852463e-39,-4.70482e-40,-1.628162e-39,-2.206665e-39,1.8326481e-37,2.75146e-39,2.744013e-39,4.366198e-39,2.36762e-40,-4.535741e-39,4.56951e-40,3.8438082e-38,-1.6959003e-37,1.254853e-39,0.00027331628,-0.0013071116,-0.0012869224,0.0015953167,-0.0017071108,0.0016895912,-0.0015569128,-0.0013921849,0.0008633731,-7.79685e-40,-9.3135e-40,-5.441e-40,-1.719706e-39,-8.6113e-40,-6.249305e-39,2.495099e-39,3.62743e-40,-2.069246e-39,-2.168434e-10,-1.422692e-11,-3.701991e-09,7.7368466e-11,2.5188471e-12,-7.564328e-10,4.3755215e-08,5.2145502e-08,6.459581e-08,-1.421308e-39,-4.41686e-40,2.67883e-39,-1.2936612e-33,-4.732974e-33,3.496849e-37,-4.1219746e-27,-1.9826395e-34,1.129567e-33,3.7133144e-05,-0.00023977052,-0.0004032882,0.00036241737,3.6114674e-05,-7.291697e-05,-7.31879e-05,0.00020538554,-9.534674e-05,-1.5972617e-09,3.8377615e-07,-2.2901707e-10,1.4430807e-07,-1.8410047e-08,-7.856452e-10,-4.7226774e-09,3.286888e-10,-4.049829e-08,-7.61295e-40,1.5372e-41,3.54701e-39,3.901979e-39,-3.091929e-39,3.61789e-40,-1.778323e-39,-1.505964e-39,-5.366435e-39,5.71696e-40,2.47876e-40,1.076263e-39,-7.23652e-40,4.5122e-41,1.673333e-39,3.7166e-40,1.741342e-39,2.315592e-39,-0.008117844,-0.01508073,-0.008780208,-0.00033692856,-0.0054630833,-0.00382478,-0.0021253934,0.0008329357,-0.0018435935,-0.0147998445,-0.020414304,-0.01668204,0.0048354175,-0.006529765,-0.005609565,-0.0036463533,-0.0035695715,-0.0073213703,-3.6613042e-07,1.0536874e-08,-5.479693e-07,1.4224679e-06,-2.354566e-07,2.9546438e-06,-9.945195e-07,3.6517818e-06,8.187915e-06
0.05648263,0.038222153,0.007827911,0.054614976,0.05027106,0.022700066,0.061819505,0.03795298,0.028681057,-1.679566e-36,2.6221847e-36,6.455e-41,2.152401e-39,6.166607e-39,4.584397e-39,-1.059621e-39,5.2048e-41,2.12741e-39,1.4219695e-24,-4.572034e-27,1.21723526e-26,-3.4646016e-26,-9.654412e-26,-1.1149488e-24,-2.2584756e-27,-3.8646015e-25,-1.7967075e-23,0.002722275,-0.0003795215,-0.0006332372,0.002977193,-0.0023056224,-0.0044133454,0.0012394353,-0.003365887,-0.0024228864,-2.084614e-39,-2.189994e-39,2.684996e-39,-2.29328e-39,-2.259618e-39,-9.99664e-40,3.560603e-39,-1.176334e-39,2.531311e-39,-1.6763294e-15,-9.7001036e-15,-4.109836e-15,-7.936744e-15,-7.9990763e-16,-2.6561052e-17,6.493852e-17,-2.0573975e-21,3.3987127e-21,-4.578378e-39,1.468663e-39,7.62557e-40,-2.900394e-39,-6.59025e-40,6.678577e-39,1.073847e-39,8.84976e-40,3.325225e-39,3.91771e-39,3.447994e-39,6.510504e-39,5.530223e-39,1.840279e-39,-1.9503e-40,-3.205079e-39,1.258226e-39,1.867229e-39,-1.62745e-40,1.743692e-39,-3.49655e-40,-1.395955e-39,-2.443185e-39,1.514547e-39,-1.822303e-39,2.204782e-39,5.388804e-39,0.040934373,0.02415059,0.012316396,0.0331584,0.025262307,0.015751196,0.042467065,0.0221402,0.029450843,1.084166e-39,-1.7795213e-37,4.28975e-40,1.937019e-39,5.730299e-27,-3.433316e-39,-2.9146915e-34,3.7761425e-36,-6.572928e-28,-1.066157e-39,-8.63896e-40,1.8418256e-31,-7.249846e-35,-5.4980624e-30,-7.3104097e-28,-4.05184e-40,-6.0776184e-37,7.351471e-35,-9.351554e-24,2.497182e-26,-3.799899e-28,4.858768e-21,-7.8665435e-19,7.234284e-19,4.59178e-23,3.410316e-26,-7.46842e-23,2.016076e-39,1.527812e-39,1.466352e-39,3.838484e-39,8.85741e-40,1.647183e-39,-4.454149e-39,1.852227e-39,2.38564e-39,-4.08972e-40,-3.45231e-40,4.3042e-41,1.207699e-39,1.646604e-39,-1.863332e-39,-9.11256e-40,-1.785715e-39,-3.80031e-40,-0.00026408286,-0.00013413321,0.00035999782,0.00092172856,0.00089518796,1.1450042e-05,0.00022412467,0.00069400016,0.00014854284,-5.16044e-38,-2.785491e-39,2.574153e-39,2.3992752e-38,2.71507e-40,2.4234658e-33,-2.36326e-39,-1.896352e-39,-2.4894544e-30,2.71532e-40,-6.77952e-39,-5.284933e-39,-3.95047e-39,-1.921016e-39,-1.68276e-39,-2.885082e-39,-3.646317e-39,1.964455e-39,5.4822e-40,3.047828e-39,-1.641519e-39,7.14313e-40,-1.107404e-39,3.99943e-40,-4.5314e-41,1.205202e-39,1.998828e-39,0.043536846,0.027534865,0.01797019,0.031180114,0.026029142,0.018299602,0.043433305,0.023277862,0.035798706,-3.679855e-19,-9.305176e-16,-8.37802e-15,5.2082825e-17,-1.2434721e-18,-5.812122e-14,-2.023492e-18,-1.2126842e-16,9.358709e-14,-2.39536e-22,-7.468562e-38,-1.1665568e-19,2.4787142e-24,5.153277e-22,-7.1861335e-23,-2.521485e-39,4.232783e-26,5.0502103e-33,3.993816e-39,4.084069e-39,3.114136e-39,2.07731e-40,1.122315e-39,-6.687775e-39,-1.284859e-39,6.209603e-39,-6.262439e-39,0.028157026,0.00033161856,-0.015109951,0.027214969,0.008470508,-0.015157779,0.031738285,0.019901553,-0.0062209666,-2.3576058e-14,-2.2977109e-14,-6.9666586e-16,6.4339306e-15,-4.3555016e-16,1.0663476e-18,3.711512e-15,1.2748748e-17,5.676585e-17,2.4023854e-36,1.9082043e-35,1.4053298e-35,-1.0291502e-35,-9.58635e-40,-2.6141907e-36,-7.791781e-36,-1.5866892e-36,-8.447331e-36,4.03955e-40,1.356799e-39,5.51512e-40,-2.27166e-40,-2.464972e-39,5.454e-40,-3.413333e-39,-1.361226e-39,1.356625e-39,-1.291044e-39,2.67883e-39,-2.29038e-39,4.7229e-40,-2.035861e-39,9.61764e-40,1.381694e-39,1.871668e-39,-2.027253e-39,1.0966025e-18,-1.0771643e-18,-1.8173063e-18,3.2379426e-17,1.0087991e-17,2.1930934e-18,1.6653046e-18,1.9730552e-17,3.2617952e-17,-2.254734e-39,3.929565e-39,-4.007789e-39,-2.858642e-39,5.212763e-39,1.836354e-39,6.37333e-39,1.813837e-39,-2.347248e-39,7.19929e-39,3.26222e-40,-8.9057e-40,8.00825e-40,1.673505e-39,3.172928e-39,-9.85785e-40,5.872054e-39,1.486596e-39,-3.08688e-40,8.25925e-40,1.8648e-41,-1.21509e-39,2.54827e-39,-1.50996e-40,-5.843839e-39,-6.2479e-40,-3.79086e-40,-1.569705e-39,-4.069e-41,-3.75741e-40,-2.486562e-39,2.47747e-40,-1.291524e-39,1.433286e-39,3.46611e-40,-1.083927e-39,-0.0003940772,-0.0008024999,-0.002377326,-6.606229e-05,-0.00022003317,-0.0002472447,0.00041525916,-0.00017643157,0.00020499126,0.0036820523,0.0021195794,-0.0008927199,0.0016220392,-0.0013962084,-0.0024114226,0.0012292641,-0.001567189,-0.00030685888,2.3171106e-33,-1.7821465e-28,3.343071e-36,-1.2359527e-32,6.329867e-33,2.875633e-39,9.681285e-36,3.082197e-39,-4.08663e-36,-7.855721e-21,3.3083916e-19,-3.6231222e-19,1.2357616e-28,-4.576377e-21,6.459893e-32,5.622065e-39,6.9882585e-22,-5.264045e-33,3.6063225e-10,1.685739e-10,1.0829319e-11,5.4153054e-10,1.5789943e-10,5.1173857e-12,1.3979773e-10,7.979956e-12,3.8989463e-12,0.00020388444,-0.0008476592,-0.0020128812,-0.0018020215,-0.0020275638,-0.0022314673,-0.0019866969,-0.0027688744,-0.002323997,2.2213172e-33,-2.4475297e-29,1.2422066e-36,2.2174254e-32,1.342528e-31,5.8644017e-34,1.1288861e-35,5.75694e-39,8.427936e-39,0.01183063,0.0041739754,-0.0017676682,0.005364267,-0.0022610289,-0.0067817196,0.0047975774,-0.0065787854,-0.00021611479,1.625355e-17,8.1101775e-18,3.168689e-13,3.2178413e-15,-4.3571493e-15,-1.0729686e-10,-2.5609016e-14,-1.2965799e-14,-2.2897073e-11,0.01704984,0.01399541,0.015741097,0.02177336,0.009182618,-0.005356946,0.016912693,0.02413875,-0.01242854,-1.4350482e-17,-6.730736e-17,-2.4891082e-19,-4.523135e-18,1.0573586e-18,8.584217e-20,1.0440119e-21,1.9571974e-23,2.0067201e-23,5.086537e-39,-9.691065e-39,6.041358e-39,-2.2238602e-38,-1.961595e-39,6.604884e-39,6.599208e-39,-2.17031e-39,5.748552e-39,0.030581266,0.01317057,-0.0037747605,0.016629912,0.010488716,-0.000800317,0.0053889826,0.008129857,0.007896311,4.1031603e-07,1.2723368e-07,5.1673467e-08,1.9336937e-07,-3.1116468e-08,3.8555767e-09,-6.208661e-09,1.6930702e-08,1.5246215e-08,0.002290797,0.0014962642,0.0009336883,0.0014586484,0.0009116397,0.00040734062,0.0015409337,0.00053572713,0.00063510885,7.45037e-40,8.19535e-40,-4.221871e-39,2.650231e-39,-5.260123e-39,-6.783439e-39,-7.34151e-40,-9.31842e-40,6.842347e-39,3.7036053e-35,1.1067536e-34,6.4308036e-35,-7.4405974e-35,1.018696e-39,-4.9199076e-35,-9.749797e-35,-2.476342e-35,-6.7617885e-35,1.111537e-39,1.702948e-39,-3.620483e-39,8.3132e-41,2.234048e-39,-4.177444e-39,1.268944e-39,-1.315631e-39,-1.900152e-39,2.3744754e-34,1.6077382e-32,-9.22937e-40,1.0861689e-31,-4.9501226e-29,-2.7593947e-30,4.239226e-39,2.061819e-39,-1.07254576e-35,2.1948734e-35,1.20289825e-33,-2.357582e-39,-8.898924e-34,6.3667965e-34,5.26448e-39,-1.085736e-34,2.8527165e-36,-3.4769858e-37,0.0025914197,0.0023149394,0.00021795949,0.00067968125,0.00016580772,0.0009953277,-0.00063308247,-0.00038120509,-0.00030048564,-1.697044e-39,-2.79483e-40,4.60416e-40,-3.40755e-40,-1.540351e-39,2.221194e-39,-1.871431e-39,-3.30153e-39,1.416353e-39,1.491514e-05,1.2854334e-05,3.4340417e-06,1.069121e-05,2.5248112e-06,4.49655e-07,1.0518545e-07,-2.8891412e-07,5.342028e-07,1.7548639e-22,-8.173257e-21,3.355579e-24,-1.9507953e-22,-2.8442e-22,6.670451e-20,1.681005e-24,9.6029745e-26,1.0466295e-23,0.00014326116,6.894819e-05,0.00012364639,0.000112678696,-0.000108273234,-9.833374e-05,-3.9283237e-05,-0.0002870231,-0.00023894968,-3.2986436e-10,-2.1139073e-09,-1.0171886e-08,-3.255547e-09,-8.730354e-09,-1.8247928e-09,1.0620598e-09,1.1010028e-08,-4.386467e-09,2.390181e-39,-1.090328e-39,-6.95403e-40,-1.459968e-39,-2.871497e-39,-2.539565e-39,-2.975355e-39,-2.12286e-39,2.376316e-39,2.730996e-39,8.18141e-40,9.38168e-40,7.05889e-40,-1.2134e-41,1.954177e-39,-1.53893e-40,2.606272e-39,-1.372774e-39,0.0055845995,0.0021318023,-0.0001722376,0.003790552,-0.0005101327,-0.0016973155,0.0028036574,-0.00046986234,0.0006309584,0.012135864,0.0064524305,0.0021567727,0.008071683,0.0033221962,-0.0020757269,0.009424853,0.0029654235,0.0008622126,4.5693258e-05,3.8155227e-05,1.898976e-05,1.3809851e-05,1.3925233e-05,5.4268776e-06,-1.1552559e-06,3.5757506e-07,8.0669975e-07
-0.06524627,-0.029542284,-0.0076323864,-0.06870698,-0.090443954,-0.035664484,-0.048134916,-0.07543018,-0.06053388,-2.379556e-39,9.62213e-40,-1.84581e-39,-2.23506e-40,2.582998e-39,-3.576139e-39,-1.89615e-39,-1.326123e-39,-4.953055e-39,5.846506e-24,4.346528e-24,-1.4292377e-27,1.28784865e-27,1.2381933e-34,6.539099e-30,3.7159877e-24,9.122627e-25,4.2021933e-19,0.0037876284,-0.006229457,0.001986669,-0.0024170286,-0.0009786296,0.0018293614,0.002631914,-0.0072136815,-0.011186228,-3.50755e-40,-9.72676e-40,-4.58537e-40,2.53353e-39,2.313705e-39,2.520513e-39,4.339292e-39,1.01432e-40,-6.23418e-39,-3.1504282e-26,-1.1641356e-25,-5.331184e-22,-2.31134e-29,-9.049643e-30,-2.8260339e-21,-3.3507355e-19,-5.5322758e-18,7.0775444e-14,2.271843e-39,3.970201e-39,-5.160207e-34,1.796137e-39,3.0762067e-32,-3.122289e-39,-4.098331e-39,-3.0070045e-34,-3.722272e-39,-2.782358e-39,-3.565967e-39,2.36268e-39,-2.434582e-39,2.436873e-39,5.155925e-39,-2.493367e-39,4.54929e-39,3.597114e-39,-8.26732e-40,-7.7895e-41,-4.31139e-40,1.037755e-39,-3.10427e-40,-1.65297e-39,-2.0624774e-33,-5.065795e-34,-1.3644118e-26,-0.008679811,-0.025914015,0.008055181,-0.052859474,-0.07252454,-0.036382686,-0.04353827,-0.0481739,-0.04398779,-1.0272408e-32,9.974375e-36,2.964581e-39,-1.7055698e-35,-4.070545e-39,6.188908e-39,3.893094e-39,-1.5721069e-30,2.5709926e-31,-2.341476e-39,8.345244e-39,-6.1596035e-19,2.247083e-39,8.278373e-20,-1.8296192e-30,4.468089e-32,1.5241509e-29,-3.599792e-27,2.483954e-39,-1.4646045e-31,-4.3444754e-18,2.3423986e-34,-1.880137e-10,-3.0223821e-15,-2.22933e-11,-2.8117278e-15,-3.657533e-28,3.111858e-39,5.417938e-39,8.67003e-40,1.387277e-39,-1.41705e-40,-8.79762e-40,-1.17575e-40,1.122331e-39,-4.44251e-40,-1.562577e-39,2.28983e-40,-1.74586e-40,-8.36931e-40,-1.975113e-39,1.246273e-39,-2.89528e-40,2.284613e-39,-5.513874e-39,9.034613e-05,0.0018572888,0.00080079143,-0.00028901186,0.0015604934,0.00049596874,-0.00041918203,-0.0007251143,-0.0008950433,5.11471e-40,-3.3989e-40,-2.3676322e-38,8.07588e-40,-1.32589616e-17,-1.4573654e-26,-5.462943e-16,-6.7377136e-29,2.4197527e-38,2.807686e-39,6.113179e-39,2.250589e-39,-3.54224e-40,3.123892e-39,9.21651e-40,-8.749497e-38,2.6036294e-38,-6.4586133e-28,-2.590648e-39,2.753874e-39,-1.694394e-39,-2.448716e-39,-4.824306e-39,-1.35341e-39,1.186503e-39,9.53273e-40,-1.666633e-39,-0.036068354,-0.009329572,0.012730623,-0.04575734,-0.05712904,-0.007574343,-0.05714492,-0.040105127,-0.039079424,2.1067794e-17,-1.3493257e-18,-3.693168e-12,-2.3479451e-18,-1.5848969e-14,-8.024497e-17,-6.782947e-25,-5.2277074e-17,2.0861876e-18,4.9482694e-36,-1.07336676e-14,2.1610658e-26,-2.7542613e-24,-1.0333671e-15,-2.9769376e-29,-9.625831e-17,-4.343679e-20,1.0005856e-31,-5.083629e-39,3.345662e-39,1.341885e-39,3.366128e-39,-1.979386e-39,2.386103e-39,3.285606e-39,5.615688e-39,1.138632e-39,-0.037393644,-0.007652042,-0.016426837,0.024143035,0.011242454,-0.0038847665,0.033605758,0.0153827015,0.00026465947,7.3069056e-21,-1.7253284e-15,2.0838906e-17,-1.2983366e-18,-1.9555416e-19,2.4699049e-17,2.0218995e-14,-1.50722e-14,-2.3059821e-11,-6.1266524e-35,-1.18146854e-35,4.014598e-36,-5.87745e-35,3.570395e-39,8.2116955e-36,-1.0155468e-34,-2.3993506e-35,-3.874647e-35,4.569497e-39,5.595595e-39,-2.531129e-38,-8.9542e-40,2.066038e-39,-2.268412e-39,1.534572e-39,1.3368661e-37,-8.899965e-26,-2.709541e-39,2.650385e-39,1.738822e-39,2.910807e-39,-2.60275e-39,8.08461e-40,3.462492e-39,-1.850039e-39,-2.848227e-39,-2.6289857e-24,-4.4708155e-24,-1.04748795e-19,-3.505369e-24,-1.0088791e-24,-9.226391e-20,-4.9059047e-17,-3.1782053e-16,-1.9406022e-15,2.510562e-39,2.230237e-39,4.35424e-40,4.4309e-41,1.010733e-39,2.208672e-39,1.892215e-39,-2.53875e-40,-2.750949e-39,4.82079e-40,2.84532e-39,-9.1377e-41,6.2303e-40,1.627091e-39,4.739581e-39,9.287061e-28,3.931619e-27,-2.852355e-23,2.098114e-39,2.396774e-39,4.347747e-39,2.723016e-39,4.516973e-39,4.703423e-39,5.877709e-39,1.935356e-39,5.858247e-39,-9.6675e-40,-1.57344e-39,1.478216e-39,-1.283344e-39,1.615635e-39,-2.781597e-39,1.981142e-39,2.452589e-39,-1.673529e-39,-0.0005922782,0.008606343,0.0022267941,0.006543608,-0.003325114,-0.0015872435,0.00062019966,-0.00038992817,0.0030698983,-0.00048335752,-0.0028438163,-6.3962725e-06,-0.002329546,-0.004923609,-0.00771309,-0.0044339756,-0.0052166968,-0.005515995,-2.6231646e-38,4.515167e-39,-5.281903e-39,4.096351e-39,-1.738835e-39,-1.4935224e-35,8.495891e-36,-8.004161e-28,2.9623662e-24,-3.618955e-35,-5.3948257e-15,-4.383467e-23,-1.2574695e-15,-1.6530443e-18,-5.0722557e-28,3.715502e-28,1.0554277e-37,2.8994716e-20,1.2722546e-14,-2.0574768e-13,4.5184773e-13,-1.6221936e-13,-8.1776903e-13,-5.211307e-12,9.146593e-11,-5.893744e-11,-1.5367368e-10,-0.0058529195,-0.005559798,-0.007944092,-0.0076807174,-0.004112588,-0.0114660915,0.00054544205,0.00058632117,-0.004689282,-1.814215e-39,1.746563e-39,-1.889856e-39,5.733694e-39,1.639131e-39,-4.41394e-40,-2.176389e-39,2.157254e-39,-2.51774e-40,-0.000321446,-0.010926343,-0.0031721038,-0.016835216,-0.016682193,-0.029556382,-0.000423088,-0.015647639,-0.014737501,-3.2285317e-11,-1.5209597e-11,-3.3289965e-08,-4.720162e-13,-9.350328e-07,-1.4657638e-07,5.8677163e-10,-1.004725e-06,-6.9353606e-10,-0.019527938,-0.008932665,-0.033770103,0.0022225368,0.014270437,-0.014081234,0.00347796,-0.02132909,0.0056760185,2.7447842e-26,7.297247e-27,-2.6087797e-22,3.1664368e-28,3.466915e-27,1.5156264e-19,1.935703e-16,3.3641295e-16,9.32035e-14,1.894823e-39,2.043931e-39,-4.531254e-39,-1.464976e-39,7.47769e-40,-1.548447e-39,2.865759e-39,-1.516973e-39,-3.07316e-39,-0.008198027,0.0045415508,-0.0010957795,-0.0013216258,-0.018180257,-0.049417432,0.017254066,-0.020601014,-0.025920492,-4.9056236e-08,7.8623805e-07,1.3722053e-05,3.9530338e-08,7.932255e-06,1.8539478e-06,1.0141581e-06,8.5444617e-07,-7.869577e-07,-0.00024971724,-0.00038641016,0.0019127087,-0.000104215025,-0.0007926156,-0.0007674728,-0.00036362294,-0.00016306825,-0.00023261383,-2.126995e-39,-1.449984e-39,-8.84207e-40,2.194589e-39,9.63076e-40,-6.136e-42,2.314005e-39,-1.223888e-39,-2.364959e-39,-5.031355e-35,8.052056e-36,1.581494e-34,-6.600547e-35,6.97395e-40,1.0796773e-34,-5.766067e-35,1.2607155e-35,7.602023e-35,3.10692e-39,3.969457e-39,5.885525e-39,8.9134e-41,1.0109e-41,2.165913e-39,1.29745e-40,2.489505e-39,5.174299e-39,-3.0442326e-37,2.107183e-34,-5.2620626e-21,-2.855653e-37,-1.1568846e-14,-4.455263e-18,-7.235779e-27,-1.5151213e-17,5.560385e-29,-4.324998e-33,9.123539e-34,-1.27786854e-26,-9.5110644e-33,7.0881563e-35,4.4405653e-31,-2.4318481e-28,4.3271613e-30,3.1396197e-22,0.00084205595,0.002813052,0.0004562666,0.0033243021,0.0013376401,0.0024019463,0.00519773,0.0013004538,0.00041020958,-1.365536e-39,4.70725e-39,3.37144e-39,4.061313e-39,3.45304e-40,-2.47111e-39,3.16088e-40,-3.092231e-39,-2.576654e-39,-5.1195723e-09,-8.370327e-09,-1.142022e-08,3.3130925e-11,-1.177133e-10,-1.8771182e-08,3.6687317e-07,2.2799584e-07,4.079279e-07,-1.00234355e-17,-1.1083806e-21,-5.673733e-23,-3.0454095e-22,3.1468018e-24,-2.3277127e-18,-2.9839822e-25,1.339328e-19,2.7308936e-19,-2.9699406e-05,6.936879e-05,-0.00020191065,4.876674e-05,7.7404264e-05,-0.0004485003,7.768074e-06,-0.00024502378,-0.00059048424,-3.80863e-08,-4.6384553e-08,-3.4273157e-08,-5.1441236e-07,4.554861e-08,1.5479108e-07,8.414938e-10,2.8164564e-05,-9.321656e-07,3.58664e-40,-9.63652e-40,1.95256e-40,3.24956e-40,1.935503e-39,5.92438e-40,-7.71455e-40,-7.09484e-40,2.673226e-39,-5.806807e-39,3.60666e-40,-3.95414e-39,-5.09207e-39,-6.360843e-39,-3.654357e-39,3.029057e-39,-4.196628e-39,2.4496e-41,0.0026481543,-0.002747031,0.0006021309,-0.0028691932,-0.003067325,-0.009204895,-0.0020215653,-0.0050883805,-0.006215097,-0.006231211,-0.008227079,0.0053863176,-0.017340502,-0.015124346,-0.014416018,-0.01448367,-0.01430164,-0.010621229,-1.1880046e-05,1.7053758e-06,1.0072493e-05,-7.8049695e-08,7.872865e-06,1.4032256e-06,4.9195637e-06,-3.0621072e-06,1.9567688e-06
0.008235951,0.022668531,0.014709184,0.019225754,0.008010486,-0.00013386691,0.022682143,0.009484081,0.004483812,5.91681e-40,1.175223e-39,-1.808625e-39,-3.041405e-39,-2.65575e-40,-3.39344e-39,-6.676615e-39,4.736927e-39,-2.559253e-39,-1.045216e-39,1.889745e-39,-2.451345e-39,1.224083e-39,3.253371e-39,-6.701e-42,-5.04131e-40,-3.83297e-40,8.72315e-40,0.00038470817,0.0012518862,0.00019047852,0.0031041983,0.0001148067,0.0007098941,0.001142248,-0.0001570971,0.00034933485,3.811749e-39,6.393967e-39,2.5975e-40,1.264986e-39,-1.620481e-39,3.84604e-39,4.97485e-39,4.332e-40,4.4408e-40,5.4704633e-20,-1.745036e-24,-1.2537998e-24,8.466827e-18,7.06768e-26,-3.425321e-28,3.1862227e-19,1.4435204e-33,-4.3054275e-26,-3.7126e-40,-2.079764e-39,8.15469e-40,2.565326e-39,-5.11646e-40,2.268716e-39,1.599341e-39,-1.41649e-40,5.85782e-40,5.809757e-39,5.284411e-39,6.805975e-39,3.603314e-39,-1.254627e-39,2.571294e-39,1.755224e-39,6.084338e-39,2.467361e-39,1.37248e-39,1.22834e-39,-8.7453e-40,4.461248e-39,2.63851e-39,-1.08774e-40,-2.520748e-39,-2.449855e-39,9.61012e-40,0.009009432,0.012798137,0.009885043,0.012008707,0.010938432,0.009726616,0.0147158345,0.0074542216,0.008099683,2.452958e-39,6.085685e-39,2.008617e-39,1.55382e-39,-1.18024e-39,-3.8213e-40,-2.356035e-39,-3.925845e-37,4.38046e-39,-1.606667e-39,-8.75912e-40,5.726639e-39,4.068541e-39,-1.259135e-39,-4.33441e-39,1.29055e-40,-3.393258e-39,-1.817149e-39,-4.122413e-39,-1.977908e-39,-1.869639e-39,-4.6558165e-33,-3.433208e-39,-6.960214e-39,1.4931048e-28,-4.449557e-39,1.1956385e-37,2.31628e-40,2.277497e-39,-6.135964e-39,1.13461e-39,1.456651e-39,1.00019e-39,1.75863e-39,3.107602e-39,-6.14242e-40,-6.181078e-39,2.278168e-39,1.115694e-39,-1.855996e-39,3.0103e-41,-1.473465e-39,6.55934e-40,-3.03837e-40,1.77529e-40,-0.0001360158,-0.00069137727,-0.0019463998,9.8960605e-05,0.0003425989,0.00072051544,-2.4758923e-05,3.7252656e-05,-0.00055691856,-1.729746e-39,1.308419e-39,6.661764e-39,-1.584375e-39,5.194339e-39,1.505407e-39,4.286334e-39,-1.534467e-39,1.766063e-39,-1.86127e-40,-1.441975e-39,-7.87384e-40,3.700733e-39,5.776182e-39,-2.641956e-39,1.707776e-39,-5.8899e-40,6.01501e-39,5.076264e-39,2.515593e-39,2.55835e-39,3.434605e-39,3.298822e-39,-3.719203e-39,2.14602e-40,3.760481e-39,-1.357319e-39,0.011233644,0.013650505,0.00558425,0.006086324,0.010093203,0.00512258,0.009365749,0.008957652,0.005402437,-2.325039e-32,4.447096e-39,-4.726794e-34,-1.9109364e-35,-1.3642978e-34,-1.5706388e-38,-1.357528e-39,-1.24591e-39,-2.2030703e-35,8.38498e-40,4.564765e-39,5.274126e-39,6.711321e-39,3.274083e-39,5.497486e-39,-1.30472e-40,6.6764e-40,-1.153517e-39,4.8788e-41,-8.80713e-40,-7.97846e-40,-3.112725e-39,3.926444e-39,-4.468483e-39,-3.405539e-39,4.963883e-39,-2.275613e-39,-0.01685466,-0.026351547,-0.006545735,0.004759476,-0.006555042,-0.0120710945,0.014045068,0.006888972,-0.013234334,-3.3152745e-21,-1.0330392e-27,-2.437497e-34,-7.360441e-22,-9.5919e-41,6.076977e-39,1.1422738e-25,2.766134e-39,-9.433175e-32,-9.338108e-36,-4.8548724e-36,-1.0354402e-35,-1.517212e-36,9.689e-41,-1.6529683e-36,-4.8647677e-36,-3.042405e-36,-3.4891074e-36,2.884424e-39,-6.07899e-40,1.334112e-39,5.252519e-39,5.468274e-39,3.826103e-39,1.851813e-39,3.086751e-39,-2.409472e-39,-2.393138e-39,-4.532349e-39,-6.79058e-40,-4.993617e-39,-6.71104e-39,2.51214e-40,-5.232942e-39,3.279328e-39,3.3967e-40,5.8061453e-36,5.79584e-40,1.09036e-39,-9.679518e-34,3.852675e-39,3.038126e-39,6.2523603e-35,4.320636e-39,7.28025e-40,3.418996e-39,-1.889134e-39,3.43179e-39,4.68941e-39,-4.97757e-39,8.2964e-40,-1.959733e-39,-6.815294e-39,-5.7049e-40,-1.798879e-39,-2.545101e-39,-1.39704e-39,-2.067837e-39,-9.47949e-40,-2.85098e-40,-1.294735e-39,4.198031e-39,4.860215e-39,-3.673e-40,-2.280767e-39,5.58587e-40,-2.287066e-39,-5.740722e-39,-5.429241e-39,-4.178814e-39,-1.689155e-39,-2.507667e-39,8.34339e-40,6.859101e-39,-3.447302e-39,-1.492492e-39,-1.522319e-39,5.583265e-39,5.321278e-39,-1.261082e-39,7.64732e-40,-7.7116834e-05,1.689148e-05,-6.4146784e-06,-9.114721e-05,-3.9092196e-05,-0.00010057858,3.7208092e-06,-1.531148e-05,-3.8823553e-05,0.00086038583,0.00077197095,0.00072187994,0.00064302934,0.001128138,0.0017527814,0.00041929353,0.001004566,0.0016910349,5.914058e-39,-1.910137e-39,-4.551115e-39,-4.860984e-39,1.792355e-39,6.0633e-39,2.9835e-40,5.972627e-39,-1.6694913e-37,6.15767e-40,-5.808975e-39,2.425112e-39,-1.121179e-39,1.814763e-39,-4.65193e-39,1.038853e-39,-2.457145e-39,-2.986275e-39,-1.838803e-17,-1.2554477e-21,-1.8945156e-26,-3.2153276e-20,-4.849752e-29,2.0554149e-32,1.4377799e-21,4.8196984e-23,8.167821e-19,0.0009411911,0.00047872058,0.00011818335,0.0015282773,0.0019515668,0.00080448826,-0.0001303164,0.00111207,0.00096598093,4.813675e-39,4.03232e-40,-4.804336e-39,-7.10442e-40,5.154103e-39,-1.0737e-40,3.627946e-39,-2.558877e-39,6.728162e-39,0.0035378295,0.005213364,0.0048623895,0.006131489,0.0031097133,0.0038328029,0.0026741007,0.0030654916,0.005676338,4.8905774e-33,8.191771e-32,2.6212273e-33,-1.3471646e-33,-7.634014e-29,2.541071e-35,3.4144737e-30,4.575667e-34,8.6997095e-33,0.0024466736,-0.011244707,-0.017403422,0.009770884,-0.0015593007,-0.010276066,0.011771758,0.009192011,-0.014743309,-1.5238021e-24,6.6508574e-33,6.63689e-40,-1.3389066e-23,-6.79271e-39,-5.020047e-39,-1.0956907e-26,3.108088e-39,2.8294572e-37,3.84558e-40,-1.7361e-39,3.225474e-39,-1.39016e-39,4.646624e-39,-2.024461e-39,-4.308683e-39,-6.04328e-39,-2.471214e-39,0.003706184,0.008217952,0.008756894,0.011852997,0.009788607,0.008712693,0.010381839,0.010826188,0.011225882,-2.2922528e-10,-1.0358643e-10,-1.1056685e-11,-6.476546e-13,-1.3420283e-15,-8.974539e-13,-2.103617e-14,4.1321368e-13,3.0488273e-10,1.4551464e-05,-1.670813e-05,2.569627e-05,4.77071e-06,1.5740197e-06,2.335719e-06,-1.22629635e-05,-3.513729e-06,-9.344396e-07,-9.06138e-40,-4.54024e-40,1.121376e-39,-2.137098e-39,-1.885654e-39,5.56542e-39,1.262047e-39,1.587849e-39,4.053376e-39,2.0111144e-35,1.18458226e-35,1.3665935e-35,-1.6751942e-36,-1.995013e-39,-6.544898e-37,-1.7560939e-35,-8.0791255e-37,1.840453e-36,3.14423e-39,3.41326e-39,5.261478e-39,3.038311e-39,-5.20629e-40,-3.131215e-39,-2.440046e-39,-1.771684e-39,9.41335e-40,-2.217996e-39,-1.978313e-39,-6.756875e-39,-1.804046e-39,2.314638e-39,1.872079e-39,-3.222277e-39,-1.38733e-39,-1.646865e-39,-1.619165e-39,-3.173629e-39,-1.43848e-39,-1.2165e-39,5.50417e-40,-2.012465e-39,-1.028864e-39,-1.629569e-39,-4.835206e-39,-0.0020275163,4.126541e-05,0.0006094583,0.00036774544,0.001553452,0.00046363374,-0.0004456622,0.00020826064,0.0013393766,5.285039e-39,5.001041e-39,-6.132114e-39,3.89072e-40,5.492975e-39,4.64044e-39,-1.52041e-40,2.97868e-40,-1.51011e-40,-1.0159729e-08,-4.4989393e-10,-5.809158e-12,-4.5513682e-10,-2.7121375e-14,-8.9469887e-13,-4.8944928e-11,-8.398181e-11,-1.2376675e-08,9.92676e-40,-9.56081e-40,-5.86018e-39,-5.24814e-40,2.539583e-39,-5.995214e-39,1.092993e-39,6.03976e-40,2.152264e-39,-6.240159e-06,4.844884e-08,1.7743189e-06,1.1429455e-06,-1.370424e-07,7.7963455e-07,-6.114322e-07,-2.8131095e-07,2.452701e-06,6.176059e-17,-4.5157823e-13,6.783758e-18,3.7026186e-15,-1.6850544e-12,4.599673e-14,-6.9417627e-16,-1.4970574e-16,1.2211256e-16,2.264126e-39,2.100474e-39,2.21685e-39,2.9943e-41,-9.76896e-40,1.848953e-39,1.881951e-39,-3.32422e-40,-3.923899e-39,1.543746e-39,-2.060598e-39,-2.434763e-39,2.45474e-40,-5.628443e-39,-2.95018e-39,1.128838e-39,-9.24033e-40,2.90182e-40,-8.272976e-05,0.00045266713,0.0015998795,-0.00011275463,0.0014746109,0.0026062247,-0.0002411216,0.0015462235,0.0020406714,0.0017417982,0.00412907,0.0022695367,0.0016596693,0.004615962,0.0042334003,0.0016676595,0.0035929456,0.0045199282,-9.084043e-08,7.018688e-11,8.5887253e-10,-2.5550779e-07,-4.1030552e-09,-3.304159e-09,-1.5570798e-08,-1.7708575e-09,-7.290749e-08
0.057338465,0.049694102,0.046192322,0.07148039,0.085060105,0.061825026,0.0718896,0.07720543,0.027783971,-5.964065e-39,-3.82067e-40,-2.5609756e-34,2.2501225e-29,3.856018e-37,1.0680932e-31,1.8109337e-23,1.380035e-32,3.366279e-29,5.4841995e-14,-2.7524963e-16,-2.1275121e-14,2.020014e-12,1.0380323e-14,6.5179904e-14,3.8965927e-12,5.2906e-14,1.2103785e-13,0.022041677,0.029774409,0.019051388,0.016279679,0.02345366,0.017121697,0.013050714,0.01803493,0.015787855,-9.50791e-40,-1.700656e-39,-7.24935e-40,-1.395513e-39,-2.472396e-39,-1.321535e-39,-8.63561e-40,-2.287672e-39,-2.154805e-39,-5.9710834e-07,-9.2457014e-07,-2.832196e-06,1.1892745e-06,-3.918192e-07,-6.2899346e-07,3.6271183e-05,4.2820534e-06,4.7118606e-06,9.4942e-40,-4.31069e-40,2.9398e-40,2.812768e-39,-9.91179e-40,-3.923538e-39,6.857694e-39,-6.580573e-39,-1.89003e-40,5.17397e-39,4.687483e-39,3.6444e-40,3.359428e-39,1.715477e-39,5.90275e-40,3.511786e-39,4.328416e-39,3.708982e-39,3.1824267e-19,2.2353803e-18,-4.5453618e-13,1.6310771e-17,2.0592781e-18,1.3170481e-13,2.1539658e-15,3.5657857e-17,7.493089e-14,0.052501254,0.041508075,0.039219603,0.043051552,0.053109214,0.050827947,0.04363258,0.04332188,0.02966428,3.1469143e-18,3.0897951e-16,9.621676e-14,1.4768739e-13,1.3980394e-15,-4.8041523e-14,2.6122212e-11,-3.3101738e-16,-9.401327e-13,9.758864e-20,2.4795627e-21,-5.4268617e-22,1.5690774e-19,-3.850478e-22,4.971778e-21,1.7555343e-20,-8.276812e-25,-3.650937e-20,7.947152e-10,1.3113003e-09,1.5521423e-11,1.4286081e-07,9.864378e-10,1.2503713e-10,3.075733e-07,2.0818119e-08,5.5800732e-11,-4.437846e-39,1.135052e-39,-2.522688e-39,-1.292716e-39,6.737175e-39,-2.513457e-39,-4.0864663e-35,1.6443265e-31,-3.337692e-37,-7.64048e-40,-1.037073e-39,-3.508458e-39,-4.034948e-39,-1.423003e-39,5.296935e-29,1.80385e-39,1.611524e-39,-4.2091157e-27,0.0016858758,0.0023808903,0.0016006635,0.0008838184,0.000997635,0.0009009845,0.0004190742,-4.0514366e-05,-0.00059173186,1.6235591e-24,3.730094e-19,1.7119155e-21,7.651688e-16,9.638156e-20,1.5185775e-18,7.969203e-15,1.3285409e-14,-5.9151568e-15,4.790869e-21,-1.962901e-18,-2.2052152e-13,2.3454624e-20,9.013739e-18,1.1241636e-14,1.2559311e-16,5.096216e-15,2.8229898e-13,-1.152e-42,1.694826e-39,3.728736e-39,2.809804e-39,2.432007e-39,4.187887e-39,6.943212e-39,2.904187e-39,-2.749214e-39,0.055574674,0.057203975,0.031527545,0.038142942,0.06306607,0.048221316,0.035295665,0.039970737,0.028259907,6.051932e-18,6.6303345e-11,4.943928e-12,1.6326631e-14,1.5355567e-10,1.6886333e-10,1.3899578e-14,2.8793183e-12,1.7166582e-11,2.9045611e-34,2.5397968e-31,-1.2103579e-32,-9.636159e-35,-2.4866028e-30,1.359307e-31,-2.108399e-39,-1.1288971e-34,4.4574452e-32,-3.909937e-39,8.22255e-40,5.592707e-39,-5.578498e-39,-1.76814e-40,5.626858e-39,-5.489281e-39,-5.713605e-39,3.311812e-39,-0.045375463,-0.026720915,-0.0098684365,-0.041614316,-0.0033045048,0.012751785,-0.022527622,0.012046139,0.018370679,2.7455872e-07,-1.1404554e-06,-5.12502e-06,1.15948305e-05,2.2249517e-07,-7.811273e-07,3.2693293e-05,6.7443802e-06,4.9086707e-06,-2.2561498e-35,-4.3881117e-36,-5.0837634e-36,-1.9135774e-35,1.176603e-39,7.0113137e-37,-1.6165259e-35,-1.240863e-36,5.93999e-38,-8.7879854e-24,-1.9474687e-21,-5.72348e-16,1.0245917e-21,7.658528e-24,-5.291067e-18,5.118499e-19,1.579838e-19,-5.3258795e-17,-3.661126e-39,-9.30483e-40,2.28937e-40,-6.844648e-39,-1.202397e-39,-3.865542e-39,-1.314931e-39,-2.178325e-39,-2.326015e-39,-2.4435287e-10,-8.352001e-11,-1.7988594e-08,-1.9644455e-09,-3.8668538e-10,-9.083996e-09,4.405665e-08,2.575352e-09,-1.8986714e-08,2.318163e-31,3.5649478e-31,-5.604878e-20,3.878624e-29,-2.2010654e-34,2.5814663e-21,4.1015252e-25,3.0798024e-29,2.4569985e-22,1.7227521e-15,1.0276001e-16,1.1725903e-11,1.6914516e-13,5.2644345e-14,8.700394e-11,1.0859946e-12,7.0443217e-12,1.080754e-10,-4.111136e-39,-2.00608e-39,-4.527469e-39,-2.292848e-39,-1.732921e-39,-3.144137e-39,-3.384532e-39,-2.093806e-39,-2.275967e-39,2.4453e-41,-7.78752e-40,-2.24342e-40,6.50093e-40,1.467206e-39,1.235197e-39,-1.075031e-39,1.62416e-39,1.67257e-39,-0.003073472,-0.00223912,-0.0023370986,-0.00030052534,-0.003523028,-0.0011604337,0.008154124,0.0020074341,0.0004909547,0.022319147,0.024653934,0.020636212,0.012700813,0.015568651,0.014205925,0.011436985,0.01278697,0.010695501,3.9568186e-11,2.9614694e-12,2.0589765e-12,1.4075947e-11,6.328352e-14,1.3553767e-13,2.196633e-12,3.8731998e-13,1.7639537e-11,-1.733018e-39,3.207061e-39,7.620567e-39,-6.0543616e-38,-2.794888e-34,-5.913795e-32,9.79332e-40,5.9947185e-33,7.7564444e-33,-2.465836e-07,-2.2232446e-06,-4.74795e-06,7.186535e-05,1.6003047e-05,6.2612726e-06,0.00010682235,3.122926e-05,2.5369683e-05,0.010112615,0.007141181,0.0037543953,0.01034468,0.007878673,0.002353924,0.009283173,0.007584311,0.0023069102,4.4779958e-32,-1.4656589e-26,-1.037053e-20,-4.9502485e-20,-7.736602e-22,-3.1076237e-19,-1.5356734e-17,6.3597064e-20,-1.0806779e-17,0.04505304,0.040718757,0.035197996,0.03318723,0.041611306,0.030497408,0.03212276,0.03447931,0.019604143,-4.766636e-17,-1.2121855e-14,-1.0104231e-14,-9.566094e-16,-3.6325006e-19,-3.3596545e-16,-8.600593e-17,1.1171749e-20,-4.0582467e-15,0.0010820334,-0.0025582022,-0.033195004,-0.020377085,-0.0012102677,-0.006568851,-0.020163665,-0.0026285427,0.005935647,2.6317915e-09,-5.453823e-09,-1.6255528e-07,1.5361476e-06,1.2848794e-07,2.2384039e-07,8.268565e-06,1.6155808e-06,1.9266197e-06,1.2905506e-29,4.2883633e-25,5.7718442e-18,5.7089486e-16,6.0162925e-22,1.6813835e-19,2.2148377e-12,2.0039263e-18,4.95861e-19,0.040476065,0.03509715,0.021470562,0.044296402,0.051542956,0.030987188,0.03986172,0.05737019,0.03718337,0.00032636995,0.00020783802,0.00013004694,0.0006253399,0.00032822922,0.00025080633,0.0006380594,0.00040305933,0.00036510103,0.018634224,0.018431455,0.015029756,0.013667574,0.015812265,0.01265211,0.013493407,0.013172559,0.008967498,-1.5145e-41,6.537468e-39,4.968123e-39,6.41998e-40,3.591902e-39,5.160988e-39,-3.891047e-39,1.134072e-39,4.9833e-40,-5.771264e-35,-2.1536876e-35,-2.8923862e-35,-2.2005678e-35,1.993278e-39,-3.3124458e-35,-3.0573736e-35,-1.2896586e-35,-3.210898e-35,-4.62017e-40,-4.894195e-39,-4.761339e-39,1.65484e-40,1.072367e-39,2.640066e-39,4.88664e-40,4.84175e-40,1.16328e-39,1.1399307e-12,5.5413133e-15,5.4148357e-14,3.1215058e-10,9.306686e-13,1.13809226e-10,3.1897037e-11,6.3825535e-11,-8.046935e-09,3.7342562e-14,2.7003517e-14,-3.643438e-11,1.6351829e-12,1.57161e-13,2.946657e-11,3.9669795e-11,8.6749895e-12,1.2973156e-10,0.00014503342,0.0012897678,0.0023224158,0.0017756158,0.0019004984,0.0016713359,0.004666198,0.0035100458,0.0014441297,1.71527e-40,-1.380157e-39,-1.197557e-39,-2.335209e-39,-2.133798e-39,-1.384804e-39,-1.454043e-39,-1.832677e-39,7.039126e-39,0.00070169877,0.000273799,0.0003263559,0.0024630236,0.0005806358,0.0002809543,0.0031004078,0.0014001317,0.0008109843,-2.0970716e-17,8.164764e-13,-6.729148e-13,-4.596832e-13,1.09991787e-10,3.4740877e-11,-1.3121553e-14,2.236285e-12,1.0463888e-12,0.0019763934,0.0022814835,0.001756136,0.0067581027,0.00338199,0.0023558121,0.009252072,0.0055513647,0.0038033077,-7.656195e-10,1.6004589e-09,-1.0366506e-10,7.649154e-11,5.3255373e-08,-2.3827906e-10,1.6160856e-09,-3.6944454e-09,1.3742818e-10,1.09511596e-23,2.313046e-19,5.301405e-23,4.576127e-20,7.7892435e-17,3.8115988e-20,2.4777416e-21,5.016436e-19,3.6500806e-22,2.622024e-39,2.809233e-39,6.783211e-39,3.543804e-39,4.418059e-39,-1.743765e-39,3.355092e-39,-2.245225e-39,-2.782777e-39,0.022220384,0.025985716,0.024815137,0.0138411,0.017781781,0.016996596,0.015595939,0.015266639,0.010686982,0.03202928,0.03158072,0.027853107,0.022437343,0.027696006,0.028102892,0.02552828,0.02043484,0.015573908,0.0019165152,0.0023115496,0.0016626565,0.0023039952,0.0025924998,0.0021772748,0.003617828,0.002412371,0.0021394335
0.024847077,0.025184166,0.04013729,0.03223453,0.019914974,0.014203284,0.00840746,0.0036387995,-0.019892124,3.021785e-39,4.788782e-39,1.28734e-39,-2.547887e-39,-1.707231e-39,3.012504e-39,1.16036e-39,8.2291e-41,5.503974e-39,1.271727e-39,2.224942e-39,4.969247e-39,-2.479753e-39,2.30423e-40,-5.252963e-39,-1.89407e-39,3.364924e-39,-2.054819e-39,0.0035826245,0.0027445175,-0.0014107052,0.0051309196,0.0061600115,0.002289443,0.003649657,0.008044322,0.005153023,-2.629228e-39,-5.033271e-39,-1.535194e-39,-2.553094e-39,-3.039869e-39,9.12584e-40,-6.29621e-39,-6.550105e-39,-6.726e-41,-6.716442e-27,3.77168e-30,1.2399765e-27,2.641153e-39,-2.84637e-39,1.8203419e-38,2.4953e-40,1.878187e-39,-1.861555e-39,4.910511e-39,1.487323e-39,-2.037896e-39,5.902956e-39,-3.361541e-39,-7.89329e-40,-2.088804e-39,2.219947e-39,-8.91254e-40,2.73703e-39,-1.349694e-39,3.94047e-40,-3.509614e-39,8.84907e-40,-5.946685e-39,-1.218423e-39,-4.21412e-39,1.956012e-39,-1.556086e-39,-1.439453e-39,-1.638809e-39,6.36644e-40,6.505087e-39,-1.41223e-40,3.74257e-40,-8.16594e-40,-1.19475e-39,0.026663303,0.025443975,0.018793214,0.022895224,0.021121338,0.013131934,0.0071335216,0.011427595,-0.00025134074,6.61393e-40,-2.739355e-39,1.2255757e-19,-2.958962e-39,-8.6792e-40,8.4398205e-19,2.905756e-39,1.44713e-39,-5.62925e-27,-7.39587e-40,4.682471e-39,1.237662e-39,1.9752e-40,-4.1297e-39,-3.080432e-39,1.562338e-39,4.7335e-40,2.124136e-39,-2.801088e-39,-4.995126e-39,-5.626417e-39,-2.502583e-39,-3.527186e-39,-2.315206e-39,-2.483817e-39,-5.246342e-39,-5.143594e-39,-2.047158e-39,-2.054496e-39,1.287146e-39,1.55125e-39,2.021425e-39,1.044447e-39,1.585494e-39,2.304404e-39,1.762221e-39,4.03161e-39,5.027122e-39,-4.903013e-39,3.359399e-39,5.752788e-39,4.25244e-39,6.60645e-39,3.819609e-39,-4.200522e-39,-0.00016537233,-2.8845237e-05,0.00010480762,8.53611e-05,0.00015691588,1.2027187e-05,-4.846543e-05,-5.5053733e-05,0.00011099875,-1.318094e-39,-2.810629e-39,-5.480722e-39,8.36183e-40,3.1575e-40,-2.245951e-39,2.788863e-39,-2.328975e-39,-4.352318e-39,-7.13516e-40,-1.92749e-40,-1.470027e-39,4.283761e-39,1.803781e-39,-2.2759e-40,-2.259368e-39,1.721052e-39,-9.5993e-41,2.8917e-39,3.184936e-39,6.708767e-39,2.586569e-39,6.38214e-40,-2.141888e-39,-2.850055e-39,-4.28442e-39,-4.359819e-39,0.025274264,0.0243449,0.016918974,0.015165354,0.01176497,0.0074614254,0.0027604771,-5.244426e-05,-0.0051540043,-3.207467e-39,8.5319226e-32,-4.256597e-26,-1.145587e-39,-2.667164e-34,1.1327605e-33,1.7912447e-36,5.900345e-37,5.89016e-40,3.58187e-40,-2.52e-43,-6.42169e-39,1.204241e-39,3.90546e-40,2.828857e-39,4.045711e-39,3.98762e-40,-2.183953e-39,-1.328486e-39,2.581883e-39,-6.872642e-39,1.94177e-39,1.253471e-39,-1.360769e-39,6.290523e-39,4.121425e-39,-2.867113e-39,0.0012556744,-0.009496174,-0.022350386,0.0005303699,-0.003549679,-0.0011587188,0.0037322014,-0.001216738,-0.0063765193,6.1497716e-23,-1.2396214e-25,-1.2344495e-24,-2.2727349e-32,1.3476317e-38,-2.4716135e-31,-6.986814e-39,-1.819833e-39,1.080002e-39,-8.7583864e-36,-1.1543012e-36,-1.3549026e-35,-3.8996587e-36,-1.1332e-40,-5.1876774e-36,4.6850635e-36,6.567954e-36,-2.8672868e-36,2.67774e-39,-2.71079e-39,-1.955707e-39,2.9303e-41,5.03356e-39,4.8373e-39,-9.83291e-40,2.827066e-39,1.560597e-39,5.60852e-39,1.625302e-39,1.384409e-39,2.295236e-39,-1.632289e-39,1.716008e-39,4.475527e-39,2.710931e-39,2.434769e-39,1.5826754e-34,-2.2052467e-34,1.5081076e-35,-2.050768e-39,4.321516e-39,2.05559e-40,-2.125195e-39,2.75048e-39,-4.05655e-39,1.817577e-39,5.758011e-39,7.51414e-40,1.718317e-39,2.542607e-39,3.85172e-39,1.132192e-39,8.35137e-40,-5.1889e-41,-2.337877e-39,-2.04827e-39,-3.042208e-39,-1.886721e-39,-9.10565e-40,-6.444416e-39,5.867e-41,-2.76084e-40,9.42e-40,-4.81238e-39,1.667488e-39,2.06179e-39,-1.624684e-39,1.481498e-39,3.236352e-39,8.23766e-40,-2.273241e-39,-4.465697e-39,1.442577e-39,-1.480508e-39,1.52628e-39,1.88294e-39,-1.69446e-40,5.20602e-40,2.935077e-39,3.77619e-40,1.40428e-39,-0.0001625717,-2.641477e-05,-1.644371e-05,-7.61223e-05,-6.455633e-05,-8.206075e-05,1.274581e-07,-2.35273e-05,-8.149499e-06,0.005053495,0.005360514,0.0033720532,0.0048401835,0.004765572,0.0027683058,0.002202867,0.0035242955,0.0020323843,1.130991e-39,5.939006e-39,-2.2509003e-37,-5.095442e-39,6.46608e-40,3.6321563e-36,-1.937423e-39,-6.785138e-39,6.199751e-39,-2.807822e-39,1.628817e-39,-1.252391e-39,-6.095344e-39,4.57955e-39,-3.961608e-39,4.53633e-39,9.94925e-40,6.29472e-40,5.5832883e-13,7.675425e-13,5.884831e-14,6.824232e-19,1.8434019e-16,2.5038095e-16,4.386523e-21,3.5635084e-22,1.6906587e-19,0.002030408,0.0028981643,0.004833553,-0.000126848,-0.0018488765,-4.154886e-05,0.00036853924,-0.0001427257,-0.0013859977,-3.332635e-39,-3.239728e-39,3.427622e-39,-8.19534e-40,1.312724e-39,-2.912583e-39,-2.18454e-40,-1.484017e-39,6.65526e-40,0.00822756,0.011594558,0.0076443315,0.012979462,0.015947174,0.00647163,0.008106345,0.014780921,0.0055799605,-4.2226144e-17,-3.386864e-13,-1.1259935e-18,-3.642708e-18,-1.8854034e-15,-1.2098548e-17,-1.2245297e-16,-1.9425752e-16,-6.2606136e-15,0.014415461,-0.010337089,-0.009061126,0.0015443707,-0.0024968747,0.0006162785,0.00066593266,-0.0024152661,-0.0050041834,-6.767079e-31,-1.8376601e-30,5.0217347e-29,1.106817e-38,-4.66617e-40,2.797045e-39,-3.574513e-39,-1.374919e-39,1.18164e-40,1.466827e-39,-1.5387e-40,2.517901e-39,-7.37062e-40,-1.517716e-39,-3.416116e-39,-3.105464e-39,-3.256555e-39,5.624725e-39,0.010353144,0.0031818892,0.0021512322,0.027882298,0.022881526,0.00448281,0.004546161,0.018710272,-0.0018976711,-1.11799965e-10,4.5548695e-10,-6.339802e-11,-7.6144456e-13,-3.133329e-11,-7.80907e-10,-2.992542e-14,-3.5806744e-12,-4.0652575e-11,0.0001600862,-0.00026203622,-0.00033875485,0.00017272876,6.7773486e-05,-0.00016550052,0.0001096055,2.5434085e-05,-7.232503e-05,4.55773e-39,1.654191e-39,-3.86657e-40,-8.96998e-40,6.05735e-40,-4.817279e-39,4.698288e-39,-4.979793e-39,3.162034e-39,-4.5429447e-35,-3.932585e-37,1.6694944e-35,-3.542653e-35,7.74667e-40,1.4756567e-35,-3.589517e-35,-2.2418089e-35,-3.5757313e-36,6.161714e-39,5.286226e-39,3.910955e-39,-6.58316e-40,-1.121316e-39,1.686446e-39,-4.812266e-39,-5.36271e-39,-4.488934e-39,5.73227e-39,-5.43107e-39,-2.722209e-39,-1.366092e-39,-4.655156e-39,-1.963169e-39,-1.24993e-39,1.845497e-39,-1.265202e-39,4.860746e-39,-2.787554e-39,-1.778859e-39,2.051469e-39,-5.25861e-40,-1.214812e-39,-7.94808e-40,1.900895e-39,-2.599404e-39,0.000945013,0.0016118042,0.0008042399,0.000861247,0.0024105546,0.0016580314,0.0008594698,0.0005542144,0.0008337085,2.148e-40,-1.274138e-39,-1.914549e-39,4.727293e-39,-6.353096e-39,-2.214759e-39,-2.18799e-39,2.108883e-39,-1.862138e-39,1.7216411e-08,-9.516196e-10,-5.3317784e-08,5.6205886e-12,-5.8028013e-11,-1.0812237e-08,-1.938094e-12,-5.841462e-12,-1.01535655e-10,-3.865122e-39,-1.883328e-39,6.3928e-40,7.29917e-40,5.181657e-39,2.702338e-39,-5.646961e-39,2.6784e-39,9.54524e-40,-3.781753e-05,1.2961311e-05,7.825013e-05,3.2188566e-06,-8.2786155e-06,8.280401e-06,4.661711e-06,6.665046e-07,-4.1357066e-06,-4.5034628e-13,-3.4141384e-14,5.164811e-17,-1.4439303e-17,2.63507e-13,-3.563354e-13,-1.5680019e-12,4.5445237e-13,-1.6196538e-16,-2.108133e-39,2.185605e-39,1.005275e-39,-6.08543e-40,-5.364001e-39,-1.97994e-40,6.480575e-39,3.992545e-39,-1.68266e-39,2.022459e-39,2.468675e-39,5.87954e-40,3.92614e-39,3.875759e-39,2.897252e-39,3.298522e-39,4.28378e-40,2.670107e-39,0.0073055774,0.007146428,0.0037874088,0.005295212,0.005293531,0.003013703,0.0012664832,0.0033522483,0.0015327882,0.014067886,0.010832562,0.0071816407,0.008283904,0.0048642713,0.0031867828,0.0032681657,0.00085598876,-0.002037809,1.5576538e-06,-2.3197107e-07,-1.603472e-07,4.301387e-09,-1.8439216e-09,-7.521757e-08,-1.4764849e-08,-3.2480998e-09,-2.0535769e-08
-0.005127603,0.03635105,0.038487338,0.00284367,0.050608374,0.03392195,0.055053152,0.06073387,0.026509337,-1.1681327e-36,1.4517299e-36,-1.4484807e-37,-5.275956e-31,-5.23289e-28,2.3287445e-33,-1.9642322e-28,-2.912796e-30,-5.3669092e-30,-5.1857994e-22,-2.4638547e-22,-4.1650483e-19,-2.1563109e-20,-6.0315647e-21,-2.1769222e-18,1.4356773e-19,-3.659391e-20,-1.056705e-19,0.0030774102,0.016181575,0.009865474,-0.00096366764,0.005153034,0.0028158724,0.0003536645,0.0029962072,-0.0003057059,-1.93871e-40,-4.481898e-39,-4.63689e-39,2.76841e-39,7.51561e-40,1.251329e-39,-2.110126e-39,-7.88846e-40,-5.40961e-40,-9.864349e-15,-1.9020354e-13,-1.7857433e-11,2.9460268e-15,-1.577402e-15,-1.5223552e-12,1.39128995e-11,3.1496832e-12,2.8157678e-12,1.794231e-39,-7.8808e-40,2.437546e-39,9.98506e-40,2.43809e-40,1.315903e-39,-8.57195e-40,-2.969535e-39,-2.300685e-39,-4.90447e-39,-3.226324e-39,9.63445e-40,-4.25021e-40,-2.737785e-39,-4.596618e-39,-3.485682e-39,-1.603845e-39,-1.924295e-39,-1.6795554e-29,-2.3109097e-27,-1.676975e-24,6.244168e-33,-3.1103087e-35,-8.443739e-26,5.367166e-26,3.4648063e-22,8.396873e-23,0.018400503,0.04289398,0.04016823,0.011396794,0.02084111,0.014422752,0.02473496,0.030269591,0.019514283,-6.779541e-33,1.0963473e-25,3.4224574e-21,4.2374397e-22,1.7892855e-29,9.322997e-25,8.0527744e-19,5.337016e-19,1.10324536e-20,2.325288e-28,-3.8922937e-34,-6.300357e-39,-1.0623968e-22,-4.4238456e-22,-1.3957981e-20,-4.0072304e-23,-4.132788e-16,-5.0829667e-21,-3.4191224e-24,-4.046441e-25,-9.217469e-25,-3.151697e-20,-1.0160342e-18,-7.121608e-15,1.5858802e-23,-7.383679e-13,-4.8717603e-16,3.907184e-39,6.204815e-39,9.20028e-40,3.36092e-39,-8.37904e-40,-7.4639e-40,-1.21733e-39,1.397788e-39,1.53206e-39,-6.7582e-41,6.43611e-40,-6.38404e-40,-3.19464e-40,-2.073842e-39,-8.33576e-40,-1.003459e-39,-1.830627e-39,-2.80822e-40,6.195129e-05,-0.0013443389,0.00069214706,0.00083514367,0.0016623529,-5.680157e-05,-0.00023776936,-0.00034503764,-0.00037125108,-2.205646e-37,1.605116e-39,-1.2021708e-34,-2.776265e-39,-1.2711464e-29,-3.2120927e-25,1.077982e-39,-1.5405072e-20,2.6748838e-24,2.5636358e-35,2.712701e-35,-1.746723e-25,-2.315814e-39,-2.7917883e-37,-4.828591e-37,2.2791e-30,-2.6082557e-34,9.120907e-30,1.26115e-40,-3.678144e-39,-9.51838e-40,1.51814e-39,-5.353753e-39,4.677285e-39,-1.939913e-39,-2.606246e-39,2.3002e-41,0.02277171,0.041737404,0.043986864,0.007445419,0.029259592,0.02010803,0.03080434,0.04567379,0.026829287,-2.835617e-22,-2.151761e-17,5.269176e-16,5.135753e-17,-1.3045127e-16,1.4104142e-12,9.734032e-19,-3.960635e-19,-2.7083264e-16,-1.1079171e-21,-6.012712e-33,-8.4901117e-17,4.6704276e-23,-5.1883056e-20,-1.4324563e-27,-3.7715642e-34,-2.946617e-17,-1.9667567e-38,2.111727e-39,-2.63162e-39,-9.04495e-40,-4.36976e-39,-2.354357e-39,9.65256e-40,1.099047e-39,-6.67968e-40,-3.02983e-40,0.00083282706,-0.009162714,-0.026164312,0.0030181485,-0.0024382905,-0.008213463,0.01271437,0.01244075,0.009611833,-7.74446e-13,-2.0567762e-12,-4.7322934e-11,-6.716993e-13,-1.0673619e-12,-1.0266587e-12,5.7474983e-11,-2.7321457e-12,-3.094302e-11,-3.4044087e-35,-1.3532965e-35,2.3533075e-35,-5.215889e-35,5.433795e-39,5.2931225e-36,-4.4243277e-35,-8.052963e-36,-4.8700435e-36,2.1713628e-35,1.0373438e-33,-1.5241903e-27,2.5448305e-35,-6.1131204e-37,-4.0160386e-30,1.8037793e-30,1.0542065e-26,1.0884815e-24,-1.255086e-39,-2.375166e-39,9.07991e-40,-2.9477e-40,1.472176e-39,-2.621395e-39,3.37884e-40,1.476209e-39,-2.2867e-40,-2.4922768e-19,6.3314447e-18,6.4429646e-15,-9.178077e-18,3.27578e-17,-7.120857e-18,-9.4955714e-14,-7.113075e-15,-9.803055e-14,1.335299e-39,-4.33206e-40,-1.225525e-39,-6.270015e-39,-1.306942e-39,1.115635e-39,2.300241e-39,-6.62362e-40,-2.618643e-39,-2.2177375e-28,-9.140752e-29,-6.6871826e-24,5.8568625e-29,4.5882116e-34,-7.0163643e-26,5.5156534e-22,7.5478423e-25,1.5449711e-22,2.432637e-39,1.667719e-39,-1.553767e-39,-9.94964e-40,-6.07635e-40,1.980371e-39,-3.0437e-40,1.002154e-39,1.988377e-39,-2.064057e-39,-1.279499e-39,4.235e-41,-9.37008e-40,-2.407634e-39,8.48752e-40,-1.78761e-40,1.991412e-39,2.102999e-39,1.4912503e-05,-2.778572e-05,0.0013288611,9.995082e-06,0.0010967015,-0.0010212825,0.00048374513,-0.0003765517,0.00017592659,0.006415725,0.009206869,0.0076134885,0.00096121605,0.0029238344,0.0011237769,0.001486435,0.0030106339,0.001689567,-1.208205e-24,-6.823372e-25,-1.6788478e-21,-1.9775855e-21,-2.1032892e-22,-7.2425535e-21,4.0547544e-20,-6.627821e-20,-4.804727e-19,-8.46786e-23,-8.1045274e-21,-1.6428568e-21,-3.2157412e-20,-1.03958e-15,6.1047207e-22,4.292814e-22,5.682053e-22,-8.870339e-30,2.2019925e-10,7.1450634e-10,1.6473293e-09,-3.2771993e-10,-1.1566459e-09,-3.7351437e-09,9.569472e-09,9.385459e-10,-9.046592e-09,0.003719123,0.0006983764,0.00197504,0.003359847,-0.0025656084,-0.0032304781,0.003476988,-0.0007661766,-0.002702454,-9.9137094e-33,3.7029607e-28,3.4540023e-31,-1.0055516e-27,7.2905545e-26,-3.3375522e-23,-8.907346e-25,-1.9191976e-24,-8.4577646e-23,0.018504228,0.028006077,0.016548144,0.0006577356,0.011422758,-0.003285612,0.005368238,0.014253186,-0.0006070751,-1.5968196e-12,5.6500655e-11,7.307102e-11,-7.581695e-14,7.425415e-13,-1.1219205e-08,3.8473898e-13,-6.501572e-09,-1.3290093e-08,-0.0014626448,-0.012266032,-0.013594312,-0.017580379,-0.0033945644,-0.0054429085,-0.0032217968,0.020007005,0.005498531,-4.8683642e-17,5.2962803e-17,8.486062e-14,-6.6725455e-16,-6.303667e-16,-8.509161e-15,5.819847e-14,2.6238977e-13,7.536367e-13,1.425885e-35,2.4500537e-34,-3.7510605e-33,-3.6706816e-31,-9.75222e-33,-2.1939061e-26,-1.2024555e-25,-6.7923266e-26,-1.00523806e-25,0.016891867,0.04479863,0.027858792,0.0061697895,0.03335533,0.012182303,0.018174335,0.038725458,0.0069773113,1.284814e-08,2.1119395e-06,3.5920611e-06,-9.491611e-08,1.4960974e-06,3.5657963e-06,-7.718397e-07,1.651436e-06,3.5547446e-06,0.001958767,0.0038004795,0.0027288266,0.0006942512,0.0018538688,0.0005382115,0.0007277743,0.0017446863,6.698485e-05,-2.25138e-39,1.11412e-40,2.107169e-39,-2.77942e-40,1.683966e-39,6.149932e-39,9.41865e-40,-2.13102e-40,-2.852656e-39,7.369278e-35,-9.498511e-35,-7.9186006e-35,1.4973798e-34,5.110701e-39,1.5082136e-35,2.0788172e-34,3.8424468e-35,4.180884e-35,9.84709e-40,-4.12859e-39,-3.049848e-39,2.947102e-39,-6.06588e-40,4.31464e-39,7.040792e-39,3.442486e-39,5.685914e-39,-1.6859558e-26,-1.5508865e-30,4.433661e-24,-2.0977643e-23,-5.890273e-27,-4.2527098e-19,4.1310646e-34,-6.18854e-17,-4.6391358e-20,-5.555627e-25,-2.8982074e-27,-3.823916e-19,6.3906366e-25,-5.254513e-27,-4.5225706e-25,4.737827e-21,8.5520884e-23,1.8445378e-22,0.0028456368,0.0017021762,0.0028155814,0.00073416374,0.0034906217,0.000977055,0.0012730302,-0.00040345913,0.0038617547,5.83555e-40,-1.304634e-39,1.175692e-39,2.007134e-39,2.352413e-39,-2.710045e-39,1.564666e-39,2.472192e-39,3.879632e-39,1.5962684e-06,4.916855e-06,7.607134e-06,2.3588882e-06,2.934641e-06,4.485855e-07,1.8368799e-05,-3.2829618e-07,-6.3627886e-06,-2.3054912e-17,-4.6639657e-18,2.9820484e-18,3.973352e-19,-1.2793863e-18,-1.0820001e-15,-1.7083095e-18,-1.1862984e-20,-3.3568912e-14,0.00016826522,8.5658794e-05,0.0002458352,2.0336873e-05,0.00011417042,0.00017007734,0.0010100704,-0.00017275786,-0.00028861914,-3.9353827e-09,-4.867433e-12,6.7800425e-11,3.708891e-09,-7.377767e-09,-1.37249945e-08,5.7445728e-08,-2.9481934e-11,2.6348712e-07,7.98325e-40,-2.610105e-39,1.792266e-39,-6.448052e-39,-7.914247e-36,-6.6068207e-35,-7.553242e-35,-7.002229e-29,4.269734e-31,-2.203403e-39,-2.957438e-39,-3.9154e-39,-2.140782e-39,2.917344e-39,-4.773013e-39,1.461002e-39,2.423156e-39,-3.03723e-40,0.006563684,0.011603484,0.008451509,0.00021023623,0.005452835,0.0035470773,0.0031743555,0.0058688945,0.0036006942,0.013138666,0.017589359,0.017339623,0.003309102,0.009176066,0.005983506,0.007054994,0.015897168,0.006823067,2.3190189e-05,5.735775e-05,9.686313e-05,-1.7953021e-06,3.0062189e-05,4.4687367e-05,-7.523784e-06,6.3765525e-05,2.4141942e-05
0.011525575,-0.07689116,-0.060045548,0.015853273,-0.0648121,-0.072504036,-0.00131703,-0.06047611,-0.05498185,-1.113433e-39,2.66636e-40,-1.53022e-40,4.420902e-39,-1.207764e-39,-5.338252e-39,2.337834e-39,-4.631628e-39,-5.25383e-39,-3.2417928e-16,-3.565773e-16,-1.8946028e-16,-3.4339485e-18,-6.899503e-19,-1.1107938e-19,-1.0392952e-20,-3.1189692e-23,1.4566677e-26,-0.03348661,-0.020594606,-0.00577193,-0.022736475,-0.016691737,0.0029904163,-0.01740924,-0.012946439,-0.0049075615,6.448644e-39,2.25585e-39,6.737702e-39,3.048064e-39,2.455624e-39,1.547073e-39,3.503454e-39,3.273926e-39,2.350792e-39,3.5424387e-13,4.2829247e-15,2.1200528e-16,9.9932696e-17,1.0548552e-17,2.5280698e-20,6.189454e-19,3.8150982e-22,-1.3252474e-21,-2.90889e-40,-1.089454e-39,-1.578561e-39,-2.397114e-39,1.985847e-39,2.084209e-39,1.046394e-39,-1.074345e-39,1.61454e-39,-3.643525e-39,3.658765e-39,-4.824275e-39,-2.299269e-39,-1.966872e-39,5.63817e-40,-9.36875e-40,-1.809679e-39,-2.951362e-39,-2.4153388e-30,3.353047e-35,5.8146505e-35,-1.2317032e-37,1.017812e-39,-1.342e-42,-3.2174606e-37,7.49497e-40,1.249455e-39,-0.027510678,-0.057383716,-0.03855146,-0.016133867,-0.034795385,-0.057922333,-0.023736198,-0.028862106,-0.06529319,-2.43176e-39,-2.460644e-36,-6.86151e-40,-3.642859e-34,5.26217e-40,5.09811e-39,-2.997474e-39,2.88708e-40,2.227833e-39,-9.30628e-40,6.33247e-40,-2.234391e-39,-5.83599e-40,-1.7901832e-34,-8.89462e-36,-4.838644e-39,3.749913e-39,3.360853e-35,-8.459056e-34,-2.6267717e-32,1.890131e-37,2.6254368e-35,-8.168809e-39,-6.2338307e-37,-1.7040652e-28,-5.446054e-26,-2.376452e-25,-1.000018e-39,7.7607e-41,6.7736e-40,-2.82867e-39,-3.024308e-39,-5.543688e-39,-6.325512e-39,-2.980454e-39,-3.077246e-39,-2.26671e-39,-4.332e-41,-9.17304e-40,-1.322487e-39,-3.61281e-40,-1.240201e-39,-2.713079e-39,-6.76534e-40,-3.49987e-40,0.0013073428,-0.0017105954,-0.0011911861,-7.0217066e-06,-0.00091065175,0.004239481,-0.002158185,0.00014606753,0.0012849229,-3.523126e-39,-1.859485e-39,-3.742437e-39,-1.68133e-40,-4.198806e-39,-6.045528e-39,-1.8412e-40,1.0733065e-34,8.9421e-40,-3.6098344e-30,1.2143904e-36,-8.133904e-36,-4.462794e-39,-1.6162701e-38,1.79358e-39,1.5132908e-38,2.267283e-39,-7.09727e-40,-2.570085e-39,-1.514194e-39,1.339371e-39,-7.38651e-40,-1.453187e-39,1.201231e-39,-2.177265e-39,2.960365e-39,1.262368e-39,-0.015576308,-0.047896404,-0.043073244,-0.0126427915,-0.038526025,-0.06188001,-0.009718334,-0.030789556,-0.048281133,1.8328865e-17,-6.1255576e-17,1.5577628e-16,-1.7133731e-16,1.9519686e-14,3.293572e-14,1.9291415e-15,6.1964598e-15,-9.395695e-15,-1.950269e-30,5.0182123e-26,3.6888908e-27,1.6261897e-24,1.639453e-22,4.053957e-23,1.390937e-28,1.8645365e-25,1.6234947e-26,-2.17303e-39,2.937412e-39,-3.826e-41,3.1434e-40,5.850931e-39,2.064e-39,4.747734e-39,-1.416742e-39,4.33772e-39,0.036129765,0.040210966,0.07569708,0.07701893,0.04001437,0.049565792,0.08157217,0.04002728,-0.004846267,5.7868593e-12,4.311213e-14,2.0752041e-14,1.2016975e-15,2.5078862e-16,3.5529568e-17,2.1529481e-16,2.3715578e-17,4.9982133e-16,8.1219743e-35,2.2462255e-35,2.948236e-36,1.1771274e-34,-5.907793e-39,-3.4350565e-36,1.4307702e-34,1.7033263e-35,3.9840305e-36,-1.9726444e-35,-6.0662e-41,-1.926619e-39,1.904704e-39,1.413274e-39,-2.11844e-40,8.96733e-40,1.321658e-39,-7.10747e-40,-1.779288e-39,-1.0434e-39,-6.24342e-40,2.112903e-39,8.6112e-40,-1.31005e-40,1.897793e-39,2.28864e-40,1.6548e-40,3.613499e-15,4.7359945e-17,4.9984887e-17,5.189767e-18,2.3166712e-20,-1.8107652e-19,8.542792e-19,6.7709427e-19,8.146298e-20,1.854427e-39,2.56042e-40,9.28161e-40,4.539655e-39,-2.02073e-39,-4.70189e-40,5.726497e-39,-1.98563e-40,1.263576e-39,3.592473e-28,3.9288916e-35,3.6032458e-34,1.4959432e-34,5.854038e-39,2.21139e-39,5.6367904e-35,-9.371531e-37,3.366303e-39,6.169816e-39,5.964809e-39,6.951592e-39,7.61737e-40,5.1468e-41,-9.2637e-40,-1.615682e-39,-1.227696e-39,1.47638e-39,-2.422261e-39,-2.669733e-39,8.94524e-40,1.20994e-40,-2.12629e-40,3.9446e-40,2.26305e-39,4.77577e-40,1.453168e-39,0.00039832792,-0.005432979,-0.0051536486,-0.0024133485,0.004403707,-0.0023213592,-0.00027054717,0.0011882454,-0.007734037,-0.020939624,-0.012084226,-0.011564675,-0.013238871,-0.0037627632,-0.01205578,-0.0065395203,-0.009217517,-0.0160631,8.117947e-22,2.639171e-23,8.1611864e-23,-8.3952994e-30,1.5768517e-29,7.844066e-30,-7.2996206e-31,-1.2216252e-36,3.7678e-41,-1.0366118e-29,-2.361752e-28,1.546651e-25,-1.4017405e-26,-1.4703065e-26,-2.1509318e-25,-5.160777e-32,3.0099883e-27,3.6104262e-26,-4.587287e-10,-5.250826e-09,-3.71303e-09,1.03801516e-10,-2.2083301e-13,-1.2761314e-11,1.6232935e-11,-1.7963993e-14,-5.5761108e-12,-0.008113476,-0.0014218434,0.005710075,-0.025568433,-0.0052872235,0.0035064297,-0.03487441,-0.0022989723,0.0061744195,-2.9523e-41,-2.228762e-39,-4.334805e-39,-2.325991e-39,6.060072e-39,2.04152e-40,-4.37803e-40,1.97719e-40,-5.933798e-39,-0.04553477,-0.031731337,-0.012757103,-0.04146771,-0.02483362,-0.024645537,-0.018265422,-0.033216342,-0.047820937,-4.9630803e-08,4.621404e-07,-2.2513724e-08,-1.5161818e-08,-2.935461e-07,2.1976666e-07,-1.2552207e-08,1.9228773e-07,1.5120106e-07,-0.033662368,-0.012917993,-0.0706699,-0.018790085,-0.039485965,-0.021869244,0.060948912,-0.026027484,-0.041613143,3.621264e-14,3.7829143e-17,-4.9972317e-17,4.373671e-19,-7.705904e-21,-1.4908586e-22,-1.9899494e-20,-7.5797456e-24,-1.1477872e-21,5.423685e-39,1.780193e-39,6.243104e-39,1.813036e-39,-9.879e-41,8.60191e-40,-7.33878e-40,-1.995931e-39,4.44848e-40,-0.05576696,-0.07166238,-0.0033499291,-0.022305561,-0.06324681,-0.0155555,-0.009328005,-0.018989671,-0.0044631963,7.612511e-05,6.394299e-05,3.451762e-05,1.4879911e-05,9.386331e-06,8.573941e-06,1.9792633e-05,1.0356367e-05,2.1068987e-05,-0.0059882603,-0.0048716096,-0.0044857063,-0.0012619909,-0.0014972698,-0.00036599964,0.00036607657,-0.00026073842,-0.00030620347,3.91807e-40,1.016206e-39,-8.82912e-40,-1.124267e-39,-1.544389e-39,3.364689e-39,-3.142974e-39,-3.87455e-40,-2.49777e-40,-2.635676e-34,-3.9411754e-34,-3.7775973e-34,3.196303e-34,-1.410212e-39,-2.0587404e-36,3.2807225e-34,2.1941733e-35,-1.4718943e-36,3.338837e-39,4.098588e-39,1.5068e-39,-5.2762e-40,-1.671267e-39,-1.660728e-39,-5.740093e-39,-5.473667e-39,-3.171096e-39,-3.833249e-39,-5.55269e-32,-1.44122e-40,3.80408e-40,4.6548948e-35,2.4799404e-36,-6.1488564e-37,-3.3770997e-24,-5.0078175e-28,-3.2842794e-25,1.3719149e-34,4.1537224e-33,1.2535001e-34,-3.657542e-38,-1.309882e-39,-4.3462646e-32,-8.947517e-38,1.285054e-39,0.003241458,0.009337127,0.008779201,0.012276529,0.009879002,0.00464766,0.0062662214,0.002366181,0.0041230083,5.6838e-40,1.3929e-41,-4.823171e-39,-1.221302e-39,-5.741134e-39,-4.377e-41,-2.302356e-39,2.82269e-40,-1.880278e-39,1.8085297e-05,1.0546656e-06,-1.2561769e-06,3.396655e-06,7.6220397e-07,2.2158338e-07,4.1614558e-07,2.7796478e-08,5.3147147e-08,8.302364e-14,2.2132839e-14,5.2142188e-15,7.2768153e-13,2.7910936e-13,4.2502704e-13,4.70636e-13,1.8737028e-12,-6.2351816e-12,-0.0010405442,0.00043312216,0.0018919691,-0.006098261,-0.00090652204,0.0016938901,-0.0072654802,-0.0017429489,0.0019294948,-3.1780079e-09,1.8480333e-07,-1.15441104e-07,7.0267836e-09,-3.3443004e-07,-3.82725e-07,-6.063645e-08,4.1398633e-07,2.9129492e-07,1.736377e-39,-2.85735e-40,4.5607e-41,1.82037e-40,6.38474e-40,6.0076e-40,-1.133121e-39,5.7428e-40,-1.377643e-39,6.02292e-40,1.563549e-39,-2.011243e-39,1.349875e-39,-1.82016e-40,-2.180575e-39,3.055709e-39,-2.76859e-40,-3.425187e-39,-0.018906455,-0.011981635,-0.008659293,-0.01049421,-0.007818055,-0.013355063,-0.0020948572,-0.009176039,-0.018865636,-0.019890593,-0.0185189,-0.02258146,-0.023880467,-0.016339757,-0.029369084,-0.019381067,-0.0135441655,-0.033681966,-1.6325052e-05,-2.0419422e-05,-1.965174e-05,2.4062518e-05,5.0242443e-06,3.604752e-06,5.177778e-06,3.7902914e-06,4.703363e-06
-0.08265359,-0.048149318,-0.012538854,-0.058484364,-0.06366954,-0.031423897,-0.039233062,-0.050928093,-0.059314504,-6.63331e-39,1.312905e-39,-5.85362e-39,-1.46071e-39,2.60395e-40,2.51202e-39,-4.737416e-39,-2.560298e-39,2.440068e-39,-3.6588954e-32,1.4023441e-34,5.8993935e-35,-3.3909408e-38,3.109113e-39,6.144898e-39,-9.373606e-32,-4.4422714e-38,-1.0276789e-31,0.0043915287,0.018743483,-0.003715158,0.020415533,-4.0196526e-05,-0.014185276,0.037491046,-0.0007348471,0.003293686,1.32982e-39,-4.27573e-40,6.3789e-41,3.575514e-39,3.50541e-39,-2.596924e-39,6.719368e-39,3.155382e-39,4.046757e-39,-1.9795894e-24,-1.6025955e-24,-5.0649915e-26,-7.6052024e-30,-5.0637047e-30,-3.156747e-29,2.7442424e-24,-3.3740364e-28,-3.6637304e-21,-1.096892e-39,2.794369e-39,5.852124e-39,3.463145e-39,1.067578e-39,-4.0388516e-38,-3.616411e-39,1.683433e-39,3.307104e-39,3.293654e-39,-1.31204e-39,2.786647e-39,-2.253068e-39,2.42469e-39,-7.8837e-41,-2.243745e-39,-8.00202e-40,3.359965e-39,3.631779e-39,1.518475e-39,-8.39626e-40,4.534054e-39,1.19993e-40,-1.055958e-39,7.10753e-40,1.261677e-39,3.82556e-40,-0.016941896,-0.006488802,0.004816019,-0.017415874,-0.037776254,-0.027729996,-0.013611258,-0.031124232,-0.027553286,2.51436e-39,1.4522921e-31,-3.254845e-39,-2.007354e-39,-6.6618e-41,2.729991e-39,-4.068489e-36,3.277957e-39,3.347541e-39,1.5370191e-33,1.0921484e-33,1.2000316e-23,-2.3275054e-34,-8.262993e-21,-4.4574147e-19,5.141245e-34,-3.7507232e-20,9.9406454e-21,-1.5196496e-24,-1.563507e-39,-3.819564e-22,-2.152474e-22,-2.928171e-17,3.64122e-15,-1.8100034e-17,4.345339e-14,6.816048e-17,5.434935e-39,-8.96587e-40,1.59488e-39,3.332896e-39,6.99916e-40,1.841657e-39,1.232928e-39,3.9587e-41,-4.43885e-40,-2.60893e-39,-2.024906e-39,-3.572358e-39,1.00175e-40,-1.645881e-39,1.706887e-39,1.16702e-40,2.638527e-39,-2.014218e-39,0.00069586287,-0.00031663076,0.005038324,-0.00015472634,2.1255779e-05,-0.00040485355,0.00010354246,-4.362582e-05,-9.017204e-05,6.520056e-36,-2.329444e-39,-3.9688844e-37,1.3498274e-35,6.2853516e-35,-3.914054e-28,-4.796612e-25,1.4664392e-18,9.991684e-24,1.918233e-39,-5.76951e-40,2.183957e-39,4.003692e-39,4.3031e-39,2.44462e-39,4.15697e-40,4.416691e-39,2.0306e-40,2.347297e-39,4.25202e-39,5.325028e-39,1.287594e-39,4.40626e-40,1.37551e-39,-2.366067e-39,1.592792e-39,-2.331532e-39,-0.0348475,-0.021232754,0.0062548853,-0.039177354,-0.03243104,-0.027019689,-0.038009834,-0.031216955,-0.015705194,2.22896e-17,2.4919794e-14,-4.2381048e-13,9.341033e-15,-1.2883613e-16,-1.13656914e-13,7.602143e-19,1.1016523e-16,1.6682899e-15,3.1896434e-18,4.374559e-19,6.154641e-19,7.865994e-23,-4.079622e-16,-8.002984e-22,9.7644345e-25,6.446661e-17,-2.030057e-29,-5.2669e-41,4.013033e-39,-1.921488e-39,1.347818e-39,-1.38662e-39,5.344522e-39,3.220576e-39,6.52917e-39,5.89324e-39,-0.02378753,-0.022734743,-0.07462231,0.005606062,0.015044741,-0.023335213,0.031558163,0.039279185,0.03265483,-3.2944216e-20,9.776896e-21,1.7348717e-18,-2.6329716e-22,9.6474426e-23,2.696675e-23,-1.0833455e-19,-1.289777e-20,-7.8479945e-17,4.1688204e-35,1.7683697e-35,4.1145858e-35,1.5028903e-35,-2.79733e-39,1.694358e-35,5.5732873e-35,4.1235599e-35,6.1538535e-35,2.46205e-39,2.602937e-39,-9.83157e-40,2.755868e-39,4.72157e-39,-7.42599e-40,2.27027e-40,-8.17763e-40,-2.3503333e-37,-2.311086e-39,-1.900493e-39,-1.395968e-39,-1.518156e-39,-2.250068e-39,-1.77048e-39,-1.482337e-39,-2.13278e-39,-1.979376e-39,-4.019716e-24,9.334339e-26,6.8846056e-27,-7.5501413e-28,7.2477785e-28,2.8090523e-26,-1.2577515e-21,-1.697864e-21,-3.6068965e-20,3.832883e-39,5.968523e-39,-1.15087e-39,3.560498e-39,-9.6884e-41,4.304325e-39,-5.135762e-39,-5.55769e-39,-6.339366e-39,-1.7019047e-37,4.260281e-39,-6.37895e-40,6.764674e-39,3.359586e-39,4.036229e-39,1.3372342e-34,-3.9376173e-38,-4.7037243e-35,2.896036e-39,1.465254e-39,1.778486e-39,3.000263e-39,3.843575e-39,4.84609e-39,3.250589e-39,-5.900351e-39,-2.80728e-39,-2.229408e-39,-2.081619e-39,1.439766e-39,3.08587e-40,-1.045531e-39,1.726276e-39,9.3284e-40,2.486471e-39,2.9433e-39,-0.00088513235,-0.005337768,-0.0050507323,-0.0052977353,-0.009869439,0.0006848059,0.004243746,0.0003820636,-0.0023765466,-0.0009767396,0.0026285937,0.0035882725,0.0037725961,-0.0014746054,-0.009729188,0.00373728,-0.0010763183,-0.002145189,-4.181179e-39,6.017911e-39,4.97083e-40,6.598681e-39,2.540613e-39,2.685287e-39,-1.8119171e-31,-1.9815374e-36,1.4983242e-34,1.7139235e-38,3.295252e-20,-1.9475025e-18,3.6520312e-20,-3.25433e-16,-6.105417e-25,8.323047e-25,5.80356e-26,-1.2216157e-25,-3.6743076e-14,1.5851216e-15,9.305233e-15,7.8850065e-17,-4.2600496e-17,3.3865904e-15,-6.115703e-13,1.740491e-14,7.697058e-13,-0.000521578,0.0006378716,-0.004005724,-0.004914648,0.0017794729,0.0017605894,-0.007275898,-0.007130399,0.0015002146,4.73985e-39,-5.665178e-39,-5.542909e-39,-2.314469e-39,1.00887e-39,-6.254605e-39,2.68122e-40,2.323032e-39,-1.374569e-39,0.0017575907,0.0031072604,2.3926128e-05,0.010016713,-0.013550099,-0.016853403,0.026668387,-0.005921473,-0.0017781358,5.2100946e-10,-6.6399264e-10,7.3078716e-08,-2.9356948e-09,3.5961776e-08,-2.5465841e-08,2.0435238e-09,-1.1780161e-08,1.1185494e-09,0.0057716477,0.0025362219,0.041771974,0.010821613,0.010453636,-0.024142,0.036390383,0.037857637,0.051696375,2.154687e-23,2.4622925e-25,2.3461804e-24,-4.1253338e-29,1.318195e-31,6.5555204e-27,-1.98501e-21,-6.1061155e-24,4.544682e-20,-4.200368e-39,-1.65539e-39,-4.650593e-39,2.4123e-40,5.35003e-40,1.632698e-39,3.878996e-39,-4.86605e-40,-1.455561e-39,-0.027482413,-0.00540205,-9.475788e-05,-0.017390504,-0.0050978498,-0.025675379,0.04132894,0.0030780104,-0.005876495,3.8357814e-07,6.125755e-08,2.037661e-07,3.36268e-08,5.2250377e-09,9.232365e-08,-1.9796806e-07,1.6319007e-08,8.90235e-08,0.001129583,-0.00010540377,0.0011338687,0.00027657097,-0.0011757789,-0.0014718063,0.00077269826,0.0002971253,-3.866976e-05,-1.445396e-39,1.024139e-39,2.509968e-39,9.75658e-40,3.015565e-39,-5.440461e-39,1.942558e-39,-2.055128e-39,-3.666762e-39,-6.87538e-35,-7.5554297e-35,-9.574578e-36,1.2473368e-35,-1.872918e-39,4.5339314e-35,-1.3063098e-34,-1.2442689e-34,-7.767934e-35,-2.300692e-39,-4.030857e-39,-2.690356e-39,-1.8083e-40,-1.334559e-39,-1.370043e-39,2.248182e-39,-1.669618e-39,3.60184e-40,-1.829724e-27,1.82476e-40,-9.8711506e-27,-8.813989e-24,-6.02312e-22,-1.0931782e-20,-6.997174e-30,1.1258851e-19,6.602262e-17,-3.8037302e-32,-2.40693e-40,5.244754e-34,5.852802e-35,8.223372e-36,-8.4266135e-37,2.2600072e-36,5.380539e-39,3.3951057e-34,-0.0014066615,0.0018342935,0.006109129,0.0028958356,0.0061314832,0.0035698547,0.0012062966,0.009442418,-0.0048542945,-2.408036e-39,-2.424597e-39,7.71429e-40,-4.793227e-39,2.33142e-39,-3.724457e-39,-5.75859e-39,-1.107431e-39,1.455069e-39,-1.0044986e-09,-1.8692337e-09,-6.4247505e-09,-1.2133721e-11,-3.7865345e-12,-6.965725e-10,1.5123287e-07,1.7558898e-08,-1.10282656e-07,1.3646523e-19,1.8659911e-19,-4.8420668e-20,-9.962441e-18,-6.6843334e-20,-3.999664e-18,2.0570865e-17,-9.159386e-14,5.8867086e-18,-8.189238e-05,0.00024901918,-0.00045501938,-0.00016658973,9.606251e-05,-0.00018666642,-0.000632312,-0.00017557366,0.0003744642,8.06417e-08,1.6879879e-08,3.3345746e-09,2.6766929e-09,6.2884986e-09,-2.1199031e-07,4.4975503e-09,2.2581203e-06,3.3003833e-08,5.827143e-39,4.32989e-40,-3.381098e-39,8.10353e-40,-2.687842e-39,2.688859e-39,2.126517e-39,-1.885367e-39,-8.86426e-40,-9.45102e-40,3.410735e-39,1.239952e-39,4.63981e-40,4.079544e-39,-3.908364e-39,6.332199e-39,5.537915e-39,9.0482e-40,-0.003374454,-0.0016848104,-7.939559e-05,-0.0005284494,-0.0031513406,-0.0085692275,-0.0003533876,-0.0037692024,-0.0011556837,-0.00046735798,-0.0049283067,0.005723683,-0.00059891655,-0.008339771,-0.014081033,-0.0134937735,-0.0108558545,-0.009147944,5.2060436e-08,-1.972972e-07,-2.9596936e-06,2.0627025e-08,2.7933217e-07,-5.756963e-07,2.9025734e-06,8.462103e-07,-2.684026e-06
-0.10465611,-0.06400987,-0.029506722,-0.061879102,-0.016022239,0.023061592,-0.027570033,0.061962537,0.02995159,-5.22091e-13,-5.905125e-13,-9.2016096e-14,-1.254666e-12,-5.5615674e-13,-4.7708745e-14,-4.0131473e-16,-1.2316313e-16,-6.421176e-19,-5.003321e-34,-3.3049307e-33,2.637966e-35,5.005168e-34,3.0007963e-33,-4.8949726e-38,2.4734764e-32,8.017071e-35,-4.7113687e-32,-0.028429424,0.002991128,-0.004010426,-0.025984025,0.011713402,-0.0026572896,-0.012721975,0.040272553,0.022010647,5.176743e-39,7.12699e-40,-1.256734e-39,4.719196e-39,3.305906e-39,1.899715e-39,1.941702e-39,-1.51154e-40,1.72645e-39,-4.366099e-11,-7.0832756e-11,-4.577776e-11,-1.2216772e-11,-6.006082e-12,-5.749538e-12,3.768303e-12,3.6148344e-13,2.1253709e-13,3.0763e-40,5.771223e-39,1.3921e-39,5.006615e-39,-6.286327e-39,2.536593e-39,2.976365e-39,2.01388e-39,-2.288592e-39,3.002435e-39,4.156624e-39,5.246163e-39,3.747853e-39,-9.17842e-40,-3.983568e-39,1.084926e-39,5.429294e-39,-4.95298e-39,4.09878e-40,9.22705e-40,-2.088174e-39,-7.15574e-40,-1.867052e-39,-2.133509e-39,-1.4101246e-37,-1.415104e-39,4.707355e-39,-0.06471297,-0.03782646,-0.01117703,-0.030555768,0.013735023,0.0049697123,-0.018040562,0.061338704,0.02985693,4.825984e-39,-4.948691e-39,-2.65322e-40,-3.2105508e-37,6.81838e-38,-1.5559949e-37,-1.1532961e-31,-9.2821214e-33,4.5865474e-22,-3.408862e-39,-3.39233e-39,-4.721186e-39,3.3594e-39,2.5541494e-33,-1.51511e-39,3.72009e-36,5.215323e-39,1.627712e-39,1.1706419e-27,2.0093612e-26,6.413037e-27,9.815619e-23,2.093329e-20,1.4510737e-24,4.1783553e-19,2.8986923e-16,2.924095e-25,-1.732462e-39,-8.8718e-41,-1.949262e-39,-4.47247e-40,-1.848583e-39,-9.09572e-40,-1.441732e-39,-1.245051e-39,-1.675048e-39,-1.042607e-39,5.92218e-40,-1.188948e-39,-2.03889e-40,-1.130618e-39,-1.023001e-39,-4.98597e-40,-1.650011e-39,-2.120725e-39,0.00032414595,0.0018750918,0.0007204667,-0.0006634221,-0.0007530194,0.00045927303,-0.0014050023,-0.003106483,-0.002587658,-1.754549e-39,-3.89009e-39,1.709326e-39,-1.082042e-39,-6.237806e-39,-1.536316e-36,-2.763021e-39,4.8737872e-27,-5.631135e-39,-5.042044e-39,-3.68589e-39,-6.684316e-39,-6.623901e-39,-3.003786e-39,-2.860503e-39,-2.284824e-39,-3.811668e-39,-6.693203e-39,-1.820029e-39,-1.413215e-39,-2.42532e-39,5.7841e-41,-1.384557e-39,-1.00339e-40,-4.072285e-39,3.732134e-39,-5.738668e-39,-0.07345118,-0.045171987,-0.024311496,-0.046711035,-0.006523791,0.008362051,-0.027996652,0.049089104,0.043601837,-1.1742973e-12,-2.4535362e-11,-1.10660064e-10,-4.024138e-12,-4.9887816e-11,-1.2276258e-10,-1.2379056e-12,-1.3414908e-11,-1.8677122e-11,-4.8040272e-31,9.6204587e-35,-5.259361e-37,7.0268284e-30,-3.9411587e-32,2.422748e-39,1.1998947e-25,3.9247447e-34,-3.37726e-40,-5.413775e-39,-1.714863e-39,-3.481244e-39,3.444491e-39,7.75877e-40,-6.059694e-39,7.06884e-40,5.351549e-39,-1.557252e-39,-0.075986065,-0.03940685,-0.011744803,-0.07438141,-0.031013379,0.010134835,-0.059947554,-0.030050354,0.018565837,-4.5300944e-11,-1.4003315e-10,-3.4014475e-11,-7.44416e-11,-2.4519189e-11,-3.4772038e-12,2.5628982e-12,1.5628217e-13,-5.579781e-13,-1.218039e-34,-1.3854795e-35,-6.254685e-35,-8.0852235e-35,-2.570709e-39,2.7025536e-37,-8.435161e-35,-1.24078455e-36,9.468382e-36,-2.715878e-39,-5.98196e-40,-3.028349e-39,-4.781197e-39,-6.141367e-39,-3.770356e-39,-4.575779e-39,-5.03332e-39,-2.863671e-39,-1.08744e-39,-6.804181e-39,9.79758e-40,-3.157242e-39,4.86335e-40,-9.5552e-40,-1.642162e-39,-8.78599e-40,-1.850778e-39,-1.0379331e-14,-1.3039407e-14,-6.056918e-16,-1.6504484e-14,-3.6835044e-14,-7.719099e-15,1.06901445e-14,-1.32628554e-14,-7.9330234e-15,-2.127105e-39,-2.461222e-39,-1.934106e-39,-3.227129e-39,-2.429462e-39,-3.354068e-39,-5.206767e-39,-4.295616e-39,-1.583501e-39,-1.291259e-39,-4.356948e-39,-2.874447e-39,1.1223773e-38,-6.067391e-39,-4.469364e-39,5.109737e-37,-4.095463e-39,-3.243508e-39,5.217509e-39,5.32219e-39,-2.291856e-39,3.69349e-40,1.965523e-39,3.026327e-39,1.012812e-39,5.21952e-39,6.072649e-39,1.82116e-40,1.448112e-39,2.030365e-39,-8.01328e-40,3.012656e-39,-1.754698e-39,2.95596e-40,-1.524379e-39,-2.062723e-39,-0.0028527724,-0.00295722,-0.0038740935,-0.00329266,-0.00079017715,-0.00090276817,0.0017483281,0.0016997086,-0.0005940122,-0.018736467,-0.004660489,8.212366e-05,-0.014757714,0.0016756344,-0.0033685684,-0.009122386,0.015893396,0.005530901,3.40221e-36,7.934076e-38,2.719772e-39,-1.6718061e-35,5.497157e-39,5.522174e-39,1.028559e-39,3.641863e-39,-3.3952917e-37,-3.4062644e-10,-5.565593e-10,-3.2488887e-10,-4.102038e-11,-1.9162732e-11,-5.219029e-13,-4.1417015e-16,-5.0405637e-17,8.769034e-18,-1.8048885e-09,5.49509e-10,9.865982e-10,-1.8189263e-09,-3.6086303e-10,1.0808542e-11,-9.3473125e-11,2.4828058e-11,2.5598088e-11,-0.007117415,0.018659668,0.014835022,-0.0001832667,0.021451674,0.009191757,-0.0063894857,0.019406257,0.0089981975,-2.5288764e-13,-2.0087693e-13,-5.8926666e-14,-1.9031103e-12,8.013439e-14,-1.5078925e-13,-6.6620293e-15,-4.7018668e-15,-7.48554e-17,-0.0419416,-0.006531717,-0.0007928892,-0.038973212,0.030045457,0.01249461,-0.005350653,0.060189303,0.02992726,-1.0100628e-13,-6.318256e-15,-2.260631e-17,-3.2147954e-17,-6.2495066e-12,-1.3154972e-14,-3.3937646e-16,1.5562846e-19,-5.0162535e-16,-0.034114093,0.018131524,-0.079290666,-0.050422493,-0.0007123243,-0.056723498,-0.028368188,-0.014798267,0.02069022,-5.7444575e-14,-8.34214e-14,-2.99417e-14,-2.179506e-14,-6.7871446e-15,-6.177312e-16,4.7711195e-16,5.4859356e-17,6.7470103e-18,-1.01889746e-14,-1.6943107e-14,-3.5167044e-15,-1.0086211e-14,-1.1771502e-14,-3.9956056e-16,-1.2546417e-17,-1.3489703e-18,-2.195307e-22,-0.085804604,-0.0026420928,0.016842227,-0.07927632,0.05785285,0.047398444,-0.037905097,0.108073756,0.080857255,2.5812592e-06,2.2686413e-06,1.865007e-06,2.4492588e-06,4.1324774e-06,2.0736138e-06,5.2610375e-07,6.5177693e-07,6.3902195e-07,-0.0026689498,-0.0004377184,-0.0020157644,-0.006854912,-0.0023316464,-0.0034620115,-0.003199082,0.0018084287,0.004494945,-2.131141e-39,1.075855e-39,-2.089461e-39,-2.232522e-39,-6.815378e-39,-1.209721e-39,2.33334e-39,2.314258e-39,-6.35859e-40,-1.4444973e-34,-1.2562119e-34,-8.908353e-35,-2.6879898e-34,-6.691557e-39,2.6251653e-35,-4.0796197e-34,-1.5487877e-35,-1.4703509e-35,3.75785e-39,4.37419e-39,2.909433e-39,-4.121512e-39,7.49875e-40,-1.853785e-39,-5.087326e-39,4.493115e-39,4.852248e-39,-6.25831e-40,-2.14217e-39,1.7539672e-37,-2.666253e-39,9.3616455e-31,3.731386e-30,-3.7055967e-35,1.7788514e-23,-1.3827477e-33,6.5462426e-38,2.4042683e-37,1.3856166e-37,-6.666739e-35,2.87002e-38,-3.581415e-39,2.1435384e-31,6.377419e-39,5.0545257e-37,-3.2852353e-05,0.00889256,0.011810807,-0.00067627884,0.013163814,0.007077182,0.0021015767,0.009829259,0.0078859115,-2.935297e-39,-4.283858e-39,-4.706006e-39,2.68329e-40,6.695e-42,-4.989538e-39,6.00857e-40,-1.649858e-39,-8.406e-40,-3.415655e-05,-1.0022921e-05,-5.298295e-08,-4.0511135e-05,-1.50237165e-05,-4.693662e-06,-4.7468607e-06,-1.6091565e-06,-5.125791e-06,4.527828e-24,1.3071367e-22,-2.0087189e-26,1.2010709e-22,-6.6692168e-21,3.354645e-22,1.39292855e-30,-1.5602019e-27,4.6238673e-33,-0.003414064,0.0015934157,0.0008464262,-0.0016409968,0.0017386856,0.0003978273,-0.00049546786,0.0026103077,0.0003546001,1.7903976e-10,1.9338245e-08,-2.5992846e-09,4.3009e-08,-7.928765e-08,-1.8681176e-08,1.2511669e-08,3.4887698e-08,-4.7303317e-09,3.047194e-39,7.29334e-40,-7.149e-41,-7.117e-41,7.48324e-40,-1.070172e-39,-2.647107e-39,3.149165e-39,-1.050419e-39,-1.74106e-39,3.03081e-40,8.55341e-40,2.08798e-39,-2.632427e-39,-9.17919e-40,1.592971e-39,-1.495167e-39,-1.833093e-39,-0.024146415,-0.0109048365,-0.0032873915,-0.01909563,0.0047273613,-0.0013105033,-0.013924869,0.011949116,0.0052390923,-0.034619886,-0.016539818,-0.010823544,-0.026490886,-0.0016351274,-0.005219228,-0.019865347,0.0006731462,0.007632738,-0.00031641088,0.00028139143,1.5406235e-05,-0.00077157805,-0.0003866439,-0.00035241854,-0.0002566272,-0.000101681806,5.264269e-06
0.041873634,0.031235665,-0.060676027,0.029801376,0.02544878,-0.053325213,-0.0043326137,0.015058003,-0.044651818,-1.072744e-39,5.095061e-39,-2.016981e-39,-6.618036e-39,1.505865e-39,-4.500018e-39,6.790461e-39,-2.51736e-40,6.1244e-39,-2.251407e-39,6.228535e-39,2.256753e-39,1.537163e-39,5.726202e-39,1.14659e-39,-5.595563e-39,2.311585e-39,3.11273e-39,0.006465445,0.0061857984,-0.00075047725,0.0078066853,0.005552605,0.0024472757,0.0059073125,0.0046924697,0.004775369,-2.894484e-39,6.986371e-39,-6.38146e-40,-1.513723e-39,1.327059e-39,-1.044388e-39,-6.60462e-39,-1.307196e-39,-2.273184e-39,2.406568e-39,-1.679819e-39,2.61102e-39,-8.1805e-41,2.164381e-39,-4.552274e-39,5.891688e-39,-9.63459e-40,4.36582e-40,1.59514e-39,1.52295e-39,2.736358e-39,4.79137e-39,-3.312794e-39,-2.557387e-39,-5.95857e-40,-1.116506e-39,1.56509e-39,-6.59262e-40,3.686476e-39,2.335736e-39,-3.81849e-39,-5.58558e-40,2.338413e-39,-4.59794e-39,3.192441e-39,2.936487e-39,-8.01593e-40,-1.092057e-39,-2.007388e-39,-2.719398e-39,3.871604e-39,3.8637e-41,-1.247206e-39,-6.87237e-40,-9.64246e-40,0.026141804,0.012201447,-0.030005509,0.027069379,0.015227526,-0.022816136,0.0069540986,0.009449737,-0.016148735,6.632409e-39,1.076825e-39,3.90861e-40,-8.0212e-40,-3.361194e-39,-1.868367e-39,8.9892e-41,-2.0243e-39,-1.106025e-39,7.08526e-40,-3.205501e-39,-1.477107e-39,5.980292e-39,-3.23801e-40,-4.81512e-39,2.3668e-39,5.269078e-39,-5.187418e-39,-2.72187e-40,3.662236e-39,8.56214e-40,-2.031483e-39,-1.701482e-39,-7.73845e-40,-6.039246e-39,5.47766e-40,4.01602e-40,-6.580388e-39,-1.882971e-39,6.531403e-39,-4.633595e-39,-2.712166e-39,-2.115407e-39,-5.87997e-40,-2.244436e-39,-2.124595e-39,-2.125302e-39,-2.280274e-39,-4.319162e-39,-2.143556e-39,-2.816747e-39,-4.17432e-39,-1.713187e-39,-4.170256e-39,-6.952241e-39,-0.0013160236,-0.0026380913,-0.0019328217,-1.0203075e-05,0.002251437,0.0027507595,-8.087412e-06,0.0009894823,-0.0003729653,2.458728e-39,-2.724084e-39,-2.753252e-39,1.202963e-39,1.507005e-39,4.2539e-41,-4.48977e-39,-7.1062e-40,4.73031e-40,-1.308441e-39,-8.89344e-40,-6.630968e-39,-3.640063e-39,-3.647869e-39,5.403e-41,8.2741e-40,2.541906e-39,3.565867e-39,-1.415686e-39,2.958874e-39,8.5809e-41,-1.419496e-39,-4.85273e-39,3.274805e-39,1.486022e-39,-4.426913e-39,5.769688e-39,0.023355523,0.016953707,-0.04412239,0.028975844,0.014117994,-0.032577436,0.01092661,0.010799255,-0.018930892,-3.572514e-39,3.528589e-39,-4.591853e-39,-1.374241e-39,-2.667161e-39,-4.900863e-39,-2.651622e-39,4.016218e-39,-5.203251e-39,2.836026e-39,-5.12106e-39,2.52503e-39,5.092226e-39,-1.09021e-39,6.395574e-39,2.255321e-39,7.71043e-40,-2.809264e-39,-5.739943e-39,5.97605e-40,-3.498218e-39,-8.20829e-40,-2.9776e-41,1.32716e-39,5.242693e-39,4.131454e-39,6.680885e-39,-0.0007357849,-0.0028739432,-0.020429322,-0.007431264,0.008044607,-0.018754005,0.006245503,0.015937077,-0.0020690102,-8.59465e-40,-2.177629e-39,3.3644e-40,7.15872e-40,-4.064095e-39,2.293152e-39,-4.34239e-40,3.455308e-39,3.431047e-39,1.6955054e-35,1.1457285e-35,-6.183629e-36,-7.184354e-36,-3.558471e-39,-2.3472335e-35,1.1224857e-35,1.7941086e-35,-6.010748e-36,5.1713e-40,1.420154e-39,-6.768769e-39,1.268855e-39,-8.5847e-40,-4.107298e-39,6.151637e-39,3.05432e-39,5.674694e-39,5.87018e-40,-2.985354e-39,-2.302894e-39,-2.907428e-39,5.300755e-39,2.473876e-39,2.520583e-39,8.467e-40,-3.925036e-39,5.634625e-39,1.74514e-40,-3.238001e-39,1.413123e-39,1.814593e-39,6.35755e-40,-2.600324e-39,-2.30613e-40,-2.478016e-39,-4.716552e-39,1.05602e-39,1.096356e-39,4.11241e-39,2.41749e-40,2.377645e-39,4.024044e-39,-1.317687e-39,5.445782e-39,3.931504e-39,-2.132778e-39,1.17376e-39,9.47241e-40,-1.254913e-39,-7.03634e-40,-2.457918e-39,-1.724401e-39,-2.495448e-39,-6.936775e-39,-3.284735e-39,-1.533364e-39,-1.992254e-39,8.43897e-40,6.431345e-39,1.730342e-39,4.912249e-39,2.18538e-39,-3.3513e-40,1.718484e-39,-6.169394e-39,-1.743723e-39,-2.514231e-39,2.294311e-39,1.93403e-39,-3.3035e-40,4.849778e-39,2.2593356e-07,-4.0368118e-08,-6.346018e-10,1.3284689e-06,-1.6573124e-07,-1.3486556e-07,-2.8316344e-07,-1.4094236e-07,2.0660819e-07,0.004172121,0.0029819824,-0.0010435604,0.0039347517,0.0017169819,0.00066827965,0.0012792062,0.0026905637,0.0016261443,3.093097e-39,2.31758e-39,8.29098e-40,6.565387e-39,1.47259e-39,-3.620206e-39,2.527927e-39,4.938386e-39,1.538456e-39,-1.173868e-39,2.96554e-40,2.19882e-39,1.143874e-39,9.67762e-40,-4.197723e-39,2.484072e-39,1.79965e-40,-4.95799e-40,-8.732252e-36,-4.37836e-40,-6.9286e-40,3.885693e-39,-1.535843e-39,5.784849e-39,-4.992249e-39,3.036116e-39,-2.201875e-38,0.0061979275,0.006382626,0.006362155,0.0029941066,0.0054239393,0.0056859218,1.3885263e-05,0.0030643316,0.005699123,-6.4035e-40,6.8099e-40,-2.561588e-39,-7.70514e-40,-5.625026e-39,6.367489e-39,-2.319602e-39,-3.25948e-40,-5.986065e-39,0.017476235,0.014817056,-0.007896445,0.016280675,0.015395172,0.0026467505,0.012041228,0.01602039,0.0075810957,2.9235164e-26,2.6408767e-16,-1.5837444e-31,9.067301e-22,8.2603904e-20,-4.2754032e-29,-2.304724e-24,-3.11222e-29,-5.7314104e-29,-0.026208203,-0.0005339924,-0.0005758741,-0.020434432,-0.01236672,-0.019451624,-0.0020052067,0.0023703028,-0.0014929791,-5.81902e-40,4.936022e-39,-4.933504e-39,-1.175874e-39,2.19033e-40,-4.327042e-39,-2.022313e-39,5.74722e-40,-1.708689e-39,-4.702903e-39,-1.138461e-39,2.740193e-39,-5.361142e-39,-4.860247e-39,-1.205215e-39,2.74195e-39,3.484858e-39,6.2256e-39,0.024653597,0.016156027,-0.028166736,0.023752427,0.011869213,-0.016778937,0.014353184,0.016069826,0.007226213,8.4687995e-16,5.526392e-17,8.604658e-19,5.2642823e-14,8.516967e-18,2.3481831e-17,2.9014698e-16,-5.9385704e-14,-2.763826e-12,1.8639596e-05,0.00014945507,-0.000108030996,0.00066518533,0.00015856326,-0.00016359304,0.00017455833,0.00024620345,-7.011418e-05,-8.55009e-40,1.779683e-39,-4.895017e-39,1.480277e-39,6.2498e-40,4.28763e-39,3.52761e-40,1.718432e-39,-1.635774e-39,-3.917118e-35,-3.3756995e-35,-5.339732e-35,-7.4178285e-36,-6.3008e-41,-1.5126517e-35,-3.072666e-35,-1.2826236e-35,-6.637862e-35,-4.24967e-39,-6.637416e-39,-5.59002e-40,1.268097e-39,-2.497108e-39,1.683446e-39,-3.881378e-39,3.374915e-39,4.265666e-39,1.007847e-39,3.14719e-39,1.45781e-39,-1.35311e-39,-1.467056e-39,-4.844947e-39,9.65775e-40,4.99753e-39,-5.6647e-39,6.350076e-39,3.625326e-39,4.99354e-40,1.070456e-39,3.378561e-39,1.722752e-39,1.290488e-39,-1.845807e-39,-9.52371e-40,0.0017606452,-0.0004424798,0.002163595,-0.0027868066,0.00069039443,0.005934471,-0.008029323,-0.0025330281,-0.0027555062,6.106897e-39,4.15755e-39,-5.392433e-39,-1.468229e-39,1.696595e-39,3.555181e-39,-4.343955e-39,-3.470831e-39,1.778465e-39,2.5014898e-28,-1.2266685e-29,-1.2961384e-25,-1.0078504e-30,1.9279435e-26,-1.1193209e-20,1.5892854e-20,3.0704849e-19,2.4310841e-20,6.688225e-39,5.008784e-39,-5.914197e-39,4.621835e-39,-6.323243e-39,-5.206761e-39,2.04026e-40,8.08143e-40,-1.156706e-39,-2.412044e-07,-1.1870508e-06,-1.3328597e-06,1.512039e-05,-3.198195e-07,7.5861846e-07,-6.3293777e-07,-9.867951e-08,7.3980397e-07,-3.0754572e-17,-6.3232714e-16,8.519547e-16,-1.6257322e-17,-1.8655684e-16,8.417169e-18,4.4674246e-18,1.629169e-16,-4.1723346e-18,-1.707698e-39,-1.230517e-39,-2.708228e-39,-2.8589e-41,-1.307487e-39,-5.297385e-39,-5.96051e-39,-3.213374e-39,-1.296315e-39,1.44246e-39,4.463737e-39,-2.172064e-39,-5.75185e-39,-6.8629e-41,1.573033e-39,1.488922e-39,-3.957928e-39,5.846912e-39,0.0044625504,0.0017517314,-0.00428995,0.0035200156,0.001047327,-0.0030619819,0.0006502959,0.00048615527,-0.0011980004,0.004578609,0.0008092848,-0.012248319,0.006254933,0.0006217933,-0.010471319,0.0014503042,0.0030894184,-0.005127787,3.5269981e-12,-2.063719e-08,-3.6853156e-09,1.4969216e-10,1.0049346e-08,-4.5463847e-10,2.2607396e-09,1.6053223e-09,-2.3920033e-12
0.011189024,-0.016138483,-0.024989933,0.00197524,-0.020030607,-0.023972873,-0.0357562,-0.04180775,-0.024742195,-1.091418e-39,9.77072e-40,-3.989422e-39,1.9e-42,1.747474e-39,1.283383e-39,-2.837664e-39,1.912803e-39,-1.621929e-39,3.512291e-24,5.343881e-26,7.1902746e-27,8.1011793e-26,7.126229e-34,2.2202702e-30,6.375964e-27,3.962144e-27,2.6555504e-23,0.011269211,-0.0015941827,-0.011707529,0.026225552,0.007543494,-0.0020844804,0.0027306688,0.010897874,-0.015285644,1.843763e-39,-4.95255e-40,1.353301e-39,-1.31183e-39,-1.405226e-39,-1.104502e-39,-1.897274e-39,-1.977269e-39,-2.444415e-39,-1.3168122e-12,-1.0133106e-12,-3.991968e-12,1.864454e-11,-1.7862522e-14,-3.9527748e-14,2.4741329e-11,1.3995214e-16,-5.9948e-14,6.3068e-40,-4.243263e-39,2.646745e-39,2.573579e-39,1.777449e-39,1.636644e-39,-2.51189e-39,-5.095934e-39,-1.039476e-39,4.630884e-39,1.089123e-39,-2.906868e-39,-9.58862e-40,3.91607e-40,-2.319319e-39,2.05903e-40,2.477462e-39,-2.993598e-39,7.36406e-38,2.0179415e-37,-3.3861118e-36,-5.688606e-39,-6.897854e-39,-3.050097e-39,2.3795575e-37,-1.182208e-39,-1.299477e-39,0.0038797313,-0.0036056908,-0.027616857,-0.0013629838,-0.03155754,-0.035196293,-0.06664094,-0.05569379,-0.034248114,-5.9424784e-34,-5.116637e-32,-3.925623e-33,6.9357996e-20,-1.8977224e-30,-2.5086747e-19,2.0372222e-22,4.3013557e-20,-4.2337773e-15,-9.98282e-40,3.439456e-39,-5.288323e-35,7.41023e-40,4.59484e-24,-2.150822e-39,-2.4016698e-35,6.6540245e-32,1.956873e-39,-2.7512923e-34,-2.1099713e-28,3.3812732e-30,3.8694286e-24,1.9854916e-18,-2.5651568e-22,1.0948604e-15,1.5425476e-17,8.593371e-24,-1.094288e-39,-2.463191e-39,1.506895e-39,-2.264745e-39,-2.566363e-39,-1.979379e-39,-4.570726e-39,-5.158833e-39,2.6353e-39,1.350884e-39,-2.194091e-39,-4.9632e-39,-1.876302e-39,1.422929e-39,1.231583e-39,-6.008646e-39,-3.4893e-40,-8.79546e-40,-0.0029139211,0.0046241377,0.0058367876,0.0017919512,0.0071190293,0.0017916339,-0.0012005285,0.00028747704,0.002113633,-4.881415e-39,-5.083621e-39,-1.544444e-39,5.100302e-39,2.5112181e-36,-3.2357145e-27,-1.2587655e-33,2.7013478e-31,-6.337303e-28,1.155055e-39,-4.22958e-40,3.963567e-39,-6.214148e-39,-6.698393e-39,9.08673e-40,1.5220349e-38,-3.900429e-39,-1.48992e-39,-1.605192e-39,-6.151856e-39,-2.813915e-39,-1.114462e-39,1.790921e-39,-2.51579e-39,-7.15594e-40,-1.166151e-39,3.442828e-39,-0.019260153,-0.009023031,-0.029559841,-0.022474783,-0.029526792,-0.023014266,-0.06629262,-0.048674177,-0.02808442,1.7557355e-22,5.1905534e-18,-1.1629302e-14,5.862602e-23,-1.0199148e-15,-4.7736105e-15,1.2835004e-29,2.408541e-22,-3.2429124e-18,-4.6585803e-38,-1.789819e-27,-2.0008442e-32,-1.3341267e-30,-5.550509e-31,3.908862e-39,-1.5831641e-22,4.038029e-39,2.469138e-39,4.863813e-39,-3.065637e-39,-2.776034e-39,2.272679e-39,-4.258915e-39,4.243612e-39,3.675422e-39,-1.8943e-41,-4.374885e-39,0.08058979,0.018483631,-0.028049452,0.14653814,0.109483995,0.033971895,0.16862044,0.15689442,0.09828579,-1.2340221e-09,-3.9678424e-11,-5.1739875e-12,-4.7529785e-09,-4.297294e-11,-3.344946e-13,-3.0876697e-09,-5.897177e-11,-3.7115594e-10,-1.4761398e-34,-3.079611e-36,-3.7991665e-35,-8.5070916e-35,4.82225e-39,-2.121849e-35,-1.1588527e-34,1.1378804e-34,-5.759501e-35,1.30373e-40,1.599677e-39,-2.049929e-39,-6.535652e-39,-1.96724e-40,-1.82268e-40,-1.770587e-39,1.3239581e-37,5.794e-40,-1.839158e-39,-8.4613e-40,4.32623e-40,-2.25434e-39,7.0572e-41,1.658155e-39,-2.225678e-39,1.593568e-39,9.79683e-40,1.4660835e-17,-3.2183685e-19,-1.1374311e-18,-4.1036226e-15,-1.3868033e-18,-1.7819502e-19,-2.1136039e-13,-2.615257e-16,-1.3210603e-18,-7.017249e-39,-2.114279e-39,-2.333e-41,-3.299588e-39,1.438248e-39,2.439972e-39,5.8125e-39,6.15967e-39,4.143797e-39,-1.0422984e-33,-2.581569e-37,3.2115056e-31,4.4132023e-37,-2.332313e-39,-3.912667e-34,-1.4678168e-35,-2.7236195e-35,1.7847998e-28,2.103095e-39,-1.846836e-39,7.92106e-40,2.353852e-39,-2.327589e-39,-3.554625e-39,4.179405e-39,-1.8182e-39,5.093692e-39,2.530133e-39,6.38006e-40,-4.66979e-40,1.481614e-39,2.250354e-39,-2.898334e-39,-6.01314e-40,-1.434582e-39,-1.220427e-39,-0.009023029,-0.008516836,-0.011858078,-0.0014360567,0.0046802023,-0.013361778,0.008555371,-0.0042889165,-0.0055871475,-0.0017350535,0.0046724747,-0.0037784819,-0.0055163675,-0.0039066644,-0.011722166,-0.022247244,-0.013328609,-0.019611081,4.880807e-22,1.0174662e-23,7.4482435e-26,9.02097e-31,2.355423e-39,4.020488e-34,-1.4723733e-36,-1.1873561e-29,-8.1531423e-22,-5.270618e-38,-5.945519e-27,1.268731e-39,-5.2801963e-19,-5.8401325e-24,3.8576e-39,5.9812783e-28,-1.893677e-39,-1.148766e-39,-5.5031205e-07,-5.19626e-07,-1.9134109e-07,-8.8609696e-08,-2.0188136e-07,-2.1971684e-07,6.04826e-09,-3.7135337e-09,-5.078222e-07,-0.04458564,-0.002808344,0.0053399494,-0.051756043,-0.03271125,0.0004947624,-0.0424741,-0.039397042,-0.026789514,2.018708e-39,-1.48329e-40,2.059393e-39,1.274222e-39,-3.48048e-39,-6.09783e-40,1.73147e-40,4.312144e-39,2.605186e-39,-0.012835627,-0.014616766,-0.022636998,-0.002158132,-0.020973291,-0.04164838,-0.03978601,-0.02432795,-0.038196303,-1.5211899e-07,-5.372115e-07,6.3660207e-07,-5.1731806e-08,-7.41867e-06,1.4984661e-05,-1.6450986e-08,-1.251324e-06,5.564851e-05,0.03320893,0.02719291,0.002471766,0.04373362,0.019192696,0.077060334,0.048692405,0.06358757,0.038784906,-6.3887365e-14,-1.6560333e-14,-2.3370484e-15,1.2225193e-13,3.5805525e-16,-1.4410515e-18,4.432193e-14,1.0959902e-17,2.0215538e-16,-1.33883e-39,-2.554861e-39,-3.181624e-39,-4.46973e-39,-8.50892e-40,6.78779e-39,2.848904e-39,-6.181622e-39,-5.628471e-39,-0.007899401,-0.03957072,-0.033218723,0.007192504,-0.021334736,-0.03707864,-0.011943184,0.0030544,-0.012714857,0.00010282438,0.00022376684,0.00013099132,3.704163e-05,3.4622313e-05,-1.1975692e-05,4.5306973e-07,-1.6089924e-05,-7.92929e-05,0.00031849887,-0.0017636709,-0.0046469895,0.0006359483,-0.0025280083,-0.004570671,-0.0010152173,-0.003858883,-0.0053912844,-4.760008e-39,-1.2994e-39,2.91114e-40,1.573675e-39,4.3297e-41,6.134536e-39,1.288853e-39,5.673402e-39,7.88895e-40,-6.332336e-34,-6.8850573e-34,-6.211975e-34,-1.7742109e-34,-6.71086e-39,7.1336155e-35,-3.5898955e-34,-1.6068751e-34,-1.7741153e-34,5.003755e-39,1.614266e-39,-5.993309e-39,4.208046e-39,-1.506616e-39,1.752527e-39,6.302736e-39,-5.178277e-39,-5.816866e-39,-1.748682e-39,-1.484615e-39,8.75457e-34,2.152662e-39,-1.2588453e-25,-3.333091e-24,3.6284263e-37,-4.306927e-25,-1.8890595e-29,1.8519256e-28,2.0352854e-34,-1.136423e-28,4.996507e-31,-1.0341366e-33,-2.2165194e-37,9.303266e-28,1.1458069e-31,6.6948485e-30,0.0010929124,0.021087114,0.017874513,0.0030054278,0.013895929,0.011378588,-0.006785172,0.0023661093,0.012208719,7.06504e-40,7.64066e-40,-2.34342e-40,1.111489e-39,3.286227e-39,-5.431005e-39,4.291468e-39,-1.637351e-39,2.399918e-39,-2.8632647e-05,-1.7162372e-05,-4.795723e-06,-1.1609808e-05,-2.0455318e-06,-2.6981213e-06,-7.763154e-07,-1.7613944e-06,-4.649344e-05,3.4199544e-25,4.9253272e-24,-1.1906854e-22,5.301623e-23,9.295228e-21,-2.653179e-21,1.09483625e-26,2.1669484e-24,-3.659936e-20,-0.007228796,-0.00039983253,0.00045914322,-0.0073646074,-0.0050975843,-0.0004304461,-0.0046744756,-0.0076762736,-0.005372672,-7.818613e-09,-7.861904e-08,-6.9299097e-07,-2.3000189e-07,1.4771231e-07,3.9107903e-07,1.3048689e-06,2.4069428e-05,1.0272956e-07,4.075951e-39,-2.944701e-39,-1.773284e-39,-4.703925e-39,-2.315538e-39,1.793184e-39,1.640211e-39,-2.275992e-39,8.0997e-40,-3.389056e-39,-4.711238e-39,-1.612979e-39,-5.903917e-39,-2.555709e-39,-2.415216e-39,-6.951332e-39,-2.687728e-39,-3.936086e-39,-0.004116934,0.0018214429,-0.0036103576,-0.007404155,-0.009784321,-0.017478518,-0.028764876,-0.014464908,-0.016770327,-0.005558091,0.003948364,-0.008703383,-0.004262861,-0.01825351,-0.02703237,-0.04092169,-0.035933625,-0.030083679,-0.000118614815,-0.0001868595,-0.00016957016,0.00016728492,-0.00014126107,-0.0001372269,-1.6791579e-05,-0.00031731828,-0.00032329815
