-0.012651637,0.09983312,0.062137663,0.06085325,0.07034057,0.038299587,-0.026080836,-0.031533744,-0.039413214,0.02065205,-0.03305808,-0.019390406,-0.093699686,-0.007364557,0.041928187,-0.028093357,-0.0015766226,0.009551582,-0.008220991,-0.019126879,0.19576028,-0.08146791,0.28775185,-0.014164325,0.006591221,0.028821517,-0.09601363,-0.007626345,0.032612555,-0.012677214,-0.010244048,0.0073314332,-0.048391942,-0.03071938,-0.04914647,-0.043009255,0.020409163,-0.0020406821,0.057136144,0.018437097,0.0025701448,0.059085,-0.047559615,-0.041816823,0.010983812,0.014197076,0.00676945,0.036363464,0.014165759,-0.0110548185,0.0001256758,-0.009637456,-0.015920205,0.000106141364,0.015496716,0.37221974,-0.037556786,0.04458537,-0.006821004,-0.021784525,-0.035208948,-0.036895677,-0.03239842,-0.023188211,-0.04982147,0.015069878,-0.017007254,0.0067625763,0.0022733011,-0.062697925,-0.0015367549,0.051447835,0.0108472295,-0.062026776,-0.035685968,0.02926556,-0.01464254,-0.0042333147,-0.027736638,-0.011465619,0.0049908953,0.031659186,-0.059528213,0.022067828,0.059395656,0.02905,-0.024114573,-0.01729633,-0.02494981,0.03385769,-0.051310256,-0.008812821,-0.03566071,-0.038704768,0.08728153,0.01813448,-0.103387445,0.0209439,0.011111203,-0.0036518653,0.05899108,0.010224131,-0.03196416,-0.094822645,-0.051542047,-0.06300476,0.0072740917,-0.011806328,0.032201495,0.003742148,-0.1271835,-0.020856138,0.14023529,0.039857786,-0.0036214138,0.12115362,-0.044495273,0.014990608,-0.120806016,-0.043700043,-0.07282081,0.15632053,0.08446122,-0.012953042,-0.04678591,-0.10210127,-0.010696045,0.009183086,-0.030586718,-0.0014240287,0.008974462,-0.008006535,-0.0018082398,0.019344086,-0.03188341,-0.04759342,0.022377271,-0.066848785,-0.0019759461,-0.042957652,-0.0073982924,-0.014662654,0.005650989,0.06517235,0.02436663,0.00081033225,-0.035067268,0.02876338,0.033521947,-0.03867749,0.06533964,-0.04278938,0.026704617,0.0044370545,-0.010627607,-0.026122985,-0.023969956,0.12776844,-0.04679766,-0.009344598,0.045672234,-0.063794054,0.024018263,-0.038863875,0.043116227,-0.045311697,-0.006349957,0.028180553,-0.0023449562,0.008894433,0.008746504,0.08109243,-0.028687013,0.0047948826,0.08051062,0.005424771,-0.0084427325,-0.033300523,-0.14095354,0.043729395,-0.0046633435,0.035811283,0.051290445,0.049024485,-0.008809206,0.024826717,0.044153176,0.004176317,0.010266258,-0.00530401,-0.18216404,-0.053620506,-0.063784,-0.010427121,0.003585854,-0.002379114,-0.14365602,-0.04190043,-0.113063835,0.09159129,0.04600324,-0.046154007,0.048537757,0.022991478,-0.017791975,-0.035522595,-0.06870295,0.0016581903,-0.0023801946,0.025510313,0.02505635,0.05009794,0.0021561584,-0.01286904,0.0052724048,0.019225247,-0.035884276,0.004892195,-0.06621363,0.033375826,0.026830446,-0.08960939,-0.06924668,-0.09521603,-0.024190288,-0.086203046,0.026761422,-0.042433523,-0.00044663413,-0.03286297,-0.049675457,-0.0960699,-0.075077504,0.008374595,-0.13784929,-0.045190487,-0.039555933,-0.048923478,-0.015406949,0.1126732,-0.105015,0.04839384,0.10791802,0.07976701,0.026878616,-0.080950886,-0.0071806363,-0.15496661,0.025501883,0.06263649,0.048738364,0.002710762,-0.051261485,-0.09929765,-0.076945074,0.23106274,0.039173383,-0.052318815,0.073584646,0.016630374,-0.008605971,-0.025406756,0.004953333,-0.022594988,0.016923666,0.005294277,0.06168393,-0.008536699,-0.017923465,0.021640547,-0.04461034,0.017336734,0.606091,0.021765202,-0.04565147,-0.05394432,-0.08071325,0.034831714,0.012568724,-0.048290204,-0.06501352,0.21741813,-0.084214784,0.19002905,-0.05669544,-0.040952314,-0.0834875,-0.0072158845,0.009819838,-0.047975615,0.06349759,0.010185672,0.067531146,-0.053887084,-0.008680657,0.015974196,-0.060309317,-0.0127724875,0.031177681,-0.0024826066,0.03914168,-0.10700321,0.12283411,0.015324672,-0.034523517,0.013976954,0.026784716,-0.102979645,-0.038421955,-0.042986892,-0.005309386,0.03200319,0.06445154,-0.013370887,-0.07494954,-0.025960756,-0.030304652,8.3563296e-05,-0.047130696,-0.007750937,0.1422954,-0.033199187,-0.032300595,0.0943687,0.014232116,-0.0149219865,-0.018287264,0.06149753,-0.004653226,-0.04004266,0.043771338,-0.08259833,-0.06589979,-0.014647162,-0.026135355,-0.046825092,0.0032548911,-0.014108735,-0.00807908,-0.066807084,-0.038236193,0.068134956,-0.07981747,0.02969427,-0.042253397,-0.06523144,0.039987843,0.008934584,-0.054081947,0.042444494,0.03436309,-0.03443497,0.0948703,0.037408717,0.08637799,-0.063874975,-0.087823,-0.027591495,0.09206731,-0.024943419,0.056526024,0.47761768,0.033910904,-0.103632815,0.20446944,0.09065386,0.08508362,-0.020107988,0.006292406,0.06172312,-0.0868944,-0.098522365,0.0612258,-0.0149530405,0.025611235,-0.049253035,0.03130519,-0.04705805,-0.073369145,-0.023381645,0.006810804,-0.029389257,0.0007345845,-0.0072551067,-0.09083039,0.046567615,-0.0006548702,-0.043945752,-0.0555141,0.029923348,-0.0063806223,9.858346e-05,-3.1072675e-05,-0.028935457,-0.04619649,-0.010749982,-0.05373708,-0.10130929,-0.007649842,0.08086087,0.057312135,-0.0490552,0.016221873,-0.04396709,0.036233317,-0.056481633,-0.003679427,-0.093531296,-0.01719372,-0.031707384,0.03470223,-0.030436534,0.01947471,0.06560996,-0.057291243,-0.05344241,-0.032357994,-0.010579074,0.024589363,-0.021902697,-0.08038704,0.019970432,-0.027982702,-0.075352445,-0.16470826,0.036895122,-0.10834618,0.018755652,0.065123245,0.020312665,0.0030908068,-0.07324122,-0.013294199,-0.07448832,-0.117611535,0.02351081,-0.05286582,-0.07356931,-0.0070882444,-0.030086929,-0.015680924,0.0219258,0.1315682,0.050798696,0.005786313,-0.041723516,-0.044021524,-0.026079096,0.068161614,-0.08154304,-0.050448082,-0.009207382,-0.051466513,0.02458567,-0.014995199,0.10575702,0.104250304,-0.05077449,-0.013487074,-0.03656458,0.021611055,0.029499285,-0.07379185,-0.052882258,0.1973191,-0.0034328783,0.0055450546,-0.021077678,-0.023725765,0.080695786,-0.025605166,-0.028941618,-0.06752588,-0.049688715,-0.03579932,0.021968484,0.06404299,0.12495515,0.06424512,-0.0462977,0.051119242,0.07656565,0.022644712,0.030211853,0.04217,-0.03698416,-0.052771673,-0.017332273,0.023792211,-0.01754546,0.020058071,0.004110727,-0.06015687,0.0021091956,0.01377383,-0.041084196,0.5201565,0.007084529,0.02274021,-0.047684796,0.0529687,-0.06169118,-0.06633834,-0.08090868,0.011616109,-0.07201356,0.12587507,-0.017245557,-0.021210106,0.1723568,-0.03186149,-0.12379839,0.0011873525,-0.042444255,0.05036426,-0.018468976,0.021328865,-0.037021145,0.0040763975,-0.06258802,-0.009225229,0.0013540721,0.021596102,-0.007742831,-0.086332865,0.034396898,0.20532212,0.018898856,-0.0051227864,-0.09373298,-0.031046461,-0.03535552,-0.03816064,0.015205884,-0.061085068,-0.044473067,-0.0119333295,-0.05725167,0.0075982236,-0.0066191624,0.04227675,-0.08489041,-0.022474902,0.07975582,-0.032330792,0.0058318777,-0.009585652,0.09793422,0.013576779,-0.04027431,-0.008706853,-0.04115854,0.0032850138,-0.010904182,0.12594797,-0.0062881433,-0.022712085,0.0011134746,-0.024242166,0.011536451,0.0022053956,0.020676732,0.0017279416,-0.004256684,0.008616888,-0.05503235,-0.04582508,0.019964011,0.028066259,0.0028766678,-0.026247296,0.020869391,0.013103272,0.0070365826,0.029068785,0.008766392
0.009033985,0.027095143,-0.043540742,0.05018601,-0.08116436,0.039094593,0.012779456,-0.017419133,-0.09984517,0.031100336,-0.0021596013,0.0040024472,0.009138192,-0.022808842,-0.0030058085,-0.07902507,-0.06879692,-0.05516768,-0.002604482,0.051517513,-0.02724379,-0.020962283,0.021406837,-0.01261978,-0.07739804,-0.0069806958,-0.12706935,-0.0038216095,-0.006675449,-0.0019972308,-0.021872789,-0.024323842,-0.022823388,-0.040444613,-0.016849255,-0.026737362,0.042062104,0.0964441,0.015947452,-0.019449694,0.058112193,0.034273747,-0.03224885,-0.016308269,-0.0027722013,-0.0037272377,-0.0032687783,-0.017018717,-0.008140903,-0.04425276,0.004793655,-0.001702155,0.0018455674,0.017887106,0.0037856796,-0.0074558505,0.012986782,0.051246494,0.017664416,-0.048600018,-0.035154857,-0.0012442032,-0.036925577,-0.07334149,-0.03780878,0.0067283707,-0.036074094,-0.02400652,0.026710272,-0.054282557,0.0632288,-0.017403152,-0.013766483,-0.035929885,-0.03033901,-0.039574776,-0.012290087,-0.042745523,0.0004807119,-0.077386394,0.09148031,-0.018404262,0.03902657,0.073025085,-0.0010819226,-0.033942193,0.04191527,-0.0122631,0.018714584,-0.010197109,-0.037933137,-0.009911149,-0.026695928,0.02254246,-0.0029492592,0.014015921,-0.016328005,-0.022217445,0.033938758,0.014499799,-0.001355382,0.014618104,-0.04940864,-0.0571049,0.019723432,-0.045449656,-0.018523937,0.026755683,0.02525672,0.013238008,-0.06833792,-0.018892204,-0.008798379,0.01540512,0.15351537,-0.03926452,0.044352725,-0.048872035,0.116208896,-0.027482565,0.03672571,0.012639341,-0.055462465,-0.03591021,-0.008141227,0.066991515,-0.010031011,-0.00012839063,-0.007319115,0.000796405,0.001739726,0.0008975623,-0.009572944,-0.00038072641,0.0054506604,-0.041517273,-0.009117531,-7.965006e-05,-0.051905315,0.030295162,0.070090555,0.0511283,-0.042791292,-0.035385918,-0.009857823,-0.014017487,0.03473089,-0.006008561,-0.014222689,0.0338282,0.071460694,0.008887379,0.010361938,-0.034473084,-0.033960436,0.041329246,-0.057499543,-0.043196995,0.015113908,-0.11908036,0.0036455868,-0.036620937,-0.005217773,-0.03071592,0.0091186315,-0.06651984,0.008804556,-0.008774255,-0.019193035,0.0119070485,-0.03600033,-0.012328484,0.016179597,0.0030699016,-0.0068805674,-0.05064143,0.011133082,-0.009015613,-0.024416547,-0.011368276,0.019718464,0.0156002985,0.02555473,0.020724563,0.003920366,0.014788443,0.0031440894,-0.016769625,0.004120575,0.030953718,-0.024197323,-0.040978193,-0.05567495,-0.02587085,-0.031370472,-0.062506996,-0.056473084,-0.0074034035,0.014752717,0.00039792625,0.036477063,-0.013828846,0.07299354,0.057352193,-0.04594513,-0.05669076,-0.028713044,0.009942101,0.0006164026,0.015976736,-0.007752739,-0.022120604,-0.0025746648,0.0074057127,0.017405167,0.021630634,0.00351929,-0.0050533484,0.001397808,-0.0036295834,-0.046787184,-0.026485275,-0.01730943,0.001283878,-0.003378864,-0.0916155,0.010295559,-0.017994205,0.06983703,-0.04353535,0.022743694,-0.026807852,-0.0056587956,-0.0715034,-0.016931718,0.024476072,-0.03450534,-0.012603492,-0.011672068,0.045367178,0.0227171,0.17418386,0.03997032,0.04080221,0.01585422,-0.0016721842,-0.025343683,0.077749096,-0.020861365,0.04317846,-0.059708662,0.03282094,0.08053474,0.012096459,0.09805968,-0.098796956,-0.10728231,-0.04402492,-0.016017944,0.008360786,-0.07876571,-0.009565947,0.01125368,-0.015974708,-0.0076257023,-0.050092153,-0.006318247,-0.009793595,-0.018307189,-0.017427556,0.017193181,0.06759571,0.025502136,0.007660238,0.0187016,0.011773911,-0.074046575,-0.010279781,-0.041326687,-0.004632353,0.13110657,0.013766578,-0.06905379,0.009575752,0.037368786,0.0035914707,-0.066773914,-9.334972e-05,-0.005377588,0.002805951,-0.026930597,-0.07771307,-0.036378626,-0.012623871,-0.043003313,-0.054674704,-0.034140773,-0.03428486,-0.013256638,0.01291968,0.02794884,0.023391452,0.03010557,-0.043174516,-0.041665513,0.026159422,-0.09485271,0.03825998,0.07112192,-0.11330816,-7.490356e-05,-0.08455457,-0.024321066,-0.032260474,-0.06301598,-0.15059155,0.029383454,0.06890135,0.04158696,-0.10194676,-0.049066357,-0.07787646,-0.083908156,-0.027503857,-0.0402215,0.07931161,-0.009081708,-0.08150928,-0.0621384,-0.04379283,-0.027725456,-0.019369176,-0.03844654,-0.008546366,0.0033213212,0.004978673,-0.008282704,-0.044326734,-0.009399746,-0.008306903,-0.00194502,-0.010542833,0.0010775194,0.026642237,0.00840919,0.023688648,0.0062416135,-0.02103757,-0.06235118,-0.0024614232,-0.008851021,0.00739572,-0.04858629,-0.0665958,-0.038338866,0.15107551,0.0022956282,-0.066302896,-0.031453647,-0.042400394,-0.066365406,7.748648e-05,-0.0048960866,0.20900941,0.02025533,-0.064797826,-0.035159275,-0.007799773,-0.046481345,-0.03568428,0.13825504,-0.03298088,-0.09529208,-0.020910978,-0.0744291,-0.03678858,-0.052003156,0.042904425,-0.03112268,0.025506275,-0.004980438,-0.0022810223,0.0072691347,0.003942797,-0.0026925677,0.03743481,-0.02511189,0.0025398606,-0.00096607296,-0.001770694,-0.017104847,0.005638978,-0.00052987266,-0.01221784,0.010775458,0.018351134,0.16106957,0.06855725,0.010150123,-0.024991198,-0.031522002,-0.07981283,-0.03674056,-0.00020097704,-0.040581275,0.007249892,-0.07710147,-0.029527461,-0.03706217,-0.01204984,0.004316653,-0.098817244,-0.046590462,-0.06068131,-0.012883185,-0.0035701166,0.011569902,-0.030266978,-0.022062752,0.0120924255,-0.030029228,-0.014503047,0.011276152,-0.05135162,-0.035201874,-0.052639816,-0.06577197,-0.030387359,-0.13148934,-0.08796301,-0.05212938,0.023813695,-0.05478843,-0.07608173,-0.015092647,-0.058814924,-0.024870122,-0.047713734,-0.0031160968,-0.033504352,-0.035652515,0.2074672,-0.04286084,-0.025565602,-0.1095965,0.0010067911,-0.035592876,-0.05689435,-0.016336003,-0.0860076,-0.014570643,-0.025428426,-0.056988407,-0.067975275,-0.03039479,0.0038294725,0.0007424474,0.042981535,-0.0032984063,-0.058792032,-0.1359023,0.00989583,0.007072516,0.2118982,-0.007701403,-0.1068918,-0.010176298,-0.03781179,-0.025042158,-0.02238456,-0.007858047,-0.054029036,-0.008756817,-0.007277921,0.004616594,-0.016057158,0.032616626,0.0200432,0.0066662496,-0.018022424,0.040978175,0.012695569,0.026740657,0.014373936,0.014678874,0.014362336,0.0010890112,0.0010101427,0.018235479,-0.0071445196,0.0029083074,-0.00866894,-0.017081046,-0.01690094,-0.0045354525,-0.09450028,0.004903428,-0.018764067,-0.05096623,-0.03648946,-0.06693548,-0.05207236,-0.0900233,-0.060772482,-0.02549744,0.007199728,0.2990662,-0.056304928,-0.05399753,-0.009200403,-0.016068302,-0.024580767,-0.0033593408,0.0056414637,0.047674973,0.021035228,-0.0017322116,-0.06892752,-0.009515759,-0.021696031,-0.013345707,-0.005195563,-0.059088685,-0.059799194,-0.024629816,0.1422122,0.025138976,-0.05308142,-0.005797255,0.0091019785,-0.0655261,-0.02383739,-0.0019250871,0.014776791,-0.012342088,-0.07371687,-0.050123174,-0.00039656422,-0.0018388105,0.0012108232,-0.023162112,-0.03303996,-0.04834661,0.067265026,0.040969722,0.060511947,0.1870564,0.050625183,-0.0047409944,-0.011196943,0.0029935827,-0.06729263,-0.004189042,-0.00732693,0.011828231,-0.0068690046,0.051745392,0.008748392,0.02821003,0.04615403,0.0026239166,-0.030879337,-0.027677022,0.0017982209,-0.047701795,-0.037702087,0.008243951,-0.007027546,0.0022118003,-0.0032161493,-0.006985771,-0.01474883,0.004093331,-0.020578932,0.03357106,-0.009657501
-1.126291e-27,1.0748056e-34,-8.065444e-12,-9.138375e-27,-8.391211e-15,1.6672113e-32,2.055922e-39,-7.896671e-21,7.5397e-40,-2.315102e-39,-7.10489e-40,-2.746754e-39,6.5477044e-36,7.5175895e-23,-2.224781e-39,-2.625445e-39,-2.654688e-39,-1.961093e-39,-3.1482168e-20,-9.227993e-09,7.130027e-39,-6.960766e-18,3.541315e-39,3.3327013e-20,-9.941413e-37,-2.5093868e-29,-2.2573103e-13,-5.23086e-40,-6.997733e-39,7.32354e-40,2.087684e-39,3.294695e-39,-2.712706e-39,-3.099856e-39,-6.154244e-39,3.559343e-39,-1.508637e-05,-3.7974723e-06,-5.3811805e-06,-2.7498982e-05,-3.3968994e-05,-7.0361402e-06,-2.532033e-05,-3.5077926e-05,-7.231153e-06,1.99912e-39,-4.644856e-39,5.355383e-39,-2.898788e-39,-2.124776e-39,7.3277e-40,-4.22716e-40,3.180488e-39,2.22365e-39,-2.761078e-39,-1.5732e-39,-1.404817e-39,-7.43706e-40,5.561853e-39,-2.102256e-39,2.482746e-39,1.541173e-39,3.978373e-39,-1.7939192e-15,-3.6283107e-14,-3.3398382e-13,-1.0887257e-17,-6.4579673e-13,-2.0759294e-14,-1.4538829e-13,-6.191119e-12,-5.3476177e-12,1.4996341e-19,-2.6973153e-19,-5.2995212e-11,-4.41237e-24,7.359902e-34,1.058953e-13,-7.5502105e-29,-1.3425072e-23,-4.781883e-16,-1.356244e-18,-5.244334e-31,-5.408384e-29,-7.506463e-25,-9.51135e-22,-1.0400206e-31,4.300046e-34,-5.660747e-25,-1.7208308e-25,3.247739e-39,4.73315e-40,-1.840552e-39,-2.974812e-39,1.559316e-39,1.849344e-39,-5.072486e-39,-2.670166e-39,3.475464e-39,-2.0727005e-11,-6.3563346e-09,-2.826786e-15,-2.7631609e-14,-4.603406e-13,-1.9517965e-13,-1.504009e-17,-1.8051086e-12,-3.0870623e-12,1.615368e-39,-1.2055882e-20,2.093122e-39,-1.6639801e-20,4.547803e-39,2.9700974e-22,-5.031031e-39,3.0546183e-33,-1.328987e-39,-1.17595156e-17,-1.9580997e-24,1.0011678e-34,4.058992e-34,-3.0432694e-26,-6.232985e-19,-1.213531e-23,-7.6997823e-22,-1.4348871e-20,1.190318e-39,-2.47658e-40,-1.808185e-39,-1.257583e-39,1.769127e-39,-9.01294e-40,5.437229e-39,-4.47702e-40,5.93262e-40,-2.3279016e-30,1.8702804e-32,-1.02436e-40,-6.404714e-25,8.96569e-40,-5.088834e-39,-2.030791e-39,2.335565e-39,-1.150983e-39,2.294069e-39,-4.6809795e-26,1.03369e-39,-2.4417285e-26,2.782229e-34,2.739526e-39,1.017131e-39,-4.542408e-39,-2.798268e-39,-6.7839623e-12,-6.272055e-09,-7.200456e-15,-3.9073297e-10,-3.4921776e-14,1.3386373e-12,-3.609315e-14,1.6590777e-13,-1.5367269e-12,-4.606648e-36,-1.272526e-39,-1.881735e-39,1.126641e-39,2.5949307e-38,-1.338713e-22,-5.5109936e-36,-5.0883304e-31,-4.930134e-39,2.1076544e-19,3.1888186e-21,-5.09074e-33,8.561795e-20,-2.805555e-39,-1.40018e-39,-2.176438e-39,-8.17215e-40,9.78785e-40,-2.651793e-39,2.31843e-40,1.59105e-39,-1.9826983e-38,-2.088983e-39,4.35411e-39,-1.647745e-39,1.366077e-39,5.24435e-40,-2.7547693e-27,-3.43981e-40,-3.63865e-40,-3.623319e-39,2.44237e-40,1.2311852e-33,2.352741e-39,6.27311e-40,-4.546202e-39,-2.239984e-39,-1.3619529e-31,1.0648031e-38,2.3120304e-22,-3.883009e-24,1.7547481e-34,-1.906999e-36,1.01234795e-33,1.41414e-39,-2.41357e-39,2.600984e-39,-4.585964e-39,-2.804703e-39,4.393638e-39,2.609775e-39,-4.489226e-39,-2.043348e-39,-4.918789e-39,2.803708e-39,-6.850222e-21,4.204621e-39,-1.002532e-39,2.373927e-39,2.093757e-39,2.3719199e-25,1.451606e-39,4.887906e-39,2.636472e-39,-5.7781863e-30,-6.150522e-12,-5.6039366e-28,-4.053634e-15,5.53189e-40,1.808716e-39,2.762999e-39,-9.54025e-40,2.9770685e-31,4.236811e-22,-8.623574e-22,2.0283369e-16,-2.6655069e-11,3.6272406e-20,-1.103584e-27,1.6547244e-25,1.8310496e-35,5.3699305e-16,-1.0971034e-15,1.3348401e-11,1.2078758e-20,2.2810582e-15,8.116703e-10,-4.6494413e-17,1.1311093e-17,2.7680436e-20,-5.2956525e-15,-9.126767e-17,-5.0413452e-17,-3.622358e-33,3.0084806e-15,-2.6660232e-16,-5.667019e-18,-3.2031067e-19,-2.2906915e-38,1.451824e-39,1.7367839e-28,2.372438e-39,-5.721799e-39,2.55842e-39,-1.2938385e-38,-2.695127e-39,3.8626e-39,1.705247e-39,-2.2889375e-14,-5.0968462e-11,-7.460634e-28,-3.4790888e-25,-1.8605265e-20,-2.697079e-20,-1.5847746e-18,-3.3692575e-21,-3.2387537e-11,2.76689e-23,2.370846e-39,-8.7065193e-35,1.760487e-19,2.9993188e-24,1.6795696e-27,8.918367e-28,1.1233468e-24,-3.5042166e-21,-1.3401477e-33,1.4962485e-24,-2.04756e-39,3.508906e-39,-3.578842e-39,-3.619567e-39,1.0639289e-21,-2.679468e-39,-8.744153e-30,1.0810942e-18,-1.90154e-19,1.0870803e-32,6.236728e-12,-1.703075e-39,9.174754e-39,-1.1204229e-38,1.806697e-39,1.986397e-39,-7.5909416e-15,-7.7876723e-19,1.4360874e-27,1.311966e-28,1.069194e-39,-6.7236336e-15,1.227668e-39,9.730276e-33,7.33504e-40,4.2436724e-20,-3.308577e-22,-6.784759e-08,-1.1549527e-09,1.2113257e-08,-3.3525068e-38,-4.819006e-18,-2.733384e-18,-8.801839e-24,-2.3771222e-17,-6.355161e-12,1.5486e-41,5.412775e-39,-1.6711399e-36,-1.1714946e-18,2.1058403e-18,2.954749e-39,-1.0173705e-14,-6.834577e-33,-1.517648e-39,3.747645e-39,6.096762e-39,-3.9525e-41,-9.94174e-40,-9.0082e-40,-1.577541e-39,5.238509e-39,-5.97549e-21,-7.729604e-21,-9.9194564e-23,-2.7414234e-18,-1.125212e-17,-6.086337e-21,-2.0499935e-24,-6.763342e-23,2.4586055e-21,1.8434492e-33,-1.5071254e-09,9.27154e-40,-6.062641e-13,-3.7349472e-37,-1.063224e-30,8.0264e-40,-1.0293982e-35,-1.6215301e-15,-7.199925e-15,-2.4408184e-37,5.4537536e-22,2.6322328e-27,-6.657115e-39,-3.3867804e-18,-2.8592963e-30,-2.9391398e-17,2.397119e-39,-5.344067e-13,9.870145e-29,-2.267497e-39,-2.796653e-39,2.6975355e-34,-6.3450595e-19,-7.726695e-17,-1.1498187e-28,-1.8423455e-35,-6.3033426e-23,-1.289948e-21,-1.1102276e-21,-1.9597706e-16,-1.998584e-12,-2.0626322e-15,-1.09333665e-17,-1.8687861e-19,-2.826765e-20,-3.652476e-39,-1.736995e-39,-6.33e-43,-4.23912e-39,2.686058e-39,3.728544e-39,-4.141184e-39,4.73021e-40,1.97324e-39,-4.3693103e-18,2.0528112e-23,1.6193817e-31,-3.2212965e-30,1.4137685e-16,1.5030907e-28,7.791979e-23,-4.0635978e-29,-8.6882276e-38,7.03264e-40,-9.508817e-26,-1.4386163e-25,-2.595324e-39,1.641202e-39,-3.4681162e-17,-9.82518e-40,3.2306e-41,-4.3086115e-27,-4.027241e-26,-2.210785e-18,-4.7732673e-26,-1.1912303e-17,-2.6275308e-20,-1.9928932e-21,-1.6930481e-19,-4.791796e-21,-1.2598579e-21,5.601896e-36,5.5517097e-36,-5.735404e-27,2.4574948e-22,-2.81791e-17,-3.3011757e-11,-2.98386e-29,2.423239e-39,1.1005911e-36,-3.9945594e-19,-1.761279e-18,1.65044e-39,-2.460181e-39,-7.714124e-39,-6.3348004e-19,-7.1055704e-25,-2.3008154e-12,-3.1701902e-18,-1.3016452e-12,5.2640995e-33,3.2486818e-29,3.271895e-39,-8.534522e-19,-4.763568e-13,-8.1666825e-25,-1.7745325e-14,1.055974e-39,1.472316e-30,7.25503e-40,-9.044377e-25,1.395134e-34,8.291437e-39,2.148897e-39,-9.446172e-33,2.0905731e-38,8.9575e-40,-8.74014e-16,-1.9228253e-08,-1.671399e-18,-1.0971509e-17,7.232906e-22,3.800537e-39,4.6952527e-34,-5.274839e-39,-1.9036218e-20,1.1834507e-29,2.2047817e-28,1.2401614e-28,4.4140687e-28,1.5319762e-26,5.730261e-26,4.8612855e-29,-3.708452e-31,-7.64657e-33,-9.52657e-40,-1.652816e-39,1.39727e-39,2.297893e-39,2.22498e-40,6.026654e-39,6.76766e-40,-1.15247e-40,1.645517e-39,2.830252e-39,1.13541e-39,-6.199665e-39,8.40835e-40,-2.11034e-39,3.841504e-39,-6.745499e-39,-9.54136e-40,-2.86463e-40,3.1117886e-21,-2.159771e-39,3.234564e-21,-9.2057894e-32,-2.1963622e-23,-1.4591037e-12,-1.2636734e-28,-6.015669e-19,1.24245e-39,-1.2098064e-38,-8.660674e-22,-3.5605444e-10,2.0377847e-14,1.8585455e-10,-6.78853e-40,2.833065e-39,1.1237799e-30,-4.380331e-35,-2.7363665e-19,-4.232604e-21,2.490718e-39,1.23822e-40,-1.248427e-38,1.30923e-39,-1.1374998e-21,-2.2504646e-29,-7.68946e-40,-3.6825715e-24,-1.3430544e-19,2.749118e-39,1.584283e-23,-9.004233e-38,-4.2305467e-20,1.499971e-39,-1.89781e-39,-8.351767e-30,2.5468777e-28,1.5002713e-24,-3.2505276e-27,1.8662321e-21,1.8245735e-17,5.0576068e-30,-3.49083e-39,1.1412685e-23,1.369116e-26,-9.446384e-22,-4.710067e-18,-9.069537e-24,-4.6319887e-15,-1.271686e-21,1.7811715e-25,-3.6717403e-36,1.5324452e-33,-9.288555e-34,4.938823e-39,1.700019e-39,6.8011826e-33,-3.2567664e-25,-4.8912715e-20,6.225616e-39,-6.745944e-30,-9.854e-41,-2.2151441e-37,-7.860604e-25,-5.631265e-29,-9.242426e-25,-5.3730385e-19,-8.987269e-21,-2.1966113e-27,-6.441363e-26,-6.730902e-25,-2.5009886e-29,1.958338e-39,-2.595365e-39,-2.091347e-39,7.44244e-40,1.383714e-39,1.638391e-39,4.810035e-39,-4.36417e-39,1.62387e-40
1.620136e-32,4.4278226e-24,8.92389e-40,6.149612e-29,8.925879e-23,7.65999e-40,9.1579656e-32,5.782323e-38,6.967848e-38,-2.014005e-39,-1.26835e-39,1.83873e-40,-1.269889e-39,-9.7132e-40,-4.0311e-41,3.07082e-40,1.252853e-39,3.41834e-40,4.794911e-24,1.9729437e-30,6.48971e-40,3.1369293e-17,1.7877713e-26,2.214377e-39,1.6157424e-26,2.9006805e-18,-4.279317e-39,8.60857e-40,3.69635e-40,4.73122e-40,1.98944e-39,7.39052e-40,8.66934e-40,1.091055e-39,-1.067867e-39,1.10115e-40,4.9968918e-18,2.694539e-22,3.6710715e-30,-6.1046167e-19,1.13154e-21,4.436061e-25,3.805078e-20,2.9957532e-20,1.6562101e-20,-1.6322758e-31,-9.931445e-32,-2.2411276e-35,-1.1443036e-27,-6.57769e-28,8.840173e-34,-4.4513576e-28,-5.8688647e-28,1.4863007e-34,1.4763169e-28,4.426146e-39,-1.247896e-39,1.179802e-39,1.099739e-39,-1.311604e-39,3.7254e-40,-2.405145e-39,2.63387e-40,6.3118866e-38,1.945883e-29,2.6461086e-32,7.3147015e-30,2.6279008e-25,8.1597455e-26,2.779726e-24,3.447695e-25,3.2317422e-22,-3.79048e-40,6.3841e-40,-6.10975e-40,1.47873e-40,7.6896393e-38,1.698451e-39,1.50271e-39,-2.037568e-39,3.55166e-40,-1.433447e-39,-2.953119e-39,2.378026e-39,-1.013925e-39,-1.273199e-39,-1.233438e-39,-1.697206e-39,-1.827712e-39,-1.545342e-39,2.075019e-39,3.892453e-39,2.814288e-39,5.755166e-39,4.510113e-39,5.087456e-39,-1.78085e-39,2.01048e-39,-6.27806e-40,-1.3362285e-26,-2.8122124e-30,4.0568017e-37,-2.4361673e-27,-9.439607e-27,-2.1432246e-26,3.2714658e-38,-6.1123686e-28,-6.757162e-27,-2.927982e-39,3.293128e-39,8.34772e-40,-4.1752847e-36,1.960265e-39,-1.971976e-39,1.442522e-39,-3.1627486e-30,-1.747541e-39,-7.0759936e-26,-2.6056395e-21,-3.8100973e-20,-1.1273716e-22,-1.5047174e-18,-4.925289e-16,-3.3588403e-19,-3.1077334e-17,-1.2725026e-14,-3.4341e-40,-1.283828e-39,-1.1792e-40,1.55254e-39,-1.18342e-40,-3.63378e-40,1.410258e-39,3.73314e-40,-4.76451e-40,7.0881e-40,1.106895e-39,-7.38744e-40,4.582412e-26,-2.553627e-35,8.60664e-40,-7.6467665e-36,1.178876e-39,-4.54549e-40,1.879209e-39,2.078549e-39,5.32346e-40,4.148037e-30,6.163314e-39,6.94939e-40,9.4476e-40,-4.444637e-39,3.900441e-39,9.3304076e-30,-3.0434516e-35,1.3504839e-37,2.7299579e-24,4.5055332e-27,6.899133e-38,3.3125559e-25,5.2341797e-22,6.9241213e-32,5.3525e-40,-4.05316e-40,1.63987e-40,-2.3722815e-34,1.2046067e-28,1.033196e-39,4.1065308e-25,9.460853e-23,2.106244e-39,-2.34918e-40,2.53167e-40,4.5032e-40,5.90747e-40,1.811306e-39,3.631797e-39,8.54265e-40,2.114676e-39,-7.07703e-40,-3.870971e-34,1.456578e-30,3.8342345e-27,1.1248379e-26,8.4832615e-27,3.2007513e-24,7.732106e-25,1.30451845e-23,4.916582e-25,-2.0175383e-36,8.346741e-38,-1.90932e-39,6.4136845e-30,4.5061536e-20,4.914104e-26,5.693628e-24,6.1494277e-19,5.9084894e-22,-1.266545e-39,-1.220658e-39,-6.477e-40,-6.29662e-40,-1.042916e-39,-1.22268e-39,-1.395766e-39,-1.7035e-39,-1.419479e-39,-8.578156e-15,-1.175729e-13,-6.7233254e-14,-5.876997e-13,-1.0179212e-12,-7.990797e-13,-1.0053705e-11,-1.5489205e-11,-5.7266175e-12,1.602976e-39,2.280902e-39,3.632304e-39,2.390642e-39,1.74701e-40,-3.272971e-39,-2.6488428e-38,7.554735e-37,3.4595893e-37,1.3189e-39,2.734267e-39,-4.92021e-40,1.8648899e-34,4.325442e-33,1.1827e-39,6.11357e-40,-6.467e-40,-2.91152e-39,-4.933071e-21,-5.7870325e-18,-1.9371136e-17,-2.1977207e-19,-2.0085097e-17,-2.2129796e-16,-1.24861325e-17,-2.6596034e-18,-4.92411e-18,7.4586444e-30,-2.4369602e-32,-8.925261e-27,-3.1458308e-29,-1.3645973e-32,-4.3319856e-28,-1.964864e-39,-3.9642063e-30,-1.0445871e-23,1.5002977e-34,-1.00850265e-25,-8.94792e-24,9.0393754e-23,-1.3735924e-20,-4.529343e-21,-4.65615e-21,-3.3328584e-20,-2.9822314e-20,-2.266837e-39,-1.451434e-39,2.729268e-39,2.6666732e-38,-1.5234792e-34,-1.4032085e-34,-2.8258115e-34,-1.9314782e-34,1.436998e-39,-9.471785e-25,2.6698533e-23,-2.0382964e-36,5.338529e-32,9.605572e-35,-4.3446157e-26,1.800607e-39,-2.9183481e-30,-1.4022857e-37,-1.8096478e-18,-3.9781747e-16,-1.9158444e-14,-5.4726756e-15,-2.612233e-13,-1.0927065e-12,-9.005051e-13,-1.3378694e-12,-5.3443803e-12,1.016876e-39,4.099085e-38,8.38412e-40,6.2707e-41,-7.62505e-40,4.48505e-40,1.96646e-40,-1.66977e-40,9.22005e-40,1.208537e-39,1.41106e-39,5.773109e-39,2.605486e-39,3.780726e-39,-4.3307067e-38,-2.092981e-30,-7.2482855e-28,-3.4547696e-35,3.703901e-39,-1.004892e-39,-1.443082e-39,-3.849975e-39,-1.589179e-39,9.560895e-36,-9.05498e-40,6.8863063e-38,-3.8883945e-32,-1.4873714e-19,-7.779427e-20,-5.0434046e-17,-5.044635e-20,-2.0142441e-19,-2.7520011e-17,-2.4802983e-17,-1.9599904e-19,-1.1835791e-16,1.5513659e-34,1.2181263e-38,1.728712e-39,-1.935088e-39,2.072875e-39,-3.154799e-39,-7.0115e-40,4.4701288e-33,3.553687e-39,2.972077e-39,3.049412e-39,-1.025921e-39,-5.6903236e-35,-1.976341e-39,-2.4794e-40,2.609972e-39,-2.4065e-40,2.684325e-39,8.300129e-23,5.319365e-26,7.287132e-31,3.018887e-22,-4.1310794e-26,6.2626514e-28,1.6717717e-23,9.142759e-24,2.3685775e-26,-2.43056e-39,-1.76267e-40,-2.568141e-39,6.621218e-39,-2.787453e-39,-1.824275e-39,1.325487e-39,-1.905379e-39,-1.542235e-39,1.514542e-39,-2.1445755e-36,-1.1275711e-27,6.052725e-38,-1.965956e-32,-4.0331394e-22,2.523169e-30,-2.2004682e-27,-8.295804e-22,2.9285606e-25,1.1281698e-25,-3.784904e-39,1.2614411e-30,1.0103655e-24,4.178482e-23,4.374061e-24,3.0465753e-21,2.6175656e-23,-5.8838606e-32,-8.1775256e-33,-1.236534e-39,-2.5057375e-26,-2.2269352e-28,1.1916084e-34,5.9043915e-26,2.5275874e-31,2.164516e-39,-6.721894e-39,-5.613513e-39,-3.14367e-40,-3.778217e-39,-6.2383e-41,1.149636e-39,-2.555828e-39,2.38483e-40,4.20119e-40,-2.2076354e-22,-5.1915286e-18,-4.6107645e-20,-5.4775495e-18,-2.8735495e-16,-9.498915e-18,-6.545604e-18,-4.87001e-16,-1.818925e-17,4.75621e-39,-2.010432e-39,1.593608e-39,-2.496017e-39,-1.024126e-32,1.265288e-39,-3.441425e-39,-1.4856222e-38,4.200487e-39,-2.1197311e-23,-1.4181861e-24,-4.2949404e-31,-1.534217e-31,-3.613577e-31,-1.0536182e-37,1.835191e-39,1.439893e-39,8.97921e-40,6.310204e-39,2.2043276e-36,-7.399466e-26,-1.2693933e-38,-2.7527917e-31,-2.4520268e-24,-5.970088e-31,-1.9355732e-26,-5.5288113e-24,-1.334508e-39,-4.002122e-39,-4.28059e-39,3.14006e-40,-4.133714e-39,-6.640463e-39,2.3721336e-25,2.072986e-39,-9.10806e-40,7.13558e-40,5.78204e-40,6.52468e-40,2.48079e-40,1.479044e-39,1.573137e-39,-4.9264187e-36,1.949973e-39,5.81486e-40,-3.5428082e-26,-5.9202803e-25,-2.606101e-25,-1.3493077e-22,-5.407994e-22,-1.3909625e-23,-3.9306415e-21,-1.1276103e-19,-7.720137e-21,3.8082825e-18,1.5199748e-17,1.334891e-39,1.4648029e-16,6.310306e-17,2.1918395e-29,2.8700068e-31,2.2162926e-31,1.167174e-39,-5.881956e-18,5.4535356e-19,5.957186e-19,-1.4584893e-14,-2.9620342e-17,-1.1618281e-18,-9.9432425e-14,-8.6772715e-15,-1.508872e-16,8.72831e-40,1.079852e-39,-1.994629e-39,1.721974e-39,1.342098e-39,7.06868e-40,3.8194e-41,-1.606401e-39,-9.86674e-40,-2.755233e-39,-3.327512e-39,-1.573735e-39,-1.473778e-39,-2.719825e-39,2.565416e-39,2.315444e-39,3.117815e-39,-1.639037e-39,1.8833018e-23,2.95349e-40,-1.338862e-39,5.116484e-32,3.3382849e-21,1.70595e-39,3.7181332e-25,1.3916712e-27,-6.0898e-40,9.91604e-40,3.0729967e-32,-3.29131e-39,-1.674594e-39,1.2802015e-34,1.18279e-39,-2.394396e-39,-1.909247e-39,8.770606e-28,3.253003e-24,5.543463e-22,1.349448e-39,3.471218e-33,1.0680438e-27,-3.0642518e-35,1.084909e-39,6.524515e-25,2.335128e-39,2.5675992e-18,4.1776634e-25,6.4859895e-38,3.0380356e-16,3.7953262e-19,2.819324e-39,2.8699006e-27,1.2731173e-27,2.225787e-39,-7.57295e-40,-3.67565e-40,-1.2449665e-30,5.131184e-34,-8.95819e-40,2.498036e-34,-4.3987254e-32,-1.2791586e-37,-1.4934131e-37,-9.483626e-37,4.3353195e-36,-1.022288e-39,-1.1949891e-22,-1.1308234e-24,-1.39442e-39,9.24451e-32,-4.4900828e-33,5.53827e-40,-1.82243e-40,-1.6828e-40,7.6883e-40,3.77811e-40,-1.7975509e-34,3.3926724e-32,-1.4242526e-34,-3.3825284e-34,8.3052336e-26,-9.913548e-31,-1.8742081e-35,-4.3942848e-38,5.645905e-35,7.909448e-35,3.3713844e-35,-4.902413e-39,-4.163879e-39,-2.4307988e-38,-2.281804e-39,-2.122719e-39,-2.015989e-39,8.190893e-35,3.929259e-37,-2.0473e-39,2.765452e-35,-4.4376656e-38,-2.179986e-39
0.027722944,-0.089579456,0.05940746,0.017323485,0.031181928,0.05560108,0.094675675,0.0466935,-0.06377263,-0.02030431,-0.041895732,0.042170018,-0.05706597,-0.011331489,-0.027666006,0.024530545,-0.03751346,-0.06292202,0.017213631,0.04204464,-0.088031955,0.0156037295,-0.02913783,0.24556114,-0.09956871,0.036488682,0.036636375,-0.0019531114,0.0010919275,0.037959866,0.051940046,0.04323855,0.027502881,-0.04238126,-0.020085722,-0.020576537,0.054715827,0.013992516,0.03740463,-0.027530551,-0.023682369,0.006553013,-0.051921807,0.005021546,-0.03165459,-0.01419564,-0.055631645,0.038960397,0.083509445,-0.016388794,0.0017925428,0.015838005,0.049525473,0.002367348,0.014182221,-0.037781056,0.040881604,-0.05195354,0.06259327,0.0044853194,0.07131114,-0.02984843,-0.01114328,-0.14005888,-0.029798439,-0.019116286,-0.0403191,-0.05700636,-0.0022538353,-0.014311304,0.035839327,0.05806346,-0.06945391,0.035199586,-0.06711656,0.05978427,-0.0011244747,-0.080473855,-0.05310138,-0.066596486,0.03703384,0.0036358554,0.0499747,0.0046402775,-0.008674864,-0.070232525,0.01083364,-0.021257946,-0.01263642,0.00066622405,-0.03197277,-0.044692624,0.05645549,-0.03485018,0.021281272,0.0568834,0.036768973,0.053839453,-0.017625043,0.0546808,0.041499306,-0.04292733,-0.04946563,-0.012255566,0.023921391,-0.08136624,-0.031037614,-0.05283029,-0.046015687,0.01972371,-0.08664737,-0.04337829,0.06146904,0.03981796,-0.03419451,0.040786784,-0.027703349,-0.011077435,0.056721114,-0.054943312,-0.059734013,0.13549,-0.101384275,-0.10551612,0.14507347,-0.07053566,0.0052199024,0.020825848,-0.02110845,0.005426194,-0.017556693,-0.0362084,-0.02542333,-0.0045582433,-0.023664566,0.039492756,0.0031998185,-0.014849406,0.06238971,-0.03427031,-0.14046168,0.0040174434,-0.052573238,-0.0021074505,0.14445846,0.039636143,0.005021642,0.02445706,0.009974218,0.01548092,0.009807481,-0.006956192,-0.0039977664,0.029054683,0.02084422,-0.019129284,-0.09731767,0.05430094,0.084015034,0.04484817,0.06985175,-0.06408958,0.005901759,0.0051193293,0.03857804,0.05079988,-0.009298734,0.0331483,0.012148478,-0.03943664,-0.035848707,0.01680304,0.062929496,0.081665605,0.0029862404,-0.009048706,0.038435753,0.008124858,0.05844246,0.026597057,-0.07791326,0.008785832,-0.01719496,-8.297773e-05,0.050614193,-0.04284851,-0.006705934,-0.05879486,-0.0016026314,0.03326668,-0.018142922,-0.08718895,0.08891579,-0.037433967,-0.10424344,-0.00019124133,-0.027647326,-0.05198948,-0.067990884,0.0777086,0.022055155,0.120910764,0.030211477,-0.048009023,0.017716426,-0.07076427,0.11317442,0.026036296,0.01869817,-0.010521265,0.045080606,0.049849875,-0.016765788,0.030929556,0.018142587,-0.00217116,-0.0154432915,-0.07881874,0.028114123,-0.06740343,-0.01443336,0.017365962,0.008874672,-0.01663677,-0.015302127,-0.047775194,-0.10007859,-0.018314699,0.06098886,-0.014882509,0.029806698,0.027929202,-0.031938795,-0.10710071,-0.03782954,-0.014397535,0.014192762,0.15433764,-0.08487824,-0.028888552,0.015668653,-0.06592138,0.013881251,0.2150073,0.08200524,-0.08671197,0.013238367,0.060538813,-0.041359123,0.05789291,-0.055986445,0.08146752,0.043491703,-0.038485512,0.040576812,-0.0034362103,0.20188333,-0.035052877,0.038430158,0.039637946,-0.016390737,-0.034261823,0.0005337756,-0.032408386,-0.031780995,-0.021386033,-0.0020603163,-0.00021473458,-0.028519146,-0.029501053,-0.096625455,0.09953062,-0.024108205,-0.02753561,-0.06539922,0.0625013,-0.03826005,0.01744814,0.011200984,-0.10830125,0.09486636,-0.016917551,-0.053687595,-0.016959298,0.061441716,-0.04547289,0.09084379,0.021314524,-0.071192704,-0.033841383,-0.025190352,-0.03439962,0.01761407,-0.0049312287,0.060168453,-0.020359755,-0.034754265,-0.09455879,-0.051759623,0.029458933,-0.020812055,-0.028770285,0.036632203,-0.014412085,0.015779946,-0.0069372403,0.1968444,-0.05942046,-0.10529098,-0.056039557,0.13539094,0.014056617,-0.08907083,-0.06401943,0.02792694,-0.034577727,0.20185664,-0.044037417,-0.18243136,-0.0629659,-0.0023330133,-0.008872757,-0.012394768,0.13989699,0.21213803,-0.032464344,0.016278189,-0.028670711,0.1498575,0.040090002,-0.011889517,0.042482138,0.060966473,0.0051611774,0.0163298,-0.008660182,-0.0063724513,-0.064358644,0.10818572,0.0181002,0.0041362564,0.031248549,0.060906712,0.016806269,-0.019550398,0.008815949,0.053518116,-0.051660694,-0.056123737,-0.056929577,-0.024334304,0.09600318,-0.003524467,-0.05576562,-0.025823299,0.098379284,-0.06333971,0.03485333,0.09186267,-0.11724665,0.03875163,0.018043026,0.040756594,-0.028631164,0.2152846,-0.005279418,-0.06941886,-0.13137992,0.044969123,-0.00493762,0.05176157,-0.112646736,-0.04806085,0.4018989,0.021242244,-0.065234035,0.03195546,0.002217453,-0.039269105,-0.028827675,0.048721455,0.119088165,0.019643916,-0.05124652,0.040539667,0.016420512,-0.112621665,0.00052231963,-0.004569567,0.02923521,0.028276619,-0.0013181989,0.035105463,0.0050849267,0.00271856,-0.0070240074,0.06391594,-0.042694792,-0.018633625,-0.019341908,0.053280003,-0.056122985,0.07284354,-0.028329475,0.027081419,-0.008004182,-0.024641538,-0.09070333,0.009714876,-0.05532363,0.02625481,-0.012497919,-0.02047837,-0.033771485,-0.02246288,-0.0023752986,0.014437051,-0.05831939,0.028550573,-0.022171598,-0.036749184,-0.03336451,-0.030783042,-0.08881292,-0.102233775,0.30043072,-0.072123535,-0.053351272,0.030084165,0.03501066,-0.06424575,-0.07130965,-0.07693613,-0.041095335,-0.07276083,0.0009709426,-0.12638019,0.08244172,-0.0032479367,-0.05659463,-0.005038036,-0.030761842,-0.065945126,-0.10724408,0.02576583,0.46491513,-0.029261174,0.040895134,0.009981607,0.076387145,0.0023266904,-0.016925465,-0.039681386,0.023146873,-0.15615664,0.010239219,0.0157013,0.023379898,-0.011770148,-0.16208518,-0.05508431,0.0021627913,0.016534435,0.036123183,-0.047887143,0.0007633762,-0.009475141,-0.13736968,-0.00038278138,0.015011018,0.035842966,-0.039809093,-0.09715994,-0.021754192,-0.03926485,-0.042841423,0.051483124,-0.01972185,-0.044095222,-0.0023168104,0.03511978,0.0065566944,0.027332813,0.043179065,-0.045526195,0.06377772,0.0032866239,0.05690231,-0.007518745,-0.016751083,0.027661998,0.015074948,-0.012876493,-0.0011654156,0.007313356,0.049557682,-0.07551805,0.19699231,-0.022294555,-0.05384649,0.05290981,-0.0072962483,0.010316091,-0.018446216,-0.055108275,0.5084401,-0.035507143,-0.017244546,-0.037955202,-0.00022810776,-0.054451358,-0.06861161,0.39934713,0.08613269,-0.026741546,-0.016443914,0.023398554,0.024111371,0.17077436,-0.07447454,-0.01920677,0.06816618,-0.034107167,0.02053026,-0.034089036,0.07362964,-0.010363287,-0.15471701,-0.055034164,0.097970165,-0.087671764,0.04271782,0.057365276,0.20178889,-0.039803766,-0.05581522,0.012353928,-0.01638787,-0.06019739,0.033889107,-0.09443259,-0.1153324,0.010510467,0.013114512,-0.021420902,-0.07413724,0.08099504,0.014094744,-0.015621016,-0.009655453,-0.11804778,-0.018947463,-0.007833458,-0.029974591,0.015715439,-0.017927274,0.009188506,0.018394139,-0.08760411,-0.0073169935,-0.06776191,-0.08827995,-0.017821698,-0.021175541,-0.008411665,0.029868547,-0.029804204,-0.0008016161,0.0048888265,0.014865214,0.005233998,-0.011293264,-0.022184387,0.0012345207,0.010795098,-0.010058755
-0.00020735827,-2.1320836e-06,3.2750587e-09,1.7979732e-09,1.4559411e-07,-1.4314333e-12,3.5740848e-12,3.2585188e-11,3.806988e-09,1.7052004e-06,1.2566005e-07,3.2898417e-09,-2.3277645e-08,6.630462e-06,-1.8122368e-08,-1.0129094e-07,-7.913966e-09,-2.4278504e-09,4.981574e-09,7.271584e-10,1.4836894e-11,5.9942784e-10,-1.1068965e-05,1.1241246e-15,-1.8966331e-05,-1.3069195e-11,6.640945e-15,5.520312e-21,1.322552e-11,1.4430131e-16,1.0551488e-12,1.3979518e-12,4.2869102e-12,6.0850345e-14,3.1102743e-15,3.1867544e-15,0.0023289805,0.0021881964,0.0011887609,0.0017761842,0.0013082279,0.00019500838,4.4249427e-05,1.834989e-06,0.00016988764,6.1512135e-17,9.8182226e-26,1.4448945e-27,1.1590011e-16,2.058332e-20,2.210541e-19,3.5509297e-11,-9.204008e-12,7.0983023e-23,3.422716e-10,-1.7374305e-08,1.992025e-16,-1.2713847e-08,-1.00480346e-10,-6.808572e-15,-5.0108824e-09,-6.47501e-14,-6.5972336e-13,-5.7925226e-10,-1.0871613e-11,-4.056387e-19,6.911164e-13,1.8565434e-10,8.2642825e-12,6.267088e-06,3.3646238e-06,7.189914e-06,6.9669644e-05,3.3630025e-07,1.660237e-06,-3.1946412e-05,1.1260006e-07,2.9074984e-08,-4.6136207e-05,2.0485834e-06,4.525198e-07,1.4880667e-06,1.3440378e-07,4.2772963e-09,6.1861937e-07,5.415071e-09,2.5931433e-09,-1.41059076e-08,3.6729745e-07,8.489002e-09,2.425847e-33,-9.1343486e-33,3.1232476e-34,5.3091297e-28,2.9015157e-25,-7.049478e-18,1.20272804e-20,-3.063536e-14,-1.8353574e-17,7.037504e-05,5.581949e-05,1.4589665e-06,0.00029968453,9.672315e-06,4.5212846e-06,-1.7231656e-05,-8.2152355e-06,-2.571518e-07,1.652784e-13,3.0650257e-13,-3.2355342e-12,1.1458177e-08,-1.0043622e-06,4.476062e-13,-6.2961874e-07,1.471735e-13,3.921222e-18,4.364254e-06,1.6131914e-07,5.4580127e-08,2.8957144e-08,1.0281558e-06,1.895514e-07,-6.6391074e-08,6.5105354e-08,-2.770496e-09,-5.178594e-39,-2.720111e-39,2.682822e-39,2.2317382e-35,2.12193e-35,-3.889719e-30,-2.026237e-39,-5.350218e-39,-1.920288e-39,-7.930419e-09,3.4719827e-09,1.2147505e-18,8.513641e-08,1.3645361e-12,6.583558e-11,-3.908497e-08,1.97086e-08,4.8118813e-14,1.9876919e-17,6.512606e-17,-1.02213245e-10,2.759853e-16,-1.771619e-08,5.9176367e-19,-3.40309e-10,-5.277932e-13,-9.896715e-21,0.00081192254,0.0004584495,6.0979793e-05,0.0009698964,1.9805064e-05,4.3241336e-05,-0.00028082044,-6.787991e-05,-6.6807365e-07,2.4827557e-10,1.7038981e-07,3.177713e-09,-4.181094e-05,-4.4009437e-07,9.149824e-11,7.422479e-11,1.8668571e-09,5.0002042e-12,3.6638545e-07,-6.802331e-10,3.3684482e-11,1.3716211e-11,1.5575088e-12,1.9267656e-10,-1.8515863e-24,1.3463811e-13,1.7318982e-17,2.4080002e-09,6.6084006e-08,2.7467053e-13,1.14004926e-07,-4.0970555e-08,6.526616e-11,4.021522e-11,1.3022867e-08,1.4540734e-11,1.850964e-14,2.1273846e-17,4.170763e-13,-7.475827e-08,-2.3856864e-10,-4.9426134e-09,1.9553331e-11,3.6283507e-12,1.5311086e-09,4.1805364e-09,5.2886232e-08,-1.9344801e-14,3.2963452e-09,5.5864092e-08,-1.1545446e-08,4.5114284e-11,-4.4681718e-07,-9.8333675e-11,-9.746343e-20,1.122938e-10,-4.6952413e-16,3.0889238e-18,-2.9183118e-13,3.250631e-09,-3.5898364e-30,6.7468874e-16,6.892495e-14,-3.27284e-08,5.907073e-23,-2.5483028e-13,1.619328e-19,-5.2786516e-16,1.6886813e-20,5.868003e-25,-6.299453e-14,9.138856e-15,-0.00015028179,-1.4858403e-05,-5.175107e-13,9.804668e-12,2.819102e-11,6.7607983e-16,1.4389862e-11,-3.091287e-07,3.501981e-11,-6.092783e-13,-1.7445573e-17,-8.584268e-15,-2.2078382e-07,2.0321054e-16,-1.4669037e-11,3.144076e-12,-3.0680704e-07,-3.2651506e-09,-5.673103e-08,-2.1451322e-12,-2.9241033e-11,1.0887846e-09,-8.3348866e-08,-2.565134e-10,-8.789509e-08,-1.1357202e-09,-2.691208e-09,-2.969507e-12,2.941068e-08,1.398933e-09,-1.6845253e-05,5.7931086e-08,-9.95188e-07,-5.614793e-07,8.234399e-11,4.1153788e-07,1.3241988e-11,3.6782635e-13,1.4163039e-14,5.612291e-13,-2.2241751e-07,8.752981e-17,-8.109584e-11,3.439211e-11,2.1585286e-18,7.1731726e-08,1.2018896e-06,2.5846293e-06,4.4550447e-06,-9.8871635e-05,1.8570415e-07,6.3195746e-09,3.2590044e-09,3.0367158e-09,3.869087e-06,7.834872e-07,1.2391761e-08,4.4512518e-07,-6.325823e-06,7.701958e-08,-6.928828e-07,-7.2289867e-09,-1.7309331e-09,-2.3577342e-14,5.3802224e-10,-1.5281066e-11,8.368988e-15,-1.2291574e-09,6.580688e-10,9.525899e-16,2.4483878e-17,6.2429256e-14,1.6573763e-07,4.5141445e-07,-4.8962745e-10,1.9171376e-09,4.6324217e-08,4.950406e-08,3.9296347e-10,2.4026698e-07,6.3202905e-09,2.6345253e-07,1.5342758e-13,5.4757466e-12,-2.688124e-15,2.3596534e-11,1.14867e-11,-6.49205e-08,1.083963e-11,6.4062776e-11,-1.5791133e-09,5.985876e-07,1.1653257e-09,-4.278778e-06,2.973325e-05,-6.3164916e-06,3.3846336e-06,-6.9859605e-05,-1.2149452e-06,4.461195e-08,8.297382e-09,1.0805771e-11,-2.2131286e-09,1.00431965e-08,8.1992766e-08,3.971238e-08,3.468326e-09,1.2077015e-07,3.5284688e-18,1.776836e-21,-3.705575e-39,-6.6893474e-16,-2.5695045e-21,-3.5920945e-23,1.276493e-21,4.7787715e-29,-3.9819613e-23,3.487445e-20,3.831107e-14,1.1476549e-12,5.9317266e-08,3.7149155e-16,1.2200864e-10,8.876345e-20,3.0216196e-14,1.3663763e-15,9.187096e-14,8.939097e-11,-4.58675e-13,2.496644e-08,-9.145167e-07,1.5152762e-10,-2.3546497e-06,-4.0599915e-09,4.5921488e-17,7.1002755e-06,-5.283948e-06,1.2451174e-13,-7.016765e-05,1.4695853e-06,1.9059619e-14,-1.8451203e-06,2.560446e-10,9.808907e-13,3.81186e-19,1.6197948e-12,-1.641669e-18,-5.3274977e-08,1.6359667e-11,-1.8782689e-11,-1.0345238e-12,6.1806663e-13,1.456984e-07,5.041176e-08,1.8877028e-06,1.744834e-08,7.745612e-08,1.3829693e-06,3.5012444e-08,7.225802e-07,7.358715e-07,-8.977465e-09,-2.358745e-39,-4.17837e-39,-1.57639e-39,4.5755525e-34,9.893e-40,-2.8539e-39,-2.574714e-39,4.309143e-31,-1.9229714e-37,1.4685865e-13,2.640595e-10,-4.2385076e-13,-1.5144705e-08,3.809282e-12,-1.2974887e-12,5.4427865e-11,4.9075998e-14,1.6705225e-10,7.2802364e-10,2.5782071e-11,1.1453625e-11,5.354957e-07,5.527615e-09,4.9022013e-08,-1.5466334e-14,3.3806933e-09,1.5518497e-12,3.6423842e-06,2.7585758e-08,4.361732e-09,8.821588e-07,-1.5714441e-08,2.6224418e-09,-1.2007289e-06,-8.090903e-08,-2.1724536e-09,2.3217435e-10,-5.725779e-08,4.388348e-09,-9.172575e-09,-1.07310534e-07,3.4865e-11,-4.1795883e-13,2.5229142e-11,-4.5006654e-10,1.56301e-09,1.2317601e-16,2.0656366e-19,4.8719306e-11,8.5885485e-09,5.2351383e-12,-2.4863934e-06,1.08181145e-10,5.0782258e-14,8.1670223e-13,1.2303145e-10,-1.0805859e-16,-4.2258613e-05,7.270294e-10,-2.0128835e-16,-8.4109935e-20,3.2847156e-11,1.4298472e-08,1.2716646e-10,3.5381273e-09,1.5545928e-14,2.1755183e-11,1.9960863e-08,-2.3633168e-10,5.5993157e-09,-1.6332056e-08,-2.1105622e-12,-5.125854e-06,1.1407116e-08,-1.870543e-09,1.2517659e-06,-7.5896833e-10,2.3353056e-07,1.241344e-09,-4.654951e-06,9.671978e-08,-3.4402654e-24,-1.8237212e-11,2.973674e-15,-3.1141414e-17,2.2738637e-11,1.8912336e-14,4.5891884e-12,6.8917675e-12,-1.125897e-12,1.2731479e-14,5.858546e-19,-2.595471e-13,5.268122e-25,4.1412874e-24,1.3569408e-17,-1.8759805e-32,2.1486028e-17,1.1411901e-27,-1.5046103e-21,4.072581e-37,2.938657e-39,2.211976e-39,-5.567888e-39,-9.226121e-21,-1.57093e-39,-7.937157e-15,-6.806377e-39,1.3171658e-06,-5.7139536e-05,1.2067093e-10,-0.00016099661,-7.3628246e-07,3.762805e-09,2.667423e-09,2.901365e-09,-3.0354143e-11,-1.150754e-07,3.1323527e-06,5.8800773e-09,-1.0054134e-09,6.7272826e-10,-2.3369306e-07,1.0674549e-09,-2.9835148e-05,-3.6727738e-10,1.2289968e-35,-2.0905342e-29,-3.0503903e-25,-2.855018e-39,-2.0919165e-28,1.2267643e-28,-3.2232383e-23,-2.7551617e-23,2.1104663e-28,3.593215e-10,-1.7405566e-07,1.3132465e-10,3.4186204e-12,4.434389e-11,6.4501105e-14,-2.0641602e-07,2.4417642e-11,8.094515e-12,-5.5208943e-24,-1.4681088e-15,1.0112481e-10,-7.268344e-13,-5.328109e-22,1.5855108e-12,8.75723e-39,-2.9463552e-12,-7.763321e-12,-2.7967237e-06,-8.245538e-06,-2.7027454e-09,2.9846714e-07,-2.84699e-12,-5.971271e-13,-1.320274e-08,-7.4716383e-10,-2.0267694e-11,1.7485979e-13,3.72624e-14,1.4361934e-13,2.8762792e-10,3.303321e-12,1.2796714e-10,7.546202e-08,-3.9999032e-11,2.7799332e-11,9.30831e-08,2.2456065e-07,4.6457596e-10,2.6947198e-08,2.6838881e-08,-8.178963e-11,-8.408356e-09,-2.8691138e-08,-9.452945e-09,-7.687003e-17,6.716374e-24,-6.628456e-27,-3.9057665e-18,2.4762118e-30,-1.197251e-23,7.420437e-29,7.6358394e-28,7.722205e-26
-0.09438462,-0.007876843,0.021296049,-0.06393979,0.030936586,0.01969869,-0.061825197,-0.036609076,-0.07934006,0.025102314,0.010187819,0.0019726597,-0.031119421,-0.0101041375,0.0011442017,0.0112035675,-0.020269932,-0.021652466,-0.066479534,-0.017498113,-0.058829866,0.0548806,0.017583517,-0.04500764,0.18928017,-0.00032754653,-0.1126576,-0.00067712297,-0.00783875,0.0046873065,-0.006346139,-0.02126407,0.0037989644,-0.017847473,-0.0004809184,-0.011276692,0.0029546064,0.06738738,0.037312612,0.021156581,0.11564383,0.015330834,0.00022649812,-0.024957474,-0.016258202,-0.0006658363,0.02073985,-0.019235514,0.006524412,0.0014987128,0.019346735,0.05257971,0.0770091,0.016050799,-0.0038287702,0.03439476,0.010977037,0.034845226,-0.0104229795,-0.03313975,-0.0070254705,-0.021483246,0.018640038,-0.11017164,-0.08034046,-0.042221695,-0.06577162,-0.012811234,0.019519767,-0.0040135775,0.009547459,0.06841805,0.026773773,-0.0989501,-0.10010575,-0.008910936,-0.049970027,-0.0844006,-0.0123585295,-0.0014813602,0.05383941,0.036639303,0.045926403,0.0039478755,-0.012737659,-0.010838446,0.05143108,0.0154814115,-0.03124103,-0.02837244,-0.01964841,-0.013101947,0.029372962,0.029514052,-0.038413946,0.0061170096,0.014344308,0.065263666,0.021727165,-0.03397493,0.05548267,-0.057933573,-0.049506895,0.1269669,0.025722947,-0.029967505,-0.02117092,-0.02949796,-0.05580297,-0.034078553,-0.0033060734,-0.073753804,-0.0503056,-0.033231996,0.122356504,-0.0068224585,-0.02343188,-0.011701601,0.046677362,0.014226324,0.11248856,0.020578505,-0.052979726,0.06190959,-0.017002469,0.02205551,0.020097228,-0.0017860746,0.0026601658,0.0076760226,0.001812376,0.010329465,-0.0010793451,0.0009818671,0.0010543661,0.018171154,0.12363283,-0.021951705,0.0005088026,0.06951934,-0.0449557,-0.020197034,-0.05460535,-0.0152675,0.03537662,0.08472542,0.02354023,0.021477154,0.05234719,-0.008592655,0.039707053,-0.0443159,-0.0023851127,0.008956609,0.0038300718,0.027758468,-0.029962448,0.02707607,-0.011458184,-0.08480814,-0.042664137,-0.05902207,-0.073331274,0.0059085237,-0.056776665,-0.015567195,-0.00035983388,0.05127692,-0.019158242,0.009287285,-0.0019372855,-0.040490355,0.26298633,-0.008740211,0.021591013,0.1276376,-0.041046187,0.03202912,-0.038387273,-0.0096591,0.01575849,-0.031731598,0.010855398,-0.007000371,0.14315854,-0.002353129,-0.020208469,0.01047233,0.023459291,-0.09175106,0.0083269775,-0.049621325,-0.046871882,-0.038933754,0.09580795,-0.038560405,-0.06577519,-0.02319651,-0.050400462,0.042090617,-0.01256389,-0.04391631,0.08425083,-0.059538316,-0.013057655,0.029806228,0.010765143,0.029000208,0.0045864065,0.10939929,0.028845266,0.034040563,0.018107366,0.009679231,-0.0071556903,-0.00091243343,-0.014136598,0.005179174,0.15921398,-0.008992852,-0.024051135,-0.053424224,-0.026992043,0.0032080659,-0.093889944,-0.017721156,-0.019177733,-0.0071274876,-0.052954867,-0.04435707,0.00087370246,-0.09923875,-0.10700993,-0.077289425,0.16311513,-0.01972285,0.052858427,-0.010174298,-0.09248455,0.1323049,-0.022757735,0.03862465,0.03290349,-0.061730158,0.08469385,0.0071574,-0.04795453,-0.024797538,-0.008414587,-0.036711313,-0.027923927,0.023803199,-0.095927306,-0.025536446,0.0146927275,-0.04856577,-0.06739653,0.29031762,-0.020744665,0.03763447,0.0070932135,0.032284502,0.013846491,-0.025207462,0.0075821076,0.037596848,0.00024148142,-0.016267344,0.020201284,-0.015178497,0.035477377,-0.023829527,0.0107152555,-0.04701813,-0.080653474,0.029526846,-0.039883092,-0.08226116,-0.097274706,-0.03126688,-0.036314514,-0.005107974,0.0051996247,0.014440345,0.038767498,-0.0019298381,0.0070088115,-0.04261075,0.018816914,0.017443813,0.062405713,-0.015341855,-0.009690062,-0.006344721,-0.006102256,-0.014573881,-0.01263821,0.024533,0.16076778,-0.09202749,0.00023831091,0.17412496,-0.04088395,-0.013789369,-0.0081210155,-0.09253887,-0.024549207,0.14148353,-0.034558855,-0.018056469,0.052195735,0.029841566,-0.06457845,-0.024019532,0.06266025,-0.0439345,-0.030371998,-0.13621916,-0.061730746,0.011013945,0.03620396,-0.03490991,-0.016543662,0.05690184,-0.008972601,-0.026089694,-0.04363465,-0.049644023,-0.011818742,-0.017471654,-0.04336851,-0.08932256,0.012057607,0.011897168,-0.038554758,-0.03904708,0.06391328,0.014816449,-0.028543968,0.08060423,0.020439921,0.0066865287,-0.0427211,-0.049936708,-0.0009810439,-0.01091196,-0.00044770964,0.015548552,-0.034353025,-0.027698578,0.014419506,0.0429936,-0.07144189,-0.07690222,-0.03242233,0.15445113,-0.010527012,-0.04787161,-0.0076702684,-0.070090815,0.06805602,-0.05615767,-0.023119325,0.2919676,0.00850351,-0.11389372,-0.029495565,-0.04449704,0.059915464,-0.04485582,0.04260208,-0.085222706,-0.002855791,-0.057921465,0.07746528,0.020772172,-0.05875667,-0.013433093,-0.02226456,-0.01595471,0.03821272,-0.025244294,0.055073213,-0.026597284,-0.0065882835,0.039991125,-0.041781425,-0.023930278,-0.0013347655,-0.004533739,-0.005095621,-0.00770554,-0.011576917,-0.004084914,-0.002626398,0.013347261,-0.051780157,-0.05673521,-0.0006404909,-0.03569965,-0.098942876,0.1007369,-0.024230495,-0.001726124,-0.032840792,-0.010596759,-0.02087139,-0.014482585,0.035730407,0.00836422,-0.021934677,-0.014281407,-0.01148615,-0.03352792,-0.059391268,-0.0015827803,-0.01016814,-0.057233274,0.010270878,0.014550601,-0.026380314,-0.047991987,-0.029112455,-0.03443268,-0.03104338,-0.12663212,-0.04530969,0.05185416,-0.11695017,-0.08791899,-0.02543855,-0.008158733,-0.039342664,-0.058614235,0.02195857,0.009201962,-0.03619004,-0.029455319,0.0019718185,-0.0008146121,0.003712347,-0.012438866,-0.08502729,-0.07521439,-0.06766503,0.0010530357,0.17892268,-0.02134062,-0.0407875,0.0010120593,-0.05641137,-0.022674711,-0.07381151,-0.095437184,-0.039813206,-0.014459126,-0.023269309,0.047642265,-0.014427244,0.027390959,-0.048888654,0.11943399,-0.08760655,-0.091201596,0.014796147,-0.11842496,-0.037012585,-0.041764546,-0.0019576254,-0.01168338,-0.020752314,-0.084105566,-0.01662429,0.009810599,-0.02757195,-0.025793336,0.077668026,0.06288053,0.019998811,0.0728708,0.018139409,0.024507098,-0.012430337,0.0034768272,0.03531755,0.02991743,0.0019536025,0.00039119684,-0.0011342444,-0.0029166958,-0.009783956,0.005110352,-0.0038421727,-0.014485477,0.008752293,0.0037914566,-0.090499446,-0.05940315,0.0019499811,-0.013694118,-0.11408571,-0.073087886,-0.06076863,-0.050788037,-0.054523997,-0.014230463,-0.0295995,-0.0776108,-0.13579635,0.029380634,-0.040243786,-0.0956094,-0.041950658,0.01704277,-0.004786165,-0.01377451,-0.0075902576,0.0143659245,-0.009373031,0.012919164,0.022289686,0.0006805223,-0.00899472,0.11921436,-0.03857323,0.058362465,0.0178763,-0.08895443,-0.101029426,-0.031036235,-0.019716144,0.05110774,-0.012749361,-0.011263828,-0.02775962,0.011558768,0.01562666,0.031263214,-0.01811641,0.0006626172,0.03500806,0.0037728744,-0.028298348,0.030190583,-0.06962674,-0.07998956,0.13556954,0.03674405,0.020948034,-0.033638343,-0.014706001,0.011731588,-0.013266572,-0.00017233552,0.011993746,0.03066318,-0.009529125,-0.014477494,-0.041271385,-0.067438856,-0.03093752,-0.00801349,-0.05196468,-0.09498033,-0.03630711,0.006144891,-0.023120716,-0.0118308375,-0.01138025,0.075999096,-0.0044150855,-0.016306514,-0.0025675285,-0.009272992,0.016623534,0.0055797184
-0.03803854,0.004454344,0.016833251,-0.011030162,0.01716458,-0.009096987,-0.04745367,-0.17023899,-0.045946285,-0.07976157,0.02158827,0.043844014,-0.03463041,-0.013470588,0.047730777,-0.048437238,0.0067424877,-0.03985423,0.03387653,-0.0394563,-0.07792351,0.058848586,0.27376172,-0.046269447,0.09410861,-0.04428632,0.025935128,-0.02160256,0.058254935,0.03073112,0.008266818,-0.013492233,-0.033153847,-0.023240704,-0.025551854,-0.040077634,0.026861992,0.017393002,0.014559984,0.016609645,0.071038164,0.0025265492,0.011370592,-0.03336895,0.036905218,-0.04141585,-0.04611487,-0.03321213,0.0020859598,-0.040118314,-0.03705835,0.0029333571,0.012575089,0.040708527,0.0074134613,0.008973814,-0.032795414,0.009736426,0.046117727,-0.013037494,-0.08074927,0.001558005,-0.021943517,-0.05006957,-0.023975356,-0.02306328,-0.023882022,-0.034130253,0.019005058,0.021838736,0.0028560385,0.040104736,-0.026633086,-0.024649486,-0.09041483,0.008795208,-0.034845345,0.040873434,-0.082396775,0.014397074,-0.08022881,0.030516718,-0.0013830526,-0.003127287,-0.036401622,0.016158836,0.09958914,-0.06502317,-0.030262345,0.0017902352,-0.040774144,-0.011346159,0.037926108,0.046008606,-0.086971305,0.08195138,0.043536756,0.023913996,-0.03308447,0.035905976,-0.079697855,0.007324377,-0.037715375,0.0595777,0.036919717,-0.050881356,-0.020650895,0.020789912,0.0056538787,0.002861596,-0.059926566,-0.067637116,0.16084003,0.023870412,0.1571508,0.005873446,-0.08514332,-0.06180624,0.107886836,-0.024027467,0.32299542,-0.02937945,-0.027501764,-0.0023246633,-0.0291868,-0.0051880335,0.036412243,0.009805683,0.033529297,-0.0007073328,0.00983793,0.019795097,0.008328626,-0.003369249,-0.0044373935,0.015690103,0.019343669,0.028166179,-0.038529404,0.02239235,-0.00511403,-0.059996206,0.037830595,-0.0058476827,0.039975077,0.013788694,0.069401205,0.012093375,0.08352995,0.061378967,-0.05237088,0.022322534,0.034947284,-0.026527002,0.026735859,0.029258275,0.0046611754,0.014649929,-0.011276664,0.04126381,-0.033947524,-0.0023375168,-0.0038087103,0.018912245,-0.03723941,-0.04778744,0.045413688,-0.012335628,0.007902864,-0.055133477,0.05087714,-0.01525083,0.034574594,-0.029932223,-0.009622321,-0.15122576,-0.007938204,-0.058809083,-0.09676437,0.054364786,0.0049734185,-0.061107192,0.042720474,-0.011243543,-0.00024196398,0.01932319,0.0075812535,-0.020346714,0.007995934,-0.097002596,-0.09140311,-0.07444003,-0.03342767,0.018076299,0.06268777,-0.026811391,-0.09915041,-0.0060455804,0.019497573,-0.040543027,0.0032468773,0.07026815,-0.05646691,-0.05189911,-0.07119801,-0.019279458,0.027093614,0.0034421366,0.016837623,0.041664537,0.07148811,0.038091816,0.04436845,0.03920964,-0.026737286,0.07321323,-0.017429192,-0.014851075,0.09778769,0.01306998,-0.008402705,-0.042182524,-0.03507238,-0.08173833,-0.08739337,0.046683725,0.028605763,0.031117879,-0.029024504,-0.063305214,-0.083345875,-0.124616496,-0.15225591,0.033711303,-0.04111501,-0.04669212,-0.036877472,-0.019147785,-0.07650604,0.083152086,-0.07109917,0.1485668,0.13380261,0.05219235,-0.05022742,-0.02649881,-0.013277696,0.05186777,-0.03382122,-0.09089164,0.12139549,0.048625257,-0.07508517,-0.003460153,0.056609,0.005546626,0.03360563,0.01140801,0.050103415,-0.012895659,-0.025291447,0.00081268843,0.0073807784,-0.013991164,-0.041703288,0.019814458,0.010397322,-0.07278145,-0.0060268533,0.005134691,-0.021272039,0.04787844,0.026346426,0.017727377,0.09582715,0.043683954,0.0068133506,-0.08561521,-0.014708578,-0.06590282,0.046061832,-0.0035906916,0.15574291,0.15999155,0.016967064,0.09887638,-0.054579422,-0.023742018,-0.00074141833,0.030697579,0.029031476,-0.050444804,-0.00041615614,0.07851453,-0.026844047,-0.031734403,-0.034525312,-0.009809954,-0.17281795,-0.02371633,0.025533048,0.3370228,-0.0030875944,-0.01128585,-0.024043031,-0.02953581,-0.025580643,-0.08614781,0.0075488365,0.1885339,0.010796843,-0.041389152,-0.06911484,-0.065847665,-0.010744426,-0.102106616,0.041434046,-0.061903387,0.046885815,-0.114807084,0.11254392,-0.06417949,0.014400024,0.008321673,0.031714957,-0.15220363,0.030900083,0.0583938,-0.16310875,-0.014375864,-0.111208454,-0.029632771,-0.018381447,-0.0040204753,0.06774803,0.06902092,-0.06399232,-0.0367115,0.03955247,-0.04952603,-0.009875129,0.0037687826,0.029483506,0.0352024,0.009047372,0.015931752,0.022894029,0.0062078666,-0.009918786,-0.041205183,-0.045273606,0.0037664557,-0.060814347,-0.02521812,-0.08583493,0.10323963,-0.0007942205,0.13251986,-0.05187135,-0.024782667,-0.008181195,0.019765789,0.06484121,0.31393492,-0.003262754,-0.10820775,-0.075265065,0.049560145,-0.06929849,-0.020380825,-0.021919478,0.08935877,0.031604752,-0.038302816,0.009601761,0.02015695,-0.0047285715,0.023661427,-0.02682555,0.042746942,0.034096967,0.021574715,0.035002287,-0.039142303,-0.039093573,0.018848443,-0.026023427,-0.04034887,-0.0044455603,-0.0038064313,-0.010819486,-0.014063469,-0.007634926,-0.013744285,0.0017317521,0.0124985855,-0.081538655,0.030442351,0.009845817,-0.035582867,-0.007424462,-0.04618847,-0.016179934,0.009077485,0.05316556,-0.0062907687,-0.023821669,-0.02571605,-0.027851526,-0.03781334,-0.05024786,-0.026424041,0.024377378,-0.044118613,0.044513535,0.044058796,0.046784006,-0.01214843,0.021637382,0.013048891,-0.03515892,-0.05336044,-0.0056920927,-0.07043873,0.0013635118,0.013578972,-0.027216552,-0.025452312,-0.027088678,-0.06725692,-0.06027287,0.035486158,-0.048118006,-0.016278416,-0.00019241784,0.043801527,0.009231166,0.04995195,-0.016806858,0.04542066,0.015125115,0.083306275,-0.09662373,-0.026068956,-0.037384752,0.06863485,-0.012279034,-0.003452013,0.034576766,-0.015058165,-0.07104565,-0.058792636,-0.052886613,-0.092733845,-0.057252884,0.091633774,0.0036546877,-0.0450913,0.020885037,-0.044531528,-0.05729663,-0.015286639,-0.012935007,0.16480291,-0.036839623,0.052478552,-0.054373574,-0.028083457,-0.04986291,-0.06649306,-0.015879389,-0.08476762,-0.031853285,0.023476534,-0.027472455,-0.0031840887,-0.0062934617,-0.03930933,-0.03292628,0.027262744,0.008781361,0.046507813,0.006517285,-0.0032181945,-0.017811147,0.05730748,-0.0020967352,0.015606766,-0.010229133,0.0061827395,-0.024336703,-0.026522541,-0.01293805,-0.054962877,-0.0073861033,0.03253259,-0.061882332,0.014124499,-0.08299585,0.07107876,-0.10428689,-0.104089946,-0.04995959,-0.023835085,-0.12920584,0.0652152,0.109864876,0.031857412,0.049255498,-0.05098243,-0.033867233,0.011356832,-0.035401374,-0.02315207,-0.050674394,0.07950362,-0.034974765,0.028385695,-0.039691135,-0.05277591,-0.024483915,0.028850785,-0.026665162,0.048866116,-0.019247483,0.26373532,-0.093779,-0.07056607,-0.14406537,-0.070925005,-0.07759946,-0.023037054,-0.02297561,-0.0200476,-0.023686845,-0.044096258,0.10652799,-0.044477757,-0.02047949,-0.054448567,-0.015669327,0.043618575,-0.014589178,-0.096853256,0.021338232,-0.08061189,0.31221575,-0.029958405,0.096709594,0.009919773,-0.065087855,-0.07030035,0.038570944,-0.02713444,0.011810723,-0.050304193,0.10581624,-0.08495944,0.012041602,-0.0053508077,-0.024247458,-0.029123299,-0.13672285,0.025784245,-0.043210097,0.0068888366,-0.04541771,-0.019982968,0.00014233912,-0.0148849,0.030853175,-0.007939338,0.0252542,-0.003040447,-0.012481585,-0.009969499
-5.259144e-11,6.5829845e-08,3.553008e-10,3.110086e-07,1.0227595e-10,6.6963254e-11,1.840046e-12,4.4565987e-10,2.4136822e-08,-3.2111958e-09,3.7418492e-11,1.2320538e-09,-3.3553933e-09,-1.0711004e-09,-2.2824367e-11,-2.0889514e-11,-2.581073e-09,-1.9608806e-10,-7.89249e-07,5.7798815e-07,2.389054e-10,4.3999387e-12,-5.4060045e-11,-7.2666026e-08,8.2400985e-14,1.5678071e-06,5.7430515e-11,-2.0021685e-20,-2.5836424e-20,-7.425358e-30,-5.059357e-21,-6.790851e-22,-3.787277e-29,-9.5714355e-24,-3.4275575e-25,-4.4414335e-33,1.121329e-05,0.00031268425,0.0010620557,-0.0005170864,-5.2762254e-05,0.0003095475,-0.00064230576,-0.00027795532,-2.1754278e-05,-2.7988297e-11,-1.7701106e-11,1.140472e-15,-2.8629093e-12,-1.6181983e-13,-8.4836406e-16,-1.1973292e-18,-4.1614925e-16,-1.3996192e-20,-1.0195474e-11,-1.1022354e-11,-3.37428e-16,-4.9989716e-14,-8.1886677e-16,-6.756124e-22,1.0817989e-17,-1.2500328e-23,-1.2936393e-25,9.5072415e-14,4.978399e-09,2.793654e-11,3.9328803e-15,7.328211e-12,2.0051273e-10,7.252683e-13,1.120073e-09,1.0354175e-09,6.369098e-09,-6.000701e-08,-6.15695e-08,1.3839023e-10,3.1669085e-08,1.6265026e-06,1.0463158e-10,4.1761586e-10,4.0908543e-09,-9.872164e-08,-3.3201832e-08,1.9672644e-08,-1.4014009e-06,-7.2922035e-07,-3.419581e-08,-1.0060595e-07,-2.0845903e-08,-3.4468244e-09,1.1300933e-18,1.865173e-18,1.6924013e-17,-1.927217e-21,-1.01603945e-19,7.1683796e-17,-5.922561e-17,-1.2372595e-20,3.6761365e-13,-2.2333396e-07,-7.708181e-08,-1.5913222e-09,6.638372e-11,-5.9082676e-13,-2.0696957e-10,7.475051e-12,5.051637e-10,-7.1093836e-13,-3.8541106e-07,5.581695e-10,6.9510505e-13,-3.75909e-11,-6.7549627e-10,-1.15731355e-10,-4.568343e-13,2.8747917e-09,-2.080603e-15,-1.316835e-07,-8.707099e-11,-5.041838e-11,-2.234991e-10,-2.4963123e-10,-1.8065117e-10,-1.439141e-14,-1.2220491e-13,-3.8171838e-14,-3.691938e-39,-3.08273e-40,-5.761852e-39,-1.847307e-39,-3.601152e-39,-2.608776e-39,2.41152e-40,-4.989257e-39,1.269408e-39,2.6441477e-13,-2.269111e-12,-3.302747e-12,1.4230926e-14,2.362909e-16,-5.020684e-20,1.530721e-12,1.4383178e-20,-4.084442e-23,-3.1481227e-15,-1.1934922e-14,-1.6908047e-17,-3.3955007e-18,-1.3873017e-15,-1.6386312e-16,-2.6820898e-17,-5.6581754e-15,-2.070559e-18,-0.0003691073,-2.6543792e-05,0.00026653399,-0.0003520632,-0.0003109306,-6.1401456e-06,-0.00021495146,-7.442367e-05,-3.067045e-05,2.1561107e-10,2.363421e-10,4.417791e-14,3.5704783e-14,2.7688893e-12,3.6631515e-14,9.976737e-09,2.0505226e-14,-2.7217362e-15,2.4166125e-17,-2.2689081e-24,-1.0994211e-13,9.1318245e-20,1.4984533e-14,-2.780238e-23,8.7918985e-20,8.729872e-18,-9.584756e-25,8.926121e-28,2.7828413e-30,-3.2870426e-20,-7.951822e-23,-1.9171736e-26,-1.1240521e-18,9.5855746e-26,-1.0993637e-24,-6.307325e-20,1.6445654e-08,1.2974518e-08,1.2929739e-07,6.4091786e-08,2.5592851e-06,3.03516e-07,2.483287e-08,2.0135433e-08,5.978701e-07,-3.3599836e-08,-1.960396e-05,-1.4184283e-07,4.085254e-06,-5.264202e-07,-6.881431e-11,-6.4104924e-12,-7.0736985e-09,-1.8607322e-11,2.249878e-19,7.1497045e-23,-2.6960404e-25,-2.2919871e-32,-3.0134515e-19,-1.9601583e-20,-2.0447727e-21,-3.037038e-29,-8.298113e-26,1.2762201e-14,1.9934616e-12,-2.868343e-20,1.3992856e-15,5.6139643e-10,-9.783582e-15,2.0239404e-18,1.8717651e-13,3.696554e-20,5.7589896e-12,4.2558637e-09,4.028863e-11,9.0043017e-07,3.8113965e-16,9.04689e-18,2.3936363e-12,3.911573e-12,2.7063495e-14,-8.040685e-11,-1.5340859e-06,-6.199143e-10,3.1886852e-06,1.6043745e-09,-1.8168112e-08,8.888546e-11,-2.9288609e-07,6.7007283e-10,-3.017383e-06,-6.625829e-07,-1.0635746e-05,-1.0111549e-08,-1.1362482e-06,-3.763803e-07,-1.6408218e-10,-2.6636018e-08,-2.3004509e-07,3.4526505e-07,1.0439976e-07,-7.417365e-10,-1.1902116e-08,-2.4534705e-07,-4.5321685e-10,1.0736258e-07,8.6100144e-10,1.0969089e-10,-1.115887e-14,-4.7859136e-15,3.350975e-17,-4.5579787e-10,-3.0437312e-14,-1.0035884e-15,-9.6108574e-17,-6.869831e-17,-2.6338008e-16,1.2552475e-06,1.7807623e-06,-7.6283485e-10,-6.5895144e-08,-6.742318e-07,8.7708395e-07,7.19584e-07,5.3898184e-05,3.928469e-12,-1.1402788e-06,-3.603896e-07,-2.4121272e-08,-1.07870886e-08,-2.1888732e-07,-4.9239883e-08,-8.238187e-09,-4.0627217e-08,-3.519297e-09,4.3753445e-11,6.140533e-12,1.01476e-12,-2.7147302e-15,-9.655044e-08,1.3173232e-12,2.0930237e-15,2.3976257e-10,-3.121998e-13,1.6010998e-10,-1.0315433e-08,-2.0831037e-09,1.8496486e-11,6.0160867e-15,-2.9317799e-15,1.3506994e-14,1.3673772e-10,1.910827e-15,6.1407866e-07,-2.8767037e-08,-3.0287669e-07,-3.659688e-13,-5.838739e-09,-1.9540129e-13,2.0565597e-13,1.6064201e-09,6.9996095e-20,-2.7817733e-09,-0.00013270343,-8.460568e-06,8.802695e-05,-6.78122e-10,-1.0003746e-08,7.8660935e-07,-1.1940666e-08,3.933654e-07,5.101584e-06,-6.2557155e-09,-4.5050738e-18,-2.996847e-11,-3.799683e-07,-2.6720942e-08,9.047278e-12,2.7969836e-07,4.1767266e-14,6.9934115e-36,-1.4969399e-25,-1.4507233e-32,6.414253e-39,3.341152e-39,4.010816e-39,6.376922e-25,-2.26011e-40,1.556666e-39,1.5560614e-11,5.3398827e-13,6.387161e-10,3.6230426e-12,1.879765e-09,1.0057737e-07,8.526493e-11,1.0357769e-08,5.1762354e-13,-1.3051017e-07,-8.48245e-14,1.0499131e-15,1.4834295e-09,4.5120377e-13,-8.69034e-14,-2.503915e-17,1.5467384e-10,8.924995e-16,-2.1871305e-11,-3.6778106e-10,-2.0534768e-15,-3.3789338e-08,-3.0211982e-08,-2.0243878e-12,3.6207603e-06,3.1898517e-09,2.4194845e-18,2.1192929e-07,1.4478096e-09,5.678597e-09,-7.5768347e-10,1.6223119e-07,5.7726506e-08,2.2802475e-10,1.6535799e-08,6.954373e-10,-4.041554e-11,-3.7861142e-10,-9.3071336e-14,1.5069895e-10,-6.94659e-11,-8.084112e-09,6.913259e-14,-4.356925e-11,-1.07073794e-13,-2.718445e-38,3.723331e-30,-2.1187409e-34,1.1590694e-29,-3.4012345e-22,2.2138228e-30,-4.3840508e-36,-1.7884887e-37,-6.504524e-38,1.1614419e-06,4.3158966e-11,-1.6345115e-12,-1.7139348e-17,-2.1263035e-11,-5.975979e-12,4.5311806e-12,2.20662e-12,-2.8082668e-16,-9.023392e-10,-8.332822e-13,1.7483824e-15,-7.431246e-15,-9.162299e-12,-3.9673406e-08,-4.380551e-12,-2.94601e-17,-1.5373848e-15,-3.4698598e-19,-4.1726075e-15,-4.784038e-19,-1.4734594e-21,-2.1830374e-19,-3.812116e-17,-3.2698151e-25,-3.7640156e-22,-9.8323816e-17,-2.2767903e-12,-5.942409e-08,-3.1381428e-06,3.413463e-08,1.36159915e-05,6.591797e-08,2.8202185e-09,1.4743087e-10,-1.8109873e-10,-4.3547805e-09,-9.035794e-11,-2.0690703e-15,2.380805e-10,1.5365027e-09,1.7077954e-10,8.2683094e-08,2.0077109e-09,6.1973206e-14,1.5150184e-06,4.3270398e-10,1.8985421e-08,-4.7998356e-09,6.878605e-07,-9.928416e-09,1.2941244e-05,1.8969993e-12,-9.622128e-13,-4.3393305e-16,-5.527603e-09,1.21915e-11,2.6286511e-11,-1.7403968e-15,-2.2171877e-17,3.6955078e-15,-1.4670332e-15,-5.3187627e-18,6.3157377e-06,7.505734e-06,-2.5399642e-09,8.9127965e-08,-9.792092e-09,5.0308695e-09,2.6480695e-08,6.7550917e-07,1.3995683e-06,-2.6703395e-20,-2.4160535e-15,-1.5640723e-14,-2.3625565e-14,-6.2196624e-12,-2.0504601e-14,-5.6380287e-18,-5.711677e-17,-2.1911336e-15,1.5838915e-34,-3.669943e-39,-8.603479e-35,1.223352e-37,-2.6484505e-32,1.5141214e-37,-1.057175e-39,2.381462e-39,2.4621e-40,3.3542363e-23,2.5808227e-24,1.085146e-26,3.1430388e-20,8.637065e-18,1.2771815e-20,2.623858e-34,1.0260854e-26,5.327819e-17,6.2637714e-11,7.0292253e-12,4.44729e-07,4.244216e-09,4.708011e-07,9.445812e-10,3.1799166e-07,1.1968632e-14,1.525046e-11,-9.627721e-08,-0.00022838662,-6.395041e-07,4.0922655e-06,2.308643e-09,-1.5227586e-08,5.828396e-09,-2.528354e-09,4.6540267e-06,3.383654e-10,4.7567443e-11,1.4153853e-14,1.3219365e-16,2.7083464e-11,3.1941953e-12,7.1072695e-17,4.357319e-10,4.945623e-12,1.2964261e-08,-7.7574047e-10,-3.5841073e-15,2.5492335e-09,5.8782965e-09,-8.58154e-12,5.776897e-14,5.0010623e-08,2.0288493e-11,-3.80878e-23,-1.02241105e-13,2.4810225e-09,8.173196e-12,7.8821125e-15,-1.6478602e-14,8.035846e-21,4.304022e-20,-1.7310976e-15,-5.2799664e-06,-1.0671809e-08,-1.5694916e-09,4.899963e-09,-6.8505346e-10,-8.860343e-11,-2.1815938e-11,2.171111e-09,-2.3799289e-11,5.5231613e-08,1.2658386e-13,5.340764e-09,7.42817e-09,6.776823e-08,1.6533713e-08,5.738659e-07,1.4893479e-06,2.50042e-07,4.137779e-08,-3.686251e-07,-1.7061135e-11,-4.726521e-13,-3.5409317e-12,-8.955035e-16,7.3076246e-17,-2.1390216e-15,-3.9972697e-19,4.297666e-39,1.0759348e-35,-1.2862e-40,2.156835e-39,-1.690392e-39,8.87662e-40,-2.212163e-39,5.114933e-39,-1.103565e-39
0.01354096,-0.026895208,-0.075807996,-0.027407553,-0.056229033,-0.054549213,-0.028654568,-0.062769786,-0.04910423,0.008707739,0.014752856,-0.01530942,-0.028888674,-0.07105294,-0.04842046,0.030084379,-0.03320809,-0.060675886,0.08156782,-0.0002029207,-0.14811598,-0.0044140313,-0.034695994,-0.05846915,0.14012608,0.025988674,0.018864555,-0.02024359,0.012555113,-0.0035842208,-0.019488484,0.03949319,0.021698534,-0.007532605,-0.0019169117,-0.023510775,-0.0353212,0.053342085,0.032121673,-0.009275962,0.0757852,0.0270848,-0.028867234,0.043807074,0.03980908,0.013548421,0.022708071,0.018211465,0.0011556549,0.00693445,0.017624637,0.014470287,0.016925288,0.04460968,0.0045026345,0.006435535,0.0060564787,-0.017090691,-0.03755469,-0.012383296,-0.015290085,0.007816218,0.023765696,-0.05322209,-0.061290007,-0.04282702,-0.066921055,-0.06211966,-0.025658539,-0.06931297,-0.066153996,-0.0006998668,-0.017142754,-0.018249923,-0.05539255,0.09538971,-0.07568457,-0.01239014,0.05524955,-0.10953843,-0.07242708,0.034799494,0.039618384,0.0068734507,-0.030032646,0.15902504,0.004180648,-0.010499241,-0.01962413,0.028161358,-0.00037951575,-0.011022791,-0.0051711183,0.017975125,-0.023162857,0.06748681,-0.0034292997,-0.040459655,0.02920883,-0.02874502,-0.0077963844,-0.015314792,-0.035764612,0.09882059,0.021979114,-0.03673529,0.041784123,-0.027961949,0.0017746489,-0.05413307,-0.08102754,0.09149997,-0.03777297,-0.05027746,0.058276184,0.024946844,-0.045501262,0.0058057215,0.034274615,-0.022728376,0.004398935,0.060547095,0.010989704,0.12094435,0.015863748,0.0014596753,0.0045489753,-0.0012498401,0.00033913497,0.037382606,0.014900056,0.00017903841,-0.0003141911,0.00035802615,0.0016554324,-0.015864577,-0.048043434,-0.022320278,-0.026243,-0.00473534,0.055840015,0.0106510315,-0.053331047,-0.0035523856,0.050530415,0.037946172,0.05152452,0.054671366,0.044049624,-0.016161866,0.033885796,0.017519109,0.036176294,-0.0032194934,0.010002558,0.011202558,-0.042624578,0.05088068,0.036438517,0.010002596,0.00062842603,-0.031203017,-0.027455118,-0.049615394,0.0028914502,-0.07187262,-0.04603961,0.117681414,0.0013823219,-0.029321693,0.037450764,-0.020859925,0.045600265,-0.02731936,0.025301192,0.078156516,0.023522407,-0.013244986,-0.016196612,-0.058083028,-0.018615397,-0.031299174,-0.01025074,-0.025010629,0.003254142,0.001362176,0.0043366766,0.00357318,0.0039305054,-0.04350296,-0.046993446,-0.09955185,0.034230273,-0.04194799,-0.008317642,-0.05195854,-0.033493415,-0.06625067,-0.055688743,-0.008386317,0.015806943,-0.025726201,0.0229058,-0.021608915,0.0023595446,0.0070301513,0.07202253,0.013035148,-0.004381595,0.012562198,0.020335266,0.031174492,-0.0032900884,0.011006398,0.008150168,-0.0027393275,0.014560619,-0.027007932,-0.011190008,-0.011934865,-0.03301973,0.008002603,0.013906122,0.01810581,-0.028700225,0.005243629,0.041088372,-0.02140859,-0.043573692,-0.022719737,-0.046371937,-0.023922145,-0.017414562,0.003867126,-0.08367133,-0.046437718,-0.09053847,0.22059587,0.008586584,0.01952691,-0.013969467,0.024965592,-0.00882913,-0.052748397,0.025184555,0.10252362,-0.013179405,0.060665496,-0.031669524,-0.018539876,0.19016077,-0.034419917,-0.09889893,-0.02498838,-0.018057656,-0.12575616,-0.051082756,0.2585024,0.051151693,-0.059199378,0.047948703,0.037685603,-0.0035665967,-0.008716435,-0.015495314,-0.0035528652,-0.0129762795,-0.023867624,0.015956668,0.013610518,0.0698806,-0.06294963,-0.117704764,-0.05964126,-0.06381382,0.013700527,0.037906,-0.03125508,0.028724007,0.095308736,-0.0063570393,-0.033666957,0.02357429,-0.027893947,-0.00877231,0.035715573,-0.028839981,0.0014341391,0.0020240087,-0.037300646,-0.0026167482,-0.017670555,0.028608013,0.08609659,-0.039542805,-0.03204199,-0.020360654,-0.018461563,-0.02874687,0.09332617,-0.03585426,-0.02698021,-0.003976732,-0.087448806,0.17394264,-0.0061516827,-0.04889303,0.06936407,-0.070544526,-0.07123673,0.007145018,-0.026640693,-0.045988925,0.0011531836,0.109083466,-0.09951501,-0.07606454,-0.0015852028,-0.09474636,-0.18235147,-0.06983556,-0.05485845,0.07313419,0.31435123,-0.0793443,-0.05315421,0.00041686365,-0.062180277,-0.0607897,0.09346752,-0.07840612,-0.028985366,0.06131161,-0.027526889,0.009712064,-0.013009264,-0.016720189,0.08517411,0.06445801,0.02691573,0.081918426,0.092837475,-0.025771707,0.017364973,0.012011171,-0.012627459,-0.040820587,-0.023568796,-0.06051853,-0.01547015,-0.0032123553,0.046137217,-0.026687162,-0.019424459,-0.017126229,-0.018126057,-0.06817603,0.0012205207,0.02388258,-0.033887785,-0.0061275833,0.03292323,-0.021690685,0.054631766,0.0059062107,-0.070837595,-0.026335705,0.013840087,0.023970934,-0.046027385,-0.07695827,-0.06760834,0.034170583,0.05867229,0.027840154,0.029281525,0.054628745,-0.0074600293,-0.078983665,-0.0037290887,-0.02779259,-0.045489546,-0.004244876,0.057939738,-0.05011859,-0.033080433,-0.05647434,0.0044594584,-0.019933492,-0.0036686137,-0.0064394097,-0.0046787746,0.00317035,-0.0027784593,-0.0020191923,-0.0032293187,-0.055350196,-0.10382989,-0.055214856,-0.093596645,-0.05808063,0.07941493,0.044950385,0.002275084,-0.013115719,0.042200882,0.045134403,-0.013965124,-0.027387211,0.0076706656,-0.012548644,-0.0053347372,0.021448215,-0.04883954,-0.0047972174,0.001417378,0.013839514,0.0012291332,-0.027909433,0.00094480964,-0.05603781,-0.042872436,-0.010318393,-0.06968588,0.009048255,0.07003969,0.0030005628,-0.0064094868,0.013549335,-0.10620195,-0.10679343,-0.023445848,0.028859757,-0.073312566,-0.0038059377,-0.052671053,-0.032488927,-0.021182392,0.013652847,-0.07621052,-0.008325546,-0.053253546,-0.08111984,-0.031047907,-0.0557002,-0.057158474,0.040861458,0.009301103,0.001292106,0.02690922,-0.034772716,-0.03559891,-0.006686788,0.04563383,-0.036394168,0.027150406,-0.020651873,-0.06922565,-0.026509618,0.018460512,-0.06146219,-0.030119441,-0.008422185,-0.08993841,-0.072454214,-0.07012516,-0.09259635,-0.023635976,-0.03367289,-0.041175548,0.031049175,-0.0010581668,0.005003187,-0.014598622,-0.024067355,-0.019573586,0.032149415,0.004762715,0.0030275993,0.034117706,0.012629339,0.009349253,0.0204429,0.03269546,0.025464019,-0.01446699,-0.018692903,-0.0047550667,-0.01615075,-0.009183621,-0.001976444,-0.012868335,-0.007197418,-0.013922891,-0.012272374,-0.003865711,-0.08126711,-0.078490205,-0.022562206,0.005311726,-0.028313901,-0.060412332,-0.030073805,0.07435919,-0.071669675,-0.045998633,0.035340995,0.038454443,-0.05465148,-0.06584354,-0.029215332,0.12281946,0.0124427825,-0.0063070627,-0.016564438,-0.033179794,-0.01629226,0.023810858,-0.0077564707,-0.040444598,-0.011358813,0.007797121,-0.029705342,0.06339009,-0.04059883,0.00039663713,-0.097300455,-0.019563667,-0.08618292,-0.024270082,-0.012329149,0.00410501,-0.039470084,0.03209251,-0.028507236,-0.03166328,0.040457733,0.0039541884,-0.027353551,0.009668313,0.0055035898,-0.015891898,-0.01322691,0.012336302,0.05237185,-0.0121818315,0.07034209,0.039821148,-0.024396809,-0.030722765,-0.0075253164,-0.027226074,0.109984815,-0.052138682,-0.004812843,0.016091345,-0.04787262,-0.05320264,-0.013430937,-0.014702514,-0.014057494,-0.048224397,-0.04269651,-0.011041184,0.011302088,0.008123922,0.019110288,-0.00069374987,-0.0042976066,-0.001740863,-0.018909082,0.00044114172,0.03890636,-0.004955543,-0.004485432,-0.007355288
-0.10820401,0.37508827,-0.033564065,-0.031117862,0.08502294,-0.019189036,0.012232064,-0.032546297,-0.04683897,-0.032440905,0.048358925,-0.01615104,-0.0694871,0.028206537,-0.020694083,-0.014917417,-0.0204849,-0.0078101954,-0.030981466,-0.014234755,0.06383486,0.049295828,-0.055971768,0.016036091,-0.072586045,-0.1308904,-0.01286206,-0.0018838432,-0.02689502,-0.02852816,0.06355413,-0.019784924,0.009716146,-0.0032901156,-0.025347361,-0.0048429505,0.009337126,-0.0053506303,-0.06569689,-0.030307764,0.0051037935,0.028449355,-0.054213334,-0.07088316,-0.046895117,-0.018068459,-0.045358896,-0.019839082,-0.018143645,-0.0065471916,-0.032797422,9.815794e-05,-0.017666146,-0.004025242,0.0011560189,-0.005507449,-0.051784664,-0.03468435,-0.004398618,-0.002826238,-0.025558753,0.0008552829,0.016152894,-0.13056242,-0.017506873,-0.09206401,-0.06392928,-0.09910071,-0.013633867,-0.027715117,-0.021423345,0.03145,-0.03552087,-0.014643823,-0.05832039,-0.00962037,-0.021792972,-0.0077310745,-0.094740614,-0.052736707,-0.014958647,-0.059318613,0.0120398365,-0.0029557457,-0.0523891,0.003725646,0.017064415,-0.0016279587,-0.025431275,0.005071795,0.0011842207,-0.022390423,0.027682943,0.026664568,0.03498876,-0.03239858,0.0023036362,0.017245233,0.04613524,0.0112529,-0.029757557,-0.024977572,0.07261349,0.029184971,-0.057346184,-0.056658685,-0.02477113,-0.0023837094,-0.047697417,0.006967238,0.02579661,-0.0071757506,0.00023067123,0.059089877,-0.006403637,0.042213317,-0.00980103,-0.01167264,-0.018449713,0.06720399,0.006489517,-0.047202367,-0.022851793,-0.05958831,-0.032603968,0.008022642,0.0005252651,0.0012351614,0.00040724635,0.0032162056,-0.0013724737,0.006325811,0.0014478808,0.0024302956,0.004899008,0.107941635,-0.025783122,0.007835324,-0.008988835,0.0013440343,-0.006937988,-0.055531364,0.022164997,-0.003411624,0.03569061,0.037107654,0.012296556,-0.012800957,0.03524254,0.023176765,-0.018173164,0.025668658,0.03881893,-0.093886465,-0.07789276,0.061300345,-0.05312118,-0.07562736,-0.033686064,-0.08541281,0.040313568,-0.06550645,0.026640197,0.011174394,-0.002051153,0.08200452,0.1883503,-0.0101445615,-0.024386726,0.06564916,0.0055116955,-0.0175465,-0.021091335,0.041374646,-0.008116009,0.082843244,-0.07242655,-0.045905493,0.045784485,7.1810144e-05,-0.019156165,0.030697329,-0.016621703,-0.018886967,0.010662925,-0.024818545,0.0058018877,0.027049689,0.002115147,-0.04749552,-0.11709904,-0.109361134,0.0077838344,0.08519276,0.0125398645,-0.084293306,-0.07402512,-0.0031499115,-0.078300945,-0.016294733,-0.0479241,-0.072655246,0.056790188,0.002147096,-0.048379716,-0.025308428,-0.020002095,0.011385431,-0.0030708488,0.022832967,0.012272989,-0.018503046,0.016907353,0.008743282,-0.0021719737,0.011708962,-0.03684531,0.068945006,-0.003565938,-0.045148704,-0.03692137,-0.025175022,-0.027508141,0.0004450553,-0.02045723,-0.12818013,0.10255142,0.012562042,-0.022586724,0.022469359,-0.05389557,0.016232064,-0.04677676,-0.053313922,-0.037281197,-0.061167035,0.01758378,0.071591474,0.015290562,0.0086585535,0.009271517,-0.024294004,0.14174715,0.049401544,-0.016164014,-0.061482355,-0.046247177,0.052880082,-0.0794588,0.01899139,-0.074024,-0.03677933,-0.036888257,-0.014818474,-0.08841587,0.0070309965,0.024102956,-0.06320226,0.21112359,-0.015398074,0.031164685,-0.011952975,-0.0050893663,-0.010506341,-0.013304437,-0.018348932,0.010977818,0.00040891688,-0.026149364,0.021674491,-0.07176336,0.08284881,0.016517632,-0.05472345,-0.06644529,0.07285295,-0.055569436,-0.059319988,-0.016447667,-0.064658806,0.024153223,0.20021944,-0.027195064,-0.049266137,0.16263032,-0.06550032,0.05638331,-0.020923119,-0.035570066,-0.0751419,0.016385052,-0.050577123,-0.049920693,-0.004585398,-0.014701126,-0.027434325,-0.035851248,0.07951835,0.0048509664,-0.04585636,-0.025497839,-0.02678725,0.00997119,-0.04824897,0.029087992,0.052767973,-0.017285988,-0.03266853,-0.06876817,-0.03579032,0.061781276,0.031860888,0.06124315,0.049655996,0.0066159545,-0.1627522,-0.019056676,-0.095599994,0.06034739,0.06587332,-0.09334273,0.17991427,-0.070449606,0.0659449,0.0036593631,-0.019879423,0.0022008833,-0.0022114904,-0.04666632,-0.12781948,-0.0054682503,0.044081792,-0.012361913,0.0007584018,-0.021047583,-0.010908398,-0.011421348,0.030363292,-0.018490588,0.07208066,0.002955064,-0.029250687,0.08924862,-0.02835546,-0.02326564,-0.029517563,-0.004461585,0.0063985772,-0.015937505,-0.0042397194,-0.012252795,0.010510707,-0.022064544,0.053695604,0.0077468837,-0.00045347647,0.00011741715,-0.0040969057,0.021587444,0.0015691699,0.040182486,0.04762759,-0.07226999,-0.019213263,0.13635038,0.01405046,-0.026295498,0.10390027,0.03281772,-0.046439108,-0.047241047,-0.06359204,0.0028675501,-0.035996035,-0.111974396,-0.100487314,0.014770853,-0.03442576,-0.04004206,-0.012856556,-0.008892898,0.17222369,0.0066834996,0.030296907,0.021001168,-0.03470766,0.008422322,-0.006757569,-0.0119667845,0.009216238,-0.0031270054,-0.015179618,0.0025113404,0.00029254565,-0.00364417,0.0032217554,-0.04242282,-0.03689843,-0.053385086,0.084978595,-0.04891038,-0.061691925,0.14548162,-0.016151763,-0.019021304,-0.054008238,-0.047610354,-0.026246816,-0.019047905,-0.024676956,-0.043273702,0.022613173,-0.033615083,-0.02285604,-0.024111556,-0.026598003,-0.036355965,-0.080818936,-0.05619522,0.0033771829,-0.052752364,-0.04427912,-0.044338193,0.062528126,-0.046394706,-0.006131682,-0.029968407,-0.1390303,0.01846067,0.03490589,-0.05633228,-0.07657085,-0.029923491,-0.012635276,-0.02598574,0.06372553,-0.009725287,-0.00926237,-0.12477565,-0.023326732,-0.050986722,0.053313054,-0.09245482,-0.038698398,-0.010605868,-0.03299002,0.030741435,-0.028135384,-0.03457584,-0.08771464,-0.08296284,0.015681546,-0.07225925,-0.05485685,0.051440135,-0.032106508,0.046788923,-0.04977815,-0.013662444,-0.040053666,-0.033201855,0.09220034,-0.019911917,-0.06610412,0.093263105,-0.05945674,-0.14695172,0.092417866,-0.00934054,0.013105531,0.0019587725,-0.012904774,0.011775009,0.019374799,0.008632039,-0.009525903,-0.023109004,0.016610699,0.0145407785,-0.015486618,0.028051645,0.022143437,0.03342361,0.008246919,0.024571458,0.022807973,-0.0067730783,-0.016861666,-0.0010639988,-0.008371267,0.00501462,-0.009689673,0.009303819,-0.007981348,-0.028020598,0.03919394,-0.010999501,-0.09532564,-0.07022178,-0.04981841,-0.030117342,-0.04275335,0.024967087,-0.016532354,-0.10778223,-0.06720626,-0.012140714,-0.10682195,0.010320108,-0.08236114,-0.022745594,-0.056763224,0.0034746586,0.017583912,-0.010664559,0.0024102458,0.0046958365,-0.011117451,-0.045136567,0.0022518518,-0.024237096,-0.036885493,0.008902821,-0.046001546,0.18252744,-0.001841343,-0.005725942,-0.054163385,-0.09205375,0.03378641,-0.07896278,-0.021557502,-0.016448433,0.0056575607,-0.05031289,-0.023965325,-0.002000562,-0.04086561,-0.0071487585,0.031128593,-0.064672545,-0.07459313,0.11008238,0.01913718,-0.052503787,0.0309036,0.0800301,-0.0061120125,0.009227709,-0.0075065265,-0.021690529,0.007952904,-0.037086736,-0.021750672,-0.007500913,0.00948782,-0.0077357497,0.101124324,-0.042660236,-0.022398207,-0.03451869,-0.07339653,-0.05880976,-0.038695734,-0.010079694,-0.04100505,-0.048900846,0.0014047629,-0.0061118132,0.016775822,0.033035,-0.0013387217,-0.00032992274,0.006006365,-0.0035252583,0.0038287127
8.620311e-33,-8.3470266e-27,-1.1525801e-25,-2.7197294e-28,-5.245112e-25,3.077846e-39,-8.745287e-25,-2.0232314e-20,6.429045e-39,1.2050039e-23,5.123533e-25,1.6672822e-24,8.082543e-19,5.8336716e-19,1.9442675e-22,7.0500924e-19,-2.6182973e-27,1.0610344e-20,-2.1012014e-16,1.6350022e-22,7.6011823e-28,4.9540865e-15,1.3353823e-27,4.033238e-39,3.5014564e-33,-1.1694184e-23,-4.4936377e-30,2.642497e-39,1.198849e-39,-5.51206e-40,6.074939e-39,-3.28045e-40,1.435543e-39,1.508614e-39,2.311375e-39,-1.30932e-40,-1.512465e-07,-1.335948e-07,-9.656875e-08,-8.060755e-08,-1.946441e-07,-2.215239e-07,-3.1645584e-08,-1.7744397e-07,-2.5795285e-07,-2.508895e-39,-4.290337e-39,3.216668e-39,-3.752974e-39,4.916945e-39,3.39608e-39,1.34554e-39,-3.474409e-39,-1.849813e-39,-2.120404e-33,4.9117247e-29,3.3756773e-37,4.770138e-39,-4.5187136e-28,4.7382097e-30,-1.1083815e-36,-1.2791686e-31,1.9082711e-28,-4.2093266e-13,-5.693964e-14,-1.6565608e-14,-1.0130244e-13,-8.980109e-13,-1.0080307e-13,-9.511259e-15,-7.252018e-13,-4.1798485e-13,4.9370876e-23,8.195e-16,3.677658e-22,2.0642385e-23,8.279807e-14,1.0895698e-31,-2.4539966e-27,-5.5687893e-15,3.4346988e-34,3.8372467e-28,6.2156703e-25,-1.2223348e-22,5.6335084e-26,5.762993e-24,1.0755964e-24,-2.3547549e-28,-2.163375e-25,-5.590974e-24,9.92053e-40,-1.017727e-39,-1.035826e-39,6.80765e-40,1.629853e-39,8.23396e-40,1.626863e-39,2.87826e-39,3.548794e-39,5.9625987e-25,5.840368e-29,-6.58655e-20,4.9962086e-26,-7.97751e-20,-4.8985138e-23,-1.0376967e-20,-4.449596e-22,-6.5975675e-23,5.424016e-39,-4.986576e-33,-5.19381e-39,2.9373252e-24,-5.0117624e-33,-1.958542e-39,1.91293e-40,-3.3124698e-26,-5.497451e-39,-2.7440163e-19,6.724248e-20,-8.308464e-20,-4.2742857e-17,-9.984692e-16,-5.0689316e-16,-3.463868e-18,-1.9904974e-15,-9.852968e-15,2.193029e-39,-7.05698e-40,-9.06915e-40,1.375344e-39,5.675329e-39,-3.606e-40,-1.434295e-39,-4.41852e-39,-1.948259e-39,-1.2322e-41,-4.190875e-36,-2.3685114e-34,9.883313e-38,1.11695054e-32,1.9142192e-29,-2.0300884e-29,1.3288445e-34,-2.26422e-40,-2.500413e-39,-2.910999e-39,-2.340537e-39,3.214716e-31,-5.7523e-39,4.203282e-39,6.102616e-39,-3.651697e-39,-1.87768e-39,6.169248e-12,-1.3771928e-11,-1.1736174e-12,1.5533017e-10,1.2526278e-11,-3.3557095e-11,8.778099e-12,-8.818387e-11,-3.4302136e-10,-3.822882e-39,-8.856989e-34,-4.5787096e-33,1.254225e-39,8.835057e-29,1.0972146e-24,9.789691e-29,3.6183176e-25,1.7736256e-30,8.000576e-31,1.943156e-28,5.870917e-22,-2.474147e-39,7.3325126e-30,1.1006555e-22,6.431168e-39,1.8315605e-33,-1.6453242e-35,-3.017513e-39,-1.6255323e-37,3.479721e-39,8.098937e-30,-7.289907e-27,2.5179155e-31,1.8943791e-25,3.7269494e-30,-4.5777348e-27,-2.2867501e-33,-3.143894e-39,-2.709071e-39,-8.149089e-39,3.8570742e-37,3.5566153e-28,1.809044e-27,2.4693181e-26,1.4110536e-38,4.1504264e-27,1.60790585e-27,1.3947689e-23,2.129308e-23,3.475643e-23,8.859382e-20,3.3475508e-23,9.183315e-24,1.4289524e-20,1.4107595e-38,-1.437663e-37,-2.5470822e-20,5.8055256e-29,2.5679976e-27,-2.4387069e-16,4.4533317e-31,-8.636457e-28,-6.461968e-20,1.2969892e-33,-6.732334e-39,-2.560734e-39,-3.2353824e-34,4.47762e-39,-4.702206e-39,-3.4138122e-32,4.51943e-39,-1.778626e-39,1.050402e-39,-3.102081e-39,-7.206001e-39,3.270771e-39,6.691105e-39,3.07882e-39,-1.902859e-33,2.317385e-39,-4.32873e-39,-8.877304e-39,-9.459096e-34,-2.312313e-39,1.4119919e-25,3.3917017e-27,3.914645e-30,6.9348705e-23,1.770118e-27,-7.3979855e-33,5.2074617e-24,2.8407115e-08,4.3885044e-19,1.0424371e-17,6.196094e-08,1.92833e-19,2.6209347e-23,1.3783661e-08,6.952088e-19,-3.446262e-19,1.5079035e-19,1.4351795e-23,5.457752e-16,7.3262237e-29,3.5483575e-24,-1.0710678e-15,6.427631e-22,8.6687555e-26,-2.8449248e-14,4.1148942e-14,4.3527588e-16,-1.3401328e-12,-9.313121e-13,1.0899415e-14,-1.071815e-13,-6.0152843e-13,-1.8331013e-13,-2.8467131e-11,7.657003e-19,7.263042e-20,-2.3669232e-16,-1.0885538e-19,-8.897838e-19,-7.2240413e-19,-4.0591268e-20,-2.0816506e-23,-9.960715e-17,4.634257e-24,1.3473398e-19,-4.3295856e-19,1.5917975e-18,4.3357352e-19,1.0875808e-22,9.209589e-18,1.5199653e-19,-2.105633e-20,1.8502588e-19,7.238551e-21,-2.1704274e-20,-7.3470994e-19,-9.7264847e-20,-6.5780034e-19,2.9043575e-19,-9.05206e-19,7.99726e-37,-1.4388007e-33,-4.3892265e-23,9.85297e-38,-3.539112e-39,-2.763009e-39,-6.0633124e-36,1.411574e-39,-1.76321e-39,1.5201103e-26,3.9641856e-22,5.7493186e-37,8.718264e-25,-2.174888e-38,-8.3437535e-36,2.9224528e-36,-4.144577e-33,6.385187e-39,1.1576739e-24,1.8864702e-22,2.5736742e-19,2.5330342e-18,3.9165763e-12,3.2232817e-18,9.906138e-19,9.172663e-25,1.7339562e-14,-4.9013347e-21,2.115868e-26,4.1098337e-25,3.5076833e-20,1.0935263e-28,-8.9455176e-20,-1.7875091e-24,1.9098388e-25,2.6444151e-23,-2.959778e-39,-4.507176e-39,-3.002662e-39,-6.64278e-39,-3.139941e-39,-2.877921e-39,-1.928992e-39,4.413884e-39,-1.85216e-39,3.355529e-11,3.5476835e-10,-5.5876625e-13,6.800045e-12,3.3837527e-10,1.0710895e-10,1.1493702e-10,9.592477e-10,1.642159e-10,-1.6270804e-19,5.512146e-29,-2.3865248e-33,1.3433353e-18,-3.4796076e-31,8.211144e-39,-6.9963185e-29,-1.6505161e-29,2.424552e-39,1.1568792e-18,1.3862859e-21,-2.756805e-39,-2.1544033e-34,5.0301313e-28,9.064601e-28,-1.3849669e-34,8.76509e-37,1.8113142e-36,-2.4519352e-21,-2.284486e-18,3.7634185e-20,9.333631e-27,-1.2209019e-20,8.022597e-18,-2.865326e-23,-1.802516e-15,-1.4468483e-18,1.2656564e-21,-2.613754e-21,-7.5238645e-22,1.5960175e-17,-4.4914638e-18,-7.52166e-19,-3.2433757e-19,-2.545076e-17,3.5942126e-17,2.028587e-39,1.106293e-39,-2.134301e-39,1.05821e-39,6.685924e-39,2.377174e-39,2.132629e-39,1.418146e-39,-1.838848e-39,-1.842639e-39,1.4347629e-23,-2.618339e-39,1.7416715e-28,3.4310226e-27,1.0428427e-30,-1.034272e-32,4.6686297e-23,4.3411744e-36,-3.9581834e-33,2.6521818e-20,4.8195747e-32,3.5289756e-28,-1.1456739e-14,-3.80651e-27,-5.300975e-35,-2.5907782e-14,-3.3750702e-26,-1.7409641e-28,-4.0517425e-27,-1.1661416e-25,-3.2095563e-27,-8.189125e-22,-2.9671416e-22,-1.1201387e-23,-4.222546e-21,-4.9336907e-20,6.1510476e-23,2.298867e-25,2.6323745e-27,8.838361e-39,-1.6424098e-19,3.361018e-21,6.358753e-39,3.1439184e-16,2.4606432e-35,1.5045513e-36,3.5649836e-30,-6.123342e-39,7.853457e-25,2.9047662e-30,2.247152e-39,-5.081219e-26,1.0879562e-24,-4.077699e-39,-5.445418e-39,-2.4028518e-35,-2.698954e-39,-2.2531054e-37,-1.426378e-39,4.7768762e-24,-9.676881e-24,-9.416566e-36,1.0552699e-26,-5.434364e-39,-6.486927e-39,1.22423815e-33,1.4892701e-34,-7.517232e-34,-5.895145e-34,1.0834371e-27,7.997018e-30,-1.2425047e-24,-2.529232e-10,3.7636e-16,1.6993239e-19,-2.7031717e-09,4.3857483e-17,1.18468185e-20,-5.9620267e-13,-8.8784895e-20,-1.9353218e-23,-2.134273e-39,-2.14411e-39,-1.619006e-39,4.571e-41,-1.762993e-39,9.301088e-36,-2.45652e-40,-4.87444e-40,-2.499008e-39,1.755883e-39,2.468515e-39,-2.47734e-39,1.419384e-39,9.27313e-40,-6.909668e-39,-1.132106e-39,-2.048022e-39,-6.59838e-40,-1.636642e-39,6.604402e-39,-2.452375e-39,1.575357e-39,2.711211e-39,1.775732e-39,1.326225e-39,2.363197e-39,-3.001642e-39,4.651075e-25,3.6778722e-25,1.4070355e-38,-2.7018475e-36,-2.8516696e-21,3.0889653e-25,6.8461497e-35,4.467677e-31,-1.4036888e-36,-1.5562855e-34,-6.9305544e-15,4.0945802e-20,-6.086986e-19,6.089574e-16,1.5659725e-24,8.6603714e-24,1.8954817e-31,5.431646e-24,5.4760993e-36,-1.3188147e-21,-5.11403e-39,1.0482619e-26,4.576087e-39,-4.112319e-39,-8.5177e-41,1.489992e-39,1.766391e-36,1.6788789e-31,-2.8344412e-35,2.791827e-33,7.533863e-27,3.348815e-27,-8.85364e-29,-2.941888e-30,2.9566347e-29,-1.0635038e-26,1.5132994e-27,4.2416717e-37,8.303369e-28,-4.18994e-39,2.257403e-19,6.6023585e-21,-2.102142e-39,-9.809092e-39,-3.1086655e-34,4.725856e-20,1.3593093e-19,1.0956247e-26,-4.7113626e-13,3.8644442e-15,4.430337e-25,4.2704176e-14,5.2044128e-18,4.371321e-28,1.423194e-39,3.998437e-39,-6.0445853e-32,-7.6253975e-28,4.1176924e-30,-2.5544724e-27,-4.6505712e-30,-1.4914339e-25,-1.928795e-25,-3.923439e-27,-1.22306275e-30,3.537727e-33,-3.1431226e-24,-6.88774e-27,-1.24973774e-23,-9.720727e-26,-1.05872896e-23,-2.1189271e-24,-1.699108e-39,-3.771076e-39,6.874005e-39,-1.397907e-39,-1.180106e-39,-4.19931e-39,-3.4652e-40,1.582734e-39,-2.921245e-39
3.6619186e-17,1.1781838e-13,-1.5512582e-09,6.13732e-13,3.9901294e-12,1.7670278e-14,6.3363845e-15,6.988864e-13,1.7707034e-14,-5.598073e-13,4.750802e-13,3.7961596e-12,-1.3784067e-13,-4.237238e-15,2.184051e-13,-1.1305323e-14,-1.6659821e-11,-1.9615113e-14,1.4989135e-17,-3.2267447e-08,2.6594092e-17,2.054356e-12,-2.0508427e-08,9.416557e-26,5.171338e-21,-1.0512773e-17,-1.3830063e-10,9.705055e-27,-6.763105e-22,6.5071476e-21,-1.9957718e-22,-2.7201976e-16,-9.737394e-16,-2.3654646e-23,-3.7320686e-19,-8.746381e-19,3.173144e-07,7.7696757e-07,1.9886097e-06,-2.3495966e-06,1.4326074e-06,1.5793563e-06,-8.7319595e-06,-4.440113e-06,-1.4629394e-08,-3.475483e-36,-6.727924e-39,2.412949e-39,4.568165e-31,-3.765985e-21,-6.3413503e-34,-3.9016704e-21,-7.673001e-29,-5.002885e-29,-1.8407345e-15,-2.6828608e-19,-1.1693629e-19,-2.6070182e-28,1.565626e-39,-7.93679e-15,-3.444491e-39,2.2388156e-36,3.096379e-36,-1.1904021e-20,-2.1034379e-17,-2.4942942e-17,8.050391e-21,8.3089353e-16,8.517128e-15,8.407749e-14,2.2633083e-14,7.32573e-12,2.1321897e-13,-8.259285e-11,6.01251e-11,2.9970553e-12,-6.510155e-07,-6.473438e-11,2.518055e-13,-1.5071338e-11,-9.531621e-14,9.615593e-14,9.7184224e-14,2.8401276e-11,-1.23009675e-11,-5.396223e-13,-7.529888e-11,-3.5731183e-15,-7.5684787e-13,-2.8174376e-13,-3.382142e-39,-5.683643e-39,-4.0157263e-36,2.841189e-39,-6.87729e-39,-1.35340105e-36,-1.557026e-39,4.602723e-38,-1.4682724e-38,-6.690982e-10,-1.7481764e-08,2.9947849e-09,-1.1580685e-08,-1.287404e-07,-1.6878303e-07,1.8258909e-09,-1.5041019e-08,-8.606305e-08,-4.3589534e-37,-1.3563913e-13,-5.447615e-19,1.290112e-19,-7.982748e-11,-1.4569663e-17,-7.29782e-21,3.2231145e-15,-7.6757665e-14,-9.228704e-12,-1.5102771e-12,3.2591887e-13,-2.5002809e-11,-1.4722879e-12,-1.588714e-09,-1.7736043e-13,-2.6965847e-09,-1.0812425e-09,-5.777299e-39,-1.32213e-40,-7.186155e-31,-6.656755e-39,-7.028984e-37,3.7945468e-31,4.936287e-39,2.1057274e-32,1.07808616e-35,8.249086e-22,-3.2841516e-16,-4.5318595e-23,8.6490714e-16,2.819733e-20,-1.5567338e-21,8.463303e-16,8.5787555e-16,1.1479663e-17,3.899104e-36,-3.1452883e-15,9.902615e-24,-1.162732e-18,-9.992326e-22,-4.499656e-25,-6.82514e-27,-6.43409e-25,-4.047795e-23,2.961519e-10,4.7551328e-08,1.7327594e-08,-2.1921597e-08,-4.1580666e-08,1.2866792e-10,-2.6196742e-10,-2.6584573e-10,-6.097219e-09,-2.5734982e-17,-1.139973e-12,7.6099527e-13,-5.1563212e-14,8.513781e-18,-8.047479e-14,1.667895e-14,9.247917e-14,1.2381474e-14,6.7712465e-16,-1.4643362e-14,-1.404177e-12,1.0566412e-18,-5.058853e-15,4.455995e-12,3.4267788e-26,-1.6299381e-18,3.1213728e-20,3.9154845e-21,-5.395771e-22,2.671094e-16,6.777478e-18,-1.9499361e-20,1.8855642e-17,6.110737e-16,5.715655e-16,2.0921756e-13,2.8479493e-27,-5.1217385e-13,-3.7025994e-21,2.4357958e-27,9.603632e-14,2.5244785e-17,2.1143557e-20,9.095014e-16,8.6917375e-16,-1.0502162e-17,-3.6311417e-15,-1.5733867e-10,-5.881583e-15,-4.1849098e-09,-1.6672458e-13,-5.120508e-13,-1.6460132e-17,-1.1058828e-17,-1.7890057e-17,-7.161475e-18,-6.808135e-21,6.3022057e-16,7.547858e-16,-2.0117332e-17,2.1507518e-15,2.7214569e-14,-5.5042684e-16,1.3427572e-30,-1.8036193e-22,-7.000763e-24,-5.321046e-19,3.903925e-24,7.0728443e-32,3.1279016e-23,3.7988435e-19,2.8477632e-26,-1.8061637e-20,-2.7156535e-24,-1.473768e-13,9.407111e-22,1.485026e-14,7.4761836e-21,7.422251e-18,1.9422198e-20,2.3959321e-35,-6.9663954e-15,-1.4651192e-22,-4.629565e-10,4.342888e-22,-3.5940464e-10,-4.0151886e-14,-1.0274064e-12,-4.996183e-14,-2.8266665e-15,-6.348966e-19,-1.597127e-07,-8.047057e-08,-1.9648488e-14,-8.706883e-09,-6.610877e-09,1.3006629e-16,-4.9643536e-13,-3.6198297e-10,-7.683798e-12,1.3172804e-12,-3.0433606e-14,-4.508251e-07,4.3704437e-12,-2.8453356e-10,-2.3769491e-12,-2.6472832e-10,2.5744172e-13,1.3353963e-21,2.8678732e-22,9.549032e-21,9.6798995e-20,9.821012e-21,1.10167084e-16,5.672023e-23,-1.2040098e-20,-4.0562809e-22,-4.745637e-13,-6.549962e-08,-3.0279165e-07,7.3078266e-11,-1.391108e-10,-1.5548867e-14,5.6925786e-13,2.6695268e-14,-1.5848631e-10,-4.4245974e-10,-9.383918e-09,-7.2397106e-12,-1.5583435e-10,-6.036706e-10,-6.817268e-11,-3.2102766e-13,-1.8009906e-13,-4.4513904e-09,2.9883362e-32,8.274605e-21,8.0467474e-16,1.1344337e-18,-9.2448924e-20,2.2615929e-20,1.4734543e-26,-1.216948e-21,9.1805377e-26,2.2665326e-14,-5.362944e-15,1.5436943e-12,-9.942725e-15,6.0907373e-12,-1.2978159e-12,7.719524e-19,-4.8208386e-14,-3.4303393e-22,-1.6779913e-17,-1.3833888e-11,-1.2684628e-16,-1.916436e-12,-2.0588181e-13,-8.524883e-15,7.756856e-21,1.6851323e-19,-1.4003797e-16,-1.2426131e-10,2.0493773e-11,-1.5873225e-06,1.06582815e-11,2.2378047e-13,-1.0769442e-06,-5.1258e-10,3.693404e-13,-7.012588e-10,2.1283497e-16,-3.8677785e-09,-6.237531e-14,1.154878e-12,3.662184e-15,-8.9184616e-15,1.6670008e-19,1.6893294e-16,-2.2393775e-12,-2.6201876e-33,2.7930034e-33,-7.1170977e-25,1.46648e-39,-2.4720082e-38,1.9634399e-31,-4.18229e-40,1.03688314e-32,-1.0397964e-34,1.043836e-20,-2.2782443e-13,7.8060845e-15,7.453892e-16,8.357859e-16,3.0281062e-13,4.2481366e-15,-4.5783185e-15,1.262631e-19,2.0287185e-24,-3.5910983e-10,7.0393e-20,2.5639884e-15,-1.9134882e-13,2.3464418e-23,5.0723067e-20,-3.2393805e-15,-8.283464e-17,-1.1976037e-11,-3.8541423e-09,4.4097693e-17,-8.866386e-10,-1.6268311e-11,-4.7802677e-09,-4.7326113e-13,-1.7160005e-16,-2.559682e-16,6.3665484e-16,1.2989887e-13,-1.1844787e-13,1.2464065e-12,1.1898625e-14,-2.401351e-11,2.60858e-17,2.3057145e-13,-8.066375e-15,-9.974847e-11,-7.3660034e-10,-1.554231e-08,-8.481137e-10,-1.2746402e-07,-1.3124295e-09,-3.0986955e-09,-7.1485495e-10,-4.7159616e-11,-3.47117e-40,5.2043714e-36,5.2228413e-28,-1.302712e-39,4.6001835e-37,-3.245875e-29,-2.798408e-39,3.146485e-39,-1.78247e-34,-2.162144e-21,-2.3451456e-22,-3.6743062e-20,-1.5782748e-15,-1.4995833e-22,2.2003191e-16,5.735732e-20,5.541369e-15,4.3626214e-17,-1.1527203e-31,-5.7076945e-16,2.082657e-16,4.453115e-21,-2.0211817e-14,-4.435904e-12,2.2712633e-21,-3.1508713e-15,-5.930825e-14,-1.4048398e-11,-1.9467894e-10,4.482277e-12,-2.7991793e-12,-9.157068e-12,-5.024349e-13,-5.161977e-20,-5.7136574e-18,-1.4368598e-18,-2.6524178e-16,-2.9872554e-12,2.4784936e-15,4.623921e-18,-1.0955555e-14,-2.819171e-08,2.2137857e-16,-7.328604e-10,3.064336e-13,8.431557e-10,1.2190005e-08,2.5146165e-14,-6.7167005e-10,-1.4872476e-12,-7.8486645e-16,-1.7039707e-15,-2.2394735e-11,-9.371974e-20,-4.303883e-15,-3.237758e-10,-9.383622e-23,-1.0794003e-11,-2.9853629e-18,-8.5385814e-08,4.7672044e-18,-3.5792533e-13,-3.619832e-15,-8.2302603e-22,1.4896049e-25,-3.0589867e-16,4.286041e-20,-1.5658886e-14,-4.707073e-14,2.0063777e-15,1.1713549e-20,-1.4200936e-15,-3.835528e-15,-1.07450235e-08,-2.181113e-11,3.0830938e-10,8.267963e-10,1.820571e-11,3.4854739e-10,1.5881065e-10,9.435499e-19,-2.0099291e-17,-1.4353693e-17,-3.475367e-18,-1.2649881e-13,-1.0950234e-13,-1.3857169e-13,-7.945705e-12,-1.665696e-11,-3.254928e-12,-2.9060531e-31,3.6140822e-29,1.999389e-27,1.508174e-38,4.8219924e-23,1.2060491e-27,-1.755618e-36,2.3519526e-29,-8.634666e-37,-7.474593e-36,8.2314e-40,1.768735e-16,-5.837686e-39,1.9222101e-25,7.2225645e-26,9.3522245e-38,3.673245e-34,9.566878e-38,5.890307e-14,-1.7097138e-07,1.6823091e-13,-4.982184e-16,2.356282e-13,-4.923662e-09,9.83732e-12,9.886719e-12,1.6030326e-14,-1.418494e-13,3.1292444e-17,-1.6871763e-06,7.242821e-18,-1.7628408e-12,-5.4021165e-09,-3.77212e-12,-2.5241887e-14,-5.8430914e-14,-1.695375e-39,6.350427e-16,3.0068345e-24,1.0918338e-37,2.6790644e-35,3.327022e-34,5.057158e-35,3.0788857e-25,1.4891338e-26,6.218333e-15,-1.9676243e-14,9.283816e-20,1.636405e-12,-3.884874e-14,3.4062088e-16,1.011091e-15,-3.7112598e-19,6.1406e-14,1.930501e-22,-2.1020884e-22,8.0093934e-20,-5.5352615e-23,2.6576196e-19,9.736711e-16,6.857166e-21,3.760326e-20,1.399505e-22,9.360724e-30,-4.7526354e-12,-7.88338e-17,1.5482269e-13,-1.00946135e-11,6.1948745e-20,-7.2409656e-12,1.2104226e-12,-1.173198e-16,3.2838742e-18,1.0148858e-15,1.0192816e-20,1.2527221e-19,1.7712404e-14,1.1250766e-14,1.3116716e-13,1.0362868e-11,7.7798214e-14,-9.111949e-12,-1.7359976e-11,-2.5828328e-12,-2.7427155e-13,-4.578115e-13,-1.3918141e-14,-2.3288194e-20,-2.0185384e-18,-3.6757544e-19,1.787304e-39,4.964168e-39,-3.095945e-39,6.1992e-41,-3.036794e-28,1.011495e-39,1.488469e-39,-2.282526e-39,-9.31634e-40
