-0.030473799,-0.009220438,0.015896555,-0.027935158,0.01321978,0.044238612,0.014162901,0.011736101,0.030169271,-0.055427585,-0.009056232,-0.011640027,-0.00670485,-0.044583086,-0.050425667,0.018245585,-0.011579878,0.02346254,0.024814371,-0.0035059813,0.059765838,0.041910872,0.06465611,-0.014354227,-0.03138537,-0.006072579,0.011421884,-0.0004161345,-0.016477158,-0.045486353,-0.010237908,0.029030645,-0.043953594,-0.045274783,0.038038563,-0.019834014,0.0006474813,0.02044939,0.0031846298,0.04748966,-0.024904324,0.05442391,-0.032705143,0.032236215,-0.059807796,-0.02055662,0.024452057,-0.009991347,-0.047389794,-0.010164157,0.048919585,-0.023798628,0.042377,-0.008592579,-0.06624086,-0.0034143142,-0.017326906,-0.04245094,-0.016986461,0.06973061,-0.0016939539,0.04194562,-0.010676594,0.069342844,-0.010973686,0.059124738,-0.013462095,0.0038355095,0.022307372,0.011311725,-0.016347898,0.037352946,-0.0001461221,0.0005300257,0.030224126,-0.015958345,-0.030990174,-0.0032034626,0.042196117,-0.03078492,0.013686758,-0.036758166,0.0312813,-0.016802737,-0.062455732,0.045713104,-0.012851863,-0.014320886,-0.025656736,-0.010558676,-0.012712173,-0.021384655,-0.011972371,0.053558454,-0.04671323,0.025943056,0.008818844,0.012853333,0.0047283536,0.031595968,-0.054463156,-0.06415048,0.0011851494,0.0033988743,0.045969814,-0.01516125,0.015755765,-0.01648853,0.03501428,-0.0391677,0.021620883,0.015449606,-0.0028475043,-0.048152417,-0.060438447,-0.019806439,0.02855809,0.035512816,-0.01869055,0.030164933,-0.00575071,-0.05514593,0.016108384,0.0013778834,-0.025073575,0.03082695,0.017028175,0.00027852366,-0.00010384977,-0.05708501,0.010546041,0.034601416,-0.012980702,0.05678273,0.06908051,-0.034261893,-0.0067229033,-0.037912764,-0.01617799,-0.017818525,-0.05647317,-0.03445041,-0.047556538,-0.016335437,0.0048482055,-0.026177965,-0.04071613,0.055768218,-0.012207068,-0.036529604,-0.012643942,0.008533165,-0.06032432,0.010886925,0.022865735,0.017990403,-0.017961271,0.022159927,-0.044386342,-0.04381364,-0.044621944,-0.049201936,-0.045326862,-0.0050656158,-0.030226413,-0.00930504,-0.02126833,0.04106794,0.013124606,-0.047688477,0.021702912,-0.056053665,-0.009250078,-0.021246284,-0.0072595836,0.05066353,-0.04314342,0.027581368,-0.013866757,-0.052431267,-0.055967163,-0.046993915,0.04610984,-0.047866873,-0.017689442,-0.059587922,-0.01778692,-0.043457758,-0.012830141,-0.029161396,-0.07094483,-0.019253857,0.0011232197,-0.03173243,0.0056440025,0.0072418517,-0.019924946,0.008100006,0.049485907,0.032483585,0.00081395457,-0.020705683,0.0068168496,-0.02325344,-0.058362875,-0.018556606,-0.0127049005,0.006646543,0.009359198,-0.053003732,-0.026238771,0.030464927,-0.04066761,0.0145444395,0.04660568,-0.041586526,-0.0103121735,-0.0006636159,-0.04916556,0.005043888,0.012629458,-0.0056158365,-0.044791274,-0.020227943,-0.012468891,0.015825126,-0.026992345,0.05004871,0.011908437,0.020181937,0.031331927,0.03890332,-0.008909545,-0.021516776,-0.008885622,0.030374058,0.013170794,-0.056933254,-0.03880902,-0.0029105498,0.013175603,-0.0018684479,0.031422865,-0.002981974,0.0034424516,0.010531601,-0.01048658,-0.013325198,-0.00079149543,0.023756066,0.009931043,0.012989523,-0.0054780114,-0.022215385,-0.04774086,0.025032375,0.009179515,0.017268712,0.04791724,-0.037350267,0.071709976,0.0065725627,0.03444285,-0.06720007,-0.033791978,-0.0072001223,-0.059448685,0.055225678,-0.058286622,0.04002178,0.0010099532,-0.06344475,-0.02620962,0.0055528507,0.059505276,-0.051812693,0.03763691,0.039544944,-0.032947313,0.035559136,-0.004713873,0.007569562,0.0011734227,0.0153393075,-0.036785327,-0.0073088286,0.0029483396,0.0048512197,-0.0041550007,0.034513008,-0.050706126,-0.04899848,-0.015731031,-0.043745864,-0.016422372,-0.04627803,-0.053758316,0.011438983,-0.041419502,0.033981204,-0.01138403,0.013452449,0.017050276,0.05191882,0.04901343,0.02043963,0.021891464,-0.012134147,0.0060717654,-0.024531493,-0.03098902,0.027860666,0.018410185,0.03933933,0.009923338,-0.050836924,-0.032204464,-0.0029607564,-0.056202777,-0.0010796682,-0.05256517,-0.0028545058,-0.02570468,-0.052676704,-0.04749104,-0.033518717,0.027464122,-0.03720488,-0.00938343,0.030991599,-0.014813766,-0.03989172,0.053882472,0.0037805059,-0.02699605,0.03275237,0.058982596,0.0238015,-0.021816019,-0.029881796,-0.028801477,-0.022919891,-0.03357701,0.0153761115,0.019063998,-0.012839335,0.013563556,-0.048651442,0.013531785,-0.057360113,-0.032882728,-0.046135776,0.010120661,0.021976303,0.02670353,-0.04073655,-0.009940467,0.05385604,0.005050633,0.03989739,-0.017927757,-0.050522447,0.02090118,0.011413846,-0.000178867,0.013839136,-0.011480288,0.020391097,-0.023047494,0.0043915454,-0.0030235492,0.017815745,-0.005084919,-0.0074064624,-0.03895593,-0.020932246,-0.004870136,-0.00013284865,-0.05402276,-0.01413489,-0.045417614,-0.0466175,-0.031876657,-0.047776546,-0.009436819,-0.04380828,-0.05059213,-0.052658547,-0.0014507984,-0.044823132,-0.034989677,-0.030748745,-0.03572683,-0.039745476,0.020550229,-0.039150633,0.026858449,0.0061110808,0.060399834,-0.02454394,-0.045351658,-0.010937413,-0.015108606,0.018884083,-0.011921089,0.020871334,0.028648576,-0.003622489,0.023074808,0.04677214,-0.0077419044,-0.05264301,0.023650408,-0.025260132,-0.00019531233,0.02699432,0.06815403,0.0018356423,0.050454855,-0.0505804,-0.037675,-0.054711357,-0.020702053,-0.047914546,-0.04439155,-0.027389135,-0.005372818,-0.019857986,-0.009268439,-0.03457127,-0.040000122,-0.023635563,-0.027850522,-0.015135476,-0.015654242,-0.056001928,0.014260772,0.048835367,-0.013264112,0.0032057697,0.060795784,-0.0045035696,-0.043316137,-0.002241355,-0.035010207,-0.011619619,-0.038802363,0.040939406,-0.032850076,-0.05080203
